{"networks":[{"layers":[{"inputNeurons":0,"outputNeurons":10,"weights":[],"biases":[0.24595634925739857,-0.3793486994857395,0.45053968616388534,0.5113906099811656,0.5174443550335789,-0.3965023656300504,0.18118439805628292,-0.13174232855441304,0.09950215030550735,1.159058871200274]},{"inputNeurons":10,"outputNeurons":3,"weights":[[0.10684071555815496,-0.8707907159632451,-0.8383661876035772],[0.9454447549678048,2.020043061250201,-0.31398120210337666],[-1.2587438209472979,0.7919255481890181,0.016826666149313885],[-0.02910508781911178,-0.5078065176308191,0.15588831725004537],[0.6306139706255413,-0.8947598026992798,-0.7466504008860746],[-0.3353690686508882,-0.40758454061521754,-0.10431319422318533],[0.7039318072705405,1.601594664271491,0.6621954586624688],[0.714916156938232,-1.2703760266789679,1.1640251477653845],[0.5724622244008196,0.08349676979088104,0.8814397023436635],[-0.7945314864438288,-0.9340948483631223,0.8127717927013824]],"biases":[-0.09120785402247739,-0.9431643731766434,0.17687718077454861]},{"inputNeurons":3,"outputNeurons":1,"weights":[[0.9934155326323043],[1.7404180679879688],[-1.1096629178743338]],"biases":[-0.2343760956886069]}],"scores":{"1":2320,"2":3360,"3":3400,"4":3360,"5":2600,"6":3400,"7":4960,"8":1270,"9":3360,"10":2800,"11":3360,"12":2520,"13":2320,"14":3360,"15":3360,"16":3120,"17":3360,"18":1970,"19":3360,"20":3360,"21":2320,"22":2760,"23":2600,"24":3360,"25":2400}},{"layers":[{"inputNeurons":0,"outputNeurons":10,"weights":[],"biases":[0.5875709483260538,-0.4624987776626843,0.6170373837282314,0.5352791596312965,0.35739632664329896,-0.4764364015917609,0.31681858593512996,0.1702831585194982,-0.018541607445984543,0.6623074104110308]},{"inputNeurons":10,"outputNeurons":3,"weights":[[0.255834194295448,-1.267164821640223,-0.700677224155663],[0.7419725343112588,2.232669563170495,-0.07255992387769852],[-1.1073018597250317,0.6205626162218703,-0.017073227274563924],[-0.034926209034978006,-0.7656625735628442,0.06748264165465123],[0.7356584711319148,-1.048370586293048,-0.7051705284795069],[-0.635375348090761,-0.24054765149827217,-0.37884254887651736],[0.7949483424505854,1.8351147417627498,0.6558201978071729],[0.8704270130836527,-2.0285982707981,1.1993354631624973],[0.6479186350966116,0.09598118307080034,0.6308079096818008],[-0.955292976126294,-0.6649769564579743,1.6232780245484295]],"biases":[-0.2924037447429104,-1.5056744466417842,-0.26051801185581164]},{"inputNeurons":3,"outputNeurons":1,"weights":[[0.8712313853785655],[1.4991977061845838],[-1.3145624918860677]],"biases":[0.13838598269769536]}],"scores":{"1":3500,"2":2600,"3":3360,"4":3360,"5":2600,"6":3400,"7":2600,"8":3360,"9":3360,"10":3360,"11":3360,"12":2800,"13":2320,"14":3400,"15":3400,"16":3360,"17":3330,"18":2600,"19":3360,"20":2160,"21":3360,"22":1820,"23":2320,"24":2800,"25":2200}},{"layers":[{"inputNeurons":0,"outputNeurons":10,"weights":[],"biases":[0.5821918099786085,-0.3442641262725368,0.6497298603640789,0.37776925058964805,0.4680421812678608,-0.4199783433356271,0.23014031871782234,-0.01902632255613912,0.24425559127074642,0.5921718360794368]},{"inputNeurons":10,"outputNeurons":3,"weights":[[0.12027195830622045,-1.0675760410171145,-0.8217744522948887],[0.7369009555714969,1.999335230832879,-0.27995770332650777],[-1.3299453081177042,0.5131550354621143,-0.26231298332556163],[0.13869470345834561,-0.4413584378769525,0.07753432563809864],[0.7471080037445406,-1.1399453049157295,-0.5656762937521274],[-0.47798254107732485,-0.5264535142004603,-0.23032106552619047],[0.8374416864586364,1.6696675614861964,0.6669974941326071],[0.879185988120518,-1.6352732625600779,1.4107446595298478],[0.5956713477568921,0.18416474266008082,0.8090612571531433],[-0.8357218211805919,-0.6932324725791464,1.4683526030880425]],"biases":[-0.16357091755478848,-1.1561019234270113,-0.14397735908570397]},{"inputNeurons":3,"outputNeurons":1,"weights":[[1.0500021619081654],[1.507543090445405],[-1.2336096946029944]],"biases":[0.04963236107635155]}],"scores":{"1":2320,"2":2560,"3":3360,"4":3720,"5":3400,"6":3360,"7":2200,"8":2600,"9":1260,"10":2240,"11":3600,"12":2320,"13":1690,"14":3360,"15":3360,"16":1280,"17":3360,"18":3600,"19":2520,"20":3360,"21":4960,"22":1290,"23":2200,"24":3600,"25":2920}},{"layers":[{"inputNeurons":0,"outputNeurons":10,"weights":[],"biases":[0.5465267705506087,-0.5715250372862428,0.536274770747843,0.4453258759519948,0.3441661972975509,-0.5790237422933694,-0.08187798983943292,-0.06997831886940394,0.23347718493310904,0.38963548443941515]},{"inputNeurons":10,"outputNeurons":3,"weights":[[-0.09025888860669457,-0.9454028011478819,-0.49955133162898435],[0.7688250353202993,2.0144776528635107,-0.8255335664624266],[-1.2412925130169652,0.5542916061832036,-0.34460071082167704],[0.17289567852623067,-0.27575123587586003,-0.11652221978200905],[0.6092969452919313,-1.6102773840370972,-0.49283377482924556],[-0.23095774497396307,-0.2428420461597499,-0.285981694424537],[0.7762673585043242,1.4964439785139227,0.5566425589070165],[0.8193779821931417,-1.3038707131020404,1.678012172399756],[0.5727392321294915,-0.03433912913173809,0.4429750898332205],[-0.7195757975451464,-0.6648947751231123,1.441225652244571]],"biases":[-0.05983237265251892,-0.9811648319874857,-0.3358998991025661]},{"inputNeurons":3,"outputNeurons":1,"weights":[[1.0960878055134327],[1.603922749330782],[-1.5524876548442132]],"biases":[-0.2862999471154002]}],"scores":{"1":2620,"2":2320,"3":6620,"4":2320,"5":2320,"6":2320,"7":3920,"8":2520,"9":2720,"10":2520,"11":2690,"12":3120,"13":2520,"14":2210,"15":2520,"16":3820,"17":2320,"18":2590,"19":2320,"20":2320,"21":2520,"22":2320,"23":2520,"24":2320,"25":1300}},{"layers":[{"inputNeurons":0,"outputNeurons":10,"weights":[],"biases":[0.3420256521001681,-0.5608277416617315,0.4476503896107802,0.23879125370419396,0.14383866456812455,-0.20609032298029212,0.29462471209981794,-0.026296840940295732,-0.0901746681944007,1.0395466374876776]},{"inputNeurons":10,"outputNeurons":3,"weights":[[-0.11891090916451154,-0.7839600726104268,-1.0062352279859852],[0.8043161205865447,2.476829513297309,0.029275557327474],[-0.9094784254987682,0.7622324155112232,-0.0773488956013948],[0.03751207090093478,-0.2582967815830126,-0.202556548787598],[0.39818382451067247,-0.6967608028063227,-0.9998551723730067],[-0.3293126683987819,-0.23450538657053588,-0.0903243952885936],[1.0562458347268031,1.4320116675388892,0.6558256350377609],[0.9982644133598388,-1.0204845668517317,1.2675087049933436],[0.48668654914856746,0.1189022494383214,0.7224677101522834],[-0.6627959860613369,-1.1543106554193572,1.2036174319286412]],"biases":[-0.4220299142512946,-1.1679429052738812,0.3590638672370885]},{"inputNeurons":3,"outputNeurons":1,"weights":[[1.0219275001026134],[1.751561520304864],[-1.3494707465713884]],"biases":[-0.06265155716227938]}],"scores":{"1":2400,"2":2450,"3":3360,"4":2200,"5":3360,"6":5000,"7":2320,"8":1260,"9":1320,"10":3360,"11":3360,"12":2200,"13":2800,"14":3400,"15":1300,"16":3360,"17":4960,"18":1250,"19":2760,"20":1260,"21":2800,"22":2320,"23":2560,"24":3600,"25":2600}},{"layers":[{"inputNeurons":0,"outputNeurons":10,"weights":[],"biases":[0.21442556109489597,-0.27260873799174706,0.7800843122441474,0.6643186394538123,0.6095900473795021,-0.9044907308626468,0.23579283224937997,-0.4995319201387364,0.1358189923416082,0.7523226687641631]},{"inputNeurons":10,"outputNeurons":3,"weights":[[0.10026606255384898,-1.058782311704917,-0.851822065726056],[0.925263113678247,2.2729419786329355,-0.16234934983916338],[-1.4604477505289204,0.5755192007499232,-0.010866328020707305],[0.2695727196931631,-0.4800284707112568,0.25059128893657046],[1.071911214362164,-1.0689259704680483,-0.6600726890852793],[-0.4254285278848261,-0.4725906836488335,-0.053383759266132674],[1.0220893664435153,1.6080280498557995,0.6992278614408057],[0.794808463466009,-1.6735826965219414,1.3449578828532323],[0.5685765074840801,0.17174491912329842,0.7257448798326879],[-1.1350959093444917,-0.8397684777473815,1.457308606068341]],"biases":[-0.018441167330851355,-1.1950392769178872,-0.08363014811635178]},{"inputNeurons":3,"outputNeurons":1,"weights":[[0.9263595748465457],[1.2716916047245248],[-1.31368313451744]],"biases":[0.18430851640562676]}],"scores":{"1":3400,"2":1290,"3":3360,"4":3360,"5":2840,"6":3360,"7":3360,"8":2800,"9":1830,"10":2200,"11":2320,"12":2530,"13":5000,"14":2800,"15":3360,"16":2320,"17":1970,"18":3360,"19":3360,"20":2800,"21":1300,"22":3360,"23":1260,"24":1290,"25":2560}},{"layers":[{"inputNeurons":0,"outputNeurons":10,"weights":[],"biases":[0.5551327859577442,-0.6461903140765854,0.686294143156099,0.3365992520916391,0.518100339997615,-0.34588787624954564,-0.03242865929809105,0.2841962402017265,0.42645997096870253,0.34242029739726515]},{"inputNeurons":10,"outputNeurons":3,"weights":[[0.1261336812564917,-1.0714141383162092,-1.0491355153355326],[0.8437527907782991,1.956962953080275,-0.16146623517130493],[-1.3536609504056454,0.8695227996628564,-0.344266810168897],[-0.1133878066565191,-0.6837440268235393,-0.024876993960547045],[0.8233563704783197,-1.2902781142479245,-0.7149750729648412],[-0.5961443083128527,-0.4043885757744089,-0.37864831562561707],[1.1337148314929342,1.4977014208837391,0.611230364045257],[1.0362064766649803,-1.7613183793087217,1.102829780114844],[0.22578041648050384,0.041203496254406974,0.8879223723155666],[-0.7830078458277913,-0.5606434778682274,1.480320785323617]],"biases":[-0.2091300446518527,-0.788576321352593,-0.019371944449762535]},{"inputNeurons":3,"outputNeurons":1,"weights":[[0.8209653606877378],[1.4435362681045272],[-1.3751576746456646]],"biases":[0.2258519810546199]}],"scores":{"1":2320,"2":2320,"3":2920,"4":2320,"5":2320,"6":2720,"7":2320,"8":2320,"9":3120,"10":2480,"11":2520,"12":2320,"13":2220,"14":2320,"15":2320,"16":2320,"17":2870,"18":2520,"19":2720,"20":2520,"21":2320,"22":2520,"23":2320,"24":3490,"25":5320}},{"layers":[{"inputNeurons":0,"outputNeurons":10,"weights":[],"biases":[0.06231377110338379,-0.26941160239508705,0.4677382641994543,0.3982543507170603,0.280705169836645,-0.6085582013249113,-0.05176549256182153,-0.3988104024784626,-0.11709309384154287,1.20501504170925]},{"inputNeurons":10,"outputNeurons":3,"weights":[[-0.1813692082272398,-0.6042471240685579,-0.7664686508510808],[1.1493438983318898,1.7845860953882504,-0.2339119972085496],[-1.2115410599738063,0.658958239752797,0.024499073357746783],[0.0826925181049975,-0.5242838685015262,0.41138157526397384],[0.7984920645768503,-0.9060458222723704,-1.062651880410057],[-0.14628905943907566,-0.2101411381777497,0.18895079318218874],[1.0633778254391564,1.6013981651608362,0.6901595082644394],[0.40040111124693994,-1.1494386745887974,1.1111136167626312],[0.5613847359659039,0.09959691069967329,0.82766713002144],[-0.694405284626427,-0.7256373936134922,0.9033502993604694]],"biases":[-0.1308513477280936,-1.0440343049989835,0.03097683717252911]},{"inputNeurons":3,"outputNeurons":1,"weights":[[0.9504868804739179],[1.6073595098520421],[-1.0582275695143442]],"biases":[-0.4754140852335398]}],"scores":{"1":2800,"2":1270,"3":2320,"4":2280,"5":2600,"6":2160,"7":1290,"8":1950,"9":3360,"10":2600,"11":1320,"12":3400,"13":2600,"14":2760,"15":2000,"16":4960,"17":2520,"18":3360,"19":3360,"20":2600,"21":3360,"22":3360,"23":1310,"24":2800,"25":2720}},{"layers":[{"inputNeurons":0,"outputNeurons":10,"weights":[],"biases":[0.6549082497146246,0.08784267790654465,0.4378451344737355,0.45407505663079484,0.2456746374459432,-0.3624886277639632,0.13304626768336092,-5.000921793251942E-5,0.36152800529663054,0.5286496112417496]},{"inputNeurons":10,"outputNeurons":3,"weights":[[-0.004669657063375424,-0.9173425327705294,-0.9418639664420303],[0.9880993348066505,1.6609692236250064,-0.11190910241165583],[-1.4851429193680876,0.23939983629645895,-0.24927414404539244],[0.1896925662929486,-0.45498090530431706,0.19550293891019743],[0.8750989444310779,-1.0674984644119572,-0.41289945603270495],[-0.7965028591255162,-0.49013044051427507,-0.24852516580941117],[0.9523734839041262,1.7290473681876948,0.9013957162033964],[0.4782383637853595,-1.719393611247441,1.3789988940262765],[0.6433148523037051,0.2169712276442542,0.5943219946765769],[-1.008572544722624,-0.46697117716351455,1.4140267024574504]],"biases":[-0.08288407010632742,-0.8827317234697737,-0.37703639222900004]},{"inputNeurons":3,"outputNeurons":1,"weights":[[0.8204359080684323],[1.2265959400139783],[-1.5350568517262682]],"biases":[0.784763346008742]}],"scores":{"1":3360,"2":2520,"3":2200,"4":3400,"5":3360,"6":2600,"7":3400,"8":3360,"9":2150,"10":1320,"11":2320,"12":2170,"13":2600,"14":2200,"15":1250,"16":3360,"17":1300,"18":1880,"19":3400,"20":2220,"21":3400,"22":1260,"23":2800,"24":3360,"25":3400}},{"layers":[{"inputNeurons":0,"outputNeurons":10,"weights":[],"biases":[0.8459739158527381,-0.6999100414471154,0.9023684809335095,0.4288819104725409,0.37754123538561485,-0.4100180735073099,0.3737785147216694,0.08065353570908353,0.08479570397786584,1.0030420169954852]},{"inputNeurons":10,"outputNeurons":3,"weights":[[-0.03950513052812857,-1.2152043810858901,-1.3394826615776494],[0.5032280415284718,1.8462798178339659,-0.33666510443948433],[-0.911536994704004,0.5074862134675148,-0.10319202147725223],[0.061093796618161555,-0.5727528338651178,0.6733085548105049],[0.5720801293130381,-1.1494305468447723,-0.6532145475968112],[-0.3459045735936187,-0.9485917120667196,-0.33150989816214976],[0.7219192929154465,1.7868514784367777,0.42603931181106386],[0.6347662222196194,-1.2876923945440315,1.3448026620607356],[0.7295041861264209,-0.11836555571947621,1.02303770105941],[-0.9055886758842709,-0.27577906961927207,1.6939502947127747]],"biases":[0.001949938559165726,-0.7308228944211415,0.0622748735628923]},{"inputNeurons":3,"outputNeurons":1,"weights":[[1.1443545303439362],[1.619863216846802],[-1.5480399860727503]],"biases":[0.06397702101415292]}],"scores":{"1":2320,"2":3120,"3":2520,"4":2320,"5":2320,"6":5820,"7":2320,"8":2320,"9":2720,"10":2320,"11":2320,"12":2320,"13":2320,"14":2920,"15":2320,"16":2320,"17":2890,"18":2320,"19":2320,"20":2320,"21":2590,"22":2320,"23":2320,"24":2320,"25":2320}},{"layers":[{"inputNeurons":0,"outputNeurons":10,"weights":[],"biases":[0.09013004108034908,-0.3921697210834663,0.5356425961903211,0.31204629395110783,0.4141415389740232,-0.5925674637289574,-0.14304316407681478,-0.3624353712181527,0.0653047308612302,1.0561326919473728]},{"inputNeurons":10,"outputNeurons":3,"weights":[[-0.12890051351552717,-0.6202280548290983,-0.9718111506130147],[1.0469952115598842,1.5680147734929148,-0.05904245993040502],[-1.478596571978871,0.6820940680178811,-0.12336016047076134],[0.40068363260650225,-0.39309789760697705,0.7282119788904065],[0.8374804456999108,-0.6230770576917991,-0.9150264209917517],[0.10579755660360785,-0.21772789587963562,0.18159867899574403],[1.2979003965912277,1.4472651916106585,0.4707452267725619],[0.5747932029041665,-1.0294630366670683,1.220411828298487],[0.5279286951437695,-0.12825223817736298,1.1427570678640442],[-0.7068149747684626,-0.8784339060584558,0.8396861831829961]],"biases":[-0.026361840470297326,-1.1520209600713733,-0.16518002136367613]},{"inputNeurons":3,"outputNeurons":1,"weights":[[0.9842258573535173],[1.6830988224660444],[-1.40790013567862]],"biases":[-0.3116145257855697]}],"scores":{"1":2500,"2":2520,"3":2320,"4":2320,"5":2320,"6":2320,"7":2320,"8":2500,"9":2320,"10":2320,"11":2320,"12":2320,"13":2320,"14":2810,"15":2320,"16":2320,"17":2320,"18":2320,"19":2520,"20":4250,"21":2320,"22":2240,"23":5120,"24":3500,"25":1300}},{"layers":[{"inputNeurons":0,"outputNeurons":10,"weights":[],"biases":[0.011775978803229253,-0.3389834671221689,0.8658401195447623,0.6175150193556405,0.4470792637968649,-0.5933763205548775,0.0464482581876159,0.15260310013561967,0.033232393188362686,1.057651709643559]},{"inputNeurons":10,"outputNeurons":3,"weights":[[-0.3288141612831178,-0.828308182163936,-1.0172625062879095],[1.5715499750251942,1.6756093273340924,-0.1906043735420392],[-1.2595749571932768,0.8307695837604064,-0.29830881801452097],[0.07162782692943286,-0.22969845897572821,0.653012201901122],[0.9773069986336691,-1.3145158153507484,-1.0205591288315043],[0.0131453727568836,-0.13943641411029384,0.00543811641234157],[1.0840780676529145,1.3969176806894252,0.5710461789554373],[0.2997023815227881,-1.234928477586797,1.1676312766248043],[0.22895558621343443,0.2331472509182576,0.6048498264983768],[-0.7281390385344799,-0.5937261370590802,0.5445499837588654]],"biases":[0.07199059891305407,-0.8881934342464302,0.05959125559226168]},{"inputNeurons":3,"outputNeurons":1,"weights":[[0.6400188018284667],[1.4868249962307376],[-1.1006944909670064]],"biases":[-0.33897461018326364]}],"scores":{"1":2320,"2":2320,"3":2320,"4":3600,"5":2320,"6":1300,"7":2320,"8":2320,"9":2210,"10":2320,"11":2520,"12":2520,"13":2320,"14":2320,"15":2210,"16":2720,"17":2320,"18":3520,"19":2520,"20":2320,"21":2320,"22":2320,"23":2320,"24":5830,"25":2320}},{"layers":[{"inputNeurons":0,"outputNeurons":10,"weights":[],"biases":[0.16372059175324472,0.20909897254044346,0.3974472074410181,0.5983751751520177,0.1782135374456218,-0.47024782942162335,0.15967910932386187,-0.39699805488036427,2.4060528011314586E-4,1.146749307450606]},{"inputNeurons":10,"outputNeurons":3,"weights":[[-0.02175760156220513,-0.655838445936361,-0.6494952115244814],[1.1498221895307932,1.6161245798365909,-0.2604609918238987],[-1.6613280445905356,0.7205256327801709,0.43633584866887826],[0.32453187853084475,-0.20094124327402868,0.45179850172066843],[0.7211169557293613,-0.9803369412956056,-1.315331566673563],[-0.14833346434502823,-0.14875858792690982,0.33953922779887],[1.2213715270257155,1.6900161028212835,0.7988933300406665],[0.7051888001112547,-1.239931720384109,1.160249516670832],[0.48921471623463586,-0.24129232202259487,1.1205134043445775],[-0.6504060249747745,-1.0084363278892723,0.7692267573585552]],"biases":[-0.37892506291390093,-1.264756654600931,-0.22062200090079817]},{"inputNeurons":3,"outputNeurons":1,"weights":[[1.038933470950372],[1.4257564994773833],[-0.9700188156928652]],"biases":[-0.3265001263162032]}],"scores":{"1":2320,"2":2320,"3":5920,"4":2320,"5":2520,"6":2320,"7":2320,"8":2520,"9":2320,"10":2200,"11":2320,"12":2320,"13":2320,"14":2320,"15":2320,"16":2320,"17":2520,"18":2320,"19":2320,"20":2400,"21":2520,"22":2320,"23":2320,"24":2320,"25":3520}},{"layers":[{"inputNeurons":0,"outputNeurons":10,"weights":[],"biases":[0.05498400181223012,-0.179705061563304,0.8357391494975839,0.13611657841953856,0.3004412756996969,-0.7983395545050929,0.13958603540786385,-0.22647668894476633,0.09938252569557224,1.4406026685475344]},{"inputNeurons":10,"outputNeurons":3,"weights":[[-0.4266216635400607,-0.6690515081106688,-0.6161716990755014],[1.1550509276873804,1.6794657337731764,-0.24462468738574683],[-0.8768469448301281,0.8108730538416262,0.0753238112917126],[0.28190048594399086,-0.6071207904707276,0.45149750019911844],[1.0789302886119572,-0.6659022419766989,-1.0146054643797053],[-0.4274147239265181,-0.37196249169104945,0.3964927673294151],[1.124846930869474,1.696670435525275,0.6299646164017942],[0.1184453821285581,-1.3051739176733224,1.1325312368365186],[0.5271823264778646,-0.5713303164062057,1.0086507376685911],[-0.612645275658396,-0.5084926432111176,0.9143287489944317]],"biases":[0.009870455163816932,-0.9986580250714878,-0.09681126820555036]},{"inputNeurons":3,"outputNeurons":1,"weights":[[1.1148757164583714],[1.2701659674896373],[-1.3615265711172402]],"biases":[-0.24954537498651783]}],"scores":{"1":2320,"2":2360,"3":2920,"4":2520,"5":2320,"6":2320,"7":3250,"8":2320,"9":2320,"10":2320,"11":2320,"12":2320,"13":2320,"14":2320,"15":2320,"16":2500,"17":2320,"18":2320,"19":3120,"20":2320,"21":3120,"22":2440,"23":3520,"24":2600,"25":2520}},{"layers":[{"inputNeurons":0,"outputNeurons":10,"weights":[],"biases":[0.23186494000845936,-0.043558849163390034,0.21038325331646518,0.35664933105577185,0.2679431348317864,-0.22280042516522636,0.15230668296867453,-0.5270445634694683,-0.23928453122586704,1.3103764328992842]},{"inputNeurons":10,"outputNeurons":3,"weights":[[-0.22762572402237322,-0.8608960590147643,-0.9626769845194585],[1.1261047874741514,1.4541325921408388,-0.18853865450106924],[-1.3710430757765666,0.49085940060609123,0.0560358525586888],[0.14079424704318394,-0.39425679776852557,0.6802173452648388],[0.7718603443848682,-0.8485156960691252,-1.0145673700133162],[-0.025547036260240907,-0.10756286572924653,-0.10336208083253282],[0.9925481484203194,1.5336094569173333,1.003535286567021],[0.3217467554779971,-1.1257328504749027,1.050680661927798],[0.17273627884344928,0.024094656691520222,0.7106587913561518],[-0.955730039785982,-0.49807540759396,0.32866991074249763]],"biases":[-0.32527405483815375,-0.8573357319112684,-0.29465570008116926]},{"inputNeurons":3,"outputNeurons":1,"weights":[[0.9075897989568545],[1.527391816292741],[-1.1042356908347943]],"biases":[-0.5308098569260928]}],"scores":{"1":2320,"2":2320,"3":2320,"4":2320,"5":2520,"6":2320,"7":2520,"8":2320,"9":2320,"10":2320,"11":2320,"12":2520,"13":2320,"14":2320,"15":2520,"16":2320,"17":5020,"18":2320,"19":2320,"20":2320,"21":4220,"22":2920,"23":2600,"24":1300,"25":2320}},{"layers":[{"inputNeurons":0,"outputNeurons":10,"weights":[],"biases":[0.02668877299760289,-0.18589346530420706,0.4156532814787316,0.39473328787063766,0.5329391645211906,-0.6115280047326981,-0.006032235242961509,0.018121816496425636,0.29884160543894733,1.1876962904160964]},{"inputNeurons":10,"outputNeurons":3,"weights":[[0.08321614681005411,-1.2518707734843477,-0.9677159709948513],[0.903744584444814,1.992602595041834,-0.5392475387014959],[-1.2278755286181855,0.7190837578465843,0.1562089396832296],[-0.38571607367468885,-0.5260347080064094,0.24686126139943143],[0.625306536570872,-0.9508291857832312,-0.9872489572802923],[-0.16699858481166546,-0.3908285131257864,-0.058994271107434465],[0.6155320443289827,1.5558117330831691,0.791055644254699],[0.5722622860297805,-1.5052194198473443,1.1896530014195243],[0.3498259844620586,0.12752476083013917,1.0213985413607702],[-0.754741154609493,-1.0619235661007838,0.6455939510240154]],"biases":[0.05598938168786227,-0.7581759972150245,0.2841720435442511]},{"inputNeurons":3,"outputNeurons":1,"weights":[[1.1466432203164392],[2.166645322351285],[-0.813124383865717]],"biases":[-0.18240910768978336]}],"scores":{"1":1280,"2":2800,"3":3120,"4":3400,"5":1290,"6":2560,"7":2600,"8":2320,"9":2600,"10":3360,"11":3360,"12":2160,"13":2600,"14":2320,"15":3360,"16":2560,"17":2360,"18":3360,"19":1400,"20":2800,"21":3360,"22":1690,"23":2400,"24":1780,"25":2050}},{"layers":[{"inputNeurons":0,"outputNeurons":10,"weights":[],"biases":[-0.1980708606255783,0.03785242634057168,0.34784341428330745,0.29517777454729366,-0.08304624233884317,-0.7778012403863264,-0.025621583285253,-0.19721590262858227,0.2779206548885741,1.2258216808263356]},{"inputNeurons":10,"outputNeurons":3,"weights":[[-0.2640729085818658,-0.7987156010495258,-0.9128606382818063],[1.0773784796673898,2.0049706020496894,0.0033704426709685043],[-1.1855339768857047,0.7669177557007862,-0.17441450517088894],[-0.18164927511726847,-0.07079562854003218,0.3734975546885912],[0.8578706697948753,-0.8041343172433333,-1.3175068323004997],[-0.06675592590361157,-0.4243897490102887,0.42015334242438995],[1.214158829777395,1.8501261828091258,0.8656082429265286],[0.407918939069536,-1.3716669706760338,0.9447270653370506],[0.74465649789554,-0.14245128960907627,0.7499491028343032],[-0.761390404125476,-0.6835005056086223,0.9561018713543514]],"biases":[0.14345491884955475,-1.1198519381136314,-0.21259688046555505]},{"inputNeurons":3,"outputNeurons":1,"weights":[[0.9302462733323319],[1.6653302373174848],[-1.067714734895501]],"biases":[-0.6348488516813464]}],"scores":{"1":3720,"2":2320,"3":2520,"4":2320,"5":2320,"6":2320,"7":2500,"8":2320,"9":3250,"10":2320,"11":2320,"12":2320,"13":2320,"14":2520,"15":3120,"16":2320,"17":2320,"18":2320,"19":2320,"20":2500,"21":2320,"22":2320,"23":2320,"24":2520,"25":2320}},{"layers":[{"inputNeurons":0,"outputNeurons":10,"weights":[],"biases":[0.1483443616403362,-0.0928626520746163,0.4445438046912363,0.04152060650775985,0.17295547672056716,-0.5796112363207689,-0.04615615402002751,-0.0020328957453343843,-0.31592238306056286,0.8379781779789268]},{"inputNeurons":10,"outputNeurons":3,"weights":[[-0.4148489320604902,-0.5063609616402271,-1.0916265986141016],[1.1789093404883262,1.903772682469672,-0.5530032304292488],[-1.262343206086296,0.4941720288390108,-0.34879449336203144],[0.07368244620382751,-0.8055414993984801,0.2551915221835769],[0.9927015205902455,-0.8664300839708486,-0.9284930606044667],[-0.1269778179872119,-0.22046479469044944,0.0424331425494866],[1.0103183864584433,1.3663735864474083,0.7698075822673063],[0.16957968733939083,-1.3391939464675442,1.5839214263568904],[0.5909684913410589,-0.1692911192989871,0.7124497288628286],[-0.6513443685413397,-0.7259954438095396,0.6647283206578238]],"biases":[0.22613985409302195,-1.2657778046433865,0.5858962665107592]},{"inputNeurons":3,"outputNeurons":1,"weights":[[0.952511618152455],[1.7011107868144446],[-0.8286724697963882]],"biases":[-0.70800367849448]}],"scores":{"1":2520,"2":2320,"3":2320,"4":3920,"5":2320,"6":2320,"7":2840,"8":2320,"9":2320,"10":2500,"11":3050,"12":2320,"13":2520,"14":2320,"15":2320,"16":2610,"17":2390,"18":2320,"19":2320,"20":2320,"21":2720,"22":2320,"23":2290,"24":2320,"25":2200}},{"layers":[{"inputNeurons":0,"outputNeurons":10,"weights":[],"biases":[0.2970449532638761,-0.4482044639051412,0.47326351362268987,0.607364380020742,0.15321406996987463,-0.626514268637752,0.42807179579611787,-0.09363248285895502,0.27577992658633954,0.15710695510537132]},{"inputNeurons":10,"outputNeurons":3,"weights":[[-0.09969621462842498,-0.9440293427885018,-0.9153999974579414],[0.9755916738820125,1.7751258463736372,-0.07649561666685539],[-1.5642231156109034,0.31989653308697386,-0.04048319764213529],[0.019026681217400795,-0.25975759717394187,0.020868978624880546],[0.7851412537762681,-1.0110277448210052,-0.4987231231096816],[-0.5982700579661925,-0.21016173052336895,-0.20809954688702995],[0.9565373372512322,1.7772480061802995,0.4539334708028917],[0.8983048635347621,-2.0002825641306026,1.4198924183670028],[0.336791904096257,0.2905007708225654,0.9001954315747894],[-0.6213667821813567,-0.6391617410564763,1.392025654389607]],"biases":[-0.13097143263526267,-0.8616471858085721,0.14005876863422073]},{"inputNeurons":3,"outputNeurons":1,"weights":[[0.7545577178724672],[1.7905786014281233],[-1.1066179213885732]],"biases":[0.24301582873773855]}],"scores":{"1":2320,"2":1970,"3":2800,"4":2320,"5":3400,"6":1340,"7":1980,"8":3360,"9":2200,"10":2320,"11":3400,"12":2270,"13":1300,"14":3200,"15":2320,"16":2090,"17":2600,"18":2800,"19":2600,"20":1970,"21":2800,"22":2320,"23":2560,"24":2200,"25":3400}},{"layers":[{"inputNeurons":0,"outputNeurons":10,"weights":[],"biases":[0.08450727584823195,-0.18574139401774648,0.5503929334842707,0.8361099920623533,-0.09508325024704312,-0.7020159190875613,-0.07199335764001098,-0.8494885686663468,-0.16547310852885055,1.254755150332952]},{"inputNeurons":10,"outputNeurons":3,"weights":[[-0.4264435999492947,-0.8917084639708651,-0.8578255132063493],[1.2993291266845957,1.9899807097025017,-0.2909027159163356],[-1.3430260142711203,0.6808518212188094,0.17412635245047958],[0.21884401869193648,-0.6566546504678181,0.2677838280881717],[0.7443250069053904,-0.7910500841728323,-0.9938282654959782],[-0.09965729689644702,-0.1736166246102063,0.06683433787844696],[0.9312172883733122,1.0448924597589133,0.8459402224986621],[0.20611142600470908,-1.1726837095312144,1.5476744187829476],[0.6382688069422744,-0.04546634485536212,1.0896019188105994],[-0.6458279161936259,-0.6665121198665872,1.1474827818445372]],"biases":[-0.27910934072165494,-1.2014002597746067,-0.4714706715884017]},{"inputNeurons":3,"outputNeurons":1,"weights":[[0.8343307774724226],[1.4824782303085169],[-0.8954516892639811]],"biases":[-0.5515921652769741]}],"scores":{"1":2320,"2":2320,"3":2320,"4":2320,"5":2320,"6":2320,"7":2520,"8":2320,"9":2320,"10":2320,"11":2320,"12":2320,"13":2320,"14":2560,"15":2320,"16":5450,"17":2320,"18":2320,"19":2320,"20":2320,"21":2320,"22":2500,"23":2390,"24":2320,"25":2320}},{"layers":[{"inputNeurons":0,"outputNeurons":10,"weights":[],"biases":[0.06942994118445765,-0.1731620074112994,0.4693159224976755,0.36853781925781887,0.2657871616724577,-0.6619682624898986,-0.03934523724623195,-0.28687291471137977,-0.21430604673459835,1.319874959459468]},{"inputNeurons":10,"outputNeurons":3,"weights":[[-0.6421066757760427,-0.7608794321954538,-0.7931370167243623],[1.1883050806721454,1.5151509507496956,-0.1671118447151974],[-1.1217696783935471,0.6445077022558318,0.003112070970628416],[0.12932980860850146,-0.7735726401849423,0.27237526186030986],[0.9545962146379872,-1.222995995307806,-1.1494886769402974],[-0.08551886855181476,-0.06900432898444511,0.4204985323950025],[0.9541046667549208,1.691857635024577,0.7170590927192781],[0.16513444865716362,-1.0330781010068681,0.843059458428963],[0.5688749454746121,-0.06968755524410873,0.9375169412509181],[-1.0369684997741022,-0.7894458122407366,1.2217325117664335]],"biases":[-0.10558639305631068,-0.9231876157644099,-0.14628661193910394]},{"inputNeurons":3,"outputNeurons":1,"weights":[[0.8601766596333383],[1.491298780465119],[-0.9921535789002891]],"biases":[-0.130785288706592]}],"scores":{"1":2320,"2":2520,"3":3120,"4":2520,"5":2320,"6":2920,"7":2320,"8":2320,"9":2190,"10":2520,"11":2320,"12":2320,"13":2320,"14":2720,"15":3020,"16":2520,"17":2320,"18":2320,"19":2320,"20":2520,"21":2320,"22":2320,"23":2320,"24":2320,"25":2320}},{"layers":[{"inputNeurons":0,"outputNeurons":10,"weights":[],"biases":[-0.06164687171670902,-0.12614097253135068,0.5454350524341802,0.13178062143012026,0.46252387798699335,-0.3641095558223596,0.22699977146111186,-0.5202754925365075,0.11710578957818935,1.2229986983121595]},{"inputNeurons":10,"outputNeurons":3,"weights":[[-0.36658804160662917,-0.698429268718616,-0.5541185090521662],[0.9311712576549205,1.955336915539896,-0.031148137168017537],[-1.2150281222839519,0.7800370047120383,-0.09562258522568917],[-0.1769360162808878,-0.7355418990256394,0.2226625459994969],[0.7579619229071743,-0.7538752645039639,-1.1003584482352617],[-0.0912194194538552,-0.4334888000535561,0.08328919157694753],[1.0368003603036944,1.6444062211973387,0.39510215084068734],[0.38089568045511996,-0.9585340996692137,0.8755613495155199],[0.6749026681136221,0.10006292773427218,1.003296578533039],[-0.5369468851977781,-0.9150954368142372,0.7699892308294396]],"biases":[-0.33762973489850345,-0.9539146762460982,-0.11972017291613526]},{"inputNeurons":3,"outputNeurons":1,"weights":[[0.6553648129940153],[1.6223398622707104],[-1.2137343786939325]],"biases":[-0.42095402593435294]}],"scores":{"1":1300,"2":2320,"3":2320,"4":2320,"5":2320,"6":2320,"7":2320,"8":2800,"9":2320,"10":2520,"11":2320,"12":2320,"13":2320,"14":2620,"15":2320,"16":2320,"17":2320,"18":2320,"19":3820,"20":2520,"21":2320,"22":2320,"23":2320,"24":3920,"25":2320}},{"layers":[{"inputNeurons":0,"outputNeurons":10,"weights":[],"biases":[0.04481050751673996,-0.4027161293067063,0.8260127687295793,0.2160358225473796,0.41254965028056856,-0.5284080089430644,-0.060701987577496605,-0.3772334620698376,-0.0026716612785671473,1.143428030661946]},{"inputNeurons":10,"outputNeurons":3,"weights":[[-0.17491725249583046,-0.4091085371757427,-0.7497454338635294],[1.3243638091640093,1.6023503907977878,-0.1628701913775148],[-1.2105949725150122,0.5346747932747957,-0.16967918915023436],[-0.14888145981995227,-0.5055510875000925,0.2604792875174977],[0.8736766462784846,-0.7210234887696264,-1.106029077191074],[-0.6866407204938079,-0.11619212246796858,0.04555000539783571],[0.9202479780052562,1.3627285597476129,0.45752027518472865],[0.13587939694342016,-1.1627649510518838,0.9945599735460559],[0.4031276677438679,-0.1577734737924028,0.5667947548013077],[-0.6717937196306056,-0.6157625022338308,0.867888256215024]],"biases":[-0.37383885817241935,-1.3216360816631672,-0.034399668472983994]},{"inputNeurons":3,"outputNeurons":1,"weights":[[0.6968422829428574],[1.7095625043007172],[-1.1947541035091012]],"biases":[-0.4557442284929123]}],"scores":{"1":2320,"2":2520,"3":2320,"4":2320,"5":2130,"6":2320,"7":2320,"8":2600,"9":2320,"10":2320,"11":2320,"12":2320,"13":3020,"14":2320,"15":2320,"16":2320,"17":2320,"18":2520,"19":2320,"20":2320,"21":2320,"22":2720,"23":2320,"24":2320,"25":3720}},{"layers":[{"inputNeurons":0,"outputNeurons":10,"weights":[],"biases":[0.8721367038695063,-0.5913796206458514,0.7830632736716576,0.45313293101561514,0.5292958433005303,-0.23428869923818924,0.1617453064246816,0.26981834962691,0.35467436436277316,0.6357428950519086]},{"inputNeurons":10,"outputNeurons":3,"weights":[[-0.17415135140773808,-0.9299228633988579,-1.0990255472111397],[0.8954277318986107,1.9957906251293263,-0.09806181502995251],[-1.6820737528223573,0.3016648736107517,-0.2778885989615719],[-0.08468868341775823,-0.6209168594151464,0.04577506493061879],[0.747713998141959,-1.2048168247805178,-0.6821650616305828],[-0.6028875523851595,-0.6545185782266748,-0.1553154192941283],[0.5942506864479038,1.5494636129534063,0.4541206478400126],[0.8959472489816794,-1.619978031666411,1.4759317497221944],[0.34528740046356254,-0.0197199579065285,0.8332199382559762],[-0.8404689011287846,-0.6835793754733449,1.5452963651815759]],"biases":[-0.33726409881720576,-0.8865536649521848,-0.0239587089771192]},{"inputNeurons":3,"outputNeurons":1,"weights":[[1.1162837992500378],[1.5453444120062723],[-1.4251210289980123]],"biases":[0.03077833180984124]}],"scores":{"1":2320,"2":2320,"3":2320,"4":2320,"5":1300,"6":2320,"7":2320,"8":2970,"9":2320,"10":2320,"11":2620,"12":2320,"13":2320,"14":2520,"15":2320,"16":3720,"17":2320,"18":2320,"19":2190,"20":2520,"21":3650,"22":2320,"23":2320,"24":2320,"25":2320}},{"layers":[{"inputNeurons":0,"outputNeurons":10,"weights":[],"biases":[0.5333015993855414,-0.29434493002638495,0.5356059057351265,0.6171966861911905,0.506037967038105,-0.13347071172326713,-0.3997647665919103,-0.44419062997128395,-0.20126949965343593,1.5378738241285514]},{"inputNeurons":10,"outputNeurons":3,"weights":[[-0.04507847286742628,-0.7388945870303745,-0.5341737803930455],[1.2388952819789123,1.7836178380049375,0.24496172219562384],[-0.9443031187168573,0.6117331404903001,0.5224430660200068],[0.28100366460738435,-0.41106147853866554,0.4182314801050373],[0.9757991266775463,-1.2313296657068629,-1.139000547569837],[-0.23080028117719825,-0.6448989745365142,0.360026549144963],[1.0042378844503745,1.7359808817168032,0.42892162759565194],[0.6307619440676127,-1.3263571596355301,1.3575506817503769],[0.187442969698624,-0.05420011006299984,0.8782268560324178],[-0.9962212524783209,-0.7982726376335105,0.8598679665538911]],"biases":[-0.22520199008159564,-0.869747848659014,-0.2705208339293016]},{"inputNeurons":3,"outputNeurons":1,"weights":[[0.9613831788980237],[1.7539807813033867],[-1.1103066046109158]],"biases":[-0.29949791582056484]}],"scores":{"1":2320,"2":2520,"3":2320,"4":2920,"5":2320,"6":2320,"7":2320,"8":2320,"9":2320,"10":2590,"11":2320,"12":2320,"13":2320,"14":2320,"15":2520,"16":2500,"17":2320,"18":2320,"19":2320,"20":2320,"21":3740,"22":2320,"23":2320,"24":2320,"25":2320}},{"layers":[{"inputNeurons":0,"outputNeurons":10,"weights":[],"biases":[0.6903507155088033,-0.693444297521626,0.678458905316444,0.19374461963494738,0.38953797157835224,-0.34241521417828136,0.5321238855675285,-0.20374827132312504,0.2593030776825512,0.6685129163511241]},{"inputNeurons":10,"outputNeurons":3,"weights":[[-0.04886933219232681,-1.162502475587397,-0.6636685324778075],[0.6809572535670327,1.7195077093300744,-0.9160666306683243],[-1.1608713358449911,0.39965323386806,-0.2673911994508433],[0.2353295876254276,-0.3595465618617365,0.10154601372036826],[0.6659313171605227,-1.1084193001422666,-0.20160008439731092],[-0.43452871124088394,-0.1708417363723631,-0.24944124116749322],[1.0422229183000185,1.5459173123565417,0.6594039787316832],[1.1903980742289002,-1.385677684873351,1.5040997685837352],[0.30592869797084515,0.3193594580721383,0.8797608771135498],[-0.8686175617033904,-0.8065188514534747,1.182822544236433]],"biases":[0.09293430825287591,-1.3173394466792496,0.048735052210220564]},{"inputNeurons":3,"outputNeurons":1,"weights":[[1.0545033913834516],[1.6064573263669621],[-1.2894979639529736]],"biases":[0.17600732721187087]}],"scores":{"1":2320,"2":3850,"3":2320,"4":2320,"5":2320,"6":2320,"7":2320,"8":2320,"9":2320,"10":2320,"11":2320,"12":2320,"13":2520,"14":2920,"15":2320,"16":2320,"17":2320,"18":2290,"19":2520,"20":2320,"21":2420,"22":2500,"23":2320,"24":2320,"25":2320}},{"layers":[{"inputNeurons":0,"outputNeurons":10,"weights":[],"biases":[0.655491859261675,-0.41320484673591557,0.6079309424491295,0.46384346116079894,0.0962112901271368,-0.19765362566220054,0.39696864785283725,-0.32711996071863136,0.295264807333861,0.6410932023860008]},{"inputNeurons":10,"outputNeurons":3,"weights":[[0.11461359509407876,-1.2453183722026675,-1.1901327221141336],[0.6851552062693311,1.9055660527746698,-0.236247743840178],[-1.2905837177493713,0.7519066390974515,-0.32515196624487225],[0.051040748733333974,-0.4199625960472423,0.2047212234990553],[0.7752951314641641,-1.1953318341966774,-0.6049188542242783],[-0.322620201471259,-0.5196052855388956,-0.3591302141493825],[0.7278778865179282,1.646910765737351,0.4642893421809674],[0.7541420524205829,-1.9447142646429805,1.4325928460687118],[0.5901632844297976,0.19551079412236239,0.6757542395418976],[-0.7892841949048496,-0.8275927312867997,1.3295758526865715]],"biases":[-0.2978415746829961,-0.8202687541134,0.10149188486167338]},{"inputNeurons":3,"outputNeurons":1,"weights":[[1.0049248030266564],[1.4050493131419932],[-1.2858964703372426]],"biases":[0.3799098791710768]}],"scores":{"1":2320,"2":2520,"3":2320,"4":2320,"5":2920,"6":2320,"7":2320,"8":2210,"9":2320,"10":2320,"11":2220,"12":2720,"13":2500,"14":3120,"15":2320,"16":2320,"17":2320,"18":2320,"19":2320,"20":2320,"21":2320,"22":2520,"23":2920,"24":2320,"25":2320}},{"layers":[{"inputNeurons":0,"outputNeurons":10,"weights":[],"biases":[0.6060751685820751,-0.4973681513939534,0.7540715253836044,0.3516770650166064,0.6167981040959998,-0.35844147106889696,0.3622422832641033,-0.05724540503335795,0.265076013202066,1.0904275661056348]},{"inputNeurons":10,"outputNeurons":3,"weights":[[0.24005677858237726,-0.8739517575200271,-0.792449761297109],[0.8310453899714889,1.7357743130413072,-0.3310700155533015],[-1.1809724391066554,0.3432588291449288,-0.32705909133032035],[-0.2925950521064473,-0.14816534373718476,0.23657631184026925],[0.5840904757583025,-1.530420579090583,-0.5604583974613349],[-0.5721182039267436,-0.5764930564778745,-0.3487346784914622],[1.1241946590372898,1.4216304427555067,0.8279633928966864],[0.6319514552591666,-1.4915963822182052,1.207460642950959],[0.7575697341616419,0.2411354705403444,0.9549141973533258],[-0.8217655060367244,-0.7883483063031946,1.1369772557631344]],"biases":[-0.2880295460198936,-1.0874199652727659,-0.463984786361442]},{"inputNeurons":3,"outputNeurons":1,"weights":[[0.7236472619572898],[1.5523201056806661],[-1.4116060545423363]],"biases":[0.26365388349593677]}],"scores":{"1":2320,"2":2320,"3":2320,"4":2920,"5":2320,"6":2510,"7":2320,"8":2520,"9":2520,"10":2440,"11":2840,"12":2320,"13":3060,"14":2320,"15":2320,"16":2500,"17":2320,"18":2320,"19":2320,"20":2320,"21":2320,"22":2320,"23":2320,"24":2320,"25":2320}},{"layers":[{"inputNeurons":0,"outputNeurons":10,"weights":[],"biases":[-0.021142925062713314,-0.2963085349596573,0.5442232662337632,0.06750135968346843,0.2054884267733434,-0.8039158437106119,-0.025248489274114258,-0.35147997280684146,-0.1682209605099462,1.0361780786720491]},{"inputNeurons":10,"outputNeurons":3,"weights":[[0.03917007383199761,-0.7287791106655128,-0.6808241927644549],[1.536177786557435,1.7038745394950552,-0.320626251859273],[-0.9992439863652343,0.419374469034281,0.08137931406822355],[0.19152989915448076,-0.6931779345470384,0.1544430894893244],[0.8153620590654562,-1.1219061857417296,-1.1268953638068617],[0.035805831829875484,-0.3225238381118532,-0.007788480160366401],[0.64462087539302,1.5945877366984729,0.5842065160490668],[0.17725872693114447,-0.7796519680545523,1.0924739771226277],[0.404795170845056,-0.02378982364919198,0.8744124417386859],[-0.6917877341112737,-0.5530875700216191,1.2325275841349648]],"biases":[-0.2724562791320656,-1.062717747502578,-0.05060736163339456]},{"inputNeurons":3,"outputNeurons":1,"weights":[[0.9990805642985661],[1.674520382522673],[-1.2782655622648447]],"biases":[-0.5721812413402666]}],"scores":{"1":2520,"2":2500,"3":2320,"4":2520,"5":2520,"6":2320,"7":2320,"8":2320,"9":2320,"10":2520,"11":2970,"12":2320,"13":2320,"14":2440,"15":2920,"16":2320,"17":2320,"18":2520,"19":2220,"20":2320,"21":2320,"22":2520,"23":2320,"24":2320,"25":2320}},{"layers":[{"inputNeurons":0,"outputNeurons":10,"weights":[],"biases":[-0.292294497498525,-0.18632871670151968,0.45961369064253044,0.46138548951857483,0.05046825573629313,-0.4592661414900167,0.015413833100081889,-0.5500176131046633,-0.22226191435592224,1.1380959328169318]},{"inputNeurons":10,"outputNeurons":3,"weights":[[-0.4653991236302741,-0.6070088381407648,-0.545040830459896],[1.2115746668701168,1.5377952091657991,-0.12853591345639193],[-1.057738844975083,0.8464081023984681,0.05054419839087752],[0.40995778420021284,-0.759533485932011,0.15398342964040462],[0.457216883554942,-1.074647291953435,-0.9304448573643116],[-0.2627961957904562,0.0316778501696485,0.21385958190102927],[1.0028625840953802,1.4929924879768743,0.5632834898937995],[0.464747291169145,-1.3674951597008078,1.2420944612936227],[0.7453502542318377,0.05587234891917657,1.0351330649343113],[-0.3930252492103461,-0.8333275214998259,1.0643452269836775]],"biases":[0.09693798246314189,-0.8047823427339071,-0.2265487014136172]},{"inputNeurons":3,"outputNeurons":1,"weights":[[0.8436468654113878],[1.5486167612532176],[-0.96607755727728]],"biases":[-0.5741886084255848]}],"scores":{"1":2920,"2":3520,"3":2320,"4":2320,"5":2520,"6":2320,"7":2320,"8":2320,"9":2320,"10":2520,"11":2520,"12":2320,"13":2320,"14":2320,"15":2520,"16":2320,"17":2320,"18":2840,"19":2320,"20":1300,"21":2640,"22":2320,"23":2320,"24":2320,"25":2320}},{"layers":[{"inputNeurons":0,"outputNeurons":10,"weights":[],"biases":[-0.2572361813430959,-0.31475739977059225,0.449760951684269,0.34247127703274727,0.5078352547450562,-0.5537801176346173,-0.13494068873421242,-0.588543610169622,-0.1718127210803375,1.1133367851745684]},{"inputNeurons":10,"outputNeurons":3,"weights":[[-0.4421352751730322,-0.4987333117766544,-0.6134820268875792],[1.4603231370320395,1.78381934226228,-0.4188763395465282],[-1.267098361465384,0.5232849655937217,0.17295023795011744],[-0.12084832081386743,-1.0886863792816814,0.2381049717955634],[0.9537005058980365,-0.6106558620880476,-0.802625091841384],[-0.3086776137470957,-0.4253615042107461,0.3625665239531612],[1.1662932400321229,1.996004350567303,0.12007610210368591],[0.37107612639248866,-1.423758102896678,0.9922796256441453],[0.3740551873993535,-0.04662232666393494,0.6938751792901382],[-0.9773797977484986,-0.8481523466749207,1.2157894291811635]],"biases":[-0.0017244331938723045,-1.0435287410859515,-0.1670496985709418]},{"inputNeurons":3,"outputNeurons":1,"weights":[[1.1565823706614777],[1.6611142858303676],[-0.962165261522899]],"biases":[-0.40890692121654915]}],"scores":{"1":2320,"2":2320,"3":2320,"4":2520,"5":2210,"6":2320,"7":3020,"8":2320,"9":2320,"10":2320,"11":2320,"12":2320,"13":2520,"14":2320,"15":2520,"16":2760,"17":3920,"18":2320,"19":1300,"20":2320,"21":2320,"22":2520,"23":2320,"24":2320,"25":2320}},{"layers":[{"inputNeurons":0,"outputNeurons":10,"weights":[],"biases":[0.028758869892307776,-0.20178521163467505,0.42801053958850455,0.34059410491693204,0.4394665017135956,-0.17313026993062142,0.3129099772244236,-0.04439736438545727,0.17059928168916794,1.363152817897845]},{"inputNeurons":10,"outputNeurons":3,"weights":[[9.816864624412336E-4,-0.4719559393283681,-0.9236492599680688],[1.0462615269411537,1.6086982929642217,-0.2887567296662156],[-1.3117760873203517,0.8366712569044779,-0.04332244098589291],[0.03924504343332374,-0.4649730754841627,0.39192967295381403],[0.8928598473692253,-0.8975455813647525,-1.2952168835313902],[-0.07660507260034183,0.20368241970280088,0.12568892366657436],[1.066348612179147,1.738689033782962,0.7704381355008352],[0.3731444770393527,-1.0060756929997474,1.331040304901897],[0.5140931281939342,0.01650364960770105,0.9510209479287108],[-0.5698320738407816,-0.47213757342339746,0.6711516545895091]],"biases":[-0.4805401352549274,-0.8324013494456859,-0.18314078203753903]},{"inputNeurons":3,"outputNeurons":1,"weights":[[0.729412905611527],[1.7000785390246298],[-1.2343274509107913]],"biases":[-0.3697370454407233]}],"scores":{"1":2320,"2":2320,"3":2320,"4":1300,"5":2320,"6":2320,"7":2520,"8":2210,"9":2320,"10":2320,"11":2320,"12":2190,"13":2700,"14":2320,"15":2720,"16":3650,"17":3400,"18":2320,"19":2500,"20":2520,"21":2210,"22":2320,"23":2320,"24":2320,"25":2320}},{"layers":[{"inputNeurons":0,"outputNeurons":10,"weights":[],"biases":[0.317659763130795,-0.3249609466436367,0.474533947091513,0.6881577491648312,0.3434670970086702,-0.43517433503051517,-0.28181820881382336,-0.30744118818378824,-0.15312382135723226,0.9667179651101794]},{"inputNeurons":10,"outputNeurons":3,"weights":[[-0.009513362467771569,-0.7374314464779175,-0.7992636803394279],[0.8465729799656483,1.863802919639974,-0.24663306336974808],[-1.0622952139337083,1.1658777773892148,-0.3034631994905275],[0.05845815325717299,-0.976511939929772,0.2816878528672837],[1.2106644540252578,-0.7854539865718898,-1.205374666990385],[-0.09439378148959818,-0.21681704119601075,-0.012049330406220138],[1.0906297652128094,1.7691898484307322,0.664722702794925],[0.7883759533527099,-1.0941236810599553,1.0961243639660214],[0.5645608236867397,0.05743012022139733,0.8525652844126296],[-0.3436501424825744,-0.6710092906473077,0.845355250210798]],"biases":[-0.2855647684988739,-0.9888703631706024,0.09264764419190284]},{"inputNeurons":3,"outputNeurons":1,"weights":[[0.9783472267420713],[1.7283605456450626],[-1.209408424185006]],"biases":[-0.5310044794559602]}],"scores":{"1":2320,"2":2320,"3":2320,"4":2520,"5":2320,"6":3850,"7":2320,"8":2320,"9":2520,"10":2320,"11":2520,"12":2320,"13":2320,"14":2320,"15":2320,"16":2320,"17":2320,"18":2320,"19":2320,"20":2320,"21":2520,"22":2320,"23":2320,"24":2320,"25":2320}},{"layers":[{"inputNeurons":0,"outputNeurons":10,"weights":[],"biases":[0.04751524404324128,-0.25744855708838554,0.5374181590639544,0.2697667521679622,-0.08006507043849903,-0.5780217276300971,0.0755965728396599,-0.6480048541365628,-0.3959257903814608,0.9537415567759702]},{"inputNeurons":10,"outputNeurons":3,"weights":[[-0.3293950718295321,-0.41643504834814904,-0.8906936183346268],[1.3311065181994355,2.2635758671129476,0.12150075715181952],[-1.2683751754980663,0.9820869043877432,-0.06661249225979031],[-0.07002712723369164,-0.6491874295651959,0.12576364685732455],[0.7430962425402022,-0.9310742687996323,-1.2240562882002868],[0.23665617468949435,-0.1341137132034262,0.23990502862637483],[1.0417772301394295,1.4183062201793484,0.678027951653337],[0.19056646388909923,-0.9926171078952015,1.1707784479129308],[0.4237554987028911,-0.21324185559533998,0.9464392300840454],[-0.5652457333232055,-0.3601842459739325,1.0253709095333599]],"biases":[-0.07066649370482281,-0.9639596731401932,0.39118079604200096]},{"inputNeurons":3,"outputNeurons":1,"weights":[[1.4181194597025961],[1.312557266858582],[-0.8038879551568046]],"biases":[-0.4953379704677832]}],"scores":{"1":2320,"2":2960,"3":2320,"4":2320,"5":2320,"6":2320,"7":2320,"8":2320,"9":2520,"10":2520,"11":2320,"12":2320,"13":2520,"14":2660,"15":2320,"16":2520,"17":2320,"18":2320,"19":2320,"20":2520,"21":2320,"22":2320,"23":2320,"24":2320,"25":2520}},{"layers":[{"inputNeurons":0,"outputNeurons":10,"weights":[],"biases":[-0.3088182573337379,-0.1356044287854733,0.7648351078347957,0.3894022772301765,0.13555836446078343,-0.5464540012345019,-0.4570442441645325,-0.669079890967204,-0.07241781335541732,0.9198125232234999]},{"inputNeurons":10,"outputNeurons":3,"weights":[[-0.1869158168615936,-0.7921053226089785,-0.7071254131337749],[0.7448635574138007,1.9324219678669043,0.23120167220969712],[-1.1278850247341878,0.9471278258232594,-0.311382578519466],[-0.004716680147318297,-0.00476111334269369,0.5407735981571284],[1.0914240794762686,-0.5510565368760733,-0.8385690292264314],[-0.4889705746519992,-0.09347844534175417,0.012508075303932775],[1.2483723716054789,1.4582483910491968,0.7234449493399181],[0.262566219800571,-1.3426235466615897,0.9749165024132501],[0.8454126846855512,-0.2886480470536626,1.002745601907743],[-0.6400553825874788,-0.5614329661635036,1.0578080021621825]],"biases":[0.10813006666865721,-0.8583764907498082,0.30289399644213744]},{"inputNeurons":3,"outputNeurons":1,"weights":[[0.7372254013126103],[1.5233804308130312],[-1.1550939814740218]],"biases":[-0.44674338916955214]}],"scores":{"1":2320,"2":2320,"3":2320,"4":2200,"5":2720,"6":2320,"7":2320,"8":2320,"9":2320,"10":2320,"11":2320,"12":3120,"13":2320,"14":2320,"15":2320,"16":2320,"17":3650,"18":2920,"19":2520,"20":2320,"21":1300,"22":2320,"23":2320,"24":2210,"25":2320}},{"layers":[{"inputNeurons":0,"outputNeurons":10,"weights":[],"biases":[1.0687616668271922,-0.1896809747528966,0.7678004001163117,0.3823548356637257,0.39697330086742716,-0.36307551834502255,0.1463948829983123,0.505627467325683,0.28437443389045125,0.344265234276525]},{"inputNeurons":10,"outputNeurons":3,"weights":[[0.06850140303736157,-1.3878112912070435,-0.5642933816864544],[0.6950179699070924,1.9499919248028807,-0.2733751885497437],[-1.3688876686640015,0.6413196139003148,-0.111990072936176],[0.27008068174885114,-0.7162239880408443,0.12217462097325013],[0.599855492015146,-0.905134962694074,-0.7239341922358025],[-0.3785121689091456,-0.29377266577344696,-0.04938050752294956],[1.0935902512990685,1.6055132294379482,0.8993862527907898],[0.732437936372691,-1.804493563233198,1.2091400804622507],[0.8087679835849194,-0.019578427929393794,1.0905684745735342],[-0.5778351533628043,-0.5155930984257204,1.1870886984142732]],"biases":[-0.07230403735985769,-1.4213282878728117,-0.3429673986272693]},{"inputNeurons":3,"outputNeurons":1,"weights":[[1.1232383854764516],[1.3098905889698313],[-1.158816943701802]],"biases":[0.1626481339833282]}],"scores":{"1":2320,"2":2320,"3":2320,"4":2500,"5":2320,"6":2440,"7":2320,"8":1300,"9":2320,"10":2320,"11":2320,"12":2320,"13":2920,"14":2460,"15":2520,"16":2520,"17":2320,"18":2320,"19":2320,"20":2320,"21":3720,"22":2320,"23":2320,"24":2320,"25":2410}},{"layers":[{"inputNeurons":0,"outputNeurons":10,"weights":[],"biases":[0.021825755188836615,0.025497213041145828,0.4048282507467851,0.8202048625435485,0.30194204070195646,-0.5392191487825079,-0.14248957117153296,-0.323918562134325,-0.24033099081813306,1.276811638619759]},{"inputNeurons":10,"outputNeurons":3,"weights":[[0.152719109243028,-0.547855779001521,-0.8999579317063937],[1.0383938624645885,1.8047601346235396,-0.07688401306270745],[-0.7874709489003999,0.9491541464245263,-0.18356990099505535],[-0.12997575300659686,-0.7115592752561322,0.5520322601580971],[0.9897710164802582,-0.8986570420282792,-0.8355746855884827],[-0.3429200585483052,-0.37371585287780773,0.38150072889775327],[1.099045236174877,1.5331846402470681,0.814249713449312],[0.6016431229656647,-0.9511582736914117,1.0956396041639749],[0.7571728706058094,-0.21393649656945757,0.8177135691211849],[-0.7584662992440535,-0.5064120762112568,0.9753569670010188]],"biases":[-0.2905905971810626,-1.0494689071100032,0.2999503964521457]},{"inputNeurons":3,"outputNeurons":1,"weights":[[1.041807465495996],[1.7790558915653465],[-1.0005698410924333]],"biases":[-0.717606759156397]}],"scores":{"1":2320,"2":2720,"3":2320,"4":2320,"5":2320,"6":2200,"7":2320,"8":2320,"9":1940,"10":2920,"11":1780,"12":2720,"13":2320,"14":2520,"15":1530,"16":2520,"17":3720,"18":2320,"19":2320,"20":2320,"21":2320,"22":2520,"23":2320,"24":2560,"25":2320}},{"layers":[{"inputNeurons":0,"outputNeurons":10,"weights":[],"biases":[0.664619212114833,-0.3787304016196122,0.7065670461047452,0.25303742034993715,0.45713267161172827,-0.4666564986327046,0.5092712581517121,0.24513553123898402,0.10497313386112964,0.8244439550768081]},{"inputNeurons":10,"outputNeurons":3,"weights":[[0.25367170289885044,-0.8446571446545815,-0.9364774563444107],[0.7073175595451123,1.6188286107923675,-0.5487243939361928],[-1.5902826005572401,0.5890392404132079,-0.5014367449081918],[0.028597697321135873,-0.2497024758533938,0.09356119129115269],[1.0282148732467202,-1.0143524507457293,-0.8452888427876941],[-0.32242523804337375,-0.29361760651230473,-0.5509289242989733],[0.9676304047785542,2.0076094942586886,0.8438538479825571],[0.6617051235784164,-1.6426928078908478,1.4049585952583987],[0.4065687896148582,0.5204600044080616,1.1498648674555707],[-0.793651255034885,-0.3998339723122242,1.5872660235566107]],"biases":[-0.05793884490469467,-1.305382963872086,-9.202834791614545E-4]},{"inputNeurons":3,"outputNeurons":1,"weights":[[0.8525382730534061],[1.8970559878193707],[-1.3667755802181705]],"biases":[0.27068741644676764]}],"scores":{"1":2760,"2":2520,"3":1300,"4":2520,"5":2320,"6":2720,"7":2720,"8":2320,"9":2320,"10":2500,"11":2320,"12":2320,"13":2320,"14":2320,"15":2320,"16":2320,"17":2320,"18":2520,"19":2320,"20":2320,"21":2320,"22":2520,"23":2520,"24":2520,"25":2500}},{"layers":[{"inputNeurons":0,"outputNeurons":10,"weights":[],"biases":[0.48804211868642744,-0.26579689895658953,0.7566529821851382,0.7201101364664959,0.14671576815817966,-0.21728738617718563,0.48927498607710285,0.09378426046622589,0.2666860639877592,0.555050357086017]},{"inputNeurons":10,"outputNeurons":3,"weights":[[-0.22864014253902432,-0.9285502582766522,-0.7833153630431019],[0.7782454570899637,2.236861320943516,-0.2056828485372768],[-1.443594575084476,0.7876424854897839,-0.006981812431661405],[-0.19325782022151766,-0.6120235033168332,0.19319600848717716],[0.8167066943422298,-1.1381591739223214,-0.27831293975361776],[-0.34599001869863405,-0.4483835377346018,-0.2614909481797575],[0.7411723727791325,1.5647779504239296,0.7116343451188959],[1.2451275371138264,-1.6895948767067743,1.59964399153605],[0.5686263744151292,-0.04262312657541942,0.9489548913149053],[-0.6947072280784583,-0.478610677083815,1.5737903235602502]],"biases":[-0.20152960623006258,-1.1718245450677862,-0.3059851131050395]},{"inputNeurons":3,"outputNeurons":1,"weights":[[0.7240396768180977],[1.456144099203295],[-1.2835544495173037]],"biases":[0.15403644757704504]}],"scores":{"1":2320,"2":3920,"3":2240,"4":2320,"5":2500,"6":2320,"7":2320,"8":2320,"9":2320,"10":2320,"11":2520,"12":2320,"13":2320,"14":2920,"15":2320,"16":3000,"17":2320,"18":1940,"19":2320,"20":1290,"21":2320,"22":2320,"23":2320,"24":2320,"25":2320}},{"layers":[{"inputNeurons":0,"outputNeurons":10,"weights":[],"biases":[0.6881195470739114,-0.4345501588994962,0.7964842544414485,0.12140636035598856,0.4184983949887198,-0.645795630232311,0.42099890487398184,-0.10040406890541131,0.32226257421611954,0.3798903842717165]},{"inputNeurons":10,"outputNeurons":3,"weights":[[0.5098782632069025,-0.8625663083614117,-0.7469136578727197],[0.5214996200090711,1.753224064972851,-0.1378238394930511],[-1.3847117686308623,0.6868306223274788,0.133034966349741],[0.0617928153232776,-0.23943843153964012,0.17239699202110123],[0.8201930701114503,-1.1063273325868563,-0.425072829663631],[-0.8694368130114063,-0.7124171577272427,-0.5700246896281942],[1.1743886942436885,1.3881669276182484,0.3326745405038991],[0.8433208198336929,-1.7744340169017268,1.0413939490035053],[0.6884073240954444,-0.08709048941930247,0.8751703268788614],[-0.7931144761618706,-0.8327576822864913,0.9600159806740961]],"biases":[-0.06907517419563126,-0.976026846779777,-0.2193170595724393]},{"inputNeurons":3,"outputNeurons":1,"weights":[[1.404819241878261],[1.2508810598194586],[-1.2208670589069415]],"biases":[-0.18088660576251667]}],"scores":{"1":2520,"2":2520,"3":2320,"4":2190,"5":2770,"6":2320,"7":2500,"8":2320,"9":2520,"10":2500,"11":2320,"12":2320,"13":2320,"14":2320,"15":2320,"16":2320,"17":3400,"18":2320,"19":2320,"20":2320,"21":2610,"22":2320,"23":2320,"24":1300,"25":2320}},{"layers":[{"inputNeurons":0,"outputNeurons":10,"weights":[],"biases":[0.1356105273505051,-0.20533654836730458,0.37701414113369003,0.6096987434775442,0.2824892792610515,-0.3989733564968509,-0.030060525657881365,-0.10050233339620163,-0.1551609067896567,1.4991362091471716]},{"inputNeurons":10,"outputNeurons":3,"weights":[[0.08767802949506048,-0.8827687101150766,-0.6473356226370799],[1.3939894122789687,1.8997431744714106,-0.30891039049809726],[-1.0731693906889217,0.7724027174597778,0.42088073118924063],[-0.04642818287812581,-0.7014064572481743,0.056755139486863115],[0.6606535890978952,-0.9433155091858696,-1.0059162931667365],[-0.26998718977436353,-0.5606844665930761,0.18545663198131376],[1.262829333897205,1.9213976451664503,0.7332096733848742],[0.12828933080269833,-0.8182142859852168,1.3837333804819396],[-0.039685795561221204,0.18756138330687772,0.5148251000582772],[-0.8808364862665207,-1.1046835356463036,0.8380004373485331]],"biases":[-0.12600804924521103,-0.8068404440484424,-0.10174993166763291]},{"inputNeurons":3,"outputNeurons":1,"weights":[[1.130114475247066],[1.6446503611115808],[-1.1301915317348439]],"biases":[-0.47534122249257504]}],"scores":{"1":2200,"2":2200,"3":2320,"4":2520,"5":2520,"6":2320,"7":2520,"8":2960,"9":2320,"10":3010,"11":2320,"12":2320,"13":2320,"14":2320,"15":2320,"16":2320,"17":2320,"18":2320,"19":2320,"20":2320,"21":2320,"22":2320,"23":2320,"24":2210,"25":2320}},{"layers":[{"inputNeurons":0,"outputNeurons":10,"weights":[],"biases":[0.5780684103348108,-0.42912253538270684,0.6818891919795024,0.6113633825408293,0.7723607923956439,-0.33935914080519497,0.5218058836158308,-0.3540901604191379,0.2966644690263337,0.312150655423061]},{"inputNeurons":10,"outputNeurons":3,"weights":[[-0.05468470840397341,-1.5415545760147804,-0.576912448602691],[1.0622484727863406,1.991892118244756,-0.02035478761852272],[-1.3461352046660797,0.405691244678275,-0.1910728167750979],[0.2858128168757921,-0.3450069819118412,0.10040007002880488],[0.8368611789081815,-1.277150864314265,-0.8440302443731154],[-0.3757759687835049,-0.7623367131527652,-0.2492315128637485],[0.6513322683323555,1.9916334459949114,0.3926454406962355],[0.6474456750263409,-1.791714999783459,1.8296871382615743],[0.48194670275147267,0.595419283853108,0.9760720084853283],[-0.4342278353511248,-0.9615667560673391,1.5663527641090325]],"biases":[-0.20454591066102762,-1.256449610153405,-0.16179342812363637]},{"inputNeurons":3,"outputNeurons":1,"weights":[[0.7907155180218213],[1.6547997748106846],[-1.0216544580506124]],"biases":[-0.008762510891922197]}],"scores":{"1":2320,"2":2530,"3":2520,"4":2720,"5":2200,"6":2320,"7":2520,"8":2320,"9":2320,"10":2320,"11":2320,"12":2320,"13":2340,"14":2520,"15":2500,"16":1300,"17":2320,"18":2210,"19":2320,"20":2320,"21":3720,"22":2320,"23":2320,"24":2320,"25":2320}},{"layers":[{"inputNeurons":0,"outputNeurons":10,"weights":[],"biases":[0.33134019076164767,-0.10842756658160246,0.5298822415049868,0.18086743518334486,0.23932838165550918,-0.48208943494296286,0.004157842123932692,-0.1839610036886141,-0.09685273694655397,1.326168107262827]},{"inputNeurons":10,"outputNeurons":3,"weights":[[-0.15666987330604706,-0.6315022517931895,-0.48237724264399107],[1.0593610352754235,1.7228500522317909,-0.7150939688480613],[-1.2559076225818733,0.4024016415419038,0.10322368006442373],[0.5254219073908734,-0.5188050236800451,0.44940487884367947],[0.8364755223850449,-0.7172046670635627,-0.7014859713669697],[-0.11673832377736094,-0.3135987639514121,0.26029148583487915],[0.6936345707844276,1.4126663957223968,0.5897386850637342],[0.8547195687096436,-1.1800237541720824,0.99579099317001],[0.16103657247501996,-0.1357083809617396,1.0550202481734434],[-0.8945350056678875,-0.9542843536493788,1.1002404933801957]],"biases":[-0.0012915972525889274,-1.3606372773499582,0.3359273379908557]},{"inputNeurons":3,"outputNeurons":1,"weights":[[0.8714780299036717],[1.7189651048556929],[-0.8282328992577366]],"biases":[-0.47763230326002326]}],"scores":{"1":2320,"2":2320,"3":2320,"4":2320,"5":2520,"6":2320,"7":1940,"8":2650,"9":2320,"10":2320,"11":2200,"12":2320,"13":2320,"14":2200,"15":2320,"16":2320,"17":2320,"18":2320,"19":2610,"20":2920,"21":2320,"22":2320,"23":2320,"24":2320,"25":3040}},{"layers":[{"inputNeurons":0,"outputNeurons":10,"weights":[],"biases":[-0.1656856925303216,-0.41254103129940645,0.2664295327776317,0.3029378948911536,0.11651189752957916,-0.5792946154628373,-0.10314736723013637,-0.34730215601419595,-0.456639875905557,0.9417411422188563]},{"inputNeurons":10,"outputNeurons":3,"weights":[[-0.2774394245304964,-0.9243444214789238,-0.5197614732815711],[1.3232036714392228,1.6750777472549985,-0.23207197813771993],[-0.8946377385891556,0.7389405516969813,0.26741268613745817],[0.3550251719187341,-0.5355834821479085,0.24341159557355435],[0.828132687985165,-0.6929707945440234,-1.2145667763314285],[-0.21674046705304037,-0.4090799232157356,0.05229202864810792],[1.161570346404809,1.4330119090573925,0.5651676439146048],[0.20965057294446227,-1.149886407793869,1.065729408734536],[0.5579960127838686,0.09335417310083918,0.44162859408137456],[-0.5567372905469545,-0.7182940755931045,0.6333101916107917]],"biases":[0.02463569384636835,-0.9244854689523803,0.01650348254991808]},{"inputNeurons":3,"outputNeurons":1,"weights":[[0.7523627332193565],[1.6921267652926946],[-1.3291529628781975]],"biases":[-0.781106459777966]}],"scores":{"1":2320,"2":2520,"3":2920,"4":2720,"5":2610,"6":2520,"7":2320,"8":2320,"9":2320,"10":2320,"11":2320,"12":1300,"13":2320,"14":2220,"15":2320,"16":2320,"17":2320,"18":2320,"19":2500,"20":2320,"21":2210,"22":2320,"23":2320,"24":2920,"25":2520}},{"layers":[{"inputNeurons":0,"outputNeurons":10,"weights":[],"biases":[0.1175779447899081,-0.37881388483308864,0.6621226776447482,0.5785268229013669,0.4371435470883574,-0.6803369213391197,-0.1355459865686754,-0.6689012496397375,-0.13770630795055327,1.2796239399336469]},{"inputNeurons":10,"outputNeurons":3,"weights":[[0.2067862645801416,-0.338672427082849,-0.675018294141602],[1.003835885848632,1.9086858169230319,-0.06011236067370032],[-1.4009554400536137,0.580274526694195,0.02835191941299641],[0.055448719435614885,-0.4012991686041454,0.4978921556089557],[0.6755449339186477,-1.042333459322455,-1.219645247969724],[-0.4194663341668005,0.018982329755978966,0.3518935841462566],[1.131302125376329,1.5208665785939388,0.6336173925487188],[0.6428690809835178,-0.9990523085563987,1.266306573884493],[0.38621828945407877,-0.04204883229475982,0.9376607849388239],[-0.4095833026900631,-0.8210797649455135,1.2455138316894745]],"biases":[-0.13969949624122058,-0.7709967115705172,0.15929685308758015]},{"inputNeurons":3,"outputNeurons":1,"weights":[[0.7432327398816155],[1.2798050817046263],[-0.8961897649380346]],"biases":[-0.34885741122109226]}],"scores":{"1":2320,"2":2600,"3":2320,"4":2520,"5":2320,"6":2290,"7":1310,"8":2320,"9":2320,"10":3100,"11":2320,"12":2320,"13":2320,"14":2320,"15":2320,"16":2320,"17":2320,"18":2320,"19":2320,"20":2320,"21":2920,"22":2320,"23":2520,"24":2700,"25":2320}},{"layers":[{"inputNeurons":0,"outputNeurons":10,"weights":[],"biases":[-0.02100160792724516,-0.27304223138567174,0.5464568227023574,0.4420304458366065,0.15502041264346145,-0.40745660746205603,-0.16011617170235704,-0.6023371629350118,-0.33143687256579124,1.2470469006542275]},{"inputNeurons":10,"outputNeurons":3,"weights":[[-0.05665381645193787,-0.8697975527899158,-0.6315958810299819],[1.3148841799884452,1.6380073334484258,-0.2477407160615774],[-1.424273610113127,0.510236784220924,-0.14660974717119973],[-0.13328990275276012,-0.3119560609198391,0.4864456544283453],[0.61179413166191,-0.7591554607085428,-1.0844494149663948],[0.005659237762646763,-0.5573815028331727,0.5163747920299488],[0.8480316604467337,1.5793402748059537,0.7111981075864078],[0.15366110045660034,-0.9535469003094849,0.8514453375736806],[0.3204309215596207,0.09648911806081747,0.8339157836496358],[-0.664560171826433,-0.7052292152393843,0.6339478907391107]],"biases":[0.16056916842210356,-1.164138386483038,-0.5391845551196327]},{"inputNeurons":3,"outputNeurons":1,"weights":[[0.8382247426785352],[1.7191578069348201],[-1.013585565704912]],"biases":[-0.37065810694445495]}],"scores":{"1":2320,"2":2320,"3":2320,"4":3720,"5":2320,"6":2320,"7":2320,"8":2320,"9":2320,"10":2320,"11":2320,"12":2320,"13":2320,"14":2320,"15":2320,"16":2320,"17":2320,"18":2720,"19":1300,"20":2320,"21":2720,"22":2320,"23":2520,"24":2320,"25":2320}},{"layers":[{"inputNeurons":0,"outputNeurons":10,"weights":[],"biases":[0.9003759775169614,-0.44275530971082677,0.40208624535596277,0.2308130448264926,0.705617541271292,-0.9056250348070098,0.15580075602927013,-0.12599843022719964,0.33587712032024664,0.6009830234199348]},{"inputNeurons":10,"outputNeurons":3,"weights":[[0.2112916186485023,-1.2381309685073818,-0.7674262856824835],[0.7446092179125058,1.7841108016782208,-0.03593321829648349],[-1.3382358288637213,0.6438971050072009,-0.5979397966296496],[-0.025654918564919416,-0.8505869138733639,0.23947660227669582],[0.7957617899065423,-1.1084279925486489,-0.30931588125186066],[-0.3371199547329632,-0.33967114668875376,-0.07122314542423511],[0.8628427909015924,1.6618282186824627,0.332389198183451],[0.9566940285369241,-1.771846940789849,1.394865001934774],[0.7937181355112738,-0.22313873653289867,1.0724891308340774],[-0.7684572287576502,-0.7331354046912506,1.421816036946095]],"biases":[-0.3179190131825754,-1.1413673017456591,0.042088106611637116]},{"inputNeurons":3,"outputNeurons":1,"weights":[[1.013672416968959],[1.5887880550728608],[-1.3512925827561681]],"biases":[0.303854318368663]}],"scores":{"1":2320,"2":2520,"3":2320,"4":2320,"5":2320,"6":2320,"7":2320,"8":2320,"9":2890,"10":3250,"11":2320,"12":2320,"13":1300,"14":2320,"15":2500,"16":2320,"17":2320,"18":2320,"19":2320,"20":2320,"21":2320,"22":2320,"23":2320,"24":2320,"25":2320}},{"layers":[{"inputNeurons":0,"outputNeurons":10,"weights":[],"biases":[0.7542379614320999,-0.7105794100627046,0.7241564034227584,0.4922877718021423,0.5627466872422315,-0.538976032283405,0.10128430396369711,0.09125879039883983,0.15503324314794398,0.3780159160524347]},{"inputNeurons":10,"outputNeurons":3,"weights":[[-0.055353116045270906,-0.9023740411734971,-1.0126089972664167],[0.967727066098396,2.130308854214835,-0.2179271602822717],[-1.3221189581580264,0.2516334534139234,-0.10982659182082277],[0.27265126906437276,-0.27835763962574894,-0.15301517817408963],[0.4248239316172135,-1.3786429726044531,-0.71515716887196],[-0.6807457279346026,-0.3942366449659748,-0.2401325450687402],[1.0224070139130859,1.4627065090228597,0.43689956700769605],[0.9050112549685764,-1.6601197160326304,1.9386372057410712],[0.6129291739135438,-0.04158667454130821,0.6182317024004857],[-0.5926026134963513,-0.8698002178202109,1.6053009633125908]],"biases":[-0.08927754855917559,-1.221356011537563,-0.34695459299220965]},{"inputNeurons":3,"outputNeurons":1,"weights":[[0.8014038995091436],[1.4908020625942777],[-1.3519632231674263]],"biases":[-0.07137985636000867]}],"scores":{"1":2320,"2":2520,"3":2320,"4":2320,"5":2320,"6":2320,"7":2320,"8":2320,"9":2320,"10":2320,"11":2320,"12":2320,"13":2320,"14":2320,"15":2320,"16":2320,"17":2320,"18":2320,"19":2320,"20":2520,"21":2520,"22":2320,"23":2320,"24":2520,"25":2320}},{"layers":[{"inputNeurons":0,"outputNeurons":10,"weights":[],"biases":[0.5805450941637055,-0.34974124302738974,0.5687027458151801,0.3716016413643023,0.5896920910564389,-0.5458739371712006,0.2429341354655134,0.2608852631411234,0.00837879771734612,1.0649127644628984]},{"inputNeurons":10,"outputNeurons":3,"weights":[[-0.03555365420264628,-0.8663450885004724,-0.5096834122988623],[0.8133207306349242,2.0506032343343232,-0.480750516645995],[-1.1470563306680326,0.18353742697193504,-0.3160187635455283],[0.032239126443149926,-0.5984855605174365,-0.03406013714750519],[0.7709271232437691,-1.3131443720518474,-0.5859305486013431],[-0.32171910015504246,-0.47673632807737726,-0.26669585699565396],[0.7653262987987455,1.592820268186316,0.8422987395247696],[0.8900162232112248,-1.5516811713551875,1.2675841373611398],[0.4949251039007818,0.31462098904377883,0.9985383157829827],[-0.7780150354870982,-0.4678937620540804,1.5757067770778148]],"biases":[-0.5709788219029752,-1.2971410073911673,0.05488236690001222]},{"inputNeurons":3,"outputNeurons":1,"weights":[[0.7099301210035025],[0.9659174656741844],[-1.2981767582628876]],"biases":[0.27436355524330913]}],"scores":{"1":2320,"2":2320,"3":2320,"4":2280,"5":2320,"6":2220,"7":2520,"8":2320,"9":2210,"10":2320,"11":2320,"12":2320,"13":2320,"14":2320,"15":2320,"16":2320,"17":2320,"18":2520,"19":2320,"20":2520,"21":2320,"22":2210,"23":2320,"24":2520,"25":2320}},{"layers":[{"inputNeurons":0,"outputNeurons":10,"weights":[],"biases":[0.16959563656942095,-0.042418312493128996,0.20928422305130745,0.14261112615460575,0.43244810167008235,-0.3950140583407053,0.19208779021848846,-0.26156831759876586,0.630749659103754,0.4665307448945363]},{"inputNeurons":10,"outputNeurons":3,"weights":[[0.10133070972898359,-0.9976529416446083,-0.9337237097622955],[0.3921224381236307,1.942584996004046,-0.18268881205546061],[-1.2924702543438138,0.3075988271528339,-0.12610853704890665],[0.13223536968107324,-0.10799238663228522,0.15639561316454742],[0.83532247376005,-1.333946561281254,-0.7124039051719913],[-0.3774132825094262,-0.6943538164587997,-0.14256453471597447],[0.5766874649554563,1.9091704532057308,1.0173283448382997],[0.9018225292972766,-1.578376509619636,1.727041275374724],[0.39340163551405627,0.13184029981574766,0.9389862637641648],[-0.9025361630357928,-0.7641313279154152,1.3702110103061667]],"biases":[-0.035049282672512894,-1.1860169491858996,0.13676431226059077]},{"inputNeurons":3,"outputNeurons":1,"weights":[[0.865000889488472],[1.0819637746001378],[-1.4617034411742431]],"biases":[-0.2804169723216141]}],"scores":{"1":2320,"2":2520,"3":2320,"4":2320,"5":2320,"6":2720,"7":2320,"8":2320,"9":2320,"10":2890,"11":2320,"12":2320,"13":2320,"14":2320,"15":2320,"16":2320,"17":2320,"18":1300,"19":2210,"20":2320,"21":2520,"22":2320,"23":2320,"24":2500,"25":2320}},{"layers":[{"inputNeurons":0,"outputNeurons":10,"weights":[],"biases":[-0.1079662839354684,-0.0693614458922962,0.09754333324889558,0.3627399905292983,0.17847359004840502,-0.7201649336556546,-0.16069924790059137,-0.12803987752585033,-0.24345173069270315,1.408616165190657]},{"inputNeurons":10,"outputNeurons":3,"weights":[[-0.11501748095572725,-0.5715948770302215,-0.7678335812324804],[1.0032073882851504,1.6728551009001111,-0.12814645840400768],[-0.8980836580266507,0.7100821096543491,0.09519011998270137],[0.44539101625341265,-0.4324222541008216,0.46206850352329404],[0.8790205426065509,-0.5941364853427878,-1.0496778065813384],[0.2793329147020317,-0.5433583744978556,-0.12029274291163497],[1.003349168012666,1.1499119088755059,0.8354980721277014],[0.4710906518502271,-1.4135650596823868,0.6598677892399767],[0.32189258879469124,0.08573019114092968,0.7442150501325784],[-0.7809731173286659,-0.6707215163625024,0.8245409591094991]],"biases":[-0.16926587928878156,-0.8464579664393488,0.3476590053538029]},{"inputNeurons":3,"outputNeurons":1,"weights":[[0.8817412742816579],[1.7130266168510717],[-0.9277216677239755]],"biases":[-0.3104662730938376]}],"scores":{"1":2320,"2":2800,"3":2320,"4":2320,"5":2320,"6":2520,"7":2520,"8":2320,"9":2320,"10":2720,"11":2320,"12":3120,"13":1310,"14":2320,"15":1300,"16":2320,"17":2320,"18":2320,"19":2520,"20":2320,"21":2320,"22":2320,"23":2320,"24":2320,"25":2320}},{"layers":[{"inputNeurons":0,"outputNeurons":10,"weights":[],"biases":[0.3073195975821527,-0.4277062638481287,0.6371797402769689,0.25651974812141887,0.5791179504688414,-0.5249766941843571,0.23120227701368187,0.20276281571888807,0.16320711529648854,0.6433447316331098]},{"inputNeurons":10,"outputNeurons":3,"weights":[[0.4573471096650911,-1.0838438944452744,-0.7049785538453505],[1.0848930976882307,2.030066629396815,-0.15394435525077252],[-1.633463513772313,0.37510607635406673,-0.1328230991652781],[-0.10692617648820171,-0.473756008870627,0.10289263950525747],[0.7416128649201685,-0.9918510827043288,-0.24610053787669828],[-0.6548630485148428,-0.6612310817994655,0.031050351783259267],[0.7814906679739171,1.3927750894819044,0.49488872053540156],[0.6363926798702475,-1.8016395332031057,1.6245606616138577],[0.4707446861527002,0.17446075172175463,0.7881455756463079],[-0.6058657132654739,-1.0993561631006883,1.058208629675736]],"biases":[-0.6026908300499695,-0.9899768263787966,-0.3294587596279574]},{"inputNeurons":3,"outputNeurons":1,"weights":[[0.47402274841474623],[1.8345263985550408],[-1.4069009884758785]],"biases":[0.06683058692679494]}],"scores":{"1":2920,"2":2320,"3":2290,"4":3050,"5":2320,"6":2320,"7":2320,"8":2320,"9":2320,"10":1310,"11":2320,"12":2500,"13":1370,"14":2320,"15":2520,"16":2320,"17":2320,"18":2320,"19":2320,"20":2850,"21":2200,"22":2320,"23":2320,"24":2320,"25":2320}},{"layers":[{"inputNeurons":0,"outputNeurons":10,"weights":[],"biases":[0.36893943076587277,-0.1587575611617646,0.7452415998287716,0.22393692916866656,0.3303670536749541,-0.4655916155062829,0.24315761722854787,0.1619325504305999,-0.09227165246415914,0.09328846971840044]},{"inputNeurons":10,"outputNeurons":3,"weights":[[0.1464846632199157,-0.9235955479444977,-0.7163999472124477],[0.6552188551226249,1.9296163902475654,-0.1619798473595352],[-0.5827130462852813,0.7741131970740349,-0.25815574457454266],[0.5679243028294301,-0.2916918073660969,0.30042552675431533],[0.616509485400805,-0.8866272782662167,-1.0831432015157816],[-0.6766959395005303,-0.2296486312122562,-0.18614866656566958],[0.8798933163120858,1.8508853672078864,0.6786583943908441],[0.8557928715795908,-1.7299409761765916,1.2351184162735276],[0.5370173409147554,0.08136111927431466,0.8586856314101388],[-0.9082475268332894,-0.40410683084949683,1.3893633052049623]],"biases":[-0.25008857730539763,-1.3998372700509056,-0.3061737936680816]},{"inputNeurons":3,"outputNeurons":1,"weights":[[1.2782836250539082],[2.00069602860055],[-1.342501024005936]],"biases":[-0.07640525700815726]}],"scores":{"1":2520,"2":2320,"3":2320,"4":2500,"5":2320,"6":2320,"7":2320,"8":3010,"9":2320,"10":2520,"11":2320,"12":2320,"13":2320,"14":1300,"15":2500,"16":2590,"17":2320,"18":2320,"19":2320,"20":2320,"21":2320,"22":1400,"23":2520,"24":2320,"25":2320}},{"layers":[{"inputNeurons":0,"outputNeurons":10,"weights":[],"biases":[0.35223525646053633,-0.5725704846681374,0.7542216330431075,-0.06429203248782056,0.6795531417531555,-0.3020742726897384,-0.08179430087894965,0.34915035847468645,0.24918954347437725,0.7291521495754455]},{"inputNeurons":10,"outputNeurons":3,"weights":[[0.08022244581218929,-0.9593492285076397,-0.8450644194031501],[0.3195442484264912,2.0170977989335586,-0.46579587737160205],[-1.308533531471568,0.6033214660103634,-0.32806082906620426],[0.1578925260095644,-0.8544578438201309,-0.22433221348161753],[0.6815987546803552,-0.9591287286875458,-0.7190859861640284],[-0.5768321043112479,-0.2346108235441467,-0.22382676722215636],[0.7991416135870627,1.6920477213241039,0.590685926999647],[0.5013641272169944,-1.854224068612922,1.4420747229760624],[0.6648944842520872,0.45729621398896025,1.0023670322317533],[-0.7509850541546113,-0.48310230301872525,1.299054083041075]],"biases":[-0.3073976374665019,-1.0587262888025375,-0.38388312448642153]},{"inputNeurons":3,"outputNeurons":1,"weights":[[0.9247995024242381],[1.3596540634189678],[-1.3060247873029258]],"biases":[0.27050871195621407]}],"scores":{"1":2320,"2":2320,"3":2320,"4":2320,"5":2320,"6":2520,"7":2320,"8":2320,"9":2320,"10":2320,"11":2320,"12":2320,"13":2320,"14":1310,"15":2320,"16":2200,"17":2320,"18":2320,"19":3120,"20":2320,"21":2320,"22":2320,"23":2320,"24":2320,"25":2320}},{"layers":[{"inputNeurons":0,"outputNeurons":10,"weights":[],"biases":[-0.05911640660410318,-0.21248311366343428,0.5423858587808255,0.5647440059295259,0.26397670850672056,-0.595695030833566,-4.3936124918730196E-4,-0.4829216493839956,-0.19005439762263504,1.4502503012526728]},{"inputNeurons":10,"outputNeurons":3,"weights":[[-0.4749736876861334,-0.5608794916111763,-0.6683222720412574],[1.438947218405259,1.3911570596146365,-0.25905712344957854],[-1.1126525456494314,0.912307473704812,-0.15604274089488326],[0.22328523316747553,-0.017380962364414998,0.7508139598236174],[0.9815641139639582,-1.2372120708059173,-0.9851011874584754],[0.03426468567593677,-0.1758266845692265,0.5471183827726177],[0.7899835271556388,1.3781263139620292,0.4463169537685413],[0.40437821186527695,-1.2459774633111258,1.0395889058738523],[0.35407906346485063,-0.36028670335810115,1.2581039355490566],[-1.0984380138553542,-0.6449684986317858,1.0583254447368033]],"biases":[-0.35199743039790266,-1.098523086038338,0.04317983701697003]},{"inputNeurons":3,"outputNeurons":1,"weights":[[0.8988209127329668],[1.6918471998519864],[-0.6244086462534509]],"biases":[-0.7067485587852822]}],"scores":{"1":2320,"2":2320,"3":2320,"4":2520,"5":3120,"6":2320,"7":2320,"8":2320,"9":2320,"10":1300,"11":2320,"12":2320,"13":1300,"14":2200,"15":2320,"16":2320,"17":2320,"18":2320,"19":2600,"20":2320,"21":2320,"22":2920,"23":2320,"24":2320,"25":2320}},{"layers":[{"inputNeurons":0,"outputNeurons":10,"weights":[],"biases":[0.44130511119220694,-0.28378660703064784,0.6645123786637794,0.6388903314797729,0.06894614114511532,-0.6030695739931532,0.19316430511494814,-0.2972649147772959,-0.05729520602468202,0.7575302387887125]},{"inputNeurons":10,"outputNeurons":3,"weights":[[-0.3646799948615904,-0.5862264461909967,-0.34016628270965504],[1.1159050660347805,2.0164471587483,-0.1175095894269173],[-1.189669145179059,0.49204177307716856,0.3474675764810453],[-0.011274387794111357,-0.251050148154666,0.5513105979175544],[0.8215615218129217,-0.9143825799490781,-0.9320495384472196],[-0.316362331259881,-0.03904278997823432,0.38823480647625624],[0.8340992924228632,1.5224538552537699,0.7362274333936415],[0.6492172600616076,-0.8688962478431348,1.4610049239019898],[0.7134424816174033,-0.25615092845506854,0.5489334739337208],[-0.5681850157369451,-0.8636039876460909,0.8617045277571607]],"biases":[0.019873311348404865,-1.0482450173274713,-0.3021359199854917]},{"inputNeurons":3,"outputNeurons":1,"weights":[[0.772438164348009],[1.601149900467251],[-1.0834177633351492]],"biases":[-0.49976426584343087]}],"scores":{"1":2320,"2":2320,"3":2320,"4":2500,"5":2520,"6":2320,"7":1300,"8":2320,"9":2320,"10":2320,"11":2340,"12":2520,"13":2320,"14":2920,"15":2320,"16":2320,"17":2320,"18":2320,"19":1300,"20":2320,"21":2320,"22":2320,"23":2320,"24":2720,"25":2320}},{"layers":[{"inputNeurons":0,"outputNeurons":10,"weights":[],"biases":[0.028291496774478987,-0.5389103675724389,0.2809153205651115,0.7833856032996506,0.44004416441309097,-1.3988515005371092,0.04172405194378902,-0.26768340366324156,-0.1354062528015244,1.2060455199542368]},{"inputNeurons":10,"outputNeurons":3,"weights":[[-0.2529089050837432,-0.7584278724459024,-1.0168861804879814],[0.8877603383148924,2.0195998127215695,-0.1718440866825788],[-1.0775392810438833,0.6813646430998317,-0.093619960866725],[0.025554981849341914,-0.2547098476468273,0.3303231577208027],[0.8333347958647386,-0.8967002563901162,-1.2650899818368044],[-0.10352913641367503,-0.2185933400522666,0.4861316585810911],[1.1638436759767266,1.6405780579659188,0.9114815728177603],[0.291091635106428,-1.0684067351802122,1.1650215522409357],[0.2020548020800199,0.2327013520883464,1.0644657047858572],[-1.1700599160865601,-0.8651067568047516,0.7161698131184231]],"biases":[-0.4317756138574981,-0.8604925374784563,-0.032310024360094114]},{"inputNeurons":3,"outputNeurons":1,"weights":[[0.9792684630733258],[1.9804312863130253],[-0.9570976683387515]],"biases":[-0.7081846278387096]}],"scores":{"1":2320,"2":2320,"3":2320,"4":2320,"5":2520,"6":2200,"7":2320,"8":2320,"9":2320,"10":2320,"11":2320,"12":2320,"13":2500,"14":2320,"15":2210,"16":2320,"17":2210,"18":2820,"19":1300,"20":2320,"21":2320,"22":2320,"23":2320,"24":2320,"25":2320}},{"layers":[{"inputNeurons":0,"outputNeurons":10,"weights":[],"biases":[0.633554742671786,-0.5294703068509762,0.6380857602811769,0.364114934349516,0.5784540066852016,-0.330668534174534,0.27337231233905357,-0.12901336393899238,-0.06012543921344221,0.5405968985714455]},{"inputNeurons":10,"outputNeurons":3,"weights":[[-0.06436758147993776,-0.9212137804541765,-0.8402970187680971],[0.7590484283137644,2.4377340312739935,-0.17082625034596793],[-1.2046607763017778,0.3971631907005751,-0.18817489897332454],[0.14942233617040215,-0.8861566753963201,0.0360626156886625],[0.41649785500146463,-0.8531976270284016,-0.8026998979611972],[-0.544975219506634,-0.8426263693160113,-0.23627415736395185],[0.9615575919771704,1.6973760075431144,0.7134161397113865],[1.0211089240586049,-1.5043401451129337,1.207255719238926],[0.5973095034914369,0.3070665177527304,0.7516540268358195],[-1.0418659626240463,-0.5626303584121639,1.8081017740809466]],"biases":[0.01799844050854893,-1.0698351495864609,-0.19638471150463288]},{"inputNeurons":3,"outputNeurons":1,"weights":[[0.7990132254617247],[1.2975546830041855],[-1.4152992601143066]],"biases":[0.2897978525887523]}],"scores":{"1":1420,"2":2320,"3":2320,"4":2520,"5":2320,"6":2520,"7":2320,"8":2320,"9":2320,"10":2590,"11":2320,"12":2520,"13":2560,"14":2320,"15":2320,"16":2370,"17":1300,"18":2320,"19":2320,"20":2320,"21":2320,"22":2320,"23":2320,"24":2320,"25":2290}},{"layers":[{"inputNeurons":0,"outputNeurons":10,"weights":[],"biases":[0.5199800878938692,-0.5596619853614544,0.3192374830810003,0.2146627553094614,0.3179069307609349,-0.559841542439822,0.06276557998674276,-0.09129141487201478,0.2735651751236568,0.61703470144342]},{"inputNeurons":10,"outputNeurons":3,"weights":[[0.05880517305867097,-0.983411427009775,-0.9459258943771285],[0.6258791749787088,2.0985061899352333,-0.032076399691747026],[-1.2481370405414947,0.3948035567105711,-0.3899421712424052],[-0.08086553308685274,-0.5779991976547402,0.051486419012643975],[0.9193355997968599,-1.443205292073361,-0.8691203062387927],[-0.4922982799047063,-0.8387156761165853,-0.11404558418509247],[0.614044393998695,1.694209912604492,0.7615535297261546],[0.8226649139661919,-1.3725683742349848,1.2297926855136487],[0.46409072795842676,-0.029616016553074498,0.7710129370197276],[-0.7208536825642441,-0.7328618391254218,1.8122137246736842]],"biases":[-0.23727516436748491,-1.2783737650667946,-0.19393036691047008]},{"inputNeurons":3,"outputNeurons":1,"weights":[[1.407980779690818],[1.4444894564762452],[-1.145620947127465]],"biases":[-0.14926987503916536]}],"scores":{"1":1710,"2":1690,"3":1690,"4":1690,"5":2110,"6":3620,"7":1690,"8":1690,"9":1690,"10":1280,"11":2540,"12":2580,"13":1690,"14":2320,"15":4960,"16":2320,"17":1690,"18":1250,"19":2280,"20":2500,"21":2320,"22":1320,"23":1320,"24":1690,"25":1310}},{"layers":[{"inputNeurons":0,"outputNeurons":10,"weights":[],"biases":[-0.10143340245387131,-0.335376008975687,0.5581403355290877,0.04466067305826715,0.4446611576968989,-0.42568451560336457,0.10154411817381948,-0.45892827494713373,-0.38275750247440693,1.1579033821536622]},{"inputNeurons":10,"outputNeurons":3,"weights":[[-0.18163748725448875,-0.670844287319513,-0.4759345001459117],[1.1494783816023093,2.0130395592272374,-0.37303428912548575],[-1.3475551312797471,0.5773717938057179,0.21063807554181735],[-0.059883076088018905,-0.07485889739059604,0.6713979513385182],[0.7703380099581453,-0.7947751482680773,-0.8376006875041584],[0.22606658990700312,-0.2724961261715919,-0.1759527945184279],[0.9856420047172395,1.8694051823088689,0.19276412828686468],[0.3733073244247916,-1.0876016945143119,1.1157666925239997],[0.4295663489217113,0.15881793981685255,0.7458758665083679],[-0.8046221824603103,-0.4951289990375075,1.0208697779796438]],"biases":[-0.3691962062622125,-1.1261156883181065,0.13175239519412665]},{"inputNeurons":3,"outputNeurons":1,"weights":[[1.026947544977085],[1.7341336570133954],[-1.3819711606628995]],"biases":[-0.45733497755331487]}],"scores":{"1":1970,"2":2160,"3":2690,"4":1820,"5":2130,"6":2040,"7":1920,"8":2160,"9":1920,"10":2010,"11":1750,"12":2160,"13":2050,"14":1620,"15":1290,"16":2860,"17":1280,"18":2880,"19":2290,"20":1830,"21":1280,"22":1510,"23":2030,"24":2310,"25":1960}},{"layers":[{"inputNeurons":0,"outputNeurons":10,"weights":[],"biases":[0.20612179317759668,-0.44928548576089383,0.8747881612446594,0.3859887466463755,0.12197801295790828,-0.691788870185134,0.10372807681032786,-0.47685438926756135,-0.583746357045771,1.0666323138312224]},{"inputNeurons":10,"outputNeurons":3,"weights":[[-0.24139784644663603,-0.4224657471751194,-0.8001209469382777],[0.8275301036482,1.9736504131730648,-0.29691687127550837],[-1.0901508371335837,0.5880452268778824,-0.16121205168974442],[-0.09742626949048466,-0.5809384767541586,0.33144948103657657],[1.0171746838837266,-0.8211471873691885,-0.965781667980299],[0.30075166076072785,-0.20407219811548555,0.4197195940474647],[0.84147757148072,1.8583801631501233,0.6545334267912591],[0.4606985984013543,-1.1405395119777366,1.3109496562865102],[0.7741488332365967,-0.20522819238747475,0.7508296746935796],[-0.34392555336746433,-0.6772671562559485,0.9842030509436326]],"biases":[-0.282075072682596,-1.1973524812472705,-0.03920875001904581]},{"inputNeurons":3,"outputNeurons":1,"weights":[[1.1518324531655684],[2.0699294483632773],[-0.8376919131469749]],"biases":[-0.27032629801600505]}],"scores":{"1":1760,"2":1520,"3":1650,"4":1450,"5":2040,"6":1840,"7":1680,"8":1670,"9":840,"10":1810,"11":1650,"12":2820,"13":1930,"14":1160,"15":1830,"16":2020,"17":1030,"18":1600,"19":2690,"20":1840,"21":3000,"22":1780,"23":1430,"24":1680,"25":2870}},{"layers":[{"inputNeurons":0,"outputNeurons":10,"weights":[],"biases":[0.28966120429308473,-0.4240950501929302,0.351772808400331,0.43971915923780164,0.3898419196362293,-0.5658438086351681,0.5666660408554673,-0.3013129447759379,-0.04889900086555321,0.8300091270008367]},{"inputNeurons":10,"outputNeurons":3,"weights":[[0.06486861090730167,-1.1596513002678777,-0.5883655703416806],[0.7197686527665585,2.045499784929747,-0.24862782413282186],[-1.5428461705172873,0.4353173258921824,-0.3470267223880843],[0.21338515734679478,0.04270911751157258,0.07207188702202805],[0.6677187846401063,-0.936679486283032,-0.410824756475368],[-0.4380220360187256,-0.6394311756153819,-0.3689171243761258],[0.5541646568690359,1.8431046822007482,0.928399361561199],[0.5183854471340059,-1.3767378419352592,1.225131450738601],[0.38451484868008834,0.22769800552479583,0.7521460256182174],[-0.9910824542230443,-0.4568727752944195,1.5922679461842224]],"biases":[-0.12419037055041042,-1.5790192437879262,-0.3029411343918075]},{"inputNeurons":3,"outputNeurons":1,"weights":[[1.0152891703621032],[1.7358835426826738],[-1.3539469334485583]],"biases":[0.2052775987127957]}],"scores":{"1":2850,"2":1270,"3":1710,"4":1710,"5":1290,"6":2240,"7":1710,"8":1710,"9":1470,"10":1280,"11":2340,"12":1710,"13":2850,"14":1710,"15":2360,"16":2480,"17":2340,"18":1300,"19":1710,"20":1710,"21":1290,"22":1710,"23":1710,"24":1290,"25":1710}},{"layers":[{"inputNeurons":0,"outputNeurons":10,"weights":[],"biases":[0.7704886437640869,-0.3715908215449881,0.7861608975264962,0.48099035885774516,0.2956113441564838,-0.4460810502392469,0.1659740884372183,-0.40989765034094244,0.44674294371009443,0.6832570894487822]},{"inputNeurons":10,"outputNeurons":3,"weights":[[0.1590551457823332,-1.7359665129101558,-1.0650285542537867],[0.9659717659524157,2.154258326672748,0.057950645535217726],[-1.1762068295071546,0.5451455980318399,-0.34514639283198334],[-0.08624796500068832,-0.5061257603847006,0.2506903374095843],[0.5390950160040291,-0.7508669492206541,-0.4390981691389012],[-0.3918906722982596,-0.4004050761502316,-0.3488940057208459],[1.0391738719417203,1.5738273184285811,0.693925505080128],[0.7179522238683892,-1.590555441144725,1.2056866354641689],[0.5751452051518054,0.10746643198176586,0.6482160649144425],[-0.9878587711758817,-0.8936356205578929,1.7467906406963973]],"biases":[-0.13333555281521647,-1.1846491181544843,-0.31848458875070884]},{"inputNeurons":3,"outputNeurons":1,"weights":[[0.9255635282284634],[1.7656562209515918],[-1.100097193937901]],"biases":[0.08414691494650492]}],"scores":{"1":1770,"2":1970,"3":2540,"4":1590,"5":1700,"6":1770,"7":2200,"8":1680,"9":1670,"10":1650,"11":1750,"12":2580,"13":1670,"14":1740,"15":1340,"16":1670,"17":1670,"18":1770,"19":1750,"20":1320,"21":2590,"22":1670,"23":1430,"24":1670,"25":1960}},{"layers":[{"inputNeurons":0,"outputNeurons":10,"weights":[],"biases":[0.6981854461441666,-0.4396329514927291,0.8310226965786728,0.35992158913495653,0.42776083325476155,-0.641327663149203,0.22865515515254423,0.2826493245971153,0.40731927300910586,1.059788665985928]},{"inputNeurons":10,"outputNeurons":3,"weights":[[0.13406625654943258,-0.9993958491873729,-0.8230603686699657],[0.8741253684518079,1.679151459850975,-0.29396304754125674],[-0.9443535925750077,0.9290206461465269,-0.03396061209310641],[0.28482205478149625,-0.2676707280398716,0.3824145864916657],[0.7663346970943731,-0.6694255090852792,-0.5181995853202394],[-0.4894893454964108,-0.19762272829655686,-0.26539613040351845],[1.0020483217454643,1.319967341449634,0.4889133677444709],[0.6888902382951428,-1.793494968721384,1.5592310220917178],[0.6282224963940312,0.06297917470471964,0.746944557646854],[-0.8734715023667403,-0.9873502171830557,1.494041990273496]],"biases":[-0.1769425014204569,-1.2244065430144955,-0.3327827178819356]},{"inputNeurons":3,"outputNeurons":1,"weights":[[0.9842466714630265],[1.7776555580267197],[-1.2608050763272147]],"biases":[-0.216379671564979]}],"scores":{"1":1310,"2":1700,"3":1680,"4":2260,"5":1140,"6":1760,"7":1630,"8":1570,"9":1350,"10":1300,"11":1620,"12":1190,"13":2020,"14":5660,"15":2790,"16":1320,"17":1650,"18":1640,"19":1220,"20":1620,"21":1330,"22":1140,"23":2160,"24":1330,"25":1110}},{"layers":[{"inputNeurons":0,"outputNeurons":10,"weights":[],"biases":[0.5746865155418339,-0.33598715152174674,0.5476190213022116,0.6424056458791061,0.30973268699772405,-0.44471315579729287,0.17180935348101603,-0.5448424423271052,0.45682518638878944,0.7767582588012429]},{"inputNeurons":10,"outputNeurons":3,"weights":[[0.23652913576714968,-1.3058894599813773,-0.8520740416434228],[1.023356846586387,2.012138043642394,-0.4715961241194089],[-1.2406139169776214,0.4530487659726617,-0.2154031417181892],[0.23251686285058293,-0.6310879792063226,0.10365489253337638],[0.68523471698299,-1.039571464548217,-0.48966212917332913],[-0.3471002286548931,-0.6881323776239161,-0.3073647166456299],[0.8746178786347858,1.5700478326515146,0.9661650592311339],[0.857931935039441,-1.84212331098242,1.3883467257064073],[0.9369923760973454,0.4188792139015862,0.7975523410348174],[-0.7270270212275958,-0.7013610380749039,1.36769920336654]],"biases":[-0.032717130888506,-0.6883342383020188,-0.3020414325074424]},{"inputNeurons":3,"outputNeurons":1,"weights":[[1.0460349187935398],[1.7145668056682832],[-1.5352760190582584]],"biases":[0.4567907470760732]}],"scores":{"1":1700,"2":1610,"3":2670,"4":1260,"5":1380,"6":1210,"7":1590,"8":1750,"9":1330,"10":1840,"11":1460,"12":2620,"13":1680,"14":1750,"15":1760,"16":1210,"17":1570,"18":1700,"19":1550,"20":1660,"21":1590,"22":1820,"23":1660,"24":2620,"25":1660}},{"layers":[{"inputNeurons":0,"outputNeurons":10,"weights":[],"biases":[0.2050896623417924,-0.1836767000179942,0.33994473839207573,0.5875133947326249,0.18168216152907385,-0.7789060688092387,-0.36957308479235584,-0.186221531640626,-0.07289861725843959,1.140834683028]},{"inputNeurons":10,"outputNeurons":3,"weights":[[-0.1438262406870426,-0.11236449584526503,-0.9869522547400992],[1.2341623024546697,1.7049940976988145,-0.16972554674924295],[-1.3783496394138643,0.6076000335125702,-0.22819297126844054],[0.05584522676440562,-0.4612430090326307,0.6738950853154777],[0.7071584292077634,-0.8867666888997982,-1.281091255958938],[-0.39872258301143976,-0.5246664905086837,0.24491914147916077],[0.900831740965807,1.5055602554137213,1.1113103008634564],[0.3654437369652221,-1.14417195307936,1.3841062451545965],[0.8314862714348221,0.05715592867374287,0.7877536214550156],[-0.9619285787999525,-0.6843104499125282,1.0096727799644143]],"biases":[-0.20216748375401117,-0.8216798972981308,0.4673934413149181]},{"inputNeurons":3,"outputNeurons":1,"weights":[[1.0388717783057753],[1.6929048885907025],[-0.9326093668618287]],"biases":[-0.45145041341275916]}],"scores":{"1":1700,"2":1680,"3":1680,"4":1680,"5":2640,"6":1620,"7":1700,"8":1170,"9":1760,"10":1840,"11":1790,"12":1800,"13":1610,"14":1670,"15":1010,"16":1840,"17":1660,"18":1550,"19":1690,"20":1630,"21":1380,"22":1680,"23":1510,"24":1680,"25":1480}},{"layers":[{"inputNeurons":0,"outputNeurons":10,"weights":[],"biases":[0.7911613167537388,-0.7500949851769146,0.7645349292198151,0.5339599395278116,0.6983719291467954,-0.5850484288507752,0.10032565212114514,0.019565368691145786,0.18618108143454717,0.540481883444703]},{"inputNeurons":10,"outputNeurons":3,"weights":[[0.10146269785416263,-0.7697643690760698,-0.4566594230006152],[0.9119958662680021,2.2183392962059174,-0.48723473685169394],[-1.4580113422313006,0.341603926501754,0.016051330724159485],[-0.012799265234119117,-0.5378651626185919,-0.04374863653039775],[0.682755223905774,-1.207142556695805,-0.5207886990285013],[-0.1861754087551687,-0.40221974862705495,-0.20019924306570355],[0.7705724407830774,1.387007927792274,0.6443340012017693],[1.0939259200218632,-2.1210627776324333,1.7151892314728383],[0.49996415671324684,0.37129234817352025,0.8825334983187562],[-0.9756667571459073,-0.6742520396670811,1.6604139752797111]],"biases":[-0.5671004254435685,-1.0525882956181007,-0.12096646246627277]},{"inputNeurons":3,"outputNeurons":1,"weights":[[1.0069479183059389],[1.7794230225731384],[-1.4071529825289062]],"biases":[0.06045504957607903]}],"scores":{"1":1660,"2":1840,"3":1670,"4":1460,"5":1610,"6":1680,"7":1650,"8":1620,"9":1840,"10":1670,"11":1680,"12":1760,"13":1660,"14":1680,"15":1800,"16":1840,"17":1290,"18":1650,"19":1440,"20":1610,"21":1540,"22":1610,"23":1520,"24":1680,"25":1760}},{"layers":[{"inputNeurons":0,"outputNeurons":10,"weights":[],"biases":[0.18641818516030456,-0.40877955695139157,0.4945568900620219,0.455469527628622,0.206433468550801,-0.7077988429334021,0.07401685222738713,-0.3813301277325211,-0.16772971857375046,0.7531111526157481]},{"inputNeurons":10,"outputNeurons":3,"weights":[[-0.39759767007207714,-0.7079254172925578,-0.9821066259983772],[0.9487220281116935,1.6359023109912816,-0.4073738207438057],[-1.0099179356330286,0.9120860303479408,-0.24042477369093876],[-0.18211883648277027,-0.5146325999129805,0.6946192650286058],[0.7849818020944478,-0.8920931056663199,-0.7055656200020844],[-0.3120501542712186,-0.21297424039183083,0.2200831025026142],[0.7942774228348859,1.4386410462426655,0.8950685783104074],[0.11103374240805575,-1.2530325418526553,0.8231303278342419],[0.7030439544286532,0.7004126257549588,1.0123269183167563],[-0.8351091054594348,-0.7471116474654363,1.1653603953689073]],"biases":[-0.2801513334837359,-1.2400741712001964,-0.2882137699780224]},{"inputNeurons":3,"outputNeurons":1,"weights":[[0.899727981820107],[1.7404348180961364],[-0.9748865052077711]],"biases":[-0.31216666775655766]}],"scores":{"1":1560,"2":1660,"3":1490,"4":1660,"5":1590,"6":1540,"7":1600,"8":2990,"9":1500,"10":1520,"11":1660,"12":1350,"13":1680,"14":1840,"15":1840,"16":930,"17":1180,"18":1680,"19":1760,"20":1760,"21":1610,"22":1550,"23":1840,"24":1840,"25":1510}},{"layers":[{"inputNeurons":0,"outputNeurons":10,"weights":[],"biases":[-0.0017603689820504115,-0.441958794418742,0.37484311332303477,0.4813392115300819,0.4835822466330286,-0.2651605995052395,-0.17128331157729138,-0.4471907587004512,-0.018308538138592956,1.2867314778237189]},{"inputNeurons":10,"outputNeurons":3,"weights":[[-0.3302961318558903,-0.5577534317728092,-0.6841455612961633],[1.0348591497519768,1.8868681635507332,-0.43482030518449866],[-1.1339479766026919,0.4805351274248123,0.18315356075688302],[-0.03973871087561365,-0.41367318718741913,0.23976521844130366],[1.0009873743705742,-1.2968152347164967,-0.919437388886264],[0.05348266756337394,-0.11067879900927861,0.12094691268531843],[0.9394679142990494,1.5076558027088334,0.41873835778910196],[0.2476930003267002,-1.1440480512013416,0.9103459633232662],[0.678848274198233,0.29592356572285755,0.9334169153549695],[-0.48816751716966544,-0.7466088220366882,0.8387228534082755]],"biases":[0.06814385821142141,-0.7464131161069143,0.010211893513707864]},{"inputNeurons":3,"outputNeurons":1,"weights":[[1.0083847440164613],[1.5126091227944616],[-0.9775403755782268]],"biases":[-0.38167009901830834]}],"scores":{"1":1670,"2":1500,"3":970,"4":1680,"5":1880,"6":1760,"7":1610,"8":1680,"9":1680,"10":1680,"11":1840,"12":1660,"13":980,"14":1680,"15":1540,"16":1700,"17":960,"18":2820,"19":1700,"20":1840,"21":1700,"22":1540,"23":1500,"24":1680,"25":1840}},{"layers":[{"inputNeurons":0,"outputNeurons":10,"weights":[],"biases":[0.28201560042297,-0.5990471135914501,0.37664144130470234,0.4853005214421374,0.07064109161175178,-0.17448655832612192,-0.3478800138012077,-0.13086184943657586,-0.08458649556016964,1.478628026470656]},{"inputNeurons":10,"outputNeurons":3,"weights":[[-0.30594848005396086,-0.8661819591799892,-0.6918336084884436],[1.317445433606149,1.999921887821267,-0.5865610495255661],[-0.9832972181636669,0.3571945912503654,0.29627880099633364],[-0.36579032895979463,-0.5237572309608048,0.4870399054755657],[0.9297358166103347,-0.5799773828409929,-0.9957153160799006],[-0.17188166994563842,-0.49999482760305425,-0.028910370608866115],[1.0313697358991063,1.8681777628154488,1.0579354031128432],[0.6214096715434025,-1.2902513959596644,1.0403934505621801],[0.5756794287647641,0.21938223988089145,0.9131443869091715],[-0.772284246376043,-0.9306572581477999,1.0667238836100874]],"biases":[-0.003970085355632397,-0.9451906968339152,0.377155637266424]},{"inputNeurons":3,"outputNeurons":1,"weights":[[1.069572768801572],[1.4486035348417587],[-0.9912965979937554]],"biases":[-0.43337926840540153]}],"scores":{"1":1760,"2":1760,"3":1670,"4":1760,"5":1680,"6":2040,"7":1660,"8":1700,"9":1510,"10":1670,"11":1680,"12":1330,"13":1660,"14":1690,"15":1450,"16":1460,"17":1470,"18":1840,"19":1690,"20":1550,"21":1610,"22":1610,"23":1500,"24":1620,"25":1440}},{"layers":[{"inputNeurons":0,"outputNeurons":10,"weights":[],"biases":[0.5432960048023097,-0.3464947478126695,0.6856636085303969,0.24326520415719607,0.5119794579578953,-0.5614960471305728,0.4164089901694631,-0.42778400802023914,0.37551751693808316,0.46129014815048186]},{"inputNeurons":10,"outputNeurons":3,"weights":[[-0.22337947103205796,-1.255385899160025,-0.644295552006122],[0.3522138343864897,1.8066202586882398,-0.004316051059910786],[-1.6343293230325497,0.6064102297029224,-0.500455816577521],[0.17798795860280014,-0.32878349960965964,-0.20159811108307713],[0.5947906295474511,-1.5901797874916208,-0.5363216502391347],[0.04315776689322215,-0.4739117589877238,-0.04769318391187213],[0.7879614551375036,1.686578854319374,0.7595407312549962],[0.5758112234998805,-1.4321827553260607,1.508737999889532],[0.7497319817163525,0.2852655641657013,0.9666536842868447],[-0.48487365630446555,-0.6542864234557522,1.4017249387617872]],"biases":[-0.34625157717766775,-1.1683896500455335,-0.37407670919665315]},{"inputNeurons":3,"outputNeurons":1,"weights":[[1.4527818547006395],[1.721494524091023],[-1.5657325380199325]],"biases":[0.007561247310684353]}],"scores":{"1":1540,"2":1330,"3":1610,"4":1460,"5":1350,"6":1680,"7":1240,"8":1370,"9":1760,"10":1670,"11":1660,"12":3460,"13":1670,"14":1410,"15":1470,"16":2210,"17":1680,"18":1660,"19":1480,"20":1000,"21":1860,"22":1480,"23":1640,"24":1360,"25":1440}},{"layers":[{"inputNeurons":0,"outputNeurons":10,"weights":[],"biases":[0.8330771742373806,-0.1731112898868474,0.5889946227894485,0.08872003303688158,0.44081099084946807,-0.4753763386970186,0.3011647356069761,-0.3586459959826827,0.4027256570658839,0.4809801960762306]},{"inputNeurons":10,"outputNeurons":3,"weights":[[0.20235455438234845,-0.9538823043703835,-0.8873824743417227],[0.8073912038008261,1.9954725172530658,-0.23526456376237861],[-1.4808241248272354,0.4916908128979953,-0.27018148775326134],[0.06459869589196056,-0.4086385790378458,0.13468234885033592],[0.5625894752727487,-0.9762435636530727,-0.669819530151291],[-1.0034886262913578,-0.045523147303352496,-0.3434072848622588],[0.7121767496858772,1.503199086824234,