{"networks":[{"layers":[{"inputNeurons":0,"outputNeurons":10,"weights":[],"biases":[-0.2196789023407144,-0.3588442534446421,0.157591328177504,0.7599143420405488,0.7151017419369687,0.728291581688108,-1.302969559727396,-0.8280634074890578,1.1956347281127222,1.6034579351753109]},{"inputNeurons":10,"outputNeurons":3,"weights":[[0.8452747387382373,-1.1038981970310724,-1.0752295692130323],[-1.1059657405065275,-1.5069501438593487,-1.067596327139881],[0.8168114051489018,-0.8174047284897772,-1.42948353985114],[-0.9260282828643129,-0.43804009344169176,-0.194838933384808],[-1.7326941837552072,0.06503639868935662,-0.2093316928291018],[1.4745894889701319,-1.2996820899605073,-1.3723119162083761],[0.24928408316586648,0.8753899310612365,-0.8170078074051907],[-0.8902226964606093,0.986656760499488,1.6055634785339379],[0.7579174054739081,-0.030512763239233326,0.2696975924073658],[-0.6853228778457229,-1.7158822552946111,1.015412359139999]],"biases":[1.1771188579278336,-1.8794676811824904,0.08619301597527744]},{"inputNeurons":3,"outputNeurons":1,"weights":[[0.3514949517504179],[1.3945474402168885],[-1.8243761298640455]],"biases":[1.6157981830840387]}],"scores":{"1":2800,"2":2540,"3":4980,"4":3380,"5":2110,"6":2540,"7":5000,"8":2560,"9":1300,"10":5000,"11":1310,"12":4980,"13":4980,"14":2800,"15":2600,"16":2110,"17":4980,"18":1470,"19":1300,"20":4980,"21":5000,"22":4980,"23":5000,"24":3400,"25":3380}},{"layers":[{"inputNeurons":0,"outputNeurons":10,"weights":[],"biases":[0.31584527309751853,-0.5174240022089247,-0.21911965904472352,0.2535872011242323,1.0556467536351968,0.6944914919329565,-1.0293595259902393,-1.2596809379742477,2.332687733715311,1.1769310357154124]},{"inputNeurons":10,"outputNeurons":3,"weights":[[0.5812264015784713,-1.0212344105249478,-1.5053613830181647],[-1.053762397330363,-1.1415014070322924,-0.9044362768171242],[1.549312083970402,-1.0337087783023207,-1.6690324218598598],[-1.1288334724670914,-0.09558428811978303,-0.2018041385905881],[-1.576457954407891,0.2809325608763131,-0.20844448302372112],[2.055656732613371,-0.7801835391766067,-1.5111997151286594],[0.12674470971996493,0.8074964666577281,-0.5629416585263958],[-1.1116827296428666,1.1195454078690203,1.432090989570514],[0.7728231299820594,-0.34216942971274555,0.41395231341442074],[-0.5341577668173878,-1.027202329600858,0.753970814251957]],"biases":[1.1495473594834562,-1.6202078065107426,-0.28520873801116164]},{"inputNeurons":3,"outputNeurons":1,"weights":[[0.4651821745115521],[1.7126362143757068],[-2.0400438592433603]],"biases":[1.621160896134214]}],"scores":{"1":2600,"2":4940,"3":2380,"4":4980,"5":5000,"6":3580,"7":2800,"8":4980,"9":4980,"10":3580,"11":1910,"12":4980,"13":2340,"14":2800,"15":3380,"16":1320,"17":1260,"18":4980,"19":3400,"20":2800,"21":1910,"22":1270,"23":4980,"24":3600,"25":2200}},{"layers":[{"inputNeurons":0,"outputNeurons":10,"weights":[],"biases":[0.5024957046050788,-0.14902116091051393,0.17981147009060122,0.2509687774796233,0.9064420243770266,0.5233615950645781,-1.0758309612914567,-1.2945218019405997,1.6764843754308552,1.2514444826603235]},{"inputNeurons":10,"outputNeurons":3,"weights":[[0.801536047125611,-0.6749378767486004,-1.2954017187327618],[-0.658960854560667,-1.2106870869153807,-0.6812953436129876],[1.228713052696186,-1.0250009523831989,-1.3542855425412315],[-0.9429689546966159,-0.16851839230750462,-0.5518823766367085],[-1.4925158843369377,-0.08905203799380593,-0.09186982818715],[1.6145274207974103,-0.9351885769581098,-2.0188346807189426],[0.3769246608333134,0.5792979954436025,-0.5712204621956041],[-0.6821276465055012,1.1848551824838571,1.318600265288627],[0.16185058905206992,-0.17339958233700398,0.30602721456231197],[-1.231088906723377,-1.4653984194118548,0.5976875408282426]],"biases":[1.4535849320993424,-1.1915933456279135,0.14962767099182325]},{"inputNeurons":3,"outputNeurons":1,"weights":[[0.7376417466777472],[1.1724980592831133],[-1.5836484654347287]],"biases":[1.5382955547327601]}],"scores":{"1":2720,"2":4980,"3":2340,"4":2200,"5":4980,"6":4980,"7":5000,"8":2520,"9":1950,"10":3400,"11":2800,"12":1320,"13":4980,"14":4980,"15":4980,"16":2580,"17":3600,"18":1300,"19":1260,"20":4980,"21":4980,"22":5000,"23":1290,"24":2340,"25":1290}},{"layers":[{"inputNeurons":0,"outputNeurons":10,"weights":[],"biases":[0.21292639954486886,0.021955732346180173,0.5238345850567483,0.21639258285591698,0.8506508365164142,0.6988386873018977,-0.9364168185691158,-1.2534110851292013,1.294622540137128,1.2412997915923882]},{"inputNeurons":10,"outputNeurons":3,"weights":[[0.7024357203703983,-0.484479279264035,-1.0547469495003423],[-0.5922448640067912,-1.0177811499688474,-0.8925642238106178],[1.6465179748185022,-0.9153534890742088,-1.3351200040174878],[-1.153797225354769,-0.23341632622276767,-0.43091897417354064],[-1.4390333998088876,-0.18702001190257417,-0.3236303616538958],[1.3289523866606856,-0.9469016243899588,-1.6319189092331623],[0.44356068283198236,0.1944902040127251,-0.5885477581894915],[-0.7602190521279427,0.7226859058354418,1.3362322247527227],[0.4051467580278678,-0.26185313039524744,0.621188203578551],[-1.5990568383713728,-1.3343193408930725,0.9642489469666534]],"biases":[1.2926450004366674,-0.7568745254365966,-0.14443777003235694]},{"inputNeurons":3,"outputNeurons":1,"weights":[[0.9128371553071547],[1.0493575396863788],[-1.9493772260808018]],"biases":[1.95059041668399]}],"scores":{"1":3350,"2":5000,"3":1310,"4":3200,"5":4980,"6":4980,"7":2200,"8":3400,"9":2200,"10":2340,"11":4980,"12":1910,"13":1270,"14":2050,"15":1270,"16":4980,"17":1930,"18":3600,"19":1320,"20":4980,"21":2200,"22":4980,"23":2110,"24":4980,"25":4980}},{"layers":[{"inputNeurons":0,"outputNeurons":10,"weights":[],"biases":[0.8236442041438743,-0.21440573054711,0.24339668832297826,0.48861901154976783,0.8370205134741007,0.6357928886020902,-0.9180510195653449,-1.2112850111635198,1.6871735718298837,1.127779623375436]},{"inputNeurons":10,"outputNeurons":3,"weights":[[0.6120934002356213,-0.48108618828386196,-1.156913937854299],[-0.8847886813649342,-0.8525167605737534,-0.5952150248571717],[1.051063919661047,-0.8812066680875127,-1.3732152329821792],[-1.112854137434237,-0.08838440833739158,-0.6673997703541259],[-1.6059706009875128,-0.07827403717279396,-0.2437128872600831],[1.5861310359622383,-1.1269779321458224,-2.0512052050527734],[0.31866063469541417,0.5986142067831387,-0.6211854952840402],[-0.5947010116530029,1.0214906743341858,1.1106550162842224],[0.39551194854462884,-0.5820304900421234,0.3372695724867534],[-1.1538587358675145,-1.3236654266768437,1.1050886381823393]],"biases":[1.5119218281445828,-1.0734206407004698,0.19593731238539538]},{"inputNeurons":3,"outputNeurons":1,"weights":[[0.35990246629333766],[1.0394448464226307],[-1.4072439695810965]],"biases":[1.345860902833341]}],"scores":{"1":3400,"2":1270,"3":3400,"4":5000,"5":4980,"6":1280,"7":2780,"8":2520,"9":5000,"10":4980,"11":3070,"12":4950,"13":1960,"14":4980,"15":2340,"16":2600,"17":2360,"18":4980,"19":2220,"20":2390,"21":2580,"22":2850,"23":3580,"24":3400,"25":1320}},{"layers":[{"inputNeurons":0,"outputNeurons":10,"weights":[],"biases":[0.48862678215031974,-0.012624753271886235,-0.1097575869843881,0.7178667688615253,0.9301726638761824,0.647647797634322,-0.8360090386803098,-1.0813104009327832,1.861578897185952,1.0454299673034664]},{"inputNeurons":10,"outputNeurons":3,"weights":[[0.13455351224087386,-0.08486426236420166,-1.0302873848638323],[-0.6241928525333589,-0.9250809971563059,-0.698409507987708],[0.6348098966430509,-0.3280058847539314,-1.110580217421837],[-0.6606889619131725,0.44475201757204424,-0.9521444619582704],[-1.5147943891401259,-0.07239798243163914,-0.5805381622338018],[1.8051545354716216,-1.138682287218615,-2.0491521019075893],[0.28734548534728754,0.20876317514021728,-0.3592936345831257],[-0.2645514151535023,0.9762377532983602,1.3283731748114385],[0.3801026915987131,-0.79227781169973,0.24832551666120345],[-0.723021861616705,-2.313779277986056,0.9132936090223286]],"biases":[1.2050706021226572,-0.504635081426245,0.13768999985889682]},{"inputNeurons":3,"outputNeurons":1,"weights":[[0.3904870789812848],[1.022281251215127],[-1.4634477569913198]],"biases":[1.4052697431976364]}],"scores":{"1":4980,"2":3270,"3":1300,"4":2340,"5":2200,"6":4980,"7":4980,"8":1280,"9":4980,"10":2960,"11":3600,"12":3380,"13":5000,"14":1260,"15":1960,"16":2000,"17":2200,"18":2230,"19":2340,"20":5000,"21":2720,"22":2580,"23":4980,"24":3400,"25":2800}},{"layers":[{"inputNeurons":0,"outputNeurons":10,"weights":[],"biases":[1.0000576151819411,-0.8059651232233767,0.34356143797981537,0.5249534953904845,0.6518864896542756,0.5356378862379203,-1.0600637099314045,-1.681268719483699,2.331299451571275,1.6430138305648798]},{"inputNeurons":10,"outputNeurons":3,"weights":[[0.0027911764355187385,-0.23426152921092525,-1.1201718788929478],[-1.1281125463108235,-0.5278494567715705,-0.5865963196895272],[1.1781670795369905,-0.9821814658519463,-1.8738722686868203],[-0.8742445339024963,0.424301872621544,-0.908205417078195],[-1.496066005817282,0.6804040027600458,-0.21066119230320937],[1.5174919196876515,-1.2910029691486515,-2.445121294058355],[0.6531930675335877,-0.0031291160288678954,-0.4346774858027004],[-0.5320335340001808,1.0931894250603633,0.9259819968072709],[0.1635933368151439,-0.899807641547401,0.5460807619543955],[-0.9359469599261672,-1.5779610354250657,0.866653219264294]],"biases":[1.480562226092126,-1.1212383021907688,-0.07982303215197273]},{"inputNeurons":3,"outputNeurons":1,"weights":[[0.5996582502628934],[0.6525151185468799],[-1.1552742223407426]],"biases":[1.6000903181026427]}],"scores":{"1":4980,"2":5000,"3":2340,"4":2200,"5":4980,"6":1290,"7":1300,"8":4980,"9":3580,"10":1280,"11":2200,"12":1300,"13":1990,"14":2580,"15":4980,"16":4980,"17":4980,"18":1290,"19":2340,"20":3600,"21":4980,"22":2000,"23":2200,"24":3380,"25":1270}},{"layers":[{"inputNeurons":0,"outputNeurons":10,"weights":[],"biases":[0.9354510795084361,-0.37826859673221036,0.4000035894117884,0.37830354705476044,0.987184267028194,0.572593281060081,-1.1096466145554928,-1.2301933495011899,1.9299938100709801,1.4052348796364975]},{"inputNeurons":10,"outputNeurons":3,"weights":[[0.5898430894570956,-0.42009896264230284,-1.2947535311137313],[-0.8266949165183917,-0.3949813963492168,-0.7380917092184017],[0.8214396346316524,-1.0173697437168012,-1.2946421886250037],[-0.977553510611936,0.033196125469613924,-0.8256012650137531],[-1.3975414324080988,0.6833647096238311,-0.06960806448316059],[1.3869015555074233,-1.055991105577974,-2.4361974065951912],[0.11262854375828912,0.2989663910177268,-1.0386909378049891],[-0.5455438347775027,0.9669929035050171,0.7477150984804593],[0.7977004629084967,-0.5109347709686521,0.5081362525030069],[-1.0453446371858528,-1.4613302232278467,1.2746667137947056]],"biases":[2.0992725038564757,-1.2168221433544641,-0.3741607636752834]},{"inputNeurons":3,"outputNeurons":1,"weights":[[0.1853167551640228],[0.41485388498017256],[-1.4818681433462475]],"biases":[1.7370238260305562]}],"scores":{"1":2200,"2":2800,"3":5000,"4":5000,"5":2000,"6":4980,"7":3600,"8":2340,"9":3600,"10":2310,"11":2800,"12":1320,"13":2340,"14":2340,"15":1330,"16":5000,"17":2540,"18":3600,"19":2340,"20":1290,"21":2340,"22":3580,"23":1960,"24":4980,"25":1280}},{"layers":[{"inputNeurons":0,"outputNeurons":10,"weights":[],"biases":[0.6349926283083887,-0.577886134936396,-0.08754548593905542,0.3532049029475045,0.9101613039999051,1.1884768609345595,-1.269374852669272,-1.24507073185707,1.5657817645406056,1.7189634970000889]},{"inputNeurons":10,"outputNeurons":3,"weights":[[1.2879538017907344,-0.9892711937257007,-1.3672344227841644],[-1.494818346963507,-1.4780199885899685,-0.5392339208276611],[1.7128069654896376,-1.3026707972028526,-1.6340177830517932],[-1.3349431977266537,-0.3318745775363896,-0.6926244012948243],[-1.7028405121597134,-0.21004938816576213,-0.025039250563502674],[2.2735754165310604,-0.8512723054459759,-1.7720188057751236],[0.6527359512976051,1.224779002242301,-0.6628752152343396],[-0.961921789549299,0.6018261164465952,1.5799097278076217],[0.6986461289892779,-0.31753457455923717,0.514340274377922],[-0.495113430486329,-1.311480939109236,1.3604068929080655]],"biases":[0.8906845908079736,-1.4835752981850021,-0.6026828642351705]},{"inputNeurons":3,"outputNeurons":1,"weights":[[0.6033359866776185],[1.654420458293883],[-1.6384651514469737]],"biases":[1.4066628701097597]}],"scores":{"1":3420,"2":2200,"3":3600,"4":5020,"5":1340,"6":1240,"7":1330,"8":2220,"9":3400,"10":2680,"11":2880,"12":1390,"13":3400,"14":2130,"15":1580,"16":2680,"17":2620,"18":5020,"19":3420,"20":3160,"21":2880,"22":2680,"23":2820,"24":5020,"25":2020}},{"layers":[{"inputNeurons":0,"outputNeurons":10,"weights":[],"biases":[0.34430187906410037,-0.013114095680962978,0.09452024560351498,1.0977750555996482,1.0266091161259987,0.3826912526822751,-0.7141003383001142,-1.4681947583458381,1.9161287147369346,0.9520703521828229]},{"inputNeurons":10,"outputNeurons":3,"weights":[[-0.18452211698586996,0.145303029892323,-1.3217119572347624],[-0.2676837039925584,-0.7079271065015882,-0.4278713142252256],[0.41027497550537595,-0.3083631545523395,-1.1495214888250718],[-0.9522920843134224,0.2881241738739882,-0.939424699513969],[-1.3835884763718687,-0.12472390931947219,-0.48135715879667385],[1.7355434787515611,-1.0571941811913148,-1.9782527935967227],[0.36579224289781237,0.19217743524518618,-0.22571909969350137],[-0.10247872536389119,1.1392964947634758,1.334335063208067],[0.37425165190197124,-0.7243016825571559,0.2608501877091086],[-0.9138957442260927,-2.2138316172576302,1.0164112011986421]],"biases":[1.266475842567252,-0.26347052337956267,-0.11331111395997409]},{"inputNeurons":3,"outputNeurons":1,"weights":[[0.2618256598951615],[0.8186084817833954],[-1.4603003032323187]],"biases":[1.531058736083011]}],"scores":{"1":2320,"2":5320,"3":2320,"4":2320,"5":5820,"6":2320,"7":2320,"8":2320,"9":2320,"10":2320,"11":2320,"12":2320,"13":2690,"14":2520,"15":2520,"16":2600,"17":2320,"18":2290,"19":2690,"20":5340,"21":2320,"22":2320,"23":2320,"24":2700,"25":2320}},{"layers":[{"inputNeurons":0,"outputNeurons":10,"weights":[],"biases":[0.022173438608270063,-0.15203250399977183,0.25468368842874495,0.1434529194717795,0.8340076049751531,0.40094850139893434,-0.6390217975393052,-0.8775410269183133,1.5804168739578621,1.2186616877334975]},{"inputNeurons":10,"outputNeurons":3,"weights":[[0.9423782753768116,-0.5947118799482326,-1.3073856672230577],[-0.9696085378238102,-1.2802004711889197,-0.6826894284832604],[1.428016544914067,-0.6275737623298148,-1.3923805145908146],[-1.2355714146815253,-0.27491904156681746,-0.5078130635368816],[-1.3418992065243145,-0.1358348737275531,-0.7355057297977758],[1.4616626668566697,-0.8805283640468827,-1.7954295130151634],[0.28522598768375385,0.2024872011587115,-0.4352374786073111],[-0.7774853543189799,0.6067917981743385,1.3169479103874857],[0.40929262817537687,-0.33470954519964674,0.986093065787046],[-1.711636676282254,-1.4470558754791005,1.1574342030964584]],"biases":[1.3167422687915133,-0.9418822431061391,-0.07688375641334326]},{"inputNeurons":3,"outputNeurons":1,"weights":[[0.9824571686650055],[1.1007721118722822],[-1.880033030369426]],"biases":[1.9841589302311362]}],"scores":{"1":3920,"2":2320,"3":3450,"4":2690,"5":1300,"6":2320,"7":2520,"8":2320,"9":2320,"10":2320,"11":3120,"12":6450,"13":2320,"14":2320,"15":2320,"16":2320,"17":2320,"18":2320,"19":2500,"20":2320,"21":2320,"22":2520,"23":4320,"24":2700,"25":2520}},{"layers":[{"inputNeurons":0,"outputNeurons":10,"weights":[],"biases":[0.3838362161830824,-0.4795840653732371,0.08015066834160585,0.386669646511155,0.9395947081331554,0.657333280042697,-1.266724241481168,-1.0848975049243152,1.7777998763056957,1.5104252244040413]},{"inputNeurons":10,"outputNeurons":3,"weights":[[0.7013335753352846,-0.9602406868779524,-1.0905646227667813],[-0.8916017639592138,-1.4145480680540479,-0.9223293937211187],[1.0747341727384616,-0.8799295234712203,-1.4843523903960822],[-1.028501502082105,-0.013101888915889093,-0.4719190207261087],[-1.6411701686445004,0.006172752789483399,-0.16154999792577196],[1.6141843942605645,-1.0980648383906289,-1.65773187955743],[0.27884049587422766,0.772912284844028,-0.7811650710350909],[-0.8042598647520088,1.088748942279966,1.3748820489680311],[0.4298002836024274,-0.18202572303435902,0.2975215113549415],[-0.9774330477117501,-1.5046526335455945,1.033562856767515]],"biases":[0.9599501017437392,-1.5615360931971485,0.014797083691220403]},{"inputNeurons":3,"outputNeurons":1,"weights":[[0.43311237251172907],[1.4730534662708177],[-1.9316306866871789]],"biases":[1.4865149944711142]}],"scores":{"1":2150,"2":5000,"3":2340,"4":2200,"5":2110,"6":2220,"7":4980,"8":2520,"9":2200,"10":3380,"11":1340,"12":1910,"13":2000,"14":2200,"15":1320,"16":3400,"17":5000,"18":2340,"19":2380,"20":1280,"21":4980,"22":2160,"23":2540,"24":1310,"25":2180}},{"layers":[{"inputNeurons":0,"outputNeurons":10,"weights":[],"biases":[-0.38946598668850624,-0.19662125036164574,0.055837740367541966,0.9328255449700826,0.586837689097511,0.7919775542849076,-1.28021907911326,-0.9619983643718668,1.3070669659293865,1.4649860412983764]},{"inputNeurons":10,"outputNeurons":3,"weights":[[0.90344881855578,-1.5062092981057833,-1.2377263077423948],[-1.2581556355480135,-1.3675146038944148,-1.1003250940332634],[0.900803961090849,-0.9517155911858424,-1.5534753074784193],[-1.2285460147513987,-0.35186844380544047,-0.26958250982922627],[-1.9573807890210289,-0.04920822677149353,-0.36711204520928276],[1.0022030420379577,-1.4454414143539822,-1.4304671670206526],[0.17743319412702857,0.7831293186931524,-0.9508347884721398],[-0.675436976308999,0.9030479267597675,1.6039007605951932],[0.627061341244837,0.12093508341992515,0.3756777055892195],[-0.27671930344845025,-1.0969271004259846,1.529724478169926]],"biases":[1.145859065584331,-1.5687251866505063,0.3079751564417424]},{"inputNeurons":3,"outputNeurons":1,"weights":[[0.40381486738810707],[1.1720621295865192],[-1.528121444857501]],"biases":[1.614805097055555]}],"scores":{"1":3450,"2":2320,"3":2500,"4":2320,"5":2320,"6":2520,"7":2320,"8":2320,"9":2320,"10":2320,"11":2920,"12":3120,"13":5820,"14":2520,"15":2320,"16":2320,"17":2920,"18":2320,"19":2520,"20":2320,"21":2320,"22":2320,"23":2320,"24":2320,"25":2320}},{"layers":[{"inputNeurons":0,"outputNeurons":10,"weights":[],"biases":[0.10713944770997973,-0.02884518741575512,0.06309181356125959,-0.021990720086367738,0.6643578883985964,0.4706247615951221,-0.7187737052071532,-1.0086786498446,1.2530764352947117,1.0573572637260995]},{"inputNeurons":10,"outputNeurons":3,"weights":[[0.6849436258390533,-0.3942550103726092,-1.0867921939288514],[-0.6937566602679061,-0.8710384825270641,-0.8154631244109757],[1.574810852938697,-0.6038895851437102,-1.3913705341350286],[-1.275078027472015,0.0011104729354013132,-0.21237545940397723],[-1.828451400977743,-0.29442029012159854,-0.4571042545998336],[1.3052115305293066,-1.0595328873414347,-1.5056343861435486],[0.21061203212687066,0.49082855605059666,-0.8858704728108697],[-0.4986316847121105,0.786015449121457,1.226286225639382],[0.45258286796626,-0.15586574810116088,0.6716664599964386],[-1.4941590514277758,-1.1975310060076607,1.142609980485954]],"biases":[1.400067771602394,-0.7015630027234234,0.1465122741723808]},{"inputNeurons":3,"outputNeurons":1,"weights":[[0.9599204910995568],[1.1926601350135566],[-2.1277014633993643]],"biases":[2.1745153958568344]}],"scores":{"1":3850,"2":2320,"3":4320,"4":2570,"5":2320,"6":2320,"7":2320,"8":2520,"9":2320,"10":2320,"11":2320,"12":2320,"13":2320,"14":2320,"15":2320,"16":2720,"17":3520,"18":3450,"19":2320,"20":2320,"21":2320,"22":2520,"23":2520,"24":2320,"25":2320}},{"layers":[{"inputNeurons":0,"outputNeurons":10,"weights":[],"biases":[0.26980710540429464,0.5985658213710583,0.13468896372663208,0.25295061836454297,0.46949743532384836,0.34121600574238853,-1.1499907085863699,-1.4899705644468144,1.2159488898823876,1.0686786376482187]},{"inputNeurons":10,"outputNeurons":3,"weights":[[0.739399265638432,-0.6198152542533483,-0.8040876056759998],[-0.5134430051588039,-0.7784094800931676,-0.8837653157904252],[1.3565253069454122,-0.998719335719502,-1.1199504521068517],[-0.6914695861082625,-0.38415710101759126,-0.2629665755343613],[-1.3269378588671297,-0.22487980902982982,-0.19374306117587115],[1.2374188601045886,-0.9390298283207228,-1.7166013327703067],[0.30960338675981536,0.37896109966477165,-0.3414148822597921],[-0.3479924354228566,0.753913757932942,1.089183784795894],[0.36088532032267173,-0.428125211148326,0.6737037000703013],[-1.6798544474824038,-1.2004813383933275,0.9615126465966417]],"biases":[1.4809739781790894,-0.47523350333559056,-0.045770571127776244]},{"inputNeurons":3,"outputNeurons":1,"weights":[[1.0334579923388758],[1.0467123141026016],[-2.040946506393612]],"biases":[1.9879992738588623]}],"scores":{"1":4320,"2":2320,"3":2520,"4":2520,"5":2320,"6":2520,"7":2920,"8":2320,"9":2320,"10":2320,"11":2920,"12":2320,"13":2720,"14":2720,"15":2320,"16":2920,"17":2320,"18":2320,"19":2320,"20":3120,"21":2320,"22":2320,"23":3050,"24":2320,"25":2320}},{"layers":[{"inputNeurons":0,"outputNeurons":10,"weights":[],"biases":[0.7576836402498902,-0.08193185282326584,0.1856589766533665,-0.007659867059735759,0.8136589906867207,0.5458425860523078,-0.980299348068633,-1.0648810676587444,1.5328087541910513,1.0461061466604]},{"inputNeurons":10,"outputNeurons":3,"weights":[[1.050819950295423,-0.5385916975223177,-1.3306228950244723],[-0.44648740215491745,-1.5197288739759587,-0.23770958191160968],[1.381899087887994,-1.1495780513195426,-1.652777467415583],[-1.000394774350881,0.21120734833691493,-0.4182894047670297],[-1.2690023879555186,0.18049264552062025,-0.019096169857965806],[1.5799521895716717,-1.0620651033833592,-2.245931335574182],[-0.06774890258909178,0.3120279325017136,0.01621145508818944],[-0.6876667533171434,1.3022656965842476,1.1861845545616128],[-0.2944646341296514,-0.035313168879754914,0.585491004614324],[-1.4488001520950657,-1.5278106393300601,0.9090218164702557]],"biases":[1.3549386051462815,-0.9657410889922482,-0.04696229467977772]},{"inputNeurons":3,"outputNeurons":1,"weights":[[0.6778673374337078],[1.1060662336368599],[-1.4924561372031302]],"biases":[1.8587483625909458]}],"scores":{"1":2720,"2":2500,"3":2520,"4":2320,"5":1300,"6":2320,"7":2320,"8":2700,"9":2720,"10":2320,"11":2320,"12":2320,"13":2320,"14":2320,"15":3720,"16":2320,"17":3050,"18":2320,"19":2320,"20":2520,"21":2320,"22":2320,"23":2320,"24":2320,"25":5820}},{"layers":[{"inputNeurons":0,"outputNeurons":10,"weights":[],"biases":[-0.32130697728716845,-0.37152437839721986,-0.2393761012130824,0.5751357565483284,0.5586466308674709,0.7342014374689255,-1.2909375139871102,-1.0523603145036486,1.2812757388966118,1.5158187986413905]},{"inputNeurons":10,"outputNeurons":3,"weights":[[1.0990224710064718,-1.0074221409989612,-0.7912005639864448],[-1.1502769248951379,-1.55038380732441,-1.3560325169859169],[1.0273918183455977,-1.0691480499128243,-1.1423556340205792],[-0.8849311426522938,-0.4346416447204635,0.04418588403484888],[-1.6309651090905062,0.22782196219556827,-0.21778919535692973],[1.7809238407683377,-1.4795204192460425,-1.1901012719829884],[0.571661505825201,1.1383746276615319,-1.0157791794514355],[-0.7659040275250968,0.9289759990593527,1.523418929128434],[0.7710590594800273,0.033399494246912895,0.6541672158732326],[-0.8268516978117268,-1.8257481828226896,1.0327908046957843]],"biases":[0.9369005820651884,-1.9252806386563426,0.37876407863427414]},{"inputNeurons":3,"outputNeurons":1,"weights":[[0.17193776808545713],[1.357845984228451],[-1.8864018735371624]],"biases":[1.3317859962619225]}],"scores":{"1":2320,"2":2520,"3":2320,"4":2320,"5":2320,"6":2320,"7":2320,"8":2320,"9":2320,"10":2520,"11":2320,"12":2320,"13":2320,"14":3720,"15":2520,"16":2320,"17":2320,"18":2320,"19":2320,"20":4320,"21":3920,"22":2320,"23":2320,"24":2720,"25":2520}},{"layers":[{"inputNeurons":0,"outputNeurons":10,"weights":[],"biases":[0.35848074808897623,0.1624577282744232,-0.13951330700142942,0.6637924261139658,0.9737631165559075,0.4031888742618288,-0.6471453658760387,-0.9960977197927405,2.208216423707265,1.0720235204537953]},{"inputNeurons":10,"outputNeurons":3,"weights":[[0.10774935747398794,-0.27996349747443017,-0.9790387784159778],[-0.8752574422115591,-1.00550187857082,-0.8721324078974456],[0.8772826078080854,-0.3558680630281411,-1.0939328663240315],[-0.6964163757064666,0.5880216045708013,-0.6964855217795234],[-1.3042184051755372,0.15436951000477192,-0.29389430406730294],[1.8364662703150043,-1.3996280655521107,-2.2996811477402455],[0.2308739755170421,0.24538429521112093,-0.10104053051991918],[-0.09413954333280322,0.9460852850028837,1.7152971038227514],[0.19148499640989433,-0.6919828243832278,0.2825274807091729],[-1.0580582218252728,-2.152144237232537,1.0811406096170826]],"biases":[1.358774566804759,-0.4291754547560332,-0.11033759805104013]},{"inputNeurons":3,"outputNeurons":1,"weights":[[0.43236376572359114],[1.0375963130017924],[-1.6209916464271745]],"biases":[1.62203015127196]}],"scores":{"1":2920,"2":2360,"3":2320,"4":2320,"5":5320,"6":2520,"7":3120,"8":2320,"9":2320,"10":2520,"11":2320,"12":2320,"13":2320,"14":2320,"15":2320,"16":2320,"17":3050,"18":2520,"19":2320,"20":2320,"21":2320,"22":2520,"23":2290,"24":2320,"25":2520}},{"layers":[{"inputNeurons":0,"outputNeurons":10,"weights":[],"biases":[0.27527273435038724,-0.2340808208664927,0.6029968211981197,0.3454288206039817,0.5570877008994136,0.48777093055933385,-0.7114976839940862,-1.2609981154831493,1.510321523247589,1.310692501093646]},{"inputNeurons":10,"outputNeurons":3,"weights":[[0.5623527142448435,-0.27675336447487364,-0.8706423452559835],[-0.349578279872992,-1.1029694133885157,-0.9025841364035869],[1.9885793594810366,-1.1316548932608947,-0.8053892507622343],[-1.498933314669558,-0.28377169713598793,-0.3044216279159109],[-1.5510511945580088,-0.5442854555626837,-0.09036901575832385],[1.6562930271305856,-0.8893483020811782,-1.353070188052173],[0.37969479672972883,-0.0016273534600567685,-0.5264944255097588],[-0.8070008286177611,0.9585505616909552,1.7154654763542336],[0.3608735236885885,-0.19758314479187633,0.2782304209721108],[-1.50539493975466,-1.5194487907974707,0.7538406836804036]],"biases":[1.4079537530421962,-0.6094513392653395,0.3131217277341424]},{"inputNeurons":3,"outputNeurons":1,"weights":[[0.6234861278513535],[0.9852221228849869],[-2.101014458595353]],"biases":[1.9333549233929517]}],"scores":{"1":3390,"2":2320,"3":2320,"4":2690,"5":2500,"6":2320,"7":2320,"8":2920,"9":2320,"10":2720,"11":2520,"12":2320,"13":2520,"14":2320,"15":2320,"16":2900,"17":3120,"18":2320,"19":2520,"20":2520,"21":2320,"22":2320,"23":2700,"24":2920,"25":2320}},{"layers":[{"inputNeurons":0,"outputNeurons":10,"weights":[],"biases":[0.3229388850155816,-0.2214884030136466,0.06814544455421508,0.8867706879059244,0.8862250284053743,0.8475962895680401,-1.3255237790413872,-1.4587274321719468,1.6712320838411274,1.2679234819289324]},{"inputNeurons":10,"outputNeurons":3,"weights":[[0.4315074487512531,-0.017789076246600463,-0.6970470385719941],[-0.30204052136892523,-0.9930743036977214,-0.9964449979594083],[0.7870873919925451,-0.013274671562087559,-1.004648660984777],[-0.5277472063344569,0.11458381215415808,-1.0595496430533513],[-1.7642274938129319,-0.23662674551980006,-0.44402968817182653],[1.7195213943253331,-1.0929239167207025,-1.9513963222189419],[0.570747193195734,0.5545909417582549,-0.438956547508759],[-0.14198520327836794,0.8738419491432111,1.0376580566082743],[0.4294427878051985,-0.9227008962790813,0.6163239184438414],[-0.7618513787609673,-2.2061428025255734,0.9142086498669362]],"biases":[1.3046248795649775,-0.5839637854900254,0.16354010943850011]},{"inputNeurons":3,"outputNeurons":1,"weights":[[0.3663499414537848],[0.9701630431344307],[-1.8094660701573904]],"biases":[1.4463949843643533]}],"scores":{"1":2320,"2":2960,"3":2500,"4":2320,"5":2520,"6":2320,"7":2600,"8":2320,"9":2720,"10":2320,"11":2320,"12":2320,"13":2320,"14":2520,"15":2320,"16":2320,"17":2330,"18":2320,"19":5850,"20":2320,"21":2320,"22":2320,"23":2320,"24":2320,"25":2500}},{"layers":[{"inputNeurons":0,"outputNeurons":10,"weights":[],"biases":[0.07460645857723588,-0.01223189880417392,0.5858915764342731,0.7188647353504507,1.0851537225557657,0.7800876674237163,-0.8607559935671615,-1.3356385419673587,1.4051133650479375,1.2599703535429418]},{"inputNeurons":10,"outputNeurons":3,"weights":[[0.5458262018910583,-0.49120437981457393,-0.9487297168824026],[-0.4290945360536432,-0.7441638844728997,-1.1164669629701847],[1.7826330881643642,-1.0715472214213073,-1.2000010762032207],[-1.2552955504527301,-0.6650554095753504,-0.3045295921602156],[-1.5391945854502105,-0.02870034942216121,-0.25840686541698576],[1.2842962829053695,-0.9531840599599155,-1.3427282219442427],[0.4130826275678404,0.3012100660456649,-0.510079433811581],[-1.0556507207829195,0.5978604814086439,1.1736354339547341],[0.4389999349697034,-0.344950482494256,0.789376352608874],[-1.5026152049778738,-1.3983945157961706,0.94219299873198]],"biases":[1.1908349735306183,-0.8165566369917758,-0.360870351068985]},{"inputNeurons":3,"outputNeurons":1,"weights":[[0.641231947193525],[0.9553989089500375],[-1.9288550924785275]],"biases":[2.0541036507058124]}],"scores":{"1":2440,"2":3720,"3":2320,"4":2320,"5":2520,"6":2320,"7":2580,"8":2320,"9":3920,"10":2320,"11":2320,"12":2320,"13":2590,"14":3720,"15":1300,"16":2320,"17":2320,"18":2320,"19":2320,"20":2360,"21":2320,"22":2320,"23":2320,"24":3520,"25":2320}},{"layers":[{"inputNeurons":0,"outputNeurons":10,"weights":[],"biases":[0.7223011669506868,-0.4006207162726233,0.2176002490337724,0.612787352394892,0.5740069519566462,0.5676142938241344,-0.97445100161569,-1.0331455888656564,1.790081842172378,1.0554264024278386]},{"inputNeurons":10,"outputNeurons":3,"weights":[[0.8916379726102591,-0.6683044551024874,-1.2473786410322363],[-0.741307594612263,-1.134330916647327,-0.7132659494033642],[1.0746456706018324,-1.10066131903375,-1.453999678721075],[-0.9676702220821967,0.08066664928002804,-0.904621376610687],[-1.625410729757676,0.15001156019669923,0.12853941985518982],[1.4164103024088797,-0.8628350825357254,-1.9415962972352407],[0.2722850264354347,1.0309949735510906,-0.8159837213894113],[-0.5008632975782736,1.135747493698109,1.1196068427550725],[-0.2048881445876695,-0.09223227476089522,0.17459570767093593],[-1.0260604546341716,-1.3886005738560856,0.7809789050981684]],"biases":[1.5679005081048585,-1.3770614996641608,0.2193431227278425]},{"inputNeurons":3,"outputNeurons":1,"weights":[[0.8288216457059473],[0.9928792198242153],[-1.7699044971217637]],"biases":[1.4335075308134855]}],"scores":{"1":2320,"2":2320,"3":2320,"4":2320,"5":2520,"6":2320,"7":2520,"8":2320,"9":2320,"10":2320,"11":2520,"12":2320,"13":2920,"14":2320,"15":2320,"16":4130,"17":3400,"18":2320,"19":2320,"20":2320,"21":2320,"22":2320,"23":2320,"24":2210,"25":3720}},{"layers":[{"inputNeurons":0,"outputNeurons":10,"weights":[],"biases":[0.1248583043099633,0.2663587195631735,0.42930048293945683,0.13976379930975819,0.7750154146776387,0.6643780385322464,-0.7612617617491608,-1.322400542582274,1.7565172211126894,0.9817432231618322]},{"inputNeurons":10,"outputNeurons":3,"weights":[[0.7413719504300122,-0.31785025027166236,-1.104539724070241],[-0.746948056194638,-1.220431376328016,-0.6405105573934904],[1.8627203474438734,-0.9929140661502653,-1.2590696317152121],[-0.780792944429608,-0.18281050580551958,-0.2729171948050193],[-1.1215032922639028,-0.38877606402835096,-0.5167747170545781],[0.9955672999244299,-0.9153815616109393,-1.4899671963361683],[0.6195125043459532,0.445502266188206,-0.19252279784298065],[-0.9288141919952554,0.7581195901333742,1.218868553092167],[0.1480339008520371,-0.12149428947944071,0.5223156667657326],[-1.3272003864229998,-1.430469592437175,0.9453562681969165]],"biases":[1.2998722246287386,-0.9656258956230785,0.1303340884398663]},{"inputNeurons":3,"outputNeurons":1,"weights":[[0.857846857878094],[0.8918592492052749],[-1.6563521235832934]],"biases":[1.8740672243402003]}],"scores":{"1":2520,"2":2720,"3":2320,"4":2320,"5":2320,"6":2320,"7":2320,"8":2320,"9":2320,"10":2320,"11":3120,"12":2320,"13":2320,"14":2320,"15":2320,"16":2520,"17":2320,"18":2210,"19":2520,"20":2320,"21":2520,"22":5520,"23":2320,"24":2320,"25":2440}},{"layers":[{"inputNeurons":0,"outputNeurons":10,"weights":[],"biases":[0.1648529211369844,-0.11854162379109165,0.18179388664168505,0.3835220696948364,0.8994419041990679,0.34567569224275385,-0.9234450290770483,-0.9357119944236212,1.5100866785750482,1.071554819148155]},{"inputNeurons":10,"outputNeurons":3,"weights":[[0.7398466101194336,-0.6064431539133704,-1.2085733898038278],[-0.8744863147249959,-1.0892908996328885,-0.7908746466856376],[1.8803213933062182,-0.9838846798003905,-1.2847825303163973],[-0.9091979182268991,-0.18801418463261227,-0.6390142905004245],[-1.1181656959871227,-0.5525575355706416,-0.28929371503928064],[1.3497493876254951,-0.9084579248046772,-1.509626017629516],[0.23097237977716883,0.21181412506652286,-0.5517040394980762],[-0.6180946594332283,0.7380919101040148,1.4993210055777335],[0.24737013892983262,-0.14714558706770187,1.0194016460622017],[-1.6449889179752486,-1.2700309682020994,1.0106761726568574]],"biases":[1.5819991350093143,-1.079935314190084,-0.1532348200806352]},{"inputNeurons":3,"outputNeurons":1,"weights":[[0.7346752418513287],[0.6569654989404272],[-2.2439802662479953]],"biases":[1.989349453103374]}],"scores":{"1":2320,"2":2220,"3":2650,"4":5320,"5":2320,"6":2210,"7":2320,"8":2420,"9":2500,"10":2320,"11":2320,"12":2320,"13":2320,"14":2520,"15":2320,"16":2320,"17":2320,"18":2320,"19":2600,"20":2320,"21":2720,"22":2320,"23":2560,"24":2320,"25":2320}},{"layers":[{"inputNeurons":0,"outputNeurons":10,"weights":[],"biases":[0.35024704115227234,0.11982293131879974,0.04735558794175719,0.8400389450597863,1.04140956969905,0.46813523240600163,-0.7695937729973659,-1.0499902540350494,1.8514291847230127,1.0310702433816945]},{"inputNeurons":10,"outputNeurons":3,"weights":[[0.17672051027465233,0.0633882282187756,-1.0370889664239211],[-0.6975047649342202,-0.8100975698742434,-0.6667053517148092],[0.3621097229333369,-0.3150403076665356,-1.4453432732568212],[-0.6266344087112359,0.2965642856807657,-0.9630083275815641],[-1.6656190035784988,-0.09733348228135713,-0.3405937515437151],[1.5332817049684295,-1.0286613710753705,-2.164690757367189],[-0.17610752069648916,0.07647661069832512,-0.1316351586270127],[0.037023076268803023,1.0030950986400464,1.1414113931349315],[0.08711957652701391,-0.785840596941384,0.029402714699564014],[-0.86864219469395,-2.4476300302850262,1.0183761530656068]],"biases":[1.5437605916608335,-0.6505881645182865,0.0645049341942131]},{"inputNeurons":3,"outputNeurons":1,"weights":[[-0.060924447059521214],[1.1244786854380682],[-1.7606629319874691]],"biases":[1.0516253486887879]}],"scores":{"1":2920,"2":2500,"3":2320,"4":2320,"5":2200,"6":2520,"7":2320,"8":2320,"9":2920,"10":1300,"11":2520,"12":2320,"13":2320,"14":2320,"15":2320,"16":2320,"17":2520,"18":2500,"19":2320,"20":2320,"21":2320,"22":5000,"23":2320,"24":2320,"25":3120}},{"layers":[{"inputNeurons":0,"outputNeurons":10,"weights":[],"biases":[0.6153133479351167,-0.6067412101962002,0.16855592418514412,0.2041556032931804,0.9236701956777092,0.6230501390940997,-1.4328597257848128,-1.0825709609472633,2.042705300082713,1.425576262351271]},{"inputNeurons":10,"outputNeurons":3,"weights":[[0.9530397045613143,-0.6287176143973273,-1.483664018902394],[-0.2535512474355477,-1.4752507637011132,-0.7468942269956923],[1.1498758780063505,-1.2514475965207001,-1.0515204090451513],[-0.6475090818723178,-0.032891478834829235,-0.6029512765020038],[-1.3133853336051693,-0.2497361401100667,0.16473237617641556],[2.0956559919140783,-0.7473432034806279,-1.9766459497908524],[0.20051786374338026,0.45654581394813015,-0.46626096776322684],[-0.5212655006270449,1.1572030114906708,1.8069503292709128],[0.037335533822183034,-0.3354056117129929,0.14803437866976168],[-0.8921337028600548,-1.3774419745733584,0.9503081033380136]],"biases":[1.3759425877739917,-1.1266099458805754,0.16097135626925865]},{"inputNeurons":3,"outputNeurons":1,"weights":[[0.891508809094014],[1.2251766290570207],[-1.3335925830664972]],"biases":[1.5295813718187528]}],"scores":{"1":2320,"2":2920,"3":2320,"4":1300,"5":2320,"6":2320,"7":2320,"8":2320,"9":2320,"10":2320,"11":2320,"12":2320,"13":2920,"14":2320,"15":2500,"16":2320,"17":5410,"18":2750,"19":2320,"20":2840,"21":2320,"22":2320,"23":2320,"24":2320,"25":2340}},{"layers":[{"inputNeurons":0,"outputNeurons":10,"weights":[],"biases":[-0.043521914508461296,-0.39417058776062786,0.18322145070355073,0.6511118088144597,0.634532012700699,0.4782552083038969,-1.5454515659768786,-0.8938983588032233,1.247356912872566,1.8573335169364584]},{"inputNeurons":10,"outputNeurons":3,"weights":[[0.8108905755808717,-0.8547408719939985,-0.8835719173453436],[-1.17279005797433,-1.6203481940943945,-0.9177767225838902],[1.0351086111510202,-0.7264793951916517,-1.657316984201526],[-0.9236943365011336,-0.11284610089759517,-0.2589819818158429],[-1.2151964777133313,0.21757533534336193,-0.11965674188870982],[1.4670387503311364,-1.1716367021193568,-1.447499760212545],[0.1310941607675944,0.9366352904387585,-1.0808075122203218],[-1.116764756457804,0.9277809287624234,1.1790501978531145],[0.867162042040311,0.003818795836236115,0.3400078873325557],[-0.3018976027381532,-1.591788704423328,1.2386188741303246]],"biases":[1.5153157386372729,-2.1644089481042705,0.5914961291857677]},{"inputNeurons":3,"outputNeurons":1,"weights":[[0.3510421103109161],[1.238116261030303],[-1.6669255403614502]],"biases":[1.6838936020831585]}],"scores":{"1":2320,"2":2320,"3":2520,"4":2320,"5":2320,"6":2320,"7":2920,"8":2320,"9":2400,"10":2320,"11":2800,"12":2920,"13":2920,"14":2500,"15":2320,"16":2320,"17":2320,"18":2320,"19":2320,"20":2320,"21":2320,"22":2920,"23":3920,"24":2320,"25":1300}},{"layers":[{"inputNeurons":0,"outputNeurons":10,"weights":[],"biases":[0.2311251947274842,-0.21240889207652558,0.9440882789529895,0.22602217907215566,0.824012130360598,0.3574425035358295,-1.1032418355981028,-1.566427235312364,1.3033305141451288,1.4695353755606098]},{"inputNeurons":10,"outputNeurons":3,"weights":[[0.8379186586902929,-0.6054622857971306,-0.8919350413608808],[-0.5714860885499629,-0.6087945136293367,-0.965747959742426],[1.4589088599345403,-0.9812599057938172,-1.2020489385598314],[-1.0872956317014353,-0.45669004728457574,-0.8840434267969774],[-1.4141042471892464,-0.34864919464286487,-0.3266490687775932],[1.2418079324208864,-0.6472079242787259,-1.8943077648081392],[0.5161197393162877,0.4163568842586046,-0.3542287228600336],[-0.9827860457460122,0.6717046572023471,1.0514989950828133],[0.2561603463798068,0.06384525535901181,0.6762346633545167],[-1.7419520322632314,-1.4195596632044771,1.1523879469162865]],"biases":[1.4328215085952503,-0.8196301773861691,-0.1434791990059612]},{"inputNeurons":3,"outputNeurons":1,"weights":[[0.9287679686174517],[1.1391009809038275],[-1.7157663874404196]],"biases":[1.744957058680987]}],"scores":{"1":2500,"2":2300,"3":2320,"4":2320,"5":4990,"6":2320,"7":2520,"8":3040,"9":2320,"10":2320,"11":2320,"12":2320,"13":2320,"14":2320,"15":2320,"16":2320,"17":2320,"18":2320,"19":2320,"20":2320,"21":2320,"22":2320,"23":2520,"24":2320,"25":2220}},{"layers":[{"inputNeurons":0,"outputNeurons":10,"weights":[],"biases":[-0.20743032435900532,-0.35393076351003216,0.03006337017238428,0.6916233188741757,0.7197209063037442,0.5604625183423755,-1.2240599070488571,-1.0158235910024442,1.146094904157792,1.4591330101415563]},{"inputNeurons":10,"outputNeurons":3,"weights":[[0.8243174717477647,-1.2459060303687979,-1.18737726901972],[-1.1664726113795811,-1.6445260764186223,-1.0894800379663199],[1.032994723894167,-1.0396820093686603,-1.4773208228969772],[-1.1830149174690123,-0.9962183878011686,-0.0016611586144154311],[-1.715803875282737,0.34683684026052364,-0.2780133185114843],[1.2945188622114443,-1.686970163524346,-1.2679667247004112],[0.5713008762024037,0.8208529355000037,-0.756162300870605],[-0.8267593553679441,0.7710874435096386,1.772236806834261],[0.8576242458779477,-0.0560124411689115,0.22050386222432727],[-0.4363168747645115,-1.8241031810119213,1.1330323410497973]],"biases":[1.3003992692181878,-1.7901478402397575,0.1666604280220066]},{"inputNeurons":3,"outputNeurons":1,"weights":[[0.2947274137327477],[1.2594321755414493],[-1.792598565440766]],"biases":[1.2687020315978161]}],"scores":{"1":2320,"2":2540,"3":2340,"4":2520,"5":2540,"6":2340,"7":2320,"8":2720,"9":3400,"10":2340,"11":2520,"12":2240,"13":2340,"14":2340,"15":3040,"16":2340,"17":2340,"18":2340,"19":2340,"20":2020,"21":2520,"22":3420,"23":1960,"24":2220,"25":2340}},{"layers":[{"inputNeurons":0,"outputNeurons":10,"weights":[],"biases":[0.7163367029578686,0.026896501801971357,-0.2549887689559169,0.6985457221385521,0.865865812754759,0.6455740978524056,-0.7882285502142495,-0.8678556367928043,2.023594739512791,0.8230137265674822]},{"inputNeurons":10,"outputNeurons":3,"weights":[[0.05603543544046956,0.4057365640692431,-1.119707143319433],[-0.573971284219799,-0.7764167246350551,-0.830309923282506],[0.6970096362484693,-0.33326561268194926,-0.9510140487920145],[-0.9246842737328181,0.7942172635949405,-0.8853302754792012],[-1.6129381197031116,0.10436102637990782,-0.6858459645684133],[1.4928925193135996,-1.4011133454473783,-2.351653294149191],[0.2860899974982481,0.1612428489367499,-0.20074557991477637],[-0.5102930592527052,1.288367295509286,1.419569449278671],[0.1274205087069601,-0.9115467996817566,0.13353022059975822],[-0.5752695823566778,-2.399137812656735,1.231329810953529]],"biases":[1.2750882525834317,-0.7641730404104707,0.22472331301821413]},{"inputNeurons":3,"outputNeurons":1,"weights":[[0.18043532280666785],[1.123729961258736],[-1.4002393382852176]],"biases":[1.395569426502607]}],"scores":{"1":2320,"2":2320,"3":2520,"4":2320,"5":2320,"6":2320,"7":2320,"8":2520,"9":2320,"10":2520,"11":2320,"12":2320,"13":2520,"14":2320,"15":4450,"16":1300,"17":2520,"18":2320,"19":2320,"20":2320,"21":2320,"22":3720,"23":2320,"24":2500,"25":2320}},{"layers":[{"inputNeurons":0,"outputNeurons":10,"weights":[],"biases":[0.5469125934280131,-0.41357690948927095,0.24622333586151707,0.8182739462468649,0.9719209434964866,0.6166216056053063,-1.4271967488325883,-1.226096653458577,1.5538529361057734,1.2888731130319524]},{"inputNeurons":10,"outputNeurons":3,"weights":[[0.4800102178464215,-0.7061716329474815,-1.241961789378293],[-0.6708519753711094,-1.1186997180035152,-0.6737532380804678],[1.0534197595435324,-1.031789536961121,-1.5475905166790591],[-1.154683924943266,-0.25811652895250586,-0.8611800343801814],[-2.048652735139648,0.3343397051499223,-0.22555584477641147],[1.7847547363684604,-0.7909471134852972,-2.139365900072383],[0.45161431355116505,0.24305163620992604,-0.5704022652454847],[-0.5857327420064621,1.025293020893948,1.5358110968741427],[0.04621097797855339,-0.412077937266457,0.34687983510022774],[-1.1925270163381547,-1.2397890802577627,0.37775494188201386]],"biases":[1.4418016378156266,-1.2039186593075426,0.021101023367459337]},{"inputNeurons":3,"outputNeurons":1,"weights":[[0.9947162599615712],[1.0601715510553515],[-0.9301927434039866]],"biases":[1.3996534107844298]}],"scores":{"1":2320,"2":2520,"3":2320,"4":3820,"5":2320,"6":2320,"7":2320,"8":2520,"9":2320,"10":2320,"11":2540,"12":2400,"13":2320,"14":2520,"15":2320,"16":2210,"17":2320,"18":2500,"19":2320,"20":2520,"21":2700,"22":2500,"23":2650,"24":2320,"25":2320}},{"layers":[{"inputNeurons":0,"outputNeurons":10,"weights":[],"biases":[0.27560825698278485,-0.040963583622931135,0.2250102420021602,0.052680399643140335,0.6479677998068503,0.8618421112405553,-1.1887464817606772,-1.4447782415929062,1.222282191806974,1.5893598626447536]},{"inputNeurons":10,"outputNeurons":3,"weights":[[0.6441243596083303,-0.8608810272874373,-1.0649611502323264],[-0.7194145122763976,-0.958171627799512,-0.885435631562573],[1.6228282703724835,-1.312166667452296,-1.567357373843638],[-1.2466023816000082,-0.2629897074729519,-0.0996085875151092],[-1.470387362134038,-0.30248705112704244,-0.3166869453661467],[1.3804433436913688,-0.7473199706899654,-1.4276805803716464],[0.5313185487605067,0.36047821593067597,-0.8114107511755128],[-1.039867950291489,0.8183750849925266,1.4448060816088562],[0.3247479235185041,-0.3670752018746047,0.9610936989074056],[-1.4667600809014103,-1.167006266372625,1.1480684844232165]],"biases":[1.347164982489765,-0.5804406555074788,-0.03297381142131994]},{"inputNeurons":3,"outputNeurons":1,"weights":[[0.9495286201728397],[1.0332725225039203],[-1.8272371723596694]],"biases":[2.085771338688802]}],"scores":{"1":2720,"2":2320,"3":2320,"4":2320,"5":2320,"6":2320,"7":2500,"8":2320,"9":4220,"10":2320,"11":2320,"12":2320,"13":2600,"14":2320,"15":2290,"16":2320,"17":2520,"18":2720,"19":2320,"20":2320,"21":2320,"22":2320,"23":2320,"24":2320,"25":2320}},{"layers":[{"inputNeurons":0,"outputNeurons":10,"weights":[],"biases":[-0.5089698258693491,-0.03546943550952042,-0.20547803200921716,0.8684218697884419,0.5265596547582378,0.45941799541440315,-1.0207362285994137,-0.8713756225273597,1.2136717260990777,1.7561984255917946]},{"inputNeurons":10,"outputNeurons":3,"weights":[[0.6181519898572616,-1.2105016233665937,-1.1904409456831488],[-1.2141758326426637,-1.424598723854607,-0.9617280874534044],[0.8747400951685121,-0.4654594299953572,-1.7944400524324307],[-0.8131623459753123,-0.42270977113024616,0.12973473671809377],[-1.7659785145066282,0.0684424873269977,5.397363729358062E-4],[1.667250572261811,-1.4286604284641777,-1.1414685619246727],[0.5160207244281039,0.8278477235544329,-0.5817181435967465],[-0.8826930832825796,0.8072096013637267,1.5436997345416301],[0.6080223827113542,0.04647795944990121,0.14146901665969752],[-0.7546276049345534,-1.7157779880248893,0.8509043353529644]],"biases":[1.2536369667835012,-1.7246093084252474,0.4364390242038569]},{"inputNeurons":3,"outputNeurons":1,"weights":[[0.2112178709179841],[1.2567646391243898],[-1.9055326021136643]],"biases":[1.4612315536485303]}],"scores":{"1":2320,"2":2610,"3":2320,"4":2560,"5":2320,"6":2320,"7":2600,"8":2520,"9":2320,"10":2320,"11":2320,"12":5010,"13":2320,"14":2320,"15":2320,"16":2320,"17":2500,"18":2320,"19":2320,"20":2540,"21":2320,"22":2320,"23":2320,"24":1300,"25":2520}},{"layers":[{"inputNeurons":0,"outputNeurons":10,"weights":[],"biases":[-0.35875143230276174,-0.6080573674737352,0.44568579892881277,0.9956436534799097,0.3504374218052953,0.7559783149591855,-1.5786567898424848,-0.775285160583892,1.1342513879754967,1.6473588048964412]},{"inputNeurons":10,"outputNeurons":3,"weights":[[0.5066160228255071,-1.2527535758974244,-0.9918509946927166],[-0.8585892945940241,-1.5367407310622714,-0.9334406245789977],[0.5363113577791061,-0.8467153010312883,-1.4332270828407376],[-0.9526859409631381,-0.5844862639841935,-0.23717371150296335],[-1.8134203021245983,-0.15778118496330018,-0.12212566801717428],[1.4607369046977692,-1.219418133508519,-0.7870337245909044],[0.08049100180346835,0.8667218147471558,-1.0644576243573431],[-1.0873782718583918,0.8609647861662979,1.4343720046724986],[0.69598097810373,-0.1845640732769981,0.23968991052912783],[-0.6815695764200093,-1.8571864700914782,1.302861883255221]],"biases":[1.486041791328249,-1.6282512580196746,0.06145102535903395]},{"inputNeurons":3,"outputNeurons":1,"weights":[[0.28527116784357903],[1.4006483067197795],[-1.759102762158621]],"biases":[1.6939886562805802]}],"scores":{"1":2620,"2":2320,"3":2320,"4":2320,"5":2500,"6":2320,"7":2560,"8":2320,"9":2320,"10":2320,"11":3650,"12":2320,"13":2320,"14":2320,"15":2320,"16":2320,"17":2320,"18":2320,"19":2720,"20":2520,"21":2320,"22":2320,"23":2520,"24":2320,"25":2320}},{"layers":[{"inputNeurons":0,"outputNeurons":10,"weights":[],"biases":[0.41798207157969214,0.10599136533839873,0.11238144996880899,0.5114400569259591,0.36037687540499763,0.7107349415743275,-0.687358525683011,-0.8328093995772812,2.1080432985114657,1.172495365297419]},{"inputNeurons":10,"outputNeurons":3,"weights":[[-0.14589565403267685,0.16769316532681347,-0.8208986543466248],[-0.7292884939620649,-0.8407530147848283,-0.398855200825397],[0.6464084944844795,-0.386979402177835,-1.2315372666844147],[-0.4928984633656895,0.34970681187235386,-0.6519947384991727],[-1.4995858437856124,-0.022744870119727187,-0.8821960339638633],[1.8092381561176232,-0.9645460080059576,-1.7136832307980838],[0.0714745346366139,0.2999586701238234,-0.34859771539188317],[-0.09725134360329452,0.7912492826606415,1.4006805439666508],[0.5664647037442025,-0.945728901103604,-0.048241478367601176],[-0.495483529409834,-2.214629466884945,1.1109766284846563]],"biases":[0.9983867214254024,-0.3313522242534036,-0.12427178303895922]},{"inputNeurons":3,"outputNeurons":1,"weights":[[0.1420678410476197],[1.1751123038006375],[-1.4245309165485334]],"biases":[1.7281187466786845]}],"scores":{"1":2320,"2":2320,"3":1280,"4":2320,"5":2320,"6":2520,"7":2320,"8":2920,"9":2520,"10":2520,"11":2320,"12":2320,"13":2320,"14":2840,"15":2520,"16":2520,"17":2320,"18":2520,"19":3650,"20":2320,"21":2520,"22":2320,"23":2320,"24":2320,"25":2320}},{"layers":[{"inputNeurons":0,"outputNeurons":10,"weights":[],"biases":[0.6225776184636462,-0.20425746820140264,-0.046692650325474566,0.09188258482906636,0.9645934199219507,0.22968768593901145,-1.1145109442771959,-1.1352402984344439,1.5148754581556982,1.373748832825637]},{"inputNeurons":10,"outputNeurons":3,"weights":[[0.894747118884412,-0.40529574133401075,-1.0904147009267517],[-0.7772443970323382,-1.1763604636314569,-0.4902974979133492],[1.235922655880684,-1.2684310874331954,-1.4197842813263548],[-0.825206696010425,-0.4507599196972495,-0.37509244868312697],[-1.4316418038497334,-0.011568759769205253,-0.0013441419232405188],[1.7965186830643773,-0.8958317100346385,-2.2389462315678053],[0.35338091456666154,0.384718895911632,-0.7055908478812892],[-0.1695029068953242,1.1926101827352709,1.4791301533467989],[-0.12064876492021134,-0.23614177630577077,0.5456339400692447],[-1.0523386826127288,-1.5783779248046974,0.6144548546754571]],"biases":[1.2554037808028329,-1.2067078117707772,-0.058893328793565014]},{"inputNeurons":3,"outputNeurons":1,"weights":[[0.6255548513296105],[0.9437288721608151],[-1.479678278711022]],"biases":[1.5960620001254409]}],"scores":{"1":2500,"2":2520,"3":2320,"4":2320,"5":2320,"6":2320,"7":2210,"8":2320,"9":2320,"10":2320,"11":2320,"12":2320,"13":2320,"14":2920,"15":2320,"16":2520,"17":2320,"18":2320,"19":2320,"20":2320,"21":2520,"22":3520,"23":2650,"24":2320,"25":2320}},{"layers":[{"inputNeurons":0,"outputNeurons":10,"weights":[],"biases":[0.7522600982140886,-0.038618394073115195,-0.10449443440052042,0.30440842696260123,0.5237180578719182,0.6754634253783559,-0.9241644498969388,-1.3926410562312963,1.7166867178654857,1.0490104588687132]},{"inputNeurons":10,"outputNeurons":3,"weights":[[-0.21130612988709951,0.045850192670677,-1.056010293708701],[-0.30031510561569374,-0.9202613719917422,-0.5885704603171197],[0.9681981737599372,-0.37484536774641253,-1.0682322330594727],[-0.412632899532274,0.39935588794496263,-0.911620362221677],[-1.6650029399876125,-0.06724082642423068,-0.6869660001907735],[2.060340079785886,-0.8501081885991584,-1.9082911936224034],[0.23328308276520918,0.3626698821118933,-0.47982945661767445],[-0.1319865993568486,0.988613413135871,1.4026396617345005],[0.4267216882026923,-0.7462655432930019,0.1153824391494288],[-1.3328195979770245,-2.1674422788294985,0.7316359644058182]],"biases":[1.239883296259596,-0.72324318731502,0.28802399162031556]},{"inputNeurons":3,"outputNeurons":1,"weights":[[0.17745560385912548],[0.8083286202430541],[-1.798081769264914]],"biases":[1.560803561742138]}],"scores":{"1":2320,"2":2320,"3":2320,"4":2190,"5":2320,"6":2320,"7":4250,"8":2520,"9":2320,"10":2320,"11":2520,"12":2520,"13":2840,"14":2320,"15":2320,"16":2320,"17":2320,"18":1300,"19":2320,"20":2320,"21":2320,"22":2320,"23":2320,"24":2320,"25":3100}},{"layers":[{"inputNeurons":0,"outputNeurons":10,"weights":[],"biases":[0.21731897978373377,-0.35386075672686473,0.3115310277450787,0.6340794120680907,0.6362395259076277,0.5970460514055602,-0.8543963314773764,-0.9624675985542734,1.9606399081668626,1.0057732165682198]},{"inputNeurons":10,"outputNeurons":3,"weights":[[0.2817404820239298,-0.030550592663643697,-0.7464063952289468],[-0.7320603673282506,-1.2358212272616365,-0.499335596107388],[0.7079501449879367,-0.18951921050391948,-1.322324023629704],[-0.7260223205882541,0.4877446498170582,-1.0754496793915311],[-1.4699403500126054,-0.0038455209858839073,-0.6406595919639857],[1.7526271350418614,-0.7811989915151444,-2.02190685508604],[0.30348007155450196,0.5152300649955595,-0.12799872730018239],[-0.13954471586127834,1.1745115272161313,1.0119859650326746],[0.27774309146394843,-0.7956752931009546,0.43205144193970946],[-0.6018056502220487,-2.739201007505086,0.9437939492147869]],"biases":[1.0016845159482788,-0.725360837856874,0.20336237492893283]},{"inputNeurons":3,"outputNeurons":1,"weights":[[0.35149408555300476],[0.7602540845808665],[-1.5326652465050399]],"biases":[1.5241572901911757]}],"scores":{"1":2320,"2":2320,"3":2320,"4":2320,"5":2320,"6":2320,"7":2440,"8":2320,"9":2920,"10":2320,"11":2320,"12":2320,"13":2320,"14":2720,"15":2720,"16":3120,"17":2320,"18":2320,"19":2320,"20":2320,"21":2320,"22":2520,"23":2320,"24":2340,"25":2320}},{"layers":[{"inputNeurons":0,"outputNeurons":10,"weights":[],"biases":[0.6519433776471795,-0.3125908408399612,0.1699447018285798,0.12756650924731933,0.690000933230724,0.3339145972382307,-1.6357038242260402,-1.1725050091766474,1.4328677146353677,1.3283881587222728]},{"inputNeurons":10,"outputNeurons":3,"weights":[[0.8374521382895035,-0.6442475329986265,-0.969424351106418],[-0.7486288854743514,-1.0999502599896143,-0.687964766515328],[1.3015756006878187,-1.2757917784777177,-1.104820410616435],[-1.055703325073317,-0.2897572140161168,-0.6535232651911395],[-1.2932116325951866,0.18430960805999733,-0.2542921495637015],[1.3883856586847336,-1.1975797341316716,-2.305397222664874],[0.746231158339432,0.36191536151972303,-0.6941015385533635],[-0.38929290328851807,1.6201680195032637,1.2652374206456312],[-0.05383694032313682,0.1066247879520752,0.03780483400956369],[-1.0827994244771912,-1.8477952892144518,0.6131810075850549]],"biases":[1.4746768924672602,-1.3271941282347917,0.2978490942762376]},{"inputNeurons":3,"outputNeurons":1,"weights":[[0.7687497752752326],[1.2372881115680352],[-1.7811380655031284]],"biases":[1.4493863355268868]}],"scores":{"1":2320,"2":2520,"3":2320,"4":2700,"5":2320,"6":3120,"7":2320,"8":2320,"9":2320,"10":2320,"11":2320,"12":2320,"13":2520,"14":2320,"15":2320,"16":2320,"17":2320,"18":2190,"19":2320,"20":2520,"21":2720,"22":2520,"23":2520,"24":2320,"25":2320}},{"layers":[{"inputNeurons":0,"outputNeurons":10,"weights":[],"biases":[0.15583703270422233,0.321105612612531,-0.3482664529602524,0.8645287088917397,0.9126554655200658,0.713196753534458,-0.6107008727926435,-1.2004406245803159,1.7441916816807588,1.4633603400206159]},{"inputNeurons":10,"outputNeurons":3,"weights":[[0.08388607609691986,-0.12069677659952044,-1.1058675179162776],[-0.47651406150424924,-0.6626674464993316,-0.6902099653672463],[0.6675755677895768,-0.15677702804360022,-1.0313929327668627],[-0.8519782088608711,0.31982412218733475,-1.008279145012492],[-1.653146473254631,-0.14821828964578426,-0.9621687775104798],[1.8284380403849205,-0.943970001369563,-2.016447160422631],[0.37862214768032515,0.1578022745723051,-0.3685012206036625],[-0.14266428127832892,0.8188121789851639,1.2668500811322283],[0.2212935992875666,-0.5236685033999957,-0.010652114157986226],[-0.6169561699252057,-2.505649758470242,0.6997781444033175]],"biases":[1.1460750124853665,-0.5383913454509753,-0.0662803202623409]},{"inputNeurons":3,"outputNeurons":1,"weights":[[0.15401454955666846],[1.1154901091064187],[-1.520380620785601]],"biases":[1.3202117419184507]}],"scores":{"1":2320,"2":2520,"3":2320,"4":3120,"5":2650,"6":2690,"7":2320,"8":2210,"9":2520,"10":2560,"11":2820,"12":2320,"13":2320,"14":2320,"15":2320,"16":2320,"17":2320,"18":2320,"19":2320,"20":2320,"21":2320,"22":2320,"23":2320,"24":2200,"25":2320}},{"layers":[{"inputNeurons":0,"outputNeurons":10,"weights":[],"biases":[0.0025138102243493776,-0.43491029700714107,0.25310038311983396,0.9955015988628438,0.5625436264797312,0.8927164956163649,-1.0723437411078696,-0.6041583461519425,1.016057240823674,1.535226717305122]},{"inputNeurons":10,"outputNeurons":3,"weights":[[0.8146963170216891,-1.0010386502095814,-1.1015786620323116],[-1.0778304344644687,-1.3502427860635575,-0.9209237608114524],[1.0651651696663795,-0.8363992532541226,-1.639075444143888],[-1.2363899072792655,-0.4768012464757389,-0.3661381286050133],[-1.514615103448283,0.2122741081369889,-0.1930810628308918],[1.6633552591290504,-1.4696505597533942,-1.7024360925743707],[0.39696422439111784,0.6773150130692643,-0.7716242308178534],[-1.1240795159391421,0.6915324582623434,1.4755597988000462],[0.8549318511288574,-0.13662568150065404,0.5316883204370013],[-0.7229370666373497,-1.4485050639416117,0.8750266042014905]],"biases":[1.4231173014735818,-1.8632834034635541,0.0024688586170408533]},{"inputNeurons":3,"outputNeurons":1,"weights":[[0.0713065912787742],[1.2930558991726842],[-1.7666586755777405]],"biases":[1.4816015097554212]}],"scores":{"1":2320,"2":2520,"3":2510,"4":2320,"5":2320,"6":2320,"7":2320,"8":2700,"9":2210,"10":2320,"11":2320,"12":1300,"13":3050,"14":3920,"15":2220,"16":2520,"17":2320,"18":2320,"19":2320,"20":2320,"21":2520,"22":2320,"23":2320,"24":2320,"25":2320}},{"layers":[{"inputNeurons":0,"outputNeurons":10,"weights":[],"biases":[-0.2858487254396114,-0.3642716433739305,-0.05559250077992517,0.6863051438826722,0.585742060777158,0.3446541466216668,-1.2251236344948464,-0.9678459777359085,1.2015867795169226,1.4955117170426546]},{"inputNeurons":10,"outputNeurons":3,"weights":[[0.6134975671705183,-1.2842247679789756,-1.293688438972385],[-1.2556488207304668,-1.2326225622500644,-1.2456256616900743],[1.1150093296864283,-0.5776751085872129,-1.4729774146642858],[-0.8287269604532699,-0.4982997490296781,-0.18547373108907533],[-1.6226419019643887,0.04525736326378024,-0.03253666316773429],[1.588922373376568,-1.5775935998622532,-1.0109552373508515],[0.2537118485349968,0.7635347895673503,-0.914305200429584],[-0.7554662547595248,0.7291184907272126,1.5220407475403996],[0.9747141978263629,-0.040589991063532706,0.4955837020255908],[-0.4805240490721843,-1.8426798279273817,1.0203911651795787]],"biases":[1.4178759747544225,-2.386118784347737,0.10726211495659001]},{"inputNeurons":3,"outputNeurons":1,"weights":[[0.17580153007215224],[1.571108616195135],[-1.684766944113685]],"biases":[1.330222576592084]}],"scores":{"1":2600,"2":2320,"3":3120,"4":2320,"5":2320,"6":2320,"7":2520,"8":2320,"9":2210,"10":2320,"11":2320,"12":2320,"13":2320,"14":2320,"15":2320,"16":2320,"17":2320,"18":2920,"19":2590,"20":2320,"21":2320,"22":2320,"23":2320,"24":2520,"25":2320}},{"layers":[{"inputNeurons":0,"outputNeurons":10,"weights":[],"biases":[0.09801918887357859,0.10805829602658171,0.6798799734067943,0.4227563981363045,0.658380137476951,0.9740010152459404,-0.5416218536161627,-1.0900481432368556,1.3525967670191592,0.9287650377391854]},{"inputNeurons":10,"outputNeurons":3,"weights":[[0.6261950915198203,-0.36920729943095765,-0.7034046511385914],[-0.6600045834777004,-0.9626483703383586,-0.9546358167753649],[1.9801561301851502,-0.8938691529018513,-1.129527998114971],[-0.9794103258296984,-0.1292459786397478,-0.527015579002518],[-1.839245850969898,-0.16708042760095226,-0.15961642831143394],[1.2321980847134155,-0.7823128238688204,-1.4236007789781029],[0.2516057370491277,0.30045808634631777,-0.5322634888678011],[-0.5830103591856053,0.9675755990542929,1.0236454785519018],[0.33713990928990356,-0.009636775612404391,0.7894670465719449],[-1.7193168708757212,-1.7821119255979219,1.1373463904781487]],"biases":[1.5163137955832713,-0.5144408160964931,-0.5599652431200499]},{"inputNeurons":3,"outputNeurons":1,"weights":[[1.1140232223503999],[1.1763326595980508],[-1.7338997381773806]],"biases":[1.7891685873135927]}],"scores":{"1":2320,"2":2320,"3":2920,"4":2320,"5":2720,"6":2320,"7":2320,"8":2320,"9":2520,"10":2320,"11":2520,"12":2320,"13":2320,"14":2520,"15":2200,"16":2320,"17":2600,"18":2320,"19":2520,"20":2320,"21":2320,"22":2320,"23":2520,"24":2320,"25":2320}},{"layers":[{"inputNeurons":0,"outputNeurons":10,"weights":[],"biases":[0.6793866560484171,0.20642099178767923,0.08554366579534707,0.7395385545131443,1.1274152142629985,0.6255618774836675,-0.8868590801097693,-0.8651868771015996,1.790994747692828,0.9619300706687707]},{"inputNeurons":10,"outputNeurons":3,"weights":[[-0.07975459465751544,-0.24718680053547318,-0.9490066274198619],[-0.6882796131073472,-1.2246807243755122,-0.6818159680510693],[0.5820724061971523,-0.28254536412505393,-1.052962398439553],[-0.8892306001683816,0.63043671919939,-0.7888140699825129],[-1.4197088941053113,-0.1466034244383247,-0.5920277424817375],[1.647731495327418,-1.3732277722581034,-2.1224804087343685],[0.15012133462229318,0.1451435890514921,-0.24172089378199751],[-0.08321014703710222,1.0924670405854606,1.055727869112453],[0.2292244164267769,-0.5650604105027383,0.013580545372800512],[-0.7131047373518018,-2.1605348661595962,0.8479595144851781]],"biases":[1.7670116814886523,-0.881795269268888,0.40413123281624797]},{"inputNeurons":3,"outputNeurons":1,"weights":[[0.13720566130418876],[1.5130360593678907],[-1.4154629125645621]],"biases":[1.405505505885552]}],"scores":{"1":2320,"2":2320,"3":2320,"4":2520,"5":2960,"6":2320,"7":2320,"8":2320,"9":2320,"10":2320,"11":2320,"12":2320,"13":2320,"14":2320,"15":2920,"16":2320,"17":2320,"18":2320,"19":2320,"20":2320,"21":2520,"22":2320,"23":2320,"24":2440,"25":2560}},{"layers":[{"inputNeurons":0,"outputNeurons":10,"weights":[],"biases":[0.4566734793139138,-0.229932988611429,-0.06616003613722077,0.5487610023328455,0.9234856787930253,0.8453724907724608,-0.7229068345131159,-1.0731745875785148,1.8166515013558158,1.028483555704686]},{"inputNeurons":10,"outputNeurons":3,"weights":[[0.33475226767360955,0.3192933505821637,-0.7715069597070215],[-0.7321092927043156,-0.8540271533203984,-0.7078144568616487],[0.5975491528005646,-0.4630207160182168,-1.1272023959662265],[-0.9199674849540654,0.4968536766991454,-0.9885104079001191],[-1.4914612412958945,-0.2847772502245581,-0.6126033444968267],[1.905689176570197,-1.0546865542418755,-2.206679159852971],[0.4217353515729429,0.4897220826871078,-0.44235827972308017],[-0.060121433767154564,0.9616144867480942,1.2861842658906006],[0.07285931547782787,-0.5593770100480102,-0.15160487208813023],[-0.5968464702613787,-2.229541262522896,0.9594548086322559]],"biases":[1.0580928818745732,-0.20713135508231267,0.2513696376718533]},{"inputNeurons":3,"outputNeurons":1,"weights":[[0.9709629944631446],[1.222868251314364],[-1.1734469275928716]],"biases":[1.296421862632231]}],"scores":{"1":2320,"2":2320,"3":2320,"4":2320,"5":2520,"6":2210,"7":2320,"8":2520,"9":2320,"10":2840,"11":2320,"12":2320,"13":1310,"14":2320,"15":2520,"16":2560,"17":2320,"18":2570,"19":2320,"20":2320,"21":2600,"22":2320,"23":2920,"24":2320,"25":2320}},{"layers":[{"inputNeurons":0,"outputNeurons":10,"weights":[],"biases":[0.5863775196712462,0.08272262885570972,0.47086711329705505,0.14039085709643895,1.0350971308269694,0.8077527013335992,-0.932330031645956,-1.2570294250846792,0.7854542828650862,1.0753249467167185]},{"inputNeurons":10,"outputNeurons":3,"weights":[[0.9009675750247296,-0.41315313586731545,-1.2010888716990786],[-0.5366021506561166,-1.0514879721922554,-0.7535420079929518],[1.573321416236431,-0.8941664580285362,-1.4330994009222209],[-0.9497945111417436,0.09709422702811019,-0.054376331898705],[-1.3333617464305316,0.012123472052803203,0.08562763749362312],[1.1442581313703022,-1.280432773421047,-1.5956658958971899],[0.3415099054246763,-0.15980967702568616,-0.4545042320636318],[-0.6151900639718485,0.702586360459148,1.408049988969058],[0.2647315265842328,-0.2805908281966099,0.5340697343151586],[-1.7311832798013018,-1.1695583277281574,0.8337411596261646]],"biases":[1.140442813934746,-1.0755687610120868,-0.16204118039260754]},{"inputNeurons":3,"outputNeurons":1,"weights":[[0.8924315980752889],[0.7990913447633019],[-2.011717456576556]],"biases":[1.8992827943877684]}],"scores":{"1":2320,"2":2320,"3":2320,"4":2320,"5":2320,"6":2320,"7":2810,"8":2320,"9":2320,"10":2320,"11":2320,"12":2320,"13":2320,"14":2320,"15":2320,"16":2320,"17":2260,"18":2320,"19":2320,"20":2320,"21":2320,"22":2320,"23":2520,"24":2520,"25":2490}},{"layers":[{"inputNeurons":0,"outputNeurons":10,"weights":[],"biases":[0.514550709981459,-0.09457905865321856,0.28487242645990707,0.38338951596648974,0.9675052923186053,0.6242195068846323,-1.3716753362297582,-1.1608411730173467,1.9849419187003599,1.4898468684713206]},{"inputNeurons":10,"outputNeurons":3,"weights":[[0.7709357328842125,-0.7743782734171071,-0.8579890455114594],[-0.7499440302563483,-1.3694192702640096,-0.7156522271921097],[1.8181762509345032,-0.7401967303866426,-1.8407102794887298],[-1.0353754693820376,0.13653576290187022,-0.3356363874809427],[-1.3538201066882471,-0.15394796054763177,0.061204168316308705],[1.421806442288718,-1.0552637983979714,-2.212512293460868],[0.3373476274349436,0.375524869099886,-0.714220649479088],[-0.6719206135562715,1.2626783314616348,0.9624022010716826],[0.14109699632772846,-0.15339854355512123,0.25421706026785257],[-1.4385010774948557,-1.5981781796711503,0.7975287095936667]],"biases":[1.5706661235192947,-1.226240833713787,0.4055917877275351]},{"inputNeurons":3,"outputNeurons":1,"weights":[[0.7054455920641751],[1.0562317431815913],[-1.5841369540207944]],"biases":[1.385603151451047]}],"scores":{"1":2320,"2":2320,"3":2320,"4":2320,"5":2320,"6":2320,"7":2320,"8":2320,"9":2320,"10":2320,"11":2320,"12":2320,"13":2320,"14":2920,"15":2320,"16":2500,"17":2320,"18":2520,"19":2320,"20":2320,"21":2320,"22":2320,"23":2320,"24":2320,"25":2320}},{"layers":[{"inputNeurons":0,"outputNeurons":10,"weights":[],"biases":[0.7050075782951096,-0.3019060433021218,0.18721372241960896,0.10527415807906867,0.5232753444116337,0.5736579389627805,-0.7986021395258217,-1.1365822708050262,1.604132621687576,1.5475759236467885]},{"inputNeurons":10,"outputNeurons":3,"weights":[[1.0672184306857642,-1.0046705324630847,-1.1564381281595681],[-0.5192765537225148,-0.9133686620792082,-0.5922007146030923],[1.381418153307403,-0.9429541940702981,-1.430280784302966],[-0.9231632792787358,-0.3521155116399832,-0.3617704625549014],[-1.587476224666664,-0.21495971132436714,0.15215748116714445],[1.561343653073543,-0.6701386144066502,-1.9392494868014822],[0.7027165404927255,0.908192541558639,-0.312164692456449],[-0.30256256796073194,0.8972555851048305,1.1475415224816015],[-0.009990305008579448,-0.05842965626608308,0.6594191599133978],[-1.1693560698071215,-1.7479259910452634,0.2681615932900897]],"biases":[1.7781310418477367,-1.3656068245094235,0.07467229751842407]},{"inputNeurons":3,"outputNeurons":1,"weights":[[0.8763274124927745],[0.9626747900336481],[-1.1934541296702172]],"biases":[1.4307667853145425]}],"scores":{"1":2320,"2":2320,"3":2320,"4":2210,"5":2420,"6":2320,"7":2700,"8":2320,"9":2320,"10":2320,"11":2320,"12":2320,"13":2320,"14":2320,"15":2320,"16":2520,"17":2320,"18":2320,"19":2320,"20":2320,"21":2320,"22":2720,"23":2320,"24":2320,"25":2320}},{"layers":[{"inputNeurons":0,"outputNeurons":10,"weights":[],"biases":[0.5941417403254194,0.09849360801765401,-0.38075060129857974,0.54542978124169,1.1034179125372479,0.6450702926580025,-0.9849046264162478,-1.1125033121826302,1.8849152422443358,1.1982079138073487]},{"inputNeurons":10,"outputNeurons":3,"weights":[[-0.07585835846722402,0.4342801466140156,-1.2380884704406165],[-0.5376988019125238,-1.0515740985248188,-0.8748507220652174],[0.4192800700556644,-0.22198593868264907,-1.074989509702024],[-0.8518050267808732,0.2840945148732109,-0.6654979518162867],[-1.7588512134305039,-0.09695690323776564,-0.5543627286891094],[1.8091228015863527,-0.8858443423682298,-2.1598869420549875],[0.26880984439086725,0.3112090930759214,-0.35749947212165567],[-0.4166975072886837,0.998677988037591,1.352535587741654],[0.1757382003018693,-0.8780186551896811,0.3657667101214356],[-0.8208810836857934,-2.3196337917692462,1.267427745550164]],"biases":[1.2557126768242595,-0.260291737230108,0.34399279908717817]},{"inputNeurons":3,"outputNeurons":1,"weights":[[0.33669368312994746],[0.9745745541910784],[-1.5235781851646082]],"biases":[1.6106325448139565]}],"scores":{"1":2320,"2":2320,"3":2320,"4":2320,"5":2320,"6":2320,"7":2420,"8":2320,"9":2320,"10":2520,"11":2310,"12":2320,"13":2320,"14":2320,"15":2320,"16":2320,"17":2320,"18":2320,"19":2520,"20":2320,"21":2520,"22":2320,"23":2520,"24":2320,"25":2320}},{"layers":[{"inputNeurons":0,"outputNeurons":10,"weights":[],"biases":[-0.016541811804014706,-0.046905303163698356,0.4549275432324754,-0.0755905505094325,1.128918070901062,0.5067745556939951,-0.7362192012143258,-1.6369406839767984,1.5098749234366746,1.3359974220818511]},{"inputNeurons":10,"outputNeurons":3,"weights":[[0.8817453226568304,-0.472053111336837,-1.209849769379956],[-0.5343720532597769,-1.4695688948738024,-1.1741130106042053],[1.7119549513477443,-1.0295225230750555,-1.4480585648110504],[-1.1103681873901352,0.0018325083124659525,-0.9337594369052574],[-1.6486670571199509,-0.11872248154909472,-0.465640025486317],[1.3623909669739795,-0.9952347880717599,-1.6647206427494752],[0.37434278028403223,0.0961991075519895,-0.6210153781647442],[-0.713491184688861,0.4439829851910489,1.3039216540990788],[-0.05746805213839706,-0.4096904270495343,0.5683414147262497],[-1.3594507925581345,-1.5750726010854517,1.450261827118184]],"biases":[1.5438342143081758,-0.6479376979896296,0.20763015704316398]},{"inputNeurons":3,"outputNeurons":1,"weights":[[0.9392274785906077],[0.900913612825813],[-2.2727602400500633]],"biases":[2.033814648268174]}],"scores":{"1":2720,"2":2320,"3":2520,"4":2320,"5":3050,"6":2320,"7":2720,"8":2620,"9":2320,"10":2520,"11":2320,"12":2320,"13":2320,"14":2320,"15":1280,"16":2520,"17":2320,"18":2520,"19":1300,"20":2520,"21":2320,"22":2320,"23":2320,"24":2320,"25":2320}},{"layers":[{"inputNeurons":0,"outputNeurons":10,"weights":[],"biases":[0.1593442352282514,0.04033188641533049,0.5588783852082828,0.33861787757723794,0.7192424963840411,0.5388729143539299,-0.9792725094050688,-1.5338663443171023,1.3972761657025683,1.6335213733943996]},{"inputNeurons":10,"outputNeurons":3,"weights":[[0.7058905096313418,-0.7119838654833521,-0.937119074215585],[-0.583351342220337,-1.0068134446453512,-0.9379058504616384],[1.8506874132451865,-1.1005171870246375,-1.5527941454757266],[-0.9370057093726634,-0.3574585415699466,-0.3246628847094012],[-1.672687966948053,-0.37771645022925227,-0.7191567046057843],[1.3270045902851904,-0.8793519034532518,-1.4490050586289722],[0.7559433935490905,0.12050918744656572,-0.5750880239745889],[-0.7192706498359126,0.8094529934738081,1.4839458567673176],[0.19047534160181412,-0.09953368846912675,0.6246962389211145],[-1.470027852768577,-1.6809297414683688,0.9451172781722119]],"biases":[1.49190598444215,-0.7628476114307511,-0.34491715047332944]},{"inputNeurons":3,"outputNeurons":1,"weights":[[0.956219596764683],[0.8428229967457149],[-1.8337615337928976]],"biases":[1.915830710215476]}],"scores":{"1":2320,"2":2320,"3":3120,"4":2320,"5":2320,"6":2320,"7":2520,"8":2320,"9":2210,"10":1300,"11":2320,"12":2320,"13":2520,"14":2320,"15":2320,"16":2320,"17":2520,"18":2320,"19":2320,"20":2320,"21":2500,"22":2320,"23":2320,"24":2320,"25":2320}},{"layers":[{"inputNeurons":0,"outputNeurons":10,"weights":[],"biases":[-0.05371731256242307,-0.07750087716603313,-0.05429929764890936,0.7631656864936006,1.0380581200999728,0.628340752963664,-0.6938223739037351,-0.9778578442786078,2.079442549951624,1.3411976460285056]},{"inputNeurons":10,"outputNeurons":3,"weights":[[0.15599425544930567,0.41570513578304025,-0.8122539705342242],[-0.6726138917599728,-0.8979333612361974,-0.605532827646189],[0.6444716219709296,-0.3669774870098853,-1.104857198462783],[-0.8329563579339501,0.39743753572106066,-0.8000524135779516],[-1.503328090492456,-0.2730130098025904,-0.520553098852829],[1.86619073613226,-0.9464680917982267,-2.075942455914929],[0.3425307661488583,0.36895458293125116,-0.09234026652235733],[-0.200280936442996,0.9127158068371529,1.6418491769536794],[-0.07485177643995156,-1.0370815644127496,0.27664305094176816],[-1.1582098353661772,-2.2332248345828876,1.3409015875978114]],"biases":[0.9860028442412854,-0.45520527649391435,0.44837249147072655]},{"inputNeurons":3,"outputNeurons":1,"weights":[[0.3487773407595757],[0.9452231789362281],[-1.4638203488263741]],"biases":[1.3412123846736053]}],"scores":{"1":2320,"2":2320,"3":2320,"4":2320,"5":2320,"6":2620,"7":2320,"8":2520,"9":2320,"10":2320,"11":2520,"12":2320,"13":2500,"14":1300,"15":3040,"16":2320,"17":2320,"18":2320,"19":2610,"20":2320,"21":2600,"22":2320,"23":2320,"24":2320,"25":1300}},{"layers":[{"inputNeurons":0,"outputNeurons":10,"weights":[],"biases":[-0.024772927982455006,-0.15284333222336646,0.9241457524821282,0.3193788989056382,0.6436369936826472,0.8917751003239623,-1.0323401904160325,-1.5890941841629553,1.206634394780358,1.1672815745718754]},{"inputNeurons":10,"outputNeurons":3,"weights":[[0.8009300914190581,-0.6177475114757177,-0.7048898801056969],[-0.8355260191765846,-0.9785106077670438,-0.8316755756212997],[1.2905986588577951,-1.0468115803493143,-1.3750941450937846],[-1.009382913570412,-0.3452929844036384,-0.5839680995589165],[-1.2534633171778196,-0.13832774268620757,-0.5686096180873456],[1.8145791944834224,-0.262445216075586,-1.5672611424788478],[0.29462608016652414,0.09242353770741722,-0.799587240810025],[-0.6282262244896415,0.9411193420502545,1.075326023059748],[0.03274948474803974,-0.27798663827132375,0.7230782130915417],[-1.6034749447399683,-1.190480667396022,0.8217658910870956]],"biases":[1.2686495362761183,-0.5036847054541849,-0.15164978490897837]},{"inputNeurons":3,"outputNeurons":1,"weights":[[0.9487862512127524],[1.1435603919719173],[-1.8928900716624457]],"biases":[1.7138146677010588]}],"scores":{"1":2520,"2":2320,"3":2320,"4":2520,"5":2320,"6":2320,"7":2500,"8":2320,"9":2320,"10":2290,"11":2320,"12":2320,"13":2210,"14":2320,"15":2320,"16":2320,"17":2520,"18":2320,"19":1300,"20":2320,"21":2400,"22":2520,"23":2320,"24":2320,"25":2320}},{"layers":[{"inputNeurons":0,"outputNeurons":10,"weights":[],"biases":[0.73023272746639,-0.05803401135421303,-0.015174389368865684,0.49383966162749693,0.8724716798730938,0.20713938094164475,-1.0727924631739578,-1.736599529991996,1.7052501764345553,1.1862005523982495]},{"inputNeurons":10,"outputNeurons":3,"weights":[[0.3642694340153656,-0.013605186071797212,-1.1562892402710776],[-0.45960368455840894,-0.5759606411278069,-0.7881441927029406],[0.6456431395593939,-0.3555812687354069,-0.9339086580696749],[-0.5899199152684687,0.6061823651435425,-1.2862191493156176],[-1.7269192988957216,-0.07333584372879368,-0.6463272286863315],[1.5380398212262922,-1.270826646999744,-2.1158774475153646],[0.3050929400554531,0.19644594924675637,-0.4844659199182102],[-0.6118694949850364,1.3587284661202186,1.1690051537447084],[0.31119705070771625,-0.7994766912645932,0.5719257161741558],[-0.7105928996784417,-2.3674725220412776,0.6294620534177344]],"biases":[1.4132285876406634,-0.7937108174008167,0.36792088076198093]},{"inputNeurons":3,"outputNeurons":1,"weights":[[0.1503220172181128],[1.5465099650935388],[-1.2537604919805925]],"biases":[1.3115404287492358]}],"scores":{"1":2320,"2":2420,"3":2320,"4":2320,"5":2320,"6":2500,"7":2320,"8":2320,"9":2320,"10":1310,"11":2320,"12":3120,"13":2320,"14":2320,"15":2320,"16":2320,"17":2520,"18":2320,"19":2320,"20":1310,"21":2320,"22":2520,"23":2520,"24":2320,"25":2520}},{"layers":[{"inputNeurons":0,"outputNeurons":10,"weights":[],"biases":[0.25936316073710297,0.11033296128532995,-0.02163443440626786,0.4074400292147527,0.8469575593675203,0.6798869592988378,-0.9858995676902074,-0.8107011022635124,1.7726291079670875,0.6971435386970224]},{"inputNeurons":10,"outputNeurons":3,"weights":[[0.17811256640477247,-0.11748843294522993,-1.0639733430738048],[-0.4830850857697552,-0.7804804115133233,-0.8331744512049891],[0.7956606656908288,-0.08362483826404077,-1.1352965739796634],[-0.4713671314344069,0.49690141609435196,-1.138946675812614],[-1.5075275707187425,-0.07394768407556036,-0.2895463850261028],[1.9921789338575462,-1.3313244807111069,-1.7737931959409952],[0.22275621376865887,-0.15068164598294007,-0.8061146182115884],[0.09111689601276968,0.8206587615159006,0.746667332926719],[-0.0883106877687666,-0.6418846743229898,0.28497322924618373],[-0.655484512135593,-2.37010999088237,0.571099120028068]],"biases":[1.0346567992126432,-0.7987885602209168,0.16431028419597216]},{"inputNeurons":3,"outputNeurons":1,"weights":[[0.5589814923864896],[0.9822152030407285],[-1.3086507925636548]],"biases":[1.5652393018226958]}],"scores":{"1":1300,"2":2320,"3":2320,"4":2320,"5":2320,"6":2320,"7":2520,"8":2320,"9":2320,"10":2320,"11":2320,"12":2320,"13":2320,"14":1300,"15":2320,"16":2320,"17":2320,"18":2690,"19":2320,"20":2220,"21":3720,"22":2320,"23":2320,"24":2210,"25":2320}},{"layers":[{"inputNeurons":0,"outputNeurons":10,"weights":[],"biases":[0.24781184886369806,0.12415812000944439,0.1391849377779314,0.6763625953775942,0.940378270462575,0.9966606571819903,-1.278850160875291,-0.9187631756635617,2.1733354773162934,0.8342829128134681]},{"inputNeurons":10,"outputNeurons":3,"weights":[[0.09549945114729588,-0.3227361896433319,-0.7952295024429152],[-0.5977516684160051,-0.7617554078901794,-0.535589644267289],[0.2617416161759851,-0.45940481933183897,-1.624121667912285],[-0.47497015076473675,0.7194328853872679,-1.1108845368421996],[-1.5471489422508133,0.09549153914647585,-0.7527919897516628],[2.0426581798294667,-0.9976287274035305,-2.1193728236715152],[0.1356746007422438,0.25917049168445716,-0.35256389911354563],[-0.4218984329035897,0.6923974155301773,1.2079219792823552],[0.4774813936420161,-0.5576043438456653,0.3263204069920711],[-0.7007747680778964,-2.4316516525779934,1.0611106646855102]],"biases":[1.3574851061749245,-0.49868738685314823,0.41986770027200115]},{"inputNeurons":3,"outputNeurons":1,"weights":[[0.1600808714008512],[1.0818137618533177],[-1.4230265789777417]],"biases":[1.4348809505058568]}],"scores":{"1":2460,"2":1300,"3":2520,"4":2520,"5":2320,"6":2320,"7":2320,"8":2320,"9":2320,"10":2320,"11":2520,"12":1300,"13":2320,"14":2320,"15":2720,"16":2690,"17":2320,"18":2320,"19":2320,"20":1280,"21":2320,"22":2320,"23":2420,"24":2320,"25":2320}},{"layers":[{"inputNeurons":0,"outputNeurons":10,"weights":[],"biases":[0.6355863141048429,0.12751757791188895,0.017598326119303412,0.7454928627712064,0.807743213923298,0.939124311119,-0.49425010267590813,-1.1610351784494912,2.14805321000697,1.0359282370171863]},{"inputNeurons":10,"outputNeurons":3,"weights":[[0.2043776031375451,-0.24464753770168204,-1.1902289253462086],[-0.46713936808766954,-0.8494429607394484,-0.6825824378151677],[0.7776219990073182,-0.47884376266202133,-1.0343555896318808],[-0.6889683592147122,0.31742662351756656,-0.6748249737622964],[-1.866228639019224,0.2543755268171795,-0.7845176667548616],[1.5377183966042487,-1.1182358812976683,-2.3366969881932587],[0.14040932534857883,0.1177708871683358,-0.28989725957773893],[-0.37735020708391365,0.982570585536989,1.7403897426460664],[0.7559596351902877,-0.7638311762544407,0.48271234652652123],[-0.07287774303991534,-2.3259642658804682,0.555558653757443]],"biases":[1.2271395464761359,-0.7036296246842665,0.3962759970210007]},{"inputNeurons":3,"outputNeurons":1,"weights":[[0.3556124170875141],[1.1033234717677047],[-1.5518324032719304]],"biases":[1.2192959209163035]}],"scores":{"1":2110,"2":2020,"3":1270,"4":2340,"5":2110,"6":2510,"7":2340,"8":2110,"9":1320,"10":4980,"11":1260,"12":2110,"13":3050,"14":1270,"15":2110,"16":1300,"17":2580,"18":1710,"19":2540,"20":2110,"21":3380,"22":2110,"23":1270,"24":2110,"25":1270}},{"layers":[{"inputNeurons":0,"outputNeurons":10,"weights":[],"biases":[0.13911684147279463,0.3356443705806348,0.22895260707018134,0.34506268670815315,1.1464152149571754,0.34363077580133067,-1.2707242683165652,-1.1680459533296874,1.1988423112369455,1.0523635404920855]},{"inputNeurons":10,"outputNeurons":3,"weights":[[0.7386853051781287,-0.4667749236641992,-1.1676252954137474],[-0.3586239665123986,-1.1129431147425368,-0.5400239488615108],[1.601343266213155,-0.9066104791203528,-1.4049949788185943],[-1.2482757738649484,-0.14225340861922628,-0.3068117925685623],[-1.5259876510094874,-0.17006993896003367,-0.5651276602081318],[1.2103426590843251,-0.933451641621292,-2.032818666299238],[0.3159977758019794,0.3644829837951283,-0.7445156777031794],[-0.9768544227945093,0.7520820913561733,1.4939679491503426],[0.43465999704408154,-0.278729832779036,0.5029412373837134],[-1.6945867523965776,-1.3697822657884349,0.9606561305901609]],"biases":[1.0080522886236598,-0.5630909042580974,0.06460309228596073]},{"inputNeurons":3,"outputNeurons":1,"weights":[[0.8864285808481747],[0.9471313352558287],[-2.4081435507885898]],"biases":[1.9636664442705265]}],"scores":{"1":1580,"2":1770,"3":1770,"4":1770,"5":1390,"6":1770,"7":1770,"8":1770,"9":1770,"10":2850,"11":1770,"12":1320,"13":1770,"14":2680,"15":1770,"16":2170,"17":1770,"18":2170,"19":1770,"20":1380,"21":2170,"22":1770,"23":1770,"24":1770,"25":1770}},{"layers":[{"inputNeurons":0,"outputNeurons":10,"weights":[],"biases":[0.28299028772089474,-0.1555016047066957,0.6315620171288614,0.30097964289704804,0.992937348669084,0.624510966716872,-0.7789741685281345,-1.6526948662022336,1.2497319813686927,1.0981785144586336]},{"inputNeurons":10,"outputNeurons":3,"weights":[[0.795384145800027,-0.43375071845240676,-1.041078551755337],[-0.6060641415170145,-0.5150823609002358,-0.7527703538576509],[1.5466216018338745,-0.7559362296985344,-1.5771293392754742],[-1.004031462065516,-0.1601176838636478,-0.6048366530530097],[-1.306688057280192,-0.10997112562263141,-0.29995255147767963],[1.3496398753144294,-1.2648167145516822,-1.3680629327611074],[0.2674540197806755,0.13823781108688782,-0.8366175996294916],[-0.5640787819322326,0.6152755856097398,1.0782917747542453],[0.4256428027402701,-0.4373254046744186,0.560361454676322],[-1.458896491978207,-1.491170087281427,0.9613883618243693]],"biases":[1.4048082195461786,-1.0265272226151434,-0.4530490311174784]},{"inputNeurons":3,"outputNeurons":1,"weights":[[0.6615694639738342],[0.678902609396941],[-1.8327340842482494]],"biases":[1.7799768687454331]}],"scores":{"1":2300,"2":970,"3":990,"4":1830,"5":1840,"6":4020,"7":1370,"8":1340,"9":940,"10":1970,"11":1020,"12":1880,"13":1920,"14":1640,"15":1640,"16":2680,"17":1970,"18":1930,"19":2580,"20":2240,"21":2020,"22":1840,"23":1590,"24":2080,"25":960}},{"layers":[{"inputNeurons":0,"outputNeurons":10,"weights":[],"biases":[-0.4626076455777113,-0.38715486392826887,0.25698274246686836,0.8197893020809915,0.5022754779079265,0.7886397059847644,-1.3838904508098056,-0.8402612712633005,0.9137478643990378,1.5393754736034657]},{"inputNeurons":10,"outputNeurons":3,"weights":[[1.1225550889698919,-1.0814471860104984,-1.102600747226359],[-1.372862956437125,-1.233977579639916,-1.1080432719845366],[0.9001274300159583,-0.9797921924407136,-1.8014312142045923],[-1.0832058042494803,-0.19651326237259278,-0.3413543493601004],[-1.7525319807119548,-0.24064414583222327,-0.155758462691294],[1.353442655391177,-1.4545396453369381,-1.4638862112726512],[0.5837684781254353,0.6086300056655154,-0.9080237982273573],[-1.1530823003905397,1.1152119393368034,1.3786873317194042],[1.1818413867450077,0.15309600892124067,0.4603917800730694],[-0.717675446027403,-1.6526874326388485,0.9768583983362759]],"biases":[1.1340757320049866,-2.1511426111305427,0.0016023618123823524]},{"inputNeurons":3,"outputNeurons":1,"weights":[[0.39014669320282375],[1.331716618902359],[-2.123314518341907]],"biases":[1.697803042099769]}],"scores":{"1":1810,"2":2090,"3":1820,"4":1700,"5":1040,"6":1820,"7":960,"8":1820,"9":2350,"10":890,"11":1790,"12":2090,"13":1970,"14":1750,"15":1820,"16":1820,"17":1620,"18":1030,"19":1780,"20":2380,"21":2090,"22":2010,"23":2090,"24":1840,"25":2020}},{"layers":[{"inputNeurons":0,"outputNeurons":10,"weights":[],"biases":[-0.4154398162583963,-0.249669274699368,0.25977042143250906,0.7796263684561476,0.8175623874159509,0.5674172838329499,-1.1294519390084248,-0.5118823467040439,1.3486538431451287,1.8306219870742593]},{"inputNeurons":10,"outputNeurons":3,"weights":[[0.5519862040711743,-1.0544675671194723,-1.1666531055521956],[-0.9138973601878517,-1.5130687694941605,-1.1645182595315349],[0.7348780370470369,-0.5770723983278426,-1.2751057872308418],[-0.9999922507221265,-0.7243162673050265,-0.12440388679111296],[-1.9766230928733217,0.23631995783406615,-0.7130537943543732],[1.258814852760913,-1.3537880217419092,-1.3618156416341822],[0.13790875414923337,1.0497244364483356,-0.33618081988431214],[-0.9189981590621681,1.1291721819419467,1.4785107301235914],[0.8802490288270043,-0.04370968956369559,0.006879780829034177],[-0.8418020403852635,-1.4974209840194967,0.9848376679416094]],"biases":[1.5131794127009865,-2.170927804737956,0.08478770113437309]},{"inputNeurons":3,"outputNeurons":1,"weights":[[0.37528568011358765],[1.59147516429275],[-2.021007391200278]],"biases":[1.5964799811080361]}],"scores":{"1":1880,"2":1760,"3":1710,"4":1840,"5":1660,"6":1470,"7":1290,"8":1670,"9":1910,"10":1700,"11":1640,"12":1470,"13":1680,"14":1660,"15":1840,"16":1230,"17":1760,"18":1840,"19":4260,"20":1690,"21":1760,"22":1660,"23":1510,"24":1650,"25":1710}},{"layers":[{"inputNeurons":0,"outputNeurons":10,"weights":[],"biases":[0.5286165167058032,-0.320913952577024,0.5661857964014654,0.3201345614444085,0.793186991786432,0.4119811807437227,-1.046838234107847,-1.4186695211730964,1.746736941934778,1.4357229454365799]},{"inputNeurons":10,"outputNeurons":3,"weights":[[0.44705927170096715,-0.716893633018433,-1.5120091673300018],[-0.5375144778427808,-1.2590276690967699,-0.654938087991459],[1.4540911017108784,-0.7619475165315072,-0.9437550363241451],[-1.1499506516657487,-0.033172492053086367,-0.4124399081646162],[-1.239074716604717,-0.07203753125118051,-0.33450742697436553],[2.0151529910854817,-0.9390458888817063,-2.1142075422655773],[0.1301393428073822,0.5003406673236104,-0.7799033183089583],[-0.5292789781598528,0.8276020936154616,1.59132458229235],[0.11747185630309201,-0.05331259217768128,0.2792166890926944],[-1.085447422169183,-1.537197942474352,0.6570146201920524]],"biases":[1.3884178754668746,-1.366100926313784,-0.0498242713817057]},{"inputNeurons":3,"outputNeurons":1,"weights":[[1.0411391568484383],[1.6764151560245728],[-1.4934494820389752]],"biases":[1.7905442973421837]}],"scores":{"1":1890,"2":1640,"3":1640,"4":1680,"5":2050,"6":2770,"7":2090,"8":1910,"9":1840,"10":1210,"11":2090,"12":1590,"13":1770,"14":1640,"15":1670,"16":1960,"17":2240,"18":1840,"19":1930,"20":950,"21":1360,"22":1880,"23":2050,"24":1640,"25":910}},{"layers":[{"inputNeurons":0,"outputNeurons":10,"weights":[],"biases":[-0.14440019908754728,-0.48810495742419335,0.218931178273753,0.785894528836863,0.5244541502711682,0.7593194087070416,-1.3463022221209489,-0.9069919288016847,1.3157741496148017,1.4345489744388038]},{"inputNeurons":10,"outputNeurons":3,"weights":[[0.7864057994252027,-1.215630954556224,-0.9571512168864638],[-1.1088262813480168,-1.4138422162451105,-1.0961182736312602],[0.8757829217396168,-0.9090728474843053,-1.535133509107493],[-0.9692952934591453,-0.06747403557186576,-0.3057363128035894],[-1.7743398757667541,0.3693509550944165,-0.3472480718630613],[1.2288639264093264,-1.2813784298900162,-1.402050523989199],[-6.150541982529456E-4,0.9228706165485072,-0.8754918275376802],[-1.0298342795416067,1.1791380311350856,1.508938880574497],[0.6831330137721776,0.0798773622021771,0.3882851838483635],[-0.41144951148443665,-1.6271221540174772,0.8601517659958645]],"biases":[1.3080440417427521,-1.931741497108527,0.14263621674586818]},{"inputNeurons":3,"outputNeurons":1,"weights":[[0.4160802622298029],[1.3245479769815687],[-1.6654904262740955]],"biases":[1.978542379079111]}],"scores":{"1":1710,"2":1710,"3":1710,"4":1710,"5":2240,"6":1710,"7":1710,"8":1260,"9":1710,"10":1710,"11":1710,"12":2000,"13":1710,"14":1780,"15":2510,"16":1310,"17":1270,"18":3400,"19":1260,"20":1330,"21":1710,"22":1710,"23":1710,"24":1710,"25":1780}},{"layers":[{"inputNeurons":0,"outputNeurons":10,"weights":[],"biases":[0.09087980834189194,0.02037806199515742,0.725053956081825,0.22614766617367907,0.626926081647553,0.1164720946348935,-0.9847631926650793,-1.2105093399346698,1.2910162754452588,1.2676148371814888]},{"inputNeurons":10,"outputNeurons":3,"weights":[[0.8808943292058389,-0.3229429919014692,-1.210774555101501],[-0.5673784355182291,-1.0548318199040183,-1.0730022948410778],[1.680639093304765,-0.8943486667829904,-1.3527632299761185],[-0.9870548048155292,-0.4872812278175841,-0.32976671108985733],[-1.3893924558163073,-0.23812234638877017,-0.4523343777627886],[1.2503319916881155,-0.771651854174834,-1.7710194616132904],[0.31391427342653044,0.24747378415254698,-0.5877494992604465],[-0.5962275472184823,0.8620353857597045,1.4643333375254086],[0.3404899264496262,0.05992298958458375,0.5465492466611065],[-1.8438805935320566,-1.3288115054402903,0.7925880775871608]],"biases":[1.2225306197868506,-0.4625455890063981,0.0652393120242229]},{"inputNeurons":3,"outputNeurons":1,"weights":[[0.9088260020908642],[1.0664110593147114],[-2.011990805841588]],"biases":[1.9477250657588414]}],"scores":{"1":2240,"2":1710,"3":1710,"4":1270,"5":2340,"6":1300,"7":1710,"8":1710,"9":1290,"10":2180,"11":2110,"12":2720,"13":1710,"14":1710,"15":1710,"16":1910,"17":1240,"18":1310,"19":1710,"20":1710,"21":1290,"22":2340,"23":1710,"24":1310,"25":1710}},{"layers":[{"inputNeurons":0,"outputNeurons":10,"weights":[],"biases":[0.2402130004337858,0.17506840944986252,-0.20292631292919938,0.7203854489744421,0.48166528829871647,0.4827891818336477,-0.936137476108972,-0.9748782071334245,1.4818832944987907,0.9782812585644926]},{"inputNeurons":10,"outputNeurons":3,"weights":[[0.2174559411597139,0.09263605193633534,-1.1175599536531835],[-1.1495471589096176,-0.9696388834004754,-0.9293364808452437],[0.2944622655824146,-0.4664964055121018,-1.1028740039626468],[-0.7755907417660408,-0.06062030529255985,-1.0229482519382131],[-1.4777522970941728,0.2475004445570403,-0.6105533872422063],[1.7978900562740052,-1.0418439052865436,-1.85156029682225],[0.35617989976969106,0.2208498652501737,-0.5684260703075372],[-0.40966715014579025,0.6626361091450856,1.2680658802479334],[0.4051734705566775,-1.0883586326249817,0.11875380948334868],[-0.7898681493728995,-2.327327580113357,0.8351100745614211]],"biases":[1.2794318238488098,-0.18393970582966768,0.14059808639709542]},{"inputNeurons":3,"outputNeurons":1,"weights":[[0.2737994047056309],[0.8005964309570117],[-1.383838302497009]],"biases":[1.4958468925562787]}],"scores":{"1":1680,"2":1670,"3":1230,"4":1430,"5":1450,"6":1690,"7":1570,"8":2120,"9":1840,"10":1650,"11":1670,"12":1820,"13":970,"14":1160,"15":1820,"16":1650,"17":1610,"18":2290,"19":1640,"20":1670,"21":2290,"22":1760,"23":1220,"24":1490,"25":3310}},{"layers":[{"inputNeurons":0,"outputNeurons":10,"weights":[],"biases":[0.18358093848569804,0.15741499995305577,0.6606181995790712,0.05465124164282251,1.0244677720357969,0.7605222775616882,-1.052381974181623,-1.241440524650161,0.668101925498177,1.2809684745785723]},{"inputNeurons":10,"outputNeurons":3,"weights":[[0.8298838167151823,-0.12590688489469687,-0.930909519953841],[-0.3919012597438992,-1.097905323443723,-1.0959109320098788],[1.4226744646661378,-0.8764911866437531,-1.2818507777248889],[-1.1417924714882823,-0.19589849036015913,-0.5494934990936788],[-1.4002268901018355,-0.06634289399357035,-0.827520060120224],[1.6704011151999643,-0.8366316557650211,-1.8051759300470045],[0.31214048871116373,0.10017891252784628,-0.7178175889794202],[-0.8551259481146021,0.5775247878881984,1.4661431221171808],[0.480247801496013,-0.38681269003286556,0.4578631255368407],[-1.9641815869454027,-1.463374037538369,0.734498415716629]],"biases":[1.3783104122577192,-0.32544075727144767,-0.27954066399902544]},{"inputNeurons":3,"outputNeurons":1,"weights":[[0.9371911399642122],[1.1604309594086772],[-1.9050782847895897]],"biases":[2.063492708504184]}],"scores":{"1":1580,"2":1610,"3":1620,"4":1390,"5":1510,"6":1240,"7":1630,"8":1680,"9":1690,"10":1750,"11":1840,"12":1660,"13":1680,"14":1760,"15":1620,"16":1670,"17":1820,"18":1510,"19":1840,"20":1840,"21":1570,"22":1680,"23":1790,"24":1790,"25":1760}},{"layers":[{"inputNeurons":0,"outputNeurons":10,"weights":[],"biases":[0.8052500739070179,0.12154554383873921,-0.15548845835927674,0.584281504321652,0.7563210009894379,0.9097445678987859,-0.961786005072284,-0.6819115516437333,1.8037737423227511,1.0518911763051857]},{"inputNeurons":10,"outputNeurons":3,"weights":[[0.13456644930917672,-0.10489736435722967,-0.9872092132072952],[-0.7284708894658178,-0.7960975385027329,-0.934355332701583],[0.7634576055526294,-0.30007897418907814,-0.7553107900859102],[-0.5535485250667821,0.333965665594542,-0.8914789562986979],[-1.496277293191325,-0.05148305624602541,-0.8027536966493493],[1.9231478112166334,-1.2585523267441068,-1.8642145477658263],[0.3457376985723581,-0.133981977943774,-0.3293783175792824],[-0.5248659351834887,0.8541704989971001,1.5794950621086026],[0.4610192793210686,-0.4926845126228406,0.41451879567852223],[-0.7194712990111574,-2.621513796276631,0.788254514240873]],"biases":[1.073424167831938,-0.39194090214414085,0.1807732087911711]},{"inputNeurons":3,"outputNeurons":1,"weights":[[0.5999007022473688],[0.7761768515385759],[-1.4917891732871786]],"biases":[1.4628764095298474]}],"scores":{"1":1740,"2":1840,"3":1680,"4":1910,"5":1670,"6":1840,"7":1680,"8":1660,"9":1480,"10":1660,"11":1360,"12":1840,"13":1870,"14":1050,"15":1940,"16":1770,"17":1610,"18":1360,"19":1460,"20":1660,"21":1680,"22":1680,"23":1680,"24":1670,"25":1680}},{"layers":[{"inputNeurons":0,"outputNeurons":10,"weights":[],"biases":[0.9024500066471831,-0.0607785551467904,0.15138881541267935,1.042183433195615,0.8397861619754298,0.9071973939518567,-0.9641181447834104,-1.026119779945177,1.9799061403770095,1.0983920655976234]},{"inputNeurons":10,"outputNeurons":3,"weights":[[-0.2706698290781296,-0.18751371181879267,-0.9054959922300474],[-0.3981535959296417,-1.234820801208805,-0.828034371290595],[0.6712895712365321,-0.4060002295781419,-0.7916710126480557],[-0.5315101215028482,0.14630947921003412,-0.9199344189234824],[-1.651906303722837,0.08270110474398881,-0.6610331796424269],[1.7432829829780738,-1.0264325349110124,-2.5155712266093335],[0.1426384988950871,-0.04240433773888244,-0.2881414921367062],[-0.06738616480601162,0.5619832942408995,1.2759105348877942],[0.5624305275741094,-0.6573779482815006,0.44686932779427896],[-0.8478206463982996,-2.3840205853345835,0.916654414189361]],"biases":[0.5844979635535376,-0.8340349113356995,0.08939621551454066]},{"inputNeurons":3,"outputNeurons":1,"weights":[[0.2927561606334991],[0.948168011888703],[-1.4785426831061381]],"biases":[1.1349820815050664]}],"scores":{"1":1840,"2":1130,"3":1680,"4":1700,"5":1400,"6":3140,"7":1260,"8":1840,"9":1760,"10":1760,"11":1460,"12":1680,"13":1740,"14":1660,"15":1330,"16":1290,"17":1680,"18":1340,"19":1590,"20":1690,"21":1750,"22":1510,"23":1680,"24":1840,"25":1540}},{"layers":[{"inputNeurons":0,"outputNeurons":10,"weights":[],"biases":[0.42443938536559367,-0.1043945072655885,0.1250717013287411,0.18291038141135968,0.9578493780510811,0.4557231940612555,-1.1555250499694294,-1.4087864203263059,1.8876807674818707,0.8532281777381775]},{"inputNeurons":10,"outputNeurons":3,"weights":[[0.8483927620852278,-0.7193351491886479,-1.5592391293696704],[-0.5365669173308841,-1.3092391587658263,-0.5276811227112856],[0.9157205354121434,-1.1759088373702307,-1.0247941513775491],[-1.097022332445871,-0.24098320536458756,-0.6174063485131533],[-1.3565436730227154,-0.11522611924351096,0.19299462058763428],[1.615241815814621,-1.1182088904708243,-1.9436420185188998],[0.2798876322800045,0.4285715372295038,-0.5282616010313064],[-0.38269554983128157,1.5706484861604635,1.3489491175237902],[0.2835620444969412,-0.026407464981823586,0.07371785214903215],[-1.0418732103327562,-1.509822328501827,0.6063135178279393]],"biases":[1.4742533123683828,-1.1481367182504172,0.3959082167807016]},{"inputNeurons":3,"outputNeurons":1,"weights":[[0.8260695289818234],[1.3385634296772386],[-1.5229456973574076]],"biases":[1.6128140297438842]}],"scores":{"1":1890,"2":1760,"3":1680,"4":1610,"5":1760,"6":930,"7":1480,"8":1840,"9":1760,"10":1760,"11":1480,"12":1370,"13":1650,"14":1840,"15":1480,"16":1620,"17":1690,"18":1840,"19":1840,"20":1680,"21":1330,"22":1670,"23":1840,"24":1590,"25":1840}},{"layers":[{"inputNeurons":0,"outputNeurons":10,"weights":[],"biases":[0.3989980230337328,-0.04899542250619185,0.41673904019999924,0.5095215594082583,1.2224027144525693,0.35940784281969634,-1.0864437474035245,-1.1757975185328287,1.6588305239107022,1.265596013099711]},{"inputNeurons":10,"outputNeurons":3,"weights":[[0.829853043549723,-0.6230047505408963,-1.4093823253970348],[-0.919610108003729,-1.3875529493204881,-0.7720477144703195],[1.1006186954705564,-0.8129010348154788,-1.4112047968141852],[-1.2152921322160333,-0.5926677767200271,-0.30030981132059115],[-1.4025955503852714,0.036087197387457554,0.10571111827194177],[1.613507180961964,-1.1813121715750066,-1.9831753033234412],[0.5120673655477426,0.7367254219573349,-0.18022847417497895],[-0.8058562294004796,0.9928004469698448,1.2637275881611618],[0.5406060471772982,-0.09121974454260984,0.38387114587163496],[-1.205557655821747,-1.497226089891268,0.8958981850653327]],"biases":[1.5133232397047742,-1.1158234077174092,0.580187807003367]},{"inputNeurons":3,"outputNeurons":1,"weights":[[1.0304945560546617],[1.3199330291649543],[-1.7016667219258814]],"biases":[1.445787609593822]}],"scores":{"1":1840,"2":1450,"3":1680,"4":1550,"5":1480,"6":1670,"7":1640,"8":1310,"9":1670,"10":1760,"11":1840,"12":1760,"13":1680,"14":1790,"15":1950,"16":1760,"17":1840,"18":1700,"19":1430,"20":1530,"21":1680,"22":1500,"23":2040,"24":1620,"25":980}},{"layers":[{"inputNeurons":0,"outputNeurons":10,"weights":[],"biases":[0.35160077578409754,-0.007837726995727896,0.5776496062618905,0.020745162545799944,0.7751744038288572,0.42813097538295997,-0.9609028530314907,-1.151278685398498,1.015349433293661,1.234957758338042]},{"inputNeurons":10,"outputNeurons":3,"weights":[[0.6323754515974945,-0.37705995318045277,-0.8787921288488889],[-0.7704231864097968,-1.1526393782365973,-0.8275035074276722],[1.8151009133024232,-1.3444781618828106,-1.3960312251644444],[-1.170886138993161,-0.4778997985953142,-0.3679993034890707],[-1.5830990152374107,-0.14314783940294148,-0.6605744089300778],[1.383811530765015,-0.9691348237932595,-1.6284576622622702],[0.17778537399837874,0.14210643369119003,-0.44595752340974093],[-1.1126302873065217,0.40566154354997547,1.4424287077192441],[0.5373481265436248,-0.23748261249827368,0.4479039617199635],[-1.3118241451564518,-1.414849132560878,0.7493942975670804]],"biases":[1.4006213063342865,-0.7956643611198925,-0.04592590853002097]},{"inputNeurons":3,"outputNeurons":1,"weights":[[0.6318242867794482],[1.173457996101475],[-1.949493645191221]],"biases":[1.7181618999539587]}],"scores":{"1":3060,"2":1520,"3":1340,"4":1700,"5":1530,"6":1820,"7":1660,"8":1670,"9":1060,"10":1600,"11":1460,"12":1540,"13":1330,"14":1620,"15":1700,"16":1700,"17":1840,"18":1600,"19":1610,"20":1700,"21":1680,"22":1030,"23":1930,"24":1660,"25":1740}},{"layers":[{"inputNeurons":0,"outputNeurons":10,"weights":[],"biases":[0.16115370955576475,-0.4987809962426494,0.2649456709885736,0.6896259600133475,0.696646144668663,0.890029876927773,-1.334454906192914,-0.6282836709445401,1.080445693831528,1.827068825413766]},{"inputNeurons":10,"outputNeurons":3,"weights":[[0.919565627260845,-1.4530467373876892,-1.2432687211578102],[-1.3278363970885485,-1.3276593664350886,-1.0590191094671624],[1.117528018399724,-0.2577783194299422,-1.6304242966896085],[-1.1067008099585045,-0.6231623185233177,-0.3776163032089102],[-1.5501887837567698,0.1925819746976066,-0.2176320044689361],[1.4693475402215408,-1.4948485449988231,-1.3906640164796902],[0.21355682510918134,0.7459130139356808,-0.9690795951662281],[-0.9492739149506051,1.2068137840553006,2.040065318242777],[0.7798448064858352,0.179136181123228,0.37598812085992694],[-0.5444190351979674,-1.676241837022359,1.1101022598956614]],"biases":[1.4034143683028475,-1.8732796742213604,0.07623428301017318]},{"inputNeurons":3,