{"networks":[{"layers":[{"inputNeurons":0,"outputNeurons":10,"weights":[],"biases":[0.2615700916758487,-0.09982812797408899,0.15242233993849327,0.6851312867344396,0.7600630697222461,0.9398364422804308,-1.2288499389178433,-1.0507092747637155,1.3186332056707115,0.951322250055551]},{"inputNeurons":10,"outputNeurons":3,"weights":[[0.8919544824409993,-0.7027255325674302,-1.0617443901475208],[-0.5148089507577329,-0.48555419847540265,-0.8706476659130122],[1.0990980459891,-0.5300848495577577,-1.3694553237804126],[-0.9008592459896846,0.47197225093208184,-0.8691631854530953],[-1.8427478988622943,0.44605130117383923,-0.6369705825216465],[1.3675601270394453,-0.12273065572932955,-1.8536897242060844],[0.1659808699898867,0.2140981647790456,-0.6097468433606135],[-0.35396215257618535,0.03326978879557879,0.9382652276253841],[0.38871595100114453,-1.9210161023416275,0.3867301267229222],[-0.45372859759356277,-2.037745566343375,0.8799976269768517]],"biases":[1.427101268125233,-1.0156843279798573,0.22811004277100333]},{"inputNeurons":3,"outputNeurons":1,"weights":[[0.5472517778846117],[1.0976147155211324],[-1.0552240422332575]],"biases":[1.6200996638855352]}],"scores":{"1":5000,"2":4980,"3":2800,"4":4980,"5":4980,"6":2000,"7":4980,"8":5000,"9":2720,"10":1290,"11":2400,"12":2200,"13":2340,"14":2200,"15":4980,"16":2850,"17":2180,"18":2100,"19":5000,"20":2600,"21":5000,"22":3400,"23":5000,"24":4980,"25":1270}},{"layers":[{"inputNeurons":0,"outputNeurons":10,"weights":[],"biases":[0.8236442041438743,-0.21440573054711,0.24339668832297826,0.48861901154976783,0.8370205134741007,0.6357928886020902,-0.9180510195653449,-1.2112850111635198,1.6871735718298837,1.127779623375436]},{"inputNeurons":10,"outputNeurons":3,"weights":[[0.6120934002356213,-0.48108618828386196,-1.156913937854299],[-0.8847886813649342,-0.8525167605737534,-0.5952150248571717],[1.051063919661047,-0.8812066680875127,-1.3732152329821792],[-1.112854137434237,-0.08838440833739158,-0.6673997703541259],[-1.6059706009875128,-0.07827403717279396,-0.2437128872600831],[1.5861310359622383,-1.1269779321458224,-2.0512052050527734],[0.31866063469541417,0.5986142067831387,-0.6211854952840402],[-0.5947010116530029,1.0214906743341858,1.1106550162842224],[0.39551194854462884,-0.5820304900421234,0.3372695724867534],[-1.1538587358675145,-1.3236654266768437,1.1050886381823393]],"biases":[1.5119218281445828,-1.0734206407004698,0.19593731238539538]},{"inputNeurons":3,"outputNeurons":1,"weights":[[0.35990246629333766],[1.0394448464226307],[-1.4072439695810965]],"biases":[1.345860902833341]}],"scores":{"1":3380,"2":2340,"3":3600,"4":2200,"5":2340,"6":1320,"7":2180,"8":1360,"9":5000,"10":2340,"11":2200,"12":2340,"13":4980,"14":4980,"15":4980,"16":2940,"17":4980,"18":4980,"19":5000,"20":5000,"21":2340,"22":3380,"23":4980,"24":1910,"25":1320}},{"layers":[{"inputNeurons":0,"outputNeurons":10,"weights":[],"biases":[0.48862678215031974,-0.012624753271886235,-0.1097575869843881,0.7178667688615253,0.9301726638761824,0.647647797634322,-0.8360090386803098,-1.0813104009327832,1.861578897185952,1.0454299673034664]},{"inputNeurons":10,"outputNeurons":3,"weights":[[0.13455351224087386,-0.08486426236420166,-1.0302873848638323],[-0.6241928525333589,-0.9250809971563059,-0.698409507987708],[0.6348098966430509,-0.3280058847539314,-1.110580217421837],[-0.6606889619131725,0.44475201757204424,-0.9521444619582704],[-1.5147943891401259,-0.07239798243163914,-0.5805381622338018],[1.8051545354716216,-1.138682287218615,-2.0491521019075893],[0.28734548534728754,0.20876317514021728,-0.3592936345831257],[-0.2645514151535023,0.9762377532983602,1.3283731748114385],[0.3801026915987131,-0.79227781169973,0.24832551666120345],[-0.723021861616705,-2.313779277986056,0.9132936090223286]],"biases":[1.2050706021226572,-0.504635081426245,0.13768999985889682]},{"inputNeurons":3,"outputNeurons":1,"weights":[[0.3904870789812848],[1.022281251215127],[-1.4634477569913198]],"biases":[1.4052697431976364]}],"scores":{"1":2580,"2":2010,"3":3400,"4":2780,"5":1340,"6":3380,"7":1250,"8":3380,"9":2800,"10":3600,"11":5000,"12":2070,"13":5000,"14":2320,"15":4980,"16":1310,"17":2600,"18":4980,"19":1280,"20":3400,"21":4980,"22":4980,"23":5000,"24":1310,"25":3400}},{"layers":[{"inputNeurons":0,"outputNeurons":10,"weights":[],"biases":[0.2355229899801508,0.3749069721587135,-0.6282105953889399,0.502121341932338,1.0462937213724888,0.7182375289083264,-0.9199530338776237,-1.214962294137408,1.481125933759177,0.8649333615706956]},{"inputNeurons":10,"outputNeurons":3,"weights":[[0.9349268409760472,-0.36528729714498814,-1.0592776723629558],[-0.17613311270464105,-0.639774683263,-0.7463680347976981],[0.06138808578829219,-1.0669814889597782,-1.4693696380693981],[-1.017806218915774,0.049319918086195014,-0.6472012434389969],[-0.9465092353309659,0.4585942886491421,-0.8313036599635092],[0.8031759945606793,-0.48201957061145734,-1.781039421574709],[0.11120406522326365,-0.02919288931845583,-0.618492608630709],[-1.0553260472831498,1.4920261843805325,0.3842116812723526],[0.3186754372418762,-1.3145148146029497,0.6595511073518145],[-0.2743883724739206,-1.8888165292187022,1.309400485831439]],"biases":[0.9344505566541798,-1.6667320881829033,0.4428809302963788]},{"inputNeurons":3,"outputNeurons":1,"weights":[[0.43460851022366537],[0.30367132353586646],[-0.736767842562486]],"biases":[0.9864346973099173]}],"scores":{"1":2340,"2":4980,"3":2340,"4":2380,"5":4980,"6":3600,"7":3400,"8":2540,"9":1320,"10":1320,"11":2340,"12":4980,"13":2110,"14":2180,"15":4960,"16":1270,"17":5000,"18":2400,"19":1280,"20":3400,"21":2340,"22":4980,"23":1320,"24":4980,"25":2520}},{"layers":[{"inputNeurons":0,"outputNeurons":10,"weights":[],"biases":[-0.05184882381665566,0.19727638341862566,-0.0180889536747305,0.4034917721216271,0.4665829762700252,0.4876440850996676,-0.9600772915711886,-1.6184276078986655,1.6940542095271363,1.2253936604391171]},{"inputNeurons":10,"outputNeurons":3,"weights":[[0.24343651576053818,-0.05624945281961524,-0.962397828558968],[-0.7286735169985035,-0.7658820267105845,-0.503750524150995],[0.33582043726760613,0.351334396933048,-1.3221898507237495],[-0.8809627946557926,0.8533187425267862,-0.9422091827151371],[-0.8459224548864966,0.732486645921192,-0.07263043563629076],[0.44146277139708456,-0.1623961229118239,-2.546535832909683],[0.5085052256913647,-0.4316296574352366,-0.05353564287743079],[-0.973496207354414,0.9636234831372814,0.8581215860022317],[0.6889906514845949,-0.756666875792003,1.0589055009755493],[-0.6225741307804529,-2.6157345956005975,1.161487061729156]],"biases":[0.7698035257887585,-0.8445930975153277,0.420211423096629]},{"inputNeurons":3,"outputNeurons":1,"weights":[[1.358840240656298],[1.0506951682051615],[-1.4188693052287493]],"biases":[1.2803940971636747]}],"scores":{"1":2200,"2":2110,"3":3180,"4":1300,"5":4980,"6":5000,"7":4980,"8":1260,"9":2110,"10":4980,"11":2180,"12":1260,"13":2110,"14":4980,"15":2110,"16":1320,"17":1260,"18":1280,"19":4980,"20":1280,"21":1290,"22":4980,"23":3400,"24":5000,"25":4980}},{"layers":[{"inputNeurons":0,"outputNeurons":10,"weights":[],"biases":[0.33802262831492813,4.842348538635216E-4,0.018362549866727324,0.5690929764877384,0.6961572073975502,1.0036585455020202,-0.7513270151173383,-1.4059760599524826,1.6414648026078145,1.2322752951435463]},{"inputNeurons":10,"outputNeurons":3,"weights":[[0.5655107768555201,-0.35642707387267697,-1.3442105046577832],[-0.5054708184600751,-0.7787600794341928,-0.6862315492861097],[0.4201383095403918,-0.5880701181121617,-1.5511886237759118],[-0.853593667927912,0.05080390237700421,-0.7848813405919502],[-1.32722024216772,0.050112850885055876,-0.6133866810994787],[1.5523690648234545,-0.7294730104684353,-1.7741039818815179],[0.3336770827538665,0.15698429592479296,-0.3615246128173534],[-0.44241624411974256,0.4527657847823017,1.1094034545832667],[0.2803978408480863,-1.1183076011405073,0.24529170215414142],[-0.48195357749491446,-2.2997780300181407,1.1796233171643649]],"biases":[1.240614459255499,-0.8729492198635778,0.35240488655543106]},{"inputNeurons":3,"outputNeurons":1,"weights":[[0.39021181734847693],[1.1678223482507921],[-1.1181444433969063]],"biases":[1.2126168321433881]}],"scores":{"1":3600,"2":3200,"3":3200,"4":5000,"5":1290,"6":1290,"7":3600,"8":2350,"9":4980,"10":1290,"11":4980,"12":1310,"13":2000,"14":2540,"15":2940,"16":2220,"17":2400,"18":3200,"19":4980,"20":5000,"21":4980,"22":1300,"23":3380,"24":1960,"25":1290}},{"layers":[{"inputNeurons":0,"outputNeurons":10,"weights":[],"biases":[0.3566770768134802,-0.40243050472540626,-0.029297799653379083,0.5670356200931193,0.6506638929067411,0.8481325020133925,-0.7296730597072623,-1.1688080624438653,1.9505411141182591,1.330027534473209]},{"inputNeurons":10,"outputNeurons":3,"weights":[[0.538680395780185,-0.15355912821338985,-1.388852501145088],[-0.590481875140513,-0.8568201090503804,-0.757968350677548],[0.2738780137162865,-0.6174255924027469,-1.6009908709196057],[-1.2305746886515523,0.07719349495782767,-0.7978566880795326],[-1.1903458787518935,0.11742360714363577,-0.7551721214256265],[1.5781945601192047,-0.7411098774772041,-1.844377187360326],[0.1088067362611726,0.5540312881207625,-0.2782311226519002],[-0.2592032580960756,0.08309387136959534,0.9720394524373881],[0.34588522994574167,-1.333856655926374,0.2716427105344534],[-0.5192476716429055,-2.5738201845981266,1.0358826105592085]],"biases":[1.300986297744452,-0.8625854537870244,0.5995300433125326]},{"inputNeurons":3,"outputNeurons":1,"weights":[[0.3472208412970662],[1.1344858974365417],[-1.2082661461526212]],"biases":[1.1404339469586515]}],"scores":{"1":2600,"2":3380,"3":2490,"4":2110,"5":1290,"6":1300,"7":2580,"8":5000,"9":4980,"10":2200,"11":1320,"12":4980,"13":4980,"14":2110,"15":2200,"16":5000,"17":3380,"18":3600,"19":2050,"20":2000,"21":1290,"22":3200,"23":1310,"24":4980,"25":1760}},{"layers":[{"inputNeurons":0,"outputNeurons":10,"weights":[],"biases":[-0.23098891505859948,7.289718753137886E-4,-0.15619827602380704,0.30847329045282884,0.29393945477032224,0.8357593259324275,-1.3995270628322043,-1.1842808538031233,1.4762393573148032,1.3477510767684353]},{"inputNeurons":10,"outputNeurons":3,"weights":[[0.15757323058543588,-0.28214206068065795,-1.2042604459932162],[-0.5915437256262794,-0.9356941758068811,-0.7266852804721596],[0.5729967083576598,-0.1506878778397493,-1.5483122075187976],[-0.9531239737235416,0.9199315547602669,-0.4661962577073354],[-0.8421470547872079,0.6830852316648904,-0.20902080636792023],[0.6076719140449539,-0.1938028593970071,-2.273642118281811],[0.5960868087469673,-0.1597650534236886,-0.2927765544916773],[-1.1401558760555865,1.0466402244527504,0.9219152889389853],[0.46871883133935577,-0.9983929008007766,0.8966991827900073],[-0.6180162767572084,-2.1947891718026042,0.8879355402568089]],"biases":[0.9950653514856977,-0.6173958058104031,0.13295632472325802]},{"inputNeurons":3,"outputNeurons":1,"weights":[[1.2439666021003108],[1.0258436689152264],[-1.1252750019970335]],"biases":[1.0001227006368991]}],"scores":{"1":1380,"2":1580,"3":3610,"4":2620,"5":3400,"6":5000,"7":5000,"8":2700,"9":5000,"10":1020,"11":3320,"12":5000,"13":2560,"14":1610,"15":3550,"16":1000,"17":3620,"18":3400,"19":1410,"20":2920,"21":1400,"22":2850,"23":5000,"24":1370,"25":1370}},{"layers":[{"inputNeurons":0,"outputNeurons":10,"weights":[],"biases":[0.20683329503428544,0.44823408973782286,0.19717280396056666,0.6290686998261199,0.5806454763726351,1.2146318027907386,-0.5687897064786352,-1.4121809134151415,1.6805697394443315,1.2201489734862723]},{"inputNeurons":10,"outputNeurons":3,"weights":[[0.4066793049883204,-0.750780676080103,-1.2772599409021934],[-0.6762235654223097,-0.6259639785134005,-1.011230915353253],[0.19186957248174297,-0.8784998642467416,-1.752409569149993],[-0.6530198870215349,-0.10478567559539656,-0.6536057871781218],[-1.3344947251829213,-0.020396526641980495,-0.6292624555339194],[1.6263143409391994,-0.23614812332899515,-1.6898952903361892],[0.5932079077222808,0.10427990365781473,-0.5240518494064486],[-0.38488283354307723,0.463872805710231,1.3424661629379295],[0.6501803143641778,-1.3934866871023008,0.540635441245264],[-0.30937126915641366,-2.3089899181985354,1.2946441629605154]],"biases":[1.119171829529061,-1.0290894661097816,0.3579472099045486]},{"inputNeurons":3,"outputNeurons":1,"weights":[[0.30777274731406623],[1.1530190429545455],[-0.997471807179391]],"biases":[0.8583100635331625]}],"scores":{"1":2540,"2":2800,"3":1300,"4":3380,"5":2340,"6":1290,"7":4980,"8":1260,"9":1310,"10":3200,"11":4980,"12":4980,"13":2890,"14":1270,"15":1290,"16":5000,"17":2800,"18":1260,"19":4980,"20":1300,"21":1300,"22":4980,"23":2470,"24":2200,"25":4980}},{"layers":[{"inputNeurons":0,"outputNeurons":10,"weights":[],"biases":[0.35444617406660045,-0.03011775620321163,0.04727310584863305,0.6110590309446601,0.7603859398686292,0.77446811252924,-0.7824447645923193,-1.3266908417321657,1.6715745379537992,1.0496970920494997]},{"inputNeurons":10,"outputNeurons":3,"weights":[[0.43327700769382493,-0.24873861547260984,-1.2525414921705278],[-0.8194878918767163,-0.966445895464775,-0.584664637965412],[0.6233027033566902,-0.6065427947332698,-1.3164947775994145],[-0.6962008581824506,0.08924237847752775,-0.5204521248366437],[-1.3078803537503016,-0.1314738556702827,-0.4020067982969497],[1.4933544723876715,-0.931777388841224,-1.7724881068945144],[0.2601061709727747,0.10866474316974242,-0.3001664458225333],[-0.5694636928211246,0.7811804734645936,0.8602321763454717],[0.29369432497939724,-1.0646335482593137,0.31835536465553815],[-0.8141607795812755,-2.2097667121236384,1.0899318353504788]],"biases":[1.1444668082784908,-0.9845735702266283,0.30431449975622316]},{"inputNeurons":3,"outputNeurons":1,"weights":[[0.5227880513443984],[1.2323666986142006],[-1.2891291250827044]],"biases":[1.2547625263250073]}],"scores":{"1":4980,"2":2340,"3":4980,"4":2200,"5":1270,"6":1310,"7":1910,"8":1300,"9":2600,"10":4980,"11":1270,"12":2340,"13":2050,"14":1340,"15":1270,"16":4980,"17":5000,"18":3600,"19":2200,"20":2800,"21":1320,"22":4980,"23":2200,"24":2580,"25":2180}},{"layers":[{"inputNeurons":0,"outputNeurons":10,"weights":[],"biases":[0.15029993033367858,0.15851779956065026,0.23339989552318102,0.5611206096332059,0.4726310889800516,1.143580084006316,-0.5499739498392282,-1.3549174010227762,1.3564234425735688,1.217349148196487]},{"inputNeurons":10,"outputNeurons":3,"weights":[[0.566337097278468,-0.6355407220172195,-0.9491692741521547],[-0.9345715165671595,-0.6421488192835447,-0.6694629451917561],[0.17519729846164997,-0.9604217450824384,-1.6288102786912102],[-0.47287701011585537,0.03458044407218919,-0.5080874067767174],[-1.2871053734198983,0.12233024851803173,-0.556770221212787],[1.9761307364730039,-0.041864930234138675,-1.9574458834811375],[0.2823192624941248,0.09652202956815623,-0.3226152223689347],[-0.36818938187383987,0.31975647038885,1.5766486255913745],[0.25824825403137297,-1.374575886649935,0.6332398405085922],[-0.3538253562763709,-2.1373981047763335,1.3774320245397356]],"biases":[1.4394390723431119,-1.0518623716712856,0.6617047508688116]},{"inputNeurons":3,"outputNeurons":1,"weights":[[0.6143812539355104],[1.2635200311392163],[-0.737523792362194]],"biases":[0.962532981939572]}],"scores":{"1":2320,"2":2320,"3":2320,"4":2320,"5":5920,"6":2320,"7":2320,"8":2320,"9":2520,"10":2320,"11":2500,"12":2320,"13":4250,"14":2320,"15":2520,"16":2320,"17":2320,"18":2320,"19":5420,"20":2320,"21":2620,"22":2320,"23":2320,"24":2320,"25":2320}},{"layers":[{"inputNeurons":0,"outputNeurons":10,"weights":[],"biases":[0.26104668272303466,0.11791198694500667,-0.08350624652841128,0.8831796816754499,0.8747716681654614,0.649006871515022,-1.011305193651138,-1.3005395588467477,2.0368068321230677,1.0223800287714107]},{"inputNeurons":10,"outputNeurons":3,"weights":[[0.1787345693061606,-0.27547534292238895,-1.1695403328179566],[-0.5762011586731405,-0.5941443881077686,-0.8300905587952785],[0.7370200435804461,-0.2938611768886464,-1.1336280189753054],[-0.6882936471345803,0.47765264346684166,-0.7126252192125437],[-1.203366158880735,-0.0925243205853722,-0.7819045474803437],[1.869020988174317,-0.8226969784657001,-2.011352833947634],[-0.024433979202550193,0.3708041472720429,-0.4394022676777929],[0.1971047769753836,0.8224070750441548,1.3175948758484153],[0.323825852188602,-0.9747836087652103,0.4527693979727813],[-0.5613291357784731,-2.404780138944409,0.8043290733806758]],"biases":[1.209392557486904,-0.6731663474551185,0.30459160067469004]},{"inputNeurons":3,"outputNeurons":1,"weights":[[0.05712457902110629],[0.7103724205304984],[-1.6411530766202953]],"biases":[0.9806166275741399]}],"scores":{"1":2320,"2":2440,"3":2920,"4":2320,"5":2720,"6":2520,"7":2520,"8":2430,"9":3920,"10":2520,"11":2520,"12":2320,"13":2380,"14":2220,"15":2320,"16":2320,"17":3700,"18":3650,"19":2320,"20":2320,"21":2320,"22":2320,"23":1300,"24":5520,"25":2320}},{"layers":[{"inputNeurons":0,"outputNeurons":10,"weights":[],"biases":[0.29014424397357913,0.18531328209969467,0.2417465459457031,0.5933853232882471,0.6626287847033538,1.2224354334327427,-0.5746649653588766,-1.4613933429485146,1.7585876315441407,1.5179456251842218]},{"inputNeurons":10,"outputNeurons":3,"weights":[[0.45849111751563765,-0.4789196217655808,-0.9407913377952399],[-0.4902513835651747,-0.7271465273974806,-0.9194753129535785],[0.4803500125657972,-0.7409946676337378,-1.8107687020164664],[-0.7677331846576928,-0.18280321264351018,-0.8854198505396833],[-1.4703636473232593,0.16370271091704727,-1.0740786874445716],[1.5217966176869044,-0.022725356242670774,-1.7261228239417554],[0.24875166202495713,0.05163911711492002,-0.3954957688836949],[-0.41123804978613276,0.23581411281284093,1.168211413531942],[0.6743621476265749,-1.3143699015783847,0.9207622039837593],[-0.6104503517674919,-2.141477887309204,1.169677030882667]],"biases":[1.1720492055226857,-1.4258991109149832,0.5618260075960048]},{"inputNeurons":3,"outputNeurons":1,"weights":[[0.35529274300783664],[1.1026068062564458],[-1.0538074194812703]],"biases":[1.2831917024479333]}],"scores":{"1":2320,"2":2590,"3":2320,"4":2320,"5":2320,"6":2210,"7":2320,"8":2320,"9":2520,"10":2320,"11":2320,"12":2320,"13":2520,"14":2320,"15":2320,"16":5420,"17":2320,"18":2320,"19":2320,"20":2320,"21":2720,"22":3120,"23":3720,"24":3920,"25":2320}},{"layers":[{"inputNeurons":0,"outputNeurons":10,"weights":[],"biases":[0.02213743813222585,-0.059234844277142575,0.2385943427873498,0.3226050949805755,0.6571118985086798,0.9284961981813578,-0.34920312572953344,-0.9782472358023836,1.8154344155068212,1.114490119842837]},{"inputNeurons":10,"outputNeurons":3,"weights":[[0.19540093703806544,-0.3649759158314682,-1.3823440174716375],[-0.9430606385022424,-0.9077139710459913,-0.45997366988850275],[0.7144454422554527,-0.8898449072975472,-1.1665966604330138],[-0.8957497127850048,0.3191899104808591,-0.783353121475844],[-1.4309218691117072,0.07439303817250076,-0.2652235134155515],[1.4829329922297445,-0.7618287163958863,-1.905605042184185],[0.16377402321669715,0.12476166628104694,-0.5120870447410328],[-0.33817139716672107,0.6951647252093801,0.9339771960726377],[-0.026032533684362813,-0.9669634090808317,0.36952429849946944],[-0.8754462777924458,-2.304708641994094,1.0830360843054316]],"biases":[1.2298567752808345,-0.6852211535008825,0.3651973346856176]},{"inputNeurons":3,"outputNeurons":1,"weights":[[0.35823754246339923],[1.1491065266640872],[-1.526210666135714]],"biases":[1.3123918921376863]}],"scores":{"1":2320,"2":2320,"3":2520,"4":4300,"5":3050,"6":2320,"7":3120,"8":2320,"9":2800,"10":2320,"11":2520,"12":2500,"13":2520,"14":2850,"15":2900,"16":2320,"17":2320,"18":2320,"19":2320,"20":2520,"21":2920,"22":2320,"23":2320,"24":2500,"25":2320}},{"layers":[{"inputNeurons":0,"outputNeurons":10,"weights":[],"biases":[0.41702491434554934,-0.41968198222510944,-0.4051783921518333,0.4849360029536637,0.8581559695069881,0.2836335318233631,-0.7179800770289274,-1.5540972128531938,1.6584719937468053,0.5391736291724452]},{"inputNeurons":10,"outputNeurons":3,"weights":[[0.33045863724248864,-0.06989819289749116,-1.5613449323055877],[-0.991805089267829,-0.7501081644314571,-0.2888667999814772],[0.7662165731489657,-1.0853186044327474,-1.2468409096237294],[-0.8919840319349515,-0.0760185485007473,-0.9055215024820052],[-0.8617736153613177,0.49777478091935734,0.04064989879671432],[1.1401471274954154,-0.44302014493122105,-2.063205922968184],[0.49864373056190475,-0.2153693081911207,-0.5835024131393238],[-1.0715360141766601,1.272358513984811,0.9639356455961288],[0.2690398008483577,-1.0751087935874686,0.6951599842662424],[-0.4330832008295764,-1.9779745153975499,0.44558490022222014]],"biases":[0.5967526279361451,-1.3180599391512031,0.41483319036007116]},{"inputNeurons":3,"outputNeurons":1,"weights":[[0.4795901136084579],[0.4126008023265215],[-0.5466357970320613]],"biases":[0.9359093548251245]}],"scores":{"1":5000,"2":2110,"3":2110,"4":2200,"5":1270,"6":2540,"7":4980,"8":3400,"9":2780,"10":1300,"11":1310,"12":4980,"13":1910,"14":4980,"15":2560,"16":2600,"17":2200,"18":2340,"19":2400,"20":2100,"21":1270,"22":1910,"23":1280,"24":3180,"25":1910}},{"layers":[{"inputNeurons":0,"outputNeurons":10,"weights":[],"biases":[0.7784570238345181,-0.08327632307533415,0.009781008733522917,0.5179522804677177,0.942644544263337,0.4751440288723739,-0.9252453759397143,-1.1520736418378235,2.0431730500431953,1.1643345289452869]},{"inputNeurons":10,"outputNeurons":3,"weights":[[0.21538761547599455,0.2901884762493223,-0.9869357608391884],[-0.8379453045101214,-1.3316982224212608,-0.6213074163930026],[0.6374709707081762,-0.3922006708027854,-1.200104449647812],[-0.7778989365458798,0.5620186577388735,-0.755137217671325],[-1.6741544300225477,-0.030158020780375674,-0.3731920199590768],[2.2041420164320584,-1.2691824479101648,-1.91864851496832],[0.4017095822916021,0.3924882678934929,-0.4573583903102039],[-0.2849269141538646,1.0148123886642306,1.4819371581180665],[0.4804942523997792,-0.7147062991190327,0.14505698889755203],[-0.8886435600015097,-2.198833068331526,0.5470792068113464]],"biases":[1.1611397847897609,-0.7388733361030559,0.06680518558055974]},{"inputNeurons":3,"outputNeurons":1,"weights":[[0.051211281697985],[1.310219156900626],[-1.919785343686445]],"biases":[1.3081401728008946]}],"scores":{"1":5000,"2":2320,"3":2320,"4":2190,"5":2320,"6":2320,"7":2320,"8":2320,"9":2320,"10":2320,"11":2320,"12":2320,"13":5920,"14":2320,"15":2320,"16":2320,"17":2520,"18":2320,"19":2210,"20":2320,"21":2320,"22":2320,"23":2320,"24":2320,"25":2520}},{"layers":[{"inputNeurons":0,"outputNeurons":10,"weights":[],"biases":[0.7696788852753316,0.12531449831010033,-0.29041720443102514,0.2266756222072065,0.7905076799264713,0.9211446821412249,-0.7288562185908762,-1.565505218617165,1.6352637010935833,1.1297404839684702]},{"inputNeurons":10,"outputNeurons":3,"weights":[[0.5507714257056401,-0.015486981966159274,-0.8347082261007783],[-0.8338737421072273,-1.0778835525960577,-0.5545941891624275],[0.6432682054882459,-0.46411043297890625,-1.1754900060134708],[-0.7586514495541743,0.6188594073787876,-0.31627631491701275],[-1.2301776992760942,0.20022294044454458,-0.28222846969634935],[1.6549843511338878,-0.7872543179294864,-1.6599743999661885],[0.5446130049156634,-0.1260353086758678,-0.27720941496935597],[-0.4114828522098545,0.8125116473308427,0.8776627952507973],[-0.05839601397930988,-1.0122018876080439,0.1496062299867364],[-0.8952544301254748,-2.44672071546706,0.9629487114695595]],"biases":[1.0650410090467082,-1.1257780694265058,0.3808397460823555]},{"inputNeurons":3,"outputNeurons":1,"weights":[[0.0999323774910102],[1.324265705135437],[-0.9445582025555437]],"biases":[1.3289567699029747]}],"scores":{"1":2320,"2":2320,"3":2320,"4":2500,"5":2520,"6":5510,"7":2320,"8":2320,"9":2320,"10":2320,"11":2320,"12":2320,"13":2320,"14":2620,"15":2520,"16":2320,"17":2320,"18":1320,"19":2520,"20":2320,"21":2320,"22":2320,"23":2320,"24":5450,"25":2320}},{"layers":[{"inputNeurons":0,"outputNeurons":10,"weights":[],"biases":[0.54350320771581,-0.029571872846624436,0.18658339457934003,0.9645434015638408,0.6753598890322993,1.2610444517281216,-0.45358189681588257,-1.46552267206244,1.5891790363413065,0.9268564968711923]},{"inputNeurons":10,"outputNeurons":3,"weights":[[0.6086462206652509,-0.508792378643953,-1.4224508593933765],[-0.5177944622355722,-0.22616645750162168,-1.0234401482530935],[0.13203558151131578,-1.0503527215787265,-1.6655575771183602],[-0.6231533364579077,0.03289563098687073,-0.6761597861818187],[-1.2399894564733733,-0.09088878159402283,-0.6073243308871307],[1.434078004761215,-0.6239693995866307,-1.8620221205432488],[0.742181530229374,-0.05876960529395145,-0.3033470956652802],[-0.5987389623431097,0.8526822569420639,1.7285572286103235],[0.21229141449110467,-1.046199299794929,0.5580779313658217],[-0.2168866388952645,-2.295273664734047,1.5703405132637303]],"biases":[0.9883945643176449,-0.9590427726629817,0.10049173373777126]},{"inputNeurons":3,"outputNeurons":1,"weights":[[0.4974178186075188],[1.2694806647328538],[-1.1228968700556445]],"biases":[0.631418610825705]}],"scores":{"1":2320,"2":2320,"3":2320,"4":2320,"5":5520,"6":2320,"7":2320,"8":2920,"9":2320,"10":2920,"11":2320,"12":2320,"13":2520,"14":2720,"15":2320,"16":2520,"17":1300,"18":2920,"19":2520,"20":3050,"21":2320,"22":2320,"23":2520,"24":2450,"25":2320}},{"layers":[{"inputNeurons":0,"outputNeurons":10,"weights":[],"biases":[0.22391490999458202,0.1604884755794863,0.16245951632185515,0.22273049697652814,0.31159084236880624,0.9271961999967251,-0.523877141923495,-1.5590378884513985,1.8136681130406895,1.0974032854177698]},{"inputNeurons":10,"outputNeurons":3,"weights":[[0.5543493649876586,-0.5047954545842989,-1.2523434026852096],[-0.5198314470021028,-1.171033396915544,-0.5662506629826378],[0.18420333341931722,-0.17919422691854286,-1.634469323179539],[-0.9074198498723982,0.008880224392705652,-0.7403481596701786],[-1.0643386090496043,-0.16873797128355003,-0.5467583854515814],[1.4529230482914675,-0.6220898196999549,-1.8375380643523904],[0.36055251577834413,0.3608451366610462,-0.4892353455134329],[-0.03380705891701291,0.4453436933925873,1.3112871850515202],[0.15613810394320404,-0.9102400555551231,0.4271625986836527],[-0.43859774331619694,-2.67225614420171,1.0147466880569724]],"biases":[1.5658603106012785,-0.846374871649361,0.3102410339137168]},{"inputNeurons":3,"outputNeurons":1,"weights":[[0.6769389042146529],[1.1204369395352418],[-1.019720092829895]],"biases":[1.2820647097671578]}],"scores":{"1":5420,"2":5520,"3":2320,"4":2320,"5":2320,"6":2320,"7":2320,"8":2220,"9":2320,"10":2320,"11":2320,"12":2320,"13":2320,"14":1300,"15":2320,"16":2520,"17":2320,"18":2320,"19":2500,"20":2520,"21":2320,"22":2320,"23":2520,"24":2320,"25":2320}},{"layers":[{"inputNeurons":0,"outputNeurons":10,"weights":[],"biases":[0.6686322792196144,-0.20802498114226697,-0.23477448559408579,0.9491479857847296,0.5252159196156225,0.8982373881069866,-0.8140940949803499,-1.5348483539343833,1.3270509053611763,1.5007164188187858]},{"inputNeurons":10,"outputNeurons":3,"weights":[[0.5561021168975655,-0.2865753976458155,-1.398442327561401],[-0.405799366627147,-0.8211493844285545,-0.8141090474825141],[0.478369174937749,-0.5785290336215382,-1.4879479379813259],[-1.1941065944842082,0.08456426858701468,-0.6822172590621232],[-1.234741083416743,-0.14626771143223238,-0.6491726021871947],[1.8777162662156213,-0.6426961783326967,-1.6525819060303437],[0.3919832781435984,-0.2613675824681215,-0.4255529538684939],[-0.20684861863147397,0.15560810546360965,0.8190168866751208],[0.055373843184184174,-0.958759312833887,0.46869383953019256],[-0.8370658409521454,-2.3154244849684438,1.4406469759262328]],"biases":[1.4379431862082581,-0.8350577386505215,-0.23482502615640483]},{"inputNeurons":3,"outputNeurons":1,"weights":[[0.38010430421712826],[1.4520074284241702],[-0.9300513571721989]],"biases":[1.253649732667211]}],"scores":{"1":2320,"2":2320,"3":2320,"4":2320,"5":5330,"6":2520,"7":2320,"8":2210,"9":5520,"10":2320,"11":1290,"12":2320,"13":2320,"14":2390,"15":2320,"16":2320,"17":2520,"18":2320,"19":2320,"20":2320,"21":2320,"22":2720,"23":2320,"24":2320,"25":2320}},{"layers":[{"inputNeurons":0,"outputNeurons":10,"weights":[],"biases":[0.2373855132258356,0.024225451262680754,-0.33386705824133217,0.4788628105020538,0.7917551367336162,0.864040530417677,-1.0961700285270197,-1.2767625568849787,1.7904777923042265,1.1658776411935299]},{"inputNeurons":10,"outputNeurons":3,"weights":[[0.36888061378843795,-0.5243505290192254,-1.030874240004658],[-0.8342866320353169,-1.0837845757787528,-0.3501051795543473],[0.6950718501497944,-0.7537390346589736,-1.3364741222935317],[-0.46074374919204597,-0.16499612137190556,-0.788972128809696],[-1.4387942455894405,-0.6945250245228302,-0.39413019142618777],[1.5146736979555493,-0.6947348209587823,-2.20805985686653],[0.06734629844128853,-0.054258735548525755,-0.15143174532154455],[-0.49390140009372085,0.5868526551901767,1.0776095881318253],[0.15635134341749235,-1.1317408529936768,0.2289299130980315],[-0.9154735363310896,-2.284202344272089,0.8746868858380769]],"biases":[1.0160641879477377,-1.1062279251143035,0.73770042292236]},{"inputNeurons":3,"outputNeurons":1,"weights":[[0.37450593663485615],[1.2475341737541952],[-1.0134887562617663]],"biases":[1.3501844436921637]}],"scores":{"1":2320,"2":2320,"3":2320,"4":2320,"5":1310,"6":3400,"7":2920,"8":3120,"9":3920,"10":2320,"11":2290,"12":2320,"13":2920,"14":2320,"15":2320,"16":1300,"17":2320,"18":2520,"19":2320,"20":2720,"21":2320,"22":2460,"23":2320,"24":3920,"25":3120}},{"layers":[{"inputNeurons":0,"outputNeurons":10,"weights":[],"biases":[0.17739193205622295,-0.11075064867098292,-0.21181568343632928,0.6768639291817147,1.0716615088842543,1.1961475009524576,-0.8854200075508042,-1.443559522229354,1.5172293964551786,1.240531989524459]},{"inputNeurons":10,"outputNeurons":3,"weights":[[0.7427629301722356,-0.12134082292178755,-1.4540619271998834],[-0.6907207506387916,-0.5625814318732202,-0.6256632540318825],[0.015632021014076958,-0.6611181539998333,-1.6129165120190572],[-0.9341321558182981,0.13184179039198668,-0.8511985305858052],[-0.760834030428767,0.15282933989872577,-0.5303405799666516],[1.726046143832972,-0.9853201867140298,-1.898136052902674],[0.7755503233085046,0.47928305564386836,-0.3792574890918455],[-0.4571776700638987,0.17740647519675395,1.203670047886548],[0.045563722115148475,-1.1675297394689452,0.5619779415905102],[-0.4749976446739712,-2.5204188693065324,1.03416087318577]],"biases":[1.541023060363317,-0.6411405192530416,0.4584788583126946]},{"inputNeurons":3,"outputNeurons":1,"weights":[[0.32429739894137644],[1.0567049716961852],[-1.1020020713635699]],"biases":[1.0272807354018392]}],"scores":{"1":2320,"2":2520,"3":2320,"4":2210,"5":2320,"6":2720,"7":2320,"8":2320,"9":2320,"10":2320,"11":2320,"12":5520,"13":1300,"14":2320,"15":4250,"16":2320,"17":2320,"18":2320,"19":3120,"20":2320,"21":2520,"22":2320,"23":2320,"24":2320,"25":2320}},{"layers":[{"inputNeurons":0,"outputNeurons":10,"weights":[],"biases":[0.4438810628258163,0.16847733145545712,0.30947073016759313,0.6645907864184339,0.9028454565650026,1.3308135251534843,-0.48525899029074304,-1.5532651063135374,1.7650523107739555,1.1718592719451115]},{"inputNeurons":10,"outputNeurons":3,"weights":[[0.49291255768653214,-0.8294204985120995,-1.0728521671048548],[-0.44455585279899806,-0.907617413271065,-0.8672951831727926],[0.44129814092323,-1.2206815718107136,-2.238603652155533],[-0.25452210537707654,0.038808815710088124,-0.6091147358766643],[-1.4874903233815688,-0.2329483567895591,-0.7948415116693409],[1.3323566107272415,-0.4621614549516406,-1.562607271687605],[0.4908534948470658,-0.015949847012510204,-0.36784872534630414],[-0.588151211608785,0.6901252173630239,0.921057908706084],[0.30905717656546905,-1.5618769692386572,0.543128915216284],[-0.18952897671491975,-2.3191908522525364,1.4591713775660717]],"biases":[1.161169689254324,-0.7860361764353296,0.5527379237074306]},{"inputNeurons":3,"outputNeurons":1,"weights":[[0.012182433578335816],[1.1798346830586806],[-0.9443775778252359]],"biases":[1.0503492290874181]}],"scores":{"1":2320,"2":2320,"3":2320,"4":3720,"5":2210,"6":2320,"7":2320,"8":3830,"9":2320,"10":2320,"11":2320,"12":2520,"13":2320,"14":3100,"15":2690,"16":2320,"17":2320,"18":2390,"19":2520,"20":2320,"21":2700,"22":2320,"23":2520,"24":2320,"25":2520}},{"layers":[{"inputNeurons":0,"outputNeurons":10,"weights":[],"biases":[0.41103107661333904,-0.4975481847418027,-0.10947087988349348,0.7236701629615495,0.7691099231674043,0.3633214525242206,-1.1589955480095182,-1.3046054151727504,1.7816743647360058,1.276032802218171]},{"inputNeurons":10,"outputNeurons":3,"weights":[[-0.05061529057028036,-0.13018308347286675,-0.9861397262958216],[-0.4043933552199632,-0.6248496935527741,-0.6546212773315988],[0.5574631967605876,-0.4142390773968149,-1.022048491418522],[-0.6543222329655681,0.5130695801012286,-0.9784851904566233],[-1.518209610870377,0.32694501490976047,-0.7634514464927799],[1.8785449050107421,-1.0486516434948925,-2.135794436906164],[0.6312212779978199,-0.1033957199917516,-0.770768225828711],[-0.1353313475507417,0.8823326937181963,1.0560198653410429],[0.44811324020704063,-0.8101652099903546,0.3284863620356273],[-0.6546321558518629,-2.152829554466033,1.1468945746326935]],"biases":[1.0519035276275557,-0.25747516368973,0.5058577329183723]},{"inputNeurons":3,"outputNeurons":1,"weights":[[0.23434016563113425],[1.1674783628917238],[-1.557186202759677]],"biases":[1.4289328071898235]}],"scores":{"1":3080,"2":2320,"3":2320,"4":3120,"5":2320,"6":2320,"7":2320,"8":2600,"9":2920,"10":2320,"11":2320,"12":2920,"13":2520,"14":2320,"15":2320,"16":2320,"17":2520,"18":2520,"19":3120,"20":2320,"21":2320,"22":2500,"23":2520,"24":2320,"25":2320}},{"layers":[{"inputNeurons":0,"outputNeurons":10,"weights":[],"biases":[0.24457422373917803,-0.04100396294352071,-0.1847015419637466,0.2772929153506985,1.076656229149322,0.8528345928920484,-0.990502435612428,-1.3126202051423095,1.7730604925323465,1.2289519436552072]},{"inputNeurons":10,"outputNeurons":3,"weights":[[0.6738706437033021,-0.891311222333709,-1.2145301943050442],[-0.8607984069887142,-1.1843673952036649,-0.720121611833063],[0.433414371817179,-0.7095544696734735,-1.3105301116871184],[-0.9248946482684863,0.1779837674540881,-0.9835520809721197],[-1.3543496953365082,0.19404226318049222,-0.7446918383419909],[1.4603522153421893,-0.9090009824223566,-1.9054960615673275],[0.22961341576708655,-0.07388751743992178,-0.309471889129911],[-0.6879751756888222,0.4838319103410543,1.2053272130646144],[0.02481518441601982,-1.2289296089067723,0.23250743649537645],[-0.4615048508390965,-2.4228241594020936,1.1712301744369418]],"biases":[1.2262066285392477,-0.9785526999417848,0.3588373752019153]},{"inputNeurons":3,"outputNeurons":1,"weights":[[0.2237659352796512],[1.075513630696413],[-0.8922621160622277]],"biases":[1.528518774359356]}],"scores":{"1":2320,"2":2320,"3":2920,"4":2140,"5":2320,"6":2920,"7":2520,"8":2320,"9":5520,"10":2320,"11":2320,"12":2320,"13":2320,"14":2320,"15":2320,"16":2320,"17":2320,"18":2290,"19":3640,"20":2320,"21":2320,"22":1280,"23":2320,"24":2320,"25":2320}},{"layers":[{"inputNeurons":0,"outputNeurons":10,"weights":[],"biases":[0.10751557068985834,0.11949965920934577,0.09786631442087818,0.6515605733941783,0.8095633511303885,0.8077959068465246,-0.8685863703380619,-1.1888557480593547,1.7229673675517423,0.9952775268581171]},{"inputNeurons":10,"outputNeurons":3,"weights":[[0.34813162901349115,-0.10601424101259493,-1.228105512955845],[-0.8117868241983801,-1.105433749075954,-0.5688812887466295],[0.4656618510143771,-0.2888961345999459,-1.1244681091898123],[-0.5026811759096117,0.42077784207732666,-0.6464862931858099],[-1.7271550104891287,-0.36362075799159965,-0.3646302409377937],[1.5958748535264053,-1.0879545089170803,-1.720331507369654],[0.27410235917362186,0.1746444952165197,-0.034385346621878754],[-0.40726017933146985,1.3199059989152422,0.5048443118270197],[0.2939901732017837,-1.1710746367721951,0.1326591591545832],[-0.6905432653512441,-2.0772049324891766,1.1682211210470943]],"biases":[0.9696532807682681,-0.5714623347007086,0.33357987737945377]},{"inputNeurons":3,"outputNeurons":1,"weights":[[-0.04345957516720822],[1.2138607880009489],[-1.0382490325351026]],"biases":[1.2821829024752651]}],"scores":{"1":2320,"2":2320,"3":2720,"4":2520,"5":2320,"6":2570,"7":2520,"8":2320,"9":2320,"10":4320,"11":2320,"12":2320,"13":2320,"14":2900,"15":2320,"16":2320,"17":2320,"18":2320,"19":2320,"20":2970,"21":2520,"22":2320,"23":2320,"24":2320,"25":2320}},{"layers":[{"inputNeurons":0,"outputNeurons":10,"weights":[],"biases":[0.6553305284548847,0.1756976089076464,-0.5374033520395507,0.7168790963695142,1.008605717144185,0.2796753456820418,-0.7239618745530106,-0.8959409492823214,1.4307579575096037,1.1893591933259429]},{"inputNeurons":10,"outputNeurons":3,"weights":[[0.49608446106972687,-0.14104514651711586,-1.2239270912504592],[-0.7173951705224675,-0.6561377518747789,-0.8225349908664292],[0.5599393055698862,-0.4760820598855344,-1.026961236398655],[-0.6514303182204964,0.6670963493576939,-0.9455451630471235],[-1.2788929441417438,-0.061384452543857534,-0.48601597487799864],[1.8823148612481528,-1.1975455631723477,-2.214423290297504],[0.46935583396384395,0.1646085713004945,-0.23827983946789855],[-0.1429787505952575,0.956766870868958,1.3992539981888408],[0.3727626811111942,-1.0150514358490297,0.11209694436920681],[-0.6116381657175465,-2.5486820372302006,0.9560506168522983]],"biases":[1.0841293995259715,-0.8190199343183405,0.35591847680863564]},{"inputNeurons":3,"outputNeurons":1,"weights":[[0.24288579162434373],[1.1432423015258317],[-1.6715495314027269]],"biases":[1.4066474620497753]}],"scores":{"1":2360,"2":2320,"3":2320,"4":2690,"5":2620,"6":2320,"7":2720,"8":2210,"9":3120,"10":2320,"11":2320,"12":2320,"13":2520,"14":2720,"15":2320,"16":2520,"17":2320,"18":2320,"19":2320,"20":2320,"21":2320,"22":2320,"23":2320,"24":3400,"25":2800}},{"layers":[{"inputNeurons":0,"outputNeurons":10,"weights":[],"biases":[0.14693309907372837,-0.20419057049717287,0.1606844851992541,0.7719390216666402,0.91371991386328,0.5766954477422346,-0.9459118403551747,-1.3714184856108147,1.6370874302248306,1.2523168711070538]},{"inputNeurons":10,"outputNeurons":3,"weights":[[0.6063006192849194,-0.34203196839530103,-1.4483595448126383],[-0.4401797541946217,-0.9616486186298413,-0.49791358643735084],[0.8140288244332863,-0.6577545795673513,-0.870866245204193],[-0.9372277485242824,0.035273072803392,-0.6638238720521425],[-1.6558702360230413,0.17392131904716446,-0.6571283506979796],[1.0579982742892826,-0.5929001050136379,-2.062593738398063],[0.19378658130041254,0.41075308089430573,-0.08787263704342205],[-0.2112018627018566,0.7900844665920153,0.744336602806242],[-0.04986362756425211,-0.8740730238346351,0.14483314775731598],[-0.8787317398365546,-2.46095666263491,1.4437285250014176]],"biases":[1.4280971353284668,-0.8037673183118021,0.592876030030953]},{"inputNeurons":3,"outputNeurons":1,"weights":[[0.15813894894207553],[1.1273618259406677],[-1.480566204593182]],"biases":[1.4244648245360267]}],"scores":{"1":2320,"2":2320,"3":2320,"4":2320,"5":3020,"6":2520,"7":2320,"8":2290,"9":2320,"10":2920,"11":2320,"12":2320,"13":2520,"14":2320,"15":2320,"16":2800,"17":2520,"18":2320,"19":2320,"20":2320,"21":2320,"22":2520,"23":2490,"24":2520,"25":3400}},{"layers":[{"inputNeurons":0,"outputNeurons":10,"weights":[],"biases":[0.4295399221005251,0.01555094962154829,0.12388626828408116,0.6087890851430813,0.9417025293627539,0.6445230645198338,-0.538863932248054,-0.6736387570206797,2.245398396771972,0.986455973058833]},{"inputNeurons":10,"outputNeurons":3,"weights":[[0.0895839699988688,-0.34146862021983304,-0.8464877789892845],[-0.7744760536643837,-0.9782706579843474,-0.5473562128838585],[0.6034703217323153,-0.39551022366115807,-1.2712812535445952],[-0.6502432062531813,0.3134808413467167,-1.025999760875409],[-1.473308173243405,-0.171065993327999,-0.4326478683500321],[1.667445327156102,-1.0979616836056962,-2.0722741617422518],[-0.02230941502009548,-0.13648181960916342,-0.606024321152823],[-0.44554521557918664,0.6224556585931844,1.4181384172623348],[0.7741965713281744,-0.6107178720990535,0.4057838586422907],[-1.108639204811422,-2.0236182932974236,1.0474292213898198]],"biases":[0.9391272519630283,-0.4556836788483827,0.25688682828187787]},{"inputNeurons":3,"outputNeurons":1,"weights":[[0.12898811120378578],[1.3999609872671472],[-1.5466810342735686]],"biases":[1.5068216744308625]}],"scores":{"1":2320,"2":2920,"3":2520,"4":2520,"5":2320,"6":2320,"7":2320,"8":2320,"9":2320,"10":2600,"11":2320,"12":3820,"13":2500,"14":2320,"15":2320,"16":2720,"17":2720,"18":2320,"19":2520,"20":2320,"21":1300,"22":2520,"23":2520,"24":2320,"25":2580}},{"layers":[{"inputNeurons":0,"outputNeurons":10,"weights":[],"biases":[0.03733997403193012,-0.07303527339152052,0.04691721755925631,0.6562849683289707,0.5913333240990233,0.592914550859747,-0.5361077339504866,-1.2823038442627832,1.801077038392337,0.9888895908725062]},{"inputNeurons":10,"outputNeurons":3,"weights":[[0.7599424571880011,0.07408560322211749,-1.3175735907100936],[-0.6963978029302009,-0.9365388226157518,-0.4362057294868656],[0.6902837431160721,-0.7241189483630412,-1.6222714013298525],[-0.6242159834479525,0.0771447198105512,-0.7173589908263049],[-1.0434574759251771,-0.3824038645281824,-0.06482653830424007],[1.8283358275496933,-1.0758051259335553,-1.6579433854188799],[0.20976215050525573,0.01996149338218617,-0.4769934624676515],[-0.6113754920537344,0.5360854443794366,0.5372704610581402],[0.14103575310651492,-0.8130964228073854,0.2814383540586022],[-0.7456090648843372,-2.3076367620227636,1.034006568825667]],"biases":[1.5136204657104217,-1.2557290495785116,0.27881315818943225]},{"inputNeurons":3,"outputNeurons":1,"weights":[[0.6208118168276253],[1.6877810342460058],[-1.343750981683272]],"biases":[1.4783314177825644]}],"scores":{"1":2320,"2":2320,"3":2320,"4":3720,"5":2520,"6":2320,"7":2320,"8":2320,"9":1300,"10":2320,"11":2320,"12":2320,"13":2320,"14":2500,"15":3050,"16":1300,"17":2220,"18":2320,"19":5520,"20":2320,"21":2220,"22":2500,"23":2320,"24":2240,"25":2320}},{"layers":[{"inputNeurons":0,"outputNeurons":10,"weights":[],"biases":[0.33540590471800635,0.34280592650140507,-0.1354005922398543,1.0613338276330853,0.9166722062337331,0.6391705773860801,-1.0129003681705002,-1.2674340799774857,1.4994075454115185,1.2885117032929223]},{"inputNeurons":10,"outputNeurons":3,"weights":[[0.759331046912203,-0.5659654421558551,-1.3548061488494392],[-0.43932250168301434,-0.6515960286659345,-0.7603613241280438],[0.8185937747752509,-0.4433100638232994,-1.5636186249687787],[-0.854110073288963,0.3007000322303651,-0.9889656717129692],[-1.5506657359379588,-0.06090240834798283,-0.5873929098420966],[1.4817606754442343,-0.6385093322008857,-1.7446223095009907],[0.3895241217241016,0.18534655037748723,-0.16008763948631574],[-0.3841887018674136,0.4089763063266542,1.1144306515834697],[-0.1815268486520839,-1.0121803861680474,0.1364080954371526],[-0.4845203744685129,-2.4749478950225976,1.079005149244796]],"biases":[1.1648818257836493,-0.932198619134831,0.20429977187819415]},{"inputNeurons":3,"outputNeurons":1,"weights":[[0.48907985018206435],[1.232011238785931],[-1.0427341992835726]],"biases":[0.9846154322950351]}],"scores":{"1":2320,"2":2320,"3":2320,"4":2320,"5":2320,"6":2320,"7":2320,"8":2320,"9":2320,"10":2320,"11":2320,"12":2320,"13":2320,"14":2320,"15":3510,"16":2320,"17":2320,"18":2350,"19":2320,"20":2520,"21":3320,"22":2320,"23":2520,"24":2720,"25":2320}},{"layers":[{"inputNeurons":0,"outputNeurons":10,"weights":[],"biases":[0.3902813490539964,0.18570995630667364,0.3474824029136618,0.7639185680943312,0.7269403782543158,0.5898277430222209,-0.7538003393890201,-1.1378371449051174,1.815477842197255,0.997632176847785]},{"inputNeurons":10,"outputNeurons":3,"weights":[[0.2884490407134368,-0.13100236618264705,-1.272229579924165],[-0.7416266305794881,-1.118159952020105,-0.7696054330035794],[0.6749284215892724,-0.48010622243643003,-1.3346180357802646],[-0.6465475120863713,0.3330602847116055,-0.8746867396811348],[-1.2437776460769385,-0.3286080841380763,0.07184343394773224],[1.219419960035924,-0.9041470441171441,-1.7361235646760922],[0.29812917049008575,0.2099486459801147,-0.1608447321891566],[-0.632055013564994,0.8570254679052085,0.846279291636444],[0.21392415541906543,-1.2393236934102785,0.5387429207256986],[-0.6718549110086235,-2.6107965843965464,1.25464532442642]],"biases":[1.2488420918007497,-0.9561946075981327,0.03661301396666755]},{"inputNeurons":3,"outputNeurons":1,"weights":[[0.5320548114934927],[1.3790454422903826],[-1.4000750579320778]],"biases":[1.464708409410132]}],"scores":{"1":2520,"2":2920,"3":2320,"4":2320,"5":2210,"6":2320,"7":2320,"8":2320,"9":2520,"10":2660,"11":3040,"12":2320,"13":2320,"14":2320,"15":2320,"16":2320,"17":2320,"18":2520,"19":3120,"20":2320,"21":2320,"22":1300,"23":2320,"24":2920,"25":2690}},{"layers":[{"inputNeurons":0,"outputNeurons":10,"weights":[],"biases":[0.09741638557003336,0.18137911102461451,0.033900153169799024,0.7245468073455827,0.36323022958180823,1.457552836625123,-0.41020277112778397,-1.304134781390562,1.8559884461649154,1.5508554242998493]},{"inputNeurons":10,"outputNeurons":3,"weights":[[0.6009218434044684,-0.6424414040157397,-1.3364279999090511],[-0.587851494170719,-0.6150969136800065,-0.8539272536000662],[0.2723560224791756,-0.7788407390159762,-1.3783245884478013],[-0.9178770734541412,0.02148767990690742,-0.8354694351941874],[-1.3565341483366327,-0.09275172061045582,-0.5975391564053216],[1.6958149808153093,-0.526797614106479,-1.8378840091253728],[0.7348355680706765,0.02486425517061354,-0.9414797612666592],[-0.5283011722053824,0.7737351780624676,1.467171627402228],[0.3771822567033659,-1.1359123327036909,0.4651091403508689],[0.19438351498004403,-2.22492656717974,1.235113421691848]],"biases":[1.1998014142833817,-0.8866165319335211,0.408633611064088]},{"inputNeurons":3,"outputNeurons":1,"weights":[[0.24427275162906653],[1.130876544208024],[-0.8506886333311819]],"biases":[0.8941168082624372]}],"scores":{"1":2320,"2":2720,"3":2320,"4":2320,"5":2320,"6":2320,"7":3720,"8":2320,"9":3710,"10":2320,"11":2320,"12":2320,"13":2520,"14":2320,"15":2320,"16":2640,"17":2520,"18":1300,"19":2320,"20":2320,"21":2320,"22":2320,"23":2320,"24":2320,"25":2320}},{"layers":[{"inputNeurons":0,"outputNeurons":10,"weights":[],"biases":[0.6640230415374746,0.288427071880344,-0.060156521255339254,0.5636645106647931,1.0128953001506862,0.7644844344004749,-0.6280203436395059,-1.3274392515136926,1.4272655814445434,1.0099287199948699]},{"inputNeurons":10,"outputNeurons":3,"weights":[[0.22551038965639322,-0.31341849416887446,-1.2966217670102054],[-0.9653068883056741,-0.8568319213726395,-0.5916597471113305],[0.2867902853153963,-0.639449391468442,-1.7553963246772453],[-0.9401523935213703,0.15130630351135127,-0.143253205512692],[-1.290416880340338,-0.18030777582832933,-0.4878786184841251],[1.7302532055680029,-0.6856516651051674,-1.7851472586748307],[0.3691045519067105,-0.15038530259317542,-0.39176826649639773],[-0.18015057048177746,0.5434524035192878,0.9106951582127106],[0.22314804355870452,-0.7000041375041028,0.45145708397968076],[-0.6811583504587273,-1.942919842546752,0.9355075396215883]],"biases":[1.0498308552659554,-1.2191204122857027,0.1669781662204599]},{"inputNeurons":3,"outputNeurons":1,"weights":[[0.6269180240525767],[1.2132134747469259],[-1.519945328283442]],"biases":[1.3240211282465344]}],"scores":{"1":3940,"2":2320,"3":2320,"4":2320,"5":2320,"6":2520,"7":2320,"8":2320,"9":2520,"10":2890,"11":2320,"12":2320,"13":2110,"14":2320,"15":2320,"16":2320,"17":2800,"18":2320,"19":2320,"20":2320,"21":2130,"22":2320,"23":2320,"24":2320,"25":2500}},{"layers":[{"inputNeurons":0,"outputNeurons":10,"weights":[],"biases":[-0.06628894953929293,0.2986279005308585,0.26416068034042783,0.18594318779240826,0.9875132204931767,1.4418429879114365,-0.30087440301469376,-1.513929151657515,1.8339997780223296,0.9719571201571928]},{"inputNeurons":10,"outputNeurons":3,"weights":[[0.4278196675429936,-0.9779044460542611,-1.2046795320787091],[-0.1355457739123157,-0.74212807098691,-0.7221864621958649],[0.22449799741087612,-0.6570812279629611,-1.494838200804375],[-0.8164608524776712,0.10590226914600881,-0.9065630601088529],[-1.2323039868403929,0.042817216068093564,-0.731207276978801],[1.5912791208506158,-0.2443548576335227,-1.7359538756580075],[0.6416313923134017,0.3515671694590087,-0.25726382205739495],[-0.04474632057938743,0.7323366727756204,1.3465396501537243],[0.7154256486153105,-1.5821108293221398,0.6832899293086276],[-0.6770778270724476,-2.4411070169679174,1.185381819921237]],"biases":[1.0449666055136804,-1.0255735029273167,0.4840697322505949]},{"inputNeurons":3,"outputNeurons":1,"weights":[[0.11465236017287261],[0.9962553506104506],[-0.9601174580326436]],"biases":[0.48008933563535516]}],"scores":{"1":2320,"2":2320,"3":2320,"4":2320,"5":2970,"6":2320,"7":2320,"8":3250,"9":2320,"10":2320,"11":2720,"12":2320,"13":2560,"14":2320,"15":2520,"16":2320,"17":2320,"18":2320,"19":2320,"20":2320,"21":2320,"22":2500,"23":2320,"24":2320,"25":2320}},{"layers":[{"inputNeurons":0,"outputNeurons":10,"weights":[],"biases":[0.2931685965047109,0.362511390163604,0.4077595888362586,0.6306230781439905,0.7592710237621051,0.7078389455912011,-0.8154791349634739,-1.5563380263429125,1.7373176309653426,1.6002155721643736]},{"inputNeurons":10,"outputNeurons":3,"weights":[[0.6893601217576775,-0.3360614465602916,-1.8152808687511945],[-0.6641599264410314,-0.7793562969151236,-0.8118769095186651],[0.4045679559695272,-0.8719522008570071,-1.3781571259667489],[-0.5131434550432405,0.08533814444689058,-0.6539903552832703],[-1.2190324672932251,-0.013587078021303739,-0.5053901248515169],[1.2871802823961136,-0.6599538877587454,-1.7069946019712354],[0.4441767707804807,0.37377408620931346,-0.21588411991628323],[-0.6060781439940939,0.40562917955617084,0.7863150388346742],[0.023932484287495726,-0.9617147249351155,0.21077386291871797],[-0.3016444126149378,-2.4547389572643454,1.26731456114106]],"biases":[1.0539013849045658,-0.8622043045152094,0.3664884349643321]},{"inputNeurons":3,"outputNeurons":1,"weights":[[0.02874440226998487],[0.9603878388874902],[-1.165792418810882]],"biases":[0.9669849035164233]}],"scores":{"1":2320,"2":2520,"3":2320,"4":2320,"5":2320,"6":2320,"7":2320,"8":2320,"9":2320,"10":2520,"11":2720,"12":2320,"13":2910,"14":2320,"15":2320,"16":2720,"17":2520,"18":2320,"19":2320,"20":2520,"21":2320,"22":2520,"23":2320,"24":2500,"25":2320}},{"layers":[{"inputNeurons":0,"outputNeurons":10,"weights":[],"biases":[0.31735140380177745,0.2003353446717059,0.24293526538383747,0.5792578997114373,0.8163759778470021,0.45662982092822224,-0.5711776207836954,-1.2016287592784805,1.770459313774744,1.023349238500654]},{"inputNeurons":10,"outputNeurons":3,"weights":[[0.5550641465067121,-0.3214285555993297,-1.3665155653540209],[-1.0920530307474625,-0.976681049365404,-0.7121536695517767],[0.6578889812663241,-0.9460530810057233,-1.0341190398492586],[-0.949265783365918,0.14097023260584685,-0.6415861212092645],[-1.229746319363196,-0.14490604263335652,-0.507290001870901],[1.6902776955499623,-0.5102964758609907,-1.4085980139208114],[-0.13839194497211615,0.25964532685997765,-0.4889733264836273],[-0.5591488702161806,0.8653118754211909,1.121556601456342],[0.10294436864155473,-1.1725106017489555,0.43357719834304165],[-0.9850402650005745,-2.3805185201158174,0.8494283220763221]],"biases":[0.9769869701659026,-1.1108739238605874,0.648883382891689]},{"inputNeurons":3,"outputNeurons":1,"weights":[[0.7740611518692793],[1.0897713246198149],[-1.4753907402377584]],"biases":[1.1310584101666574]}],"scores":{"1":2720,"2":2320,"3":2320,"4":2660,"5":2320,"6":2320,"7":2320,"8":2520,"9":2320,"10":2320,"11":2320,"12":2920,"13":2360,"14":2320,"15":2320,"16":2920,"17":2300,"18":2320,"19":2520,"20":2440,"21":2320,"22":2320,"23":2320,"24":2320,"25":2320}},{"layers":[{"inputNeurons":0,"outputNeurons":10,"weights":[],"biases":[0.18367691437858466,-0.4823142403086541,-0.21002036176981698,0.8456242372926521,0.9267972948602061,0.9488310754260824,-0.9807147717972272,-1.585395195076713,1.9870355564465432,1.2132939290366218]},{"inputNeurons":10,"outputNeurons":3,"weights":[[0.585669430445346,-0.19337143990367944,-1.0563469514835635],[-0.8826421692589463,-1.444691577513051,-0.43603550441637584],[0.8558720250364354,-0.5237002702278978,-0.9220301957209707],[-0.7987253544180154,0.29633021854670216,-0.8142225974618247],[-1.2919329928295156,-0.5280976231581873,-0.5629423672732917],[1.8666055089117863,-1.0588062232740787,-1.9884898377313247],[0.30609100398582956,-0.21780372988786392,-0.7776487601106503],[-0.45193777538340085,0.566122243108482,0.8178114467978372],[0.15359796581479554,-0.8053015084927676,0.06646648320300313],[-0.5053819895657119,-1.99930003405002,1.298577695529641]],"biases":[0.8574277435962687,-1.0259494341814406,0.5013679886640001]},{"inputNeurons":3,"outputNeurons":1,"weights":[[0.20339650455058705],[1.513031619660298],[-1.468669687522796]],"biases":[1.1304146028409765]}],"scores":{"1":2520,"2":2320,"3":2320,"4":2320,"5":2210,"6":2820,"7":2320,"8":2320,"9":2320,"10":2320,"11":2320,"12":3310,"13":2520,"14":2320,"15":2720,"16":2320,"17":2520,"18":2320,"19":2320,"20":2320,"21":2320,"22":2320,"23":2320,"24":2320,"25":2320}},{"layers":[{"inputNeurons":0,"outputNeurons":10,"weights":[],"biases":[0.08493776362876407,0.5485092899363968,0.022186619089420323,0.5464653034707337,0.8569077222781605,1.187481910484717,-0.5917163610220536,-1.3546146156375476,1.6140226309387162,1.0295895021892745]},{"inputNeurons":10,"outputNeurons":3,"weights":[[0.13325590826967365,-0.9112691449633229,-1.2184523796340878],[-0.6763081798268928,-0.5539012194155355,-1.33551179471671],[0.7347618447321637,-0.7221874950580158,-1.8568553724096348],[-0.4161451019281008,-0.12737119857395743,-0.5362689075027419],[-1.2248360736276933,0.008479886399231695,-0.5666698477220625],[1.4151350430838843,-0.003935533324575385,-1.795277688332732],[0.5102575111573588,0.6603004725685367,-0.6619748412788661],[-0.07439644953509444,0.8028754941120901,1.2073535439523335],[0.5971021220357622,-1.2724107541680774,0.20461559173550964],[-0.39660139749450013,-2.3932089844916278,1.1575750248780245]],"biases":[1.071225764622169,-0.6798513724020747,0.32155650568318517]},{"inputNeurons":3,"outputNeurons":1,"weights":[[0.042624209614877506],[1.305840382211051],[-0.7637505719644291]],"biases":[0.8671830986527812]}],"scores":{"1":2320,"2":2320,"3":2320,"4":2320,"5":2670,"6":2320,"7":2320,"8":3120,"9":3060,"10":2500,"11":2490,"12":3820,"13":2320,"14":2320,"15":1300,"16":2600,"17":2320,"18":2720,"19":2320,"20":2320,"21":1300,"22":2320,"23":2320,"24":2320,"25":2320}},{"layers":[{"inputNeurons":0,"outputNeurons":10,"weights":[],"biases":[0.2601993710772984,0.31745647655568404,0.10149634745027966,0.6467785793773944,0.6902068402071064,1.2708936059987141,-0.6012663833272928,-1.5609539985900278,1.7311443756786156,1.65342983613378]},{"inputNeurons":10,"outputNeurons":3,"weights":[[0.39520128739377713,-0.7572396738482977,-1.2260352176244758],[-0.5330285103903587,-0.6098953147731989,-1.0960377867578515],[-0.11905709220572769,-0.6730934077035725,-1.6134872846205117],[-0.6857579773421748,0.07904367636302964,-0.631651520197801],[-1.2359249717986736,0.35142008616977044,-0.37271675394978104],[1.2500384212519875,-0.1635133838921485,-1.4615234318912051],[0.581964323077212,0.4263213949185133,-0.9102276506821378],[-0.4010083641840526,0.6363261817781196,1.3941495976410843],[0.789254524473859,-1.5245863201674343,0.8402671646064916],[-0.8225280032652512,-2.4937299289819252,1.202237406661684]],"biases":[1.0043248795553361,-0.9899741240163465,0.23461141731790136]},{"inputNeurons":3,"outputNeurons":1,"weights":[[0.3500617678369221],[1.3165758307948043],[-1.193116156621639]],"biases":[0.9106926603978859]}],"scores":{"1":2320,"2":2320,"3":2520,"4":3390,"5":2320,"6":2320,"7":2520,"8":2320,"9":2320,"10":2320,"11":2320,"12":2200,"13":2320,"14":2320,"15":2320,"16":2600,"17":2320,"18":2360,"19":2320,"20":2320,"21":2320,"22":2720,"23":2520,"24":2320,"25":2320}},{"layers":[{"inputNeurons":0,"outputNeurons":10,"weights":[],"biases":[0.3110407797619583,-0.1674337791654147,-0.09733630302258878,0.5159390889718227,0.5083497845218827,1.325706984347153,-0.759558802616598,-1.3521883933799583,1.4902606530189735,0.8954405342680465]},{"inputNeurons":10,"outputNeurons":3,"weights":[[0.6570039742970702,-0.2031085884714618,-1.567074505456981],[-0.6033178720561346,-0.47493114175895823,-0.5660632143879043],[0.45000083067313434,-0.5134267125098371,-1.4831336156223691],[-0.750126958759458,0.11270038422275666,-0.8694029499436323],[-1.1765727800778318,0.018602126416123868,-0.8000442918838627],[1.4893996000417673,-0.7310100067600928,-1.8281029119882521],[0.440905928322147,0.18473477874501176,-0.22762483803606381],[-0.5737279151503014,0.4639338635541566,1.3086426959331257],[0.38532931980651913,-1.082092216659684,0.5435335372282142],[-0.7672095693728409,-2.0557235716181936,1.324948346403807]],"biases":[1.3277229200429732,-0.8832180160513248,0.382254683903633]},{"inputNeurons":3,"outputNeurons":1,"weights":[[0.33200607432206275],[1.0824182272569058],[-1.2199135397710557]],"biases":[1.087380073484388]}],"scores":{"1":2320,"2":2600,"3":2320,"4":3050,"5":2520,"6":2320,"7":2320,"8":2520,"9":2320,"10":2490,"11":2320,"12":2320,"13":2320,"14":2320,"15":2320,"16":2320,"17":2320,"18":2320,"19":2520,"20":2320,"21":3120,"22":2320,"23":2320,"24":3020,"25":1300}},{"layers":[{"inputNeurons":0,"outputNeurons":10,"weights":[],"biases":[0.22044864757994614,0.4330960006766703,0.6680406518599536,0.47944146657477726,0.6214938664312327,1.3619908750716214,-0.7043264428235168,-1.413828927475042,2.057244778183931,1.6733796997980352]},{"inputNeurons":10,"outputNeurons":3,"weights":[[0.42585903893854743,-0.8942196285947572,-1.267846924824175],[-0.7664928375073685,-0.5277280977808968,-0.9651496687342244],[0.2665673731299342,-1.2467416507473237,-1.8437646255710476],[-0.5966436034548687,-0.3169598332973527,-0.3532855424726143],[-1.285138611545394,-0.059814543672031886,-0.33594331571358216],[1.4463875423118289,-0.4308973020068686,-1.7961293442604267],[0.694583093563682,-0.16307335585879054,-0.8425320488919217],[-0.26021122466901114,0.19861689379759362,1.2215468370657492],[0.5553030814956688,-1.293680843525132,0.6251179138949016],[-0.2550336259302891,-2.108595956429259,1.0928234446911456]],"biases":[1.0855526770310617,-1.1740970548046747,0.5327466835460268]},{"inputNeurons":3,"outputNeurons":1,"weights":[[0.21229532891094988],[0.9872200205834654],[-1.1141102428697647]],"biases":[1.2705710734396738]}],"scores":{"1":2340,"2":2320,"3":2320,"4":2320,"5":2320,"6":2320,"7":2520,"8":2500,"9":2200,"10":2320,"11":3020,"12":2320,"13":2520,"14":2320,"15":2200,"16":2320,"17":2320,"18":2320,"19":2320,"20":2320,"21":2520,"22":2520,"23":2320,"24":2520,"25":2520}},{"layers":[{"inputNeurons":0,"outputNeurons":10,"weights":[],"biases":[0.2741362311003208,0.6293415090187134,0.20699916503097057,0.5636624673839934,0.6121199299988624,1.1484772954697842,-0.20832123543403347,-1.2052907482687552,1.4625260507888294,1.1607984166443799]},{"inputNeurons":10,"outputNeurons":3,"weights":[[0.2064164195718641,-0.5759771391958134,-1.2704287691542209],[-0.7584967510360613,-0.8131296453389235,-0.7872346649222876],[0.07132839199187017,-1.5197620570094548,-2.1545952743815384],[-0.4180820588752714,0.004126295397569729,-0.3328299668640807],[-1.2847075891415383,0.40184354333493066,-0.36132045698771176],[1.6072839883022012,-0.0229321957737256,-1.4270683625636742],[0.2377308762889691,0.14250308855461882,-0.6611611180278358],[-0.43018942761703316,0.5928317621518291,1.3558399113750217],[0.4320491258757179,-0.976312833708406,0.5824577822494281],[-0.020793279165340184,-2.3713274532388096,1.0298976079872684]],"biases":[0.9726220571970638,-0.8579827000245129,0.28315047582050334]},{"inputNeurons":3,"outputNeurons":1,"weights":[[0.32674482388878306],[1.1115142849810826],[-0.7423335837670384]],"biases":[0.8100457284650894]}],"scores":{"1":2320,"2":2320,"3":2320,"4":3920,"5":2320,"6":2320,"7":2320,"8":2320,"9":2320,"10":2320,"11":2320,"12":2320,"13":2320,"14":2320,"15":2320,"16":2320,"17":2320,"18":2520,"19":2320,"20":2340,"21":2320,"22":2320,"23":2320,"24":2320,"25":2320}},{"layers":[{"inputNeurons":0,"outputNeurons":10,"weights":[],"biases":[0.18959330826110452,0.2903309428796711,0.5338093069953688,0.6316123985933187,0.6797665636028242,0.9202982544823424,-0.3442443538839097,-1.492371834204484,1.3218697604896772,1.5535691496988846]},{"inputNeurons":10,"outputNeurons":3,"weights":[[0.5698564985944712,-0.694454051379651,-1.2128601457796009],[-0.6863916893669973,-0.17387053602304997,-1.0189495906942865],[0.29807852677755614,-0.8270214942988505,-1.6435620173085266],[-0.4285722989641473,-0.39526745024521814,-0.6662710324235785],[-1.2834110957109925,0.25614146799016013,-0.62217234560004],[1.5064982539912297,-0.06814391385108295,-1.7287085873434866],[0.4230097898057894,0.11804650849255835,-0.6654420814811155],[-0.2678611645271276,0.3338527156801615,1.084391629986376],[0.5347321929387172,-1.432751324694661,0.6428120386500399],[-0.12171767434341094,-2.2635281696967775,1.5824555267759493]],"biases":[1.3091191409603988,-0.7829133919083666,0.06500238472008402]},{"inputNeurons":3,"outputNeurons":1,"weights":[[0.06252294989796697],[1.0792792445349162],[-0.7323313281181352]],"biases":[1.031908007191205]}],"scores":{"1":3890,"2":2320,"3":2520,"4":3420,"5":2320,"6":2320,"7":2320,"8":1300,"9":2320,"10":2320,"11":2320,"12":2320,"13":2320,"14":2320,"15":2320,"16":2320,"17":2320,"18":2320,"19":1300,"20":2320,"21":2320,"22":2520,"23":2320,"24":2320,"25":2920}},{"layers":[{"inputNeurons":0,"outputNeurons":10,"weights":[],"biases":[0.5976669755645985,-0.14462374741844014,0.06585985714809546,0.8960500771959938,1.2532891982203151,0.6456856074710026,-0.7287571156654323,-1.0543904547371405,1.7728838929311304,0.9605089533780672]},{"inputNeurons":10,"outputNeurons":3,"weights":[[0.1380664699675648,-0.0667118150420106,-1.3024000440534564],[-0.4603688761816715,-0.6460351977087782,-1.062814758697492],[0.7492534916554351,-0.3247887177489608,-1.0503733992988706],[-0.6722188226086179,0.25635405768294595,-0.3753884267655081],[-1.7588168744685344,-0.419713401917122,-0.43588398304446085],[1.7445738657993222,-1.294986630245301,-2.1128218367255234],[-0.0064818412404399894,0.17557125555777991,-0.19111185414074286],[-0.3003408398061571,0.648558875347224,1.4328489156171489],[0.22129920365991296,-0.6375244875533544,-0.08865923491785505],[-0.7801211746081872,-2.1732621834899692,0.7314576204497384]],"biases":[0.654756822964868,-0.5943718868442817,0.1827642809280463]},{"inputNeurons":3,"outputNeurons":1,"weights":[[-0.023165360298660786],[1.1116964608299127],[-1.3942290281861907]],"biases":[1.326309301189302]}],"scores":{"1":2320,"2":2320,"3":2320,"4":2320,"5":3110,"6":2520,"7":2340,"8":2320,"9":2720,"10":2210,"11":2320,"12":2320,"13":2320,"14":2320,"15":2520,"16":2320,"17":2320,"18":2320,"19":2320,"20":2600,"21":2320,"22":2320,"23":2320,"24":2200,"25":2200}},{"layers":[{"inputNeurons":0,"outputNeurons":10,"weights":[],"biases":[0.5652507358229604,-0.07423482586068414,-0.0197689480294836,0.2827300872113291,0.6463809789871838,0.7018386750356164,-0.6210719741153644,-1.2891977328554238,1.3182568922903963,1.3394044848435258]},{"inputNeurons":10,"outputNeurons":3,"weights":[[0.7123133635727965,-0.46724376985366056,-1.1759847786220812],[-0.3949322893936013,-0.805915995559072,-0.7375300522334606],[0.3155716650323984,-0.777754686112853,-1.343946758163009],[-0.7843416255285699,-0.10332268993591687,-0.9688990635196261],[-1.260276627239176,0.05680166022385979,-0.5073999444616094],[1.868006038235136,-0.7960250333705351,-1.504193395653891],[0.3282763718208065,-0.005532683335615851,-0.5104243498930491],[-0.4625263614073623,0.07743314347205621,1.1699230424777392],[0.26414559089796963,-1.0026702333124713,0.5061068061147409],[-0.7381061968479532,-2.4329570463809502,1.074986360198375]],"biases":[1.0479778025381559,-0.7359435686129875,0.3237238843445049]},{"inputNeurons":3,"outputNeurons":1,"weights":[[0.3763503319357229],[1.5077433070263415],[-1.2852312018560559]],"biases":[1.4251414369961388]}],"scores":{"1":2520,"2":2520,"3":2320,"4":2320,"5":2320,"6":2320,"7":2210,"8":2320,"9":2320,"10":2490,"11":2210,"12":2320,"13":2320,"14":2520,"15":2320,"16":2320,"17":2320,"18":2320,"19":2320,"20":2320,"21":2210,"22":2320,"23":2520,"24":3120,"25":2250}},{"layers":[{"inputNeurons":0,"outputNeurons":10,"weights":[],"biases":[0.44358855229710703,0.21700685002668896,0.2802645834257503,0.7071649723467145,0.5573838691808273,0.7720801020807597,-0.5439781210542873,-1.487983962418682,1.7725136476683339,1.329310476921083]},{"inputNeurons":10,"outputNeurons":3,"weights":[[0.4915380421530864,-0.6241655444425713,-1.2893228576196234],[-0.2072497780003908,-0.9295864571179172,-0.7268644421748981],[0.4577179912303727,-0.5567387779259831,-1.4598587743232032],[-1.068386778735527,-0.00740701511032664,-0.7889332248578566],[-1.6989198876457672,-0.02787065703149258,-0.31360333507765],[1.4908478799764566,-0.5701303593644752,-2.1330535187831097],[0.5308817921180126,-0.011551845864258808,-0.46229719333657304],[-0.5583071874350916,0.6498617950656554,1.0636540711610756],[0.163675564538107,-1.3779655389614436,0.4162210404353952],[-0.4101147422102004,-2.3216465081854136,1.138980970064387]],"biases":[1.7535093455633968,-0.7249434431824598,0.30785407590486247]},{"inputNeurons":3,"outputNeurons":1,"weights":[[0.3543397755273306],[0.8820206425015281],[-1.4906651627377256]],"biases":[1.413919791249127]}],"scores":{"1":2320,"2":2320,"3":2320,"4":2900,"5":2320,"6":2720,"7":2320,"8":2320,"9":2500,"10":2320,"11":2520,"12":2320,"13":2320,"14":2320,"15":2320,"16":2700,"17":2320,"18":2320,"19":1300,"20":2320,"21":2500,"22":2320,"23":2720,"24":2320,"25":2300}},{"layers":[{"inputNeurons":0,"outputNeurons":10,"weights":[],"biases":[0.18232075178621165,0.4340223901364617,0.5951493098902405,0.6268640317494614,0.5922559742181437,1.0343771365647612,-0.496394164380696,-1.1867865657923704,1.9435812679211821,1.2574352985511867]},{"inputNeurons":10,"outputNeurons":3,"weights":[[0.43069471599114856,-0.28214358235344505,-1.5773396819068806],[-0.824086710873725,-0.8230491729635906,-0.9612252081485623],[0.23672950405062876,-0.7731385177466291,-1.6455181099101561],[-0.6636406574451109,-0.1726634454837246,-0.6524919055683716],[-1.503694792963982,-0.2123525533791361,-0.5166551906821412],[1.6370868426847764,-0.42696707682654833,-1.8195903916157958],[0.6526495555246831,0.13687264450906544,-0.5064566964802688],[0.33029803290837084,0.6178507608617536,1.6098119191636346],[0.41133496346519793,-1.3047659596902716,0.3785616964780476],[-0.2791150908222656,-2.4991884818183285,1.2914512187729337]],"biases":[1.3108303299055886,-0.8536249454391418,0.14048247186309923]},{"inputNeurons":3,"outputNeurons":1,"weights":[[0.16590881414200867],[1.1348911358438318],[-0.9540111161463403]],"biases":[0.6147694286758009]}],"scores":{"1":2320,"2":2320,"3":2320,"4":2320,"5":1300,"6":2320,"7":2320,"8":2210,"9":2320,"10":3050,"11":2320,"12":2320,"13":2320,"14":2920,"15":3120,"16":2720,"17":2320,"18":3120,"19":1300,"20":2320,"21":2320,"22":2320,"23":2320,"24":2320,"25":2320}},{"layers":[{"inputNeurons":0,"outputNeurons":10,"weights":[],"biases":[0.37287508006623404,-0.26578681415263306,0.08831801279781985,0.663672498104024,0.5423679563693158,1.0099638476833404,-0.5564343173608565,-1.3144524058465237,1.860834396434503,1.0903638425773554]},{"inputNeurons":10,"outputNeurons":3,"weights":[[0.7091190526034397,-0.6921874275989364,-1.3572647720949855],[-0.5938865266451057,-0.9685710027687203,-0.553074352219658],[0.6793783801438704,-0.7514045466034414,-1.7029376871151116],[-1.0728072315759711,-0.15636117338883154,-0.4876534098535799],[-1.0890495341464603,0.31603789923235504,-0.8184287364030711],[1.2426059865561438,-0.810429954354187,-1.7577872171752806],[0.09300472170131435,0.36649951529059127,-0.41789417147189944],[-0.16720173080144468,0.48591732937184984,0.9554917229897186],[0.12743068182298367,-1.3195432635801405,0.43429939782667104],[-0.42326792968599936,-2.064374718503609,1.3332631842484952]],"biases":[1.3494869233901334,-0.6995633039415367,0.3518394823644272]},{"inputNeurons":3,"outputNeurons":1,"weights":[[0.012064969286351979],[1.1282152378571069],[-1.169893998689608]],"biases":[0.9442755131771055]}],"scores":{"1":2320,"2":2320,"3":2320,"4":3050,"5":2320,"6":2320,"7":2320,"8":2320,"9":2520,"10":2320,"11":2320,"12":2320,"13":2320,"14":2320,"15":2320,"16":2520,"17":2320,"18":2320,"19":2320,"20":2320,"21":2320,"22":2320,"23":2320,"24":2320,"25":2320}},{"layers":[{"inputNeurons":0,"outputNeurons":10,"weights":[],"biases":[0.36896454125513944,0.045454209295172215,-0.3898697456007219,1.0965304339247706,0.7713975600010174,0.3311962111025547,-0.8045222365566427,-0.8755786355856019,1.9873005585932126,1.2640635559713815]},{"inputNeurons":10,"outputNeurons":3,"weights":[[0.26563210756246497,-0.09414348933719141,-1.1502561161131368],[-0.41016549374574884,-1.1920727218072555,-0.6562557523876846],[0.9339435539140399,-0.3101815771490684,-1.315972530403521],[-0.6702604558761246,0.929934652052776,-1.0937003343447298],[-1.3658298956081056,-0.1361322749178548,-0.3270639527976737],[1.9446403378151063,-0.9949178044161189,-2.3173709241730407],[0.031685564513967035,0.4145361226246897,-0.4661667243325312],[-0.01691944788339686,0.6677901471217407,1.3341061321203147],[0.3884369657623866,-0.9963980757703961,0.2711099742354696],[-0.986706851130059,-2.317389952419229,0.8313284666113006]],"biases":[0.992883220238846,-0.412989874620448,0.04896456711372911]},{"inputNeurons":3,"outputNeurons":1,"weights":[[0.47834717318804454],[1.1557126423638984],[-1.5541151892603278]],"biases":[1.623394862868227]}],"scores":{"1":2650,"2":2320,"3":2320,"4":2320,"5":2320,"6":2320,"7":2320,"8":2320,"9":2320,"10":2320,"11":2320,"12":2210,"13":2320,"14":2520,"15":2320,"16":2620,"17":2320,"18":2320,"19":2340,"20":2320,"21":2520,"22":2320,"23":2320,"24":2320,"25":2490}},{"layers":[{"inputNeurons":0,"outputNeurons":10,"weights":[],"biases":[0.41999240286193834,-0.016050288578425193,0.3141059412699488,0.8334853681347615,0.6501643356766084,0.6595167859412984,-1.1516157731578718,-1.3437100407874163,1.8418216816686015,0.9542441430494407]},{"inputNeurons":10,"outputNeurons":3,"weights":[[0.581445422126283,-0.36459566818870004,-1.561306709537213],[-0.6527461218684069,-0.7533042370885259,-0.4825138349514133],[0.8330462147185181,-0.4668874355849555,-1.2357494002547325],[-0.812416061977161,0.07705857571518528,-0.678500313816193],[-1.0345259325397218,-0.1279037092914293,-0.43103930712595867],[1.3590862792624185,-0.9257429839791721,-1.9543706873677993],[0.18021433922051433,0.21209638117917992,-0.25528695874433405],[-0.646174026387147,0.8867416345619828,1.1111460706779346],[0.34332630616565857,-1.519681655405568,0.5524352296492154],[-0.5935846467691521,-2.258897291995958,1.0969651182166553]],"biases":[1.5295353383642967,-0.958731025795154,0.3509585865902388]},{"inputNeurons":3,"outputNeurons":1,"weights":[[0.3325814894492821],[0.9092717872512324],[-1.349980245880261]],"biases":[1.3328138500877489]}],"scores":{"1":2320,"2":2320,"3":2320,"4":2320,"5":2640,"6":2320,"7":2320,"8":2520,"9":2320,"10":2320,"11":2320,"12":2320,"13":2320,"14":2320,"15":2320,"16":2320,"17":2620,"18":2320,"19":2220,"20":2320,"21":2320,"22":2320,"23":2320,"24":2320,"25":2320}},{"layers":[{"inputNeurons":0,"outputNeurons":10,"weights":[],"biases":[0.32030898376854217,0.013735338622725253,0.26145871133518817,0.8816491707386054,0.9351086181514325,0.6161930499994859,-0.3635531489716294,-1.0657847070094157,1.768021206608027,1.005066002053802]},{"inputNeurons":10,"outputNeurons":3,"weights":[[0.32651714721402947,-0.2918594172476611,-1.2039377127418642],[-0.6858998976514925,-1.2020033730884399,-0.8879049457766308],[0.806819880938843,-0.4447094029636787,-1.3861075847772968],[-0.4497267651977565,0.11014917154037965,-0.42264047494799534],[-1.4854536731650234,-0.11599468339968581,-0.3985706283053615],[1.4458947425595294,-1.0002684823064083,-1.801558754789919],[0.6566252774322363,-0.25200540097034085,-0.2020478865427094],[-0.22967212073331855,1.0309633982552477,0.6080724426260503],[0.23445139717983987,-0.8787954678061468,0.11390358779964108],[-0.9770919623188811,-2.0654782458523084,0.967431663545344]],"biases":[0.8960124633495158,-1.1541897471427012,0.6383267798833072]},{"inputNeurons":3,"outputNeurons":1,"weights":[[0.20940175283850826],[1.3373157528705377],[-1.1976279986793208]],"biases":[1.6519123248764391]}],"scores":{"1":2320,"2":2320,"3":2320,"4":2320,"5":2820,"6":1310,"7":2520,"8":2520,"9":2320,"10":2320,"11":2320,"12":2320,"13":2320,"14":2320,"15":2320,"16":2700,"17":2320,"18":2520,"19":2320,"20":2320,"21":2320,"22":2320,"23":2520,"24":2320,"25":2320}},{"layers":[{"inputNeurons":0,"outputNeurons":10,"weights":[],"biases":[0.7503318035065872,0.28061040876432874,-0.004495916522071694,0.4255707985295417,0.7437600721710114,0.8335133256585743,-0.6966659739591772,-1.1470266244048173,1.7102618424208171,1.3934762760915225]},{"inputNeurons":10,"outputNeurons":3,"weights":[[0.5159572635733529,-0.23689217440614238,-1.008845500227507],[-0.8590030860202145,-1.226310909312065,-0.3402117400689104],[0.5106453807285093,-0.6386463054346894,-1.4315084151570165],[-0.9796260415396318,-0.0013839692108223028,-0.21721814499471104],[-1.2759011621164758,-0.03471864596490287,-0.16631477369019276],[1.4959374458795272,-0.8993415118464424,-1.8565058054681494],[0.5001251077641496,0.18916830150540523,-0.12304240360262444],[-0.4514615066292458,0.8243613433876705,1.3989205043753388],[0.2609413815287725,-1.0173003821808588,0.32800232056889506],[-0.9071145375158246,-2.3386498934971276,1.1181735826551817]],"biases":[0.9125637481324171,-0.9489620110615616,0.02287052722928301]},{"inputNeurons":3,"outputNeurons":1,"weights":[[0.6956971041886809],[1.2070529284715361],[-1.3158590499120306]],"biases":[1.005401659419915]}],"scores":{"1":2320,"2":2320,"3":2320,"4":2320,"5":2320,"6":2320,"7":3120,"8":1300,"9":1290,"10":2320,"11":2320,"12":2320,"13":3060,"14":2370,"15":1940,"16":2320,"17":2320,"18":2320,"19":2320,"20":2320,"21":2320,"22":2720,"23":3120,"24":2320,"25":2520}},{"layers":[{"inputNeurons":0,"outputNeurons":10,"weights":[],"biases":[0.6866467604553206,0.15724791857633802,-0.05854366341879247,0.5213139008919307,0.900591890851529,1.1363006755416696,-0.6245729170764016,-1.4206646589517589,1.6344547141561898,1.266169328917805]},{"inputNeurons":10,"outputNeurons":3,"weights":[[0.8518902649901097,-0.3108097160233391,-1.2694311154344666],[-0.5500776696058689,-0.8335643397895249,-0.546866230436681],[0.739532658361213,-0.2700996151502286,-1.3636002659481066],[-0.5948002316451011,0.32725288861557167,-0.4614496678092588],[-1.0553107812237954,0.12036944080062267,-0.7523015264590086],[1.7908335238639184,-0.6884256861928015,-2.1404454713548033],[0.3648003479406915,-0.26211178225877624,-0.08790599464450582],[-0.8478132075518385,0.36139531850982554,0.6613899640019232],[0.07077235326245321,-0.9802761459289956,0.13013453609716472],[-0.4370554950495919,-2.272802191595487,0.975341479319943]],"biases":[1.260481994827705,-0.822823962298901,0.7043111682918894]},{"inputNeurons":3,"outputNeurons":1,"weights":[[0.03845723278713381],[0.9824342547745275],[-1.345850219797039]],"biases":[1.5420154530579817]}],"scores":{"1":2320,"2":2240,"3":2320,"4":2220,"5":2210,"6":2320,"7":2320,"8":2520,"9":2700,"10":2320,"11":2320,"12":2320,"13":2320,"14":2500,"15":2320,"16":2320,"17":2320,"18":2520,"19":2520,"20":1300,"21":2320,"22":2320,"23":2320,"24":2720,"25":2320}},{"layers":[{"inputNeurons":0,"outputNeurons":10,"weights":[],"biases":[0.24016298930710334,0.05761836427891772,0.11487206543275698,0.5912858898933899,0.5537632707752186,0.29844405041669775,-0.9466123479397155,-1.3956366930067758,1.6674656959011143,0.9952479010658704]},{"inputNeurons":10,"outputNeurons":3,"weights":[[0.45780824785145174,-0.01486903234708159,-1.2318249276358348],[-0.7085178737658655,-0.8807996373891883,-0.8818070273206238],[0.688923550470738,-0.5587241167947746,-1.1867292650252326],[-0.575906163860876,0.0565088802349606,-0.4985700911206747],[-1.1042432871535874,-0.12313135151983448,-0.25636533669417993],[1.5186999942083774,-0.7566631757897616,-1.741500636242338],[0.4799459372678508,0.137740525454426,0.02196861211323209],[-0.3461372721766338,1.0537925631637608,0.7898699770829856],[0.02099371287325652,-0.968399663281225,0.4933371964658577],[-0.605628439310064,-2.5385681531401207,1.06846405431116]],"biases":[1.1963635649940758,-0.6704776266359194,0.15675018558245124]},{"inputNeurons":3,"outputNeurons":1,"weights":[[0.6647931356552746],[1.2475890559247844],[-1.2094590523366937]],"biases":[1.5567798407501297]}],"scores":{"1":2320,"2":2320,"3":2320,"4":2320,"5":2320,"6":2360,"7":2320,"8":2520,"9":2520,"10":2590,"11":2320,"12":2320,"13":2320,"14":2320,"15":2500,"16":2210,"17":3720,"18":2320,"19":1320,"20":2320,"21":1310,"22":2320,"23":2320,"24":2320,"25":2320}},{"layers":[{"inputNeurons":0,"outputNeurons":10,"weights":[],"biases":[0.2025390273933711,-0.39203047186233875,-0.22730615046605257,0.6856642479375673,0.7529770495195256,0.40252311504960037,-0.6547351967249019,-1.4363744710249053,1.8219996679800257,0.8280117342897065]},{"inputNeurons":10,"outputNeurons":3,"weights":[[0.250583732670042,-0.29321260364954155,-0.863744045953831],[-0.7202526687563122,-0.8778414122656114,-1.01757361892825],[0.5562322912881724,-0.4632711898935037,-0.9219187767485513],[-0.4099549459594613,0.45531909211432775,-0.8238813524961947],[-1.5371136912028813,0.11175963523940752,-0.669385885528073],[1.5198870206039024,-0.8549540578763939,-2.165977570571955],[0.22430429160401966,0.354458771898776,-0.6197517478692517],[-0.41025606784696933,0.9474278308898497,1.4314772122421313],[0.15531780240414603,-0.978485303625373,0.4689236746510617],[-0.7193856676097846,-1.909904423198673,1.0119881615644408]],"biases":[0.8401139011827278,-0.7510295502639989,0.021090237807773957]},{"inputNeurons":3,"outputNeurons":1,"weights":[[0.22788407869559657],[0.7535372832155101],[-1.1623509027651269]],"biases":[1.5031492729348908]}],"scores":{"1":2320,"2":2320,"3":2320,"4":2320,"5":2320,"6":2320,"7":2320,"8":2520,"9":2520,"10":2320,"11":2520,"12":3020,"13":2320,"14":2320,"15":1300,"16":2490,"17":2320,"18":1300,"19":2320,"20":2320,"21":2320,"22":2320,"23":2320,"24":2320,"25":2320}},{"layers":[{"inputNeurons":0,"outputNeurons":10,"weights":[],"biases":[0.0678342564782537,-0.2020438667865976,-0.2641305493256437,0.4642934516485401,0.5393585491107876,0.6330522296975611,-0.8418245743534614,-1.2316974877884803,1.5745267349934224,1.175712143626287]},{"inputNeurons":10,"outputNeurons":3,"weights":[[0.3364763214391377,-0.3517403853365517,-1.3362021300562688],[-1.1697273979309555,-0.9278075733014421,-0.440659192130727],[0.7900051677791977,-0.42665173946232815,-1.3040532359419463],[-0.8368433218789948,0.460972805441418,-0.5660296738870781],[-1.526804873345724,0.02349433297126491,-0.5392525976159047],[1.3225755630714935,-0.7411327340048399,-1.7469888041555182],[0.41218677831802214,0.11362456397276949,-0.6394692140640318],[-0.7810129851022387,0.7880740323313373,0.7479018668651402],[0.2682982171312184,-1.45189605731373,0.3775082567801413],[-0.9303237829966826,-2.3144584755728315,1.0519118618927656]],"biases":[1.1488107194660162,-0.9323802677505196,0.3642393165640492]},{"inputNeurons":3,"outputNeurons":1,"weights":[[0.3569109467414536],[1.4219153006536325],[-1.4412224220391967]],"biases":[0.7648542282699948]}],"scores":{"1":2320,"2":2320,"3":2320,"4":2520,"5":2330,"6":2320,"7":2320,"8":2200,"9":2320,"10":2320,"11":2320,"12":2520,"13":2320,"14":2200,"15":2320,"16":2220,"17":2320,"18":2520,"19":2320,"20":2320,"21":2320,"22":2320,"23":2320,"24":2320,"25":1310}},{"layers":[{"inputNeurons":0,"outputNeurons":10,"weights":[],"biases":[0.006161486850967346,-0.18703619295888202,-0.2510488158101712,1.0185332881967835,1.2149195832997823,0.48390396453573825,-1.3389662062232042,-1.2815137751616197,1.6524560413291443,0.7669220360597306]},{"inputNeurons":10,"outputNeurons":3,"weights":[[0.024222069386486855,-0.06772839968507477,-1.020760715399745],[-0.3242337007724711,-1.0969300848598142,-0.7247528299924503],[0.6318335900718025,-0.5822124132270148,-0.805831923669297],[-0.7633119639946646,0.5821824286634922,-1.0509732585539036],[-1.6345806252557038,0.1285424380438114,-0.4022735267137944],[1.5069453311995522,-1.2606122941067737,-2.116939888991961],[0.40292692908342975,0.34993983298132775,-0.4054143917955203],[-0.5744036486521005,1.3397629487206355,1.4422271838378047],[0.17910611999933831,-0.7062167622080456,0.5087740986018428],[-0.6828817959754462,-2.1405596670105465,0.8049906780945438]],"biases":[1.152130778970524,-0.5337782559959848,-0.1289762555321273]},{"inputNeurons":3,"outputNeurons":1,"weights":[[0.375955164006048],[1.069885018034423],[-1.6301877467940449]],"biases":[1.2874005894469394]}],"scores":{"1":2320,"2":2200,"3":2520,"4":2330,"5":2320,"6":2320,"7":2520,"8":2320,"9":2320,"10":2210,"11":2320,"12":2320,"13":2320,"14":2700,"15":2320,"16":2520,"17":2320,"18":2320,"19":1370,"20":2320,"21":2320,"22":1300,"23":2320,"24":2220,"25":2320}},{"layers":[{"inputNeurons":0,"outputNeurons":10,"weights":[],"biases":[5.73574910938901E-4,0.2890838790157886,0.17063258606804949,0.6164707212567311,0.42487680079277595,1.0790195431109497,-0.5187151292358408,-1.43077622081855,1.6982652266977354,0.9887471132035833]},{"inputNeurons":10,"outputNeurons":3,"weights":[[0.7221781170385878,-0.04730052271560076,-1.0191763717717919],[-0.7566267135352998,-0.6671924720722419,-0.7002126000944159],[0.5518031386563202,-0.5070047599768827,-1.5917986743728294],[-0.8610180477016577,-0.4542582987684776,-1.3196119734956886],[-1.2947665551829166,0.02462355611487514,-0.6038625925302981],[1.3921095520422524,-0.6665225038583795,-1.9648266620788495],[0.07882926252602351,0.152559482310883,-0.5022228441781632],[-0.36826368773185936,0.4741034944325112,1.191989118959826],[0.4234882362097593,-1.3523178414347672,0.00868556260910966],[-0.8513244225181864,-2.084350727879848,1.1274670349173161]],"biases":[1.372113862308811,-0.6291238925291321,0.4219173746869922]},{"inputNeurons":3,"outputNeurons":1,"weights":[[-0.12948515477912276],[1.135563711649771],[-0.7101024191462464]],"biases":[1.0900441533179268]}],"scores":{"1":2200,"2":2420,"3":2420,"4":2080,"5":2220,"6":2220,"7":2220,"8":2220,"9":2110,"10":2220,"11":1200,"12":2420,"13":2220,"14":2220,"15":2080,"16":2220,"17":2220,"18":2220,"19":2220,"20":3970,"21":2220,"22":2200,"23":2220,"24":2400,"25":2220}},{"layers":[{"inputNeurons":0,"outputNeurons":10,"weights":[],"biases":[0.4108988930723652,0.02508783194741629,-0.18032762219706655,0.6869842006168123,0.634427896780887,1.1520152420042031,-0.7750949396674739,-1.072740842195236,1.597934204402556,0.7584778774916159]},{"inputNeurons":10,"outputNeurons":3,"weights":[[0.08191919207673082,-0.27292866155507217,-1.1241791963016445],[-0.6826389052726983,-0.7933300313159146,-0.745420036799874],[0.3775159648525581,-0.6116274359595815,-1.9931691387224162],[-1.1141365177361082,-0.05764980492548439,-0.49550726259770206],[-1.0940635844692563,-0.11552733627599246,-0.9013787008460853],[1.3499500332821812,-0.8480525632458051,-2.0886911542169195],[0.2747989789028046,0.5679177076244698,-0.33411707978668265],[-0.18434470378467227,0.369504156693787,1.2445647294554214],[0.559489875339158,-1.2410089450591877,0.42614068243496617],[-0.5100299180456264,-2.424361232812761,1.2408809355191328]],"biases":[1.402505160133153,-0.6510516220272131,0.27913391128449505]},{"inputNeurons":3,"outputNeurons":1,"weights":[[0.3668799078824937],[1.4078868276771057],[-1.6518577949791164]],"biases":[1.3182772032829915]}],"scores":{"1":2110,"2":1710,"3":2640,"4":2110,"5":2120,"6":2110,"7":1320,"8":1910,"9":3600,"10":2340,"11":1310,"12":2110,"13":3380,"14":2600,"15":2110,"16":2640,"17":1280,"18":2580,"19":2110,"20":2800,"21":2110,"22":2870,"23":2580,"24":1310,"25":1320}},{"layers":[{"inputNeurons":0,"outputNeurons":10,"weights":[],"biases":[0.6317763849735649,0.06958961216378283,0.21765222438922582,0.6252973248709217,0.947569173440882,0.5434868194236566,-0.9435924158574265,-0.8743112310457886,1.6022952542238362,1.4489251987741034]},{"inputNeurons":10,"outputNeurons":3,"weights":[[0.3694771715466903,-0.06388169386263874,-1.4047750946237139],[-0.8488096521560902,-0.8843844320424525,-0.47870875223672005],[0.7529770557758395,-0.3761445532538713,-1.026566813954425],[-0.4124443891719407,0.4042467637616454,-0.8214227204080127],[-1.7727041910417076,-0.11291561905734958,-0.32259065621363797],[2.0787841487450365,-1.2350163336148343,-2.2473536096239624],[-0.04803557189525692,0.12553945536604613,-0.32790233758680976],[-0.35004439215378846,1.0883178076600468,1.1682155527438771],[0.3549887015155677,-1.2819263187269025,-0.08146772707669309],[-0.7621080528187576,-2.2293116969015947,0.8514240851779789]],"biases":[1.1267620734331012,-0.5082170531161817,-0.2342737919277421]},{"inputNeurons":3,"outputNeurons":1,"weights":[[-0.15797729987940295],[0.8102975587798031],[-1.318788951882255]],"biases":[1.2090773919897624]}],"scores":{"1":2200,"2":2200,"3":2400,"4":1650,"5":2200,"6":2200,"7":2200,"8":830,"9":2580,"10":2200,"11":2200,"12":2780,"13":2220,"14":2200,"15":2200,"16":2200,"17":2200,"18":2200,"19":2380,"20":2380,"21":2400,"22":1840,"23":2200,"24":2200,"25":2220}},{"layers":[{"inputNeurons":0,"outputNeurons":10,"weights":[],"biases":[0.2903030309633444,-0.02954322637518885,-0.25739425550460765,0.5453525859739168,0.3085697454450282,0.7639752068141238,-0.9960581445004748,-1.3353608072924084,1.8437647086323716,1.1423747264834878]},{"inputNeurons":10,"outputNeurons":3,"weights":[[0.867918432922046,0.02370823542502809,-1.2903202231516413],[-0.9486274674464293,-1.0122640915288097,-0.9990779840566401],[0.6623799815427516,-0.2600897594135516,-1.3775491797924264],[-0.943135455384302,0.20485419119148218,-0.4204012460151073],[-1.1635372129250914,-0.18321069420850844,-0.14854202456443671],[1.081757008067791,-1.1248053390689354,-1.9793372586383717],[0.34027115505859595,-0.11746654680111931,-0.19784801321564174],[-0.5515328837002854,0.8483650820731391,0.15009019545890578],[0.18834861888717452,-1.1356118793966334,0.07857663379174892],[-0.3820104355106733,-2.301964426526078,1.2747174554222076]],"biases":[1.223876223657449,-1.0389222662719677,0.1988379328222982]},{"inputNeurons":3,"outputNeurons":1,"weights":[[0.3743647254799707],[1.333873522657755],[-1.5784593428059444]],"biases":[1.37896265387567]}],"scores":{"1":2140,"2":3380,"3":3400,"4":1710,"5":2180,"6":1710,"7":2110,"8":1710,"9":1320,"10":2110,"11":2570,"12":2230,"13":1940,"14":1710,"15":1710,"16":2110,"17":2110,"18":2110,"19":1710,"20":1320,"21":2110,"22":2110,"23":1330,"24":2110,"25":1270}},{"layers":[{"inputNeurons":0,"outputNeurons":10,"weights":[],"biases":[0.4087289422181068,0.17978272973545792,-0.1936373531039046,0.5986941648778172,0.6181104208304289,0.7560660980431103,-0.8223826127581851,-1.1009137402571698,1.7135802890722376,1.3690371406496071]},{"inputNeurons":10,"outputNeurons":3,"weights":[[-0.0859355943304339,0.15039176756815506,-0.5328185174097617],[-0.6835535167710602,-1.1535066237875253,-0.8265046350154525],[0.737214855383229,-0.18230959879292766,-0.9959401057526911],[-0.6202218694061767,0.5325383816579077,-1.3227650129285595],[-1.6969771576986479,0.007827784216301412,-0.6982743907118665],[1.5586594229168407,-1.3939190392711707,-2.0030541712291847],[0.15036825357942973,0.314407366916993,-0.2609453244510441],[0.03510577932628639,0.7169564506453552,1.411081435951717],[0.3207461448149005,-0.6733275737902751,-0.1582293030620221],[-0.8525321285402088,-2.568925342711827,0.6839117730535403]],"biases":[1.3299734486227057,-0.005370926854055047,0.26387751567266093]},{"inputNeurons":3,"outputNeurons":1,"weights":[[0.0888333417658051],[0.9402808129406494],[-1.6761049547333038]],"biases":[1.721945253837313]}],"scores":{"1":1680,"2":1650,"3":1560,"4":3000,"5":2820,"6":1930,"7":1620,"8":2400,"9":1680,"10":1560,"11":2980,"12":2800,"13":1430,"14":1290,"15":1720,"16":2220,"17":3460,"18":2810,"19":1430,"20":1210,"21":1670,"22":1700,"23":1760,"24":1560,"25":1680}},{"layers":[{"inputNeurons":0,"outputNeurons":10,"weights":[],"biases":[0.5802000317544158,0.13469216188469893,0.23824771675472878,1.0221445425860147,0.5890218833381704,0.5385620281497022,-0.7000996901402803,-1.11344901738751,2.032349313218117,1.0225300635459502]},{"inputNeurons":10,"outputNeurons":3,"weights":[[-0.17599500431870352,0.19971361444759242,-0.8881803021509161],[-0.5492823396422046,-0.807484487545687,-0.5210607557146831],[0.1951829821843123,-0.4047337213805195,-1.6400277320204997],[-0.6405562784994357,0.5191154226671658,-0.9236036643935439],[-1.3507617330793917,-0.10996504477518468,-0.37157256916235487],[1.702176562632966,-1.2481469702448271,-1.9327338937751488],[0.4231861778162538,-0.09232880447701183,-0.400883265233166],[-0.4757440694688744,0.9290024686196049,1.2648562927757687],[0.4299195439540777,-0.8302802911971179,0.37390565565226597],[-0.8848301769847304,-2.6184049860621137,1.044041268123527]],"biases":[0.9452261304466336,-0.5591458019416848,0.12940341614386758]},{"inputNeurons":3,"outputNeurons":1,"weights":[[0.4293277683380463],[0.9105133188314842],[-1.5574092268835027]],"biases":[1.1341314952105876]}],"scores":{"1":1330,"2":920,"3":920,"4":3800,"5":3560,"6":920,"7":1680,"8":1410,"9":920,"10":1280,"11":920,"12":920,"13":920,"14":2240,"15":920,"16":1640,"17":4230,"18":1210,"19":2290,"20":1530,"21":1770,"22":3390,"23":2690,"24":1350,"25":920}},{"layers":[{"inputNeurons":0,"outputNeurons":10,"weights":[],"biases":[0.06272104195740119,-0.006830772181531619,0.16941927523478229,0.3572949204047539,0.37445355306083533,0.6563861715211727,-0.8841886598533064,-1.5980134656089255,1.5175970160537826,1.2527862856058993]},{"inputNeurons":10,"outputNeurons":3,"weights":[[0.38807736186961284,-0.2611820592574484,-1.3422746891042465],[0.1578992423861465,-0.7185136949464881,-0.8261159898968735],[0.4601718853195995,-0.6362876382658286,-1.424311461503823],[-0.7593599582950459,-0.3472306233859367,-0.7013544706069339],[-1.1850453333938886,0.07930749250352657,-0.39520984814732896],[1.0735819768869495,-0.7868181604850334,-1.8360561851859485],[0.3455300853571857,0.09825243405867648,-0.4322013599397713],[-0.4839188811391754,0.3902493727938555,0.9157174313212837],[0.45844642148826464,-1.2042007113704398,0.09084157919177654],[-0.5949853534653318,-2.254107491058991,1.1685792281480218]],"biases":[1.0622862836977869,-1.131529079657394,0.14897312870771623]},{"inputNeurons":3,"outputNeurons":1,"weights":[[0.3760954016119605],[1.2060366778958942],[-0.8587505774097051]],"biases":[1.3161543773889686]}],"scores":{"1":1680,"2":1630,"3":1700,"4":1830,"5":1760,"6":1680,"7":1610,"8":1840,"9":1690,"10":1910,"11":1680,"12":2660,"13":1810,"14":2350,"15":1840,"16":1670,"17":1610,"18":1480,"19":1810,"20":1660,"21":1730,"22":1570,"23":1270,"24":1840,"25":1290}},{"layers":[{"inputNeurons":0,"outputNeurons":10,"weights":[],"biases":[0.19664900025379817,0.1117530590934143,-0.45839243406460284,0.6738986988411013,1.1133556141234946,0.6152019239543269,-0.5421757103850952,-1.0691350746756407,1.6012956938938598,1.0892664950396274]},{"inputNeurons":10,"outputNeurons":3,"weights":[[-0.08062516694896732,-0.03631945546379081,-1.1998158064147686],[-0.6348186172576696,-0.6453754273394766,-0.7169874782161018],[0.642776250384318,-0.47256461104671377,-1.3801859206087843],[-1.0386477616684346,0.24899680018894504,-0.9264105587507312],[-1.4951847638452564,0.0879948406525318,-0.8622444767120865],[1.8512505287090395,-1.1304970278898432,-2.23943952247547],[0.32134346868138425,0.28283181545574954,-0.19454881711845157],[0.12710894821096258,0.8634076106414541,1.1657354778154052],[0.5451334483869009,-1.007749514056833,0.22443519336329393],[-0.5658005438300582,-2.6074468582167247,0.8683258064766072]],"biases":[1.3276282994964963,-0.5533517290701495,0.10364740658947752]},{"inputNeurons":3,"outputNeurons":1,"weights":[[0.5166137228916022],[1.3036990822059766],[-1.3810926361643605]],"biases":[1.2812456002328971]}],"scores":{"1":1330,"2":1010,"3":1530,"4":1760,"5":1900,"6":1300,"7":1600,"8":1200,"9":1460,"10":1480,"11":1680,"12":1840,"13":1610,"14":1460,"15":1660,"16":1830,"17":1760,"18":1780,"19":960,"20":1840,"21":4660,"22":1550,"23":1790,"24":1440,"25":1630}},{"layers":[{"inputNeurons":0,"outputNeurons":10,"weights":[],"biases":[0.6855996827842328,0.016454136599534798,-0.12438372110090436,0.8198902226982394,0.9921575354290542,0.6050805571009272,-0.794578250256175,-1.0158279332587665,2.0017229560374843,1.1970484233367473]},{"inputNeurons":10,"outputNeurons":3,"weights":[[0.2828190342177597,0.03769115326821604,-1.0542902477684426],[-0.2924738872182161,-0.9524491560785865,-0.6630387385304685],[0.710554163209055,-0.4279762910070606,-0.9766871780108985],[-0.6264127273637188,0.27660545627697547,-1.20888182269676],[-1.61788410621114,-0.13238448520338097,-0.17250387104937487],[1.8126314606367477,-1.0912418656449885,-1.7012502454416991],[0.0396868984897818,-0.08315918486704402,-0.5985679935089043],[-0.13472631473564547,0.8520826898442999,1.358004590710122],[0.2896505445402363,-0.6915410397797384,-0.0027575487071188065],[-0.8007680634843803,-2.425428927891819,0.8031786946235719]],"biases":[1.2990039958155513,-0.32753473874570316,0.16689020050167053]},{"inputNeurons":3,"outputNeurons":1,"weights":[[0.32070064018435335],[0.8312557188688932],[-1.4762701555058246]],"biases":[1.3089692829121726]}],"scores":{"1":1680,"2":1760,"3":1690,"4":1550,"5":1760,"6":1500,"7":1030,"8":1700,"9":1760,"10":1670,"11":1600,"12":3600,"13":1330,"14":1620,"15":1690,"16":1700,"17":1050,"18":1490,"19":1680,"20":1760,"21":1840,"22":1700,"23":1720,"24":1330,"25":1840}},{"layers":[{"inputNeurons":0,"outputNeurons":10,"weights":[],"biases":[0.19974039797583157,0.3320227260847527,0.2620265098050729,0.8321154474594734,0.48236953185408166,1.300229109907125,-0.32355203062176413,-1.1705051503014767,2.0826285279181884,1.0259993153952816]},{"inputNeurons":10,"outputNeurons":3,"weights":[[0.20691724589210211,-0.6322203579604726,-0.988324067373888],[-1.1536652698255396,-0.6498612318201035,-1.0903682673463395],[0.09450572904086584,-0.8600832161194095,-1.906509701080596],[-0.6827486644969861,-0.1539353779885706,-0.6576537365224101],[-1.5109350796161811,-0.17402786730549008,-0.9227503064669256],[1.702553161275366,-0.2874254407436046,-1.7676349348997187],[0.6013938473907718,-0.041459632568739274,-0.5011969840459298],[-0.5528424017343009,0.27069665742057925,1.1651024754954058],[0.6513995565954028,-1.3704658397280554,0.6109643793921344],[-0.40641737038825765,-2.449582342532772,1.3507814638939548]],"biases":[1.3596759020866118,-1.1675136835227846,0.14486161853254764]},{"inputNeurons":3,"outputNeurons":1,"weights":[[0.7566176003015175],[1.3052423901841121],[-1.1117530266094775]],"biases":[0.8879475404895775]}],"scores":{"1":1480,"2":1400,"3":1260,"4":3860,"5":1680,"6":1630,"7":1140,"8":1480,"9":1760,"10":1680,"11":1760,"12":1760,"13":1650,"14":1470,"15":980,"16":1680,"17":1840,"18":1700,"19":1690,"20":1490,"21":1770,"22":1680,"23":1380,"24":1510,"25":1680}},{"layers":[{"inputNeurons":0,"outputNeurons":10,"weights":[],"biases":[0.554013476282283,0.08511913217324696,0.1838885413332519,0.5389903330724355,0.8467294189096933,1.1629216898338126,-0.46917917430069794,-1.2625826550619537,1.8202531524707337,1.0153920973161723]},{"inputNeurons":10,"outputNeurons":3,"weights":[[0.1585325234443113,-0.7730160968551207,-1.4907627576961358],[-0.6545042107705258,-0.8080711296116503,-1.2480463918607656],[-0.11232103761593892,-0.7869211579088433,-1.8393607962699219],[-0.4309448084195564,-0.2692310174074843,-1.1269296374477369],[-1.1173862281623772,-0.14736168462885293,-0.770878301095212],[1.6622530161276385,-0.2241871078326395,-1.6191460423039234],[0.7890778927095027,-0.012058530952611751,-0.06560513705792737],[-0.3189706136416959,0.5863339526261973,1.5263838940694456],[0.628836086214048,-1.437449328963348,0.6852257369456469],[-0.3415147952026894,-2.181169288914119,1.142369787372806]],"biases":[1.692132795913003,-0.4093742992268038,-0.02469682881296925]},{"inputNeurons":3,"outputNeurons":1,"weights":[[0.6162401745534861],[0.8681749476115768],[-0.8037213362266228]],"biases":[0.640051891022717]}],"scores":{"1":1680,"2":1690,"3":1700,"4":1910,"5":1660,"6":1640,"7":1610,"8":1800,"9":1310,"10":1760,"11":1560,"12":1540,"13":1200,"14":1840,"15":1600,"16":1790,"17":1840,"18":1760,"19":1670,"20":1650,"21":1470,"22":1520,"23":1840,"24":1760,"25":1470}},{"layers":[{"inputNeurons":0,"outputNeurons":10,"weights":[],"biases":[0.3054061639582037,-0.08571205583251311,0.03351282033176013,0.5708389597337121,0.8431836578007967,1.167066826472049,-1.061858276166597,-1.2896015482769019,1.5876002572358676,1.155633686521167]},{"inputNeurons":10,"outputNeurons":3,"weights":[[0.05996067744068334,-0.39637414607436017,-1.3600105258936637],[-0.5592986112868633,-0.6032658026907343,-0.7547172665472781],[0.6212203549838284,-0.18265130810021007,-1.6270705847326794],[-1.327093936543408,0.05899796681188811,-0.6445473382844008],[-1.526956991947251,-0.09252727012633252,-1.1838878045211694],[1.5548696364894117,-0.6156329394566351,-2.127499017998982],[0.46132207029055805,0.15060414489701457,-0.49590488620555045],[-0.3783081313150733,0.5101309966132849,1.160502655439611],[0.2774415391936341,-1.1347460304116141,0.18732486197561277],[-0.42317758894289964,-2.1605776002410986,1.2571151104555756]],"biases":[1.1946001017566672,-1.3256335063865174,0.49862354252930874]},{"inputNeurons":3,"outputNeurons":1,"weights":[[0.2713738919202266],[0.8981486527383953],[-1.2012550331418081]],"biases":[1.4678948865369157]}],"scores":{"1":1840,"2":1120,"3":1840,"4":1760,"5":1810,"6":1670,"7":1660,"8":1700,"9":1630,"10":1460,"11":1680,"12":1900,"13":1840,"14":1630,"15":1230,"16":1680,"17":1680,"18":1440,"19":1660,"20":1790,"21":1490,"22":1690,"23":1680,"24":1760,"25":1270}},{"layers":[{"inputNeurons":0,"outputNeurons":10,"weights":[],"biases":[0.4686557407362151,-0.18483192335070026,-0.1450653430598316,0.6327345230312533,0.6947403701361572,1.1266209376983285,-0.793087870713552,-0.8292272301791745,1.7683132988696895,1.3706195578418763]},{"inputNeurons":10,"outputNeurons":3,"weights":[[0.2880563469802111,0.03524976582129963,-0.9519795806417878],[-0.74470135795556,-1.077662839216857,-0.8129647070286188],[0.6292543000964889,-0.5130006734485286,-1.8077178271363494],[-0.7241306012729141,0.024560714775223272,-0.6748666936145802],[-1.038321765632589,-0.04024456459447005,-0.32034650689113137],[1.8096654554919773,-0.7960363063360099,-1.7579091201402668],[0.40579353752162683,0.1624375587144971,-0.2662779944088547],[-0.5569526675915848,0.7562380943334074,0.9730704688460763],[0.25674556001869775,-1.0387272661503437,-0.10219773100067925],[-1.3339293327589008,-2.2353740490562006,0.9246329163782936]],"biases":[1.0278896624784197,-1.1994351597286248,0.13753302868483877]},{"inputNeurons":3,"outputNeurons":1,"weights":[[0.49304627993762695],[1.3645095738215771],[-1.3763793442415688]],"biases":[1.3131535330542787]}],"scores":{"1":1790,"2":1490,"3":1700,"4":1460,"5":1700,"6":1680,"7":1310,"8":1650,"9":1680,"10":1550,"11":1490,"12":1680,"13":1470,"14":1430,"15":1880,"16":1760,"17":1680,"18":1460,"19":1840,"20":1420,"21":1490,"22":1610,"23":1750,"24":1790,"25":2040}},{"layers":[{"inputNeurons":0,"outputNeurons":10,"weights":[],"biases":[0.7360933557399929,-0.24352336779087344,0.09750129241768991,0.5632104805905002,0.7735736426094001,0.90643212950533,-1.0501994736130846,-1.105018725495767,2.058980025527913,0.9702455489645957]},{"inputNeurons":10,"outputNeurons":3,"weights":[[0.4394057540122861,-0.22894029514250797,-1.563924199106629],[-0.3966539689270738,-0.6826230871575368,-0.3517654762041875],[0.4809395832704688,-0.7114350909926781,-1.3294656114991297],[-0.7430714850548684,0.09936544512262269,-0.6952111512722],[-1.6207543502865613,-0.04582292026535913,-0.5551342639952586],[1.4801445563249123,-0.7699374436274783,-1.6501929579128924],[0.14677270464434805,0.3798258648557521,-0.4396143929809761],[-0.6029908703388871,0.8446470374246264,0.6722477413842409],[0.4097579021815926,-0.7883871913668817,0.3862441275097371],[-0.9087296955855426,-1.7953377804635833,0.8887786394556167]],