{"networks":[{"layers":[{"inputNeurons":0,"outputNeurons":10,"weights":[],"biases":[0.5821918099786085,-0.3442641262725368,0.6497298603640789,0.37776925058964805,0.4680421812678608,-0.4199783433356271,0.23014031871782234,-0.01902632255613912,0.24425559127074642,0.5921718360794368]},{"inputNeurons":10,"outputNeurons":3,"weights":[[0.12027195830622045,-1.0675760410171145,-0.8217744522948887],[0.7369009555714969,1.999335230832879,-0.27995770332650777],[-1.3299453081177042,0.5131550354621143,-0.26231298332556163],[0.13869470345834561,-0.4413584378769525,0.07753432563809864],[0.7471080037445406,-1.1399453049157295,-0.5656762937521274],[-0.47798254107732485,-0.5264535142004603,-0.23032106552619047],[0.8374416864586364,1.6696675614861964,0.6669974941326071],[0.879185988120518,-1.6352732625600779,1.4107446595298478],[0.5956713477568921,0.18416474266008082,0.8090612571531433],[-0.8357218211805919,-0.6932324725791464,1.4683526030880425]],"biases":[-0.16357091755478848,-1.1561019234270113,-0.14397735908570397]},{"inputNeurons":3,"outputNeurons":1,"weights":[[1.0500021619081654],[1.507543090445405],[-1.2336096946029944]],"biases":[0.04963236107635155]}],"scores":{"1":1320,"2":2320,"3":2300,"4":3400,"5":2600,"6":3360,"7":2490,"8":3600,"9":2320,"10":2600,"11":3360,"12":5000,"13":2200,"14":3360,"15":2520,"16":4960,"17":3360,"18":2800,"19":1320,"20":3400,"21":2090,"22":3360,"23":2800,"24":2800,"25":3650}},{"layers":[{"inputNeurons":0,"outputNeurons":10,"weights":[],"biases":[0.5672366050114931,-0.18423893646239795,0.9745760958262366,0.13382566178932614,0.37344405035361905,-0.536204476139484,0.053050349949310655,-0.1625797138495844,0.07606379936197005,0.8036438406555271]},{"inputNeurons":10,"outputNeurons":3,"weights":[[0.28878519639767664,-1.182771915563111,-0.6071944341328742],[1.052766077622413,1.756873536516788,-0.028753159557807106],[-1.5999362742076935,0.1851457063547558,-0.15896581940455284],[-0.08569671017101604,-0.5308325920770982,-0.20980167084470008],[0.6617315488014974,-1.0745030244705895,-0.7775421557365548],[-0.6883999477272472,-0.39282204237721197,-0.1304609329688276],[0.7590344347387451,1.3030071622972692,0.4070846573353665],[0.8249185382881531,-1.7726476667707525,1.5408788288722939],[0.7692357824929628,0.006160285869628163,0.8118904839099587],[-0.9700792276585917,-1.0047097410388808,1.2422425136563862]],"biases":[-0.36908033209384683,-1.0428458088654813,-0.18793355078282514]},{"inputNeurons":3,"outputNeurons":1,"weights":[[0.9819157615130608],[1.4090018116825749],[-1.2979849946302358]],"biases":[0.22639403494373758]}],"scores":{"1":3360,"2":2600,"3":2320,"4":2320,"5":1280,"6":3360,"7":2320,"8":2320,"9":3400,"10":2320,"11":4960,"12":3200,"13":2320,"14":2500,"15":3360,"16":2320,"17":2160,"18":3360,"19":2400,"20":3400,"21":2800,"22":3400,"23":4960,"24":3400,"25":2320}},{"layers":[{"inputNeurons":0,"outputNeurons":10,"weights":[],"biases":[-0.3804745231135539,-0.018285470579840625,0.569600283371603,0.7174308011600921,0.39168895621178956,0.759566903997818,0.34620382594315935,0.5991798112185489,0.51224007963462,0.4245607274116848]},{"inputNeurons":10,"outputNeurons":3,"weights":[[-0.36549304308986164,-0.11360588968893531,-1.0087886399976411],[0.4418361906287752,1.941755130623082,0.45264228069908535],[-1.0018076877107076,0.21998984690418427,0.5806066363503266],[0.5054001960555294,-0.1153595513177881,0.13154922464794488],[-0.026094913763888616,-0.7958030484056358,-0.33509546884483477],[0.24297313596689046,-0.4442389658803183,-0.1662628315770222],[0.8951015954206525,1.2612297178235463,0.558397452459596],[0.4631762599057699,-1.5788850293100873,1.4970570359038253],[0.2677078259057339,-0.162418319207934,1.540068888989061],[-0.43940496396963175,-1.2207399910733086,1.088399084950624]],"biases":[-0.6461004047984301,-0.17652997933336223,0.4609601802788704]},{"inputNeurons":3,"outputNeurons":1,"weights":[[1.3711735269166783],[1.5386206032942908],[-1.3901876444349326]],"biases":[-0.5473499088733249]}],"scores":{"1":2480,"2":1320,"3":4960,"4":2800,"5":1320,"6":1310,"7":2150,"8":3600,"9":2600,"10":3360,"11":3400,"12":2800,"13":3400,"14":3360,"15":3560,"16":2510,"17":2320,"18":2560,"19":2110,"20":3400,"21":2540,"22":2520,"23":4960,"24":3360,"25":3540}},{"layers":[{"inputNeurons":0,"outputNeurons":10,"weights":[],"biases":[-0.2675387747076089,0.4237912649891583,0.2744296606763641,1.2409627914598862,0.2095860881094533,0.955368303374843,0.5301738786621844,0.8456346073235078,0.5534735299040426,0.05677088977260769]},{"inputNeurons":10,"outputNeurons":3,"weights":[[-0.3168421736637375,-0.5772012395660615,-0.8066765339627626],[0.8610662404622054,1.9499677324568894,0.1235202532218915],[-0.7914476105630293,0.44594048359759475,-0.5951752253823808],[0.6695878478841774,-0.2783799602904997,-0.16744545290874283],[-0.31376002260875696,-1.0628790790325866,-0.1885392299173952],[0.0726392445574953,-1.388820860191505,-0.20521804755080078],[1.0265453882503337,1.9691555559786391,0.7257975425861647],[0.9239258376527909,-1.612882159691699,1.9547809473556166],[-0.06444565820011944,0.10366303572985788,1.8179764399344978],[-0.31386231201467835,-0.503755197663817,1.3390590236268936]],"biases":[-0.38400532529524634,-0.8600569595736145,0.4170618406593847]},{"inputNeurons":3,"outputNeurons":1,"weights":[[1.4934853469372964],[1.0611946177472154],[-1.4968165107372544]],"biases":[-0.15107121006939842]}],"scores":{"1":3120,"2":2320,"3":2320,"4":2200,"5":2190,"6":2470,"7":3040,"8":4220,"9":2320,"10":2320,"11":2320,"12":2320,"13":2320,"14":2320,"15":3120,"16":4850,"17":2320,"18":2720,"19":5920,"20":2210,"21":2320,"22":2920,"23":2320,"24":2320,"25":2320}},{"layers":[{"inputNeurons":0,"outputNeurons":10,"weights":[],"biases":[-0.18797552538666218,0.34211489734579215,0.09360415715780665,1.0984273881107576,0.25008394215886776,0.8012964010992154,0.5991856028305937,0.7301588921190153,0.4034833988094988,0.2630103941168529]},{"inputNeurons":10,"outputNeurons":3,"weights":[[-0.05989249305089422,-0.45809269756226856,-0.8080242655598646],[0.6309606433784969,1.8673920503141463,-0.13861160600635788],[-1.0732718708848865,0.6387010180850199,-0.4341293844314552],[0.5633184451004035,-0.29581800061284624,-0.14005940634977992],[-0.33241135899332874,-1.003890103979346,-0.438906788322175],[0.06945200293998972,-1.2478664636009276,-0.06455177425800546],[0.9982732648076018,1.8491880386356585,0.6961043131223374],[0.8667744178084995,-1.7164246205891673,1.7319461205500515],[0.07560372743126798,0.3165633040012695,2.0122050074677036],[-0.6237187583865995,-0.8664788085925905,1.4162808092011088]],"biases":[-0.6029634362402274,-0.4714931083170385,0.36298942340361595]},{"inputNeurons":3,"outputNeurons":1,"weights":[[1.468746818105086],[1.2749415890793292],[-1.4165493970393488]],"biases":[-0.1653378981845937]}],"scores":{"1":2560,"2":2320,"3":3360,"4":2600,"5":3360,"6":1280,"7":2760,"8":3360,"9":1340,"10":3400,"11":2840,"12":2200,"13":3360,"14":2600,"15":3360,"16":1310,"17":5000,"18":2320,"19":3360,"20":3120,"21":2600,"22":1300,"23":2600,"24":3360,"25":3360}},{"layers":[{"inputNeurons":0,"outputNeurons":10,"weights":[],"biases":[-0.2287737621430789,0.4179969913586406,0.18182903049133223,0.8299952770707997,-0.07821368865068157,0.795699355581846,0.4350128455136844,0.7635088398712843,0.5613754696955273,0.40306342187237176]},{"inputNeurons":10,"outputNeurons":3,"weights":[[-0.21236306843763947,-0.6937089161692358,-0.7847595899945319],[0.8513230455313625,1.8339575899305653,-0.031096736528828745],[-0.9410559725357793,0.639215389305023,-0.14705233112097832],[0.13454302948404634,-0.4236253852013262,0.04587867729870898],[-0.3370305273006121,-1.257830824431453,-0.624879555778985],[0.021373434186280495,-1.2236065435159613,-0.15455931037863113],[1.1010437614678326,1.744307065842459,0.7314744288157884],[1.136529633137224,-1.8642195808017874,1.4446008789864315],[0.12442615479869926,0.3918789488717386,2.0056165983229484],[-0.7762456717802612,-0.7555749638704156,1.3274720295409033]],"biases":[-0.640557263661346,-0.4808656536695013,0.40939692385936927]},{"inputNeurons":3,"outputNeurons":1,"weights":[[1.3837231926694544],[0.87480102169294],[-1.2874555871774296]],"biases":[-0.330497724156491]}],"scores":{"1":2200,"2":2800,"3":1290,"4":2800,"5":1290,"6":3360,"7":3200,"8":3400,"9":3360,"10":1330,"11":2200,"12":3400,"13":2540,"14":2800,"15":1290,"16":2800,"17":3400,"18":3360,"19":3360,"20":3400,"21":3400,"22":2740,"23":3560,"24":1990,"25":3360}},{"layers":[{"inputNeurons":0,"outputNeurons":10,"weights":[],"biases":[-0.05387377911892646,0.4360724863229972,0.004529962404938331,0.973806948111451,0.6901176048536503,0.9753221584770437,0.470346596880295,0.6905342839064288,0.5348849221367183,0.051416327138900625]},{"inputNeurons":10,"outputNeurons":3,"weights":[[-0.20442762912186532,-0.4817874553254598,-1.1602580743025492],[0.9022705985123232,1.6789388356645256,-0.08386594628014288],[-1.0551476563861588,0.3923080495452848,-0.44707714590415726],[0.5099680636659374,-0.44234042894072156,-0.4568512271625451],[-0.11749333427390785,-0.6955313228952735,-0.5954979528840618],[0.31473633618972285,-1.4681049886469135,-0.06965530177805129],[0.6153221715277952,1.8442895303200149,0.6063693014617938],[0.5867283558356471,-1.6350298949050934,1.6512932534568394],[0.0026562142317039655,0.04732219822572897,1.9820011061564942],[-0.613759409573773,-0.6618586775503021,1.4840559812308112]],"biases":[-0.6829933141015103,-0.6965756677950228,0.0766272758890823]},{"inputNeurons":3,"outputNeurons":1,"weights":[[1.4037860261780408],[1.0330799480158643],[-1.635925139232711]],"biases":[-0.1757717631644924]}],"scores":{"1":2520,"2":2500,"3":2320,"4":2320,"5":2320,"6":2500,"7":2500,"8":2520,"9":2320,"10":2320,"11":2320,"12":6720,"13":2920,"14":2620,"15":2320,"16":2320,"17":2320,"18":2320,"19":2300,"20":2520,"21":3120,"22":2720,"23":2320,"24":3050,"25":2320}},{"layers":[{"inputNeurons":0,"outputNeurons":10,"weights":[],"biases":[-0.10238460167050116,0.15012724071072844,0.2259057791916352,1.0674054461974665,0.645829912981557,0.8603670531102383,0.7595067382727884,0.23259913904586127,0.5416133928220567,0.2319194794636871]},{"inputNeurons":10,"outputNeurons":3,"weights":[[0.24866314580511178,-0.517945730570781,-0.652575232222084],[0.3414830204043863,1.9004940766339815,-0.6057374276533737],[-0.8216768070628446,0.6796105950373693,-0.5502857916168218],[0.7250094155636896,-0.4996448222295573,-0.5047728776389693],[-0.21115983805787375,-0.9490454136047346,-0.3638795381883304],[0.044879887761096075,-1.2673333901173234,-0.14295727344351306],[1.1061678200416458,2.1763016252167495,0.6690832242336157],[0.8511737856990793,-1.4893754766323763,1.834465491051339],[0.22739503434059244,0.43381507469743524,1.8717265968239343],[-0.3059787031728069,-0.9310333182322905,1.4528015462615234]],"biases":[-0.776791495060879,-0.2993802661797931,0.4041465134107823]},{"inputNeurons":3,"outputNeurons":1,"weights":[[1.6348440959256139],[1.1231416779617818],[-1.5914437258753922]],"biases":[-0.5401277846979298]}],"scores":{"1":2800,"2":3360,"3":3360,"4":2320,"5":1330,"6":3360,"7":2800,"8":3360,"9":2320,"10":3360,"11":1310,"12":1300,"13":2800,"14":2210,"15":2400,"16":1280,"17":2800,"18":2600,"19":3560,"20":2400,"21":2600,"22":2800,"23":2600,"24":3400,"25":2320}},{"layers":[{"inputNeurons":0,"outputNeurons":10,"weights":[],"biases":[-0.06859306376606156,0.6235166198250321,0.08041937320721324,1.2381109220488566,0.07149621747909882,0.6473090119532146,0.5643562200033856,0.39581930171409496,0.41815601355040594,0.19670897692471528]},{"inputNeurons":10,"outputNeurons":3,"weights":[[-0.020578417922025624,-0.39635538880712357,-0.8554350273590474],[0.700585028387499,2.0112589827768974,-0.5300753150156702],[-0.9779350967374877,0.9596596316162076,-0.3957330893012617],[0.44268321145482775,-0.03224565438874205,-0.19120195284357155],[-0.4363559985105991,-0.8862808851577206,-0.7109586870064721],[-9.897892309883444E-4,-1.4034978146155215,0.15911666551148038],[0.9438512990727365,1.882920580020688,0.7212433509791716],[1.1361444556314797,-1.9082875127188905,1.5667764055301445],[-0.17527369399794152,0.35045458164123455,1.6722514525120515],[-0.6489259267307488,-0.9255533829380429,1.277082027972407]],"biases":[-0.5846022908443096,-0.28683960151634813,0.4436847046791206]},{"inputNeurons":3,"outputNeurons":1,"weights":[[1.2542107458088552],[1.260535727590882],[-1.5628655864998495]],"biases":[-0.1813382224822982]}],"scores":{"1":2520,"2":2520,"3":2320,"4":2320,"5":2320,"6":2320,"7":2920,"8":2320,"9":2320,"10":2320,"11":2190,"12":2210,"13":2320,"14":2320,"15":2320,"16":2320,"17":5320,"18":2520,"19":2960,"20":5320,"21":2320,"22":2320,"23":1300,"24":2320,"25":2320}},{"layers":[{"inputNeurons":0,"outputNeurons":10,"weights":[],"biases":[0.23210306033845546,-0.16337180693815856,0.8704383389279049,0.33242569321294557,0.3561651054182222,-0.5030567855387986,0.16763780353645014,-0.17705207766748488,0.2002974019755318,0.42595473532226363]},{"inputNeurons":10,"outputNeurons":3,"weights":[[0.23389134018778235,-1.1446873656686654,-0.7672122455344803],[0.9067152767309561,1.585763604492896,-0.3391209846890142],[-1.5911309838057837,0.6723539506351816,-0.3688753068988574],[0.10603887952797754,-0.8556753683879339,3.435766877466079E-4],[1.0051980417655344,-1.312600107946623,-0.5222971089357378],[-0.19911306430406867,-0.510920345153145,-0.1821114817121921],[0.6483530388201049,1.6955965948635896,0.33639456012788466],[1.0847713524344853,-1.7212433823306144,1.63342839467546],[0.5516807193968652,0.14818501101411302,0.9155532366616053],[-1.316358886110082,-0.5268315620144358,1.089237236513175]],"biases":[-0.46396206453882555,-1.3096090656562533,-0.34631731775673397]},{"inputNeurons":3,"outputNeurons":1,"weights":[[0.9857935968364162],[1.483168911088108],[-1.1288918276815088]],"biases":[-0.21758198353036523]}],"scores":{"1":2320,"2":2320,"3":2320,"4":2320,"5":2320,"6":2320,"7":2320,"8":3050,"9":2320,"10":2720,"11":2320,"12":2320,"13":2520,"14":2320,"15":2500,"16":2600,"17":2320,"18":2520,"19":2840,"20":5520,"21":2320,"22":2320,"23":2920,"24":2320,"25":2520}},{"layers":[{"inputNeurons":0,"outputNeurons":10,"weights":[],"biases":[-0.19496236778926404,0.036318282872622065,0.3552080912558053,0.8739913884713625,0.5202008682178577,0.6243437850015128,0.47136928996506733,1.073927903752303,0.6476117080008996,0.1597534898822085]},{"inputNeurons":10,"outputNeurons":3,"weights":[[-0.3198210275835891,-0.65597817838939,-1.01036907967153],[-0.020093088839237216,1.6496581088378768,-0.16917689644977044],[-0.8035179089009319,0.5663154530329736,-0.2650556450129121],[0.7722350123421848,-0.04117300096605597,-0.28986813555435775],[-0.18327767408380835,-0.9734719456971714,-0.5565431359693684],[-0.12146592433602184,-1.1025657727877198,-0.27562551766939325],[1.0835873199692758,1.9075100688754316,0.9652260396387677],[0.9471000549369134,-1.4405671919745193,1.7075836904955861],[0.004738795413297497,0.28441412295318835,2.083634165415445],[-0.5928353680626077,-0.8082353715436286,1.3978994330578194]],"biases":[-0.16496997504645972,-0.671938675899246,0.277429610546868]},{"inputNeurons":3,"outputNeurons":1,"weights":[[1.606320531974682],[1.226928325242099],[-1.6199136196178094]],"biases":[-0.1387756269971736]}],"scores":{"1":3650,"2":2320,"3":5520,"4":2320,"5":2720,"6":3020,"7":2320,"8":2320,"9":2320,"10":2320,"11":2320,"12":2320,"13":2520,"14":2320,"15":2320,"16":2920,"17":2240,"18":2400,"19":2320,"20":2320,"21":2320,"22":2320,"23":2320,"24":2220,"25":2320}},{"layers":[{"inputNeurons":0,"outputNeurons":10,"weights":[],"biases":[-0.37331279003971196,0.42997433451929257,0.11806914061076057,1.2063732590180063,0.13970041228830654,1.0027012783881006,0.6656974177531848,0.16323940450107455,0.49804801867199844,0.30122598890121116]},{"inputNeurons":10,"outputNeurons":3,"weights":[[-0.01883183960649136,-0.24408710258855013,-0.7054641023236234],[0.8344555663003208,2.1475926445860125,-0.1304140071588237],[-0.9460929767248578,0.48458637064567167,-0.4319127007612852],[0.7775162954263077,-0.1376636202999555,-0.5862160342666374],[-0.2073710228611717,-0.9541367855701842,-0.6805189613918454],[0.346260950070709,-1.6131096695160314,-0.00690879560763525],[1.152950188726911,1.8014475987774103,0.21483373182259213],[0.6726258790429379,-2.1505136066144557,1.9726996082506274],[0.14449308146700618,0.2015134979013693,2.072326116099109],[-0.3228567382393158,-1.0247059157741458,1.5283461525635824]],"biases":[-0.7340503009977785,-0.46346047680820973,-0.10824276075340944]},{"inputNeurons":3,"outputNeurons":1,"weights":[[1.4192702893053337],[1.2742734574041534],[-1.852422592444392]],"biases":[-0.12708292993806122]}],"scores":{"1":2320,"2":2320,"3":2320,"4":2320,"5":2500,"6":2500,"7":2320,"8":2320,"9":2320,"10":2320,"11":2210,"12":2490,"13":2320,"14":3080,"15":2320,"16":3050,"17":1300,"18":2720,"19":2520,"20":3720,"21":5520,"22":2400,"23":2320,"24":2320,"25":2430}},{"layers":[{"inputNeurons":0,"outputNeurons":10,"weights":[],"biases":[0.8051316253722073,-0.555314777662137,0.6780004889263992,0.006354893276913576,0.3502079092683558,-0.33132677284090317,-0.006452151789281074,-0.20132909173552835,-0.20095513543113563,0.6261977911536607]},{"inputNeurons":10,"outputNeurons":3,"weights":[[0.5309775508732586,-1.191774283529627,-0.7060449956363506],[0.6648644983572113,2.357363541148831,-0.38456544881728366],[-1.3396062065671963,0.48169525014902037,-0.5359971595783661],[0.08466501179468941,-0.3985509676013313,-0.13220141515909864],[1.1001469909924186,-0.8319871739255453,-0.8633901078841497],[-0.3508013691665822,-0.5458429306553737,-0.29408639612590215],[0.6226926313606704,1.756724130581442,0.6808031444137568],[1.1692068819315993,-1.727078252232552,1.362855272447922],[0.6537283192839762,0.0447621968068353,0.7938746235720939],[-1.1731153832343273,-0.2781717422746662,1.5003612463765046]],"biases":[-0.4100585948526989,-1.1827986585494596,-0.3739429495411666]},{"inputNeurons":3,"outputNeurons":1,"weights":[[0.8229180328561254],[1.9734987466398328],[-1.379216181939608]],"biases":[0.11597403155816427]}],"scores":{"1":2320,"2":2400,"3":2590,"4":2520,"5":2320,"6":2320,"7":2320,"8":2270,"9":5420,"10":2320,"11":2310,"12":2320,"13":2520,"14":2320,"15":2320,"16":2290,"17":2320,"18":2320,"19":2320,"20":3920,"21":2520,"22":2320,"23":3050,"24":2210,"25":2320}},{"layers":[{"inputNeurons":0,"outputNeurons":10,"weights":[],"biases":[0.36296290524038555,-0.45683684878071074,0.7273120040610015,0.020353589396975125,-0.1326720750366912,-0.2893005390058403,-0.24620225594522202,-0.12836369337493952,0.09485324041918033,0.8517636616478533]},{"inputNeurons":10,"outputNeurons":3,"weights":[[0.13616841735748897,-1.2050949894657295,-0.7940883367502094],[0.8741068008068775,1.8932241823322074,-0.3199335645679854],[-1.5184939808507414,0.4331733189389746,-0.4125476963449189],[0.4386764466607124,-0.6417295170655597,0.27692227061072044],[0.7251608046456398,-0.9435593867960645,-0.5991022476787894],[-0.5373529632397747,-0.5315023603813175,-0.33144375690038047],[0.8133850901937054,1.6139316852353591,0.7965457608343407],[0.8857843915216658,-1.80142829979467,1.6563496249421883],[0.40428672972378144,0.14440510763285022,0.9552861023524569],[-0.7788655309621252,-0.6161090781630849,1.7025395160919126]],"biases":[-0.365563435772971,-0.856864042705932,-0.29976401673992964]},{"inputNeurons":3,"outputNeurons":1,"weights":[[1.045030753092694],[1.2434098405496972],[-1.4837200346036934]],"biases":[0.09183539066826837]}],"scores":{"1":2320,"2":2320,"3":2320,"4":2320,"5":2210,"6":2210,"7":2320,"8":5920,"9":2320,"10":2320,"11":2320,"12":2320,"13":2520,"14":2500,"15":2320,"16":2320,"17":2920,"18":2320,"19":2320,"20":2920,"21":2320,"22":2890,"23":2320,"24":2840,"25":2320}},{"layers":[{"inputNeurons":0,"outputNeurons":10,"weights":[],"biases":[0.4044607957237747,-0.5033408395701224,0.7660781477228031,0.15188315268939925,0.8671013876754214,-0.46536080751819736,0.23308052722338365,0.22089782443386455,0.34010185443341034,0.54021508650298]},{"inputNeurons":10,"outputNeurons":3,"weights":[[-0.1697750139649271,-0.8838092163852845,-0.9123461084171325],[0.6722426069622301,1.8733673773489232,-0.09337472607515582],[-1.263154695595503,0.41222300688791036,-0.24497271507083776],[0.15283938832850238,-0.5865196126741178,0.09784882238030142],[0.5761292627604961,-1.1194893882133912,-0.6917441884035448],[-0.5453351113924059,-0.6611597376284053,0.0014335171923387513],[0.7423887226020707,1.626043610430599,0.808589799355002],[0.9765787640045134,-1.8751604043714438,1.2719180839511368],[0.44225832093493783,0.14900713187604384,0.6881837656822682],[-0.6837696609633863,-0.6968106185822954,1.434632715262776]],"biases":[-0.12525913658649532,-0.8831026537720893,-0.05121020102520776]},{"inputNeurons":3,"outputNeurons":1,"weights":[[0.9270508202695249],[1.3694311254738611],[-1.2203040677069272]],"biases":[0.3582862453744415]}],"scores":{"1":2320,"2":2320,"3":5520,"4":2320,"5":2320,"6":2320,"7":2520,"8":2510,"9":2520,"10":2320,"11":2320,"12":2220,"13":2320,"14":2520,"15":2320,"16":2210,"17":2320,"18":2320,"19":3650,"20":2320,"21":2320,"22":2210,"23":2320,"24":2520,"25":2320}},{"layers":[{"inputNeurons":0,"outputNeurons":10,"weights":[],"biases":[0.2529776244547946,0.1685722016738378,0.07071071343381626,1.0492092788546794,-0.035307077934261244,0.8841403381590789,0.7692610058096849,1.001236397078411,-0.023351075297428747,0.3050877753095054]},{"inputNeurons":10,"outputNeurons":3,"weights":[[-0.05584498394058889,-0.7132818716159028,-0.6558825230595784],[0.8148267642343197,1.7937557011036742,-0.3619920926570251],[-1.0390760623521529,0.42222731914234335,-0.3418438894788379],[0.6172411641677182,-0.44199965923051643,-0.3293331179873932],[-0.4296678419805451,-0.9530793815268304,-0.21962636380676726],[0.01506148049955229,-0.9023315862418404,0.1597865589590744],[1.343065159206408,2.093178165787004,0.6189342174995309],[0.56580471611658,-1.7602596998244655,1.576165494407961],[-0.1103347248117994,0.457369198103897,1.9600412357645811],[-0.8069793419184985,-0.4627388007321242,1.2296573274863787]],"biases":[-0.5202304800824058,-0.4761993167772359,0.34286109760958816]},{"inputNeurons":3,"outputNeurons":1,"weights":[[1.6430345499111492],[0.818101718975359],[-1.793876763662953]],"biases":[-0.17638128814204634]}],"scores":{"1":2320,"2":5520,"3":2520,"4":2290,"5":2320,"6":2320,"7":2320,"8":2320,"9":2320,"10":2320,"11":2320,"12":2520,"13":2320,"14":2920,"15":2920,"16":2520,"17":2220,"18":2320,"19":2240,"20":2520,"21":2520,"22":2320,"23":2320,"24":2320,"25":2320}},{"layers":[{"inputNeurons":0,"outputNeurons":10,"weights":[],"biases":[-0.24626484199400356,0.6376749101443733,-0.002240955206840617,0.7734498231770484,0.25958524397574584,0.7199734858174728,0.690908776461796,0.8098946024840987,0.19471833695671192,0.5418357663012594]},{"inputNeurons":10,"outputNeurons":3,"weights":[[0.005017946039092648,-0.47397745931917296,-0.5222127866969107],[0.4759833618766809,1.631560011251916,-0.15086522998905783],[-1.0056496979243472,0.6565511631648845,-0.5366606270394053],[0.7492030761474688,-0.18603008550075747,0.1269744323696912],[-0.08208726734650973,-1.116728911254502,-0.923852761588735],[0.2591318541979989,-1.454953204017331,-0.3395719125193501],[0.9803769987117147,2.2089519784146034,0.5931875425054102],[0.8349056141627753,-1.8156434133399084,1.9677499253530166],[0.06833532049544655,0.30511840164041953,1.8614471364349952],[-0.6804799856710895,-0.9716877071493089,1.2511585197910036]],"biases":[-0.4804537821320768,-0.4566873435164294,7.026005910452104E-4]},{"inputNeurons":3,"outputNeurons":1,"weights":[[1.3721524744528324],[1.0162772755613152],[-1.799893709945637]],"biases":[0.059635387296645165]}],"scores":{"1":2490,"2":2320,"3":2320,"4":2320,"5":2720,"6":2320,"7":2320,"8":2320,"9":2320,"10":5520,"11":2520,"12":2720,"13":2520,"14":2320,"15":2520,"16":2320,"17":2320,"18":2320,"19":2320,"20":2320,"21":2320,"22":2320,"23":2320,"24":2320,"25":2320}},{"layers":[{"inputNeurons":0,"outputNeurons":10,"weights":[],"biases":[0.4876131749257864,-0.3868459952425886,0.8277358488494865,0.5266076966338391,0.22887942949951423,-0.22425925990914974,0.3653449327752059,-0.034866132421981375,0.0968517970563626,1.0066703499411618]},{"inputNeurons":10,"outputNeurons":3,"weights":[[0.07380016496332362,-1.122399168537949,-1.0314342530688017],[0.5914020473693015,1.9658292963116335,-0.2850449610463653],[-1.2422500011246678,0.6969562486220421,-0.4883515388024517],[-0.07770452214391724,-0.5174197498503336,-0.05483882709767088],[0.6775614166616173,-1.1745302000217952,-0.5139832084730689],[-0.3366334238867379,-0.7345471989756707,-0.5423023852012008],[1.0876261744764497,1.517065303052659,0.6368411140058478],[0.7703354243117239,-1.3235673891054331,1.7672279478264092],[0.8025610783021517,-0.016224833387394305,0.9347810286597922],[-0.6725897603765996,-0.5714399114355955,1.421220631535173]],"biases":[-0.18556133438280628,-0.9462800678137111,-0.2359662881770147]},{"inputNeurons":3,"outputNeurons":1,"weights":[[0.9032090355682908],[1.7944234391421576],[-1.1027691140898555]],"biases":[0.16928238094488918]}],"scores":{"1":2320,"2":2320,"3":2690,"4":3120,"5":2320,"6":2320,"7":2520,"8":2500,"9":2620,"10":1300,"11":2320,"12":2320,"13":2320,"14":2960,"15":2320,"16":2320,"17":2320,"18":2320,"19":2320,"20":2320,"21":2320,"22":2200,"23":5320,"24":2320,"25":2220}},{"layers":[{"inputNeurons":0,"outputNeurons":10,"weights":[],"biases":[0.5014203376467825,-0.2858029751399822,0.6772134027907266,0.41212007868053546,0.6786892077292574,-0.45704084041012955,0.2248039495987355,0.42833804361557354,0.3276089534119182,0.670666891367049]},{"inputNeurons":10,"outputNeurons":3,"weights":[[-0.05766359634564408,-1.04449912494478,-0.843901920263973],[0.52601500782675,2.0291588012072483,-0.24359815285242942],[-1.5233953013188128,0.22964856900531055,-0.45946535834211755],[-0.020614892511767624,-0.23965196942568945,0.20971534637462105],[0.9648523482233388,-1.053905472285642,-0.528875294342049],[-0.24472337396971258,-0.5056877813823918,-0.39543379423729674],[0.8292307038825554,1.440221586085227,0.5910824181506869],[0.6621555738767934,-1.4564988965754295,1.5424470130753396],[0.5787373002088247,0.19595524942850767,0.7680355590756412],[-0.8285383659481124,-0.37913513256913867,1.4272515965519084]],"biases":[-0.029947073444551192,-1.352358036413393,-0.16122235067857374]},{"inputNeurons":3,"outputNeurons":1,"weights":[[1.1046766441543328],[1.3369856163879668],[-1.3519397025751514]],"biases":[0.11937841871287579]}],"scores":{"1":2200,"2":1320,"3":3400,"4":1930,"5":3360,"6":2600,"7":1280,"8":1300,"9":2600,"10":2320,"11":2600,"12":2720,"13":2300,"14":2160,"15":2560,"16":2320,"17":3360,"18":3360,"19":1950,"20":2320,"21":3400,"22":3360,"23":2320,"24":2350,"25":2800}},{"layers":[{"inputNeurons":0,"outputNeurons":10,"weights":[],"biases":[0.7744312350551908,-0.09710353659962137,0.5737887251649262,0.687412313761905,0.14974764498869314,-0.5041399405032657,0.3230430290687652,0.09719704365409312,-0.10754436341346224,0.08474492241055087]},{"inputNeurons":10,"outputNeurons":3,"weights":[[0.2708357812971006,-0.9879074674712988,-1.0025699997961097],[0.7471538962768254,1.866986972386649,-0.06835489916660062],[-1.528732727212163,0.737211572378316,-0.22075750429264474],[0.11043698533938785,-0.2033837960200902,0.19122575986974588],[0.8231776666766228,-1.0088239496723048,-0.5888495462234609],[-0.5402698468563698,-0.37316372967548916,0.04738519460249313],[0.9403570315136764,1.8005960188702672,0.7880641017341175],[0.7209274003777632,-1.4008775192804381,1.5683208096157049],[0.40742391329477146,0.1849728893514686,0.8428817453415772],[-0.7876028636443513,-0.6566813705478907,1.3125303324311586]],"biases":[-0.18541331508655062,-0.9237524956415226,-0.2005537036530318]},{"inputNeurons":3,"outputNeurons":1,"weights":[[1.0057621641625798],[1.401384728774218],[-1.1045899772417773]],"biases":[0.19767566721499633]}],"scores":{"1":2800,"2":1330,"3":1290,"4":3360,"5":3360,"6":2300,"7":1310,"8":2740,"9":3200,"10":2320,"11":3400,"12":1300,"13":2600,"14":3360,"15":1360,"16":3400,"17":3360,"18":1290,"19":1300,"20":3360,"21":3360,"22":2600,"23":2680,"24":1960,"25":2800}},{"layers":[{"inputNeurons":0,"outputNeurons":10,"weights":[],"biases":[-0.12365231970987427,0.4431263562044269,0.09188907879171833,0.9214244690108484,0.19550014130673424,0.8763613880304224,0.3308295148683413,0.5717346029223818,0.14910638683081945,0.2561358671480505]},{"inputNeurons":10,"outputNeurons":3,"weights":[[-0.28892423182400706,-0.19730885734057946,-0.9156103808513533],[0.46201804426479265,1.6790990874286567,-0.1081056553490767],[-1.176621093954089,0.36439427415069336,-0.6111324500619368],[0.45701640378279534,-0.5886156024876309,-0.18714489792889555],[0.03840860542867108,-1.1135335353912885,-0.344159671365396],[0.1990608679745064,-1.3484613888346102,0.20569356910240333],[0.864316370639091,1.3884591754372042,0.4031648508694618],[0.8836984416313186,-1.2971082183486808,1.645781246753732],[0.004471507788333398,0.17732946681862857,1.6410126576313555],[-0.558994680386832,-0.8697668936438983,1.3819934751753593]],"biases":[-0.8600655710545022,-0.5458629740908384,0.17677557096524324]},{"inputNeurons":3,"outputNeurons":1,"weights":[[1.3445872962168077],[0.8628170748828992],[-1.4751417601269807]],"biases":[-0.20464474595013055]}],"scores":{"1":2520,"2":2320,"3":2320,"4":2320,"5":2720,"6":2190,"7":2520,"8":1300,"9":2520,"10":2520,"11":2320,"12":2220,"13":2320,"14":2320,"15":2320,"16":2320,"17":2320,"18":5520,"19":2890,"20":2320,"21":2320,"22":2720,"23":2320,"24":2320,"25":2320}},{"layers":[{"inputNeurons":0,"outputNeurons":10,"weights":[],"biases":[0.4942518334052457,-0.6536376866611825,0.5111375449873047,0.4294359283661313,0.22619738574021464,-0.24248543322568666,0.3754011389327436,-0.31883547193792544,0.09260174743781355,0.5241102345877489]},{"inputNeurons":10,"outputNeurons":3,"weights":[[-0.0846355724170072,-1.437271890992525,-0.8493444453721594],[1.0318523178806027,1.9098084383421883,0.14826622512866633],[-1.62291382422233,0.38293407899789844,-0.36313341001785115],[0.12091422728716195,-0.6128640024350348,0.29039723398212547],[0.9212350560392588,-0.8869574624260832,-0.684021522973348],[-0.5456837441596563,-0.42360967020355733,-0.021406398893656697],[0.7032284248910156,1.2571512889000256,0.5639178616996173],[1.1170667621512265,-1.4761042954724093,1.5604052082692648],[0.401997208053208,0.2638363055163136,1.111469400134016],[-0.21885687508022367,-0.47435264861496473,1.1924552226970986]],"biases":[-0.1482022566382346,-1.1390679698898418,-0.020712039541497515]},{"inputNeurons":3,"outputNeurons":1,"weights":[[0.911011988454025],[1.3922091504607153],[-0.9478739701227621]],"biases":[0.15201784744365385]}],"scores":{"1":3450,"2":2840,"3":2320,"4":2320,"5":3720,"6":3120,"7":2320,"8":2800,"9":2320,"10":2320,"11":2520,"12":2320,"13":2520,"14":2320,"15":2320,"16":2520,"17":2320,"18":2320,"19":1300,"20":2320,"21":2320,"22":2320,"23":2320,"24":2320,"25":2320}},{"layers":[{"inputNeurons":0,"outputNeurons":10,"weights":[],"biases":[-0.291516802945685,0.3657148679550838,0.06837462788989296,1.108219036310551,0.28532186093148065,0.5764079881508508,0.719726639168101,0.3240718360101733,0.43362941238615216,0.14946708194128866]},{"inputNeurons":10,"outputNeurons":3,"weights":[[-0.07451106396029258,-0.33761455200825036,-0.7835715120274548],[0.7275461985613172,1.7323682134319978,-0.1675827229645825],[-1.1619239197551245,0.8338661791760631,-0.44484921937792166],[0.6955069557849931,-0.37072877578886027,-2.1614581091516927E-4],[-0.3520223091221527,-1.1896024979557378,-0.06913254899823851],[-0.06710115694764064,-0.9791113218972344,0.2990616584071455],[0.8624091948981021,1.6442719308716973,0.6957867004069764],[1.1236894830683917,-1.9156201291697177,1.797088361334824],[-0.3344275223353458,0.5095917538290614,2.1944627933800622],[-0.4320639581189184,-0.7181041384014798,1.381591415752116]],"biases":[-0.527608235661429,-0.5387130786040635,0.24348599398334825]},{"inputNeurons":3,"outputNeurons":1,"weights":[[1.17559466657725],[1.4772446894846198],[-1.1545247048831546]],"biases":[-0.14177232441177437]}],"scores":{"1":1990,"2":2320,"3":2320,"4":3050,"5":2320,"6":2320,"7":2320,"8":2320,"9":1260,"10":2520,"11":2320,"12":2320,"13":2320,"14":2520,"15":1310,"16":2520,"17":2920,"18":2500,"19":5920,"20":2320,"21":2920,"22":2320,"23":2320,"24":2320,"25":1990}},{"layers":[{"inputNeurons":0,"outputNeurons":10,"weights":[],"biases":[-0.24937277828148371,-0.07626826787824581,0.050710008011528994,1.5212795325023365,0.4676351312497332,0.42003788069614595,0.7519798135413817,0.7511666952008769,0.24079050946273903,0.6986493028800732]},{"inputNeurons":10,"outputNeurons":3,"weights":[[0.04546810956823904,-0.9032174481991221,-1.0105128796671201],[0.5369586105288435,1.9015610712094422,-0.052075276870626325],[-1.2615665637363402,0.6520447183484444,-0.48949013925730483],[0.8421783567696075,-0.0869496883278072,-0.17448496510945624],[-0.24470118986113715,-1.3939793618238292,-0.25503639299020436],[-0.17657167542597546,-1.0955170024281575,-0.11681682816693983],[0.8330388066413574,1.8193670454044262,0.7090697796980862],[0.9731814668748869,-1.6391154855204675,1.7592599614433801],[0.05063885149280782,0.08858086333697973,1.5703437541995569],[-0.4789356546953025,-0.7267366482169635,1.422518618607119]],"biases":[-0.792373521836625,-0.6335970634617903,0.5049605772144891]},{"inputNeurons":3,"outputNeurons":1,"weights":[[1.4295832440127285],[1.4913867369031886],[-1.7335845728350456]],"biases":[-0.022996964210051596]}],"scores":{"1":2320,"2":2320,"3":2320,"4":2520,"5":2320,"6":2560,"7":2320,"8":2320,"9":2320,"10":2320,"11":2320,"12":2320,"13":2320,"14":2210,"15":2920,"16":2780,"17":2320,"18":2320,"19":2320,"20":2320,"21":3120,"22":2320,"23":2520,"24":2500,"25":3250}},{"layers":[{"inputNeurons":0,"outputNeurons":10,"weights":[],"biases":[-0.2714102682044893,0.07691310440005777,-0.19894357873916232,1.1445826518410345,0.34444244282779196,0.8247165837343293,0.9069760174772739,0.6465719251411564,0.2608383971407532,0.380809063587879]},{"inputNeurons":10,"outputNeurons":3,"weights":[[0.21268948629412304,-0.41345683618854434,-0.9032988675893465],[0.7646972978743182,1.8784841052623724,-0.2184195694502734],[-0.8658097971361479,0.7449597859249631,-0.623309317687134],[0.521332341910427,-0.27650314609520094,0.18274610540626773],[-0.474609928018749,-0.7871089144125811,-0.3665233435953038],[0.19993991008414058,-1.3112934118491155,0.17499234471956943],[0.7529124682169586,2.1713301658803186,1.1235839705205706],[0.7341167426317475,-1.6399592118432955,1.8494904291476],[-0.16394286095271565,0.3494103684570969,2.157924047411885],[-0.5577260312491419,-0.7286341275400502,1.0325549120868978]],"biases":[-0.28035937980222103,-0.6594649911970814,0.5048220144123858]},{"inputNeurons":3,"outputNeurons":1,"weights":[[1.4120791117435882],[1.2740115154087268],[-1.729340900078088]],"biases":[-0.2134730179143537]}],"scores":{"1":2320,"2":2320,"3":2320,"4":2320,"5":2320,"6":2320,"7":2320,"8":2320,"9":2320,"10":3720,"11":2920,"12":2320,"13":2520,"14":2320,"15":2320,"16":2520,"17":2320,"18":2320,"19":2720,"20":2560,"21":2320,"22":2320,"23":2320,"24":2320,"25":2520}},{"layers":[{"inputNeurons":0,"outputNeurons":10,"weights":[],"biases":[0.1328355696607737,-0.15163109646180495,0.878709444665627,0.29614637100612545,0.34173509540196106,-0.34309340701353785,0.30829575278647003,-0.5650775954017395,0.19638217830726673,0.705945157026331]},{"inputNeurons":10,"outputNeurons":3,"weights":[[-0.009660245847030291,-1.0608582824392638,-1.140363845677072],[0.8283663290506916,2.0941280198840793,-0.47488425640940063],[-1.1174896450154537,0.8323786140708085,-0.28975455405928846],[-0.13767650405480897,-0.6433970094408051,-0.05823466703546629],[0.9167408187999863,-1.2130359998312927,-0.6952122173535475],[-0.7511441904040648,-0.6816239341692824,-0.25196276901040154],[0.6660762049837239,1.7509380632495153,0.6591418447239078],[0.8304882125286711,-1.6045680225153884,1.3368785184857828],[0.365799897104513,0.08914286755792428,0.6323088555609573],[-0.5860631976614544,-0.729494312191068,1.2302808998242054]],"biases":[-0.03886949491181832,-0.8729708899819583,-0.1648514401139632]},{"inputNeurons":3,"outputNeurons":1,"weights":[[1.1223731212871912],[1.256039972854209],[-1.172533785425898]],"biases":[-0.10141515286532687]}],"scores":{"1":2320,"2":2520,"3":2320,"4":2510,"5":2320,"6":2320,"7":2320,"8":2720,"9":2490,"10":2320,"11":2720,"12":2520,"13":2920,"14":2950,"15":2320,"16":2520,"17":2320,"18":2320,"19":2320,"20":2320,"21":2520,"22":2320,"23":3110,"24":1300,"25":2320}},{"layers":[{"inputNeurons":0,"outputNeurons":10,"weights":[],"biases":[0.4973020204131226,-0.22775984269115396,0.5786099293198587,0.49239059155586434,0.5594282611631975,-0.4524795337876712,0.3805150842257802,-0.21746212174114166,-0.014731486573488217,0.49819256372566767]},{"inputNeurons":10,"outputNeurons":3,"weights":[[-0.035198565417039474,-1.1725804908079636,-0.584863803098648],[0.7850935783141718,2.2205374518858285,-0.6669721079675374],[-1.0647076452715987,0.22452739092518587,-0.021280846007115134],[0.10893712094573603,-0.25777013852914576,-0.39674826241758604],[0.9169545685866628,-1.1154930996888,-0.7148404004129039],[-0.8026349842511491,-0.1832893946207974,-0.27031498625507444],[0.8417452646247621,1.5842662540580517,0.7502495466869858],[1.1878788755104885,-1.8372720547031425,1.2674611641312217],[0.35037636455599097,-0.0918717013757292,0.9545639527383718],[-1.125137721540657,-0.6774909792103881,1.3724742250886242]],"biases":[-0.09041873010029483,-1.3741120863170966,0.06575021021840793]},{"inputNeurons":3,"outputNeurons":1,"weights":[[0.9965428653444257],[1.3939073090273786],[-1.0841114593151324]],"biases":[0.2466212731597563]}],"scores":{"1":2320,"2":2320,"3":3920,"4":2320,"5":3820,"6":2320,"7":2200,"8":2720,"9":2320,"10":2500,"11":2320,"12":2320,"13":2700,"14":2320,"15":2320,"16":2520,"17":2320,"18":2320,"19":1300,"20":2220,"21":2220,"22":2320,"23":2320,"24":2320,"25":2320}},{"layers":[{"inputNeurons":0,"outputNeurons":10,"weights":[],"biases":[0.25700414106526176,-0.41067889019108156,0.7498711679859442,0.39865496614682977,0.49951207175408685,-0.42239683100425074,0.6088403168572767,-0.33327052635855475,0.04877833058481751,0.5571788151826097]},{"inputNeurons":10,"outputNeurons":3,"weights":[[-0.25603792568669614,-1.3667209343558324,-0.7678115478155513],[0.48806170922755576,1.4251463420917534,-0.1091494262097848],[-0.8521351804096711,0.2669322717875403,-0.1423647663485834],[0.24863867194131678,-0.4033526818153517,-0.1535086033309518],[0.5186952861487364,-1.3457915302226344,-0.601250855905413],[-0.4118731601113704,-0.5512887088682071,-0.3814732914956635],[1.1810827419627785,1.4516763494444211,0.6343087913200354],[1.1191278022800895,-1.4713154670576252,1.3693287238424818],[0.4499178168671786,0.19482526347188103,0.880288802525589],[-0.7370451522778834,-0.5814436020036129,1.3122057598525791]],"biases":[-0.04109548917773702,-1.2827112246931396,-0.1518374263630669]},{"inputNeurons":3,"outputNeurons":1,"weights":[[1.100830405316966],[1.163517802821433],[-1.6393519322732648]],"biases":[-0.2740479739466138]}],"scores":{"1":2520,"2":2320,"3":2320,"4":2320,"5":2320,"6":2190,"7":2520,"8":3120,"9":2320,"10":2320,"11":2320,"12":2520,"13":3020,"14":2320,"15":2320,"16":2320,"17":2720,"18":2210,"19":2320,"20":2520,"21":2520,"22":2320,"23":2320,"24":2320,"25":2320}},{"layers":[{"inputNeurons":0,"outputNeurons":10,"weights":[],"biases":[0.3655437263028826,-0.3829794960653568,0.7059930622010486,0.26754101951545334,0.6148975732985583,-0.18580782182426026,0.19308100826702798,0.6667535344848972,0.11927644822992733,0.3808582608611346]},{"inputNeurons":10,"outputNeurons":3,"weights":[[-0.11135562690975825,-0.7702822362056561,-0.9897116888086843],[0.3649053857836193,1.6624655142027753,-0.26864246198001346],[-1.0406624246117906,0.36447362450006393,-0.2530626308527004],[-0.0674397062387104,-0.5209645506629507,0.22004057737616506],[0.5303487941966608,-1.0067527858964893,-0.6894239543174023],[-0.5662095684558701,0.026199647355234945,-0.3316086197140882],[0.935997292105592,1.4737548440956716,0.749373261061995],[0.8580803090233977,-1.582146968372282,1.6414797168466708],[-0.00487050065146899,0.21816707602492535,0.6639940469910564],[-1.1569246247748448,-0.8700372337735665,1.7008330912461707]],"biases":[-0.4583090622233595,-1.236136154458619,-0.1494712768392711]},{"inputNeurons":3,"outputNeurons":1,"weights":[[0.610317248497457],[1.4811238155250548],[-1.061242205682173]],"biases":[-0.15144970856513856]}],"scores":{"1":2320,"2":2330,"3":2320,"4":3120,"5":2320,"6":2320,"7":2320,"8":2320,"9":2320,"10":2320,"11":2320,"12":2320,"13":2320,"14":2720,"15":2210,"16":2320,"17":2320,"18":3010,"19":2320,"20":2500,"21":2320,"22":2320,"23":2320,"24":2320,"25":2970}},{"layers":[{"inputNeurons":0,"outputNeurons":10,"weights":[],"biases":[-0.3099544554157447,0.20834063678699738,0.39626308989501313,1.3925092690939094,0.5217318222531253,0.8967317308613667,0.44988962295269264,1.001761225703455,0.4889961432710914,0.5288868856937496]},{"inputNeurons":10,"outputNeurons":3,"weights":[[-0.040615215269315,-0.7552422086169515,-0.864766567066072],[0.49140628382879115,2.0544060901493904,-0.23364918833738496],[-0.6998931346549457,0.40796074533025795,-0.4114573109337895],[0.4807130127286418,-0.22454947144606408,-0.20698487050767414],[-0.6363869954554604,-1.1295077888566283,-0.5122599508855088],[-0.29371846461484,-1.341355684115345,-0.07794547243241098],[0.8307800681696001,2.060763712030178,0.3393869330279758],[0.9235219045234988,-1.4360430671573992,1.6194540079461197],[-0.26904789161849596,0.5612135039142064,1.916952657144302],[-0.6629938194170804,-0.9867802705320725,1.3257760805494014]],"biases":[-0.5549951066944254,-0.23465526316643348,0.5551331192437046]},{"inputNeurons":3,"outputNeurons":1,"weights":[[1.5605200927239218],[1.1621334921714261],[-1.3645575466150484]],"biases":[-0.05461589878351261]}],"scores":{"1":2320,"2":2520,"3":2320,"4":2320,"5":2320,"6":2320,"7":2320,"8":2320,"9":2320,"10":2320,"11":2320,"12":2360,"13":2520,"14":2520,"15":2320,"16":3120,"17":2500,"18":2200,"19":2320,"20":2210,"21":2520,"22":2320,"23":2320,"24":2320,"25":3250}},{"layers":[{"inputNeurons":0,"outputNeurons":10,"weights":[],"biases":[0.010141214033237644,0.2878404234391915,0.3348121231724689,1.1234612766848329,0.40767611338615783,0.7670483359140403,0.7321821997019048,0.7607973826788544,0.13084084208115804,0.2601802458316969]},{"inputNeurons":10,"outputNeurons":3,"weights":[[-0.04968761665122462,-0.47475044640492975,-0.7801077948718012],[0.7565251035520398,1.96504063278537,0.4389081584554364],[-1.2293259789027893,0.7870928488454009,-0.49765888613022774],[0.7860808485894518,-0.18122051083112412,-0.4069200830152678],[-0.22366363295810665,-1.0611761456746998,-0.33076800604756584],[0.19064182674854752,-0.8732656464996011,-0.08667199156890905],[0.6990498501922122,1.6667092802043995,0.8489533693642237],[0.786947595624568,-1.7716309502098806,1.7911165814179244],[0.09885609448628029,0.1708657550642978,1.9275124094345977],[-0.4556119043444253,-0.9433390023327604,1.4909828863500023]],"biases":[-0.71475629850716,-0.4148814825253288,0.4574561432675085]},{"inputNeurons":3,"outputNeurons":1,"weights":[[1.1271044550820049],[1.467302470333455],[-1.730703774894402]],"biases":[-0.2774160480494254]}],"scores":{"1":2200,"2":2320,"3":2320,"4":2290,"5":2220,"6":2320,"7":2320,"8":2320,"9":2720,"10":2320,"11":2520,"12":2320,"13":2320,"14":2320,"15":2520,"16":2320,"17":3510,"18":2950,"19":2520,"20":2320,"21":2220,"22":2300,"23":2320,"24":2320,"25":2320}},{"layers":[{"inputNeurons":0,"outputNeurons":10,"weights":[],"biases":[0.6868375691512595,-0.5715751540173225,0.3728019729610867,0.24421865510111532,0.5881485477516174,-0.4426478821171177,0.43101377144838166,0.09914553202521029,0.19061189466250622,0.7124379341338551]},{"inputNeurons":10,"outputNeurons":3,"weights":[[-0.1423883939752092,-0.7904892106169483,-0.8812381843561261],[0.8804419999344689,1.9231598477765481,0.04526776231984159],[-1.5497162034651375,0.5647375489625011,-0.5202166590763946],[0.3375995114789244,-0.4693225820370672,-0.2635978524675361],[0.6800514605499858,-1.3636283132813136,-0.37971713623234626],[-0.5272897307003364,-0.3821050288551665,-0.00870442043075037],[0.5872052734570494,1.5727339627791097,0.5439675695683592],[1.0021541925543922,-1.733092308025589,1.388040063913755],[0.3158089705992214,0.2327586895548529,0.80524931948608],[-0.8142472593286655,-0.725378133018922,1.174642061970074]],"biases":[-0.4974057857864057,-1.1609765850084375,0.1703268715248677]},{"inputNeurons":3,"outputNeurons":1,"weights":[[1.2308545386270335],[1.5409270252153884],[-1.1689563310961881]],"biases":[-0.07211439487651161]}],"scores":{"1":2320,"2":2520,"3":2320,"4":2320,"5":1310,"6":2320,"7":2320,"8":4320,"9":2320,"10":2320,"11":2320,"12":2320,"13":3050,"14":2520,"15":2320,"16":2220,"17":2320,"18":2200,"19":2520,"20":2320,"21":2320,"22":2320,"23":2320,"24":2500,"25":2320}},{"layers":[{"inputNeurons":0,"outputNeurons":10,"weights":[],"biases":[-0.12817892700992772,0.43241966536469023,0.3297253001886081,1.0812615067630196,0.5764597952412278,0.7581572685423549,0.21194406086842943,0.8970953870310613,0.2781545399071369,0.22122579087964345]},{"inputNeurons":10,"outputNeurons":3,"weights":[[0.12204618595712952,-0.9091497636486534,-0.7965816790583614],[0.8113973050443006,1.7722508499556466,-0.31574117165864435],[-1.1830999171571555,0.24773911382337027,-0.4460030499980592],[0.9470432368884916,-0.1270773185110662,-0.3307398382628451],[-0.262387347764419,-1.0415039600423779,-0.5538660385295214],[0.113723018497565,-1.3748773391896645,-0.19686531966803747],[0.7806188651228984,1.8792358452657063,0.6647793259512564],[1.2087636776014758,-1.6202238154717714,1.5170114679416933],[0.12849466298922357,0.3592301769873402,1.9470978757532886],[-0.8226965452375978,-0.5797527269737377,1.1160949245629168]],"biases":[-0.5529906740859769,-0.4559831642903607,0.24502658609954847]},{"inputNeurons":3,"outputNeurons":1,"weights":[[1.760945855864021],[0.8371997464312364],[-1.52136225347048]],"biases":[-0.06889992527220928]}],"scores":{"1":2320,"2":2320,"3":2500,"4":2320,"5":2320,"6":2320,"7":2320,"8":2320,"9":2320,"10":2520,"11":2320,"12":2720,"13":2320,"14":2320,"15":2320,"16":2920,"17":2320,"18":2520,"19":2320,"20":2720,"21":2320,"22":2320,"23":2320,"24":2560,"25":2320}},{"layers":[{"inputNeurons":0,"outputNeurons":10,"weights":[],"biases":[0.05239876004406738,0.45323601817253695,0.22676108500115982,1.2226231108462884,0.31392169201811126,0.6038518120895673,0.2673805351066317,0.9124574292096577,0.4573624979512375,0.28926792318120415]},{"inputNeurons":10,"outputNeurons":3,"weights":[[-0.1609950758861074,-0.508474179780004,-0.598925706662325],[0.3249710971648063,1.6357507132164817,0.14337675186462415],[-1.067438880363608,0.6908983472040598,-0.5515878663593441],[0.6207517915544963,-0.04365846774412924,-0.05182399605394461],[-0.13496161258691095,-0.8297729970935388,-0.6175541021409521],[0.12504949615972089,-1.3012459185103311,-0.06351282391955287],[0.5987508186099126,1.393767665203299,0.41410907295122606],[0.7662222065434798,-2.125102918696286,1.4334089156546892],[-0.33045143614712885,-0.05158050339822018,1.9449327113261852],[-0.6824177443780634,-1.1566312135053307,1.4273507189088575]],"biases":[-0.5503566650987202,-0.6824916667748715,0.5487024420386226]},{"inputNeurons":3,"outputNeurons":1,"weights":[[1.4479433993692452],[1.1732885414530816],[-1.24378142932042]],"biases":[-0.5849428557914571]}],"scores":{"1":2320,"2":2320,"3":1300,"4":2320,"5":2320,"6":2320,"7":3070,"8":3120,"9":2920,"10":1300,"11":2320,"12":2320,"13":3720,"14":2320,"15":2320,"16":2320,"17":2600,"18":2520,"19":2520,"20":2320,"21":2320,"22":2320,"23":2320,"24":2320,"25":2320}},{"layers":[{"inputNeurons":0,"outputNeurons":10,"weights":[],"biases":[0.797184585684838,-0.2927810583177318,0.6929572350244547,0.49708932021542734,0.637069657289664,-0.6793688844975931,-0.07176861430724055,-0.06755729700644547,0.5828486540808042,0.2644522940136821]},{"inputNeurons":10,"outputNeurons":3,"weights":[[0.5667131243998579,-1.1276992733616318,-0.6965701691097326],[0.19180442914380502,1.7186127380230607,-0.21240035907882537],[-1.2628716040862755,0.913068702858013,-0.4191056040596808],[0.39996256230890526,-0.8899129504423733,0.2155736777757101],[0.9439274046139965,-1.1234343721048135,-0.5847178289200854],[-0.24952245391597305,-0.7307977889585581,-0.22934468391047882],[0.7034461880144832,1.7959385622124604,0.6186078681523144],[0.7572926685190521,-1.7361771767385699,1.968839460562354],[0.44767080522373637,0.3363858750337286,1.0045799536592657],[-0.7157836391785514,-0.815949416429271,1.5511310238233524]],"biases":[0.2712401019097539,-1.0814615642875836,-0.30004244019942994]},{"inputNeurons":3,"outputNeurons":1,"weights":[[1.1962025702092656],[1.3474106927085971],[-1.3162488109422148]],"biases":[0.08223524785912875]}],"scores":{"1":2320,"2":2320,"3":5520,"4":2320,"5":2410,"6":2320,"7":2320,"8":1370,"9":2320,"10":2320,"11":2320,"12":2320,"13":2520,"14":1940,"15":2320,"16":2320,"17":2520,"18":2520,"19":2520,"20":1280,"21":2320,"22":2320,"23":2520,"24":2320,"25":2520}},{"layers":[{"inputNeurons":0,"outputNeurons":10,"weights":[],"biases":[0.021476329369999603,0.24984282228741586,-0.14038346916692127,1.480467278711212,0.08360116958424255,0.9667914286609747,0.7602669709655878,0.7758932488552609,0.33816683092063005,0.10022209898256365]},{"inputNeurons":10,"outputNeurons":3,"weights":[[-0.08186372767742654,-0.1181452624421726,-1.151839765098904],[0.7925155382590972,1.762106399616646,-0.27136726979665965],[-1.1049567923472758,0.26500075265046963,0.15306482605139426],[0.9550955338858622,-0.2758531329876956,-0.07415193040968598],[-0.40012581135819936,-0.5933644664567956,-0.4169719276330822],[-0.06050335924202423,-1.1177135529574673,-0.017259847593962076],[0.9943288834223967,1.6370803985279605,0.6759609645582897],[0.6165569080287238,-1.6551820004094786,1.9056024651282089],[0.08804670554858526,0.1609148599831917,2.3202053957857443],[-0.2852016175642372,-0.3828670202220415,1.4778048009379807]],"biases":[-0.4179508682300155,-0.5655655007890805,0.02010177903350635]},{"inputNeurons":3,"outputNeurons":1,"weights":[[1.314619081011117],[1.443844587697257],[-1.5143967908510159]],"biases":[-0.31048441348768796]}],"scores":{"1":2320,"2":2320,"3":2520,"4":2320,"5":2320,"6":2320,"7":2320,"8":2320,"9":2320,"10":3400,"11":2510,"12":2320,"13":2520,"14":2320,"15":2320,"16":2520,"17":2320,"18":2320,"19":2320,"20":2320,"21":2320,"22":2320,"23":2320,"24":2320,"25":2520}},{"layers":[{"inputNeurons":0,"outputNeurons":10,"weights":[],"biases":[0.1326179878594188,-0.4002000162832576,0.673343953578022,-0.12835349234682658,0.5243980819450957,-0.18379612194829908,-0.014234711781452608,0.18965345004654421,0.3210999935685805,0.632053945234799]},{"inputNeurons":10,"outputNeurons":3,"weights":[[0.392324133331889,-1.220488849375176,-0.5330561907460276],[1.0231653701507375,1.9895589308663835,-0.1878986402701916],[-1.2256092251543849,0.6061155636678478,-0.32616270135617387],[0.1245582862527996,-0.3540247326057573,-0.1539402897112281],[0.6499284179015937,-1.417186695620659,-0.02494547514955625],[-0.4072840573605574,-0.7004583095398778,-0.7068885317690392],[0.9174570847616204,1.664088820645434,0.8892187382308111],[0.9907322609537522,-1.4264150049545057,1.259755836463359],[0.6507196839580954,-0.16219062239985188,0.724302424346246],[-1.0524858368966925,-0.7055691074626745,1.3983903263123652]],"biases":[-0.05820394701575404,-1.0951470506002705,-0.27182234108847136]},{"inputNeurons":3,"outputNeurons":1,"weights":[[1.2114708794346707],[1.6375704157718882],[-1.308336595830135]],"biases":[0.08765869642465259]}],"scores":{"1":2320,"2":2850,"3":2320,"4":2320,"5":2720,"6":2320,"7":2640,"8":2320,"9":3050,"10":2730,"11":2520,"12":2320,"13":1310,"14":2320,"15":2320,"16":2320,"17":2320,"18":2520,"19":2320,"20":2320,"21":2320,"22":2320,"23":2320,"24":2520,"25":2320}},{"layers":[{"inputNeurons":0,"outputNeurons":10,"weights":[],"biases":[-0.020459644289441692,0.3848795181003119,0.06716183159089005,0.6598192626089598,-0.09410831919501578,0.6541322834024136,0.7737566033509196,0.3004740718405775,0.25944780606400986,-0.20855737237160588]},{"inputNeurons":10,"outputNeurons":3,"weights":[[0.0789024777115567,-0.40246809124318816,-1.0926608807116704],[0.8726249890467965,2.2518864113727703,0.2670603077937629],[-1.1726681460210617,0.5465263446403507,-0.5707295319330801],[0.8508918081533619,-0.21302492808075146,-0.3487864160992123],[-0.5582624259750041,-0.971037204844885,-0.5675494567436092],[0.061524682774410755,-1.2002834476339221,0.010030681931270033],[1.326378438805029,1.7989697909414029,0.8165598337970613],[1.1505665092098087,-1.533432848893079,1.9321825947685225],[0.06066317735004529,-0.08904888671729833,1.9432248369013891],[-0.845691886468204,-0.6872806189945986,1.5963862834813278]],"biases":[-0.35145795064310165,-0.28677732355143987,0.23267907789979314]},{"inputNeurons":3,"outputNeurons":1,"weights":[[1.7458641682533889],[1.2026209585680228],[-1.6638506333498053]],"biases":[-0.44773190264850493]}],"scores":{"1":2320,"2":2220,"3":2320,"4":2320,"5":2320,"6":2320,"7":2320,"8":2320,"9":2320,"10":2320,"11":2320,"12":2320,"13":2190,"14":2520,"15":2320,"16":2320,"17":4300,"18":2320,"19":2320,"20":3120,"21":2210,"22":2590,"23":2320,"24":1310,"25":2320}},{"layers":[{"inputNeurons":0,"outputNeurons":10,"weights":[],"biases":[0.6100922239789172,-0.1792565685205445,1.0249044880229623,0.6483522486275501,0.3673802427361868,0.2107608144750701,0.4122120323038023,-0.2448537576403131,0.006689480968010586,0.3074434486869841]},{"inputNeurons":10,"outputNeurons":3,"weights":[[0.11276184402097221,-0.7144286537186184,-1.0760144962899156],[0.7035414273897539,2.0813694510939724,-0.40362535589808135],[-1.3994221014624033,0.3814136358973499,-0.24751988455806892],[0.16320530214454917,-0.45785329453758694,-0.3133436528483496],[0.6523634175561643,-1.0270583084435876,-0.5984549111332362],[-0.5611654126975514,-0.6492678911655436,-0.3766697244268973],[0.7697023438072182,1.6019644928834624,0.6171337356952314],[1.0987443997804172,-1.4307126339213432,1.500196646810707],[0.2966827606753159,0.20888696558350395,0.945951208179692],[-0.9207260482298338,-0.2539013969125625,0.9744911335019069]],"biases":[-0.3610755612066936,-1.1511936204054212,-0.47523935913357934]},{"inputNeurons":3,"outputNeurons":1,"weights":[[1.120869932629993],[1.9986721216856698],[-1.3665363367822565]],"biases":[0.01694503499046421]}],"scores":{"1":2320,"2":2320,"3":2320,"4":2320,"5":2430,"6":2320,"7":2690,"8":2520,"9":2320,"10":2500,"11":2210,"12":3120,"13":2320,"14":2320,"15":2320,"16":2320,"17":2320,"18":2320,"19":2520,"20":2320,"21":2320,"22":2320,"23":2320,"24":2320,"25":2200}},{"layers":[{"inputNeurons":0,"outputNeurons":10,"weights":[],"biases":[-0.12611918828261967,0.27108570604752347,0.18692751952305908,0.9812231266893853,0.49265979484295647,0.7617241446695345,0.850605820339051,0.5544093087058406,0.4452971661845257,0.41873364073197694]},{"inputNeurons":10,"outputNeurons":3,"weights":[[-0.09562677426109245,-0.3214321873999267,-0.8664944439783103],[0.7123102145459227,2.0382299742807395,-0.19892086922634597],[-0.9569048492967837,0.8735121807612833,-0.4095571403744],[0.5897955430778937,-0.2674013227007977,-0.12343530072326013],[-0.5380127917238655,-0.7785305624251057,-0.5468804603026222],[0.14964615634280565,-1.3435012948721297,-0.012711581095265607],[0.51148528739081,1.8611222498598727,0.7462265652815371],[0.9973226246783428,-1.2923638283881955,1.9120744979070992],[-0.07227646698343346,0.27354874706429316,2.05327444385658],[-0.9014943032692424,-1.0579489076806448,1.3738014756269747]],"biases":[-0.7893060216370671,-0.29190876140840183,0.3939078285337808]},{"inputNeurons":3,"outputNeurons":1,"weights":[[1.3839188538175862],[1.3083076240029392],[-1.2704174636780303]],"biases":[-0.29148805645014575]}],"scores":{"1":1300,"2":2520,"3":2320,"4":2320,"5":2320,"6":2320,"7":2320,"8":2320,"9":2210,"10":3450,"11":2320,"12":2400,"13":3490,"14":2320,"15":2320,"16":2320,"17":2320,"18":2320,"19":2320,"20":2320,"21":2320,"22":2320,"23":2320,"24":2300,"25":2320}},{"layers":[{"inputNeurons":0,"outputNeurons":10,"weights":[],"biases":[-0.1870292684039204,0.31910145392361955,-0.1052575223269819,1.340625108102246,0.0981779259080374,0.6836911133755015,0.1488603442735913,0.4829083165575089,0.7184777934224391,-0.10190372364047101]},{"inputNeurons":10,"outputNeurons":3,"weights":[[0.07811075134463183,-0.7432612866781758,-0.4720068972155205],[0.41145800420700085,2.1127264533144134,-0.22535545202533092],[-1.156133220245454,0.9361858496441188,-0.2316335298889528],[-0.0081886115901455,-0.4109877020651481,-0.36605765524299483],[-0.4810175699559792,-1.3975119001331464,-0.49770566690448903],[0.07923923384789572,-1.5004069618808153,-0.44615604134177506],[0.9134850614684816,1.8846711925385329,0.6781645263822947],[0.7227919988890075,-1.8214304021241745,1.920325007231213],[0.08038294776364517,0.40274177214095264,2.136387503603218],[-0.5676277939767684,-0.8702128255810495,1.1779848121546117]],"biases":[-0.7928818398945146,-0.4754367583032863,0.2852197875542193]},{"inputNeurons":3,"outputNeurons":1,"weights":[[1.3072502939417079],[1.2686724593175558],[-1.130627285882615]],"biases":[-0.39352334517263304]}],"scores":{"1":2520,"2":2720,"3":2320,"4":2500,"5":2320,"6":2320,"7":2420,"8":2320,"9":2320,"10":2320,"11":2320,"12":2320,"13":2320,"14":2320,"15":2320,"16":2720,"17":2320,"18":2320,"19":2320,"20":2200,"21":2320,"22":2320,"23":2520,"24":2320,"25":2320}},{"layers":[{"inputNeurons":0,"outputNeurons":10,"weights":[],"biases":[-0.5149033140005997,0.44148902127914286,0.11120220304300393,1.2163596468933189,0.19096990178378978,0.8944294880198318,0.8218691955261817,0.609123603487395,0.28659435953415646,0.2838679346039754]},{"inputNeurons":10,"outputNeurons":3,"weights":[[0.14312739183448514,-0.603756978901386,-0.5908512037775937],[0.4716906270680376,1.9981689134008602,0.011052557480859981],[-1.2419868777005232,0.6885985071871374,-0.4392607336615429],[0.3803086867662536,-0.3455789167871334,-0.23281238966013235],[-0.2728475560677355,-1.3066637741264486,-0.48971862136963656],[0.0051008265196713365,-1.4110742966521874,-0.01806688671484849],[1.0661917396752818,1.7239468461227316,0.6118344542463794],[0.7177171093308757,-1.7707815810177794,1.465972422183217],[0.0902122107774839,0.2031018179159816,1.8977246618321546],[-0.9891414759211313,-0.9740813517500007,1.4744413904015594]],"biases":[-0.2912492691821923,-0.40353968134090223,0.40988137305910993]},{"inputNeurons":3,"outputNeurons":1,"weights":[[1.369779326764588],[1.5902313154261893],[-1.6885433266779741]],"biases":[-0.17546997131036776]}],"scores":{"1":2320,"2":3010,"3":2320,"4":2320,"5":2320,"6":1940,"7":2320,"8":2830,"9":2320,"10":2320,"11":2320,"12":2320,"13":2320,"14":2320,"15":2320,"16":2320,"17":2320,"18":2320,"19":2770,"20":2320,"21":2320,"22":2320,"23":2320,"24":2320,"25":2320}},{"layers":[{"inputNeurons":0,"outputNeurons":10,"weights":[],"biases":[-0.42547186063114106,0.4548993978143303,0.47330299980049717,1.2408522163227276,0.40225250516316585,0.681444895700439,0.9598075889990458,0.4944273367080301,0.4397169700593675,0.2539902462054344]},{"inputNeurons":10,"outputNeurons":3,"weights":[[-0.4668181767496659,-0.26214939602835785,-0.7153630488160271],[0.699926513641593,2.1593603355184223,0.13760782695150495],[-1.1980334589505837,0.5524814211095659,-0.3121872971129714],[0.43314737177646767,-0.40867910648600253,-0.058855544813646576],[-0.8174844960288158,-1.096431003275875,-0.6385120259987259],[-0.03172259733862104,-1.5846758491264814,0.034556339849568074],[1.1341336015562862,1.6456373757504874,0.5136879314591039],[0.6455295139552801,-1.342441975877115,1.8635239511725776],[-0.1006595537435522,0.16250313064189081,1.9859818536999838],[-0.6292143069621321,-1.1041938000429496,0.8721011139352233]],"biases":[-0.8593452536527804,-0.3663691909248177,0.6725440104884101]},{"inputNeurons":3,"outputNeurons":1,"weights":[[1.4020964083265326],[1.2235810876316326],[-1.3994168750609233]],"biases":[-0.11849962274979657]}],"scores":{"1":2210,"2":3920,"3":2520,"4":2520,"5":2320,"6":2320,"7":2320,"8":2320,"9":2320,"10":2320,"11":2320,"12":2770,"13":2320,"14":2520,"15":2920,"16":1300,"17":2320,"18":2320,"19":2520,"20":1300,"21":2210,"22":2320,"23":2320,"24":2320,"25":2320}},{"layers":[{"inputNeurons":0,"outputNeurons":10,"weights":[],"biases":[0.6779752426515868,-0.18682150986818347,0.797930065921528,0.4931256101171997,0.4156739093846009,-0.4247673910192687,0.11313037373220512,-0.2911350007663282,0.42899374567262794,0.46461722157391283]},{"inputNeurons":10,"outputNeurons":3,"weights":[[0.07407167537222814,-1.2384027779448012,-0.8809003642924468],[0.4648322222134789,2.1064086865486087,-0.18366181099908147],[-1.0751212799980792,0.2979164123228511,-0.06301933520103742],[-0.01945038587194875,-0.6219355236056725,-0.02479914333310157],[0.914843890730799,-0.9248398619302571,-0.7886574093489594],[-0.6752187494542724,-0.32890529318160233,-0.33355853288401927],[0.7424890072938188,1.7795035049559607,0.5868594167463186],[0.7693149872991081,-1.7843236108535627,1.1729469007374218],[0.463684011121586,0.24473730421356263,0.9161715116596877],[-0.7731626974419785,-0.7939745289313962,1.3437914287038746]],"biases":[-0.1491255590734513,-1.2990311499270069,-0.10680154015173757]},{"inputNeurons":3,"outputNeurons":1,"weights":[[0.733695555836738],[1.5005362260916542],[-1.0206713496354316]],"biases":[0.3064947709548642]}],"scores":{"1":2320,"2":2500,"3":2320,"4":2320,"5":2320,"6":2320,"7":1300,"8":2210,"9":2650,"10":2320,"11":2320,"12":2210,"13":2560,"14":3850,"15":2890,"16":1300,"17":2320,"18":2520,"19":2320,"20":2520,"21":1940,"22":2200,"23":2320,"24":2520,"25":2520}},{"layers":[{"inputNeurons":0,"outputNeurons":10,"weights":[],"biases":[-0.2764271816403666,0.7544612914930278,0.5491140931052697,1.0070075696627292,0.566824802124438,0.8095126858156386,0.4479261202676583,0.5827130407796055,0.45647801120592757,0.34719715170929233]},{"inputNeurons":10,"outputNeurons":3,"weights":[[0.11941114520257837,-0.39360826087857015,-0.9958743826142216],[0.9129500780076154,1.7700247282654875,-0.043337216180574165],[-1.3800872908948265,0.6528983175886924,-0.49993686122060865],[0.4413903008581071,-0.08446281820357959,0.020150625825094748],[-0.21099307445866,-0.850771113312769,-0.6553248281680406],[-0.006450300093548966,-1.2022879650405176,-0.05459269149853817],[0.8140476939039096,2.084961979852717,0.9274078879473958],[0.8234277080325412,-1.7933362739713992,1.9035949452625425],[0.10516340013938502,-0.024415655348011656,2.532112783776823],[-1.1552681785870298,-0.8051605356894679,1.3874007759993374]],"biases":[-0.9797301987059575,-0.37103277806400675,0.4976833652323443]},{"inputNeurons":3,"outputNeurons":1,"weights":[[1.6092421559596342],[1.3141669003012195],[-1.6876827309385665]],"biases":[-0.10024288016446856]}],"scores":{"1":2320,"2":2320,"3":2320,"4":2320,"5":2320,"6":2320,"7":2320,"8":1300,"9":1300,"10":2200,"11":2520,"12":2320,"13":2600,"14":2320,"15":2320,"16":2320,"17":2320,"18":2320,"19":3720,"20":3450,"21":2320,"22":2320,"23":2320,"24":2320,"25":2320}},{"layers":[{"inputNeurons":0,"outputNeurons":10,"weights":[],"biases":[0.5331018550563329,-0.44332438095196464,0.7598752874308652,0.47561670936920925,0.34535803808637516,-0.5887910348512275,-0.13179303991117333,-0.36639761298690804,0.43471835109894996,0.28880687739271227]},{"inputNeurons":10,"outputNeurons":3,"weights":[[0.28329126676565,-0.858687891243901,-0.7715107119516232],[0.7376500832431486,1.9976444648049816,-0.2634318644395019],[-1.5568779024771204,0.530033918695759,-0.19408403423021892],[-0.18942863071939792,-0.4327232200434934,0.1802676335811948],[0.8729175869386704,-1.45229289647936,-0.5098091819064486],[-0.790849314074622,-0.7900958355870138,-0.5283150812451529],[0.8173698117731951,1.6182044517110437,0.3447486607362151],[0.8412275839913549,-1.8800916103804002,1.0991799251623382],[0.6370642387017839,0.15499449356989775,0.8914800325748153],[-0.9036480206352818,-0.5896902886650581,1.6622646561218783]],"biases":[-0.14882597994966756,-1.1541214604672394,-0.02133295274836934]},{"inputNeurons":3,"outputNeurons":1,"weights":[[1.064704494403579],[1.7986778390554186],[-1.7406283378893324]],"biases":[0.1836953132745494]}],"scores":{"1":2320,"2":2320,"3":2690,"4":2320,"5":2320,"6":2520,"7":1300,"8":2320,"9":2320,"10":2320,"11":3920,"12":2520,"13":2320,"14":2520,"15":2320,"16":2320,"17":1290,"18":2320,"19":2320,"20":2520,"21":2320,"22":2320,"23":2320,"24":2320,"25":2320}},{"layers":[{"inputNeurons":0,"outputNeurons":10,"weights":[],"biases":[-0.22060811035681804,0.2323648551930404,0.28363977495241044,1.199696169393635,0.5409317300821328,0.6475374707028981,0.3529804649106844,0.9678434041708155,0.5282402135101936,0.10156782155042277]},{"inputNeurons":10,"outputNeurons":3,"weights":[[-0.3548823507736856,-0.09243913942117432,-1.2986299083642703],[0.5117017609335419,1.9129066253964682,-0.42394633202644516],[-1.2026955378850956,0.5338893448489344,-0.5245341088467745],[0.5929146292452213,-0.15665076662899996,-0.23605894584431186],[-0.32178890496974233,-0.5367903928847149,-0.7592914738483818],[0.18553824223744134,-1.1673290551777649,0.00870478754021485],[1.1425206971429545,1.735565168344889,0.5317893939515621],[0.9596759583701053,-1.7129292794919206,1.5675276495065777],[0.06176614736324089,-0.015207111359344327,2.1171224496923804],[-0.6659554284326543,-0.8196616522256551,1.3716408191672216]],"biases":[-0.6210698482688563,-0.529626305699068,0.47003290777758555]},{"inputNeurons":3,"outputNeurons":1,"weights":[[1.2980584210879045],[1.4862005021196507],[-1.4435392951189037]],"biases":[0.16128336789663583]}],"scores":{"1":2360,"2":2320,"3":2320,"4":2320,"5":2320,"6":2320,"7":2320,"8":2320,"9":2320,"10":2320,"11":1300,"12":2410,"13":2320,"14":2320,"15":2320,"16":2320,"17":2320,"18":2320,"19":2520,"20":2270,"21":2320,"22":2320,"23":2320,"24":3500,"25":2320}},{"layers":[{"inputNeurons":0,"outputNeurons":10,"weights":[],"biases":[-0.17266638394070494,0.3656257331935139,-0.05829738302801313,1.0864367926820433,0.3061619819316911,0.9150764341959934,0.48849719437201916,0.610220669059973,0.19484762908693448,0.40126251238864014]},{"inputNeurons":10,"outputNeurons":3,"weights":[[-0.008232128934668674,-0.45174936081491845,-0.608088167655843],[0.10143459724294679,1.993968719498526,-0.29418483030701503],[-1.1165535765583656,0.6401092619995993,-0.19055284799869648],[0.4845852337562232,-0.3018672171860396,-0.21168964191430067],[-0.3438159242419685,-1.1847454195549683,-0.6418993207281122],[0.0272631556128778,-1.1484508054631206,0.103862655293882],[0.9357728970855836,1.5741972362047343,0.5869337692183465],[0.8249181124635574,-1.7313035525952234,1.284415669890959],[-0.3096730283458704,0.42433452591176846,2.3979809429799777],[-0.6383973857902032,-1.2125667378668512,1.399887842446182]],"biases":[-0.8827811281246498,-0.7092992526889008,0.3537931782178047]},{"inputNeurons":3,"outputNeurons":1,"weights":[[1.3444171734426609],[1.43117893732193],[-1.0847647525309478]],"biases":[-0.1375021948809842]}],"scores":{"1":2220,"2":2210,"3":2520,"4":2320,"5":2320,"6":2320,"7":2320,"8":2320,"9":2210,"10":2320,"11":2430,"12":2320,"13":2320,"14":2320,"15":2320,"16":2370,"17":2500,"18":2320,"19":2320,"20":2320,"21":2520,"22":2320,"23":2320,"24":2320,"25":2320}},{"layers":[{"inputNeurons":0,"outputNeurons":10,"weights":[],"biases":[0.7960547671092679,-0.3662133864677443,0.6418457498518417,0.07469208381894654,0.791684885438223,-0.39944640420685823,0.15213222583199582,0.10687135388675159,0.2735308326162925,0.557523786879336]},{"inputNeurons":10,"outputNeurons":3,"weights":[[0.13246818655883894,-0.8098065660308256,-0.7948181919217678],[0.9860841126537887,2.0987892415415907,-0.3751190200443242],[-1.6528443900083492,0.41623153897757476,-0.23010462909203902],[0.26937956013189024,-0.47754336994971525,-0.05812559992024338],[0.7925359286652023,-1.2699468748123932,-0.16899306212145432],[-0.386575956120013,-0.49786937338660253,-0.2482180223934726],[0.7652191132266206,2.004608760096452,0.8111557770437441],[0.3736794750016147,-1.7889665109314086,1.4958157577524946],[0.6582863710384539,-0.007946055652652884,1.1450303297454671],[-0.8626311443418028,-0.6834960351514833,1.2770491021864634]],"biases":[-0.2769773014855274,-1.7936277487691346,-0.14496241161306883]},{"inputNeurons":3,"outputNeurons":1,"weights":[[0.8589355945328887],[1.2510794910493677],[-1.45619826247865]],"biases":[-0.02964380614160908]}],"scores":{"1":2320,"2":2320,"3":3120,"4":2320,"5":2320,"6":2320,"7":2320,"8":2320,"9":2320,"10":2320,"11":2320,"12":2320,"13":2320,"14":2320,"15":2320,"16":2320,"17":2920,"18":2320,"19":2320,"20":2320,"21":2320,"22":1300,"23":2320,"24":2320,"25":2320}},{"layers":[{"inputNeurons":0,"outputNeurons":10,"weights":[],"biases":[0.774156938847585,-0.5114155820389515,0.56071290545154,0.3557576281605153,0.2787062224774275,-0.26034208237224293,0.5074611421032539,0.16272702259777477,0.31310652180683624,0.5671107131527685]},{"inputNeurons":10,"outputNeurons":3,"weights":[[0.021399909056382296,-1.0368985210130288,-1.2856585406155734],[0.9363444816717408,2.1866782383018304,-0.21232640281553938],[-1.2453503583019037,0.34075624414749095,-0.27687638167079925],[0.5244709623188111,-0.16366347638684786,-0.10104739653717357],[0.6839019160549289,-0.9285122829076784,-0.607569504194175],[-0.4771048745117377,-0.5385670680516909,0.05482017749881457],[0.78160424061328,1.8710171319787916,0.7697295378909246],[0.9685720271247855,-1.5899625713576948,1.2057155102101],[0.5441569229983478,0.2641909737013909,0.8963921513310998],[-0.5520082192768908,-0.4143033560133485,1.2614648252473444]],"biases":[-0.30161075069393495,-1.1274918216761565,-0.26762832542479803]},{"inputNeurons":3,"outputNeurons":1,"weights":[[1.14057921976609],[1.4767289359700988],[-1.0815664240344334]],"biases":[-0.5835637256227311]}],"scores":{"1":2320,"2":2200,"3":2320,"4":2320,"5":2320,"6":2320,"7":2520,"8":2920,"9":2320,"10":1300,"11":2600,"12":2320,"13":2320,"14":2320,"15":2320,"16":2320,"17":2320,"18":2440,"19":2320,"20":2320,"21":2320,"22":2320,"23":2320,"24":2500,"25":2320}},{"layers":[{"inputNeurons":0,"outputNeurons":10,"weights":[],"biases":[0.22466320818501034,-0.43407964399325016,0.5039647946649854,0.31425166324808057,0.3805782179044383,-0.5704626340074066,0.28130219653093325,0.30408808192518355,-0.1758308953387101,0.8998202525099959]},{"inputNeurons":10,"outputNeurons":3,"weights":[[-0.022308281182307682,-0.9246675314578141,-1.0507144905671195],[0.6277176493728295,1.7484589970630298,-0.05572595266054492],[-1.1925627258829339,0.5484783265202959,-0.20183461441461728],[0.19693068984146006,-0.4722250689541991,0.2664700170170796],[0.7354956023697848,-1.3031528834443522,-0.8792224551549352],[-0.3887971360319118,-0.3952880376092599,-0.07468999393671649],[0.9019029545127463,1.7470602133896582,0.5383009834351679],[0.7275984255531587,-1.6143427388847023,1.2168375890926038],[0.950186878973811,0.32619520616679254,0.9882271897161696],[-0.814416400560808,-0.7799535515954409,1.5212070262128343]],"biases":[0.042133566654814825,-1.371189822523384,-0.5010881553724587]},{"inputNeurons":3,"outputNeurons":1,"weights":[[0.9881756227936237],[1.62527096880726],[-1.2594401020771606]],"biases":[0.41896897596779786]}],"scores":{"1":2320,"2":2320,"3":2320,"4":2320,"5":2320,"6":2320,"7":2320,"8":2320,"9":2320,"10":2320,"11":2320,"12":2320,"13":2320,"14":2320,"15":2320,"16":2320,"17":2320,"18":2320,"19":2500,"20":2320,"21":2320,"22":2320,"23":2380,"24":2320,"25":2320}},{"layers":[{"inputNeurons":0,"outputNeurons":10,"weights":[],"biases":[0.70696157892666,-0.4078409368670437,0.5157866463647024,0.12204939967917267,0.7294831654127205,-0.8882609663447208,0.18258657316026822,0.027727084464760618,-0.02039321950361822,0.5335293728611755]},{"inputNeurons":10,"outputNeurons":3,"weights":[[0.09380121566910168,-1.056574038066563,-0.5870023129786069],[0.903601929465823,1.5586798973806695,-0.5224222580622425],[-1.4632124556286714,0.45524356278455436,-0.44731085827621164],[0.24628028109615285,-0.2964517407580772,0.20553136980669454],[0.9735978543226913,-0.9754505279742753,-0.518106346290171],[-0.4060119638419356,-0.16193135565689198,-0.30256255066661963],[0.7549453476065059,1.9350055251280567,0.7178833677126395],[0.7491828826499157,-1.4494328472012534,1.037204951161099],[0.7073915331675972,-0.14453987767807214,0.6397139432833916],[-0.49631046198795514,-0.19132679805457675,1.6030261354898268]],"biases":[-0.1327684221276177,-0.8262548853308274,-0.1969975646282816]},{"inputNeurons":3,"outputNeurons":1,"weights":[[1.2037438865715637],[1.467368769112227],[-1.2546711094288305]],"biases":[-0.1057056072163666]}],"scores":{"1":2520,"2":2520,"3":2810,"4":2320,"5":2320,"6":2520,"7":2320,"8":2320,"9":2320,"10":2320,"11":2320,"12":1310,"13":2320,"14":2320,"15":2320,"16":2320,"17":2320,"18":2320,"19":2320,"20":2320,"21":2320,"22":2320,"23":2320,"24":2320,"25":2320}},{"layers":[{"inputNeurons":0,"outputNeurons":10,"weights":[],"biases":[0.1305395626446535,0.21958629861815615,0.2202661819495118,1.127492458408684,0.16021201078661695,0.987438257136773,0.8315224386368504,0.928046462859941,0.4694737404869875,0.19780695215525235]},{"inputNeurons":10,"outputNeurons":3,"weights":[[0.19937757280332336,-0.35345075830616896,-1.062095772170806],[0.8868377090786093,2.1393578889357223,-0.3598016755445309],[-1.2365407966740147,0.6066386081997992,-0.39072478314324466],[0.5735797753105368,-0.4225213168172937,-0.3466039674323743],[-0.38728766721798286,-0.867865825342021,-0.4727246114078166],[0.2627924931534977,-1.40928967493064,0.12403727575577089],[1.308345132636562,1.8836739925541166,0.7707330051278232],[0.49160887949562154,-1.776728189117448,1.638450516740996],[0.10038647822011096,0.276408143348064,2.021029160177554],[-0.8137315886602925,-1.3405586482514051,1.3375033881609342]],"biases":[-0.680913764418813,-0.5591386003287885,0.5442718193448199]},{"inputNeurons":3,"outputNeurons":1,"weights":[[1.5603815832238128],[1.4666159700782333],[-1.3950460294770126]],"biases":[-0.2903937836998566]}],"scores":{"1":2320,"2":2320,"3":2320,"4":2340,"5":2320,"6":2320,"7":2320,"8":2200,"9":2320,"10":2320,"11":2320,"12":2220,"13":2320,"14":2320,"15":2320,"16":2520,"17":2320,"18":2320,"19":2190,"20":2320,"21":2520,"22":2320,"23":2320,"24":2320,"25":2320}},{"layers":[{"inputNeurons":0,"outputNeurons":10,"weights":[],"biases":[0.6221479547266819,-0.15272695726541308,0.4260723429310579,0.3388991827072645,0.24135208818624848,-0.13835212466752528,0.1839234597791054,-0.005709136912962197,0.7928950179050351,0.4405775582417055]},{"inputNeurons":10,"outputNeurons":3,"weights":[[0.15075060968996165,-0.9875350712432855,-0.6774392546808927],[0.35020507520581634,2.0460940412385145,-0.4223981314698073],[-1.4009271200672788,0.42443290709621634,0.10447704301208832],[0.16720607120964928,-0.29135665299078173,-0.07674963661280187],[0.5611451969194529,-0.984676532918247,-0.5368668051575812],[0.12615388988520737,-0.49449028003332685,-0.2681046793527936],[1.0013021944784632,1.7852241375070406,0.6906812804194293],[1.1030826159125025,-1.6713432018036265,1.445553029693533],[0.28910817124912425,0.23902081894386046,0.9704056072703712],[-1.2650222338667454,-0.6565131552010843,1.558745264561405]],"biases":[-0.2311856456735606,-0.8622336158702042,-0.358709154914663]},{"inputNeurons":3,"outputNeurons":1,"weights":[[1.2685999090531332],[1.5692275027756635],[-1.1697584793743525]],"biases":[-0.042494954285492964]}],"scores":{"1":2320,"2":2420,"3":2690,"4":2320,"5":2320,"6":2320,"7":2320,"8":2320,"9":1310,"10":2210,"11":2500,"12":2770,"13":2320,"14":2320,"15":2740,"16":2320,"17":2520,"18":2320,"19":2320,"20":1280,"21":2320,"22":2320,"23":2320,"24":2520,"25":2520}},{"layers":[{"inputNeurons":0,"outputNeurons":10,"weights":[],"biases":[0.8549824071550143,-0.35600078282574404,1.0258537133131052,0.28778226910777943,0.45463377420392026,-0.6641739918716929,0.4087335935666533,-0.0025803730191377057,0.229456959578862,0.3155041090827862]},{"inputNeurons":10,"outputNeurons":3,"weights":[[-0.009329254792587477,-0.9633856720874209,-0.7580226570639459],[0.673764422724596,1.7206911169601569,-0.7384071955155878],[-1.3835845065041246,0.14435146239888352,-0.6373427924408779],[-0.1076936917417888,-0.5618121649573063,0.16205322024613944],[0.5111992372761149,-1.0034786140223324,-0.43492564921444443],[-0.5644098494265193,-0.5145977970857182,-0.13907181276667993],[1.0416715105682957,1.6175092998643457,0.6718444141416666],[0.8444620628731524,-1.7853670912858866,1.5511149975715832],[0.5797565264706347,0.019818503515644875,0.8588249706132752],[-1.010255397763364,-0.7554197548552715,1.611651776614669]],"biases":[-0.06620107151968674,-1.1316061842032727,-0.2132059936731035]},{"inputNeurons":3,"outputNeurons":1,"weights":[[1.2102236555415562],[1.3827929745850653],[-1.2342492936225853]],"biases":[0.006248258550986062]}],"scores":{"1":3120,"2":2520,"3":2320,"4":2320,"5":2320,"6":2520,"7":2320,"8":2320,"9":2320,"10":2320,"11":2520,"12":1300,"13":2520,"14":2320,"15":2320,"16":2320,"17":1940,"18":2320,"19":2520,"20":2320,"21":2500,"22":1300,"23":2620,"24":2320,"25":2320}},{"layers":[{"inputNeurons":0,"outputNeurons":10,"weights":[],"biases":[0.7155977683993512,-0.17652125701883084,0.5739554947956869,0.6213868938047957,0.782961146153559,-0.6603556179496154,-0.1833263724811268,-0.13609784266403602,0.1586914972621196,0.5430997544051042]},{"inputNeurons":10,"outputNeurons":3,"weights":[[0.08350876816276817,-1.26416165165187,-0.6151375492906472],[0.8071746993238859,2.099134529130886,-0.3772959606015974],[-1.2382379787695206,0.5168003919462538,-0.2068199693975839],[0.4066289004220528,-0.40051809181758163,0.10033189413853198],[0.7372991701846278,-1.4054126569963212,-0.7120488313451183],[-0.45265650075526803,-0.7262936065057966,-0.06481170513434117],[0.7447344389074977,1.5663192463289233,0.24474837039920566],[0.582654825348891,-1.4120552651156262,1.2837924966786436],[0.866665679783688,0.4904324434497948,1.158132128827925],[-0.7573975577247685,-0.6569172321084961,1.5849419486916236]],"biases":[-0.17531226019089774,-1.5711471870705194,-0.3868037836226196]},{"inputNeurons":3,"outputNeurons":1,"weights":[[0.8915773887104961],[1.641762634552739],[-1.307481610593226]],"biases":[0.1125874005121747]}],"scores":{"1":2320,"2":2320,"3":2320,"4":2320,"5":2320,"6":2320,"7":2320,"8":2320,"9":2320,"10":2320,"11":2320,"12":2520,"13":2520,"14":2500,"15":2320,"16":2320,"17":2320,"18":2320,"19":2320,"20":2520,"21":2320,"22":2320,"23":2320,"24":1300,"25":2200}},{"layers":[{"inputNeurons":0,"outputNeurons":10,"weights":[],"biases":[-0.14879850610018924,0.7108588079079481,-0.03833870550359364,1.407011817012922,0.09592315482446642,0.9110226640368292,0.8988367254413854,0.8231213340293441,0.34983965979089615,0.31672734283848025]},{"inputNeurons":10,"outputNeurons":3,"weights":[[-0.1622218427063009,-0.5767267496701328,-0.6693801240527089],[0.8262726293140277,2.103273656446118,-0.10498831735661387],[-1.1309481395966585,0.5447222799847112,-0.5505458380689381],[0.4421592834360663,-0.22947886766029574,-0.3949759254995336],[0.07466477106793518,-1.026958511793256,-0.47433473999383857],[-0.23828666505731672,-1.290950056630242,0.20198239130006201],[0.9683870152469881,1.6755119712365187,0.7890258689744923],[0.6193616200999013,-1.7639137566535383,1.6705808793264347],[-0.06303655424848731,0.26396645104026717,1.732825626890253],[-1.014512808343715,-0.7646499811237571,1.1499552092258492]],"biases":[-0.8088630277323854,-0.5248108471140043,0.2520484893294696]},{"inputNeurons":3,"outputNeurons":1,"weights":[[1.503863272998081],[1.397404995840476],[-1.243881502740908]],"biases":[-0.31293912499169796]}],"scores":{"1":2320,"2":2320,"3":2520,"4":2320,"5":2320,"6":1300,"7":2320,"8":2320,"9":2320,"10":2320,"11":2720,"12":2300,"13":2320,"14":2200,"15":2320,"16":3100,"17":2320,"18":2320,"19":2520,"20":1300,"21":2320,"22":2320,"23":2320,"24":2520,"25":2320}},{"layers":[{"inputNeurons":0,"outputNeurons":10,"weights":[],"biases":[0.3220127167152205,-0.6984339332503899,0.4966280486380201,0.2735065489734459,0.5264476281919934,-0.4210485519087653,0.33872932101846237,-0.09888648744946854,0.3901954425289489,0.30905316501601937]},{"inputNeurons":10,"outputNeurons":3,"weights":[[0.07231554973312283,-1.2504267524253523,-0.8986298531667847],[0.8489529731264964,2.088621073685515,-0.4583945732875211],[-1.466702114863319,0.4025393586485293,0.047932805067583406],[-0.0893752595627188,-0.7280743041757962,0.04688794961474351],[0.8911053441656941,-1.3113637719572417,-0.6385048641700635],[-0.6585372164349509,-0.2662166178705243,-0.24156800788499533],[0.734720697303851,1.6883615858581036,0.7493500835567286],[1.1459555633084393,-1.7839050826567344,1.6280059035913172],[0.5601807292068848,0.12865781827315687,1.0243640993189758],[-1.0682517167860923,-0.6117356433014094,1.436493505139243]],"biases":[-0.06781537501448086,-0.9969520732233751,-0.4190797569491281]},{"inputNeurons":3,"outputNeurons":1,"weights":[[1.054320925973974],[1.3017203479278383],[-1.2354339890577837]],"biases":[-0.3251300692079871]}],"scores":{"1":2210,"2":2500,"3":1300,"4":2520,"5":2520,"6":2320,"7":3520,"8":2320,"9":2520,"10":2320,"11":2320,"12":2320,"13":2320,"14":2320,"15":2520,"16":2500,"17":2320,"18":2320,"19":1300,"20":2520,"21":1300,"22":2320,"23":2520,"24":2320,"25":2320}},{"layers":[{"inputNeurons":0,"outputNeurons":10,"weights":[],"biases":[0.3741230265219945,-0.6111184535758069,0.6560217969808528,0.44877064651666954,0.7905251920543701,-0.5480269312949345,0.06459237176546895,-0.05480208213959583,0.16081999972953556,0.5001858091303639]},{"inputNeurons":10,"outputNeurons":3,"weights":[[-0.10846119586403277,-1.1011431438178887,-0.6709749933873346],[0.8724301538142323,1.9855707695337437,-0.012196782500948744],[-1.047874318548899,0.6267232565189955,-0.4748798299422942],[0.23808646916047937,-0.47013317286856804,-0.021997099828363467],[0.8517586564640043,-1.259934271091475,-0.39655897154378916],[-0.5091160157256791,-0.7426589782849689,-0.47453974475742333],[0.8973444180285384,1.6328334135405111,0.40253955240247163],[1.1602613368561492,-1.4290488041865608,1.3137628793831087],[1.0412067532179115,0.19353951171651881,0.7349555847840689],[-0.7426235096349556,-0.6334231747908827,1.6922989843703857]],"biases":[0.16878287247110085,-1.0567077871818955,-0.30707681252565633]},{"inputNeurons":3,"outputNeurons":1,"weights":[[1.018216182391112],[1.73168831708602],[-1.3827348928354963]],"biases":[-0.011387907319117097]}],"scores":{"1":2320,"2":2320,"3":2320,"4":1300,"5":2320,"6":2320,"7":2320,"8":2320,"9":2320,"10":2320,"11":2320,"12":2320,"13":2320,"14":2320,"15":2320,"16":2320,"17":2320,"18":2210,"19":2320,"20":2220,"21":2320,"22":2320,"23":2320,"24":2650,"25":2320}},{"layers":[{"inputNeurons":0,"outputNeurons":10,"weights":[],"biases":[-0.09663067893646471,0.34213709854019386,-0.1478912412887927,1.0304864206927578,0.11598309314795768,0.7573613079866806,0.819780689241337,0.9049299062014504,0.6591607196894753,-0.02230066822542759]},{"inputNeurons":10,"outputNeurons":3,"weights":[[0.08606319301634799,-0.2984333918049693,-0.5705761782532437],[0.6165337651064193,1.9062729837889643,-0.10514860963112675],[-0.911619939209693,0.7828724125108772,-0.7246728197578138],[0.19401157883406317,-0.16796759496978733,-0.4307087989410228],[-0.3764505737320688,-0.9047767183382592,-0.5475044632491783],[0.2602243236312455,-1.3967708001846275,-0.13457403219714914],[0.94478280031506,1.5713718496701432,0.785345824579543],[0.6017541836965654,-1.5948161174637585,1.8458598911294994],[0.06304862040876001,0.4254025961524616,2.0790658993795716],[-0.4678829142657541,-0.8144822349901178,1.4790525801990309]],"biases":[-0.596971752778945,-0.6128779615545575,0.2698860186897779]},{"inputNeurons":3,"outputNeurons":1,"weights":[[1.589214619399451],[1.3020493543500198],[-1.4427131235284363]],"biases":[0.08346176803101085]}],"scores":{"1":2340,"2":2340,"3":2340,"4":2390,"5":1570,"6":2340,"7":1820,"8":1570,"9":2370,"10":1300,"11":1570,"12":2340,"13":2340,"14":1930,"15":1310,"16":2340,"17":1570,"18":3030,"19":2340,"20":1970,"21":1300,"22":2360,"23":2340,"24":1760,"25":1980}},{"layers":[{"inputNeurons":0,"outputNeurons":10,"weights":[],"biases":[-0.22788528949921646,0.5750593593887021,0.060923329268106376,0.9631309035490321,0.5151712844423788,0.8092592696480666,0.5603083839042602,0.7393758991747548,0.6022913130088429,0.13727413576182254]},{"inputNeurons":10,"outputNeurons":3,"weights":[[0.05630967850462399,-0.5109982418299588,-0.8114340848312722],[0.5373885439518258,1.8737302965844826,-0.4075061099717191],[-1.2089908929217594,0.6661218875805626,-0.17418546305861266],[0.7232674106759127,-0.4502756266483615,-0.17651030675560425],[-0.29734089988046564,-0.9421473544559209,-0.3166350377994807],[-0.015370404755747885,-1.088666713613097,-0.05849926783663124],[1.2344423412664298,2.060905632624186,0.7020111686328101],[0.7755608666484458,-1.7125678724859608,1.7202963089652081],[0.3046732841356298,0.13442707676273852,2.2413115861301374],[-0.5285871732293423,-0.3839127103860469,1.646634998415312]],"biases":[-0.5017399011461101,-0.6516399211712463,0.41519152711899276]},{"inputNeurons":3,"outputNeurons":1,"weights":[[1.3097969826138918],[1.0647080259813246],[-1.4562559917025675]],"biases":[-0.06862816628291817]}],"scores":{"1":1740,"2":1860,"3":2880,"4":1680,"5":2660,"6":1620,"7":1580,"8":1900,"9":1740,"10":1260,"11":1240,"12":1600,"13":1680,"14":2580,"15":1600,"16":1320,"17":1880,"18":1630,"19":1530,"20":1680,"21":1250,"22":1790,"23":2650,"24":1870,"25":1600}},{"layers":[{"inputNeurons":0,"outputNeurons":10,"weights":[],"biases":[0.37334875291156366,-0.3077947781489152,0.41594026092758474,0.13157466410669919,0.3146756887820604,-0.5141149418900622,0.3863780070343791,-0.1412264712046255,0.3272174317157934,0.5459846332424997]},{"inputNeurons":10,"outputNeurons":3,"weights":[[0.11594017845654782,-1.0769696656988474,-0.7674769420077899],[0.8426859320809748,1.874466668638322,-0.03223016564893294],[-1.6125523188328859,0.2875415268799232,-0.3518360642243458],[0.3708513167147104,-0.509121440134595,-0.0309966361271128],[0.8295515371536334,-1.2720869993194326,-0.45481729566983603],[-0.34967718824026484,-0.7815216503966256,-0.5046014374482927],[0.8063476475812628,1.4530195195336728,0.8035047071500169],[0.755750955922674,-1.4670314890026213,1.358187363285843],[1.124642471381165,0.23084489812607095,0.6790492194055429],[-0.7807760229217804,-1.130890816508492,1.6507239627644064]],"biases":[-0.08176148802420619,-1.13081570113632,-0.15179112305046075]},{"inputNeurons":3,"outputNeurons":1,"weights":[[0.7025115151024733],[1.4327659608648955],[-0.8557921898505141]],"biases":[0.14139369765163579]}],"scores":{"1":3720,"2":1340,"3":1760,"4":2060,"5":1840,"6":1450,"7":1680,"8":1670,"9":1840,"10":1840,"11":1660,"12":1760,"13":1620,"14":1680,"15":1550,"16":1810,"17":1450,"18":900,"19":1840,"20":1840,"21":2040,"22":1460,"23":1560,"24":1640,"25":1900}},{"layers":[{"inputNeurons":0,"outputNeurons":10,"weights":[],"biases":[0.41415146032607997,-0.4272128520558267,0.5572889119822421,0.32138733496794136,0.4137502529435114,-0.3252239396270561,0.4492769822715238,0.15339925085859968,0.08999952927158608,1.0442691947277967]},{"inputNeurons":10,"outputNeurons":3,"weights":[[0.20782036582411,-1.1023500227251628,-0.9806896190640357],[0.7677453379664461,1.861039004175412,-0.3708042601404083],[-1.4721451158077252,0.63071712646483,-0.4982493150309266],[0.05115185403888815,-0.4744034201219143,0.17290085439832442],[0.7487656986949106,-0.9588072750436816,-0.4085351166699178],[-0.44396289335341854,-0.5829555785793619,-0.1558330070832158],[0.5667029529345613,1.6147112741116867,0.6958799267643645],[0.4649146939422693,-1.481132712198546,1.3909501153013548],[0.563349503882496,0.04324596222754934,0.8080705879897513],[-0.6824790572202748,-1.2713920884829895,1.3380260324482156]],"biases":[-0.07263757824957463,-1.4252364764465977,-0.19456506082942626]},{"inputNeurons":3,"outputNeurons":1,"weights":[[1.2608849503649617],[1.320522055747666],[-1.3584120859387299]],"biases":[0.017638488050372776]}],"scores":{"1":1690,"2":1690,"3":1690,"4":1690,"5":1690,"6":2000,"7":1690,"8":1320,"9":1260,"10":1320,"11":2520,"12":1690,"13":1690,"14":1690,"15":1690,"16":1690,"17":1690,"18":1690,"19":1690,"20":1690,"21":1690,"22":1690,"23":1890,"24":2320,"25":1320}},{"layers":[{"inputNeurons":0,"outputNeurons":10,"weights":[],"biases":[0.08568636377275257,0.7026548875821645,0.45510799972087645,1.0081179378881044,-0.1278195318129362,0.863774840174971,0.44054433758467354,0.9485365643667331,0.444988494100682,0.04331157774895131]},{"inputNeurons":10,"outputNeurons":3,"weights":[[-0.23057136098228942,-0.41867364753489683,-0.6915044750190967],[1.0348204886091468,1.9798060812381104,-0.20780939962488035],[-0.8984044099375219,0.7970997272190479,-0.19323802923213101],[0.9030758657957091,-0.06995089345335434,-0.07858608761006292],[-0.6346479395860962,-1.365669890594502,-0.18285128513199128],[-0.08613776284916554,-1.5997940864383309,0.27121993901977165],[0.8129459103234109,1.9201352400647345,0.987417215113715],[0.7216190478857828,-1.5418421485013696,1.527822365227876],[0.16634583842157252,0.29030848516788205,2.287658182611407],[-0.7479389740644817,-0.9549654107100196,1.8113587040599848]],"biases":[-0.6442796906315978,-0.20711408913462315,0.1536945920232904]},{"inputNeurons":3,"outputNeurons":1,"weights":[[1.5197902257401135],[1.3644079490567222],[-1.6152695802944823]],"biases":[0.01923075523627979]}],"scores":{"1":1760,"2":1680,"3":2860,"4":1450,"5":1700,"6":1860,"7":1650,"8":1540,"9":1760,"10":1480,"11":1430,"12":1350,"13":1620,"14":1560,"15":1730,"16":2590,"17":1450,"18":1700,"19":1600,"20":1610,"21":1680,"22":1670,"23":1760,"24":1070,"25":1590}},{"layers":[{"inputNeurons":0,"outputNeurons":10,"weights":[],"biases":[0.6094043471555297,0.013654370470589594,0.9410170814011789,0.048685229046296574,0.27321145369784894,-0.5672701718518147,0.5667523057974411,0.50768918985263,0.06568942057722207,0.6374519495226324]},{"inputNeurons":10,"outputNeurons":3,"weights":[[0.08010707388547991,-0.8679582786143429,-1.003164091173483],[0.9261813442649336,1.850353426380652,-0.30451487841958336],[-1.429282301001526,0.6094767377906538,-0.726327444831069],[-0.24017329220414557,-0.4571973948710537,-0.04477906561448272],[0.6088006410863829,-0.825777266865376,-0.4307865531754228],[-0.37762353154082784,-0.820978648321004,0.013998927476688294],[0.9315991571216868,1.6096305957895127,0.5724540517981963],[0.6687108369954976,-1.619610802598997,1.3341134193357234],[0.3994792639041077,0.27996205401886587,0.5339537897813871],[-1.2334402686723558,-0.21915330701986535,1.5267972974315116]],"biases":[-0.31018820969698646,-1.445700497487007,-0.10765304220737931]},{"inputNeurons":3,"outputNeurons":1,"weights":[[1.2065378522583692],[1.3456970680236693],[-1.209935954387647]],"biases":[0.017370653116153156]}],"scores":{"1":1640,"2":1760,"3":1660,"4":1230,"5":1670,"6":1040,"7":1610,"8":1880,"9":1420,"10":1680,"11":1760,"12":1450,"13":1690,"14":1620,"15":1680,"16":1840,"17":1440,"18":1650,"19":1540,"20":1330,"21":1580,"22":1610,"23":1760,"24":3440,"25":1640}},{"layers":[{"inputNeurons":0,"outputNeurons":10,"weights":[],"biases":[0.5838626806285142,-0.5048614478236424,0.8546202240574559,0.6760414509715889,0.39572517443285743,-0.30139795108186124,0.4517083443026706,0.06345420274521717,0.30930919771956333,0.5900327886531805]},{"inputNeurons":10,"outputNeurons":3,"weights":[[0.34460480186729836,-0.6052622640477743,-0.8209131300840885],[0.6113750405620488,1.656768412202539,-0.1253599275686818],[-1.00825494140997,0.6489233513146202,-0.06136712877877157],[0.07934173667486803,-0.4854020658763257,3.437548226180309E-4],[0.5695299450273168,-1.3507894917801435,-0.38135440673135546],[-0.8183728899094627,-0.3311512904844601,0.01477573522485881],[1.0508414310471064,1.6550673537206333,0.6738074818268596],[0.866816371459785,-1.2507806853651537,1.3821587029431264],[0.6688043186105981,0.4881979541138544,0.6323233915299485],[-1.2221272780276307,-0.19267552318118186,1.6646241725662867]],"biases":[-0.19503484170947655,-1.0799634358730756,-0.18542192082991593]},{"inputNeurons":3,"outputNeurons":1,"weights":[[1.2941180468603473],[1.4300265030785688],[-1.2511535426279146]],"biases":[0.22543086016115116]}],"scores":{"1":1040,"2":1690,"3":1460,"4":1700,"5":1130,"6":1680,"7":1760,"8":1710,"9":1140,"10":2860,"11":1540,"12":1830,"13":1510,"14":1680,"15":2860,"16":1680,"17":1460,"18":1190,"19":1700,"20":1430,"21":1700,"22":1760,"23":1550,"24":1700,"25":1680}},{"layers":[{"inputNeurons":0,"outputNeurons":10,"weights":[],"biases":[-0.4747712767569516,0.02575653199647765,0.19274795119040616,0.837448428772323,0.39445066753636293,0.7309793509105147,0.8566042938959986,0.7158978246663585,0.7033599251571606,0.31661411526495076]},{"inputNeurons":10,"outputNeurons":3,"weights":[[-0.16547362841887467,-0.33898378053883116,-0.5665446474812975],[0.6252709967907794,1.9700204849669103,-0.4163952924009241],[-0.9653387597171156,0.7250394110486134,-0.5177280548218954],[0.6668774018061511,-0.3335311743597879,-0.1472596911722086],[-0.08855033932112183,-1.0084832735817046,-0.43135185747984534],[0.060203065849607384,-1.1603253682461987,-0.2429913617538832],[1.0533922496018642,1.8889383565889466,0.6098179132746242],[0.5440494067405015,-1.7922821942553064,1.9232784262757425],[0.3641196063341324,0.30546679027246193,1.9145849415488023],[-0.5575008851072045,-0.9817338469670608,1.0871123863093572]],"biases":[-0.6189396776944691,-0.3229246919590866,0.24409627889326976]},{"inputNeurons":3,"outputNeurons":1,"weights":[[1.5430492354008372],[1.5863341823286892],[-1.3060386667632873]],"biases":[0.02283792453578118]}],"scores":{"1":1930,"2":1440,"3":1760,"4":1440,"5":1760,"6":1480,"7":1470,"8":1560,"9":1610,"10":1710,"11":1440,"12":1700,"13":1680,"14":3120,"15":1570,"16":2200,"17":1460,"18":1150,"19":1840,"20":1670,"21":1700,"22":1230,"23":1690,"24":1760,"25":1010}},{"layers":[{"inputNeurons":0,"outputNeurons":10,"weights":[],"biases":[-0.35788502257684673,0.21800608840901822,-0.020623150858153014,0.791664264411591,0.17738869914999095,0.9158793023139011,0.5599241118478401,0.7231125005924316,0.3491772460673602,0.34615280854218855]},{"inputNeurons":10,"outputNeurons":3,"weights":[[-0.2781285144710689,-0.35137280625904815,-0.9109382449462674],[0.6640468289130737,2.3646612508933464,-0.31049033003266213],[-1.076833138556495,0.5004577098276514,-0.5388780109135485],[0.3982164666244151,-0.3318477581160737,-0.13249954294632235],[-0.7385597516148483,-0.8293524429552994,0.07087392836905482],[-0.02387778116995838,-1.138323453435414,-0.021925888727926474],[0.8741003818850007,1.9240248007404543,0.9268845902995092],[0.6654958933543395,-1.9467852849579388,1.4861256610765219],[0.21661673454384392,0.31427068588138174,1.9260050337402819],[-0.4565573586742703,-0.7942055048802696,1.6328834795023706]],"biases":[-0.3814585005486911,-0.08732379632369203,0.7234157475898524]},{"inputNeurons":3,"outputNeurons":1,"weights":[[1.597479721089095],[1.5760068869968238],[-1.265139785929619]],"biases":[0.02458339023108727]}],"scores":{"1":1840,"2":1510,"3":1440,"4":1680,"5":1670,"6":1840,"7":1630,"8":1690,"9":2270,"10":1710,"11":1760,"12":1670,"13":1700,"14":1710,"15":1400,"16":1730,"17":1390,"18":1560,"19":1570,"20":1670,"21":1700,"22":1760,"23":1670,"24":1160,"25":1540}},{"layers":[{"inputNeurons":0,"outputNeurons":10,"weights":[],"biases":[0.6052279823786026,-0.33071087914334946,0.6797923584073501,0.31021583263518493,0.21970044345686185,-0.13801584476622908,0.32119189479022936,-0.20569624071921033,0.20669248911010948,0.6829308605206275]},{"inputNeurons":10,"outputNeurons":3,"weights":[[0.078734628510035,-1.1293780396341524,-1.0334649242790617],[1.054270966413968,2.050623044470723,-0.22406722387409206],[-1.1839563415959486,0.6011301807168238,0.32330724535973165],[0.15040908139284387,-0.3872677051584806,0.14105584504490593],[1.0770211872312037,-1.1729044503142445,-0.7709159245740795],[-0.09405136494121236,-0.3038183506315845,-0.4328888680056462],[0.9908050365980314,1.272726046113552,0.8470040273014254],[1.0967719749329197,-1.6973827374571673,1.095689744383204],[0.804329526941609,0.24888327490559725,0.8607540725099588],[-0.9752363039854743,-0.445383468567475,1.8166941008408215]],"biases":[-0.16713212543917988,-1.4126088462960715,-0.1248453946251982]},{"inputNeurons":3,"outputNeurons":1,"weights":[[1.2411531621730694],[1.3659844596921495],[-1.1238964982544026]],"biases":[0.41209863191103163]}],"scores":{"1":1840,"2":1760,"3":1730,"4":1660,"5":1680,"6":980,"7":1680,"8":1680,"9":1670,"10":1660,"11":1650,"12":1490,"13":1840,"14":1610,"15":1430,"16":1980,"17":1390,"18":1340,"19":1680,"20":1680,"21":1680,"22":1660,"23":1670,"24":1840,"25":1630}},{"layers":[{"inputNeurons":0,"outputNeurons":10,"weights":[],"biases":[-0.005694482407684054,0.2613720858456694,0.11920494013487416,1.2429969297103454,0.09451312290506461,0.7392268903242355,0.6670922219457023,0.8799779936901699,0.1617517248150841,0.3473680666754312]},{"inputNeurons":10,"outputNeurons":3,"weights":[[-0.32008478807556134,-0.2522004966732269,-1.1829868553254381],[0.7157964614008501,1.7845152870535994,0.08029268946834095],[-1.5584261061418978,0.7105927099519264,-0.20467534992255368],[0.6130469395387349,-0.4788723975656591,0.1601808560447886],[-0.5049283534589029,-0.621007654587119,-0.4846652211418883],[0.07620705461222148,-1.4182168928795447,0.009772532361232864],[1.3064603507665276,2.0850472747202513,0.7020895767371191],[0.7108568974339072,-1.7269672558168947,1.5454556248906481],[0.1300584213001052,0.4928812552941728,1.9927253769113467],[-0.47300014930440043,-1.0929310963783083,1.2928344397360847]],"biases":[-0.3401877246852796,-0.5245839281417206,0.5246992779973826]},{"inputNeurons":3,"outputNeurons":1,"weights":[[1.7095696184528015],[1.2217669033449203],[-1.2821954128167]],"biases":[-0.18293882877593295]}],"scores":{"1":1510,"2":1840,"3":1680,"4":1750,"5":1960,"6":1480,"7":1680,"8":1120,"9":1760,"10":1330,"11":1520,"12":1650,"13":1680,"14":1760,"15":1620,"16":1700,"17":1680,"18":1620,"19":1700,"20":1770,"21":1660,"22":1510,"23":1310,"24":1750,"25":1690}},{"layers":[{"inputNeurons":0,"outputNeurons":10,"weights":[],"biases":[-0.35539605591785095,0.584079631798187,0.1389430395277615,0.9236476247176402,0.20241020649017266,0.840037353590292,0.368369948449539,0.7661854799979613,0.26308713600826816,0.4448201929259593]},{"inputNeurons":10,"outputNeurons":3,"weights":[[-0.15994870286213778,-0.6240914308578598,-0.40154106999892253],[0.9992091567900115,1.9558402984167675,-0.019098341858224704],[-0.9922532343763172,0.7039992771482163,-0.3139403350347888],[0.6554932126960309,-0.5709059262796528,0.332386818460908],[-0.05665561601803165,-0.7147853785643433,-0.4087387552441621],[0.47219393835448314,-1.2485926926231405,-0.0947846174533389],[1.2597479391852247,2.104699075392187,0.7327380956951751],[0.6529572048262116,-1.3431823164031185,1.8039904963841786],[0.15394359826243684,0.524975750426478,2.0013320467467577],[-0.8187209923093102,-0.8005384967799065,1.7013921402070027]],"biases":[-0.8663973228627075,-0.4448480121466384,0.4535809011514972]},{"inputNeurons":3,"outputNeurons":1,"weights":[[1.5839670955475789],[1.2405634841233846],[-1.2559005805975485]],"biases":[-0.4393910912148777]}],"scores":{"1":1430,"2":1200,"3":1840,"4":1680,"5":1700,"6":1760,"7":1490,"8":1460,"9":1840,"10":1700,"11":1650,"12":1660,"13":1030,"14":1610,"15":1870,"16":1700,"17":1760,"18":1830,"19":1680,"20":1340,"21":1670,"22":1660,"23":1700,"24":1630,"25":1680}},{"layers":[{"inputNeurons":0,"outputNeurons":10,"weights":[],"biases":[0.5905198022902615,-0.6760179143955585,1.0306058489238152,0.27401399921906366,0.7031691776311874,-0.5790529615881382,0.23330759257323147,0.06862398591552175,0.31154379977370805,0.6239226626939268]},{"inputNeurons":10,"outputNeurons":3,"weights":[[0.11372414688413987,-1.2743229040141053,-1.0309753203120486],[0.5841607462588913,1.9150656335582135,-0.221553045309614],[-1.355816465516487,0.3833960166288136,-0.16602686894022267],[0.29349751024782567,-0.6559458501148343,-0.09878719173351247],[0.3924194180096222,-0.7924994704515236,-0.3415556861628088],[-0.6468455029127811,-0.7363720201302602,-0.13802212231321878],[0.9659950338057934,1.6603199440199334,0.6276590429850405],[0.9233152574518813,-1.158108595645523,1.408872856773788],[0.6213999926142046,