{"networks":[{"layers":[{"inputNeurons":0,"outputNeurons":10,"weights":[],"biases":[0.6412188826460891,-0.3299323880556979,0.19000521074217327,0.500591871867139,0.7381695326419286,0.8328790023574979,-1.1371057985753188,-0.8514789421231741,2.093905100865042,1.186599888862436]},{"inputNeurons":10,"outputNeurons":3,"weights":[[0.7837248747966692,-0.3621973598280283,-1.497335995730706],[-0.8772955474638633,-0.3517409291331973,-0.9351475114264113],[0.9624959737898844,-1.1529398312661492,-1.870130755505692],[-0.5389398238609698,0.059672119283472644,-1.102984265775685],[-0.9614488056372326,0.703647553795954,0.0242033665029132],[1.3371882013205088,-1.185254882947841,-2.3586811723852352],[0.511943763361971,0.2099234039804356,-1.0020705115918662],[-0.7357715567038413,1.3867041180643622,0.7778422379837188],[0.7215027680465267,-0.24553245544285973,1.0246128167177004],[-1.0998479022876053,-1.8178835962893563,0.9952372230884529]],"biases":[1.8145566171941474,-1.0475709160189215,-0.5041046920376447]},{"inputNeurons":3,"outputNeurons":1,"weights":[[0.3277744789268251],[0.5255725349908345],[-1.2601620276531302]],"biases":[1.960478856244675]}],"scores":{"1":4980,"2":5000,"3":2200,"4":3600,"5":5000,"6":1710,"7":2340,"8":2800,"9":4980,"10":3600,"11":2800,"12":1270,"13":1280,"14":4980,"15":2200,"16":5000,"17":5000,"18":2200,"19":4980,"20":5000,"21":2290,"22":3200,"23":2520,"24":3600,"25":4980}},{"layers":[{"inputNeurons":0,"outputNeurons":10,"weights":[],"biases":[0.9354510795084361,-0.37826859673221036,0.4000035894117884,0.37830354705476044,0.987184267028194,0.572593281060081,-1.1096466145554928,-1.2301933495011899,1.9299938100709801,1.4052348796364975]},{"inputNeurons":10,"outputNeurons":3,"weights":[[0.5898430894570956,-0.42009896264230284,-1.2947535311137313],[-0.8266949165183917,-0.3949813963492168,-0.7380917092184017],[0.8214396346316524,-1.0173697437168012,-1.2946421886250037],[-0.977553510611936,0.033196125469613924,-0.8256012650137531],[-1.3975414324080988,0.6833647096238311,-0.06960806448316059],[1.3869015555074233,-1.055991105577974,-2.4361974065951912],[0.11262854375828912,0.2989663910177268,-1.0386909378049891],[-0.5455438347775027,0.9669929035050171,0.7477150984804593],[0.7977004629084967,-0.5109347709686521,0.5081362525030069],[-1.0453446371858528,-1.4613302232278467,1.2746667137947056]],"biases":[2.0992725038564757,-1.2168221433544641,-0.3741607636752834]},{"inputNeurons":3,"outputNeurons":1,"weights":[[0.1853167551640228],[0.41485388498017256],[-1.4818681433462475]],"biases":[1.7370238260305562]}],"scores":{"1":4980,"2":1270,"3":4980,"4":2340,"5":3400,"6":2320,"7":1270,"8":2380,"9":2520,"10":4980,"11":5000,"12":4980,"13":3380,"14":4980,"15":5000,"16":2580,"17":2340,"18":2200,"19":3400,"20":3380,"21":3580,"22":4980,"23":3400,"24":2150,"25":4980}},{"layers":[{"inputNeurons":0,"outputNeurons":10,"weights":[],"biases":[-0.04944366970847697,-0.5836375019698089,0.8039901500290431,0.06775458113982574,0.7962118896930652,0.6200077060499113,-0.12245165458826507,-0.621752756582824,1.615354887002187,1.4028339515165151]},{"inputNeurons":10,"outputNeurons":3,"weights":[[0.017490625114833222,-0.15660764722541115,-0.04421246479258922],[-1.0018314674474733,-0.7596701284087353,-0.9299419980102509],[1.36899004155707,-0.7633420562067357,-1.753630436498877],[-1.098666050090964,-0.08321438351669444,-0.9367239447956217],[-1.389601208255921,-0.03200432655134641,-0.6311032503420895],[1.5405640607058424,-1.432807900742413,-1.3993171033404976],[-0.38590130686708357,-0.5539457025067661,-0.5259328153651758],[-0.7180724896345949,0.7840923322314811,1.2203208401753884],[0.5096620225849235,0.21979947612649495,0.8102863256262587],[-1.7745465500993984,-1.0460013490640667,0.6452400101053652]],"biases":[1.8180779985829896,-0.40586221669989353,-0.19631889571551003]},{"inputNeurons":3,"outputNeurons":1,"weights":[[0.5262498423774715],[1.6246790155982311],[-1.5201306001850314]],"biases":[2.4964448722300094]}],"scores":{"1":1340,"2":1320,"3":1340,"4":3400,"5":4980,"6":4980,"7":2600,"8":2600,"9":4980,"10":5000,"11":2600,"12":5000,"13":4980,"14":4980,"15":2200,"16":3180,"17":2060,"18":3380,"19":2370,"20":1960,"21":2200,"22":5000,"23":5000,"24":3400,"25":4980}},{"layers":[{"inputNeurons":0,"outputNeurons":10,"weights":[],"biases":[-0.0832197815785451,-0.10190988205636586,-0.24183570206928123,0.0492351107184848,0.45072058651484825,0.638220594220338,-0.2872307465012161,-1.031718475087337,1.5473453422945047,1.8510543826016335]},{"inputNeurons":10,"outputNeurons":3,"weights":[[-0.4730022188723587,0.06681028246521704,-0.5638063147982842],[-1.1641611690007334,-0.8873099837530098,-1.1338170312943667],[1.2540303480497625,-0.7820678122536241,-1.3361420358457567],[-1.045119360422281,-0.0630769967835626,-1.0093499578672813],[-1.9424924105993433,-0.29217932229089527,-0.35091120970870493],[1.7145988391492402,-1.8508898714080302,-2.1048730676775174],[-0.05560467052594957,-0.36845118721514747,-0.6116058297714057],[-0.7579507386371699,0.38291291568137364,0.7599957563792678],[0.6080492906299516,-0.14264234358450562,0.6480918147488375],[-2.0882418351462704,-0.951519148308265,1.15891392566065]],"biases":[1.6556473945066514,-0.008250539110958854,-0.1885345854612202]},{"inputNeurons":3,"outputNeurons":1,"weights":[[0.5685170516452278],[1.7573733376160674],[-1.9138106386979932]],"biases":[2.1503678851670336]}],"scores":{"1":4980,"2":5000,"3":3560,"4":4000,"5":2380,"6":2340,"7":4980,"8":5000,"9":3580,"10":2340,"11":5000,"12":5000,"13":2600,"14":1300,"15":1320,"16":3400,"17":2120,"18":2340,"19":4980,"20":3580,"21":4980,"22":1260,"23":1960,"24":4980,"25":2340}},{"layers":[{"inputNeurons":0,"outputNeurons":10,"weights":[],"biases":[0.6985413587498743,-0.28252667895066846,0.3877768232789181,0.48464261697432975,0.9063240010981486,0.7485961968469048,-0.9957344251605271,-1.234546388558154,2.077992181230367,1.6055244524012295]},{"inputNeurons":10,"outputNeurons":3,"weights":[[0.7876545859056455,-0.36915885563683976,-1.455891314309892],[-0.7505477598361234,-0.4241407611144832,-0.9549085598587707],[1.1435383118832692,-1.239137161747803,-1.5267004772899688],[-0.5609865453017835,0.14383205299941718,-1.307688925667724],[-1.188533070175687,0.7796654660817098,-0.06474568804325351],[1.2901254582417727,-1.1669919192338436,-2.325674830717976],[0.6277451749802658,0.15892840055199178,-0.798316812823271],[-0.5816944901305761,1.2405867852984929,0.7557005187366471],[0.8394337824751339,-0.4995369931264168,0.5869026120938937],[-1.1666132248122696,-1.507770570886368,1.1723789652380008]],"biases":[1.8912977469040795,-1.1666782483309048,-0.41580472010476105]},{"inputNeurons":3,"outputNeurons":1,"weights":[[0.21361573963079739],[0.3700622146592069],[-1.4679469891022414]],"biases":[2.0211669772247007]}],"scores":{"1":5000,"2":3050,"3":1490,"4":4980,"5":1280,"6":2600,"7":2320,"8":5000,"9":1320,"10":2200,"11":2340,"12":2400,"13":5000,"14":2340,"15":2000,"16":2320,"17":4980,"18":2200,"19":3360,"20":4980,"21":4980,"22":2130,"23":4980,"24":2800,"25":5000}},{"layers":[{"inputNeurons":0,"outputNeurons":10,"weights":[],"biases":[0.6558199496109569,-0.09225254940896874,0.09752719814556365,0.6916227223592879,0.7177785051721415,0.7427910614886416,-1.245779047679428,-1.406010776528932,2.3008550253646254,1.7109323244823387]},{"inputNeurons":10,"outputNeurons":3,"weights":[[0.8645584143158072,-0.35015962604599793,-1.5510258298793276],[-0.703010470976771,-0.47036379325161026,-1.15375147188311],[1.19857770808999,-1.3095376870708917,-1.572445354824366],[-0.35304020704383476,0.06709785906673789,-1.5070523303368226],[-1.342489836162641,0.627274548690514,0.5834830692225147],[1.4271787464052785,-1.0454278830815782,-2.242573153871227],[0.5031284869570511,0.15071489907617006,-0.897239137886745],[-0.9379463912639505,1.0688097123244398,1.0171557532673452],[0.7269854683942043,-0.44475986662338185,0.7037540642851323],[-1.2296685631843203,-1.6174799737755337,0.6896921246729056]],"biases":[2.015396665613795,-1.3973805753942803,-0.5030752799706615]},{"inputNeurons":3,"outputNeurons":1,"weights":[[0.29155615110582955],[0.51016889966667],[-1.7648403090221272]],"biases":[1.9302509842342757]}],"scores":{"1":5000,"2":4980,"3":1890,"4":1260,"5":4980,"6":2340,"7":1320,"8":1270,"9":4980,"10":1280,"11":1290,"12":1270,"13":4980,"14":2110,"15":4980,"16":2520,"17":2110,"18":1320,"19":4980,"20":2400,"21":5000,"22":4980,"23":2020,"24":2540,"25":4980}},{"layers":[{"inputNeurons":0,"outputNeurons":10,"weights":[],"biases":[0.6813407646737495,-0.2170099185273554,0.012447461174148966,0.5022954788724876,0.7338642306592643,0.42246876945053746,-1.1238570793813805,-0.8286384277267154,1.9433112387885427,1.3486434159276928]},{"inputNeurons":10,"outputNeurons":3,"weights":[[0.708465713781569,-0.5255888829192391,-1.2383055499716071],[-1.0820805737604262,-0.44100988999802815,-0.5183431502215198],[0.9676574335333116,-1.222707889127478,-1.1297141092281366],[-1.0324349472139929,0.03867636034007156,-0.5366414247778906],[-1.3222257291206416,0.42610508208410075,0.02642965914432284],[1.5152042579135716,-0.8197076852084566,-2.459287033899073],[-0.09204587316984617,0.1297863874660224,-0.9804153134572737],[-0.3268860687633948,1.3028308048671333,0.8337560003895637],[1.0916103694343908,-0.43844108463847437,0.44972624720018034],[-0.908852487617278,-1.2093132089943035,1.3271175476707557]],"biases":[2.2475882125645787,-1.4796942178464902,-0.4623382377392886]},{"inputNeurons":3,"outputNeurons":1,"weights":[[0.28846758417204016],[0.13813862971614932],[-1.4950392163099466]],"biases":[1.5969266933141615]}],"scores":{"1":4980,"2":4980,"3":1710,"4":1240,"5":2540,"6":3400,"7":2110,"8":2340,"9":4980,"10":3180,"11":4980,"12":4980,"13":2400,"14":4980,"15":3380,"16":3200,"17":3380,"18":2470,"19":1280,"20":2440,"21":3380,"22":1270,"23":2320,"24":3400,"25":1270}},{"layers":[{"inputNeurons":0,"outputNeurons":10,"weights":[],"biases":[0.8971212265824264,-0.046659656374018976,0.6237840812608186,0.8085015347737338,0.753574138121123,1.1649350818839324,-0.6269836588265654,-1.2425241564803495,1.9154124068576812,1.6455389204128965]},{"inputNeurons":10,"outputNeurons":3,"weights":[[0.756520259441542,-0.2464326380170045,-1.4684150315398385],[-0.5599823729511371,-0.3403271250568318,-1.0919356817076615],[1.14048308073506,-1.511481451299877,-1.8741608500300415],[-0.9342386054616869,0.5428990392736993,-1.2655031162516688],[-1.5491650311079845,0.7836723948469309,0.06280051050743948],[1.5900945910129713,-1.2409054283806822,-2.5786562349964934],[0.7644277696339923,0.20663188662186144,-0.6134345284270275],[-0.17945062768802605,1.3610946985551473,0.5964795926836723],[0.7237313582364453,-0.5152102669062006,0.3895810200608515],[-1.2373252658032228,-1.3176122575671272,1.0899799302443498]],"biases":[2.1760109178852916,-1.081449015938174,-0.29563442066615203]},{"inputNeurons":3,"outputNeurons":1,"weights":[[0.1322085525088994],[0.26009811585190196],[-1.424564492856466]],"biases":[2.2930176283289962]}],"scores":{"1":1980,"2":5020,"3":1380,"4":5020,"5":3400,"6":2680,"7":2700,"8":2820,"9":5020,"10":2900,"11":1700,"12":5020,"13":1370,"14":1380,"15":2020,"16":5010,"17":5020,"18":2620,"19":2640,"20":2220,"21":5020,"22":1540,"23":3080,"24":1980,"25":1900}},{"layers":[{"inputNeurons":0,"outputNeurons":10,"weights":[],"biases":[0.6451303904789197,-0.3276219971915208,0.3246591867851556,0.4728397629000456,1.0690756843224087,0.86640256674866,-1.1039491325685387,-1.2225980381362473,2.234687198518843,1.6046289721029423]},{"inputNeurons":10,"outputNeurons":3,"weights":[[0.8816030184014488,-0.6848413360914327,-1.68946545331789],[-0.8200577249966821,-0.7511414714406277,-0.8696469329692904],[0.9134337901694446,-1.2106580200662125,-1.2345774546209334],[-0.5412758366747085,0.15797249320755638,-1.2852952299162743],[-1.5619795072577491,0.4250398607767104,0.1458144606742365],[1.344467234615793,-1.4010819572573587,-2.4207097603368184],[0.7253963894869813,0.23394850017875968,-0.789247843268143],[-0.3072692820610051,1.1905783608619311,0.375013189448269],[1.1561969225217494,-0.43566791736942867,0.7156129229649248],[-1.1265080248501773,-1.4543966649568778,1.1419500678438812]],"biases":[1.558736107564576,-0.9455635229311948,-0.7610035863689053]},{"inputNeurons":3,"outputNeurons":1,"weights":[[0.15419515329985245],[0.7514873643131212],[-1.7826075893397948]],"biases":[2.1178980940779533]}],"scores":{"1":2760,"2":5000,"3":4960,"4":1260,"5":1320,"6":2340,"7":1310,"8":2600,"9":2160,"10":2200,"11":3600,"12":2200,"13":1280,"14":2200,"15":4980,"16":4980,"17":1310,"18":3380,"19":2360,"20":5000,"21":4980,"22":2540,"23":2340,"24":1280,"25":2330}},{"layers":[{"inputNeurons":0,"outputNeurons":10,"weights":[],"biases":[0.1345234440260197,-0.38249514032942356,0.3875141343198641,-0.012556341442564095,0.7978878476120246,0.6976826322265418,-1.01568114502445,-1.1830155033566823,1.2675733913320133,1.4072687743620125]},{"inputNeurons":10,"outputNeurons":3,"weights":[[0.34456799813845407,-0.5925065543318303,-0.73542220011596],[-1.039656580518865,-1.1568266895053423,-0.7687644305121528],[1.7576605601211308,-0.4174408826433253,-1.2427706420130316],[-1.1460318999114927,-0.4680155317805069,-0.35349893678710004],[-1.6643449458239605,-0.20669640180595314,-0.47819163638861417],[1.1266126370019214,-0.59917653113579,-1.6927401169353042],[0.17101817748262577,0.25484362650177605,-0.5511002499112834],[-0.7560415879443043,0.5803905853013472,1.5533403473877871],[0.2945046144536455,-0.39293142584446217,0.35994966201712436],[-1.1803641166553325,-1.4233848765976689,1.0934259541604268]],"biases":[0.9567198370793719,-0.6712678252138045,-0.49633515361893243]},{"inputNeurons":3,"outputNeurons":1,"weights":[[0.6564252025617199],[0.8607318737614508],[-1.6766578538999535]],"biases":[2.2847924102698878]}],"scores":{"1":1320,"2":2150,"3":2890,"4":2300,"5":2800,"6":2600,"7":1310,"8":2380,"9":2430,"10":3400,"11":2200,"12":4980,"13":2340,"14":2600,"15":1320,"16":2580,"17":2400,"18":4980,"19":5000,"20":2140,"21":2920,"22":3600,"23":1260,"24":3600,"25":1280}},{"layers":[{"inputNeurons":0,"outputNeurons":10,"weights":[],"biases":[0.4739338564705411,-0.3533803255547004,0.21817722218481359,0.43840465376179144,0.8003946507276304,0.7809707406867399,-1.1848530108283175,-0.9692754268748787,2.185437817740874,1.406669045943955]},{"inputNeurons":10,"outputNeurons":3,"weights":[[1.0507195807383574,-0.49750712563114646,-1.4892325408014653],[-0.834770906337785,-0.3743993735251977,-0.7643237785880101],[0.8898250172735336,-1.1930148399849947,-1.8929795139133914],[-0.5092263085526799,-0.2819489532656578,-1.286956316197367],[-0.779425903923741,0.9678659955291122,-0.0016381241935867867],[1.1667350360486506,-1.4683762285010322,-2.092625377740807],[0.7492949323851535,0.156979071337437,-1.039192569101373],[-0.8498300717235381,1.5173349837108285,0.8527464020204334],[0.6845572501792097,-0.3248060241673423,0.8172749330490154],[-1.277323586757174,-1.722917726174347,0.8060123332161164]],"biases":[1.9089658902476476,-1.1336054497917596,-0.530243359957383]},{"inputNeurons":3,"outputNeurons":1,"weights":[[0.1446054688249482],[0.359026266418654],[-1.558621812442481]],"biases":[2.092350000181066]}],"scores":{"1":2320,"2":2520,"3":1300,"4":3120,"5":2500,"6":2320,"7":2320,"8":8220,"9":2320,"10":2320,"11":2720,"12":2520,"13":2320,"14":2320,"15":2320,"16":2320,"17":2320,"18":2320,"19":2320,"20":2320,"21":2320,"22":3720,"23":2360,"24":2220,"25":2520}},{"layers":[{"inputNeurons":0,"outputNeurons":10,"weights":[],"biases":[0.4957196559984609,-0.15419887575026492,-0.14235787034220837,0.7984837660525519,0.6515913210490849,0.6457555077795576,-1.445812916987748,-0.8956412622535371,2.073034186784174,1.4055488386496593]},{"inputNeurons":10,"outputNeurons":3,"weights":[[0.7515517142975338,-0.4065484434070209,-1.066820399804389],[-0.9863267223136302,-0.5561176214459522,-0.6443800425931805],[0.8320364040406348,-1.397675566049871,-0.8491488655282644],[-0.63833102177804,0.09464006673188657,-0.8812544629585605],[-1.3051432513751668,0.5670779034113572,0.38672842619799835],[1.526685531078595,-0.7416994015301754,-2.2045917327587636],[-0.04490779524507241,0.4102928116674247,-0.8238308542647009],[-0.12535539620108102,1.0810316411450662,0.7092834291365323],[1.3079646859647422,-0.21972919709570204,0.6736669659932614],[-0.8651129689307616,-0.9843075744346911,1.2719859013912544]],"biases":[2.196475311186149,-1.4178854117449002,-0.36122384270039465]},{"inputNeurons":3,"outputNeurons":1,"weights":[[0.34079558123352943],[-0.22632427762532759],[-1.2166615807738799]],"biases":[1.4472437679810133]}],"scores":{"1":2320,"2":2320,"3":2320,"4":3750,"5":2320,"6":2320,"7":2300,"8":2320,"9":2500,"10":3050,"11":2520,"12":2520,"13":2320,"14":2320,"15":2320,"16":2320,"17":2820,"18":2320,"19":2320,"20":2320,"21":5520,"22":2320,"23":2320,"24":2720,"25":2720}},{"layers":[{"inputNeurons":0,"outputNeurons":10,"weights":[],"biases":[0.9949056126448503,-0.33624190189306674,0.1925532535886194,0.07289332704565005,0.5798693838919992,0.8246706744673243,-1.2192052935585458,-0.5470594718799636,1.9146083145595008,1.3345398511555848]},{"inputNeurons":10,"outputNeurons":3,"weights":[[0.5827856316629814,-0.22652052379104312,-1.2201170236301524],[-0.6999601588246478,-0.3731806037683129,-1.0713280372247092],[1.0442772017693447,-1.0892416736029258,-1.719249173937186],[-0.9641949147221217,0.23079064270315763,-1.1396043646853857],[-0.6811761267579449,0.7678543723226214,0.34637925882873394],[1.582218888206988,-1.0913253235612541,-2.632395158736508],[0.4801236595590798,0.08177872107363768,-0.7478909415269943],[-0.8479172780848471,1.0971908551349323,0.8442489664805213],[0.7832298600282829,-0.29678934405860136,0.9957685787580922],[-0.7855240869566822,-1.6689525618236827,1.1751714855948683]],"biases":[1.964125195475519,-1.380518252938123,-0.8727382024476263]},{"inputNeurons":3,"outputNeurons":1,"weights":[[0.2892171255218877],[0.14234751545160163],[-0.945677265008039]],"biases":[2.0111771107442045]}],"scores":{"1":2320,"2":2210,"3":2320,"4":5820,"5":2320,"6":2500,"7":2520,"8":2320,"9":2320,"10":2920,"11":2360,"12":2320,"13":2210,"14":2610,"15":2720,"16":2210,"17":2520,"18":2320,"19":2320,"20":2520,"21":2320,"22":2520,"23":2520,"24":2320,"25":3400}},{"layers":[{"inputNeurons":0,"outputNeurons":10,"weights":[],"biases":[-0.26982670430959604,-0.12584537279172903,-0.2792691531588,-0.04185693742550256,0.06288254994038145,0.6558066337028513,-0.012963154538813526,-1.0969838830282854,1.475315893225256,1.6867554328211143]},{"inputNeurons":10,"outputNeurons":3,"weights":[[-0.4108002243281458,0.06975739104918319,-0.5668284817807563],[-1.5147926598603556,-0.55045251997384,-1.275375264959684],[1.2910989002357858,-0.7982870518469117,-1.9917290708545714],[-0.8317629427562844,0.16815098101414439,-1.2111307436469754],[-1.710249045443079,0.003247124561062076,-0.48101326172491266],[1.5399824515734597,-1.8491053924738594,-1.831576427580139],[-0.15704077350483087,-0.23907939622426597,-0.242173853352672],[-0.6293556747748169,0.5463491891480559,0.3383598096220566],[0.6879156767491702,-0.33935904159328356,1.0744814782207304],[-1.8847910433886472,-1.1041484645474473,1.231226143484906]],"biases":[1.5882610491049203,0.07835426394146017,-0.0468084530810671]},{"inputNeurons":3,"outputNeurons":1,"weights":[[0.45924164404276785],[1.6357609507018445],[-2.0305995640420904]],"biases":[2.1376456298998145]}],"scores":{"1":2320,"2":2320,"3":2520,"4":2240,"5":6650,"6":2320,"7":1300,"8":2320,"9":2320,"10":2320,"11":2320,"12":2320,"13":2320,"14":2320,"15":2650,"16":2500,"17":3510,"18":2320,"19":3050,"20":2720,"21":2320,"22":2320,"23":2320,"24":2320,"25":2320}},{"layers":[{"inputNeurons":0,"outputNeurons":10,"weights":[],"biases":[0.714666558610666,-0.8075270622036588,-0.017646448992119635,0.2494196178926006,0.6311311059966646,0.5825819643250546,-1.1968884470211993,-0.9836555887387574,2.2462712450361613,1.1344595085536509]},{"inputNeurons":10,"outputNeurons":3,"weights":[[0.5985263572351723,-0.3674099585430364,-1.2290496960409183],[-1.2143019229291507,-0.5219448773882202,-0.5522745642956401],[0.8569771259469705,-0.9415398311508647,-0.9115490247631193],[-1.1717759031521733,0.18491514692389954,-0.6119614857957401],[-1.2621413066387812,0.3701825952864442,-0.02428774621539479],[1.5157552830114267,-0.8176017017254543,-2.359328097635215],[0.14814605188456895,-0.06861368822811464,-0.91217983555995],[-0.1998378564098842,1.279037925761646,0.6024094653017699],[0.9401010648728341,-0.32244045851325176,0.08122144357221933],[-1.060536711844781,-1.0098247605098645,0.6838970425213872]],"biases":[2.4966751254305173,-1.3456792462159433,-0.31801977415738175]},{"inputNeurons":3,"outputNeurons":1,"weights":[[-0.010389829837244069],[0.16898722725073037],[-1.25850064268874]],"biases":[1.5513502196614197]}],"scores":{"1":2520,"2":4250,"3":2320,"4":4320,"5":2320,"6":2320,"7":2320,"8":2720,"9":2520,"10":2210,"11":2320,"12":3120,"13":2320,"14":2320,"15":2320,"16":2520,"17":2320,"18":2320,"19":2320,"20":3440,"21":2320,"22":2320,"23":1300,"24":2320,"25":2320}},{"layers":[{"inputNeurons":0,"outputNeurons":10,"weights":[],"biases":[0.9440555761236313,-0.14563015471147045,0.36171681799040345,0.43900324193063406,0.7690534345833685,0.8948419624929177,-0.6870566080020406,-0.5509860547955837,2.5541185269351447,1.2898132921351535]},{"inputNeurons":10,"outputNeurons":3,"weights":[[0.8912890794006577,-0.3128481939774228,-1.1638428933464549],[-0.4037795879688504,-0.2847820281086929,-0.7020211988702658],[0.8642545601362012,-0.9495801706937677,-1.8439941855294473],[-0.161386405026074,-0.06274666067420782,-0.9978246670390647],[-0.9271275108201241,0.7812649927461958,-0.11867417576916924],[1.534415253652746,-1.229155013858013,-2.058396768593614],[0.5846376445235643,0.37522071323074224,-1.3450582487135248],[-1.0179655161652015,1.2787949603123558,0.7948284051083465],[0.6554093206401042,-0.5004636013368551,0.8867346421258412],[-1.2268918831627982,-1.588115429169902,1.1937461271323295]],"biases":[1.8886707125806268,-0.9189620739039132,-0.4364605756144908]},{"inputNeurons":3,"outputNeurons":1,"weights":[[0.49750284410096124],[0.6577690025041681],[-1.0435107971863042]],"biases":[1.6864747101255986]}],"scores":{"1":5500,"2":2320,"3":2320,"4":2320,"5":2320,"6":2320,"7":2890,"8":2320,"9":2320,"10":2720,"11":2320,"12":2900,"13":2320,"14":2520,"15":2320,"16":2320,"17":3050,"18":2320,"19":2320,"20":2320,"21":2320,"22":2320,"23":2320,"24":2320,"25":2320}},{"layers":[{"inputNeurons":0,"outputNeurons":10,"weights":[],"biases":[0.017137039468697948,-0.04067202406181122,0.21473567766064428,-0.022387791443305424,0.5477051416656016,0.6912074829521693,-0.24730640326534173,-1.2627135826869038,1.6354899818123594,1.8187845367969413]},{"inputNeurons":10,"outputNeurons":3,"weights":[[-0.15567455728383472,0.1892631179637738,-0.8112669245827556],[-1.0052639380001058,-1.0052250867301349,-0.8857180878765187],[1.2600987354898625,-0.7070593802471747,-1.5432765985029238],[-1.175769512007517,0.2918796737612009,-0.7938384846261063],[-1.5031300591633254,-0.3411264863337488,-0.613136014422342],[1.949252903456968,-1.725106617877974,-1.817023371578943],[-0.14510273456740874,-0.2462631593174681,-0.8191933637223008],[-0.4728188103463653,0.06683800016679231,0.8387627627223317],[0.4086766908101505,-0.34977002046925654,0.9231032734866428],[-2.221279697435739,-0.7666812521591398,0.9679279318128023]],"biases":[1.8779814988840682,0.09938066315121263,-0.43652676845357713]},{"inputNeurons":3,"outputNeurons":1,"weights":[[0.2474348930614319],[2.0034768516998227],[-1.7134734219519723]],"biases":[2.3516559227876455]}],"scores":{"1":2520,"2":1300,"3":2520,"4":2320,"5":2320,"6":2320,"7":3390,"8":2320,"9":2320,"10":2320,"11":2320,"12":2320,"13":2320,"14":2520,"15":2500,"16":2320,"17":2520,"18":2920,"19":2520,"20":2320,"21":2520,"22":2320,"23":3720,"24":2320,"25":3520}},{"layers":[{"inputNeurons":0,"outputNeurons":10,"weights":[],"biases":[-0.003212123556504909,-0.47466582363535936,0.8073942605408888,-0.26706128903027865,1.0024648743040077,0.4272269794262972,0.013763722676136264,-0.9382287469794424,1.6362104099998538,1.391910944433663]},{"inputNeurons":10,"outputNeurons":3,"weights":[[-0.3642538714839023,0.15957582152720323,-0.15860509388386274],[-1.0025192197787598,-0.8834160764811386,-0.7220583800724403],[1.645298356335617,-0.9171269519080322,-1.6680571197569656],[-0.9519507303123751,-0.3991163672478554,-0.8861794842216278],[-1.1315148132046622,-0.1180775086182679,-0.8387241915450744],[1.2980779504608853,-1.3174166733904618,-1.5444246925081835],[-0.04467823412848293,-0.5272938565451274,-0.3648762222623666],[-0.5803146731209893,1.0012663077961206,0.8963196404586617],[0.6789139034600056,0.05357014344129238,1.0188030001920654],[-1.8281401320057644,-1.2447455226030297,0.961845692743212]],"biases":[1.9235447497409326,-0.5466438878842391,-0.1664245943980743]},{"inputNeurons":3,"outputNeurons":1,"weights":[[0.7975919739936161],[1.0800561702893687],[-1.826913821567544]],"biases":[2.217194846923834]}],"scores":{"1":2320,"2":2320,"3":2320,"4":2420,"5":2320,"6":2320,"7":2320,"8":2520,"9":2320,"10":2320,"11":2320,"12":2520,"13":2320,"14":3100,"15":2320,"16":4230,"17":2320,"18":2320,"19":2320,"20":2520,"21":2320,"22":2920,"23":2320,"24":2690,"25":2320}},{"layers":[{"inputNeurons":0,"outputNeurons":10,"weights":[],"biases":[0.7057511960033076,-0.3635562423545322,-0.3387040177930569,0.9505303990328989,0.5835997778888179,0.9822621334994026,-0.9708730445657883,-1.0312404047062276,1.9770834195008868,1.4264231503041116]},{"inputNeurons":10,"outputNeurons":3,"weights":[[0.6387167371946875,-0.43027121421561926,-1.1031045084622062],[-1.215419511592778,-0.7125993977360094,-0.4774160580263894],[1.0750639787112877,-1.2490953164134806,-1.1059101767091013],[-0.7752843474920406,-0.2428971722344323,-0.646273909641975],[-1.2235330892567657,0.5212263060654517,0.14614204382871326],[1.6882684193004374,-0.6887026304612847,-2.497479562358554],[0.030388660780066704,-0.02893878752349416,-0.8104572132573212],[0.04915110282348961,1.1762264991319857,0.925573527243465],[1.016969349492214,-0.6784903321581768,0.6785958522625873],[-0.8039788539424421,-1.2325332555488506,1.2714774621518168]],"biases":[2.1194546569814325,-1.247626400338811,-0.5643416498373679]},{"inputNeurons":3,"outputNeurons":1,"weights":[[0.37277401062527055],[0.3375123881428356],[-1.7049373573187419]],"biases":[1.7543787958864177]}],"scores":{"1":2320,"2":2320,"3":2330,"4":2690,"5":2320,"6":1300,"7":2320,"8":2320,"9":2320,"10":2320,"11":3050,"12":2320,"13":2320,"14":2600,"15":5320,"16":2700,"17":2320,"18":2320,"19":2320,"20":2320,"21":2320,"22":2320,"23":2320,"24":2520,"25":2320}},{"layers":[{"inputNeurons":0,"outputNeurons":10,"weights":[],"biases":[0.38227043351993456,-0.16915751055820696,0.04468531395652734,0.5157019893918368,1.070957424976064,0.3424906076320197,-1.1842642332277644,-0.6846534641257382,2.1098347351659696,1.6002592522648174]},{"inputNeurons":10,"outputNeurons":3,"weights":[[0.9604243985589576,-0.8543000672014869,-0.9180495644397877],[-1.2362764730551605,-0.5419674575301265,-0.740107053420028],[0.9663880538280177,-1.206260221673695,-1.0798061799315664],[-1.0830245373476146,0.03117112711149103,-0.5771375592770434],[-1.116023108858453,0.5130665267596968,0.05129260018801501],[1.9393904937470623,-0.954682585683815,-2.26140042458587],[-0.5455301071964317,0.38004889291118144,-1.3478738998429463],[-0.10163472311629723,1.9251365026244502,0.41299484790199514],[1.2661159787502032,-0.7671378143126406,0.607910237935607],[-0.8210966304877813,-1.256036893062236,1.5072408885248538]],"biases":[2.118383545007403,-1.105258956056585,-0.5366814451278645]},{"inputNeurons":3,"outputNeurons":1,"weights":[[0.3903177634505365],[0.48432787316910064],[-1.778279547012599]],"biases":[1.7105395764099625]}],"scores":{"1":2320,"2":2520,"3":2720,"4":2320,"5":2320,"6":2320,"7":1300,"8":2320,"9":2520,"10":2520,"11":2320,"12":2320,"13":2320,"14":2320,"15":2320,"16":3920,"17":2320,"18":3750,"19":2320,"20":2500,"21":2700,"22":2520,"23":2320,"24":2320,"25":2320}},{"layers":[{"inputNeurons":0,"outputNeurons":10,"weights":[],"biases":[0.3365263910693923,-0.06147850468606442,0.18094927843668393,0.28208764443646006,0.8289726275505118,0.6514234775677036,-1.2407432303043429,-0.8206995582451008,1.9814885279713956,1.1548904834617963]},{"inputNeurons":10,"outputNeurons":3,"weights":[[0.6887786894458532,-0.7363200194829879,-1.1881487279227765],[-1.0482908337727745,-0.24285039671276198,-0.29987978070591176],[1.1944198732433824,-1.1509230258026237,-1.4185794315627733],[-0.8934257045232875,-0.04542258314146294,-0.4129392275361923],[-1.240295287447537,0.2704137456672529,0.2180610765793249],[1.1276719676917313,-1.0172229071852303,-2.4140841376443465],[0.0217633667450087,0.3268116972484799,-1.1062114312192137],[-0.17619501405905766,1.4971196714893344,0.4818688624608476],[1.4543178939593688,-0.5093194260514075,0.5690662694391857],[-1.2379432300429958,-1.5299985925599453,1.181647573063366]],"biases":[2.1925068546414654,-1.9546625969236284,-0.12010941718531598]},{"inputNeurons":3,"outputNeurons":1,"weights":[[0.401213654473036],[0.3119488137684737],[-1.6248347621329753]],"biases":[1.394094266144359]}],"scores":{"1":2320,"2":2320,"3":2190,"4":2660,"5":2320,"6":3920,"7":2320,"8":2320,"9":2320,"10":2320,"11":2320,"12":2320,"13":2320,"14":2320,"15":2320,"16":2320,"17":2320,"18":2320,"19":3670,"20":2520,"21":2520,"22":2320,"23":2340,"24":2320,"25":2320}},{"layers":[{"inputNeurons":0,"outputNeurons":10,"weights":[],"biases":[-0.37698705466429805,0.29323575312203654,-0.07563605419785535,-0.006040181201735453,0.2024281704188349,0.6716402900082973,-0.40611318485863135,-1.2130136202365438,1.6106255307392885,1.8671486519208862]},{"inputNeurons":10,"outputNeurons":3,"weights":[[0.030517233263390064,-0.0466395668499264,-0.5947886505123963],[-0.9654547913191007,-0.7986444996831856,-0.8600141094008467],[1.2156133825709194,-0.5735585159202448,-1.1456504404296017],[-1.0951343609896795,0.3792655334435671,-0.8684435017199528],[-2.0602740156102777,-0.4876907752914468,-0.4677179804914485],[1.7337199567283177,-1.9520560312194482,-2.273958560162858],[0.1029635046102131,-0.5757429347597189,-0.7060999916899154],[-0.9145284743369485,0.3247844452761208,0.8751544330268228],[0.15078279559816615,0.02143655507246539,0.6056229465604808],[-2.2554522954185248,-0.7968688535916847,1.3088727175889416]],"biases":[1.6013378091956236,0.11994780827951732,-0.010787669903869535]},{"inputNeurons":3,"outputNeurons":1,"weights":[[0.6060106016120311],[2.0139639235836597],[-1.9850708883017698]],"biases":[2.0140484619082972]}],"scores":{"1":3050,"2":2520,"3":2320,"4":2320,"5":2320,"6":2320,"7":2320,"8":2520,"9":2940,"10":2320,"11":2320,"12":3920,"13":2320,"14":2520,"15":2320,"16":2320,"17":2320,"18":2320,"19":2320,"20":2190,"21":2210,"22":2320,"23":2320,"24":2320,"25":2520}},{"layers":[{"inputNeurons":0,"outputNeurons":10,"weights":[],"biases":[0.428669065003477,-0.23473053480188394,0.28682956102435453,0.24199037807579243,1.1510070449715584,0.862186566962049,-1.3098876086007207,-0.6695501746619663,2.0898182581435223,1.1032220326777122]},{"inputNeurons":10,"outputNeurons":3,"weights":[[0.6223980849712663,0.0010615606571043323,-1.458902346374193],[-0.9069966927603131,0.18715583415898374,-1.1025352583928194],[0.8981360367842272,-1.1381201428496095,-1.9118326658179585],[-0.5390202656835884,0.07706116297221187,-1.2490564753183093],[-0.5974732239079956,0.8828428340611465,-0.17607440528018165],[1.5123700809676555,-1.0524401520454227,-2.5236396707416846],[0.3620813297666856,0.3125330681547803,-0.9631373870453529],[-0.6345489758682454,1.2474100784336801,0.8239545537757667],[0.7153012869830128,-0.4003673775211859,1.254139114166631],[-1.2531032511664195,-2.2581689698409853,1.1415606645459793]],"biases":[1.8265658861053442,-0.9235953733965871,-0.5564492254559166]},{"inputNeurons":3,"outputNeurons":1,"weights":[[-0.024622971206734734],[0.8583119406216104],[-1.5679194883328802]],"biases":[1.7567419059191023]}],"scores":{"1":2500,"2":2560,"3":2320,"4":3450,"5":2210,"6":2320,"7":2320,"8":2320,"9":2320,"10":2320,"11":2320,"12":2320,"13":2650,"14":1300,"15":2320,"16":2520,"17":2320,"18":2320,"19":5820,"20":1300,"21":2320,"22":2320,"23":2320,"24":2320,"25":2320}},{"layers":[{"inputNeurons":0,"outputNeurons":10,"weights":[],"biases":[-0.3621732430231174,0.06899354422007117,-0.2456902202219523,0.3131169550328886,0.4092705970387019,0.44551680310754815,-0.5508561021121018,-0.86502621237467,1.4616292128944484,1.646940820582787]},{"inputNeurons":10,"outputNeurons":3,"weights":[[-0.47072119951241537,0.3341508207129042,-0.9177336212032333],[-1.3981891846742436,-0.9378598844900231,-1.23449108769885],[1.4202160868569078,-0.658722827318289,-0.9611115829947374],[-0.798203931543225,-0.28900573310683997,-0.8963283722562475],[-1.930618187378965,-0.28276654353769376,-0.18927166393164174],[1.8517588882411198,-1.6883527693516454,-2.1569832080948808],[-0.02412962169003445,-0.43007461202165753,-0.6702059776300997],[-0.6088817921589904,0.07304446334986042,0.6337440643748478],[0.35905180021114247,-0.15137953028658263,0.7887808698050602],[-1.9945835419811258,-1.0285767262446504,1.1491542154510905]],"biases":[1.6943769184850372,-0.16526811505056038,-0.0652515104745146]},{"inputNeurons":3,"outputNeurons":1,"weights":[[0.49672418998108475],[1.5067958743740555],[-2.007440664510217]],"biases":[1.9807394093298512]}],"scores":{"1":2320,"2":2320,"3":2320,"4":2320,"5":2320,"6":2640,"7":2320,"8":2320,"9":2320,"10":2320,"11":2320,"12":2420,"13":2320,"14":2520,"15":2920,"16":2320,"17":3600,"18":2320,"19":2440,"20":2360,"21":2500,"22":2320,"23":2320,"24":2320,"25":2900}},{"layers":[{"inputNeurons":0,"outputNeurons":10,"weights":[],"biases":[0.15487778480182832,0.05802274430826715,-0.2318616833884028,0.19186083833400172,0.5928510931833464,0.738969704013656,-0.4410991230579794,-1.1795668650842246,1.7082537245697509,1.6805552470486709]},{"inputNeurons":10,"outputNeurons":3,"weights":[[-0.6021793283240672,0.3425902897504563,-0.6567729623738696],[-1.5953723740136403,-0.8728506360854429,-1.0744467275820009],[1.520146790329619,-0.6620009732166202,-1.6105024789562108],[-1.158548789838944,-0.012017886584827775,-0.8230261928103166],[-2.2253490851355644,-0.13426492033366777,-0.0024168652334908836],[1.433516656679175,-2.160898909326514,-2.342627984847216],[0.10664814181060346,-0.34335474872957394,-0.2703123650317142],[-0.8901119774516879,0.42521856753082726,0.7740497916069594],[0.3899884092714405,-0.019296343273049327,0.6539847397137247],[-2.1491495416500865,-0.9580428925944608,1.2496028424777612]],"biases":[2.0520186008609254,0.122006291952902,-0.27298295220419677]},{"inputNeurons":3,"outputNeurons":1,"weights":[[0.8175225809771104],[1.61530854007091],[-1.8467687227264347]],"biases":[2.3242664855715276]}],"scores":{"1":2320,"2":2520,"3":2320,"4":3120,"5":2320,"6":2320,"7":1310,"8":2320,"9":2320,"10":2320,"11":2320,"12":2610,"13":2320,"14":2320,"15":2320,"16":2320,"17":2320,"18":3520,"19":2210,"20":2320,"21":2870,"22":2320,"23":2320,"24":2320,"25":3780}},{"layers":[{"inputNeurons":0,"outputNeurons":10,"weights":[],"biases":[-0.2795432476127085,-0.7112682921849983,0.9574366341371255,-0.007330496956945362,0.6011227863946093,0.27580115144989265,-0.5192462904970356,-0.3802724508013309,1.6673239000973672,1.4053551620987983]},{"inputNeurons":10,"outputNeurons":3,"weights":[[0.00534581607989397,-0.17129498880993052,-0.23283917546902272],[-0.9608692382213392,-0.9293903645213535,-1.133382143835108],[1.244328257133625,-0.8014842511211707,-1.5467731003135123],[-1.0220942339831642,-0.24887903627286062,-0.6551730295257487],[-1.3905338917932695,-0.04384647908269093,-0.6600722423916707],[1.7261130925697326,-1.5618304913018786,-1.3531283977626625],[-0.7088560888061269,-0.4805573175367641,-0.41736641976561667],[-0.5111208391185402,0.6174588042659792,0.9776048826148305],[0.26581646410732607,0.20382812855595772,1.0513150260871718],[-1.5204227764516935,-0.9574533949161482,0.3536385541223319]],"biases":[1.780527587353443,-0.48892442409077513,-0.48838779882186323]},{"inputNeurons":3,"outputNeurons":1,"weights":[[0.6268657069642536],[1.5359903311973981],[-1.3250325786076156]],"biases":[2.58533354843295]}],"scores":{"1":3010,"2":2320,"3":1300,"4":2420,"5":2590,"6":2320,"7":2560,"8":2320,"9":2320,"10":2320,"11":2320,"12":2520,"13":2720,"14":2210,"15":2320,"16":2920,"17":3100,"18":2920,"19":2320,"20":2320,"21":2320,"22":2520,"23":2520,"24":2320,"25":2320}},{"layers":[{"inputNeurons":0,"outputNeurons":10,"weights":[],"biases":[0.08693003118958961,-0.2485612344648825,0.13619215798961998,0.19874428750039866,0.5331986047498042,0.7465282423495807,-0.4478773288506869,-0.8292125952378662,1.5175435921619367,1.8955559086550606]},{"inputNeurons":10,"outputNeurons":3,"weights":[[-0.6998401337602453,0.0029810355151945744,-0.4791082910343238],[-1.040562892489632,-0.9106773155155781,-0.8216490228454807],[1.1850212994484821,-0.6450214447147715,-1.131726811001497],[-1.1182752792760455,-0.15641575455004003,-1.1483759359124457],[-2.4638105628211844,0.06329410564270388,-0.4054120874661463],[1.8521676417196238,-1.6158185759590524,-1.9893508915840044],[-0.28294578059783837,-0.44616053475068984,-0.38810383757450034],[-0.8103310685512254,0.707922936234964,1.4953608291984257],[0.7162841153213577,-0.03631105220355971,0.7542280670400964],[-2.269438705955908,-1.0725492416431148,1.3212085910421458]],"biases":[1.4839309859612222,-0.23812417877004083,-0.007035443196619584]},{"inputNeurons":3,"outputNeurons":1,"weights":[[0.7115937387523388],[2.1677846348736898],[-1.7943676027719553]],"biases":[2.286602660026501]}],"scores":{"1":2500,"2":2720,"3":2520,"4":2520,"5":2520,"6":2320,"7":2320,"8":2320,"9":2320,"10":2320,"11":2220,"12":2320,"13":2320,"14":2320,"15":2320,"16":2320,"17":2320,"18":2320,"19":2320,"20":2320,"21":2320,"22":2320,"23":2520,"24":3690,"25":2520}},{"layers":[{"inputNeurons":0,"outputNeurons":10,"weights":[],"biases":[-0.32801540760184833,-1.2320614653017832,0.8397588650172656,0.10491296342544171,1.036111797167337,0.4912756246798661,0.0684166310270947,-0.11153240462775205,1.59388335957082,1.205643232707936]},{"inputNeurons":10,"outputNeurons":3,"weights":[[0.14530882801609168,0.21430336528661337,-0.10874132008212477],[-0.8049253718535724,-0.5218169392071001,-0.8824712098901373],[1.3990632454694842,-0.9573089119407595,-1.6761533943323583],[-1.0080460655109287,-0.09688904271185655,-0.930258946319623],[-0.9540161063152417,-0.2133860645587522,-0.5064753333797801],[1.4705604982505065,-1.635587522946106,-1.482940870434121],[-0.42645519516620833,-0.4419737459631002,-0.6293499668949606],[-0.8942741343320887,1.0189134145987113,1.2942172881174925],[0.31442368456796366,0.30347146928584334,0.9052246006382285],[-1.8119283600295453,-1.073578527783974,0.5013165959052813]],"biases":[1.650836620701924,-0.4643894793796268,0.057186357611709204]},{"inputNeurons":3,"outputNeurons":1,"weights":[[0.701975827885134],[1.337650808373789],[-1.7004049043900809]],"biases":[2.6395990934500517]}],"scores":{"1":2320,"2":2320,"3":2320,"4":2320,"5":2320,"6":2560,"7":2200,"8":2320,"9":2320,"10":2320,"11":2320,"12":2320,"13":2320,"14":3920,"15":2320,"16":2320,"17":2320,"18":2520,"19":2320,"20":2920,"21":2320,"22":2320,"23":2320,"24":2500,"25":2320}},{"layers":[{"inputNeurons":0,"outputNeurons":10,"weights":[],"biases":[-0.22186701777483955,-0.3344057930944906,0.642279718300535,0.5399797770660983,1.0588680688731058,0.5997335932471096,-0.10663749324295724,-0.3932141421702231,1.9398668404171884,1.3085620971270935]},{"inputNeurons":10,"outputNeurons":3,"weights":[[0.1884674746245525,0.047086852977940935,-0.22020201196675634],[-0.9730996386070958,-0.9396644602947524,-1.1405452764426518],[1.509262827808537,-0.4468325316872269,-1.5062751384098354],[-1.3168574017862258,0.055493132133260514,-0.8584516923890008],[-1.29381641258402,-0.035497634958928145,-0.4887826810040299],[1.6251394960471977,-1.358727449370436,-1.7271390079297577],[-0.17448163288251894,-0.9172800902676176,-0.40711188436268353],[-0.1859922945578386,0.9110528658518906,1.3748299441293153],[0.4775459996225738,0.2567705013192635,0.912847642615316],[-1.6386558660150392,-1.0836103968959094,0.37974760918767575]],"biases":[1.826479782572692,-0.41803208154695143,-0.15358176681368493]},{"inputNeurons":3,"outputNeurons":1,"weights":[[0.49096730218811063],[1.7964280049409143],[-1.5199700411740198]],"biases":[2.470908611231565]}],"scores":{"1":2320,"2":2320,"3":2320,"4":2210,"5":3920,"6":2580,"7":2320,"8":2320,"9":2320,"10":2320,"11":2520,"12":2320,"13":2560,"14":2320,"15":2320,"16":2320,"17":2320,"18":2320,"19":2500,"20":2320,"21":2520,"22":2320,"23":2320,"24":2320,"25":2320}},{"layers":[{"inputNeurons":0,"outputNeurons":10,"weights":[],"biases":[0.43660277177324747,-0.30004379769359324,-0.0370509380953232,0.4985161819114378,0.6650685807085595,0.8003712431390702,-0.9136166345057611,-0.9956041333528836,2.3156608284315405,1.2511160360132383]},{"inputNeurons":10,"outputNeurons":3,"weights":[[0.9762115458038456,-0.3575039089187876,-1.1852596793635546],[-0.702310332688003,-0.5443762151601458,-0.634914550723111],[0.801724473870824,-1.0033529245726467,-1.8504854501794301],[-0.839608212536529,-0.11084358200349813,-0.9061047971293821],[-1.0031843120500656,0.5051038126519677,0.031233914270978866],[1.2042034183868526,-1.2980248340955802,-2.5629200472095564],[0.8320393269321237,0.19050937283541447,-1.3118405686819719],[-0.6091687521808659,1.3510657370325467,1.0516239236014338],[0.5738645900753508,-0.26923907273207287,0.9841807205233586],[-0.9032397791531956,-1.705405383196053,0.8458319325271736]],"biases":[1.9494700716989717,-0.7462888275983943,-0.3114846196623704]},{"inputNeurons":3,"outputNeurons":1,"weights":[[0.43769300702131797],[0.42652121652671],[-1.0899996698001195]],"biases":[1.9512697641237493]}],"scores":{"1":2320,"2":2320,"3":2190,"4":2520,"5":2600,"6":2520,"7":2320,"8":2320,"9":2320,"10":2320,"11":2920,"12":2520,"13":2190,"14":2220,"15":2320,"16":2320,"17":2320,"18":2320,"19":2320,"20":2320,"21":2320,"22":3720,"23":2320,"24":2320,"25":2320}},{"layers":[{"inputNeurons":0,"outputNeurons":10,"weights":[],"biases":[0.6787722967291101,-0.6205972724575542,0.16991799081471165,0.15053924686003128,0.4314751076162328,0.8395257346802001,-0.7359326647401947,-0.8581454701322125,2.1201135406357894,1.1093662303876055]},{"inputNeurons":10,"outputNeurons":3,"weights":[[0.7823166473535775,-0.3911601478519966,-1.5483495250536417],[-0.8404210263270524,-0.35014112195117286,-1.0554383159886846],[0.66000916762687,-0.7176419492405937,-2.2263728191046517],[-0.22364053636548376,-0.15784592919277357,-1.0144716021536098],[-1.20229826187053,0.6637426195641809,-0.2411881612916123],[1.276411779936622,-0.8056704923580676,-2.5177047938894384],[0.4366868556095039,0.37207036061244164,-0.9622092348229171],[-0.7127852457057693,1.4334105034229787,0.9461895220360252],[0.42852195362113954,-0.6666806467240011,0.6763357218217378],[-0.9119774540058274,-1.8565884002794724,1.0781807898235747]],"biases":[1.6322488840397014,-0.7623702081211183,-0.7239254264207744]},{"inputNeurons":3,"outputNeurons":1,"weights":[[0.15921432022661375],[0.4760435788120665],[-1.1238421307407496]],"biases":[1.919942953773763]}],"scores":{"1":2320,"2":2220,"3":2720,"4":2320,"5":2420,"6":2320,"7":2320,"8":2320,"9":3390,"10":2320,"11":2520,"12":2920,"13":2320,"14":2320,"15":2320,"16":2320,"17":2320,"18":2320,"19":2520,"20":2320,"21":2320,"22":2320,"23":2320,"24":2220,"25":2320}},{"layers":[{"inputNeurons":0,"outputNeurons":10,"weights":[],"biases":[-0.2076575559363461,-0.49987398703603836,-0.6247919092696643,0.25406676284102775,0.6420164111687553,0.41726222924878364,-0.225899214269311,-0.7063222483986229,1.8195137693742167,2.1790404563478782]},{"inputNeurons":10,"outputNeurons":3,"weights":[[-0.40485680582644007,0.09569950443435246,-0.6172207375743104],[-1.3192983524222461,-0.5789466202137357,-1.1946188018784611],[1.4532810464698551,-0.9008143042418656,-1.1120813932026676],[-0.8924688622726509,-0.10100583869996199,-1.2422210738445687],[-1.7356387347807256,-0.43120405429849795,-0.3453972120399549],[1.3952788529087479,-2.0595382041830126,-2.1542963285444774],[-0.10515241652128293,-0.16852420144597147,-0.6089522400200525],[-0.7779297248358337,0.3569397159368005,0.9051168241196373],[0.3808207688507118,0.11953920536248863,0.30680981307877375],[-2.1729689785065434,-1.0282823458555792,1.7984044225388902]],"biases":[1.9689325652797929,0.1337343237911497,-0.041169473088847525]},{"inputNeurons":3,"outputNeurons":1,"weights":[[0.37643222803598625],[1.7442677113269538],[-2.018137851892592]],"biases":[2.12877066075739]}],"scores":{"1":2550,"2":2320,"3":3100,"4":2520,"5":2320,"6":2320,"7":2320,"8":2320,"9":2320,"10":2320,"11":2520,"12":2500,"13":2320,"14":2320,"15":2500,"16":2320,"17":2320,"18":2320,"19":2760,"20":2320,"21":2190,"22":2320,"23":2320,"24":2320,"25":2520}},{"layers":[{"inputNeurons":0,"outputNeurons":10,"weights":[],"biases":[-0.17646709484310147,0.1450563467225566,-0.43491958394494046,-0.04930130421120732,0.627683585981458,0.7410720236361026,-0.5880314183643374,-0.9446977861136096,1.1314812885051402,1.8553017878818705]},{"inputNeurons":10,"outputNeurons":3,"weights":[[-0.07781910620017485,0.3410337974304864,-0.39365071680323666],[-1.1643115657767453,-0.6728987012535668,-1.4839290050733485],[1.2239172804889282,-1.0879336534449136,-1.300849250625493],[-1.053304721433754,-0.04312748864640019,-1.1677715150239192],[-1.8324023226116415,-0.22570072771463284,-0.48457545014299724],[1.7235413046611539,-1.597636448854621,-1.8436810300268698],[0.10134715179171337,-0.3295656634294432,-0.43248321800528156],[-1.1715835839970818,0.6180552444770611,0.9225930919016],[0.4876422211192101,-0.16965518442754762,0.867114358073125],[-2.5272954278354502,-1.3353228841430078,1.1667609726255537]],"biases":[1.386017636471403,-0.24382524230066327,-0.08617995407912078]},{"inputNeurons":3,"outputNeurons":1,"weights":[[0.5349998606573617],[1.6926452707995803],[-1.7598679526899992]],"biases":[2.2053963310961224]}],"scores":{"1":2500,"2":2320,"3":2320,"4":2720,"5":2320,"6":2320,"7":2320,"8":2320,"9":3050,"10":2320,"11":2320,"12":2320,"13":2320,"14":2320,"15":2320,"16":2320,"17":2520,"18":2320,"19":2320,"20":2320,"21":2320,"22":2320,"23":2320,"24":2320,"25":2720}},{"layers":[{"inputNeurons":0,"outputNeurons":10,"weights":[],"biases":[0.7977797392227134,-0.1851938638294583,0.05810349971637552,0.39803122234385335,0.5137274722701679,0.4616416558582405,-1.339260504710712,-0.9372749734470065,2.279102763891571,1.336584408755661]},{"inputNeurons":10,"outputNeurons":3,"weights":[[1.0525665485785052,-0.49537148847692847,-1.405917316822604],[-1.230343397014412,-0.49311543562454624,-0.8365830331795611],[1.3057369943904953,-0.9037388736846113,-1.8410951840452703],[-0.6582901943702466,0.2046362628467483,-1.019434297815856],[-1.2073562665812203,0.7762858518677797,-0.1807924576781288],[1.872043587871478,-1.2750773129709538,-2.1744083246366666],[0.6171651405329408,0.26823385707802067,-1.0375470299504346],[-0.837148866752177,1.36668281095938,0.6392117604951448],[0.7173034226650666,-0.6438199129999232,1.3743492683111664],[-1.0039585086831704,-1.527686256247843,1.1224236877687688]],"biases":[1.8383491095657214,-1.0426114962729838,-0.6520154008802378]},{"inputNeurons":3,"outputNeurons":1,"weights":[[0.5916047718207225],[0.9104613010718774],[-1.174957750053239]],"biases":[1.920514010548757]}],"scores":{"1":2320,"2":2320,"3":2320,"4":2320,"5":2320,"6":2320,"7":2320,"8":2500,"9":2320,"10":2320,"11":2320,"12":2320,"13":3050,"14":2500,"15":2320,"16":2320,"17":2320,"18":2320,"19":2320,"20":2320,"21":2320,"22":2320,"23":2320,"24":3120,"25":2320}},{"layers":[{"inputNeurons":0,"outputNeurons":10,"weights":[],"biases":[0.5296310050596083,-0.28117436840655397,0.05166943028891006,0.6084839992348371,0.6502323454891953,0.064977392642243,-0.7935819243241045,-0.3030203087786909,1.865493794772708,1.3003003119150094]},{"inputNeurons":10,"outputNeurons":3,"weights":[[0.7395022181513367,-0.6358312523876901,-1.3504163743577284],[-1.0557531732610592,-0.5459609520423737,-0.12916526057072808],[0.7720765297701314,-1.2749449742498045,-1.2903607076766095],[-0.9449919370173665,0.21445240524632064,-0.7824020216362495],[-1.1124884358974,0.26762445079369024,-0.3335570917813157],[1.7049317671250928,-0.5041675949784052,-2.3159361546226442],[-0.12309546490422572,0.17408764966449547,-0.7747654560275176],[-0.3605278377972664,1.2574040087861094,1.1389775606505093],[0.9243120076622608,-0.3314839159728189,0.559891768526709],[-1.0030291703729524,-1.264498824043811,1.619155732139828]],"biases":[2.1270940885225893,-1.5926187528834184,-0.4853340893167078]},{"inputNeurons":3,"outputNeurons":1,"weights":[[0.3107537598814577],[0.13106434468700628],[-1.3438206379059616]],"biases":[1.8583381878140521]}],"scores":{"1":2320,"2":2320,"3":2920,"4":2220,"5":2320,"6":2320,"7":2520,"8":2320,"9":2360,"10":2320,"11":1300,"12":2320,"13":2320,"14":2320,"15":2320,"16":2320,"17":2320,"18":2320,"19":2320,"20":2320,"21":3720,"22":2320,"23":2920,"24":2320,"25":2320}},{"layers":[{"inputNeurons":0,"outputNeurons":10,"weights":[],"biases":[0.06850092467836574,-0.14864401957025558,-0.8192388915554105,0.29286674748577723,0.2064025753981233,0.631429740966091,-0.9926891321218223,-1.1340381909117674,1.5602692128978153,2.0268303645261994]},{"inputNeurons":10,"outputNeurons":3,"weights":[[-0.5721878108120876,-0.09655973839276284,-0.46473849838623477],[-1.22245881062764,-0.9839509586124263,-1.5238773989470138],[1.4026444183440125,-1.2477648913258985,-1.413665467379162],[-1.146914891229437,0.16116039114383102,-0.982010877254487],[-2.137048912192467,0.028961397010820678,-0.5163686766186365],[1.4375868221702053,-1.9378537741941062,-2.0996292546851474],[0.09025994335028668,-0.38087969720810666,-0.6018149830780459],[-0.9501515712581557,0.4391972559891758,0.6937805299799849],[0.42286585398390614,-0.3188120713078342,0.8387497128019642],[-1.9278581255346632,-0.6463773699163773,1.3836849880322935]],"biases":[1.6098898834633248,0.06721558015327381,-0.5449592632538602]},{"inputNeurons":3,"outputNeurons":1,"weights":[[0.5332785049900738],[2.009844731523034],[-2.124308090818142]],"biases":[2.0559162302540406]}],"scores":{"1":2520,"2":2320,"3":2320,"4":2520,"5":2520,"6":2320,"7":2320,"8":2320,"9":2320,"10":2320,"11":2320,"12":2360,"13":2320,"14":2950,"15":2320,"16":2320,"17":2700,"18":2320,"19":2590,"20":2500,"21":2320,"22":2920,"23":2320,"24":2320,"25":1300}},{"layers":[{"inputNeurons":0,"outputNeurons":10,"weights":[],"biases":[-0.17990268213223412,-0.5858253055468985,0.40755814462348827,-0.2505509670074206,0.6435352048615005,0.40298030564290155,-0.23819753287474227,-0.5333913644927529,1.7279533609432862,1.3284478313549284]},{"inputNeurons":10,"outputNeurons":3,"weights":[[-0.1305140104102156,0.004584551819141719,-0.01060197553937104],[-1.047483956084143,-0.991384832680154,-0.8924944300756446],[0.9268760692100966,-0.7737524821574883,-1.4369762814289133],[-1.4639688907811352,-0.11674979637474549,-0.97631675917275],[-1.1564471784581054,0.22700506100677173,-0.4009194322854297],[1.6990221268595533,-1.301563620241915,-1.0896610400619544],[-0.47128672239882435,-0.8001289502866918,-0.43928399314009703],[-0.8663660675523837,0.8083045259675492,1.0813505240575525],[0.8173790844294877,0.35872000219963984,1.2014647352161862],[-1.5283565977593345,-0.8189580600473967,0.9939160640503699]],"biases":[1.8803859437281198,-0.4523931153965383,-0.20243653540526882]},{"inputNeurons":3,"outputNeurons":1,"weights":[[0.6526556412430692],[1.6313853137910692],[-1.5493242312589615]],"biases":[2.3929690954099714]}],"scores":{"1":2520,"2":2320,"3":2320,"4":2320,"5":2320,"6":2320,"7":2320,"8":2210,"9":2650,"10":2320,"11":2320,"12":2320,"13":2520,"14":2360,"15":2190,"16":2320,"17":3830,"18":1300,"19":2320,"20":2320,"21":2320,"22":2560,"23":2640,"24":2320,"25":2320}},{"layers":[{"inputNeurons":0,"outputNeurons":10,"weights":[],"biases":[-0.011069012837311237,-0.6284820407647811,0.7464225783641434,0.05709105096429885,1.0996495768546375,0.5577531607540284,0.15847923243682416,-0.3969451104093997,1.6600984782844634,1.2895042566110302]},{"inputNeurons":10,"outputNeurons":3,"weights":[[0.10805685128086832,-0.14362979052464528,-0.012412826165090277],[-1.139384795189322,-0.7740090065345199,-1.416422991077337],[1.3600593264452399,-0.6410173452269072,-1.7943022998979288],[-0.8959111328881613,-0.3586226704047464,-0.714788272527481],[-0.9887237954245078,-0.21606053613701956,-0.42877407211198965],[1.5433778159691562,-1.454079052086848,-1.526846469852997],[-0.8033740262491618,-0.5643049898873398,-0.2566584100546016],[-0.8000093173823732,0.7498310926926535,1.4019372495008111],[0.7205779550430186,0.528010334777163,0.8843776529710734],[-1.5290885947657948,-1.1114270887750541,0.6701264845671848]],"biases":[2.212999493042395,-0.472714494702888,-0.2404715208509532]},{"inputNeurons":3,"outputNeurons":1,"weights":[[0.6080117908842749],[1.587899289945412],[-1.5718537797055359]],"biases":[2.6699541676442538]}],"scores":{"1":2520,"2":2920,"3":2340,"4":2210,"5":2220,"6":2340,"7":2360,"8":2340,"9":2340,"10":2210,"11":2340,"12":2340,"13":2380,"14":2340,"15":2940,"16":2340,"17":2540,"18":2320,"19":2340,"20":2320,"21":2130,"22":2340,"23":2340,"24":2340,"25":2340}},{"layers":[{"inputNeurons":0,"outputNeurons":10,"weights":[],"biases":[-0.1617741635527395,-0.9003460615331662,0.8022293346483097,0.38002123370445356,1.0418456149694983,0.37977582766257745,-0.045911392176013255,-0.22175121823086763,1.8971717057169426,1.4267915529644861]},{"inputNeurons":10,"outputNeurons":3,"weights":[[0.21517797888779477,-0.21408105815282746,-0.21188180871246542],[-1.2867488589898697,-0.6433734973919445,-0.9021618716382601],[1.209025714412856,-0.6056379375772802,-2.102604026167267],[-1.0321222997025488,-0.5120842701785455,-0.7413182541869536],[-1.5955430603059861,-0.32616976654297847,-0.7214631920836483],[1.4601350639587771,-1.4272611967538942,-1.2236810020374096],[-0.2914447955873387,-0.8524652232419505,-0.42005337031651385],[-0.7483821717761285,0.5015100949274822,1.4166813336110984],[0.2719193494099653,-0.21778260553344184,0.7127518265728588],[-1.8829832181347645,-0.7840354438203929,0.646224308608018]],"biases":[1.9713928403954024,-0.36286216533647586,-0.2595353564250695]},{"inputNeurons":3,"outputNeurons":1,"weights":[[0.7596695162565151],[1.8199091808789507],[-1.1380012564405084]],"biases":[2.687648084720052]}],"scores":{"1":2320,"2":2470,"3":2320,"4":2700,"5":2320,"6":2320,"7":2500,"8":2320,"9":2320,"10":3720,"11":2320,"12":2320,"13":1310,"14":2320,"15":2960,"16":2320,"17":2320,"18":2500,"19":1300,"20":2320,"21":2320,"22":2210,"23":2320,"24":2400,"25":2920}},{"layers":[{"inputNeurons":0,"outputNeurons":10,"weights":[],"biases":[-0.19758447433687046,-0.4459548961168346,1.0229975497406314,0.03137740479092657,0.909803380370159,0.4105183728315819,0.08128605969352284,-0.4389044044127747,1.0180526087129467,1.4643391981065164]},{"inputNeurons":10,"outputNeurons":3,"weights":[[-0.43458079517192216,-0.47860906152278976,-0.06850606233356626],[-0.8575062997601222,-0.5909924462978848,-0.99426359097804],[1.3911413399287134,-0.8553163027162389,-1.8260107611412626],[-1.2117698366668401,-0.1893250807818034,-1.07448894392077],[-1.385946252828582,-0.0295026952380815,-0.5710616712986062],[1.2661863957551598,-1.473835419801763,-1.3766730565137142],[-0.05772396731910601,-0.3687564533542796,-0.6931918208965626],[-0.634084610580109,0.8682601215414126,0.9420742621098546],[0.5681994860862801,-0.02444248254288553,1.1078666488727642],[-1.7573912457237744,-0.9587082720711728,0.9376479971414957]],"biases":[1.5049820837973746,-0.2174729768190826,-0.042351516689601965]},{"inputNeurons":3,"outputNeurons":1,"weights":[[0.4002902104054118],[1.6754283920682997],[-1.3597535127519051]],"biases":[2.6394468557013866]}],"scores":{"1":1300,"2":3390,"3":2320,"4":2320,"5":2320,"6":2520,"7":2320,"8":2720,"9":2320,"10":2320,"11":2520,"12":2520,"13":2200,"14":2760,"15":2320,"16":2320,"17":2320,"18":2320,"19":2300,"20":2320,"21":2520,"22":2320,"23":2220,"24":2320,"25":2320}},{"layers":[{"inputNeurons":0,"outputNeurons":10,"weights":[],"biases":[-0.30932638848868416,-0.2756285207972551,-0.20823431272938445,0.14709851788988007,0.511890998551845,0.47504966392391856,-0.6438307564415298,-1.2499319787094572,1.6011324216692782,2.1169100371334375]},{"inputNeurons":10,"outputNeurons":3,"weights":[[-0.9251467482298625,0.3748775582319271,-0.8663564967631108],[-1.2167889753671484,-0.9495778688687582,-1.0235595596414369],[0.8822898667291746,-0.7895273454864316,-1.2079038879906556],[-1.28339101111106,-0.08256254055516418,-0.7835708403417241],[-1.8387756806128173,-0.47920332199198823,-0.28677336500567063],[1.7093753736408015,-1.7147998298766298,-1.751700032614313],[-0.42956732268344644,-0.4842722303967822,-0.5922577738599191],[-0.815344020518057,0.6164911289661394,1.133355871036044],[0.7526867141128923,0.02567342955527807,0.6722685663644874],[-2.3260599666604302,-1.061267406764656,1.249782511101394]],"biases":[1.7491653198658599,-0.31431919271028447,-0.24921501663885284]},{"inputNeurons":3,"outputNeurons":1,"weights":[[0.6085490992001388],[1.5854223116518975],[-1.975942482667161]],"biases":[2.246591358407616]}],"scores":{"1":2320,"2":2320,"3":2320,"4":3390,"5":2320,"6":2320,"7":2320,"8":2290,"9":2320,"10":1940,"11":2320,"12":2520,"13":2520,"14":2210,"15":2320,"16":2320,"17":2720,"18":2320,"19":2320,"20":2320,"21":2320,"22":2370,"23":2320,"24":2320,"25":2320}},{"layers":[{"inputNeurons":0,"outputNeurons":10,"weights":[],"biases":[-0.12105214711218341,-0.5484189456186719,1.1598437384767522,0.24669624270328325,0.6659558889621163,0.4710205874507433,-0.33594484296125393,-0.6815289462767472,1.6393470932887033,1.3149371354182984]},{"inputNeurons":10,"outputNeurons":3,"weights":[[0.1109443423303358,-0.04918643520080579,0.05887885837799137],[-1.0109947814691762,-0.7678307938906498,-0.7164073992816891],[1.3428535521868628,-1.190813456156976,-1.4672610923860374],[-0.8485341585258388,0.09222286402419375,-0.7434391971414952],[-1.5106222415681712,0.27611434773235544,-0.9483707564035639],[1.735513399231224,-1.1308266495195496,-1.3660453150514174],[-0.34743656826105507,-0.45580289867001794,-0.5780519195513022],[-0.8805908532446737,0.8465985667834337,1.0428832007410473],[0.6840348514306418,0.1660696056063165,1.081548875652197],[-1.6464750475839633,-0.8047198719299077,0.3964217236896912]],"biases":[1.7527055561935716,-0.21887056581795689,0.14045927658274837]},{"inputNeurons":3,"outputNeurons":1,"weights":[[0.38125384177901556],[1.3908487925806765],[-1.528400386198013]],"biases":[2.5529649750596843]}],"scores":{"1":2320,"2":2320,"3":2320,"4":2320,"5":2320,"6":2520,"7":2520,"8":2320,"9":2520,"10":2560,"11":2320,"12":2320,"13":2320,"14":2520,"15":2320,"16":2320,"17":2520,"18":2210,"19":2320,"20":2520,"21":2320,"22":2320,"23":2320,"24":2320,"25":2320}},{"layers":[{"inputNeurons":0,"outputNeurons":10,"weights":[],"biases":[0.06038155233749004,-0.5907029267657203,0.7657375634174339,0.09809306924463368,0.8615951569886382,1.038225603945404,0.02423315187865263,-0.472170497813483,1.5221085906534266,1.4263249430131315]},{"inputNeurons":10,"outputNeurons":3,"weights":[[-0.02020165547866764,-0.24046882399842762,-0.45629356635972806],[-1.4821530673417154,-0.9155879558625277,-0.7867672787110387],[1.318901229014424,-0.6173026236841892,-1.56353192968941],[-1.037371006176741,0.29083476115280127,-1.0809065287036999],[-1.8351459760333158,0.0625765849264246,-0.3015874793607852],[1.5075553138408453,-1.5027144531421912,-1.2338044156761439],[-0.7148478133187985,-0.23953228246179875,-0.5736958595060215],[-0.5933248926846668,0.5086477612874005,0.9941439538290758],[0.8146023644338998,0.017690547393183848,1.0476259793877263],[-1.7053379578560621,-0.8502229708754131,0.48612344871262647]],"biases":[1.8294304742762098,-0.5928300575040727,-0.04302008200492394]},{"inputNeurons":3,"outputNeurons":1,"weights":[[0.371338294376346],[1.7749589474569492],[-1.014935503703569]],"biases":[2.585683514210807]}],"scores":{"1":2320,"2":2320,"3":2870,"4":2200,"5":2320,"6":2320,"7":2390,"8":2320,"9":2520,"10":2690,"11":2320,"12":2320,"13":2320,"14":2520,"15":2320,"16":2320,"17":2320,"18":2320,"19":2320,"20":2320,"21":2320,"22":2320,"23":2320,"24":2320,"25":2320}},{"layers":[{"inputNeurons":0,"outputNeurons":10,"weights":[],"biases":[0.8406708602873258,-0.25329641984834816,-0.08718514901614183,0.325121900314544,0.8894266653333345,0.32404101772122246,-1.1062837944122852,-0.9674715670407645,2.141701619395155,1.5466653507713541]},{"inputNeurons":10,"outputNeurons":3,"weights":[[1.0491950623813278,-0.5169661975734815,-1.2196756904766701],[-0.7576591072057685,-0.25192042682768323,-0.22451732615479547],[0.9522803477443487,-1.3186704344554516,-1.423786675006078],[-1.074746076932818,0.029078383144226227,-0.30760389077731815],[-1.2432426892997577,0.5361142453109133,0.008674068235689076],[1.5165471703250553,-1.182376885508159,-2.317877696536138],[-0.09771704427431063,-0.13733327711521548,-0.8577456524322611],[0.0050078010945553975,1.3924317064734066,0.8837066663497836],[1.2638969447043746,-0.3127915543585045,0.7273161472801977],[-0.7630275927503802,-1.0951835453212064,1.0781578226989648]],"biases":[2.286915442618757,-1.5041609331956909,-0.6542027661399306]},{"inputNeurons":3,"outputNeurons":1,"weights":[[0.3813344040299549],[-0.22674933725169444],[-1.223883790369881]],"biases":[1.4088352408122993]}],"scores":{"1":2210,"2":2320,"3":2320,"4":1300,"5":2320,"6":2320,"7":2320,"8":2600,"9":2320,"10":4320,"11":2320,"12":2200,"13":2320,"14":2320,"15":2320,"16":1310,"17":2320,"18":2520,"19":2320,"20":2700,"21":2320,"22":2520,"23":2320,"24":2690,"25":2320}},{"layers":[{"inputNeurons":0,"outputNeurons":10,"weights":[],"biases":[0.10758583578161901,-0.10228878514500643,-0.6787848114049099,0.11021401860827024,0.3565372134213969,0.8961511453647668,-0.15370728702557163,-1.194214383282356,1.4971171069022782,1.7952377188144093]},{"inputNeurons":10,"outputNeurons":3,"weights":[[-0.7493729290071574,0.01392967635950352,-0.5846448455381931],[-1.20944488615929,-0.7816868173160423,-0.6423357787507313],[0.976845140183347,-0.8712258939114312,-1.2807549006993524],[-1.0527995099324716,0.314316674296371,-0.8662200361614292],[-1.9847563306549827,-0.015140820983250536,-0.5608418916497936],[1.6701800989736255,-1.977898327277419,-2.1251539871625753],[-0.12694542733674596,-0.6187559710902373,-0.6053993577912566],[-1.1818864936372966,0.5565261072531809,1.245370818150763],[0.7981409560558249,-0.23420323531211665,0.7480577151914587],[-1.9899676019830768,-1.0180417367775787,1.201509551468623]],"biases":[1.8029371518001174,0.304023924234224,-0.3899733279900675]},{"inputNeurons":3,"outputNeurons":1,"weights":[[0.6476779049729147],[1.8575233341711601],[-1.5109756228721385]],"biases":[2.107613330549759]}],"scores":{"1":2940,"2":2580,"3":2340,"4":2340,"5":2340,"6":2000,"7":1950,"8":2160,"9":2340,"10":2340,"11":2340,"12":2340,"13":2340,"14":2340,"15":2340,"16":2340,"17":2340,"18":1710,"19":2540,"20":2340,"21":2340,"22":2340,"23":2340,"24":3400,"25":2340}},{"layers":[{"inputNeurons":0,"outputNeurons":10,"weights":[],"biases":[0.8479038645651666,0.014993460917748475,0.08634969418512738,0.6045870346247909,0.8743531114650368,0.5133298094018374,-1.076541927720027,-0.913208098900521,1.4460872581726671,0.9157008726473888]},{"inputNeurons":10,"outputNeurons":3,"weights":[[0.8597690000914907,-0.811310533275879,-1.20330985028789],[-1.371239407540761,-0.3587736409849943,-1.024972271572243],[1.114376312100317,-1.0212691462490815,-1.1069637268963017],[-0.6631444955662213,0.002619526528665664,-0.6050681610774885],[-1.4141251842852756,0.6056150572932364,-0.1699344214438422],[2.0022803071186472,-0.962722303576216,-2.237651431183197],[0.05405358832639562,0.2409771053198256,-0.9256337264536152],[-0.05578634820800371,1.431358753538751,0.6769018839386396],[0.9348753066456096,-0.699807400028051,0.5868138491389686],[-0.6076993662944317,-1.2179441095446837,1.078022001438743]],"biases":[2.189168545551345,-1.7292375511537714,-0.4898101745842943]},{"inputNeurons":3,"outputNeurons":1,"weights":[[0.3017916672136803],[-0.003661519289819115],[-1.508990852285093]],"biases":[1.8385473884829069]}],"scores":{"1":2320,"2":2320,"3":2320,"4":2320,"5":2500,"6":2320,"7":2520,"8":2320,"9":2310,"10":2320,"11":2320,"12":2500,"13":2320,"14":2520,"15":2320,"16":2520,"17":2320,"18":2320,"19":2320,"20":2500,"21":2320,"22":2320,"23":3120,"24":2320,"25":1300}},{"layers":[{"inputNeurons":0,"outputNeurons":10,"weights":[],"biases":[0.11988117545788407,-0.25830436237886456,-0.3188380723039172,-0.17562216744564418,0.47523257950360753,0.5607584451364238,-0.18983180079324885,-1.2338027678635795,1.648095285930915,1.7438191070448363]},{"inputNeurons":10,"outputNeurons":3,"weights":[[-0.5279226449196514,0.15564387869544088,-0.5877751545614739],[-1.031510756585184,-0.733063530942884,-1.022556548796588],[0.9140592691767593,-0.4643570912795332,-1.507909115959733],[-0.969266072332543,-0.2904194120569327,-0.9372090262701842],[-2.0797249232151955,-0.3970973915918212,-0.15256638051019966],[1.7366941364120145,-2.174270803004627,-2.4906749374260624],[0.1329027037566068,-0.5351620067487239,-0.4639993585547358],[-0.8651727751903435,0.308789947230138,0.6053897452548108],[0.5693478486585528,-0.38522596184827723,0.535901783562638],[-2.010801794375163,-0.7033620114545209,1.3147410824740688]],"biases":[1.9240478896598652,-0.2754140384965169,-0.12749419990576474]},{"inputNeurons":3,"outputNeurons":1,"weights":[[0.3816529305794293],[1.7077665729856333],[-1.8515140156336347]],"biases":[1.9954627001078462]}],"scores":{"1":2920,"2":2320,"3":2320,"4":2320,"5":2320,"6":2320,"7":2320,"8":2190,"9":2520,"10":2320,"11":2320,"12":2590,"13":2320,"14":2320,"15":2320,"16":2320,"17":2320,"18":1330,"19":2320,"20":2320,"21":2320,"22":2320,"23":2620,"24":2320,"25":2890}},{"layers":[{"inputNeurons":0,"outputNeurons":10,"weights":[],"biases":[0.5925544773980758,-0.23301264688591608,0.16918483905611775,0.4206006991493121,0.6810003427304603,0.5271521586559174,-0.6717926090467397,-1.0467072009285707,1.918094472268033,0.9970332436055216]},{"inputNeurons":10,"outputNeurons":3,"weights":[[0.3652346780918103,-0.1315356170774407,-1.2675992887864265],[-0.950168459545222,-0.4704574325258439,-0.9881547873726644],[1.2499930550358467,-1.087696431854008,-1.5154541480167107],[-0.5927639223196836,0.33376959422204644,-1.1648674202224354],[-0.8113941503686987,0.4807898318110535,-0.051979958957324296],[1.003701977495405,-1.2513909653272586,-2.478763031585332],[0.004349791722631391,0.3486890213380046,-0.891725893986901],[-0.9104376514693768,1.118455546517451,0.9579972297573142],[0.43723848692435197,-0.3623559488287608,1.2030753784409167],[-1.3567623307528653,-2.0312063682541175,0.9565238552027598]],"biases":[1.765177639346375,-1.4746190075360999,-0.3661276146780486]},{"inputNeurons":3,"outputNeurons":1,"weights":[[0.08526742104038781],[0.3557708024887866],[-1.2205469785917327]],"biases":[1.9091191677224815]}],"scores":{"1":2320,"2":2520,"3":2320,"4":2320,"5":3120,"6":2240,"7":2800,"8":2320,"9":2320,"10":2320,"11":2320,"12":1320,"13":2320,"14":2320,"15":2320,"16":2320,"17":2320,"18":2320,"19":1300,"20":2320,"21":2320,"22":3720,"23":2320,"24":2320,"25":2320}},{"layers":[{"inputNeurons":0,"outputNeurons":10,"weights":[],"biases":[0.9393750355369186,-0.6874253759477248,-0.12759949299683734,0.7771662048574133,0.5047467381857008,0.5316347747363035,-0.9844444004435137,-0.8164630487387664,2.1041734180199763,1.4722620224091885]},{"inputNeurons":10,"outputNeurons":3,"weights":[[0.5103470734886911,-0.35046181776827257,-1.3657606829316904],[-0.7674938584527338,-0.345600581605362,-0.3986233824974391],[0.8739302292287748,-1.2041319292055503,-1.2423302261619813],[-0.8465193634177572,0.1095110039464846,-0.08170613424580453],[-1.4056439412700201,0.270083684523297,0.01690954682496862],[1.2551996556254414,-0.6979464664589821,-2.641118389508634],[-0.16279223164063714,-0.12350325910312598,-0.9693431341778932],[-0.35902099429568396,1.2233233966119934,1.0821409802594384],[0.9111911465307967,-0.42915448445428006,0.25964889001491276],[-0.9872683208791382,-1.2400396122075614,1.2565357923363973]],"biases":[2.710339319157347,-1.1499379871005528,-0.22317965092364925]},{"inputNeurons":3,"outputNeurons":1,"weights":[[0.23341730558091733],[-0.13111772394396376],[-1.8390710433248811]],"biases":[1.557243667187193]}],"scores":{"1":2320,"2":1300,"3":2320,"4":2320,"5":2520,"6":2520,"7":1300,"8":5820,"9":2320,"10":1300,"11":2320,"12":2320,"13":2320,"14":2320,"15":2320,"16":2320,"17":2320,"18":2320,"19":2320,"20":2320,"21":2320,"22":2320,"23":2320,"24":2320,"25":2210}},{"layers":[{"inputNeurons":0,"outputNeurons":10,"weights":[],"biases":[0.4315892984328743,-0.2019965034626366,0.3283182908298071,0.15440678569480532,0.7426699097063905,0.6871453567131378,-1.1683399318963197,-0.9352485889467884,2.286326317054135,1.300035610587182]},{"inputNeurons":10,"outputNeurons":3,"weights":[[1.1596178936320045,-0.6641914270412519,-1.2065672745285156],[-0.8087093530225302,-0.24236347133864045,-0.8819933799032049],[0.8929030411270507,-0.9618158313257688,-2.0565324865826238],[-0.25247613754760634,0.18479387508738987,-0.7794441700110311],[-1.1478829082412365,0.9812292835233449,0.5095943626270857],[1.6386576553758863,-0.9551523275328051,-2.3382042565432863],[0.4152366877365526,0.10801278142878085,-1.4424618827032099],[-0.906254551346142,1.601798261502302,1.039606576601969],[0.6585138514802675,-0.30904685312637703,0.7886308246221166],[-0.5333471802793668,-2.1888869942257987,0.9626859692937507]],"biases":[1.6913884153831833,-1.1412931306366363,-0.6209035287809224]},{"inputNeurons":3,"outputNeurons":1,"weights":[[0.1815487895707698],[0.2768004601527191],[-1.2468692124761631]],"biases":[1.8514060429909478]}],"scores":{"1":2520,"2":2320,"3":2320,"4":2320,"5":2920,"6":2320,"7":2320,"8":2200,"9":2320,"10":2520,"11":2500,"12":2320,"13":2320,"14":2320,"15":2320,"16":2600,"17":1370,"18":2520,"19":2320,"20":2320,"21":2510,"22":2320,"23":3120,"24":1300,"25":2320}},{"layers":[{"inputNeurons":0,"outputNeurons":10,"weights":[],"biases":[-0.39734670394991767,-0.6991227536803941,0.9400116347054513,0.007249938200870817,0.8805615043526578,0.5095559641542028,-0.2796423083316966,-0.43425375838799013,1.5060863089813405,1.6823983133784608]},{"inputNeurons":10,"outputNeurons":3,"weights":[[0.04283447805151533,-0.07246550958956072,-0.35998696340608716],[-1.2089319430875967,-1.014396297615235,-0.6891235255615681],[1.488683520761567,-0.8858795717781303,-1.6264639692706855],[-1.2721789196851085,-0.1494581501434568,-0.9130919536635402],[-1.4171811624079986,0.11541389581170147,-0.44400743170806767],[1.3432156436423988,-1.560752980815587,-1.1199656803559979],[-0.3346479147873015,-0.734480665985048,-0.5801397324003803],[-0.32512221316462825,0.7527103233441805,1.0573791259441916],[0.5513440707864022,0.5234919165170471,1.1627513419364972],[-1.7391423458605033,-0.9983755913291085,0.8916728323389395]],"biases":[2.0134889784717123,-0.14553523207802183,-0.16927084919836197]},{"inputNeurons":3,"outputNeurons":1,"weights":[[0.46960345772195766],[1.3535465431843816],[-1.4275277298634461]],"biases":[2.83887176699004]}],"scores":{"1":2200,"2":2320,"3":2420,"4":2320,"5":1300,"6":2320,"7":2520,"8":2520,"9":2320,"10":2320,"11":2320,"12":2360,"13":2320,"14":2720,"15":2520,"16":2320,"17":2560,"18":2320,"19":2320,"20":2520,"21":2210,"22":2320,"23":2320,"24":2320,"25":2520}},{"layers":[{"inputNeurons":0,"outputNeurons":10,"weights":[],"biases":[0.5479326436241337,-0.07694887682597745,0.348219332321994,0.5266763850187939,0.8341870600619576,0.5363864122802567,-1.2015813355550045,-0.9000531129475577,1.7518558420353934,1.3904494782738068]},{"inputNeurons":10,"outputNeurons":3,"weights":[[0.5832430169758696,-0.6492559020445232,-1.4137303351368886],[-1.233207578971264,-0.4382993482236128,-0.5235704040694114],[0.9238555604449434,-1.1103444086725618,-1.3388888434559],[-0.6217703450809113,-0.12362904869513654,-0.8398896108493501],[-1.5805357521968266,0.4610981054026272,0.2579035506905654],[1.4179572322861527,-1.0326774949082513,-2.152427326923455],[0.6303982795390921,0.07167363398161922,-1.0623548062113217],[-0.509701370831461,1.4396430252900334,0.7228095647234818],[1.1873170802001118,-0.6706252075278953,0.4964645028871153],[-1.0924440245613396,-1.1230639018843935,1.3671849307352184]],"biases":[2.2894786956292013,-1.434760324340206,-0.5407147165828503]},{"inputNeurons":3,"outputNeurons":1,"weights":[[0.1706216623627353],[0.29812479491447785],[-1.905991463749183]],"biases":[1.3228284519947864]}],"scores":{"1":2320,"2":2520,"3":2320,"4":2320,"5":2320,"6":2320,"7":2320,"8":2520,"9":2360,"10":3490,"11":2320,"12":2320,"13":2320,"14":2520,"15":2500,"16":2520,"17":1300,"18":2320,"19":2320,"20":2320,"21":2320,"22":1330,"23":2650,"24":2320,"25":2320}},{"layers":[{"inputNeurons":0,"outputNeurons":10,"weights":[],"biases":[-0.01653796757824222,-0.516326473116185,0.95222031057107,-0.007152911908800172,0.8922780364111356,0.6757762932711429,-0.05758775730283139,-0.6373425794325136,1.6630184815623212,1.3932351683892503]},{"inputNeurons":10,"outputNeurons":3,"weights":[[-0.14314681227343184,0.03914674783013855,-0.12117011499657072],[-1.2837813043281807,-0.7310667704312561,-1.131933329728993],[1.3572953053620724,-0.7098774744830987,-1.8627197902273052],[-1.077042112695077,0.01430027010099813,-0.6820079199420359],[-1.6756008285826978,0.22672299266797227,-0.3712508769273602],[1.6181271118123168,-1.45653797716049,-1.163205490148162],[-0.5459512458461738,-0.6942497874245407,-0.6059712092453156],[-0.7225720887098851,0.3170687790394281,1.0323560714114797],[0.4343982656825597,0.5372506010543778,0.9363969585931654],[-1.5879045742780387,-1.173813195395199,0.7992783696195721]],"biases":[1.5193725072463211,-0.32400161251007153,-0.11400789518720922]},{"inputNeurons":3,"outputNeurons":1,"weights":[[0.8888107006111143],[1.3968518793357714],[-1.5091528490131731]],"biases":[2.3598017234839515]}],"scores":{"1":2340,"2":2340,"3":2340,"4":2340,"5":2160,"6":2120,"7":2520,"8":1320,"9":2340,"10":2210,"11":2340,"12":2180,"13":2090,"14":2340,"15":2340,"16":2340,"17":2340,"18":2340,"19":2340,"20":2710,"21":2340,"22":2340,"23":2340,"24":2940,"25":2340}},{"layers":[{"inputNeurons":0,"outputNeurons":10,"weights":[],"biases":[0.7417180609665471,-0.42195371709283525,0.09432137857369169,0.7640011405885492,0.37122507692699885,0.36250211910816144,-1.1850702515124836,-0.5961650411762829,1.9420138720670328,1.4158812469563202]},{"inputNeurons":10,"outputNeurons":3,"weights":[[0.46554676703094533,-0.8139883243554509,-1.1742695229472426],[-0.8819369938626417,-0.07723391570410731,-0.8547939368426783],[0.7745933919492051,-1.000547097053693,-1.7377984326884786],[-0.6452905184222543,-0.19523295750055547,-1.1035675150960615],[-1.0677065229565648,0.904438180349671,-0.31124378236126826],[1.132219332121403,-0.8346678158765197,-2.535925054329743],[0.7453816574217255,0.2978027667266503,-0.8768131200164685],[-0.8146130245958569,1.0623983115726137,1.0591549774877378],[0.37363147251819157,-0.449235722494007,1.071386240475935],[-1.070680890999303,-1.6903719118802045,1.136563400703224]],"biases":[1.647563925792128,-1.1575658424923638,-0.7360084686690077]},{"inputNeurons":3,"outputNeurons":1,"weights":[[0.3725284960596868],[0.4179647395447403],[-1.3217425690239966]],"biases":[2.244071951814368]}],"scores":{"1":2320,"2":2340,"3":2340,"4":2340,"5":2340,"6":2340,"7":1960,"8":2340,"9":2340,"10":2540,"11":1300,"12":2340,"13":2720,"14":2340,"15":2340,"16":2340,"17":2340,"18":2540,"19":2340,"20":2340,"21":2340,"22":2540,"23":1960,"24":2340,"25":2230}},{"layers":[{"inputNeurons":0,"outputNeurons":10,"weights":[],"biases":[0.6977495113799349,-0.36616825227300204,0.3997802983809552,0.4376475943133422,0.33806674153610744,0.6648988714094083,-1.2433971492813172,-0.6786822079335405,1.892393622096932,1.3053201002265136]},{"inputNeurons":10,"outputNeurons":3,"weights":[[0.8261814707663905,-0.3501549432759199,-1.0667164817542532],[-0.9521420957372356,0.13836759467119858,-0.6263117768043975],[1.00109984011892,-1.0524824281915008,-2.0363724577935103],[-0.6192059677123148,-0.329692274518701,-1.1256799021083057],[-0.7549614821845486,0.7458283538958562,0.11348087216547072],[1.3673629133586187,-1.25283079929449,-2.2070912796779854],[0.30378325735564826,0.4243711121371687,-1.1972107961548888],[-1.1335048735927724,1.3285224531346858,0.8660135814423912],[0.6712374738288708,-0.3817335758635526,1.320525433449803],[-1.2333922516113536,-1.9242673207324477,1.084540435992742]],"biases":[1.7856463548759607,-0.9615096292765536,-0.48226179560099924]},{"inputNeurons":3,"outputNeurons":1,"weights":[[0.3550797822672865],[0.45318003645119465],[-1.3722597828296954]],"biases":[2.1626897058994206]}],"scores":{"1":2320,"2":2520,"3":1310,"4":2320,"5":2520,"6":2320,"7":2320,"8":2320,"9":1300,"10":2320,"11":2320,"12":2320,"13":2320,"14":2520,"15":2320,"16":2320,"17":2920,"18":2320,"19":2320,"20":2520,"21":2520,"22":2320,"23":2320,"24":2320,"25":2210}},{"layers":[{"inputNeurons":0,"outputNeurons":10,"weights":[],"biases":[0.7978418342818261,-0.6434900389108998,0.2318606779016754,0.6270639016841694,0.5866035564279587,0.4931671951454246,-0.9834084236861309,-0.8231452770195351,1.9819935797668213,1.3853106118895049]},{"inputNeurons":10,"outputNeurons":3,"weights":[[0.7048609435594324,-0.34133595113541515,-1.6801242750972782],[-0.929984474147598,-0.21171495891726616,-0.8044815459061514],[0.8866196693480954,-1.3720239227008924,-1.931456322676411],[-0.17099016439872317,0.03295565083507028,-0.9829652018076064],[-0.9503672766368341,0.9300997868084044,-0.16193228153460337],[1.0116250847396548,-1.3508262966295352,-2.4477251720017956],[0.8005268926297728,0.11154117477171513,-0.9095343821291569],[-0.8959515277602697,1.261687153293059,0.6959039624532416],[0.6834090337706036,-0.36699149821903315,1.2193639434061694],[-0.7549829150393821,-1.938756084443483,1.208015377952341]],"biases":[1.7970458474652222,-1.0918543652628416,-0.5811417249972897]},{"inputNeurons":3,"outputNeurons":1,"weights":[[0.1884060080742913],[0.7008940433881223],[-1.5921268364624899]],"biases":[1.5868036170915096]}],"scores":{"1":2220,"2":2510,"3":2320,"4":2320,"5":2320,"6":2320,"7":2720,"8":2320,"9":1300,"10":2220,"11":2320,"12":2320,"13":2320,"14":2320,"15":1290,"16":2320,"17":2320,"18":2320,"19":2320,"20":2320,"21":2320,"22":2320,"23":1300,"24":2700,"25":2320}},{"layers":[{"inputNeurons":0,"outputNeurons":10,"weights":[],"biases":[-0.12822700889363972,-0.5760776099365242,0.6137448928235265,-0.17952490635335963,0.9011971108173207,0.3116917318048368,-0.26036035777507716,-0.5792302080821907,1.4163316669130088,1.0530518634873143]},{"inputNeurons":10,"outputNeurons":3,"weights":[[-0.38845375755601474,0.11994474172683756,-0.11555112462793986],[-0.88574745066838,-0.6615284602057909,-1.120579143217884],[1.3891847382466664,-0.6723132050021463,-1.8695020688756263],[-1.200135985432237,-0.33066716718663536,-1.0291105051233185],[-1.3695525591104543,-0.1628098196389983,-0.7331589250650662],[1.8249624205893737,-1.4730964123741108,-1.2396410752894287],[-0.3318559909240389,-0.627401697946303,-0.9017515641542935],[-0.4978739564377719,0.660430337519242,1.340496967714727],[0.6585963684666137,0.27450880068573824,0.5758327141741543],[-1.4798194767146904,-0.964061960882358,1.0766720755969061]],"biases":[1.8346396825572602,-0.749313483353284,0.07911090437528523]},{"inputNeurons":3,"outputNeurons":1,"weights":[[0.39040720995101075],[1.7396488312050877],[-1.5902197861439893]],"biases":[2.693404372481024]}],"scores":{"1":2110,"2":1270,"3":2110,"4":2080,"5":2110,"6":2110,"7":2110,"8":2360,"9":2110,"10":2340,"11":3400,"12":2000,"13":2110,"14":2110,"15":1340,"16":1310,"17":2470,"18":2340,"19":1270,"20":1270,"21":2110,"22":1260,"23":2640,"24":2310,"25":2110}},{"layers":[{"inputNeurons":0,"outputNeurons":10,"weights":[],"biases":[-0.19058510871539272,-0.1766649453449876,0.7576584050113713,0.11812066858032289,0.6625988346521592,0.6768530990242868,0.05764992702257135,-0.47095585342812823,0.8544360094180836,1.3394594534292332]},{"inputNeurons":10,"outputNeurons":3,"weights":[[-0.11732613901624321,-0.05520262033532147,0.16638579482363247],[-1.0606986927194852,-0.985126886945996,-0.9216499458016405],[1.6400636901743386,-1.0510615835415948,-1.344201470998191],[-1.1191683111842685,0.18680816392176355,-1.1427845617936307],[-1.0711860636821713,-0.1386722315067414,-0.6256242029421326],[1.4143317989817406,-1.7510867055373747,-1.2067882460728148],[-0.5163940156587837,-0.3680707372482366,-0.5403559223848613],[-0.47474784148255517,0.8372094138298081,0.9831709981497158],[0.6726275688009116,0.4363377732789995,0.8217699241872889],[-1.6036781647949045,-0.8532536011520664,0.710398757684356]],"biases":[1.607863002520188,-0.29768820641887206,0.04652381437582803]},{"inputNeurons":3,"outputNeurons":1,"weights":[[0.6914035880704829],[1.5166359293339673],[-1.696819457755722]],"biases":[2.3084940325533903]}],"scores":{"1":1710,"2":2060,"3":1710,"4":1710,"5":1710,"6":1710,"7":1710,"8":1710,"9":1320,"10":2600,"11":2510,"12":2340,"13":2850,"14":1710,"15":2040,"16":2340,"17":1710,"18":1290,"19":1710,"20":1710,"21":3050,"22":2030,"23":2190,"24":1710,"25":2540}},{"layers":[{"inputNeurons":0,"outputNeurons":10,"weights":[],"biases":[0.5284823747264538,-0.43143014823510584,0.28470981793298905,0.45598730841256546,0.6782079430845951,0.7356043686267992,-0.8761130491599081,-0.8883403105492164,1.9432278903470905,1.346867064790649]},{"inputNeurons":10,"outputNeurons":3,"weights":[[0.6630788921510267,-0.48713565703535994,-1.1650751373272334],[-0.6527440182168393,0.1154578835938268,-1.3801994615513853],[0.9295353259366178,-1.0565344594540975,-2.020660125570574],[-0.7273561440000269,0.028377917597299532,-1.271547704895707],[-0.8916290387493749,0.6505631363501083,-0.011623836174638018],[1.2215759466637488,-1.057152168121715,-2.387727005877515],[0.3549808930386582,0.08959686370676755,-1.2926396597732424],[-0.6568353683685465,1.5125728557765783,0.8664309944203945],[0.7057858645297763,-0.34704222165168164,1.2033571086407815],[-1.2487143523944364,-1.8238846010837149,1.1347199338733878]],"biases":[1.9061812016887778,-1.1084362032472854,-0.7532684485046311]},{"inputNeurons":3,"outputNeurons":1,"weights":[[0.3791991643608878],[0.6588069105792642],[-1.047096068285153]],"biases":[2.1432374405561125]}],"scores":{"1":2290,"2":1560,"3":2090,"4":3060,"5":2090,"6":1870,"7":1620,"8":2090,"9":1870,"10":3000,"11":1480,"12":2290,"13":1610,"14":1820,"15":860,"16":1930,"17":1620,"18":1790,"19":2090,"20":1610,"21":1210,"22":3150,"23":1360,"24":1760,"25":1640}},{"layers":[{"inputNeurons":0,"outputNeurons":10,"weights":[],"biases":[0.8461368775625285,-0.35220893030687717,0.0038453674308376196,0.5229632678988865,0.910795070835787,0.36623250381604056,-1.195133366272789,-1.0544813534288,1.9548417707717252,1.2302761145185102]},{"inputNeurons":10,"outputNeurons":3,"weights":[[0.6301521407402161,-0.48000306316132885,-1.469669851567751],[-0.8456852052371817,-0.40179083256467774,-0.4250108292340419],[1.0705985944731304,-1.039852992410959,-1.3787404069557934],[-0.8253513022366242,-0.091129189639119,-0.700245836597782],[-1.1179496140168803,0.30982044538862114,0.00118406169177393],[1.6497038517468943,-0.6688079105214643,-2.103838238675224],[-0.2769446721143004,0.22330689971449785,-1.5290213274657427],[-0.2395229352386389,1.3741279266807203,0.8578614568240569],[0.9937346275033434,-0.26999589001404084,0.43308045393503397],[-0.9806342432590687,-1.0364994280360584,1.189966991082138]],"biases":[2.224502287690635,-1.2036121261913977,-0.38192707915658947]},{"inputNeurons":3,"outputNeurons":1,"weights":[[0.47838773284634883],[0.585479399100401],[-1.3196951714166159]],"biases":[1.3273455535366103]}],"scores":{"1":1650,"2":1340,"3":1600,"4":1980,"5":1210,"6":1210,"7":1160,"8":1960,"9":3980,"10":2080,"11":1900,"12":1690,"13":2960,"14":2580,"15":2010,"16":2090,"17":2290,"18":1660,"19":2280,"20":1790,"21":2090,"22":1340,"23":1510,"24":1560,"25":1370}},{"layers":[{"inputNeurons":0,"outputNeurons":10,"weights":[],"biases":[0.6757738845661583,-0.18850766824233745,-0.09217206089234485,0.5837563965783785,0.789966830131049,0.7699607433655452,-1.0016723405674315,-0.7408593322928517,1.8806994213396129,1.5516262271982812]},{"inputNeurons":10,"outputNeurons":3,"weights":[[0.838420121175117,-0.4267914574654361,-1.2135775978282484],[-0.8702500557246218,-0.39316541698323804,-0.5639121721946295],[1.2239477937700665,-1.1228641552489498,-1.543044456779001],[-0.8563681051381469,0.05062378237832933,-0.5430552019822183],[-1.374876414954954,0.3419444881739595,0.026941775561705034],[1.768074140942005,-1.0568931435799886,-2.5002398165052537],[-0.324899261807273,0.07033007549510073,-0.9123406260684901],[-0.19709922727243878,1.349875016471579,0.8765904662425357],[0.8799038453847334,-0.5062453262718956,0.4369552218313967],[-1.1237201104362722,-1.0443305102783094,1.4559123364255628]],"biases":[2.1557407007641847,-1.5746870209141557,-0.902350150604701]},{"inputNeurons":3,"outputNeurons":1,"weights":[[0.3561104181228908],[0.3698107620779035],[-1.4611691548951324]],"biases":[1.5833956467022952]}],"scores":{"1":2230,"2":1750,"3":1820,"4":1750,"5":1950,"6":940,"7":1680,"8":1990,"9":1670,"10":2680,"11":2560,"12":3730,"13":1210,"14":1630,"15":1640,"16":2090,"17":910,"18":1770,"19":1370,"20":1640,"21":1470,"22":2400,"23":1830,"24":1770,"25":1860}},{"layers":[{"inputNeurons":0,"outputNeurons":10,"weights":[],"biases":[0.5361640376050651,-0.022406240673601474,0.1074448335669286,0.5249474947462583,0.763360464529515,0.9009248337684979,-1.2993659021869117,-0.7343551280446265,2.2532032298003624,1.1803918269671034]},{"inputNeurons":10,"outputNeurons":3,"weights":[[0.3761770734050596,-0.1642584775016114,-1.8078642581485782],[-0.8846463285824788,-0.5549479579886767,-0.7557030178070168],[1.1949943473066689,-1.1956106202996386,-2.189179659969925],[-0.5967752844339071,-0.05349533446492023,-1.1060730119683542],[-0.710077727485375,0.8457969587797672,0.022229945409657677],[1.4655567298709227,-1.1181902100939738,-2.2598707688678172],[0.5324633231123277,-0.049864210758274435,-0.7597764784716569],[-0.8978236564021203,1.7947435065589674,1.0102997470504176],[0.9747150232923136,-0.0086836153023222,1.0805917663736255],[-1.5219342669791536,-1.949264750955807,1.139589823907039]],"biases":[1.9987676265667855,-1.2539506012016648,-0.5345404487944643]},{"inputNeurons":3,"outputNeurons":1,"weights":[[0.3651445864533503],[0.6592089918461276],[-1.569015254092544]],"biases":[2.1424075481249667]}],"scores":{"1":3050,"2":2850,"3":1360,"4":1770,"5":1770,"6":2850,"7":1340,"8":1340,"9":1770,"10":1770,"11":1770,"12":2040,"13":1790,"14":1770,"15":1360,"16":1770,"17":1770,"18":1330,"19":1770,"20":1380,"21":2850,"22":1330,"23":1770,"24":1770,"25":1770}},{"layers":[{"inputNeurons":0,"outputNeurons":10,"weights":[],"biases":[0.060404755518988634,-0.1632482741791139,-0.5326690930066756,0.4655983015515986,0.6417432834356187,0.5884890468153263,-0.00142867939870428,-1.0919749440917736,1.5014878113388652,1.6297662919142046]},{"inputNeurons":10,"outputNeurons":3,"weights":[[-0.20997872708067178,0.03535541308198079,-0.862862125132513],[-1.3305662846290376,-0.8522647348255373,-0.9564878112465502],[1.4134128850413494,-0.8738553863006885,-1.0954980241406405],[-1.3575739943389145,0.2693156295634973,-1.0219533322331906],[-1.775455967615268,-0.21396586660637235,-0.7935039125907976],[1.886583033945386,-1.8630286946638788,-2.1206259185225984],[-0.29524035652917185,-0.9420337649288688,-0.6051977143808444],[-0.4852468988855078,0.3657902993918247,0.436481323104322],[0.5206324736270972,-0.13445641659723265,0.7808476400173262],[-1.873650637802239,-0.7852892894320512,1.1383522123886503]],"biases":[1.5796575214661313,0.287125693102412,-0.42320594319395544]},{"inputNeurons":3,"outputNeurons":1,"weights":[[0.4790076516721501],[1.446354619009776],[-1.8716473429428575]],"biases":[2.133614893615646]}],"scores":{"1":2540,"2":1290,"3":1360,"4":1710,"5":1710,"6":1290,"7":1710,"8":1250,"9":2510,"10":2340,"11":1280,"12":1340,"13":2340,"14":1710,"15":3400,"16":1710,"17":1710,"18":1710,"19":1710,"20":1710,"21":1710,"22":1300,"23":1280,"24":2240,"25":1710}},{"layers":[{"inputNeurons":0,"outputNeurons":10,"weights":[],"biases":[0.37858458768400627,-0.7720848874089672,0.16163771579945727,0.7874389138592768,0.8669343636205651,0.7190908295059527,-1.3806184331485867,-0.7092274099769021,2.3318123575461565,1.111553154215667]},{"inputNeurons":10,"outputNeurons":3,"weights":[[1.0751107780369864,-0.3880899857428501,-1.4796572592509145],[-0.966551413671847,-0.35324309291186307,-0.7691117185609566],[1.0307441743650199,-1.0611047331465004,-1.712222506160975],[-0.5458900335957704,0.20660747142115898,-1.2441129649306468],[-1.2890793169263197,0.7034985306736234,0.12146566715218081],[1.2775594873004177,-0.9785953010377181,-2.2962897620007725],[0.6132173786874981,0.0921835223557251,-1.2148713822881683],[-0.5414499896216527,1.4877685689649633,1.1659058694558324],[0.7139382898197447,-0.2131306945400417,1.064218437155894],[-1.0933088361507997,-1.709899407379424,0.913416187017454]],"biases":[1.4899673272201086,-1.427994762116529,-0.6567414143749841]},{"inputNeurons":3,"outputNeurons":1,"weights":[[0.43963623597580553],[0.5082839707377673],[-1.3240715665923917]],"biases":[1.682865579336413]}],"scores":{"1":2850,"2":1710,"3":1310,"4":1710,"5":1710,"6":1910,"7":1710,"8":1270,"9":1710,"10":1310,"11":1710,"12":1780,"13":1710,"14":1710,"15":1710,"16":1290,"17":1780,"18":1710,"19":1710,"20":1710,"21":1320,"22":2430,"23":2240,"24":1710,"25":1710}},{"layers":[{"inputNeurons":0,"outputNeurons":10,"weights":[],"biases":[0.2082534573571122,-0.23957975627433406,0.03681481487032523,-0.05847507072332693,0.40795833929039516,0.3747735317485576,-0.6038933477110695,-0.8418760960452396,1.7096692588392188,1.3477920140471926]},{"inputNeurons":10,"outputNeurons":3,"weights":[[-0.3692879325840461,0.3398612989193572,-0.5245790011929787],[-1.1831635027728793,-0.7260092249135275,-1.1765245680558614],[0.9951690995221745,-0.749018384302443,-1.0488594622582403],[-0.9892051742956579,-0.16279530696006891,-0.8158789006637096],[-1.7226142786584646,-0.3348195056661793,-0.31526193511228917],[1.9108464636952127,-1.6933861597431081,-2.0889929402544545],[-0.1257351363628732,-0.4409462084657506,-0.5935420736175885],[-0.3900989670522428,0.18059766153084486,0.612606253314061],[0.8590640392685387,-0.3206167572819685,0.6691510517878677],[-2.438264670346176,-1.2068174119570731,1.3874547744776935]],"biases":[1.5999663945162539,-0.03935190065040835,-0.29480732914998165]},{"inputNeurons":3,"outputNeurons":1,"weights":[[0.506339862484479],[1.598791448682573],[-1.6650511875070437]],"biases":[2.4050342844616384]}],"scores":{"1":2340,"2":1510,"3":1710,"4":1710,"5":1710,"6":1270,"7":1710,"8":1710,"9":3490,"10":1910,"11":1710,"12":1280,"13":1270,"14":1710,"15":1300,"16":1300,"17":1710,"18":1710,"19":2910,"20":1380,"21":1710,"22":1300,"23":1710,"24":1710,"25":1290}},{"layers":[{"inputNeurons":0,"outputNeurons":10,"weights":[],"biases":[0.593939862873294,0.09805021405974423,-0.11310255131616806,0.7532472428478441,0.43958072790092795,0.12662015999038834,-1.5360149486464336,-0.5470879724737665,2.148540045614156,1.235598657994739]},{"inputNeurons":10,"outputNeurons":3,"weights":[[0.7439965617439322,-0.5268387761884478,-1.35610121459122],[-0.9900110507853599,-0.2451113874002703,-0.5930624030769952],[0.883851818184838,-1.4523791899279495,-1.0578967258720813],[-0.5916151277490453,0.09350188803098447,-0.8313195949717693],[-1.1438238287796774,0.7033274716724636,0.147210019030232],[1.64259744091336,-1.027917803905604,-2.6372172411173445],[-0.2581282994278059,0.1200850822556781,-1.3358253550093666],[-0.18434738825322713,1.3357496311748183,0.5422225248825979],[1.1218505851443317,-0.22347900511066904,0.21009967770107763],[-1.0969640520427966,-1.0056018094209636,1.3927487931896967]],"biases":[2.03435256185452,-1.4019999195637638,-0.4690988474577104]},{"inputNeurons":3,"outputNeurons":1,"weights":[[0.42184749547332456],[-0.40315050915519446],[-1.425430269986338]],"biases":[1.5129705009499224]}],"scores":{"1":1440,"2":1760,"3":1910,"4":1670,"5":1440,"6":1220,"7":1760,"8":1840,"9":1680,"10":1680,"11":1610,"12":3440,"13":1480,"14":1700,"15":1740,"16":1650,"17":1760,"18":1760,"19":1660,"20":1670,"21":1460,"22":1490,"23":1760,"24":1610,"25":1470}},{"layers":[{"inputNeurons":0,"outputNeurons":10,"weights":[],"biases":[0.36049523995703614,0.1170048018498081,0.19257623131530213,0.23897929058544753,0.45477141989645437,0.34479196608016377,-1.2705507613039528,-0.9009069451039524,1.9247290901866796,1.2072015213050675]},{"inputNeurons":10,"outputNeurons":3,"weights":[[0.4998849891580778,-0.23917439680051794,-1.0297562152439093],[-1.2006956240682793,-0.6169049839247274,-0.435171732960541],[1.2794854825649993,-1.3958708488406795,-1.114438293168197],[-0.8109513181896104,-0.20712372327822137,-0.642016803490253],[-0.8754999989310804,0.020790619475122507,-0.014238768074923414],[1.3944267412604683,-0.798309342863739,-2.51006558816722],[-0.22444111964226143,-0.24606534486101078,-1.1414231309040737],[-0.14626711034320333,1.9433840976240104,0.9694546941148025],[1.2602585369404908,-0.34166566308864166,0.5596835037845558],[-0.992975597654032,-1.1352720594972938,1.2123678353741754]],"biases":[2.2311014768740165,-1.5333847600603334,-0.6529415742580302]},{"inputNeurons":3,"outputNeurons":1,"weights":[[0.42746049027617844],[0.1278423656902004],[-1.2295802410046466]],"biases":[1.6387091465389694]}],"scores":{"1":1280,"2":2240,"3":1710,"4":1260,"5":1710,"6":2340,"7":1710,"8":1710,"9":1320,"10":1710,"11":1710,"12":1710,"13":1710,"14":2340,"15":1710,"16":1710,"17":1290,"18":1710,"19":1290,"20":1300,"21":1710,"22":2340,"23":1310,"24":1710,"25":1710}},{"layers":[{"inputNeurons":0,"outputNeurons":10,"weights":[],"biases":[0.006883230814586694,-0.44301412253399974,0.5167329597577646,-0.03376049444711217,0.9589851016265061,0.6591718370403215,-0.3733238713752672,-0.40081300748522375,1.2534276031397922,1.4685128561857603]},{"inputNeurons":10,"outputNeurons":3,"weights":[[-0.16154734903487195,0.026517826669248123,-0.011367725070696305],[-1.0623350717047972,-0.8166686219656738,-0.698259907796859],[1.2015715033971623,-0.7021250578431456,-1.9851582190090968],[-1.17878976330081,-0.3189204811090144,-0.47470684450457584],[-1.2726200697637702,0.02685031566604413,-0.46089949761577387],[1.8828231157833044,-1.2667641233683802,-1.3936470905614098],[-0.16988730612779038,-0.26429366099942414,-0.3751696023888049],[-0.7832099508086786,0.7531407489075048,1.1862267441221348],[0.664493470822921,0.2878074611361553,0.5064085000301211],[-1.6342843758141135,-1.3225909438131014,0.8094788658249013]],"biases":[1.764528948226001,-0.14294474025637294,-0.20209351655009147]},{"inputNeurons":3,"outputNeurons":1,"weights":[[0.40751291697488545],[1.671058937900378],[-1.6139216020153828]],"biases":[2.601923306383518]}],"scores":{"1":1790,"2":1760,"3":1840,"4":1790,"5":2040,"6":1480,"7":1600,"8":1720,"9":1880,"10":1110,"11":1760,"12":2860,"13":2030,"14":1760,"15":1880,"16":1660,"17":1490,"18":1760,"19":1410,"20":1270,"21":1760,"22":1760,"23":1170,"24":1320,"25":1330}},{"layers":[{"inputNeurons":0,"outputNeurons":10,"weights":[],"biases":[0.11322703518648494,-0.11426060727948964,0.11397266331139355,-0.06321793838246341,0.3774398488339625,0.699668944120869,-0.3604213959528194,-0.9857155835057688,1.4958588329661036,2.0953659717109927]},{"inputNeurons":10,"outputNeurons":3,"weights":[[-0.799751241809207,-0.15208250375769083,-0.8551931943897502],[-1.215732764829276,-1.0993339099222197,-1.047311124009124],[1.3669440785441984,-1.0531419185245738,-1.4075996110946112],[-1.2420767423738497,-0.11886081277104507,-1.2090691710586852],[-1.8448444638830948,-0.11931085628449137,-0.2254277392001016],[1.5609149019698811,-1.746777923879485,-2.025500573519449],[-0.18317872935011442,-0.3488569803486833,-1.0009579231008319],[-0.5863191940032051,-0.03872445463462426,0.7665149390398069],[0.6275096254474336,-0.27961282270681687,0.6792893197007339],[-2.371083260582541,-0.7486497894401226,1.0494738101536216]],"biases":[1.6523747584415447,0.08795062712563678,-0.13089881508790907]},{"inputNeurons":3,"outputNeurons":1,"weights":[[0.7495741325274503],[1.6899273068894112],[-1.6059640148833711]],"biases":[1.620618928085269]}],"scores":{"1":1670,"2":790,"3":1680,"4":1130,"5":1610,"6":1680,"7":1490,"8":1540,"9":1750,"10":1120,"11":1520,"12":1380,"13":1670,"14":1490,"15":1680,"16":1760,"17":1480,"18":1520,"19":1700,"20":1660,"21":2800,"22":3430,"23":1680,"24":1490,"25":1680}},{"layers":[{"inputNeurons":0,"outputNeurons":10,"weights":[],"biases":[0.6173996437396578,-0.5932972043566886,0.5803594747017073,0.29849846150855114,0.670874147682812,0.957755857442414,-1.1359436094008066,-0.8887234129388725,2.1454165688575717,1.5828370676916466]},{"inputNeurons":10,"outputNeurons":3,"weights":[[0.7535698126014004,-0.4007622326833271,-1.6037451046286684],[-0.8896705068449565,-0.3606758187372558,-0.9589044380793653],[0.9926969815024405,-1.1010386786436348,-1.8130094266876897],[-0.382186761106427,0.07491195020935551,-1.0889971366903395],[-1.065713201601714,0.8500963159215584,0.017886720469522527],[1.5455637019389497,-1.0627791690072559,-2.3904360401578852],[0.4668444250587352,0.5507746304591437,-1.3752947978211576],[-0.6478468877539094,1.5042584209471208,0.752577592988443],[0.8186363880780573,-0.10638783669754875,1.065511961743276],[-0.9549319853303366,-2.0572035191094096,1.074203840377419]],"biases":[1.869983735285966,-1.0321368796292243,-0.7637226089408042]},{"inputNeurons":3,"outputNeurons":1,"weights":[[0.39342034688027855],[0.6908794431511112],[-1.2582671494715685]],"biases":[1.8779702780061527]}],"scores":{"1":1710,"2":1710,"3":2910,"4":1710,"5":1710,"6":1310,"7":1710,"8":1710,"9":1340,"10":1710,"11":1910,"12":1710,"13":1270,"14":1710,"15":1710,"16":1290,"17":1280,"18":1260,"19":2340,"20":1320,"21":1710,"22":1970,"23":1330,"24":1340,"25":1710}},{"layers":[{"inputNeurons":0,"outputNeurons":10,"weights":[],"biases":[0.4829898935783444,-0.6387687432211075,0.8551733540085378,0.06600798342268059,1.0335996976780493,0.7185976929260656,0.0551486901882533,-0.899533791463305,1.373316205441398,1.4012095287399697]},{"inputNeurons":10,"outputNeurons":3,"weights":[[0.05844522642174025,-0.11617767480193074,-0.4852435044165095],[-1.4731248991587789,-0.7695623151513777,-0.8443271785232932],[1.6271530537186645,-0.6855469704603507,-1.5812109992978698],[-1.0565259536606573,0.05158734947932786,-1.451215801780573],[-1.4175867469010777,-0.10256683346360207,-0.49636147286499743],[1.6635570448760746,-1.599917877362902,-1.4163386200498662],[-0.5162541508716001,-0.6113835664180256,-0.7384887610496023],[-0.9036449344154989,0.8794340345265139,0.9046412963703855],[0.6798070035274864,-0.1316168973796202,1.2071411985335043],[-1.7571879233929564,-1.1760269707815738,0.7353267785358125]],"biases":[1.6483325800501487,-0.5285145213080966,-0.3638674142359879]},{"inputNeurons":3,"outputNeurons":1,"weights":[[0.756046937570338],[1.7040886760038558],[-1.437962106859774]],"biases":[2.6170154704221114]}],"scores":{"1":1900,"2":1280,"3":1660,"4":1120,"5":1610,"6":1760,"7":1840,"8":1840,"9":1680,"10":1660,"11":1680,"12":1680,"13":1680,"14":1680,"15":1680,"16":1690,"17":1470,"18":1680,"19":1420,"20":1590,"21":1600,"22":1790,"23":1680,"24":1680,"25":1750}},{"layers":[{"inputNeurons":0,"outputNeurons":10,"weights":[],"biases":[-0.06823910605802305,0.015370067900699044,-0.15777623275263492,0.03396139819253082,0.5893458144341329,1.032213041490878,-0.029250398410838485,-0.5798125516641872,1.4315131564420902,1.6151784753259855]},{"inputNeurons":10,"outputNeurons":3,"weights":[[-0.490329316667579,-0.40717900571827115,-0.5063188159660412],[-1.0666823106512562,-0.9551882653379297,-1.0822798896111472],[0.9626533498877012,-0.9044808514037135,-1.197337238802222],[-1.1681376617970158,0.07366465172601219,-0.8982226635383205],[-1.8775770918058474,0.04019835519726467,-0.4057453139477242],[1.6559734546134475,-1.5308978946911596,-2.3258033847543245],[0.010027918390189572,-0.3964180639375276,-0.932234796612575],[-1.1623883594178432,0.42113600168461984,1.1040150491916787],[0.7904921932042966,-0.27764467456791575,0.6867710269727851],[-1.9813413166160505,-0.8878767496904638,