{"networks":[{"layers":[{"inputNeurons":0,"outputNeurons":10,"weights":[],"biases":[0.28123957167967356,0.42344707895464645,0.1696315228992152,0.030636317073141836,1.745790679220859,0.5409813174692787,-0.44145892499734996,-1.9369333392618318,0.6498685859253025,0.28209396430731337]},{"inputNeurons":10,"outputNeurons":3,"weights":[[0.8114080613466744,-0.08346934515023369,-0.5408090176635011],[-0.26661086767691455,0.675052819825783,-0.5928203577167805],[0.07201760928912798,-0.7966681303289718,-0.49249849036495585],[-0.49855519016407945,0.771626823786104,0.0018638644648442115],[-0.6306197737899221,0.7132297665766127,-0.061371075120380876],[0.9486902556847904,0.6339398703364622,-0.9706331694114354],[-0.045227643462202725,0.1795934514275502,-0.26457057995619077],[-0.16543412266517316,0.3888782112983116,-1.0038452764103416],[0.07362925277164348,-0.3190966824413907,1.4515812545649323],[-0.29565321209769635,-1.4376497805254618,1.9742736337354576]],"biases":[1.2544037106143087,0.12918279633533872,1.539550994282751]},{"inputNeurons":3,"outputNeurons":1,"weights":[[-0.5601653870992784],[0.279644197049659],[-1.1426046710050575]],"biases":[0.6726309498417435]}],"scores":{"1":2620,"2":2320,"3":2980,"4":3120,"5":3920,"6":2320,"7":2590,"8":2220,"9":2500,"10":2320,"11":2590,"12":2520,"13":2320,"14":2320,"15":2320,"16":3450,"17":2320,"18":2320,"19":2320,"20":2520,"21":2320,"22":2320,"23":4450,"24":2320,"25":2920}},{"layers":[{"inputNeurons":0,"outputNeurons":10,"weights":[],"biases":[0.7019837753334698,0.03433096157753582,-0.22095260334994904,0.0480941143615227,1.1614939759167922,-0.18448111326123243,-0.7440916624246401,-1.2772524859738572,1.0422881090044438,0.28892848097345264]},{"inputNeurons":10,"outputNeurons":3,"weights":[[-0.2574381675819333,0.1269470282699809,-0.8040329482948633],[-0.12517939246572546,0.4072170320467653,-0.7887994999487804],[-0.4832685626216665,-0.4633879282930598,-0.4291434274689148],[0.14700082302646816,1.0427513671104827,-0.9384208005212819],[-1.260402664881751,0.3044644779841459,-0.6268380993237886],[1.6250633399099468,0.15155597384610944,-2.013685417208947],[0.08995540480520317,-0.2732885107694443,-0.5142140421989347],[-0.30919851113198793,0.8295691488161305,-1.0409954140395077],[-0.3280295848557003,-0.22029946991335914,1.1503080815546058],[0.007832479043721585,-1.5425128141719306,1.8252284205282199]],"biases":[0.5372246524198979,-0.6125665821662494,1.2459641148820195]},{"inputNeurons":3,"outputNeurons":1,"weights":[[-0.5161274410946196],[0.028224624829553624],[-0.8134934236691213]],"biases":[1.5889389580142164]}],"scores":{"1":2320,"2":2320,"3":5790,"4":2520,"5":2220,"6":2320,"7":2320,"8":2320,"9":2320,"10":2320,"11":2520,"12":5320,"13":2320,"14":2520,"15":2620,"16":2520,"17":2320,"18":2320,"19":2320,"20":2320,"21":1320,"22":2320,"23":3520,"24":2320,"25":2590}},{"layers":[{"inputNeurons":0,"outputNeurons":10,"weights":[],"biases":[0.6198544323964226,0.7457474417188625,-0.13091812774064943,0.054852238122466646,0.8786105701312787,0.36341862634227995,-0.6091081613169117,-1.8405765481530416,0.9310467945239217,0.698048115282899]},{"inputNeurons":10,"outputNeurons":3,"weights":[[0.5680259193866036,-0.41363404313131025,-0.09630806148928275],[0.3314445825493551,0.5748234222242776,-0.5481857343214537],[-0.011418409838826783,-0.9669130164492985,-0.521320944002693],[-0.5066493613288222,1.0329872820564108,-0.27218275978772133],[-1.4706421704768755,0.23964717106206707,0.33068715554503847],[0.7294485199299351,0.7649297563299718,-1.1090767233558356],[-0.2362817833984715,0.008418552777303495,-0.7604092908385042],[-0.43581513486839185,-0.12404792428460226,-1.0587709061755364],[0.2346914149753404,-0.14835370622146726,1.2944201586378281],[0.23211353092829712,-1.287679837042147,2.1212686543048647]],"biases":[1.3842046687893366,-0.27281394871463693,1.5186155560233614]},{"inputNeurons":3,"outputNeurons":1,"weights":[[-0.6356011681519284],[0.555083432247206],[-1.371294871934256]],"biases":[0.13340128056192774]}],"scores":{"1":2320,"2":2840,"3":2320,"4":2320,"5":2920,"6":2320,"7":2320,"8":5820,"9":2320,"10":2320,"11":2320,"12":2320,"13":2320,"14":3720,"15":2520,"16":2320,"17":2320,"18":3760,"19":2320,"20":2630,"21":2320,"22":2320,"23":2190,"24":2320,"25":2320}},{"layers":[{"inputNeurons":0,"outputNeurons":10,"weights":[],"biases":[0.44584801352480774,0.35263379906129544,0.10279429788762695,0.12930704582934838,1.0433839863146344,0.7086724475820226,-0.4300995710309564,-1.8231937762220383,0.22460827808966416,-0.023898382354809122]},{"inputNeurons":10,"outputNeurons":3,"weights":[[0.6412476500702956,0.0106477361181474,-0.3629991966978121],[0.20192421565533133,0.40955895864442693,-0.8509917402766317],[-0.23490712319281817,-1.1032818923501548,-0.5232433445558892],[-0.5674558335206357,0.599574163803557,0.0031535387173449725],[-0.8651844024764762,0.581839232467281,0.03226602620808622],[1.0239724574738824,0.8162808844908879,-1.2081638587311019],[-0.4631860845335399,0.2740095500465165,-0.42433594066346625],[-0.47503187795057106,0.2063048860180797,-0.8902683555112262],[-0.2220222006638333,-0.21707678165812727,1.5418526545960871],[-0.02971823892057024,-1.2921071558773283,1.7183464516486469]],"biases":[1.3711021362610973,0.28772239746537304,1.2433844382370776]},{"inputNeurons":3,"outputNeurons":1,"weights":[[-0.7200740166308972],[0.2018896563655012],[-1.2786458403459802]],"biases":[0.7329362745142641]}],"scores":{"1":2320,"2":5820,"3":2520,"4":2520,"5":2320,"6":2520,"7":3030,"8":2320,"9":2320,"10":2320,"11":3250,"12":2320,"13":2520,"14":2840,"15":2320,"16":2320,"17":2320,"18":3390,"19":2320,"20":2320,"21":2320,"22":2320,"23":2520,"24":2320,"25":2320}},{"layers":[{"inputNeurons":0,"outputNeurons":10,"weights":[],"biases":[-0.006849831204722337,0.15636205555724625,0.013343555596276827,0.48925454370108945,1.463020972829405,-0.45775411349820655,-0.21082916944242108,-1.040319584129642,0.8765174335829853,-0.008265729793364623]},{"inputNeurons":10,"outputNeurons":3,"weights":[[-0.01780475820421687,0.1348587061055832,-0.4173479825373817],[-0.3223024122109854,0.7820267918884864,-1.0679393204264949],[-0.07098234980237697,-0.3230119746511493,-0.7949012118990046],[0.36749053370489093,1.3062143081474797,-0.5549482646872496],[-0.8601912128535397,0.22404430510139708,0.25723776234625845],[1.8000227333762928,-0.08249709404130884,-1.6214075673049233],[-0.502061298093485,0.37014652005560444,-0.8638071943099974],[-0.727585720508001,1.2153312717867732,-1.320424473158056],[0.21606854387954094,0.040351073558404046,1.029942451433373],[0.12594096191277485,-1.0134522808436022,1.8323142981700047]],"biases":[0.8061081136249253,0.0834515132347052,1.1489947390276858]},{"inputNeurons":3,"outputNeurons":1,"weights":[[-0.9155185085789974],[0.028292400149784583],[-0.5737985175167833]],"biases":[1.245772286735205]}],"scores":{"1":2320,"2":5320,"3":2520,"4":2320,"5":2320,"6":2320,"7":2640,"8":3720,"9":2320,"10":2320,"11":2320,"12":2320,"13":2320,"14":2200,"15":2520,"16":2320,"17":3260,"18":2520,"19":2320,"20":2210,"21":3590,"22":2520,"23":2320,"24":2320,"25":2320}},{"layers":[{"inputNeurons":0,"outputNeurons":10,"weights":[],"biases":[0.47929340155216027,-0.01656101032060528,-0.43281397391446125,0.4764281388766931,0.5991090466027982,-0.4774253319210225,-1.0267312761663052,-1.588159826487846,0.7314226369815158,0.039651780453212326]},{"inputNeurons":10,"outputNeurons":3,"weights":[[0.1203301383702074,0.5635512936271294,-0.9850110193761605],[0.35750240514682563,0.38432999673799834,-0.41846711651154395],[-0.5730641992218997,-0.39335198483618156,-0.5794371996649025],[0.10105235853313209,0.7623723240495431,-0.6767724042049951],[-0.7791467572023216,0.45010646594337433,0.09977328583693501],[1.2517308851738727,-0.3738025851459427,-2.1310898771701123],[-0.2149699081799597,0.3188052802471974,-0.5953126445041994],[-0.27764332332076447,0.583484796630316,-0.9907353003745614],[-0.17807479770688664,-0.17335515450673245,1.4277768167870946],[-0.019519067687988514,-1.311442391802486,1.8059864134502779]],"biases":[0.14330847744485709,-0.12606011961796598,1.472260410766699]},{"inputNeurons":3,"outputNeurons":1,"weights":[[-0.5975822735008884],[0.2504417849568162],[-0.4999643129349619]],"biases":[1.605622129732552]}],"scores":{"1":3920,"2":2320,"3":2320,"4":2520,"5":2320,"6":2520,"7":2320,"8":3860,"9":2520,"10":2320,"11":2320,"12":2520,"13":2320,"14":2320,"15":2320,"16":2320,"17":2320,"18":4230,"19":2320,"20":2320,"21":2920,"22":2920,"23":2320,"24":2320,"25":2320}},{"layers":[{"inputNeurons":0,"outputNeurons":10,"weights":[],"biases":[0.08843288194635851,0.7273815726176729,0.12536298308081634,-0.2452847734221248,1.0683828978704129,0.6604579264331227,-0.28556018959441587,-1.9737314990662873,0.7491636680641816,0.37151394489316686]},{"inputNeurons":10,"outputNeurons":3,"weights":[[0.8303018243056828,-0.051279020560638475,-0.07581866831303241],[-0.10784783810197228,0.413553463176909,-0.5283662683056414],[-0.5446169108986008,-0.6830204962367297,0.2958408377050966],[0.08233842834996755,0.6600039004888685,-0.14500990149446558],[-1.1120903844367132,0.8005676545932232,-0.4600935772963861],[0.7972220306390662,0.6626715932591568,-0.5545322661438872],[-0.3205333832295005,-0.11063537178196847,-0.032195945145129384],[-0.22227708169645943,0.42869310914870645,-0.8024223277791066],[-0.20318732523710353,-0.4718348092317294,0.6709576777380798],[0.36682953611781743,-1.3472247696067878,2.0509247012552914]],"biases":[0.5117773348063019,0.464669229721649,1.6008820379144106]},{"inputNeurons":3,"outputNeurons":1,"weights":[[-0.8393620775580259],[0.08136038940592977],[-1.1103020751354489]],"biases":[0.6754155998352803]}],"scores":{"1":2320,"2":3840,"3":2610,"4":2320,"5":2320,"6":3650,"7":2320,"8":3720,"9":2320,"10":2320,"11":2520,"12":2520,"13":2320,"14":2320,"15":2320,"16":2320,"17":2320,"18":2520,"19":2320,"20":2320,"21":2920,"22":2320,"23":2520,"24":2320,"25":2320}},{"layers":[{"inputNeurons":0,"outputNeurons":10,"weights":[],"biases":[-0.3978955734768782,0.27718087480363196,-0.04904637783211854,0.6895729459607716,1.2120680246763886,0.256745852102965,-0.664147255641905,-1.453220072908249,0.7353994452986017,-0.04257891080809331]},{"inputNeurons":10,"outputNeurons":3,"weights":[[-0.18379706788263808,0.26688352792704495,-0.35843099073216356],[-0.5218840439979137,0.13559289597997526,-0.35305926174587593],[-0.07600283622358378,-0.5999293563316408,-0.8236555360446182],[0.3522670308948512,0.7070889470349422,-0.3335629247293357],[-0.8024559009773207,0.3088548860811091,-0.33346229907605085],[1.6393908177693848,-0.1427933880537927,-1.2832791152732799],[-0.20525107410485352,-0.0374944239989308,-1.0109130548574354],[-0.5959454941889134,0.696409781721439,-1.19772830677968],[0.4434372620054683,-0.3452596958938032,1.2253373678579458],[0.1349836513504391,-0.9567766871100245,1.5873982845353396]],"biases":[0.496379751645755,-0.09794759605767375,1.4005477118407725]},{"inputNeurons":3,"outputNeurons":1,"weights":[[-0.7952833731181579],[0.01868109555441369],[-1.000686094762169]],"biases":[1.4057901908623087]}],"scores":{"1":2320,"2":2500,"3":2520,"4":2520,"5":2720,"6":2320,"7":2320,"8":2520,"9":2500,"10":2320,"11":2320,"12":2320,"13":2970,"14":2320,"15":2520,"16":2520,"17":2320,"18":2440,"19":2320,"20":2320,"21":3400,"22":2320,"23":2320,"24":2420,"25":3720}},{"layers":[{"inputNeurons":0,"outputNeurons":10,"weights":[],"biases":[0.06802655579934547,0.708904704000966,0.21852497834187684,-0.11393032861076838,1.3795672993301915,0.7329213519266116,-0.36501252957227226,-1.9235248260552704,0.32600105689910314,0.30847637021133584]},{"inputNeurons":10,"outputNeurons":3,"weights":[[0.5816778438354067,-0.35867000358814555,-0.3784228083012502],[0.217994575776297,0.5507168316993466,-0.5301486539487436],[-0.25640886257702655,-1.060169596141133,-0.782807203573897],[-0.3194661777318176,0.7100020344648796,-0.4724618196427829],[-1.227669929486187,0.8086035524188266,0.2117966158487728],[0.9138399759985446,0.8111077298417617,-1.0721456041836734],[0.02414278846393672,0.39685975426282316,-0.36216596932174305],[-0.09581307012914175,-0.09887261878767067,-0.7957130949206004],[0.30946693064511077,-0.3909752963119446,1.3884934019803268],[0.03764745823916429,-1.7956222633124808,1.700741129790289]],"biases":[0.9459336941651084,0.41643519252003525,1.2581583249041361]},{"inputNeurons":3,"outputNeurons":1,"weights":[[-0.6022551424641329],[0.4310857795213701],[-1.1878792994259622]],"biases":[0.47378056710652805]}],"scores":{"1":1300,"2":2320,"3":2320,"4":2320,"5":2320,"6":2320,"7":2320,"8":2590,"9":2320,"10":2320,"11":2520,"12":2500,"13":2500,"14":3400,"15":2320,"16":2320,"17":2320,"18":3120,"19":2320,"20":2320,"21":2320,"22":5450,"23":2320,"24":2500,"25":2320}},{"layers":[{"inputNeurons":0,"outputNeurons":10,"weights":[],"biases":[-0.23007440763313955,0.24355379895849938,0.099799435489289,0.5164841949143022,1.3043645652091782,-0.29369965982154533,-0.7558907095854017,-1.5460630403867963,0.5498201287506463,0.18995674375246036]},{"inputNeurons":10,"outputNeurons":3,"weights":[[-0.057411235813995015,0.530025908123609,-0.6684185432758352],[-0.5814333260972563,0.7276624110773262,-0.9762522801729361],[-0.3266393748022737,-0.3843919439037397,-1.2395153348800334],[0.537229833582779,0.8823429793807609,-0.36945875329970995],[-0.6750708507858849,-0.019802210051458827,0.08389407261902868],[1.4114022332647849,0.23664936343595205,-1.3114670692524268],[-0.7766217961177383,-0.2027969112923758,-0.692702422016732],[-0.505093803219792,0.5619002906125865,-0.9212466262886249],[0.2583005745327784,0.11148768215996947,0.9063659003810828],[0.1493162074091709,-0.5114547298303643,1.7782509362321053]],"biases":[0.4966465797512019,-0.3162311007131011,1.370521860229962]},{"inputNeurons":3,"outputNeurons":1,"weights":[[-0.9250303610492834],[0.26412191692385195],[-0.47667268469882557]],"biases":[1.2380160681463166]}],"scores":{"1":2320,"2":2320,"3":2320,"4":2320,"5":2320,"6":3720,"7":2200,"8":2210,"9":2320,"10":2320,"11":2320,"12":2520,"13":2720,"14":2320,"15":2320,"16":2320,"17":2520,"18":2320,"19":5520,"20":2520,"21":1310,"22":2890,"23":2320,"24":2320,"25":2320}},{"layers":[{"inputNeurons":0,"outputNeurons":10,"weights":[],"biases":[-0.1489690639707922,0.45313957041458963,-0.09988501645703235,0.46827231298863375,1.6185796283168976,0.19068271574086265,-0.272231970519503,-1.1041674713102636,0.6897438976489876,-0.2148180734300525]},{"inputNeurons":10,"outputNeurons":3,"weights":[[0.13609172237641218,0.12144117363329775,-0.6675353397956707],[-0.4400604679755597,0.6975900951857987,-0.8660105565515958],[-0.34847590385973815,-0.10817536017003343,-0.7630131917756787],[0.32851108589343914,0.5734574949304019,-0.46037386670832336],[-0.5676812669296757,-0.1731670807808626,0.3075406313604157],[1.1812686874462242,0.3627110742315915,-1.5073236033167434],[-0.5874160063093776,-0.1338429685861314,-0.30689268095777433],[-0.13464912449814717,0.7573169847386502,-1.1279946402069827],[0.10200781008664674,-0.2144125299547911,0.9604711751820967],[-0.04508329016426588,-0.9042774142507742,1.8598649302223302]],"biases":[0.8178461871438226,-0.09786836903377322,0.7487384968677511]},{"inputNeurons":3,"outputNeurons":1,"weights":[[-0.5230853406686984],[0.09991924906714644],[-0.9759202845894295]],"biases":[1.0055751205651122]}],"scores":{"1":2320,"2":2320,"3":2520,"4":2320,"5":2320,"6":2320,"7":2320,"8":3050,"9":2320,"10":2320,"11":2490,"12":2520,"13":2320,"14":2320,"15":2320,"16":2320,"17":2520,"18":2290,"19":2320,"20":2320,"21":2320,"22":2320,"23":2520,"24":2320,"25":5520}},{"layers":[{"inputNeurons":0,"outputNeurons":10,"weights":[],"biases":[0.18853366824093498,0.5761105542655374,-0.487442241668842,-0.1435568216492658,1.3852179342713813,0.36829428389939245,-0.9423859247344714,-1.5357792527174823,0.8689715597684228,0.39329705877509896]},{"inputNeurons":10,"outputNeurons":3,"weights":[[0.5211817288119707,-0.09566354711749903,-0.47602490218255533],[-0.30695009025636455,-0.041035376875382834,-0.4528563681973169],[-0.07733292584571567,-0.5923230050547188,0.07196130672765275],[-0.34289761508709216,0.3919849284517864,-0.4829008040930094],[-0.8132801446244711,0.8654199629123871,-0.4929584286829003],[0.4544842782128277,0.829502430920427,-0.6680925742216052],[-0.3057814186263032,0.08136239691828895,0.010699203367187042],[-0.024111304982876246,0.6881993677503937,-0.7580029774241062],[-0.04775236564448279,-0.1677802276186458,0.8680242717589653],[0.059401424664579844,-1.351143553332776,2.001139170884618]],"biases":[0.5510345765819378,0.516146919821348,1.5386360463532938]},{"inputNeurons":3,"outputNeurons":1,"weights":[[-0.840309106774654],[0.20616433747023796],[-1.3664521255416062]],"biases":[0.5905955388181475]}],"scores":{"1":2520,"2":2320,"3":2700,"4":2520,"5":2320,"6":2320,"7":2320,"8":3120,"9":2320,"10":2720,"11":2320,"12":2320,"13":2320,"14":2320,"15":2520,"16":2520,"17":2320,"18":2320,"19":2520,"20":2320,"21":2320,"22":2320,"23":3720,"24":3120,"25":2320}},{"layers":[{"inputNeurons":0,"outputNeurons":10,"weights":[],"biases":[-0.12495162217816026,0.2272114662998745,0.1421878020867671,0.4378198976618606,1.273525836686672,-0.24084909642274926,-0.4988167809917241,-1.4693061756694104,1.049556203003503,-0.2095525544335143]},{"inputNeurons":10,"outputNeurons":3,"weights":[[0.291336509637539,0.13486546852123063,-0.48342248854905634],[-0.45693805791836184,0.5827091832508651,-0.6370581940952037],[-0.21187239121513976,-0.1000579170577835,-0.7145897757143267],[0.39973370905951494,0.7933506551859695,-0.6840335740029987],[-0.9867998614422083,-0.2301597750459398,0.5215587977193098],[1.4870053020956338,0.06228656937784445,-1.5414059139567722],[-0.18300202027151202,-0.09287707484804703,-0.7236382885151735],[-0.20937912327506883,0.6939773453714029,-1.2789445506623474],[0.09340637831488509,-0.20607725333788968,1.1397532892290272],[0.11427599425095136,-0.9230551817987059,1.6390417142091873]],"biases":[0.8903868560106544,-0.38431591983276103,1.291051640276255]},{"inputNeurons":3,"outputNeurons":1,"weights":[[-0.6043883559633217],[0.11023212524145323],[-0.7211968163960167]],"biases":[1.160015266269387]}],"scores":{"1":2520,"2":2320,"3":2320,"4":2320,"5":2210,"6":2320,"7":2320,"8":3920,"9":2320,"10":2200,"11":2520,"12":2310,"13":2320,"14":2320,"15":2320,"16":2320,"17":2320,"18":2320,"19":3920,"20":3720,"21":2320,"22":2320,"23":2320,"24":2320,"25":2320}},{"layers":[{"inputNeurons":0,"outputNeurons":10,"weights":[],"biases":[0.3111087223853155,-0.18353881439497943,-0.05502475428539086,0.17311638866089973,0.9397572809941849,-0.2929267928792626,-0.9218949088066494,-1.4314333017167025,0.9678364836988923,0.15785769846168007]},{"inputNeurons":10,"outputNeurons":3,"weights":[[-0.2455569328819443,0.26428641310347084,-1.0109941378324385],[0.17079304310060844,0.14054146918670546,-0.47786803144851064],[-0.8225356823982247,-0.4451239451398233,-0.4973460497065552],[0.057713399029543644,0.9085134728030468,-0.5961474582559904],[-1.3304329327087308,0.11754588500664043,-0.27792763725501246],[1.6029700015716908,0.025670647365779835,-1.8217336514084679],[-0.16589605052392872,0.003716651796304882,-0.6516252328152435],[-0.7600497737156646,0.6681417115169266,-0.9329851219698256],[-0.04732821471751458,0.03401094023390755,0.9617696882585863],[0.09043010074571836,-0.8794147143441996,1.4388153347546497]],"biases":[0.5204885409463258,-0.43879420196550467,1.1757616851105528]},{"inputNeurons":3,"outputNeurons":1,"weights":[[-0.586496143425452],[0.39260429176902734],[-1.3130911525128948]],"biases":[1.3879949181641054]}],"scores":{"1":2320,"2":2520,"3":2520,"4":2320,"5":2320,"6":2320,"7":2320,"8":2500,"9":2520,"10":3520,"11":3050,"12":1300,"13":2220,"14":2320,"15":2320,"16":3520,"17":2320,"18":3040,"19":2320,"20":2320,"21":2920,"22":2900,"23":2320,"24":2360,"25":2320}},{"layers":[{"inputNeurons":0,"outputNeurons":10,"weights":[],"biases":[0.7967886354913727,-0.2171080666977276,-0.16008749973113395,0.36658059612572946,1.025687381672299,-0.40128575595299787,-0.9157167295184123,-1.2687506266401514,1.37738553833152,-0.03998766532492365]},{"inputNeurons":10,"outputNeurons":3,"weights":[[-0.35464632279131514,0.20742022499255386,-0.6931425774388555],[0.05224797370917318,0.6837628466961626,-0.6079448408572656],[-0.28374013044294877,-0.2521023710446498,-0.36919849625257095],[-0.24723220621974207,0.9142870416088779,-0.4672675795840439],[-1.1052914768540993,0.423104721595561,-0.24410251949565212],[1.8154029768686915,0.032992895938285235,-1.9754459149035704],[-0.18031038946708594,-0.06173246166298936,-0.4982592443219733],[-0.2578888757619475,0.5709312961412578,-1.068959686555606],[-0.38552546808906085,-0.5649097407463537,1.2637566517045706],[0.06456342059812016,-1.4614164260633087,1.9625538175681196]],"biases":[0.5255141133126886,-0.3016265110294935,1.413803418910123]},{"inputNeurons":3,"outputNeurons":1,"weights":[[-0.5929789426611131],[0.03551821510220263],[-0.9097807312863337]],"biases":[1.752063154558142]}],"scores":{"1":2320,"2":2320,"3":3500,"4":2320,"5":2320,"6":2320,"7":2320,"8":3400,"9":2320,"10":2320,"11":2520,"12":2320,"13":3250,"14":2220,"15":2720,"16":2520,"17":2320,"18":2320,"19":2320,"20":2320,"21":2320,"22":2320,"23":2720,"24":2520,"25":2520}},{"layers":[{"inputNeurons":0,"outputNeurons":10,"weights":[],"biases":[0.01470579874902607,0.20646251553686035,0.3697786492738768,0.7305027269200508,1.1934652094275333,-0.336457202268886,-0.44384597998812214,-1.6757980819825504,0.2576574344432724,-0.08680851404862638]},{"inputNeurons":10,"outputNeurons":3,"weights":[[0.11081464817513513,0.31216432255318366,-0.8488835995010617],[-0.47419183753241667,0.4270916947288206,-0.7103169897703501],[-0.3659092749428442,-0.33860430527798807,-0.5509927017719697],[0.6637761728010199,1.1093343813349672,-0.6405424164413585],[-0.8416651229610151,0.09805219286743401,0.09738633769136357],[1.1703290321078348,0.381850649355796,-1.4109130241201706],[-0.9273462922628555,-0.11140480423471799,-0.4852535411494957],[-0.5537594334147673,0.9725510274193685,-1.3006614194456536],[-0.035170206036303414,-0.09913498995496106,1.0212641960153201],[0.34171327877110064,-1.3129029093252378,1.7064018983131395]],"biases":[0.682389860589867,0.29285594594834985,1.2839670841093758]},{"inputNeurons":3,"outputNeurons":1,"weights":[[-0.5718152602791456],[-0.007935949013986407],[-0.7567707358604729]],"biases":[1.3264313030101613]}],"scores":{"1":2320,"2":2520,"3":2320,"4":2560,"5":2720,"6":2320,"7":2320,"8":2320,"9":2520,"10":5430,"11":2320,"12":2320,"13":2320,"14":2520,"15":2320,"16":3050,"17":2400,"18":2210,"19":2320,"20":2320,"21":2320,"22":2320,"23":1940,"24":2320,"25":2320}},{"layers":[{"inputNeurons":0,"outputNeurons":10,"weights":[],"biases":[-0.15906527685826488,0.16442098685863302,-0.11717398048707718,0.17364300878846428,1.1974088650651298,0.5303149759548758,-0.27349385187184744,-1.4032807068792457,0.8919569705857504,0.3790641354862099]},{"inputNeurons":10,"outputNeurons":3,"weights":[[0.2308618546250112,0.006080002357585129,-0.5158846852762231],[0.17085970427602143,0.5583845309209979,-0.7162763713334718],[-0.12744703114427797,-0.25552899870937834,-0.15495276764765092],[-0.05711511850706036,1.284560640396042,-0.213456334446506],[-0.39342174985617406,0.6399600390932542,0.31145445565421614],[0.5942877037487455,0.9585472900082692,-1.4071303243153714],[-0.05515748100600806,-0.41642548187299605,-0.4681800653424438],[0.08864518045226524,0.5676192123265997,-1.0409869648241228],[-0.3980587006700898,-0.3876937699618768,0.6933679325163609],[0.2434842081014688,-1.2670226247074532,2.298133900738569]],"biases":[0.381576238763691,0.1629767197869713,1.3499324228080052]},{"inputNeurons":3,"outputNeurons":1,"weights":[[-0.7410796712197669],[0.3913886773473455],[-1.2374007306293733]],"biases":[0.7961534713345707]}],"scores":{"1":2320,"2":3120,"3":3400,"4":1300,"5":2320,"6":4910,"7":2520,"8":2320,"9":2520,"10":2320,"11":2320,"12":2320,"13":2320,"14":2320,"15":2320,"16":2320,"17":2320,"18":2320,"19":2320,"20":2320,"21":2320,"22":2520,"23":2920,"24":2320,"25":2320}},{"layers":[{"inputNeurons":0,"outputNeurons":10,"weights":[],"biases":[0.484792424967062,0.1876604827063097,0.19281873199439103,0.1809881516600692,1.4737949556517032,0.6319811389261166,-0.6417865753562555,-1.8055837155925503,0.4580422658933758,0.4371660102752202]},{"inputNeurons":10,"outputNeurons":3,"weights":[[0.7638211772593037,-0.3392442067079564,-0.16868050800719175],[0.3425212339230396,0.7785280877236375,-0.7599067932790854],[0.14913192941059272,-0.6564340449408075,-0.31672824231906715],[-0.8405602687674758,1.3011711612066197,-0.1103066839360512],[-0.9678920267514466,0.20485500372295512,-0.1288670117533201],[0.8342416902014149,0.7521789602550191,-0.9289410980695115],[0.18346018889761762,0.2520672394156989,-0.6188163468669237],[-0.23351165870865376,0.04628271585246843,-0.7280114440269287],[0.1584476587492294,-0.29086406289692096,1.223590226443051],[-2.5080037488086834E-4,-1.2857737036663845,1.9780691134825996]],"biases":[1.465872405293351,0.3483336837089892,1.3060437796809856]},{"inputNeurons":3,"outputNeurons":1,"weights":[[-0.7075578826039439],[0.6325603811235736],[-1.3895441007952865]],"biases":[0.19567082110911]}],"scores":{"1":2320,"2":2520,"3":2210,"4":2320,"5":2210,"6":2320,"7":2210,"8":2320,"9":2500,"10":3120,"11":2320,"12":2520,"13":2600,"14":2210,"15":3720,"16":2320,"17":2320,"18":2320,"19":2540,"20":2600,"21":2520,"22":2320,"23":2320,"24":3120,"25":2720}},{"layers":[{"inputNeurons":0,"outputNeurons":10,"weights":[],"biases":[0.08305314071075096,0.6518170556372854,0.04408063553784053,-0.5545538354242646,1.7221263089098735,0.47006099039746385,-0.47343205461851234,-1.4047568285411078,0.9205214806215888,0.2787696955926396]},{"inputNeurons":10,"outputNeurons":3,"weights":[[0.19912938588665785,-0.34677521114808313,-0.40986903847810646],[0.04652053208074037,0.30263185549997496,-0.17405081268968478],[-0.0027014933355575532,-0.0795399117298346,-0.261348367080282],[-0.2859896139155546,0.7252573309658229,-0.10442015225897316],[-0.9817951479602941,1.0335852895410014,-0.1894152192335129],[0.5136401930868162,0.843639340231752,-0.5338032579830922],[-0.004320514207488441,-0.3218394150859101,0.0270033013333716],[-0.2564164066437973,0.9726362104113887,-0.5507839340520878],[-0.09831373978832753,-0.422814168438252,1.173079548412605],[0.4260147355301789,-1.4234681210526712,2.3075526021427377]],"biases":[0.5888814596116962,0.18254787949993634,1.9189485973703493]},{"inputNeurons":3,"outputNeurons":1,"weights":[[-1.0820657301328485],[0.29789050271035705],[-1.2883502442261525]],"biases":[1.0670101431254788]}],"scores":{"1":2320,"2":2320,"3":2320,"4":4250,"5":2840,"6":2320,"7":2320,"8":2520,"9":2520,"10":2690,"11":2320,"12":2520,"13":2520,"14":2320,"15":2320,"16":2320,"17":2320,"18":2520,"19":2320,"20":2320,"21":2320,"22":2320,"23":2370,"24":2900,"25":2320}},{"layers":[{"inputNeurons":0,"outputNeurons":10,"weights":[],"biases":[-0.1708670118546562,0.16112228065209988,0.14024457690909764,0.4125640953638984,1.267431263062082,-0.4607941223262554,-0.7147932085620233,-1.0376992568616443,0.5907399314482215,-0.018113097430498916]},{"inputNeurons":10,"outputNeurons":3,"weights":[[0.2202995032767593,0.057738219589733714,-0.6118460489110216],[-0.7634081905177821,0.4642105540275672,-0.5623811688651545],[-0.22280789592842834,-0.7945462054466577,-0.8018738251433087],[0.22303847365439378,0.6032588200033328,-0.921375702624543],[-0.8990011319893526,0.1317967726456518,0.5006613739210187],[1.7419779085563145,0.3460511876914421,-1.5983295990731863],[-0.7105128785624053,-0.32999424025774304,-0.7941467789306079],[-0.4564122008425071,0.9099044493946686,-1.0625689910313396],[0.2633711146538712,-0.3478293727390931,0.7181542615790368],[0.10807062319392195,-0.752889765051743,1.8162899205963412]],"biases":[0.49818373652085407,-0.11264137452926187,1.1700018489000645]},{"inputNeurons":3,"outputNeurons":1,"weights":[[-0.8500468942829383],[0.2149032679578177],[-0.7147362882815006]],"biases":[1.65150789478381]}],"scores":{"1":2520,"2":2320,"3":2720,"4":2320,"5":2320,"6":2320,"7":1310,"8":2900,"9":2320,"10":2320,"11":3120,"12":2320,"13":2320,"14":2520,"15":2320,"16":2320,"17":2600,"18":2470,"19":3850,"20":2720,"21":2320,"22":2320,"23":2720,"24":2800,"25":2320}},{"layers":[{"inputNeurons":0,"outputNeurons":10,"weights":[],"biases":[0.42154011789912615,0.4622497685184709,0.16457025797133162,0.031930776239963043,1.3689758137560233,0.63979745137483,-0.39195656037599147,-1.662365223858662,0.6255373757828705,0.3313675379424965]},{"inputNeurons":10,"outputNeurons":3,"weights":[[0.47712276869061915,-0.22265983974516682,-0.33656939693947796],[0.1550530256973978,0.5417822202383658,-0.6406905913684408],[-0.019675138778142753,-0.7872265143678314,-0.5015007832524079],[-0.4664462568803356,0.865591607660652,-0.3121728043754989],[-0.8084632242786023,0.6605474928384121,-0.04802792377501687],[0.7920023490763267,0.6365186158788789,-1.0138061678232466],[-0.0998652545782835,0.1505367027656532,-0.5517269090966047],[-0.243309644760746,0.18974409138997483,-0.8476633883311367],[0.03837540523246066,-0.16693789832861633,1.3616292786422144],[0.025052688665681166,-1.4906713934504114,1.9399602626767545]],"biases":[1.126408314798101,0.13860479501411094,1.3068150058918258]},{"inputNeurons":3,"outputNeurons":1,"weights":[[-0.7178774558367537],[0.24797870836898678],[-1.282787645787925]],"biases":[0.48670472651110785]}],"scores":{"1":2320,"2":2320,"3":1300,"4":2320,"5":2520,"6":2320,"7":2320,"8":2520,"9":5420,"10":2320,"11":2320,"12":2320,"13":1310,"14":2320,"15":2320,"16":3720,"17":2320,"18":2320,"19":3100,"20":2520,"21":2520,"22":2320,"23":2320,"24":2520,"25":2320}},{"layers":[{"inputNeurons":0,"outputNeurons":10,"weights":[],"biases":[0.17343695345513047,0.11398238094237179,0.2595127530514159,-0.03235494369083723,1.2484575456506692,0.7471588165510877,-0.33325075116756303,-1.6172800541152563,0.6229642570924212,0.2392245795039345]},{"inputNeurons":10,"outputNeurons":3,"weights":[[0.35202928393697475,-0.554169824323016,-0.2953454054524134],[0.1349954857206723,0.2626091408273619,-0.8428198687739024],[-0.29343997012846473,-0.7342950801625816,-0.3375093939795667],[-0.5684190891290788,0.6399153776966698,-0.3769257235498146],[-0.7082331433242611,0.39401462802462756,-0.3630220559124083],[0.8978572928927832,0.8517575774412555,-0.6161129140353226],[-0.1794803918633549,-0.07633596186528444,-0.5861548888510559],[0.12387399497040208,0.30737211677546544,-0.8522593513137258],[0.3120248902739079,-0.20418132593815122,1.531990097630729],[0.004433439650433288,-1.7197573247452107,1.8579207128135549]],"biases":[1.2102714188931958,0.010454688136116691,1.18175848210179]},{"inputNeurons":3,"outputNeurons":1,"weights":[[-0.9683158771494083],[0.10599761953927275],[-1.3275531110221925]],"biases":[0.5823056849716758]}],"scores":{"1":2320,"2":2320,"3":2320,"4":2620,"5":2240,"6":2320,"7":2320,"8":2320,"9":2890,"10":2320,"11":2320,"12":2320,"13":2320,"14":2320,"15":2320,"16":2500,"17":3390,"18":2320,"19":3160,"20":2320,"21":2610,"22":2320,"23":2970,"24":2690,"25":2320}},{"layers":[{"inputNeurons":0,"outputNeurons":10,"weights":[],"biases":[0.0933664682570971,0.1541704895908384,-0.5799859718932625,-0.38872988572155615,1.3431493999247757,-0.10960218756431012,-0.3911058167533934,-1.4184353375291614,0.6913109868664145,-0.08936041351000895]},{"inputNeurons":10,"outputNeurons":3,"weights":[[0.2630741357531221,-0.2891487470955711,-0.4938619081111665],[-0.059099104607022244,0.4332204370313987,-0.1734933033238196],[-0.19686589528994247,-0.4511747475721078,-0.13647894143764053],[-0.13051765660912068,0.7424119174238597,-0.43481184396658495],[-0.8104633670029902,0.7766832670569979,-0.4814730161466889],[0.5656632884032862,0.83515964034485,-0.06251238416842675],[-0.5180307951049088,-0.200545333947109,-0.2430110336301928],[-0.29281771511396126,0.36682919539127107,-0.5797645307338241],[0.29823669499879324,-0.4518013216086068,1.027114844741284],[0.5691012983635811,-1.5518272753221336,2.040736038401092]],"biases":[0.4313361806674284,0.2886237577283549,1.3246766257961557]},{"inputNeurons":3,"outputNeurons":1,"weights":[[-0.5847942422748139],[0.11538266971348426],[-1.1725381127161458]],"biases":[0.47984058690877285]}],"scores":{"1":2320,"2":2320,"3":2520,"4":2520,"5":2320,"6":2320,"7":2320,"8":2320,"9":2520,"10":2320,"11":2320,"12":2720,"13":2320,"14":2320,"15":2520,"16":2320,"17":3520,"18":2870,"19":2320,"20":2320,"21":2720,"22":2500,"23":2320,"24":2320,"25":2810}},{"layers":[{"inputNeurons":0,"outputNeurons":10,"weights":[],"biases":[0.2953807523319706,0.5556324704056392,-0.36272202933401876,-0.3041334564576462,1.698766663134379,0.14690069269736777,-0.2732075983446479,-1.5590224415804839,0.8547670033935023,0.0813422775774452]},{"inputNeurons":10,"outputNeurons":3,"weights":[[0.3865415399978922,-0.36803368760335464,-0.15080392881232826],[0.0651084872772869,0.4358924302125103,-0.5142888371343727],[-0.14880049656637506,-0.5571620275238002,-0.10740431365043765],[-0.17012371133300133,0.6478944064878145,-0.878534366319599],[-1.086550458998554,0.9238282257223029,-0.08324313872833655],[0.3919592171947036,0.15152419711635823,-0.8827545665485237],[-0.863224118196586,0.10307934502460492,-0.23559073310940518],[0.28829612234055846,0.571119177531956,-0.785432619606863],[-0.3329844366622985,-0.17614641993277386,0.8066174311098974],[0.37991169862346874,-1.2128256890218232,1.973274642449788]],"biases":[0.7084031485006915,0.42536773216326473,1.5728061063485366]},{"inputNeurons":3,"outputNeurons":1,"weights":[[-0.22697749984544385],[-0.20344839578220905],[-1.0239561448491283]],"biases":[0.5302755964512392]}],"scores":{"1":2520,"2":2320,"3":2290,"4":2320,"5":4320,"6":2320,"7":2520,"8":2320,"9":2410,"10":2520,"11":2320,"12":2320,"13":2320,"14":2320,"15":2520,"16":3120,"17":2320,"18":2210,"19":2320,"20":2500,"21":2320,"22":2550,"23":2320,"24":2320,"25":2320}},{"layers":[{"inputNeurons":0,"outputNeurons":10,"weights":[],"biases":[-0.5317063240065403,0.45330191892124516,0.3512212913709616,0.6531952242734875,1.314157446419885,-0.4293186143925848,-1.1400970894004154,-1.3447964717300456,0.6068625830933319,-0.29934039612243046]},{"inputNeurons":10,"outputNeurons":3,"weights":[[0.32890632268422176,0.3314295788346619,-1.0176013031298146],[-0.23435063779777573,0.28823864871876537,-0.9428242068452245],[-0.4494117330516105,-0.3393496129594082,-0.6933188669182722],[0.47176532199740956,0.7804308887152821,-0.9591006839134963],[-0.8425122325031913,-0.05195442393741878,0.40861860387951754],[1.3891598588098566,-0.006405490627007092,-1.973300442159361],[-0.5567803431879089,0.22978403930540348,-0.7846760213114478],[-0.19266568317107124,0.5766945533373242,-1.2983205199397827],[0.190977919677788,0.20064495152740447,1.3693163037795808],[0.2672999009579981,-0.9254893368703838,1.9873101856272992]],"biases":[0.6392410008734987,-0.1970229676967884,1.5997591203628434]},{"inputNeurons":3,"outputNeurons":1,"weights":[[-0.715339991494331],[-0.1517415172830767],[-0.6478867584636913]],"biases":[1.2554882317622063]}],"scores":{"1":2320,"2":2560,"3":2610,"4":2320,"5":2520,"6":2320,"7":2250,"8":2320,"9":2320,"10":2560,"11":1940,"12":2320,"13":2320,"14":2320,"15":2320,"16":2760,"17":2920,"18":3720,"19":2360,"20":2320,"21":2760,"22":2320,"23":2720,"24":2320,"25":2320}},{"layers":[{"inputNeurons":0,"outputNeurons":10,"weights":[],"biases":[0.1577665919905637,0.04196528106393313,0.19848188506031328,0.48068423146361433,1.258794472675068,-0.3412885698773761,-0.7901124239587142,-1.3773519004496702,0.5260448737338423,0.018055609073695814]},{"inputNeurons":10,"outputNeurons":3,"weights":[[0.20583729608997478,0.43500005360928223,-0.643693996409735],[-0.676348474395315,0.5749711617932112,-0.6596640305628211],[-0.07006962633138458,-0.40767102667484284,-0.9199914978779402],[0.788414671309642,0.6771470923657265,-0.5744469029397715],[-0.435347171502879,0.017989566685745167,0.24567631500919648],[1.2238443376635417,0.1668753129660383,-1.5923468816653663],[-0.8474790068916949,0.07179227418156561,-0.6346390996333621],[-0.4184504959706597,0.784448017430057,-1.0104196679409037],[0.015448438622979316,-0.2809712857808451,0.9960727843626801],[0.1409658653198845,-1.1985633283479256,1.7234071849267214]],"biases":[0.10125619958132304,-0.4366577228018176,1.4889408978489453]},{"inputNeurons":3,"outputNeurons":1,"weights":[[-0.7598755666663376],[0.18964450561093302],[-0.6570008350214287]],"biases":[1.2338620130033509]}],"scores":{"1":2320,"2":2320,"3":2320,"4":2320,"5":3920,"6":2320,"7":2320,"8":2320,"9":2320,"10":2960,"11":2210,"12":2320,"13":2320,"14":2520,"15":3120,"16":2320,"17":2320,"18":2320,"19":2920,"20":2210,"21":2320,"22":2320,"23":2320,"24":2520,"25":2320}},{"layers":[{"inputNeurons":0,"outputNeurons":10,"weights":[],"biases":[0.6402558011073403,4.290531692883459E-4,0.07705784326480214,0.08610031620249947,0.9731443487265525,-0.027649842587509105,-0.7649907752978521,-1.4967792463549594,1.1296461448081314,0.12026208809044496]},{"inputNeurons":10,"outputNeurons":3,"weights":[[-0.2144592436176207,0.48877706141489985,-1.0600063785493976],[0.14979225666269794,0.46253101379770534,-0.5338009593599641],[-0.3195715203473123,-0.3527579518009693,-0.7006115316913253],[-0.17355132700666487,0.7231085095822143,-0.5918087650821074],[-1.2867042698557691,0.4088631426380104,-0.2263613463541906],[1.656766284675649,0.1620552059495961,-1.8920667336321888],[-0.0982108881588445,0.13590047798839217,-0.7728677337873732],[-0.559486762019781,0.366532701414744,-1.051170907025886],[-0.318234873505993,-0.4384363187162576,1.209190207974781],[-0.11051363923616306,-1.474888453558719,1.8115853674544804]],"biases":[0.3872848382125885,-0.04231670110038693,1.058032959323354]},{"inputNeurons":3,"outputNeurons":1,"weights":[[-0.9494959894375423],[-0.11112715066027878],[-0.9668585526296112]],"biases":[1.6963501144830568]}],"scores":{"1":2210,"2":2320,"3":2320,"4":2320,"5":2320,"6":2720,"7":2370,"8":2520,"9":3650,"10":2720,"11":2520,"12":2320,"13":3250,"14":2320,"15":2320,"16":2320,"17":2320,"18":2320,"19":3720,"20":2320,"21":2320,"22":2320,"23":1300,"24":2320,"25":2320}},{"layers":[{"inputNeurons":0,"outputNeurons":10,"weights":[],"biases":[0.3608878876323785,0.6417210194618282,-0.3181895908215593,-0.012132091389211508,1.317164610140533,0.1529074692724316,-0.6578677913438369,-1.574148627250444,0.9325018265587841,0.2192509685487417]},{"inputNeurons":10,"outputNeurons":3,"weights":[[0.32755408836181776,-0.40512314285480916,-0.578043090616452],[0.19568440095578848,0.3043867982152544,-0.061124792392052096],[0.06396148888443196,-0.2704947992263573,-0.34795833263015463],[-0.22472049819698964,0.8311382437866146,-0.5696009772285695],[-0.6785987948515322,0.8748167165611944,-0.24116688735820999],[0.43404027119304656,1.1247598411755615,-0.7179538438617727],[-0.7948163913458696,-0.37905614352459915,-0.011285919220372725],[0.14617680984257478,0.7528155789548664,-0.7225544967120945],[-0.05013069978740306,-0.12730268494271263,0.9448524366788618],[0.34761754419257573,-1.0024982835674787,1.9757306067946077]],"biases":[0.42262560264499227,0.16917180197282866,1.429487094860399]},{"inputNeurons":3,"outputNeurons":1,"weights":[[-0.3598534706506288],[0.31521824084263717],[-1.1145194578514086]],"biases":[0.6560364965900122]}],"scores":{"1":2600,"2":2320,"3":2320,"4":2520,"5":2570,"6":4220,"7":2320,"8":2320,"9":2320,"10":2320,"11":2320,"12":2520,"13":2320,"14":2920,"15":2320,"16":2320,"17":2320,"18":2320,"19":2320,"20":2320,"21":2320,"22":2320,"23":2220,"24":2320,"25":2320}},{"layers":[{"inputNeurons":0,"outputNeurons":10,"weights":[],"biases":[0.7445603898094156,0.23722597578857907,-0.2672768196223364,-0.1265868937541948,1.7376853453975574,0.27563642319711956,-0.49949066508441536,-1.5745193818856578,0.7320000050492738,0.2734549754528467]},{"inputNeurons":10,"outputNeurons":3,"weights":[[0.4359889195996369,0.051497807523386646,-0.29503533528580106],[0.04333715788177162,0.19744734517105614,-0.2900023235640503],[-0.35312305721010795,-0.5712116956197093,0.059456525732061616],[0.047094160854077166,0.4116869369351291,-0.23199697793560478],[-0.9761389461173298,0.5384451598415567,-0.09376651730249885],[0.7995762265906284,0.6103049308882214,-0.5443922298928086],[-0.07381251147651585,-0.11634969086909677,-0.1860589121533078],[-0.09150794019125422,1.0393459337881175,-0.41491434684823725],[-0.13745531072294462,-0.0049759266206290675,0.9212217815197649],[0.7712401687290079,-1.1154282635150845,2.0648645368942806]],"biases":[0.8571238131737492,0.4987553034823556,1.77816961193736]},{"inputNeurons":3,"outputNeurons":1,"weights":[[-0.8579808125813304],[-0.07266713735670291],[-1.0968386016401743]],"biases":[0.5976699950789146]}],"scores":{"1":3760,"2":2320,"3":2320,"4":2320,"5":2320,"6":2320,"7":2320,"8":2320,"9":2320,"10":2320,"11":2320,"12":5000,"13":2320,"14":2320,"15":2320,"16":1300,"17":2440,"18":2320,"19":2320,"20":2320,"21":2320,"22":2320,"23":2320,"24":2190,"25":2520}},{"layers":[{"inputNeurons":0,"outputNeurons":10,"weights":[],"biases":[-0.228249113135382,0.10064358158368109,-0.2117876704881049,0.8534188669288897,1.686205464556762,-0.06273163564803938,-0.6149685188383683,-1.292590179816192,0.732711484086766,-0.038531639686178495]},{"inputNeurons":10,"outputNeurons":3,"weights":[[0.38632122552766623,0.44600895693802983,-0.3002815187143332],[-0.32197245286966775,0.3090938325782603,-0.5524416084182595],[-0.2394389424586677,-0.5545938721518878,-0.8167912524267154],[0.459983894679471,0.6557638946332504,-0.7198141029975588],[-0.531544131767344,-0.14884018084264325,0.19343802154228704],[1.6323545621481867,0.2019982540085784,-1.5653723415965686],[-0.7212818251813747,-0.041226343595136467,-0.7037938666552824],[-0.3547214739439422,0.7227016687998636,-1.0332773340825612],[-0.12537000691143002,0.08746777458625253,1.0755830663946366],[0.30031008550273114,-0.9614144105783173,1.8539648002410571]],"biases":[0.5339392275810851,0.09302642387864105,1.480035366279535]},{"inputNeurons":3,"outputNeurons":1,"weights":[[-0.9007387066525147],[0.016204087681294083],[-0.73684088643026]],"biases":[1.304070564034121]}],"scores":{"1":2320,"2":2320,"3":1300,"4":3010,"5":1300,"6":2320,"7":2320,"8":2320,"9":2520,"10":2320,"11":4990,"12":3120,"13":2760,"14":2320,"15":2320,"16":2320,"17":2190,"18":2520,"19":2520,"20":2320,"21":2320,"22":2320,"23":2320,"24":2520,"25":2320}},{"layers":[{"inputNeurons":0,"outputNeurons":10,"weights":[],"biases":[0.42477316997522013,0.33565630824039105,0.04429297635931734,0.0541777291104379,1.0815580326074936,0.9084860437359825,-0.5731171343969297,-1.4997404174326026,0.48610057625906294,0.372904245581313]},{"inputNeurons":10,"outputNeurons":3,"weights":[[0.761393088158332,-0.03130737754168747,-0.18056719938554838],[0.013844018158356647,0.8188904853238325,-1.0685418502004445],[-0.18790595635692242,-1.2480910493368147,-0.3751550614153607],[-0.4094690186880139,0.9356655236251448,-0.4669098694196601],[-0.8758405540708922,0.6148654568821672,-0.3250971834893848],[0.7688334981881831,0.8053161721380284,-1.2621337699695414],[0.21995413380218054,-0.04903219130977535,-0.3723405902800484],[-0.5253600011673838,-0.145389297994853,-0.9374557161198789],[-0.15541521512224019,-0.11515124476256415,1.3221790410113305],[0.17690852540243174,-1.4545472421103167,1.8172074933739757]],"biases":[0.9214777595832555,-0.03573920261507385,1.437634827260959]},{"inputNeurons":3,"outputNeurons":1,"weights":[[-0.7619758680037455],[0.12554873234551434],[-1.3536854236297151]],"biases":[0.3349588290940094]}],"scores":{"1":2320,"2":2600,"3":2320,"4":2320,"5":3020,"6":2320,"7":2320,"8":3120,"9":2520,"10":2320,"11":2320,"12":2320,"13":2560,"14":2320,"15":2320,"16":2320,"17":2320,"18":2730,"19":2720,"20":2320,"21":2320,"22":2500,"23":2320,"24":2320,"25":2320}},{"layers":[{"inputNeurons":0,"outputNeurons":10,"weights":[],"biases":[0.1679093735352573,0.2907552850382915,-0.010512841044213517,0.8229516010348504,1.182836031236235,-0.33131318449827046,-0.2794705855243412,-1.405191972976519,0.5965861363845767,-0.08796936683616555]},{"inputNeurons":10,"outputNeurons":3,"weights":[[-0.051590961067941615,0.08944339892616776,-0.8038569751779028],[-0.20536120501206084,0.5630094289895097,-0.8305233873067488],[-0.24856685676025275,-0.690382541418814,-0.6610207926067646],[0.5674689416769018,0.8783181748950046,-0.5155982692956192],[-1.0472279808429916,0.17018712522902468,0.26753445149673744],[1.3453485328736965,0.09877716896228114,-1.5390319843061817],[-0.19444221845888862,0.27851896059772563,-0.5861630540545105],[-0.356480288942005,0.9571885181288237,-1.0612134608462136],[-0.1278398435560123,-0.137303168914051,0.7175037609568018],[-0.0051894208524976004,-1.0145739552891357,1.4516985427785525]],"biases":[0.9012077229971294,-0.09199660674507741,1.3540893849816933]},{"inputNeurons":3,"outputNeurons":1,"weights":[[-0.5082770887580704],[0.38474800457280645],[-1.1301799624455873]],"biases":[1.18362285207396]}],"scores":{"1":3500,"2":2320,"3":2320,"4":2320,"5":2320,"6":2320,"7":2320,"8":2320,"9":2520,"10":2520,"11":2320,"12":3400,"13":2320,"14":2320,"15":2320,"16":2320,"17":2320,"18":2650,"19":2320,"20":2320,"21":2500,"22":2320,"23":2320,"24":2320,"25":2320}},{"layers":[{"inputNeurons":0,"outputNeurons":10,"weights":[],"biases":[0.06816310179081359,-0.13742128294909728,0.0660656907398256,-0.48503474204166586,0.8932691678731619,-0.0933105903064348,-0.6585479598466404,-1.4730040810095903,1.118270013206955,0.02280180910624116]},{"inputNeurons":10,"outputNeurons":3,"weights":[[-0.19547449621707635,0.03104425765000257,-1.1783799971391677],[-0.09178664640540816,0.4948109022240408,-0.0939671081719618],[0.029601594317811786,-0.5803357492886873,-0.5112308023254849],[-0.1145428143189889,1.0221267819656121,-0.629720274710083],[-1.2884639037047383,0.12208534091203496,0.004407629268468577],[1.606972631781696,-0.23129617435149175,-1.7726541308715547],[-0.12321337218403752,0.09781992460505168,-0.5952615357748832],[-0.5537809196665487,0.33806332543831225,-1.2852264491587866],[-0.1772448541771669,-0.11937447664091067,1.3917644510141105],[0.16906562255974084,-1.508013294840005,1.6832305662586577]],"biases":[0.7094519940640743,-0.4338071000168495,1.3647185649511462]},{"inputNeurons":3,"outputNeurons":1,"weights":[[-0.63850845275607],[-0.09298384721012665],[-0.6979467472376637]],"biases":[1.623075166786139]}],"scores":{"1":2320,"2":2320,"3":2320,"4":2200,"5":2520,"6":2320,"7":2520,"8":2320,"9":2320,"10":2320,"11":2320,"12":2320,"13":2320,"14":3920,"15":2320,"16":3120,"17":2320,"18":2320,"19":2520,"20":2320,"21":2320,"22":2320,"23":2320,"24":2610,"25":2320}},{"layers":[{"inputNeurons":0,"outputNeurons":10,"weights":[],"biases":[0.5513125316406208,0.5415161931945278,0.2557971092093409,-0.20629766667971433,1.306074247132407,0.7079568272421197,-0.35363875440701076,-1.6504491395409024,0.8149527602868758,0.34553446302351704]},{"inputNeurons":10,"outputNeurons":3,"weights":[[0.36553281860032716,-0.5959242079661995,-0.16672169486401633],[0.2605347993845522,0.3776318503467643,-0.6208350442296017],[-0.10332198929200408,-0.7155234329267449,-0.24013219840496336],[-0.5267157679610937,0.5972639633901042,-0.14821203778483102],[-0.6538645605157114,0.2919240348023646,-0.1267221599732742],[0.41696880376308065,0.5243637903149949,-0.8091926088694272],[-0.27744246163135033,0.2854002029883404,-0.22321822901214922],[-0.35889299190187907,0.16316304676114893,-0.9218007925724963],[-0.017044513572667883,-0.09117563410470153,1.4619127944047585],[0.3832279957159448,-1.5786263419486362,1.8605333062278706]],"biases":[1.2362237637748335,0.2849537487513354,1.2498273790360033]},{"inputNeurons":3,"outputNeurons":1,"weights":[[-0.9250953999556415],[0.03517515507827118],[-1.4203388097487804]],"biases":[0.6287601403915135]}],"scores":{"1":2320,"2":2320,"3":2320,"4":2500,"5":2320,"6":3120,"7":2320,"8":2320,"9":2320,"10":2520,"11":2320,"12":2520,"13":2320,"14":2320,"15":2920,"16":2320,"17":2320,"18":2320,"19":2320,"20":2320,"21":3050,"22":2520,"23":2320,"24":2320,"25":2500}},{"layers":[{"inputNeurons":0,"outputNeurons":10,"weights":[],"biases":[0.5365670852617899,0.11106050946868529,-0.10932697897973437,0.10138144116307679,1.120165864905843,-0.010043723137320437,-1.1024321397497459,-1.5669164292113167,1.1807424410888916,0.041818375950300496]},{"inputNeurons":10,"outputNeurons":3,"weights":[[-0.1491425951855295,0.6036077564117208,-0.9870959575572598],[0.01728317698594832,0.5456257501077579,-0.40105805965197117],[0.03183429546076266,-0.24011831894342256,-0.400607390572458],[-0.14041623454204705,0.8591562644979438,-0.866302065326066],[-1.3527876380427026,0.34995379014663397,-0.28522124115597325],[1.2469279615147457,0.06252399968709473,-2.094394243778493],[-0.0197766513708153,0.05236935740904234,-0.92002108123247],[-0.3398243911957075,0.9252005718952528,-1.35999802298059],[-0.05218598972373373,-0.16605737674872967,1.355290177180647],[-0.2379733623247221,-1.7203072270064217,2.2092170626400947]],"biases":[0.37730475363680993,-0.3979455681255461,1.4236042151223307]},{"inputNeurons":3,"outputNeurons":1,"weights":[[-0.8515681559461719],[0.4032767074792648],[-0.8235457240006101]],"biases":[1.6399546009379022]}],"scores":{"1":2520,"2":2320,"3":2320,"4":2320,"5":2320,"6":2320,"7":2320,"8":2320,"9":2320,"10":2320,"11":3720,"12":2320,"13":2320,"14":2320,"15":2500,"16":2320,"17":2320,"18":1280,"19":2320,"20":2320,"21":2520,"22":2720,"23":3120,"24":2320,"25":3250}},{"layers":[{"inputNeurons":0,"outputNeurons":10,"weights":[],"biases":[0.1564886372578172,0.2290619913447895,-0.3206317232459139,-0.46964674752233626,1.2881346743803692,0.31831297081516063,-0.43603555100125485,-1.84688668881612,0.8477586002769076,0.5154125940217237]},{"inputNeurons":10,"outputNeurons":3,"weights":[[0.5922925955351471,-0.08944844657466988,-0.6905178966505154],[0.20004776809006553,0.23642345700265127,-0.654176497203002],[0.018719266408846302,-0.4473414559224481,-0.33333135414983583],[-0.2069485112118824,0.5737981466943062,-0.461657646885594],[-1.1758452968558524,1.259511535452922,-0.23056723979899876],[0.5411541066511145,0.8704973483135793,-0.9198425291902597],[-0.2284616538239789,-0.16596096084799686,0.18219948202317537],[0.04025577386054375,0.9223993159984046,-0.31855458089343336],[-0.35428617186515293,-0.2882113866234901,1.1578244484740892],[0.37853558155177225,-1.373717808318179,2.1272067116855244]],"biases":[0.5983144431612886,-0.12450347163540343,1.7415316126374671]},{"inputNeurons":3,"outputNeurons":1,"weights":[[-0.45946840792206245],[0.21012179886769064],[-1.0615811292252997]],"biases":[0.7218190135142616]}],"scores":{"1":2320,"2":2320,"3":2520,"4":2210,"5":2620,"6":3720,"7":3120,"8":2320,"9":2320,"10":2320,"11":2320,"12":2320,"13":2520,"14":2320,"15":2320,"16":2320,"17":2320,"18":2320,"19":2320,"20":2520,"21":2320,"22":2320,"23":2320,"24":2320,"25":2320}},{"layers":[{"inputNeurons":0,"outputNeurons":10,"weights":[],"biases":[0.2647709559865332,-0.5396919446547429,-0.27062693574598645,0.2215513407758029,0.7836098439980529,-0.05967257790167249,-0.7928114494934516,-1.6401859035600774,0.9502688401742432,0.1605609430879275]},{"inputNeurons":10,"outputNeurons":3,"weights":[[-0.22012128152900468,0.557868918018558,-0.5099760195899374],[0.31803956170555786,0.5595623441935653,-0.3495923963022546],[-0.01874222303272366,-0.49423537393185707,-0.2161223974160822],[-0.3188109239739346,0.7351780806109574,-0.8134011617373165],[-1.0161501100083385,0.6503775221974941,-0.2115109643821892],[1.3702606444556795,0.1456885639750905,-2.025888475391365],[-0.3980779020719365,-0.030351350184922278,-0.40025034300011325],[-0.45212891450624804,0.778304269756101,-1.2592224396300555],[-0.32260889542838234,-0.15350958635296377,1.4115985188698235],[0.16527042759911267,-1.175531220213843,1.681934820497138]],"biases":[0.43171919715767665,-0.1546000619995188,1.352821719965068]},{"inputNeurons":3,"outputNeurons":1,"weights":[[-0.9400748837344464],[0.018973738892079928],[-0.9193274571884266]],"biases":[1.5445464939207931]}],"scores":{"1":2700,"2":2700,"3":2320,"4":2520,"5":2320,"6":2320,"7":2320,"8":2320,"9":2320,"10":2320,"11":2320,"12":2320,"13":2320,"14":2320,"15":2320,"16":2320,"17":2320,"18":2320,"19":2600,"20":2320,"21":2520,"22":2320,"23":2320,"24":3820,"25":2330}},{"layers":[{"inputNeurons":0,"outputNeurons":10,"weights":[],"biases":[0.5249234445292139,-0.14814622707413955,-0.38061794014133166,0.2806837265843245,1.0657574228283526,0.1042457846075136,-0.5080182640399413,-1.427597247364466,1.0469483941686157,0.15606199760195416]},{"inputNeurons":10,"outputNeurons":3,"weights":[[0.01604928345150272,0.15824176706049864,-1.20766048572668],[0.15343692401060433,0.7039647015025314,-0.5261218463417143],[-0.4601362189181071,-0.37836162360571496,-0.4476510381346587],[0.06737501020810346,0.7644693371578042,-0.6982293203710135],[-1.298675649700813,0.5952774212554173,-0.2656290388224275],[1.110560395519791,-0.12817524813683767,-1.9743815912794669],[-0.14748138193187668,-0.12904360354809197,-0.8797850443393691],[-0.30098585543706985,0.7640637935092224,-1.0699864469894744],[-0.24909867475599393,-0.553173892715132,1.063547678214427],[-0.20324302809805397,-0.9240585618521996,2.3074430640043566]],"biases":[0.08641283461402471,-0.2986710561736662,1.3471013356233859]},{"inputNeurons":3,"outputNeurons":1,"weights":[[-0.4566106370415802],[0.2564694172437709],[-0.7727428707309012]],"biases":[1.729890598310489]}],"scores":{"1":2320,"2":2890,"3":3030,"4":2320,"5":2320,"6":2320,"7":2560,"8":2720,"9":2320,"10":2210,"11":2320,"12":2800,"13":2320,"14":2590,"15":2500,"16":2320,"17":2320,"18":2320,"19":2320,"20":2320,"21":2320,"22":2320,"23":2320,"24":2600,"25":2210}},{"layers":[{"inputNeurons":0,"outputNeurons":10,"weights":[],"biases":[0.29645506114831355,-0.0023121211266899228,-0.6210994468397886,0.41721007099814544,0.9532677715477882,-0.3934052755736876,-0.7048081214336108,-1.2014515525188907,0.9404509765173089,0.27030730937893466]},{"inputNeurons":10,"outputNeurons":3,"weights":[[-0.4106190042782922,0.32191898820938264,-0.8593224929622036],[0.016500371141714654,0.5543239593568416,-0.6879973010714373],[-0.36172206728372946,-0.5197573953747094,-0.39730736965397995],[0.0018521458359214479,1.087887650002687,-0.6496585338526206],[-1.5685608583301334,-3.6310009326437354E-4,-0.3803446057087988],[1.053898078989759,0.1354412407017016,-1.9092041967445743],[0.04721609304208771,0.4233268976235249,-0.6081050068642555],[-0.1063837682471781,0.6546259281856047,-1.3492642630699891],[-0.10497088705152197,-0.2670102531316835,1.1294267191500487],[-0.39816545193934977,-1.5676926420420219,1.7479315133954474]],"biases":[0.27607604588684714,-0.04128915480863837,1.1527379101970983]},{"inputNeurons":3,"outputNeurons":1,"weights":[[-0.43231411010604703],[0.5178875594416911],[-0.5281523956866601]],"biases":[1.6039151457012173]}],"scores":{"1":2320,"2":2320,"3":2320,"4":2720,"5":2320,"6":2320,"7":2320,"8":2320,"9":2320,"10":2320,"11":1300,"12":2600,"13":4260,"14":2320,"15":2840,"16":2320,"17":2320,"18":2520,"19":2320,"20":2320,"21":2320,"22":2700,"23":2320,"24":2500,"25":2320}},{"layers":[{"inputNeurons":0,"outputNeurons":10,"weights":[],"biases":[0.14177153608235904,0.34538486165915916,-0.6604144301429931,-0.2676322733827957,1.3657407436518942,-0.0716297909194269,-0.8143328234843088,-1.8304009072654364,0.6916601961264529,0.47386012090871565]},{"inputNeurons":10,"outputNeurons":3,"weights":[[0.8030983176484774,-0.0892586978756776,-0.48001425453126056],[-0.13350003734297627,-0.01547322726634251,0.006434311324749475],[0.0443262146282726,-0.4347765613206533,-0.048376539427431475],[-0.016636276891529106,0.7757744005499296,-0.4859914556121061],[-0.5168838527862241,1.0198218703879003,-0.3263565659688396],[0.7881650590251085,0.7316379289262321,-0.47914963717862896],[-0.22151142041418434,-0.14716491665971454,0.14807186700089903],[-0.18932675835235227,0.4655558881973031,-0.7138178264037256],[-0.26918454487936755,-0.5333043067100719,1.015583651695349],[0.4943203570871919,-1.3429795841833856,2.0991788994513016]],"biases":[0.8135975045720002,0.20067493937485856,1.5162902953335993]},{"inputNeurons":3,"outputNeurons":1,"weights":[[-0.782913922305954],[-0.22608438033831815],[-1.0104404282886497]],"biases":[0.6970025349337807]}],"scores":{"1":2320,"2":2220,"3":2320,"4":2320,"5":2520,"6":2320,"7":3920,"8":2520,"9":2320,"10":2600,"11":2320,"12":2320,"13":2320,"14":2320,"15":2320,"16":2320,"17":2320,"18":2500,"19":2320,"20":2320,"21":2520,"22":3010,"23":1940,"24":2320,"25":2320}},{"layers":[{"inputNeurons":0,"outputNeurons":10,"weights":[],"biases":[0.5241391146016077,-0.02880597314736527,-0.39741515102527286,-0.41941690452935076,1.6952964549214116,0.24997334387508796,-0.38506786280671157,-1.2540717225367977,0.7044795037505507,0.4251127339304975]},{"inputNeurons":10,"outputNeurons":3,"weights":[[0.5982791234415643,0.06665981727148913,-0.6033945529806619],[0.03644634910314327,0.12328543940205912,-0.16043211180879025],[-0.22333311108681464,-0.040508719376715185,-0.3798347341436148],[-0.45609776499073107,0.987261224680117,-0.5629107785468382],[-1.0573869212962432,1.2562195779662102,-0.39003660341532986],[0.5585917685731755,0.7383805745090133,-0.3505078762927575],[-0.1253784233141361,-0.06559638716960377,-0.04968257993285734],[-0.05322376929368493,0.8873693883641519,-0.43814780098953565],[-0.265481078329874,-0.2942982001278526,0.915599280394671],[0.40919325723676436,-1.522390134926959,2.2627375666983096]],"biases":[0.4520411085781648,0.5725224581799417,1.5953914985738085]},{"inputNeurons":3,"outputNeurons":1,"weights":[[-0.38136085799187747],[0.09121103510441654],[-0.8394254548253486]],"biases":[0.562917759752668]}],"scores":{"1":2320,"2":2320,"3":2320,"4":2720,"5":2320,"6":2520,"7":2320,"8":2320,"9":2320,"10":2500,"11":2320,"12":2320,"13":2320,"14":2320,"15":2520,"16":2320,"17":2320,"18":2320,"19":3010,"20":2320,"21":2320,"22":2520,"23":3120,"24":2320,"25":2500}},{"layers":[{"inputNeurons":0,"outputNeurons":10,"weights":[],"biases":[0.6119859487340803,0.21016576323322028,-0.25767986861665243,-0.4154826401133209,1.3532427726517064,0.43809523422668445,-0.4524452600173789,-1.4258315013505878,1.0414156368847076,0.4292606838432208]},{"inputNeurons":10,"outputNeurons":3,"weights":[[0.6603282909656101,-0.07603589401407222,-0.2168515769342479],[-0.3527500499768421,0.1291826496967661,-0.5235436929645506],[-0.21179097223107446,-0.6404425248744581,-0.1582240098887789],[-0.20329729888886183,0.80388151316325,-0.2135500684400021],[-0.9720302416718325,0.7898469184016754,-0.424921792667305],[0.5486485133671707,0.5766688757368856,-0.7159213287401623],[-0.014116518130572742,-0.004066500147688584,0.014840013786762245],[0.1414905427746693,1.1630419148509947,-0.09476562091289908],[0.3866064774949,-0.40296919318980007,0.9906298193918962],[0.13747488429465937,-1.1385617711331752,2.1809154808239866]],"biases":[0.46060664536340973,0.17185134339464897,1.3366799846132833]},{"inputNeurons":3,"outputNeurons":1,"weights":[[-0.514217330772095],[-0.3385186647589335],[-1.015136171934521]],"biases":[0.6125127051533386]}],"scores":{"1":2520,"2":2320,"3":2520,"4":2520,"5":2320,"6":2320,"7":2920,"8":2320,"9":2320,"10":2320,"11":2520,"12":2520,"13":3520,"14":2320,"15":2320,"16":2610,"17":2320,"18":2320,"19":2320,"20":1300,"21":2520,"22":2700,"23":2320,"24":2520,"25":2320}},{"layers":[{"inputNeurons":0,"outputNeurons":10,"weights":[],"biases":[-0.03315650411516269,0.503473112054671,-0.10530768895265458,-0.2505681865534992,1.161828737339887,0.5432168396703069,-0.48440619327738704,-1.746307309715272,0.33966590522593776,0.5891966193027232]},{"inputNeurons":10,"outputNeurons":3,"weights":[[0.6082994254868271,-0.313289828379602,-0.5061572771048545],[0.3781590655926164,0.3486678172071296,-0.6103819576783065],[0.11247343016385455,-0.6175773108702309,-0.3911967539280292],[-0.34721382513833715,0.82600597592491,-0.39381708568163987],[-0.8509210412584373,0.36811097092145184,-0.2030538034248463],[1.1757813116023073,0.6071960057180469,-0.8107273854927501],[0.055582559730874656,0.1781127275033977,-0.8126633909266869],[-0.07215989958683788,0.41880388651020817,-0.708061176864021],[-0.3193021952404621,-0.18176851446868153,1.3257197282251538],[-0.16159335696160426,-1.3856329498519726,2.2264233162933564]],"biases":[1.2919830151902219,0.4419834746825302,1.339650822792233]},{"inputNeurons":3,"outputNeurons":1,"weights":[[-0.6768044775282922],[0.3046326824486298],[-0.8302322270112029]],"biases":[0.46971361778112236]}],"scores":{"1":2520,"2":1300,"3":2320,"4":2320,"5":2320,"6":2320,"7":2320,"8":2520,"9":2320,"10":2600,"11":2320,"12":2200,"13":2320,"14":2320,"15":2320,"16":2210,"17":5320,"18":2320,"19":2320,"20":2520,"21":2320,"22":2320,"23":2320,"24":2320,"25":2520}},{"layers":[{"inputNeurons":0,"outputNeurons":10,"weights":[],"biases":[-0.11864205407807685,0.37942876094236166,0.32101525253634783,0.4418312268901156,1.2998218381452584,-0.20576964133171927,-0.7033433414447743,-1.055372349218907,1.4531737292597082,-0.0011025005204330779]},{"inputNeurons":10,"outputNeurons":3,"weights":[[0.13313584053286714,0.15632157180865597,-0.7118795915619526],[-0.38031568069960553,0.40508309201064185,-0.640783124299728],[-0.19992942263206612,-0.09245126358930505,-0.5404535558348704],[0.3512094106126186,0.4325727815621421,-0.6034292853633001],[-0.5949583034967492,-0.397899348656032,0.28183720401020207],[1.7100536490367781,0.2765600955668646,-1.6209107704339218],[-0.7726952833146432,0.42502775572405305,-0.6932518389108187],[-0.33208436675385095,0.7117014723840573,-1.3578046295936665],[0.19787600630207386,-0.3228041097017795,1.0774117828513394],[0.02824765027793756,-0.9779638891009377,1.5308037659750175]],"biases":[0.6725109883589012,-0.12879486924206043,1.2089278416969145]},{"inputNeurons":3,"outputNeurons":1,"weights":[[-1.0130692862405335],[-0.24573241726268644],[-0.7627001972005826]],"biases":[1.4080485133895104]}],"scores":{"1":2320,"2":2520,"3":2320,"4":2320,"5":2320,"6":2520,"7":2320,"8":2360,"9":2520,"10":2320,"11":2500,"12":2520,"13":2320,"14":2320,"15":3920,"16":2320,"17":2500,"18":2320,"19":2320,"20":2320,"21":2320,"22":2320,"23":2320,"24":2320,"25":2320}},{"layers":[{"inputNeurons":0,"outputNeurons":10,"weights":[],"biases":[0.7902361032732482,0.326858326230271,0.19172854179483936,0.16219062519892744,1.301118888891183,0.637308744883766,-0.9888110974860047,-1.7875586872107259,0.34146163753904574,0.45064514184769555]},{"inputNeurons":10,"outputNeurons":3,"weights":[[0.419046135633274,-0.11309710790218908,-0.4967083977198812],[0.1474100505031496,0.48124984989053377,-0.4424215900758092],[-0.20938604876302933,-0.7975932602941882,-0.6868034518455428],[-0.008483637463903237,0.8683237405308851,-0.19732283342537776],[-0.5545745049444205,0.8739256888558536,-0.3321847232662586],[0.429981715766604,0.7244354890127355,-1.2032619761546393],[0.013940689012307925,0.47326366931634956,-0.3261177570315129],[-0.5239003516813729,0.16967818585114008,-0.7988606131622158],[0.13052883566787368,-0.11893482894671178,1.3698216821053255],[0.15581625056745996,-1.2651871393150493,2.0153546603426764]],"biases":[1.0222108420558302,0.06866197367486389,1.1317738296806863]},{"inputNeurons":3,"outputNeurons":1,"weights":[[-0.64522783805723],[0.2857621982327875],[-1.1890269198815935]],"biases":[0.8444070382309536]}],"scores":{"1":2520,"2":2920,"3":1940,"4":2320,"5":3920,"6":2320,"7":2320,"8":2320,"9":2210,"10":2320,"11":2520,"12":2320,"13":2320,"14":2190,"15":2290,"16":2320,"17":2320,"18":2320,"19":2320,"20":2320,"21":2320,"22":3120,"23":2320,"24":2320,"25":2320}},{"layers":[{"inputNeurons":0,"outputNeurons":10,"weights":[],"biases":[-0.0064078705665958635,0.6327149024669013,0.17776038095336838,-0.2407748689351344,0.9860223684330959,0.7660862263263069,-0.41886634025451475,-1.7848830254269852,0.2571610034683784,0.43721418018693853]},{"inputNeurons":10,"outputNeurons":3,"weights":[[0.4004445032966716,0.05103893224512271,-0.35897123354476923],[0.4107998773075179,0.7089483523468944,-0.5921464774501337],[0.010604331674164837,-0.7530799819976225,-0.6130480856642553],[-0.09041671703662413,1.1898241295905736,-0.41534953885478565],[-0.9100010277156105,0.7727729592026272,0.21076358510231247],[0.7019379497995872,0.7303231229333228,-0.8767992069672639],[-0.07697126462490456,0.14934683212335212,-0.3606431214905558],[0.11293812285081362,-0.1867902549240299,-0.6098067267708231],[-0.04216540115248758,-0.2914324996772624,1.7730144854640346],[-0.009059759821684513,-1.4447548977391966,1.9647950758657562]],"biases":[1.150571235336636,-0.07586391738507459,1.1424206173611056]},{"inputNeurons":3,"outputNeurons":1,"weights":[[-0.6658720642954731],[0.6439705740230683],[-1.2441127027454706]],"biases":[0.33313774841888266]}],"scores":{"1":2320,"2":2320,"3":2320,"4":2320,"5":2320,"6":1300,"7":2360,"8":4050,"9":2390,"10":2320,"11":2320,"12":2520,"13":2320,"14":2320,"15":2320,"16":2320,"17":2320,"18":2520,"19":3720,"20":2320,"21":2320,"22":2320,"23":2320,"24":2320,"25":2320}},{"layers":[{"inputNeurons":0,"outputNeurons":10,"weights":[],"biases":[0.4676663311488346,-0.09134146323763659,-0.2597166055102651,0.09893809120226657,1.0002421575809253,-0.166283155631809,-0.7661814230819338,-1.469238167546676,0.9397662330143626,0.22247071535031337]},{"inputNeurons":10,"outputNeurons":3,"weights":[[-0.13033586876211584,0.2970371822681148,-0.9652161556291261],[0.07698324784833861,0.42655490384602845,-0.4298126603061006],[-0.31052267168639336,-0.3696115693637697,-0.49270873580149827],[-0.00991355443339556,0.9990336296010295,-0.6147305091459411],[-1.267687753442765,0.24900604719135266,-0.19266902723093093],[1.3150028694065348,0.07683823909624825,-1.893689286288555],[-0.1745783877274135,0.007972513482603805,-0.6809862272497829],[-0.3984973193644261,0.6998536119746078,-1.207862681454547],[-0.22098731500949062,-0.2797898840007366,1.2542838298668901],[-0.048863750044251975,-1.4241222503207132,1.8709763336685894]],"biases":[0.46709299701008344,-0.37954499500036154,1.3422413806004887]},{"inputNeurons":3,"outputNeurons":1,"weights":[[-0.6344825087589048],[0.19240381897415199],[-0.797476717284559]],"biases":[1.5049761578729635]}],"scores":{"1":2320,"2":2320,"3":2320,"4":2360,"5":2320,"6":2520,"7":2720,"8":2520,"9":2320,"10":2320,"11":2500,"12":2320,"13":2400,"14":2360,"15":2320,"16":2920,"17":2920,"18":2320,"19":1300,"20":3120,"21":2320,"22":2320,"23":2320,"24":2320,"25":2790}},{"layers":[{"inputNeurons":0,"outputNeurons":10,"weights":[],"biases":[0.02920220865399601,0.12849431143207682,-0.04630211340715848,0.23778173279150158,1.3354301408020388,0.011273825444353208,-0.4114711698262156,-1.6717450837442467,0.7001651007067466,-0.24942246113417954]},{"inputNeurons":10,"outputNeurons":3,"weights":[[0.052025543679612256,0.13981822161841803,-0.5614879772244532],[0.27648049407276415,0.4129433272497587,-0.7904368893855449],[-0.33141627154457626,-0.7878352923192928,-0.4205101621503551],[0.2731574574745411,0.8587685902070575,-0.7609775760785371],[-1.267428698058572,-0.21415229480860537,0.3070105490800329],[1.142717302362913,0.6553734529974693,-1.1751670773806373],[-0.5643752245998572,0.13161928940837975,-0.5074632448763154],[-0.8621342325123303,0.9003464532944434,-1.099608918357916],[-0.26682369863403566,-0.2263233089313976,0.9143074717049555],[0.0656911984800451,-1.5313271909027804,1.6539225299843996]],"biases":[1.0197212899389456,0.11553068802722223,1.3839112726798726]},{"inputNeurons":3,"outputNeurons":1,"weights":[[-0.614091741552802],[-0.24486767902645123],[-1.145725421007834]],"biases":[1.0481320750055074]}],"scores":{"1":2320,"2":2320,"3":2920,"4":2320,"5":2320,"6":2320,"7":2320,"8":2320,"9":2610,"10":2320,"11":2320,"12":2520,"13":2290,"14":2320,"15":1300,"16":2320,"17":2320,"18":2320,"19":2320,"20":2320,"21":2520,"22":3120,"23":2320,"24":2320,"25":3810}},{"layers":[{"inputNeurons":0,"outputNeurons":10,"weights":[],"biases":[-0.19562407953723038,0.21301423492857502,0.0528416574862236,0.3659861409136187,1.3743722447022206,-0.22750294248699465,-0.7411286351835003,-1.2547167777361918,0.8319634693257124,0.05323827866115982]},{"inputNeurons":10,"outputNeurons":3,"weights":[[0.18544170929047477,-0.010279532101450384,-0.8261709521546262],[-0.3549086008156354,0.5863389066340743,-0.7622406962478709],[-0.35622454877894716,-0.33125153309051875,-0.5367390571868015],[0.44216970501977926,0.6585426871846352,-0.5726432349517322],[-0.9906419445971323,0.5729523300427669,0.12184245720760713],[1.42589193773843,-0.20833168414923758,-1.5271917886929345],[-0.5422614455078174,-0.06320303041370426,-0.5909746203487372],[-0.5803749858858261,0.5193916851353921,-1.1895447176859715],[-0.005075622692390064,-0.0882149021508592,1.0183274492341787],[0.47840217875477814,-0.7273493534586104,1.4929504181393254]],"biases":[0.15060734099875694,-0.11164061846762552,1.4668973121009636]},{"inputNeurons":3,"outputNeurons":1,"weights":[[-0.5062990939180558],[0.11687073622523193],[-0.8385075866851821]],"biases":[1.411254385153647]}],"scores":{"1":2320,"2":2320,"3":3120,"4":2320,"5":2320,"6":2320,"7":2220,"8":2320,"9":2320,"10":2600,"11":2320,"12":2320,"13":3390,"14":2600,"15":2320,"16":2320,"17":2320,"18":2520,"19":2320,"20":2320,"21":2320,"22":2320,"23":2320,"24":2320,"25":2320}},{"layers":[{"inputNeurons":0,"outputNeurons":10,"weights":[],"biases":[-0.18647057790601,0.7289562075517617,-0.36494448477860864,-0.7122491142195588,1.539582129294979,0.1517980097871843,-0.6177324198943337,-1.7805968712276754,0.9933670370153174,0.3271698768951587]},{"inputNeurons":10,"outputNeurons":3,"weights":[[0.6209580930643543,-0.3011976560331815,-0.3846707421749776],[-0.15798292203717126,0.2052131023677339,-0.5246212687904908],[-0.21414877083283954,-0.3101917439760243,0.0073648577472486265],[-0.2504276478592777,0.8296651314593607,-0.2625442857607223],[-1.1107157478478185,1.147761895525918,-0.09419749545195538],[0.6417959546018445,0.8218751331191683,-0.574454479225611],[-0.4187767605071746,-0.14496428879521875,-0.14671632366874965],[0.07326720786890868,0.7922813394662451,-0.45881039985444433],[0.18560310393243246,-0.6245047652895374,0.8231651035338434],[0.1667048119386723,-1.3989485912103259,2.4051978665428657]],"biases":[0.6783749257256251,0.2298493199748063,1.7148593403265686]},{"inputNeurons":3,"outputNeurons":1,"weights":[[-0.533601090535858],[-0.2199382479181793],[-0.9262674810936607]],"biases":[1.120434775861359]}],"scores":{"1":2520,"2":2320,"3":2320,"4":2320,"5":2320,"6":2500,"7":2720,"8":2320,"9":2320,"10":2450,"11":2320,"12":2320,"13":3920,"14":2720,"15":2320,"16":2320,"17":2320,"18":2320,"19":2520,"20":2490,"21":2320,"22":2320,"23":2320,"24":2520,"25":1300}},{"layers":[{"inputNeurons":0,"outputNeurons":10,"weights":[],"biases":[-0.17503567986412416,0.09961479343071798,0.17500754761823337,0.5166999560781076,1.5753167133850077,-0.35233024020925413,-0.8581955766272649,-1.568739745945798,0.47169606613267606,-0.05404039193935303]},{"inputNeurons":10,"outputNeurons":3,"weights":[[0.0925397862200466,0.2658885180027992,-1.0296754277902562],[-0.4040834920819913,0.9358376894156113,-0.7172597859438583],[-0.6139115379097542,-0.869585914835018,-0.32790600446814877],[0.6894482488337328,0.7718440903813933,-0.4716239951629952],[-1.1184194759985169,0.2149036958574699,0.2647055369830434],[1.5241777199410376,0.26996528645410256,-1.923906594957711],[-0.25609764225753623,0.25322546324090045,-0.773904366228117],[-0.008801521716232386,0.5312197781423542,-0.8561714845319837],[0.26886637721796564,-0.18599055170580142,0.9337017078446042],[0.2541871068828742,-0.6043421782916338,1.45505224538865]],"biases":[0.7920901530681939,-0.16000234108556174,1.1707911397733575]},{"inputNeurons":3,"outputNeurons":1,"weights":[[-0.7538263927575776],[0.13404227741198033],[-0.7416124686099125]],"biases":[1.527704423456762]}],"scores":{"1":2290,"2":2520,"3":2720,"4":2320,"5":2320,"6":2320,"7":2320,"8":2320,"9":2320,"10":2320,"11":2320,"12":2500,"13":2320,"14":2520,"15":2220,"16":2320,"17":2320,"18":2720,"19":2320,"20":2320,"21":2320,"22":2520,"23":2320,"24":2520,"25":3120}},{"layers":[{"inputNeurons":0,"outputNeurons":10,"weights":[],"biases":[0.015737812775935098,0.42252501297000405,0.2417562390881109,0.8321191909773591,1.0437423670122525,-0.2167996037350444,-0.8204143152857521,-1.5834093098981694,0.7811808266201646,-0.8482176323789008]},{"inputNeurons":10,"outputNeurons":3,"weights":[[0.028225783202919297,0.21460594415572787,-0.8059605753442726],[-0.570597398674572,0.8411862671990491,-0.6705001726742139],[-0.19862553126537585,-0.006742477981783679,-0.5567957918015657],[0.44875300456157785,0.9838836017266294,-0.4616713212430557],[-0.5367792338976227,-0.05923804685624279,0.4570750488020341],[1.804497613820699,-0.3653669891249624,-1.407213206306404],[-0.2853258604085863,-0.26775960924601805,-0.42107865025151875],[-0.05365607810762968,0.8526537714004815,-1.1144748339570123],[-0.2593580670938022,0.4471469361903602,0.7758901110786582],[0.009294318835320683,-0.9530110560031753,1.4166369843093995]],"biases":[0.5093443576815719,0.0024167878126915288,1.5205991649053103]},{"inputNeurons":3,"outputNeurons":1,"weights":[[-0.5190162319076682],[0.5284113242409343],[-0.9253015140485783]],"biases":[1.3962985477657321]}],"scores":{"1":2320,"2":2320,"3":2320,"4":2320,"5":2500,"6":2320,"7":2200,"8":2320,"9":2320,"10":2620,"11":2320,"12":2500,"13":2320,"14":2320,"15":2320,"16":2320,"17":2520,"18":2520,"19":2320,"20":2770,"21":2320,"22":3060,"23":2320,"24":2320,"25":2520}},{"layers":[{"inputNeurons":0,"outputNeurons":10,"weights":[],"biases":[0.1792496130188716,0.4352014658809832,-0.2245774906144785,-0.45185740799467533,1.455890342417403,0.23611601065423157,-0.8678350537369086,-1.64352455169977,0.9885436629772291,0.2042083331364327]},{"inputNeurons":10,"outputNeurons":3,"weights":[[0.6264743924332465,-0.12315045008570905,-0.2705529148505121],[-0.01772423178043111,0.1348091158207911,-0.07316914358677018],[-0.1082257054160039,-0.17656725021670475,-0.27774345875492756],[-0.0739776461597797,0.624962211626698,-0.2879477537765287],[-1.1497478172310451,0.8076723091681635,-0.3559368819462664],[0.36547905152315924,0.7352103546702857,-0.7116717309554227],[-0.14407813850395407,-0.35802362765203793,-0.12626044925603572],[0.257914796006666,0.6938179612194608,-0.5267231443328473],[-0.058582091357709976,-0.2076825445690363,0.9358360418006076],[0.10686090169430251,-1.4880792569637622,2.018142687988667]],"biases":[0.3124534655241488,0.3350626673622481,1.8878824124567282]},{"inputNeurons":3,"outputNeurons":1,"weights":[[-0.7139521164953223],[0.06849714442256344],[-1.0354552049250658]],"biases":[0.5877143973107162]}],"scores":{"1":2320,"2":2400,"3":2320,"4":2320,"5":2320,"6":2210,"7":2320,"8":2520,"9":2320,"10":2320,"11":2520,"12":2320,"13":2320,"14":2320,"15":2520,"16":1300,"17":3120,"18":2320,"19":2320,"20":3840,"21":2320,"22":2320,"23":3720,"24":1300,"25":2320}},{"layers":[{"inputNeurons":0,"outputNeurons":10,"weights":[],"biases":[-0.2338684249399787,0.2487331575690822,0.23910294032528634,0.9061756237170457,1.5207254874797418,-0.15143528992511449,-0.6492652853289719,-1.402086680018299,0.7197116980797202,-0.27294699763382446]},{"inputNeurons":10,"outputNeurons":3,"weights":[[0.2587476418069109,-0.0015960693843709017,-0.41252065244557967],[-0.2984874475519351,0.7015887123828357,-0.8605679176725367],[0.23114617287253986,-0.6881518980743597,-1.052184424500385],[0.31789818284628507,0.8646177789567543,-0.687902210595038],[-0.8921659453130475,0.12409100492631117,0.14381888592540992],[1.5989393345015805,0.2503661025215885,-1.4738324478344298],[-0.5856984459819414,-0.16883852192630955,-0.7645493570694755],[-0.33385895422048906,0.8237177445315566,-1.176925646671745],[0.21016729714110882,-0.0345109180084461,0.7636619218027666],[0.4519212206387028,-0.7067167950868645,1.4812173131040247]],"biases":[0.9100156870781801,-0.07177958852974056,1.4394277944352667]},{"inputNeurons":3,"outputNeurons":1,"weights":[[-0.6301953180722955],[0.07149438338491443],[-0.8827438190725482]],"biases":[1.6053527739368336]}],"scores":{"1":2320,"2":2320,"3":2320,"4":2320,"5":2320,"6":2140,"7":2320,"8":2320,"9":2320,"10":2320,"11":2320,"12":3650,"13":2320,"14":2410,"15":2320,"16":2320,"17":2320,"18":3120,"19":2320,"20":2400,"21":2320,"22":2320,"23":2320,"24":2320,"25":2320}},{"layers":[{"inputNeurons":0,"outputNeurons":10,"weights":[],"biases":[-0.11220358851594668,0.22198164740168788,0.13674822606025464,0.5898660662780515,1.2869033857124443,-0.23811196045973587,-0.532768946873115,-1.3910893806213969,0.7939859973986075,-0.034101474355694716]},{"inputNeurons":10,"outputNeurons":3,"weights":[[0.2176618267332582,0.19789415303624797,-0.694899034002697],[-0.4353668214648458,0.5303814760575558,-0.7041361594840054],[-0.27859181178108877,-0.3772801465235709,-0.7382426081206124],[0.40451107299360245,0.858924578096816,-0.5678506354518207],[-0.7976713392641537,-0.003822534570777192,0.2231302437198833],[1.5023252393709154,0.04119645389352859,-1.5541197451531357],[-0.4027060641866398,0.0807103240304187,-0.7050754249456284],[-0.3498552163871673,0.8731052635933925,-1.1018031475184786],[0.122654225382191,-0.08241620468089876,1.013076365424161],[0.10672850103194337,-0.965978635147269,1.7791594315533776]],"biases":[0.6619661727918114,-0.15542434663240137,1.2988242704615554]},{"inputNeurons":3,"outputNeurons":1,"weights":[[-0.6538811416373164],[0.1153287258812968],[-0.8331098008657845]],"biases":[1.3454135017536077]}],"scores":{"1":3040,"2":2320,"3":2320,"4":2520,"5":2320,"6":2320,"7":2320,"8":3120,"9":2320,"10":2320,"11":2320,"12":2320,"13":2320,"14":2320,"15":2320,"16":1300,"17":2320,"18":2320,"19":2320,"20":2320,"21":2320,"22":3720,"23":2320,"24":2320,"25":2320}},{"layers":[{"inputNeurons":0,"outputNeurons":10,"weights":[],"biases":[0.37760534745909446,0.21148025890505595,-0.3915840030136081,-0.19116860222362778,0.9054064918339789,-0.195316767375098,-0.937007015105196,-1.1783537318254012,1.0292406042708562,0.03276460869098327]},{"inputNeurons":10,"outputNeurons":3,"weights":[[-0.3830260495400466,0.34642911479483135,-1.2114931876275505],[0.08883356500023878,0.1434069965954357,-0.13417362354904605],[-0.07642788365765671,-0.2549694248390364,-0.47348935060186254],[0.18084139946458724,0.6761692921546298,-0.687066762132898],[-0.9233615957889885,0.26246431090952277,0.006375463336018683],[1.47074683209657,-0.17413465462881134,-1.9048129731895935],[-0.0682650784356526,-0.017384414621088813,-0.32280573708206983],[-0.2206161536271316,0.559557568395265,-1.3765784460435353],[-0.45301132645159004,-0.129404536795555,1.5902680563310438],[0.017173903541903,-1.302721285243207,1.6858955656486356]],"biases":[0.3608353666075212,-0.4259102578750882,1.2841484513445567]},{"inputNeurons":3,"outputNeurons":1,"weights":[[-0.5681834137875855],[0.13994332098933684],[-0.7312916559845198]],"biases":[1.4286083835737085]}],"scores":{"1":2210,"2":2520,"3":2320,"4":2320,"5":2520,"6":3920,"7":2320,"8":2320,"9":2320,"10":2320,"11":2520,"12":2320,"13":2210,"14":2520,"15":2520,"16":2210,"17":2520,"18":2320,"19":3070,"20":2320,"21":2320,"22":2210,"23":1300,"24":2320,"25":2320}},{"layers":[{"inputNeurons":0,"outputNeurons":10,"weights":[],"biases":[0.3928878600853072,-0.4911822829305068,-0.39936829713810773,0.4700520305031035,0.7210559057791677,-0.1261896007973713,-1.0988421267368023,-1.6268236483455298,1.0762132106913924,0.29197249562187666]},{"inputNeurons":10,"outputNeurons":3,"weights":[[-0.4431929690376672,0.11522626261012253,-0.964620462560291],[0.042478917551808826,0.1100471228452794,-0.7188702402584922],[-0.4606928974137907,-0.30088903024631564,-0.6129412060255411],[0.4104692967856891,0.9014937328930486,-0.3256480462896209],[-1.1514423937335372,0.6374552882772424,0.02852232912477895],[1.2726096911674285,0.3460798185179399,-2.2281702956269327],[-0.10272045502924902,0.1280736186689148,-0.9219534084562355],[-0.5402669659937731,0.9093198500925435,-1.2594600359536783],[-0.3444994597839729,-0.7142463493605449,1.2129766663148784],[0.09229616148917752,-1.1880112236259652,1.7925030890364209]],"biases":[0.5561277852287505,0.028495227537563006,1.47780738786961]},{"inputNeurons":3,"outputNeurons":1,"weights":[[-0.6986274922152281],[0.3987496529208509],[-0.7349510218142243]],"biases":[1.6758663370200562]}],"scores":{"1":2320,"2":2320,"3":2320,"4":2320,"5":2320,"6":2320,"7":2320,"8":2320,"9":2200,"10":2320,"11":2320,"12":3720,"13":2320,"14":2320,"15":2320,"16":2320,"17":2320,"18":2720,"19":2320,"20":2320,"21":2320,"22":2320,"23":2320,"24":2520,"25":2520}},{"layers":[{"inputNeurons":0,"outputNeurons":10,"weights":[],"biases":[0.5798348021036565,0.3442130709125731,0.11438684988508195,0.38883061600833674,1.2786135039506341,0.503297764955213,-0.6824867933669476,-1.5966994298718236,0.6868559712152668,0.23930053496106965]},{"inputNeurons":10,"outputNeurons":3,"weights":[[0.5943100454276491,-0.18052325181420026,-0.463965203836638],[0.35390179743761513,0.7686091850703873,-0.7665920696301939],[0.21440723138026785,-0.5883035096016735,-0.1860192736929258],[-0.4885904550645455,0.5957712708277628,-0.32185019384194835],[-0.4998069845128053,0.6802595671460356,0.11426308240145598],[0.924700748296579,0.8909476110493701,-1.1436725260826488],[-0.05696582838278242,0.3715177183091958,-0.7752902057283482],[-0.23929665563800975,0.14646537832540957,-0.9787340440089762],[0.078402088405288,-0.021734342164386494,1.7890155205543194],[0.050558596991418604,-1.3145578545848953,1.6499021017770177]],"biases":[1.4194391518895078,0.419264083613834,1.3606218567965178]},{"inputNeurons":3,"outputNeurons":1,"weights":[[-0.6535604149713563],[0.4126333209429506],[-1.3212562593195647]],"biases":[0.4001780193953579]}],"scores":{"1":5500,"2":2700,"3":2320,"4":2720,"5":2320,"6":2320,"7":1300,"8":1300,"9":2320,"10":2320,"11":2500,"12":2320,"13":2320,"14":1310,"15":2320,"16":2320,"17":2600,"18":2320,"19":2520,"20":2320,"21":2320,"22":2520,"23":2320,"24":2440,"25":2500}},{"layers":[{"inputNeurons":0,"outputNeurons":10,"weights":[],"biases":[-0.4707544102272343,0.3137608724666035,0.17796432457201475,0.5025055949268238,1.2401869248903594,-0.19067841290587317,-0.6341489151581271,-1.3921026436342991,0.6717064652434747,-0.5018112231383878]},{"inputNeurons":10,"outputNeurons":3,"weights":[[0.44519793324040213,0.0834407281254198,-0.9062554594852462],[-0.47280489157154626,0.6027663466557012,-0.6616084194937735],[-0.13821681901299077,-0.5694885756441664,-0.9628822218840887],[0.5406335542747275,1.0025284105105343,-0.669397415505615],[-0.6385459655932562,0.1580759208492737,-0.031170882413690787],[1.5193089574198577,0.2870637245845159,-1.4046378177316607],[-0.6496778103296386,0.15490125420222423,-0.95339597179008],[-0.3185809273337017,0.7212705757638536,-1.5065523272088537],[0.13197254595452715,-0.039616452074820736,0.5993215946179284],[0.054612502885837494,-0.9740955730938591,1.7816586035545798]],"biases":[0.5561411176721269,-0.2892654816526049,1.747022004049764]},{"inputNeurons":3,"outputNeurons":1,"weights":[[-0.7116454669462478],[-0.33157253732059633],[-0.9017513696901052]],"biases":[1.4131089934524785]}],"scores":{"1":2320,"2":2320,"3":3020,"4":2320,"5":2320,"6":2320,"7":2320,"8":3450,"9":2320,"10":2520,"11":2320,"12":2320,"13":2320,"14":2210,"15":2320,"16":2520,"17":1280,"18":2320,"19":2320,"20":2320,"21":2520,"22":2700,"23":2320,"24":2500,"25":2520}},{"layers":[{"inputNeurons":0,"outputNeurons":10,"weights":[],"biases":[0.6570645671988186,-0.049352467441682785,-0.2803287156430341,-0.2065782629075583,0.8814624344880533,-0.062049383360636326,-0.7355849271917733,-1.1371060607948795,0.8794066766542953,0.21941221645464107]},{"inputNeurons":10,"outputNeurons":3,"weights":[[-0.01715118556456388,0.3403842974904338,-1.0388648236748392],[0.10673548494182113,0.5690536079575356,-0.30417536253352107],[-0.13520740240595275,-0.8809764135614464,-0.7724584917156412],[-0.25994408793086177,1.119683192692256,-0.9694697636363214],[-1.069640036937797,0.19364336822939865,0.13378804346170248],[1.4958390853841232,-0.09787004093880251,-1.4814476920568636],[-0.283427308098918,-0.17875897475158514,-0.797255058086399],[-0.170724811439961,0.506437126976617,-1.390725789952272],[-0.09368640860694902,-0.2440305356717523,1.2165656007614782],[-0.10359725989078925,-1.6905715838483948,2.1108053423826787]],"biases":[0.856970605150259,0.1317941517901695,1.12322494618336]},{"inputNeurons":3,"outputNeurons":1,"weights":[[-0.4784758893911717],[0.16184019074542075],[-0.5335699186404597]],"biases":[1.739182471130572]}],"scores":{"1":2320,"2":2320,"3":2320,"4":2320,"5":2320,"6":2320,"7":2520,"8":2210,"9":2520,"10":2970,"11":2320,"12":2350,"13":2600,"14":2320,"15":2520,"16":2520,"17":2320,"18":2320,"19":2320,"20":2320,"21":2500,"22":2320,"23":2320,"24":2320,"25":2520}},{"layers":[{"inputNeurons":0,"outputNeurons":10,"weights":[],"biases":[0.48075288779858316,-0.1550110184007118,-0.2399436925348149,0.19702645821248202,1.0904058831868053,-0.2505144173635269,-1.1648232736125093,-1.548792153704778,1.0513877677024703,0.7423675903197761]},{"inputNeurons":10,"outputNeurons":3,"weights":[[-0.045917499661591865,0.44474247970458625,-1.104440021287151],[-0.03510297914310945,0.37532065297246353,-0.5085251499248081],[-0.09676876073242296,-0.33330291150100133,-0.7077092463482445],[-0.424923447060804,0.9342041905808952,-0.866670355937893],[-1.6741304575804639,0.33386269740541064,0.10940586605534797],[1.286977987046304,0.21553277050267106,-1.7713442847987062],[0.0034501104456148013,-0.22507610671027084,-0.6729002256719474],[-0.543381979716459,0.9378795013591399,-1.3873604429766888],[-0.0913080289364579,-0.2579226532836223,1.0767075011843341],[0.10053999789676607,-1.2790322992785128,1.8299838187997848]],"biases":[0.2306824154183208,-0.29098747398678915,1.6005654572974035]},{"inputNeurons":3,"outputNeurons":1,"weights":[[-0.48848325300572715],[0.3576849313760303],[-0.9708408478999555]],"biases":[1.4089145406279284]}],"scores":{"1":2320,"2":2320,"3":2320,"4":2320,"5":2320,"6":2320,"7":2320,"8":2320,"9":2320,"10":4320,"11":2380,"12":1300,"13":2320,"14":2320,"15":2320,"16":2520,"17":2720,"18":2320,"19":2500,"20":2320,"21":2320,"22":2520,"23":2320,"24":2320,"25":2320}},{"layers":[{"inputNeurons":0,"outputNeurons":10,"weights":[],"biases":[0.5011208650707222,0.742712717040001,-0.7103878867450091,-0.30304425872084356,1.772703043817729,0.15930931924864514,-0.6930880529337744,-1.5456268014223162,1.0163355240309195,0.10582526479031193]},{"inputNeurons":10,"outputNeurons":3,"weights":[[0.27969585970743277,-0.5335153130295152,-0.3896624207157434],[-0.005549763373099453,-0.009875853694055164,-0.592405810808642],[-0.23979096154825974,-0.39711505935303754,-0.2721011553295106],[0.2811511060716744,0.4235155478374293,-0.4018755352693626],[-0.8830809028254744,0.9277872664632626,-0.3874026153171244],[0.660803445571878,0.7126701723974563,-1.3016280883617615],[-0.18513779835314326,-0.11821664219119671,-0.08474823834783221],[-0.1594388893134456,0.9521454514963538,-0.48441851559984034],[-0.2982024722737412,-0.3750312365483965,1.1979436529035397],[0.06561101844980047,-1.2500852418575703,2.118803468756491]],"biases":[0.6268215708784922,0.6029977482672259,1.6347696406957586]},{"inputNeurons":3,"outputNeurons":1,"weights":[[-1.0790061735424041],[0.0861729252994967],[-0.8626701892323985]],"biases":[0.7651560303451203]}],"scores":{"1":2320,"2":2520,"3":2320,"4":2320,"5":2320,"6":4320,"7":2200,"8":2320,"9":2320,"10":2520,"11":2320,"12":2320,"13":2320,"14":2320,"15":2590,"16":2320,"17":1300,"18":2320,"19":2320,"20":2320,"21":2320,"22":2600,"23":2320,"24":2320,"25":2520}},{"layers":[{"inputNeurons":0,"outputNeurons":10,"weights":[],"biases":[0.7931804276318184,0.6835740797016423,0.37287046611118546,-0.32902545186354937,1.6789412529077974,0.6624833012755484,-0.31636726522248926,-1.5698272135054092,0.7598818785619414,0.16848430305918924]},{"inputNeurons":10,"outputNeurons":3,"weights":[[0.3103228410684651,0.017015625698755477,-0.13661018522049737],[0.035792370934221024,0.402559010612916,-0.9325994092817755],[0.053370884745821176,-0.7503069609239131,-0.49889697722868614],[-0.6582773957311938,0.6906334541674656,-0.5548743067298267],[-0.4188386364658596,0.6642380155361807,-0.2769554805334574],[1.3150990894990038,0.9435368991726962,-1.2353273868636716],[-0.16216486655058612,-0.14909947876775884,-0.24743960645318464],[-0.1706772401515559,0.03091898360229753,-0.7263943200787547],[0.09062895594564223,-0.46179606516412713,1.4115296191433815],[-0.2774964156667106,-1.7848366892703194,1.9214179205817616]],"biases":[0.868796271058135,-0.02743733198836107,1.1246981098462991]},{"inputNeurons":3,"outputNeurons":1,"weights":[[-0.8924065465757727],[0.5596653360783936],[-1.4454948168874369]],"biases":[0.5813794809162254]}],"scores":{"1":2320,"2":2320,"3":2520,"4":3120,"5":2320,"6":2320,"7":2320,"8":2320,"9":2320,"10":2320,"11":2320,"12":2320,"13":2320,"14":2320,"15":2600,"16":2320,"17":2320,"18":2320,"19":2320,"20":2320,"21":2520,"22":2600,"23":2320,"24":2320,"25":2520}},{"layers":[{"inputNeurons":0,"outputNeurons":10,"weights":[],"biases":[-0.46916373110160087,0.03020027667800121,0.1260048946596857,0.6726648262002961,1.0711201236693897,0.06934465280017249,-0.5368796643806357,-1.2319331721540725,1.00705639662741,0.11167522579546899]},{"inputNeurons":10,"outputNeurons":3,"weights":[[0.3685936332401606,0.5224135046602704,-0.6384272997271782],[-0.5768029214443624,1.2040669140656135,-0.6322061490534316],[-0.30857842809232866,-0.5756085588616786,-0.8565094019861678],[0.5218617044497789,1.0611338049207717,-0.3668250241920551],[-0.9074889111425871,0.18503807576363754,0.2768732500913216],[1.5182242823512022,0.23110960214402704,-1.8965164336304816],[-0.29577711384805644,-0.10828384782131664,-0.9221548977012064],[-0.32102399108725405,1.0266413424463534,-1.0093024801924224],[0.21840149555047605,-0.2086179631903312,1.498675671443023],[-0.03296312973790602,-1.149448603585819,1.6872930036960756]],"biases":[0.8071297186354185,-0.22545190310656144,1.0378282787336561]},{"inputNeurons":3,"outputNeurons":1,"weights":[[-0.8038569791807922],[0.14984168832328598],[-0.9900188749957951]],"biases":[1.2751667721969517]}],"scores":{"1":2210,"2":2650,"3":2320,"4":2600,"5":2320,"6":3120,"7":2320,"8":1300,"9":2460,"10":2600,"11":2320,"12":2320,"13":2320,"14":2320,"15":2520,"16":2320,"17":2320,"18":2500,"19":2520,"20":2720,"21":2320,"22":2320,"23":2520,"24":2320,"25":2320}},{"layers":[{"inputNeurons":0,"outputNeurons":10,"weights":[],"biases":[0.2201189107510744,0.30422494084172336,-0.25600619095002614,-0.32020502424325237,1.4732121716865567,0.31493638453312467,-0.4369798346520748,-1.570864878158529,0.9006952887032098,0.2980921880593371]},{"inputNeurons":10,"outputNeurons":3,"weights":[[0.49632947952289624,-0.06314044665044542,-0.3480075893919175],[-0.012060244915849514,0.12319903737699178,-0.35813667084159195],[-0.14371047817833515,-0.38849429147512826,-0.18395304626205858],[-0.10980520366085558,0.739343189815757,-0.4196066056077952],[-0.768022061093087,0.9120932090325228,-0.2932183332043481],[0.5709463362719834,0.7195150661789989,-0.739172141922463],[-0.21201374558793498,-0.09448176954193671,0.06685565338227653],[-0.014455777534812947,0.7187032028515571,-0.592095942443804],[-0.1830708234998259,-0.39505151360963475,0.899736448724704],[0.21209407994141471,-1.3000380343775737,2.063564615007351]],"biases":[0.6922298152152014,0.4390739932977411,1.594736415034295]},{"inputNeurons":3,"outputNeurons":1,"weights":[[-0.5311141038663598],[0.05748788694015291],[-1.0758218185485287]],"biases":[0.7146768750733502]}],"scores":{"1":2320,"2":2220,"3":2250,"4":2320,"5":2320,"6":2500,"7":2320,"8":2320,"9":2320,"10":2320,"11":2570,"12":2320,"13":2320,"14":2320,"15":2320,"16":2320,"17":2320,"18":3720,"19":1300,"20":2720,"21":2950,"22":2320,"23":2510,"24":2320,"25":2320}},{"layers":[{"inputNeurons":0,"outputNeurons":10,"weights":[],"biases":[0.7083786975397304,0.5493141257746683,-0.04021157278152776,0.16907436946670804,1.2089577803129867,0.9414062866102325,-0.260353889469617,-1.518883546014329,0.7094145484795837,0.35675419360850896]},{"inputNeurons":10,"outputNeurons":3,"weights":[[0.3892076413551355,-0.07619817317236116,-0.06786699676846814],[0.05886705681358531,0.5387850507734999,-0.7639209106176384],[0.1793295316942514,-0.8009488182816025,-0.010479279844690548],[-0.4132638215805673,0.5944962100262943,-0.2505415457454709],[-0.7361382614266239,0.5316679613598903,0.019227570919613732],[1.0062750098102398,0.8994567742426485,-1.2987459902314686],[-0.21114861591289483,0.5219761635580112,-0.7798562608818942],[-0.02165510647931279,-0.1979697049971022,-0.8031833070335253],[-0.1583373738026562,-0.4878354587351273,1.6656943250162086],[-0.18960521373008363,-1.3039555508511071,1.9997162974313132]],"biases":[1.2355671441577822,0.08677246354962317,1.583967250392462]},{"inputNeurons":3,"outputNeurons":1,"weights":[[-0.31642780387652747],[0.4443237116014201],[-1.2162085653205286]],"biases":[0.6148177567508413]}],"scores":{"1":2200,"2":2320,"3":2520,"4":2320,"5":2320,"6":2320,"7":1310,"8":2320,"9":2320,"10":2320,"11":2320,"12":2520,"13":2520,"14":2520,"15":2320,"16":2320,"17":2520,"18":2320,"19":2320,"20":2520,"21":2210,"22":2720,"23":2320,"24":2320,"25":3720}},{"layers":[{"inputNeurons":0,"outputNeurons":10,"weights":[],"biases":[0.2803802795011544,-0.02262841728930172,-0.26089462268849056,0.05608894466984804,1.0838941357725445,-2.035965294218678E-4,-0.4380659188076463,-1.7160874495704794,0.7238660589155053,-0.14747096096825407]},{"inputNeurons":10,"outputNeurons":3,"weights":[[-0.026652810366940366,0.2133256217729358,-1.1645846254045762],[0.1131655195747922,0.09694238679556355,-0.6123212675810512],[-0.5162896461435842,-0.29564110374761343,-0.605254279795655],[0.14901990751782715,1.3725790406063239,-0.8177939153586746],[-1.433867655243381,0.15204779572207178,-0.6601152337208012],[1.4362705880885032,-0.08431222995329431,-2.0566484786811667],[-0.07148193060286202,-0.1403398831128668,-0.9531736338256909],[-0.12429142312357755,0.6637158955511009,-1.3064198888593024],[-0.25597110587710503,-0.16953326652673495,1.1279373922432845],[0.005061166091585634,-1.02535043021343,1.859112505264274]],"biases":[0.30177585076301905,-0.3290666829034249,1.163444932042566]},{"inputNeurons":3,"outputNeurons":1,"weights":[[-0.38419830933946725],[0.14162353392966417],[-1.135994812720234]],"biases":[1.5700278314183176]}],"scores":{"1":2320,"2":2320,"3":2520,"4":2320,"5":2320,"6":2320,"7":2320,"8":2320,"9":2320,"10":2520,"11":2920,"12":3700,"13":2320,"14":2520,"15":2320,"16":2320,"17":2500,"18":2320,"19":2320,"20":1310,"21":2320,"22":2320,"23":2320,"24":2320,"25":2320}},{"layers":[{"inputNeurons":0,"outputNeurons":10,"weights":[],"biases":[-0.26836002839480133,-0.030466335204612532,0.24076197561343224,0.556973915515444,1.644522203787942,-0.5475679850026997,-0.3135201727787793,-1.126686357573062,0.531109802509204,0.5613933020078274]},{"inputNeurons":10,"outputNeurons":3,"weights":[[0.2539930257944659,0.07328195666120929,-1.036429744177499],[-0.2749469732763382,0.6968797868657958,-0.6565967988040273],[-0.16914815407644412,-0.6919547587955308,-0.5902811343560471],[0.6737663457104475,0.8524336081735998,-0.5897359065244356],[-0.8174997569312031,-0.20158853842928529,-0.06589220971919982],[1.4271788068035482,0.27619114467981754,-1.6559171982567464],[-0.6188752213562706,3.230854181034415E-4,-0.9973713062528313],[-0.4879273577085312,1.1812368922555598,-1.0774997219416205],[0.19514246019960435,0.1079521557442338,0.8221669324460371],[0.22551041881137446,-0.8663322978756227,1.9526957041698676]],"biases":[0.7815052106258141,-0.1965529294043035,1.0779661951603052]},{"inputNeurons":3,"outputNeurons":1,"weights":[[-0.6198046740419895],[0.1975575764006317],[-0.4693856127395293]],"biases":[1.8265459891258573]}],"scores":{"1":2320,"2":2320,"3":2320,"4":2320,"5":2320,"6":2320,"7":2320,"8":2520,"9":2320,"10":2320,"11":2320,"12":2320,"13":2320,"14":2320,"15":2320,"16":2320,"17":2220,"18":2320,"19":2370,"20":2510,"21":3650,"22":2520,"23":2320,"24":2190,"25":2320}},{"layers":[{"inputNeurons":0,"outputNeurons":10,"weights":[],"biases":[0.4553655609371009,0.2541524162388726,-0.23007131952663357,-0.21534865369022826,1.5017662764958593,0.3656044627228135,-0.1771361620418324,-1.5255626028770595,1.049446577906455,0.38347445855050677]},{"inputNeurons":10,"outputNeurons":3,"weights":[[0.8299088432871692,-0.10549782996446361,-0.45990271518295195],[0.035779459020780724,0.06817726297871829,-0.19474558269640685],[-0.10684968803872796,-0.31516237188533813,0.07161456369880262],[-0.17468805703815538,0.9543360031505784,-0.2367556822602458],[-0.8667060855713808,0.7147783051131928,-0.12488890868780539],[0.7771744342150388,0.7579936740901493,-0.6968256204190787],[-0.23013616962451836,-0.27470274678807516,-0.2569423691471565],[0.1574020258372892,0.8301528144145942,-0.9905000667759878],[0.0459406162021774,-0.6003051053466418,1.0655683986486482],[0.3116386672948414,-1.550952586288963,2.7377765745425906]],"biases":[0.8258474861646282,0.3949700403812198,1.3158636808284967]},{"inputNeurons":3,"outputNeurons":1,"weights":[[-0.5474329175344896],[0.23417523172996382],[-0.8901969927214377]],"biases":[0.8263900720281716]}],"scores":{"1":1300,"2":2320,"3":2320,"4":2320,"5":2340,"6":2320,"7":2690,"8":2320,"9":2520,"10":2320,"11":2320,"12":2320,"13":4050,"14":2320,"15":2520,"16":1300,"17":2320,"18":2320,"19":2520,"20":2320,"21":2520,"22":2320,"23":2320,"24":2320,"25":3120}},{"layers":[{"inputNeurons":0,"outputNeurons":10,"weights":[],"biases":[0.26804874021269054,0.513159459485377,-0.03181671040906514,-0.24674483847829914,1.4945084125449926,0.3551613176639324,-0.3588709098167157,-1.330381604289426,1.1654657519370084,0.06598279116800382]},{"inputNeurons":10,"outputNeurons":3,"weights":[[0.5618408934255323,0.06270116456415885,-0.3006040207387732],[-0.09040537335382412,0.173189767431981,-0.23080984724805836],[-0.3140071255724092,-0.28767521367411686,-0.08631157819080207],[-0.09467142794187765,0.9413702106403226,-0.413921146098797],[-1.0025101212105045,0.7362529913291285,0.2820646850632138],[0.8532630253679968,0.5395333521716347,-0.6942608116006348],[-0.43523339420255364,-0.4303037114892723,0.22038432119328671],[0.11979874858605466,0.43333961475655447,-0.7739604241285316],[-0.1200833203118656,-0.5074296080589055,0.9701762924324027],[0.11531841582806378,-1.2145990687946235,2.080889760222892]],"biases":[0.9813932677872098,0.6132037530202159,1.6855811864244743]},{"inputNeurons":3,"outputNeurons":1,"weights":[[-0.4211319873088009],[-0.2777264639296978],[-1.099163888716086]],"biases":[0.7313265089560336]}],"scores":{"1":2320,"2":2500,"3":2500,"4":2520,"5":2320,"6":2320,"7":2320,"8":2320,"9":2520,"10":1300,"11":2320,"12":2340,"13":2320,"14":2920,"15":2320,"16":2520,"17":2320,"18":3120,"19":2320,"20":2320,"21":2320,"22":2140,"23":2320,"24":2720,"25":2320}},{"layers":[{"inputNeurons":0,"outputNeurons":10,"weights":[],"biases":[0.063866596302128,0.6442469031182639,-0.17302607544993362,0.5577332406394574,1.343246033137578,-0.5528416264639814,-0.6530553496726549,-1.5943328519427782,0.8510721828955691,-0.09847492173408974]},{"inputNeurons":10,"outputNeurons":3,"weights":[[0.5968302561495841,0.03597870486514662,-0.8127551087887597],[-0.8038809481288871,0.3482841031458618,-0.4794850273505423],[0.0033676113590062617,-0.22111637426432829,-0.6948296049042652],[0.015131244993270065,1.1108319585005757,-0.45495965776504504],[-0.6838601245054763,-0.30888582640520096,0.20297607290310357],[1.6107918108480268,-0.051462886981945136,-1.260933452545481],[-0.03199624126657774,0.24757829520748956,-0.8317255981697946],[0.0019508336811535631,1.1272791088300342,-1.2360654066915153],[-0.1221967933771339,-0.1021047570302866,0.9910376897448689],[0.21311891909530906,-0.829418463127235,2.064392783307722]],"biases":[0.6840187905049656,-0.4673668088439408,1.4630287577155954]},{"inputNeurons":3,"outputNeurons":1,"weights":[[-0.5482864355059567],[0.05058987662156264],[-1.0146977535945403]],"biases":[1.3195011798820235]}],"scores":{"1":3120,"2":2320,"3":2320,"4":2320,"5":1300,"6":2320,"7":2520,"8":2320,"9":2320,"10":2320,"11":2320,"12":2320,"13":2500,"14":2320,"15":2520,"16":2320,"17":2520,"18":2910,"19":2320,"20":2320,"21":2320,"22":2320,"23":2320,"24":2320,"25":2720}},{"layers":[{"inputNeurons":0,"outputNeurons":10,"weights":[],"biases":[0.17429573263622922,0.03402428746023911,-0.19248921802599114,-0.3610528261138575,1.303419672837642,0.5159840189515505,-0.5066423500667485,-1.5808616402581626,0.8078299770920605,0.1340615035064507]},{"inputNeurons":10,"outputNeurons":3,"weights":[[0.44214433276700266,