{"networks":[{"layers":[{"inputNeurons":0,"outputNeurons":10,"weights":[],"biases":[0.690461331980893,0.7837567792804145,-0.7898615055520897,0.4290342057058055,0.1511785824854987,0.41926480154385704,0.06059966689230853,-0.08786096114466083,0.030210675869364573,-0.1869907440488715]},{"inputNeurons":10,"outputNeurons":3,"weights":[[-0.8214998291365337,-0.3163911266537075,-1.283595149260065],[-0.014334342609461315,-1.1263007368897344,-0.6951825276487499],[0.18886941577863117,-0.647749101278434,0.19805862136228586],[0.4190108552277984,0.8201930909779154,-0.9208488777553552],[-0.051131595875557156,-1.0346514193740894,0.47852579663903205],[1.0845256263493306,0.06158480452064968,-1.223505852804502],[0.05408083655231938,0.6432229136926845,0.11588055204870834],[-0.22925211361167347,0.35278794033753336,0.2704545852149431],[0.39465065003713895,0.03758072528742964,0.36271234907632827],[0.3236289497438551,0.3904574833071106,1.6085353329434045]],"biases":[-0.49192543841025915,-0.39068301612943157,1.0698368966496044]},{"inputNeurons":3,"outputNeurons":1,"weights":[[-0.0762114438581458],[-0.3598881272437322],[-0.38997436473335495]],"biases":[0.2223222724355575]}],"scores":{"1":2320,"2":5430,"3":2320,"4":2500,"5":2320,"6":5320,"7":2500,"8":2500,"9":2320,"10":2320,"11":2320,"12":2320,"13":3020,"14":2520,"15":2320,"16":2320,"17":2210,"18":2320,"19":2320,"20":3520,"21":2520,"22":2320,"23":2320,"24":2320,"25":2520}},{"layers":[{"inputNeurons":0,"outputNeurons":10,"weights":[],"biases":[-0.2453600459518673,0.49507564974315876,0.15072273935710184,0.11053340462576697,0.4115043746528779,0.5265223233272303,0.02799716639630956,-1.0833813943188944,0.9747655400982232,0.27586222388290815]},{"inputNeurons":10,"outputNeurons":3,"weights":[[-0.2462032672692273,-0.3339290638800131,-0.4568694363528229],[0.5378954212215885,-0.12728921471754961,-0.3026519175315997],[0.2692601650919906,-0.6293041847043085,-0.5598744958684977],[0.8730211758138293,0.9128563487808434,-0.9311932172389435],[-0.4987874562504775,-0.06568873951677309,-0.029676788156567806],[1.4173980348200113,-0.5180831447963138,-0.7377279138649393],[0.3642734921077212,0.08447484528961036,-0.07909334047770883],[-0.45715860584744045,0.5674566565888501,-0.03972248341667628],[-0.7483053376210905,-0.05720641918941776,0.2984341573310488],[0.5955712000370736,0.23995348563390007,1.5834972858015701]],"biases":[0.2570382941688222,0.30046540710626046,1.334472934570419]},{"inputNeurons":3,"outputNeurons":1,"weights":[[0.19027945236225924],[-0.5564774096693446],[-0.6120333318518127]],"biases":[0.44648436730906005]}],"scores":{"1":2320,"2":2320,"3":2520,"4":2320,"5":2520,"6":5320,"7":2320,"8":3060,"9":2320,"10":2320,"11":3920,"12":2920,"13":2500,"14":2320,"15":2320,"16":2320,"17":2320,"18":2320,"19":2640,"20":2520,"21":2520,"22":2670,"23":2520,"24":2320,"25":2320}},{"layers":[{"inputNeurons":0,"outputNeurons":10,"weights":[],"biases":[0.5730124816482882,0.753900143797116,-0.7024625086979724,0.2657401125139197,0.2271780552780585,0.03292865085321556,-0.36198555972447455,0.12874289747551254,0.28093903269874576,0.12897606737701045]},{"inputNeurons":10,"outputNeurons":3,"weights":[[-0.7115231889919488,-0.3271688740436013,-1.1682490028656716],[-0.12836855295413555,-0.885047587977481,-0.3949751355471402],[0.23581282713932522,-0.42329396967138166,0.7772672235556477],[0.3425615118330611,0.9822582717651234,-0.9282857399657151],[0.15069381288230704,-0.8194581765543644,0.4327216574227104],[1.281623142288434,0.04436443733922869,-1.202085490251324],[0.407929679948584,0.9137811315748063,0.4154186349418664],[-0.1495536745358264,0.3056864498631923,0.20632476203073014],[-0.14825674282640564,-0.113998807875991,0.38434218571380796],[0.4851153796354898,0.26526316584978893,0.7344378787341724]],"biases":[-0.3223730804090721,-0.49387900383155203,1.1698734460490885]},{"inputNeurons":3,"outputNeurons":1,"weights":[[0.2623890221142168],[-0.2968128256068583],[-0.5095151549557358]],"biases":[0.4399038047239201]}],"scores":{"1":2320,"2":2320,"3":2610,"4":2750,"5":2920,"6":2320,"7":2520,"8":2320,"9":2700,"10":2320,"11":2320,"12":2320,"13":2320,"14":2920,"15":2320,"16":2320,"17":2720,"18":2520,"19":3250,"20":2320,"21":2320,"22":2320,"23":2320,"24":2320,"25":5420}},{"layers":[{"inputNeurons":0,"outputNeurons":10,"weights":[],"biases":[7.756547256720925E-5,0.7900957667081024,-0.27759096863421107,0.050821299891814053,-0.02703058902999212,-0.039576843953736035,0.12346483025391902,-0.34174590613101385,-0.2726608812900214,-0.0044721386681170205]},{"inputNeurons":10,"outputNeurons":3,"weights":[[-0.8303287270259233,-0.3548188124256661,-1.2585885901086056],[-0.04452867905421448,-1.0330837208549224,-0.37523061172943256],[0.13491493502508708,-0.6966258663174474,0.3890638367053105],[0.10168639569970961,1.1087047703465591,-0.9650237234968136],[0.03000995781183216,-1.1112194999858005,0.7716195468880085],[0.9937659632725786,0.25316984087145483,-1.2248729071491506],[0.4539806225655209,0.9061729225976395,0.4616431404412381],[-0.00102386281303124,0.5933254518034705,0.275006859801893],[0.34866927907324363,0.0010322325376607225,0.4154942069966394],[0.34228008722725384,-0.1456482061152334,1.241828531821639]],"biases":[-0.6145432964956004,-0.2776533682276723,1.56510797855077]},{"inputNeurons":3,"outputNeurons":1,"weights":[[-0.09662730817688425],[-0.7792249556660232],[-0.2759970995579024]],"biases":[0.1761688028463532]}],"scores":{"1":1940,"2":2520,"3":2320,"4":2320,"5":2320,"6":3120,"7":2520,"8":2320,"9":2320,"10":2920,"11":2320,"12":2320,"13":2700,"14":2320,"15":2720,"16":3650,"17":2720,"18":2520,"19":2920,"20":2400,"21":2320,"22":2320,"23":3250,"24":2320,"25":3410}},{"layers":[{"inputNeurons":0,"outputNeurons":10,"weights":[],"biases":[0.0837731750458381,0.31510742364621147,0.21020260717195377,-0.015495825242614066,0.42420372470119067,0.5135929926892978,0.30652921697315816,-1.062419698092173,0.6311658319095995,0.430154231854742]},{"inputNeurons":10,"outputNeurons":3,"weights":[[-0.17927500506602606,-0.30828722588205604,-0.5692241001273439],[0.7188713283092505,-0.3700991333800861,-0.15817060301612423],[0.17148474889480286,-0.41005047369694414,-0.6565955654054818],[0.7518082372519586,1.1500220755997401,-0.6931159597221701],[-0.5355980963416704,-0.313488952060124,-0.009091495679462921],[1.0534822811998614,-0.09728532497528983,-0.8213037606564116],[0.36161866824936356,0.7863887429790501,0.3187115779491874],[-0.5554272002834711,0.8675116137304169,0.49007534783356743],[-0.66059421769253,0.08022479141693069,-0.05738556708233916],[0.2623939163991253,0.2321066127466881,1.7015819258481564]],"biases":[-0.12886304779025048,0.30067822216017687,1.4951557301585652]},{"inputNeurons":3,"outputNeurons":1,"weights":[[0.22020064813832146],[-0.8348097092388762],[-0.2746870344293279]],"biases":[0.6998915932177235]}],"scores":{"1":2320,"2":2520,"3":3050,"4":2320,"5":2320,"6":1300,"7":2700,"8":2920,"9":3250,"10":1310,"11":2320,"12":2320,"13":2210,"14":2320,"15":3400,"16":3120,"17":2320,"18":2320,"19":2720,"20":2320,"21":2320,"22":2520,"23":2320,"24":5820,"25":2320}},{"layers":[{"inputNeurons":0,"outputNeurons":10,"weights":[],"biases":[0.37793720688042787,0.9774943656854876,-0.3596408522418183,0.09551190442934582,0.05314580058617818,0.5501431021675015,0.12876277248803153,-0.20850112866133497,-0.33964472510783356,-0.01641899988921531]},{"inputNeurons":10,"outputNeurons":3,"weights":[[-0.21089689957410118,-0.4307708623783059,-0.8293546992164634],[-0.13643902811424696,-1.4372105440003171,-1.0295022782154002],[-0.37751423539474976,-0.08582984629833329,0.5415265863084513],[0.26401886555723253,1.1420206393402428,-1.0836236469412588],[-0.7345649028573012,-0.35128139377158385,0.3690452252775389],[0.6808889558029888,-0.3819918801738642,-0.780677038874303],[0.7530625941390594,1.1490407932784414,0.4859589574176789],[0.3907236276667577,0.39723454662857344,0.9228712962220681],[0.17829217728390084,0.12764031038150137,-0.027431642716978122],[0.7579836648690371,-0.08544026935201791,1.1908626104825006]],"biases":[-0.2020169513742482,-0.07151954405853603,0.7937536218019162]},{"inputNeurons":3,"outputNeurons":1,"weights":[[-0.44996084516478063],[-0.5813708828342025],[-0.5774514375830768]],"biases":[-0.0635283164006547]}],"scores":{"1":2320,"2":2720,"3":2800,"4":2320,"5":2210,"6":2320,"7":2320,"8":2320,"9":2520,"10":2320,"11":2320,"12":4240,"13":2320,"14":2320,"15":2320,"16":2320,"17":2320,"18":2320,"19":2320,"20":2520,"21":2320,"22":2520,"23":2320,"24":5520,"25":2320}},{"layers":[{"inputNeurons":0,"outputNeurons":10,"weights":[],"biases":[0.24770015752680108,0.2457845410665942,0.5746918895521083,0.10465745586491185,0.3793799187084951,0.21245955397995475,-0.10876857798102295,-0.9362232301466211,1.074814692047151,0.4133794781927848]},{"inputNeurons":10,"outputNeurons":3,"weights":[[-0.6784142099010492,0.05933894152114306,-0.6024926212975841],[-0.19393198164514103,-0.24383181773860368,0.5530435851848459],[-0.556156457750436,0.08180138922093066,-0.3828701130371031],[-0.24582419244269652,1.1252739423581168,-0.5552978183983669],[0.158268163820121,-0.2716597541555808,-0.21449614445152207],[1.0102498503064425,-0.4510888749437393,-1.083452088901069],[0.4206256565793244,0.7921586161559144,0.1070129252044644],[-0.12354571995854041,0.914862679635372,-0.3800594201033751],[0.059097995161753514,-0.3583100568665071,0.535571164046037],[0.545554811956227,0.5258562348458329,1.7136708272472723]],"biases":[-0.06067161167105542,-0.20538285264596007,1.0391491784144005]},{"inputNeurons":3,"outputNeurons":1,"weights":[[-0.5534165318155272],[-0.7390858714459554],[-0.659428081953753]],"biases":[0.7183457458614843]}],"scores":{"1":2320,"2":2520,"3":2320,"4":2320,"5":2320,"6":4320,"7":2320,"8":3650,"9":2320,"10":2320,"11":2500,"12":5320,"13":2320,"14":2210,"15":2320,"16":1300,"17":2320,"18":2320,"19":2320,"20":2200,"21":2320,"22":2320,"23":2320,"24":2320,"25":3050}},{"layers":[{"inputNeurons":0,"outputNeurons":10,"weights":[],"biases":[0.1574912813079271,0.619200111162239,0.05695909401179816,0.20693452230996326,0.27078159159659276,0.05303643448744966,0.05066333584775454,-0.5426301857162485,0.9724964768642124,0.27349820114537904]},{"inputNeurons":10,"outputNeurons":3,"weights":[[-0.08420283233986267,-0.0857185205787248,-0.7871488752897654],[-0.2094163601105074,-0.3905807696220208,0.18765782454118513],[-0.3162967289275778,-0.10481826639528442,-0.27571311974395873],[0.01413878451787326,0.8407495667028932,-0.5373401042341448],[0.06853823975257681,-0.36380340826975704,0.05151568747788993],[0.9539270097814073,-0.2560829050181538,-0.541642771964676],[-0.03855013707947451,0.811403427793013,-0.03622050456568864],[-0.06795779064179272,0.848605995404058,-0.34149298679951823],[-0.1197578492365981,-0.24499601802963572,0.5350274509422426],[0.4138780924070854,0.06298668332873847,1.7442987918924366]],"biases":[-0.42469596415066624,0.22152415479865448,0.8638835858840872]},{"inputNeurons":3,"outputNeurons":1,"weights":[[-0.3502924536016159],[-0.45121355472040425],[-0.4538775218133185]],"biases":[0.36058162613266864]}],"scores":{"1":2320,"2":2320,"3":2320,"4":2320,"5":2320,"6":2520,"7":2320,"8":3720,"9":2320,"10":2520,"11":2320,"12":2320,"13":2320,"14":2320,"15":2320,"16":2320,"17":2320,"18":5450,"19":2520,"20":2920,"21":2320,"22":2520,"23":2320,"24":2320,"25":2320}},{"layers":[{"inputNeurons":0,"outputNeurons":10,"weights":[],"biases":[0.2609067099023246,1.222174039801879,-0.17519496235026194,0.5671460342233978,0.21747252846013349,0.26478729128561285,-0.12706296006800588,-0.2510689415827018,-0.7665157121060227,0.4074829547306581]},{"inputNeurons":10,"outputNeurons":3,"weights":[[-0.351915794912323,-0.5802286274367001,-0.8526339990697002],[-0.013740151526221767,-0.7417391027718673,-0.8546494927799686],[0.32363453349734195,-0.10426692876657351,0.5338450952588379],[0.4357970232836732,1.4508990595144151,-1.2914472405305435],[-0.43507845912170107,-0.8291130096667448,0.2977471869177929],[0.5836055685013777,-0.11472169029341889,-0.6364282154316534],[0.6085011281250571,1.2041266696122694,0.5806864580732383],[0.04255989898506486,0.5299155160594746,0.5494495807012006],[-0.016023042692849675,0.2790791131534661,-0.15180795786673756],[0.5142885365805463,0.0034158549501591,1.2867873993968222]],"biases":[-0.5522247788503994,0.32510857909229157,0.7854337306335856]},{"inputNeurons":3,"outputNeurons":1,"weights":[[-0.006389194287495542],[-0.5379976441910728],[-0.7588437840236328]],"biases":[0.28689354575280995]}],"scores":{"1":3120,"2":2320,"3":2320,"4":2370,"5":2320,"6":2520,"7":5320,"8":3820,"9":1300,"10":2320,"11":2320,"12":2720,"13":2320,"14":2320,"15":2320,"16":2320,"17":2520,"18":2320,"19":2520,"20":2320,"21":2320,"22":2800,"23":2320,"24":2320,"25":2320}},{"layers":[{"inputNeurons":0,"outputNeurons":10,"weights":[],"biases":[0.40058775720812245,0.4817493819064391,0.6948649045635434,-0.08758848014074735,0.682430790961103,0.1362158351859376,0.22066700613381007,-1.0782148591945977,0.6264386782638838,0.5907375803063064]},{"inputNeurons":10,"outputNeurons":3,"weights":[[-0.4586614632611949,-0.1035543267477049,-0.07321665948213135],[0.19423811647981154,-0.37192227793617033,-0.3038041519185256],[0.4003995257485956,-0.13551754475929378,-0.3989702264125434],[0.2451971822959586,0.9926055821277506,-0.5460446511061474],[-0.09693207828477156,-0.3767978626815347,0.3017378621006815],[1.1663711632914497,-0.056913467014290293,-0.5148068380317119],[0.7113751958491309,0.32577618298091715,0.11284230255161687],[-0.06033798118567402,0.7070445978549272,0.2494066168743859],[-0.5267939855174325,0.1126649223732706,0.1058049796586584],[0.5193937033525706,0.5614927620976083,1.8690517008664598]],"biases":[0.2267364041195174,0.12978666139686507,1.2964014314194434]},{"inputNeurons":3,"outputNeurons":1,"weights":[[0.05305365792239327],[-0.4930417318314394],[-0.6474644654597655]],"biases":[0.4715362955108702]}],"scores":{"1":2320,"2":3720,"3":2720,"4":2500,"5":2700,"6":2320,"7":2520,"8":2520,"9":2320,"10":2320,"11":2320,"12":2320,"13":4150,"14":3920,"15":2320,"16":2320,"17":2520,"18":2720,"19":2320,"20":1300,"21":2320,"22":2320,"23":2320,"24":2320,"25":2320}},{"layers":[{"inputNeurons":0,"outputNeurons":10,"weights":[],"biases":[0.37218492413524285,0.4658508940716296,0.3376842448283279,0.05082591381899447,0.7924649503633623,0.6813239489386155,0.15072047013323606,-1.388246275740008,0.7363296704752824,0.12926153684808217]},{"inputNeurons":10,"outputNeurons":3,"weights":[[0.08898686962247587,-0.10500695267864055,-0.3743840678555259],[0.34113327605528265,-0.21871001533622506,0.18668803038092274],[-0.04051112087480675,-0.15130974495089844,-0.6421186657408144],[0.44916890302762535,1.2319766710473503,-0.362142536683133],[-0.41428590165092716,-0.1995670269362187,-0.12486656869077897],[1.0943962169643726,-0.012764953407794242,-1.1507770298304072],[0.5204286494807205,0.3400521133904878,0.545024180183834],[-0.5125599114825303,0.8473668103839251,0.07763711882326829],[-0.8115870468252502,0.5129007506064273,0.2019212859375693],[0.2990110376177613,0.31395780896951786,1.6778658657557262]],"biases":[0.44986876718217045,0.07615873208183323,1.6267463893767273]},{"inputNeurons":3,"outputNeurons":1,"weights":[[0.20194430973739055],[-0.20556715780309798],[-0.5780801699026907]],"biases":[0.48340510090705757]}],"scores":{"1":2320,"2":2320,"3":2320,"4":2320,"5":2320,"6":3050,"7":2740,"8":2320,"9":2520,"10":2320,"11":2520,"12":2320,"13":2320,"14":2320,"15":2700,"16":2850,"17":2320,"18":2320,"19":2320,"20":2320,"21":2190,"22":3920,"23":2550,"24":2520,"25":3720}},{"layers":[{"inputNeurons":0,"outputNeurons":10,"weights":[],"biases":[0.2658156792092983,0.4723069589905162,0.060095566823283264,0.44939267880036377,0.6078580285472456,0.3652633448060937,0.216467061324273,-0.899267154403202,0.8083545670763002,0.17752989897490845]},{"inputNeurons":10,"outputNeurons":3,"weights":[[-0.18429315712576477,-0.30199028802219174,-0.249768905461045],[0.3766415549727591,-0.49328691708525657,0.15428129279796293],[-0.14104048287894036,-0.02630296695608697,-0.3932312578076851],[0.7451880972751943,0.991465171968209,-0.6539973514388728],[-0.24603638969075337,-0.2759141201672038,-0.06460678520710009],[1.2753786813627233,-0.20234368498579813,-0.6795996928546042],[0.3407944614326795,0.4008833767242622,0.12712308123887983],[-0.41801991219267415,0.8271408186229872,0.046252235584697904],[-0.7767461932863804,-0.4213039205188949,0.7453143612879081],[0.21360238788602284,0.3117629784083512,1.3829653149960972]],"biases":[0.2906889189052713,0.034840080469709434,1.643679914006186]},{"inputNeurons":3,"outputNeurons":1,"weights":[[-0.13017598273711334],[-0.29307896847554465],[-0.6286731470441459]],"biases":[1.2042326996729429]}],"scores":{"1":2320,"2":2320,"3":2320,"4":2320,"5":2320,"6":2320,"7":2320,"8":2320,"9":2520,"10":2320,"11":2320,"12":2320,"13":5520,"14":2210,"15":2320,"16":2520,"17":3160,"18":2320,"19":2320,"20":2320,"21":3050,"22":2850,"23":2320,"24":2320,"25":2320}},{"layers":[{"inputNeurons":0,"outputNeurons":10,"weights":[],"biases":[0.26317357330077207,0.8235993135179409,-0.48815367065621373,0.2653157400143916,-0.21790185518591254,0.08515536785041605,0.028172073006767218,-0.11337610181638684,-0.04109514724761866,-0.044743942498146005]},{"inputNeurons":10,"outputNeurons":3,"weights":[[-0.48385800501750065,-0.02967751054769227,-1.5346590526199595],[-0.21173428257951976,-0.7866346995123246,-0.23809766851792807],[0.09156106760251743,-0.37536510493391423,0.678844235598606],[0.36354764401789597,0.681971719165236,-1.2139755654311366],[0.4031443156955599,-0.4081427856130504,0.5160696620332386],[0.9154010819643265,-0.25060617575357275,-1.4342145422741326],[0.4103389365952766,0.9642732559595261,0.21515195166670173],[-0.29913785497771334,0.7173352547152572,0.35567063867349014],[-5.0380532009411394E-5,0.04673762329557919,0.3234467730977879],[0.3598697893768669,0.4976133521044035,1.3285528416859327]],"biases":[-0.6950726210422924,-0.5043643977770756,1.3336066140205471]},{"inputNeurons":3,"outputNeurons":1,"weights":[[-0.4967147141685087],[-0.3684884746259644],[-0.4691060647117308]],"biases":[-0.03595187466902644]}],"scores":{"1":2320,"2":2320,"3":2520,"4":2320,"5":2320,"6":2210,"7":2520,"8":2220,"9":2210,"10":2320,"11":2320,"12":2320,"13":2520,"14":2920,"15":2320,"16":5920,"17":2500,"18":2320,"19":2320,"20":2320,"21":2520,"22":2320,"23":2320,"24":2320,"25":2320}},{"layers":[{"inputNeurons":0,"outputNeurons":10,"weights":[],"biases":[0.01512852669766479,0.9180012503054883,-0.22427395869964928,-0.22595653977820795,0.07122721788277828,0.17676142600500502,0.060776918645837175,0.2910808850328599,-0.09255691646586975,-0.26800920325864563]},{"inputNeurons":10,"outputNeurons":3,"weights":[[-0.9112187029821243,-0.26784652807543635,-1.410030567008484],[-0.3933016214407851,-1.0351537233792494,-0.5362367801059157],[-0.24104820186203668,-0.21394704351464972,0.6957720991308876],[0.43346926533076857,0.8820241355613592,-1.474196269793462],[-0.07717386495192641,-0.7133095880336083,0.6058653272125445],[1.4419490699690378,-0.14313768555180947,-1.2664146592016996],[0.3293880352116504,1.1285417606349804,0.4480052493551179],[-0.1609714972385916,0.41303480602367926,0.1260943900907061],[0.03519922401292683,-0.06475878035860035,0.0738826762933803],[0.5034942381994345,0.14405478811741138,1.1954421898987213]],"biases":[-0.4483628804027145,-0.07252606763974018,1.2266494963044519]},{"inputNeurons":3,"outputNeurons":1,"weights":[[-0.40155309913158554],[-0.3242372019920239],[-0.6959069743865386]],"biases":[-0.1549067278343681]}],"scores":{"1":2520,"2":2320,"3":2320,"4":2720,"5":2320,"6":2320,"7":2970,"8":2720,"9":2320,"10":2320,"11":2320,"12":2320,"13":2320,"14":2320,"15":2590,"16":2520,"17":2320,"18":2320,"19":1320,"20":2520,"21":5820,"22":2320,"23":2320,"24":2320,"25":2320}},{"layers":[{"inputNeurons":0,"outputNeurons":10,"weights":[],"biases":[0.4540708868073873,1.0798844558061256,-0.4635858140163887,0.051465403212497665,0.11248046948074218,0.16603570194853615,-0.25888747425640124,0.24825041050555682,-0.03526746632364697,-0.2988122163943224]},{"inputNeurons":10,"outputNeurons":3,"weights":[[-0.7310474856300105,-0.12423345267815272,-1.2631679517625052],[0.37172560729162335,-0.47237559092478976,-0.23559053575571193],[0.30433232803205557,-0.4662114819991604,0.7484287024274054],[0.08843493001337532,1.308093391423116,-1.4141269573613044],[-0.13373343406569463,-0.8043320340966776,0.6623944621602784],[1.4815648700253927,-0.10920200228169,-1.1416470537322188],[0.45220991466248617,0.9961125436691959,0.13819314073322836],[-0.48593096799035534,0.3696606474579748,0.5061586087934676],[-0.21908040359412112,-0.1952138026055142,0.9384237115749627],[0.5965746398020415,-0.06303914657771065,1.2864957451028922]],"biases":[-0.4614606048537216,-0.58453782563952,1.3031392443823913]},{"inputNeurons":3,"outputNeurons":1,"weights":[[0.06417762045454325],[-0.43949557020362195],[-0.41320973769799785]],"biases":[0.42809715279557814]}],"scores":{"1":2520,"2":2700,"3":2320,"4":2320,"5":2320,"6":3920,"7":2320,"8":2320,"9":2320,"10":2320,"11":2320,"12":2320,"13":2720,"14":3920,"15":2320,"16":2520,"17":2340,"18":2200,"19":2320,"20":2320,"21":2320,"22":2320,"23":2520,"24":2320,"25":2520}},{"layers":[{"inputNeurons":0,"outputNeurons":10,"weights":[],"biases":[-0.10838767740667851,0.2683076341646931,0.5038395120069978,0.08206656721724154,0.858158297551205,0.5023844709462881,0.4113663537524855,-1.4110317088435715,0.6506541427104161,0.2868433190886147]},{"inputNeurons":10,"outputNeurons":3,"weights":[[-0.14300792395085357,-0.19888561230185248,-0.05456642639795253],[0.267757934333306,-0.18434734797058994,0.07272038975823114],[0.1895254558658893,-0.48681388669766534,-0.6052029205473],[0.47295940663262437,1.3271652205627102,-0.5441503037400324],[-0.3151318699028788,-0.12423921594412696,-0.26069048202902756],[0.7956445055562167,0.16970008126307412,-0.6387800100493182],[0.18575197215065792,0.28725854697186226,0.3570398500064994],[-0.28563966717823297,1.119442569536505,0.17236555717777718],[-0.6937892335605501,0.021419472312180568,0.5445042375426631],[0.09506534613966466,0.43659527011390337,1.6776614688824774]],"biases":[0.22834272238671183,-0.04351539899495821,1.7414888219880371]},{"inputNeurons":3,"outputNeurons":1,"weights":[[0.38364716515028163],[-0.4751144748877269],[-0.3703293439377874]],"biases":[0.8574368179561168]}],"scores":{"1":2320,"2":3250,"3":2320,"4":2320,"5":2320,"6":2500,"7":2320,"8":2520,"9":2320,"10":2440,"11":3160,"12":2320,"13":2320,"14":2320,"15":2320,"16":3920,"17":2320,"18":2500,"19":2320,"20":3010,"21":2200,"22":2320,"23":2320,"24":2320,"25":2320}},{"layers":[{"inputNeurons":0,"outputNeurons":10,"weights":[],"biases":[0.16444655963814458,0.47283509344053654,0.11169276544476023,0.007694612504354353,0.45954076446379155,0.027118585467023115,-0.07640658012928196,-0.5257888026365973,0.47902409121062994,0.42754168997763287]},{"inputNeurons":10,"outputNeurons":3,"weights":[[-0.09530168874237277,-0.07647731777145815,-0.5577718354998136],[-0.17091073687808228,-0.5274996786375925,-0.1628050078909521],[-0.20350738210659103,-0.38853895606079303,-0.784554150378667],[-0.03497310567628002,1.2400064019727575,-0.7889535818362898],[0.37474167879026904,-0.237631579931316,0.2972631241965814],[1.1570084049178204,-0.8385278742324516,-1.0215716885676749],[0.10398781402363613,0.763197387074671,-0.3411589220168936],[-0.20509511675842432,1.3465893659818775,-0.3817879008414228],[-0.2521539586957803,-0.157933635916772,0.865848021339462],[0.4026468583410078,0.7428060514172872,1.4656297527071465]],"biases":[-0.21508846044665517,0.05964590892644858,1.3709793074003265]},{"inputNeurons":3,"outputNeurons":1,"weights":[[-0.39576820245746475],[-0.7728887439958202],[-1.0639619439010457]],"biases":[0.4150716797260182]}],"scores":{"1":2320,"2":2320,"3":2320,"4":2320,"5":2320,"6":2320,"7":1300,"8":2320,"9":2320,"10":2320,"11":2320,"12":3120,"13":4320,"14":2320,"15":2320,"16":3720,"17":2320,"18":2320,"19":2320,"20":2320,"21":2320,"22":3250,"23":2320,"24":2720,"25":2320}},{"layers":[{"inputNeurons":0,"outputNeurons":10,"weights":[],"biases":[0.061050365135884105,0.5574404340128184,0.2887968009105919,0.47278317547006965,0.6242778420074844,0.3561499267288791,0.2478308406313799,-0.4519202673783168,0.4726577413425313,0.5843151891668292]},{"inputNeurons":10,"outputNeurons":3,"weights":[[-0.3271260156900636,-0.3649359027832025,-0.41043574371616287],[-0.28494275238256056,-0.48219694982460864,0.5515173064244994],[-0.17541670740394316,0.564598029113093,-0.609065106526421],[-0.4382707804847096,0.7587927626146713,-0.6302673455023913],[-0.13931140722074303,-0.5040789775053542,-0.005257449707939885],[0.9565104397286794,-0.8077006048103668,-0.8119855511667312],[0.11105981514362198,0.9132140704242261,-0.3607688284582386],[0.05860135812634176,0.9240599786419235,0.022606699524288454],[-0.09790074022988987,-0.16454035449720658,0.34024343691864245],[0.3034292953177801,0.18624223905933532,1.361507465386152]],"biases":[-0.3904080247345656,0.18724239939037882,1.2040582966716102]},{"inputNeurons":3,"outputNeurons":1,"weights":[[-0.6834238997074379],[-0.38112738215971836],[-0.5257458447977573]],"biases":[0.8515933237415046]}],"scores":{"1":2880,"2":2320,"3":3120,"4":2920,"5":2720,"6":2360,"7":2720,"8":2320,"9":2200,"10":2320,"11":2520,"12":2560,"13":2320,"14":2320,"15":2320,"16":2320,"17":2320,"18":2320,"19":2320,"20":2320,"21":3120,"22":2320,"23":2890,"24":2320,"25":2320}},{"layers":[{"inputNeurons":0,"outputNeurons":10,"weights":[],"biases":[0.4362235377361142,0.9492161971559578,-0.2330333439807048,0.397575833819202,0.0030145225413836796,0.35535411396767014,-0.03275034494390466,-0.38656256843581027,-0.24757641886793819,0.03387668557646993]},{"inputNeurons":10,"outputNeurons":3,"weights":[[-0.2368798554518593,-0.47740753370654576,-0.9055822499502748],[0.22056450953094653,-0.8784689226742431,-0.6504890183984245],[0.1189000813514196,0.1849830611459598,0.38389602805356193],[0.28222506632259514,1.02611062258186,-1.0633701758486522],[-0.5295532392078799,-0.5718863753459387,0.29912595238209466],[0.7935977922391386,-0.30017525851584614,-0.9101238077735252],[0.6482126974559774,1.2751485732947139,0.38945578553912885],[0.14109239438142032,0.5735636429456356,0.6891435690779515],[0.018149137067060006,-0.059433384520016744,0.22434637736830598],[0.6270647636285713,-0.09282552104720561,1.4590777152933083]],"biases":[-0.5773911561815384,0.16280247825328203,0.8592524909679726]},{"inputNeurons":3,"outputNeurons":1,"weights":[[0.08538722820824995],[-0.4717163662169447],[-0.24225656926109196]],"biases":[0.14318586320646437]}],"scores":{"1":2320,"2":2320,"3":2320,"4":2320,"5":2320,"6":2320,"7":4250,"8":1300,"9":2320,"10":2520,"11":2320,"12":2320,"13":2320,"14":2920,"15":2320,"16":2590,"17":2320,"18":2520,"19":2320,"20":2800,"21":3020,"22":2320,"23":3120,"24":2320,"25":2320}},{"layers":[{"inputNeurons":0,"outputNeurons":10,"weights":[],"biases":[-0.296304654595972,1.205471538000197,-0.010750293877493822,0.24734448304304302,0.27665798724807217,-0.3927291152240175,-0.2648425807989378,0.11428811713357677,-0.15274516292016452,0.3620439186793703]},{"inputNeurons":10,"outputNeurons":3,"weights":[[-0.304828600065167,-0.048330690044299664,-0.6680650567786963],[0.24629030164687388,-0.6233703134163999,-0.46953529562507534],[-0.1916840864208218,-0.6314596335576197,0.7048695870799926],[0.3467233939445488,0.6254295221950342,-1.1450120924573381],[-0.05278284604531758,-0.4385044322975605,0.2982755678204171],[0.36789248240756434,-0.3692558861302773,-1.2042388177868593],[0.18990422498607407,1.3676649816845683,0.09090301085774449],[0.1154851071531145,0.3891571814014513,0.562689858056949],[0.20897475766285134,-0.015319520714985851,-0.049407141055031495],[0.5053957008600088,-0.030120143378143144,1.0396254936862537]],"biases":[-0.5423755078598088,-0.17265364783757337,0.8839793209368518]},{"inputNeurons":3,"outputNeurons":1,"weights":[[-0.33144853868697516],[0.01632380759883552],[-0.8608692416574102]],"biases":[-0.06653210229447726]}],"scores":{"1":2320,"2":2520,"3":2320,"4":2920,"5":2320,"6":2320,"7":2320,"8":2320,"9":2920,"10":2320,"11":2520,"12":2320,"13":2320,"14":5520,"15":2320,"16":2320,"17":2320,"18":2320,"19":2320,"20":2320,"21":2320,"22":2520,"23":2320,"24":2320,"25":1300}},{"layers":[{"inputNeurons":0,"outputNeurons":10,"weights":[],"biases":[0.09571092272211637,0.05379330835851737,-0.04528744222506356,0.24176893169713787,0.03875765565497172,0.032927209553805015,0.11451791144140838,-0.6767557785476636,0.8994388849841536,0.530375086200941]},{"inputNeurons":10,"outputNeurons":3,"weights":[[-0.3387672360967733,0.18263294073448189,-0.8095229878687136],[-0.3166991778887723,-0.41589079443802146,0.0831740962670412],[-0.36128034072329246,-0.14558421616174433,-0.6240629613885322],[-0.35541208967325333,0.8510865241624503,-0.6304742872716715],[0.24426133183228887,-0.24995344969235841,0.08451041318543277],[1.2522278250016177,-0.7724494448700264,-0.8946103864406956],[0.43898269714550253,0.41859621840291905,-0.39647022220005285],[0.33538618342090687,1.1602332591270872,-0.12342004394443055],[-0.18651719976842893,-0.2683554993107724,0.6717799341260264],[0.4167332494139505,0.1511133959305389,1.0412269388726443]],"biases":[-0.4155634976806779,-0.16399586981824077,0.9569473865836513]},{"inputNeurons":3,"outputNeurons":1,"weights":[[-0.4409293983970789],[-0.4143588532593645],[-0.6581972537897627]],"biases":[0.6268677976491467]}],"scores":{"1":2320,"2":1300,"3":2520,"4":2500,"5":2320,"6":2320,"7":2320,"8":2520,"9":2520,"10":2520,"11":2320,"12":2520,"13":2320,"14":2520,"15":2320,"16":3250,"17":2600,"18":2320,"19":2320,"20":2920,"21":2320,"22":2320,"23":3850,"24":2320,"25":2520}},{"layers":[{"inputNeurons":0,"outputNeurons":10,"weights":[],"biases":[0.6286677171637238,1.060969023859687,-0.03392583520515155,0.3198434167365883,0.5050143366846076,0.5546030756614239,0.05741301254858722,-0.6389335248939407,0.055852860870434895,-0.029229100469514283]},{"inputNeurons":10,"outputNeurons":3,"weights":[[-0.03317688996402279,-0.332666541819163,-1.1558217690768684],[0.23584822763089688,-0.7788646045041101,-0.5565978552040474],[-0.1074797758739505,0.14792906429341304,0.3301205747851106],[0.10824595144695592,0.9284129508948559,-1.3499233224075353],[-0.6678286193681957,-0.6040261472827763,0.25473427527304393],[0.8776418606170422,-0.33124959728236986,-0.5665028858996413],[0.7096238862451258,1.297834887899778,-0.03575235421424017],[0.20528654021220016,0.6253238087459723,0.7051961000108646],[-0.2068215858880595,0.14768368543221588,0.4971444620298074],[0.7071262413592416,-0.08356235196813627,1.4576583741129214]],"biases":[-0.8503277765667947,0.02405938780816222,0.6785735259898362]},{"inputNeurons":3,"outputNeurons":1,"weights":[[0.0071794874482000726],[-0.4573157812337691],[-0.2727233218403361]],"biases":[0.13884388684236712]}],"scores":{"1":2320,"2":2320,"3":2520,"4":5000,"5":2320,"6":2320,"7":2520,"8":2320,"9":2320,"10":2320,"11":2320,"12":2320,"13":1300,"14":2320,"15":3490,"16":2320,"17":2320,"18":2720,"19":2320,"20":2320,"21":2320,"22":2520,"23":2320,"24":2320,"25":2320}},{"layers":[{"inputNeurons":0,"outputNeurons":10,"weights":[],"biases":[0.20044328268894648,0.06513846500711609,0.18548145181497408,-0.07126222003870772,0.9123978980385881,0.976203156496174,0.10727941085757758,-1.0114128382882752,1.0119589968059413,0.2745665949087771]},{"inputNeurons":10,"outputNeurons":3,"weights":[[-0.19878151869321087,0.2250936837918128,-0.09476165577606518],[0.49188139517575735,0.12530949462312552,-0.341671031595995],[0.019766929823649734,-0.01346787747908848,-0.8903028717939837],[0.8086345129333834,1.3596395726234458,-0.4102062288075593],[-0.32084188042684514,0.07707446235913923,-0.1128053604046407],[1.1503365267351855,-0.16530916697923023,-0.6310965146799252],[0.5400666774869158,0.08102128224485958,0.20761246296375377],[-0.6801459346060017,0.872785619885396,0.4313273425733678],[-0.4364960470097258,-0.18969731671705292,0.33399822137576773],[0.48408815543412165,0.6554292599694995,1.649520943735051]],"biases":[0.060073029870510275,-0.45120577195777883,1.45574582963382]},{"inputNeurons":3,"outputNeurons":1,"weights":[[0.252770888718193],[-0.6353716018979378],[-0.5089619375184986]],"biases":[0.286602138768004]}],"scores":{"1":4320,"2":2320,"3":2520,"4":2320,"5":2520,"6":2320,"7":2320,"8":2320,"9":2520,"10":2320,"11":2520,"12":2520,"13":2320,"14":2320,"15":2320,"16":2320,"17":2320,"18":2520,"19":2920,"20":2320,"21":2320,"22":2320,"23":2320,"24":2320,"25":2320}},{"layers":[{"inputNeurons":0,"outputNeurons":10,"weights":[],"biases":[-0.24147646461317732,0.5319360983667797,0.384002568247678,-0.09896811474893982,0.7257967624581845,0.5615408172411389,0.13519023072385836,-1.4915792815627056,0.5403746619457236,0.20422197854553784]},{"inputNeurons":10,"outputNeurons":3,"weights":[[0.007038460315474282,-0.18844799720689087,-0.2409864257010463],[0.3137399098410288,0.13198027769451942,-0.3371450888867895],[-0.2530330479067373,-0.3656805792546033,-0.9525267105655151],[0.3160307615859124,1.2478311300633274,-0.45172527769616766],[0.014710183283067252,-0.30541964305305414,0.1160585872734185],[1.1334501130008239,0.017071478215551543,-0.5778786852960193],[0.714634662456462,0.12244739584325523,0.5574816244334689],[-0.7485775646512053,1.0224643328549508,0.3795464777036772],[-0.28090833190115927,0.20220433460615417,0.05646387245830731],[0.9598752098755169,0.13437572006442183,1.505913255296262]],"biases":[0.30409030429176936,0.35295551343671877,1.5247440942099526]},{"inputNeurons":3,"outputNeurons":1,"weights":[[0.10340349963436096],[-0.05129184015264232],[-0.8840547361251632]],"biases":[0.7592241202769751]}],"scores":{"1":2520,"2":2520,"3":2240,"4":2620,"5":2320,"6":2500,"7":2320,"8":2320,"9":2320,"10":2320,"11":3390,"12":2320,"13":2320,"14":2320,"15":2520,"16":2320,"17":2320,"18":2320,"19":2320,"20":2320,"21":3720,"22":2320,"23":2320,"24":2320,"25":2210}},{"layers":[{"inputNeurons":0,"outputNeurons":10,"weights":[],"biases":[-0.3123754534131531,0.12129605860754764,0.5538631785119205,-0.13553487494894365,0.445489991945864,1.0129589560754853,0.3361535134282853,-1.3778492035537633,0.7539488650575584,0.102098243920034]},{"inputNeurons":10,"outputNeurons":3,"weights":[[-0.03183899971895626,-0.39757963751997927,-0.3423719023228868],[0.45066962697624496,-0.45194947924907214,-0.18194662361215164],[-0.3172917315700863,-0.3426333716273246,-0.7387762131213342],[0.34670931785501485,0.9845969372207228,-0.7375068270391372],[0.11693687674446193,-0.45997474277205314,-0.1810626406549922],[0.6645318911730467,0.21175855284097944,-0.7032246412639007],[0.39953870109342127,0.387898842661214,0.6470070180171218],[-0.2865448579405353,1.132128391594372,0.16789717533213658],[-0.4597739365190405,-0.134171904092668,0.43273508046789005],[0.25671844756822015,0.4533157187793875,1.7346714448595177]],"biases":[0.4959141178182177,0.41692713836927636,1.3225052770861356]},{"inputNeurons":3,"outputNeurons":1,"weights":[[-0.0850850606206201],[-0.65152994775809],[-0.6336329656397763]],"biases":[0.6110743511174348]}],"scores":{"1":2320,"2":2320,"3":2320,"4":2560,"5":2520,"6":2320,"7":2320,"8":2320,"9":2600,"10":2320,"11":2620,"12":2320,"13":2920,"14":2320,"15":2320,"16":2520,"17":2210,"18":2320,"19":2320,"20":2520,"21":2320,"22":3520,"23":2320,"24":2320,"25":2520}},{"layers":[{"inputNeurons":0,"outputNeurons":10,"weights":[],"biases":[0.445507644538375,0.805880498398554,-0.4141366271937523,0.40001481666220773,-0.018069014921171436,-0.001921074867896555,-0.018863065172231942,-0.04941758552176084,-0.19070263692856118,0.3204267183349131]},{"inputNeurons":10,"outputNeurons":3,"weights":[[-0.03224391886861239,-0.6443567585945867,-0.7231130715926702],[-0.034810041200795616,-1.10350613174237,-0.8014615275285668],[0.21905975146468332,0.12124454808541343,0.15928073364753914],[0.5558432961528486,0.9046500324059348,-0.9501287956003817],[-0.37573348342639046,-1.0088229596212954,0.2160568642990634],[0.7992716291048647,-0.035165003544129325,-0.9758129187241269],[0.4350423653424992,1.464275361965595,0.5926656508446501],[0.3468606941115822,0.46036369119674353,0.43479633197227924],[0.0719849698217896,-0.08968751028535993,0.1724016944197793],[0.9607709199980513,-0.4044843340417766,1.4319910715062356]],"biases":[-0.5231242166692294,-0.08619117551793604,1.1469919870945664]},{"inputNeurons":3,"outputNeurons":1,"weights":[[-0.3200859428767553],[-0.6826671223373558],[-0.33206956938001264]],"biases":[-0.27897433800093935]}],"scores":{"1":2320,"2":2320,"3":2210,"4":2210,"5":2320,"6":2320,"7":1300,"8":2320,"9":2320,"10":2320,"11":2210,"12":2320,"13":2320,"14":2520,"15":2320,"16":2320,"17":2320,"18":2320,"19":2320,"20":2320,"21":3120,"22":2320,"23":5920,"24":2320,"25":2320}},{"layers":[{"inputNeurons":0,"outputNeurons":10,"weights":[],"biases":[0.31548935952627016,0.519033290106097,-0.08941749563179494,0.21770203281733103,-0.08380299312911493,0.20416522144950586,-0.1908169596470971,-0.692788190734497,-0.05320133539736205,-0.3632595987416037]},{"inputNeurons":10,"outputNeurons":3,"weights":[[-0.24899463097952748,-0.6728903261567266,-0.5043122607237931],[0.3980092210657049,-0.8756756292946866,-0.5924418045840365],[0.19604447048306434,-0.050332633974865926,0.639652180041922],[-0.09828360403609926,1.1048064470665542,-0.880419631965768],[-0.6566394564033426,-0.5436175906976821,0.27517884186725294],[0.6153752165281653,-0.0627992404522581,-1.120559103784648],[0.7843847561554713,1.2550600727291599,0.08642359146054068],[0.3587025483991283,0.1781397318516454,0.585850857816212],[-0.2272620569744457,0.1191431463152962,0.4088383211375582],[0.5843406300119092,0.14031685852868703,1.5522352992895843]],"biases":[-0.3707351326662873,-0.03950228667620914,0.5463929929529274]},{"inputNeurons":3,"outputNeurons":1,"weights":[[0.17745355808429147],[-0.45283613782385335],[-0.24364649190165538]],"biases":[0.06571877872089488]}],"scores":{"1":2360,"2":2320,"3":2520,"4":2520,"5":2320,"6":2320,"7":2320,"8":2520,"9":2320,"10":2320,"11":2320,"12":1310,"13":2290,"14":2520,"15":2320,"16":2320,"17":5320,"18":1300,"19":2320,"20":2320,"21":2920,"22":2320,"23":3010,"24":2500,"25":2320}},{"layers":[{"inputNeurons":0,"outputNeurons":10,"weights":[],"biases":[0.3916199297019187,0.7074777635113016,-0.5411575104808314,0.22767857882534276,0.220009379978523,-0.06326046242368819,0.007145190646737909,-0.31676350700589384,-0.13346890805970318,-0.31935419335270476]},{"inputNeurons":10,"outputNeurons":3,"weights":[[-0.39121383871198245,-0.5269802324623482,-1.480902164624802],[-0.16308177483257325,-1.047453817920309,-0.7405441776295633],[0.012999825211066629,-0.2932828602293067,0.6082819677784864],[0.4882453250679799,1.464590986672487,-1.0429366631462456],[-0.07403244044672086,-0.8416842817100224,0.333434855974334],[1.2673764383480253,0.13630152517888144,-1.5123609616050933],[0.22576127608228266,0.9514741245021529,0.14119653930931514],[-0.28780967619120607,0.3656083063739484,0.2826611662940654],[0.04210968798160761,-0.17088940467182573,0.29510740049107986],[-0.03094345850337965,0.12211218809504842,1.2596554282324408]],"biases":[-0.356544716671106,-0.3690866466424427,1.0379261025411455]},{"inputNeurons":3,"outputNeurons":1,"weights":[[-0.3157993127155191],[-0.07671830552990797],[-0.431355300139038]],"biases":[0.046887758664889576]}],"scores":{"1":2520,"2":2600,"3":3920,"4":2320,"5":2320,"6":2320,"7":2320,"8":4220,"9":2320,"10":2320,"11":2320,"12":2320,"13":2320,"14":2520,"15":2320,"16":2320,"17":1300,"18":2320,"19":2300,"20":2320,"21":2520,"22":2320,"23":2320,"24":2190,"25":2320}},{"layers":[{"inputNeurons":0,"outputNeurons":10,"weights":[],"biases":[0.8365083740829192,0.36656866464911797,-0.16240117898399103,0.35547697451630067,0.029363778272437947,0.12185613078776675,0.12841533981106718,-0.40554390720640765,0.0705473911628306,-0.10670765368811515]},{"inputNeurons":10,"outputNeurons":3,"weights":[[-0.3076352467931748,-0.3720309829818436,-0.46051503108011],[0.12711038803123864,-0.845683115757406,-0.3054752955378705],[-0.10730381264901168,-0.024636353281515866,0.1335660256684878],[0.44281432610610316,1.0582773118050577,-1.3230441045225685],[-0.7877499747388914,-0.21328817528272392,-0.02795823898954075],[0.8160216257668188,-0.5411199614386708,-0.6214313137877202],[0.46491276346589355,1.0621741284249175,0.21943447153332182],[0.05253417063184887,0.6260071752932468,0.5612093119959675],[0.04872020327650693,0.227817332704374,0.12988861925369088],[0.5354849356797443,-0.20309022201377525,1.5628880467199384]],"biases":[-0.3307273173319505,-0.004263811430146397,0.6692784525496629]},{"inputNeurons":3,"outputNeurons":1,"weights":[[0.20216468310345118],[-0.531090278911552],[-0.29496944856295754]],"biases":[0.17679071877608932]}],"scores":{"1":2320,"2":2320,"3":2320,"4":2320,"5":2520,"6":2320,"7":2320,"8":2320,"9":2320,"10":2320,"11":2720,"12":2360,"13":3650,"14":2520,"15":2320,"16":2320,"17":2320,"18":2520,"19":2320,"20":2520,"21":2520,"22":2670,"23":2320,"24":2320,"25":2320}},{"layers":[{"inputNeurons":0,"outputNeurons":10,"weights":[],"biases":[0.48954819286547874,0.8270055891930382,-0.32470532291197635,0.13267318167298958,0.016182387597568196,0.2019545146664211,-0.08473965692818006,-0.03848665022618672,-0.07830619960617283,-0.10244029550393932]},{"inputNeurons":10,"outputNeurons":3,"weights":[[-0.6929819448177672,-0.26096790384761,-1.360117184398017],[-0.09228270983630682,-1.0140551271901808,-0.45493097676365685],[0.17409300854207438,-0.3779213095966727,0.47296922341731806],[0.35228433138029985,1.0457335515291464,-1.1528448038943702],[0.0907476364129271,-0.7458758580185529,0.504425313239078],[1.0996430812904423,-0.07661396592787478,-1.117570903749835],[0.31901775735114146,1.0008807086340439,0.38717753726456844],[-0.2769084884393644,0.4094206613023109,0.3760575376288014],[-0.07060069940090904,0.03722206399067833,0.410013875583844],[0.32235917905699796,0.08690483708013755,1.2855241249094695]],"biases":[-0.4533804557826795,-0.3619647846054692,1.3944016877804462]},{"inputNeurons":3,"outputNeurons":1,"weights":[[-0.1811007478723342],[-0.3232101575420374],[-0.41831562589769267]],"biases":[0.14473500028616865]}],"scores":{"1":2320,"2":2920,"3":2320,"4":2320,"5":2320,"6":2320,"7":2320,"8":2320,"9":2320,"10":3010,"11":2840,"12":2320,"13":2520,"14":2320,"15":2320,"16":2320,"17":2320,"18":2320,"19":2320,"20":2440,"21":2920,"22":2320,"23":2690,"24":2320,"25":2320}},{"layers":[{"inputNeurons":0,"outputNeurons":10,"weights":[],"biases":[0.3137803184491284,0.2837174996086278,0.28773225333991953,0.08048768787408939,0.09346580436277833,0.719318259398209,-0.24308592969827167,-0.6503371073505526,0.7992942078269192,0.45263785899183406]},{"inputNeurons":10,"outputNeurons":3,"weights":[[-0.29642361057746436,0.3639044214697066,-1.094502616225102],[-0.7446050610818995,-0.5985117636922156,0.33164908443570795],[0.03238760744735908,0.2625119122348396,-1.0020906351547174],[-0.26051386615238226,1.3465598493544784,-0.7226606605889225],[-0.26167117130719686,-0.24716049757678926,-0.27847630654138267],[1.0341645135857924,-0.5815821780956475,-1.0538297074485423],[-0.21379794075280362,0.71304910023599,-0.17266412544668658],[-0.2182808890657253,0.8322518431912088,-0.36159348386978446],[-0.25832441649470417,0.025956334595933023,0.7666663557026197],[0.3212680153097494,0.31116650862592493,1.3085950609053913]],"biases":[-0.12737801485905037,0.09118423189435323,0.9921918237839149]},{"inputNeurons":3,"outputNeurons":1,"weights":[[-0.4970227553794747],[-0.24460137772947663],[-0.819912259367231]],"biases":[0.6211293401932225]}],"scores":{"1":2720,"2":2440,"3":1300,"4":2320,"5":2520,"6":5450,"7":2320,"8":2320,"9":2320,"10":2520,"11":2320,"12":2320,"13":2320,"14":2320,"15":2320,"16":2320,"17":2220,"18":2320,"19":2320,"20":2320,"21":2320,"22":2520,"23":2320,"24":2320,"25":2200}},{"layers":[{"inputNeurons":0,"outputNeurons":10,"weights":[],"biases":[0.29189865269323567,0.40480973381039786,0.135997576680371,0.010258181918999243,0.011883490835213395,0.2947102790163801,-0.21487098265562335,-0.6420886371508853,0.6744497113135626,0.2689298931923401]},{"inputNeurons":10,"outputNeurons":3,"weights":[[-0.7221921093962874,-0.20898806060703512,-0.7756265273259398],[-0.44727525006207713,-0.5896585130852791,0.5415341980981445],[-0.05310699196092715,0.025097714633105533,-0.6875963195699148],[-0.18850206370085382,1.0117387221782383,-0.8239581379109208],[0.12102002388129104,-0.14641090401574475,-0.18705370359368126],[1.3778063798636593,-0.5720277744572124,-0.7077561294593249],[0.07819231917479572,0.6676454106219404,0.2820593385488147],[-0.1100596159878729,0.7254767967768055,-0.13056799459744192],[-0.4601229275420961,-0.2948238163901485,0.4784251434484773],[0.522238338370795,0.25435668930798,1.3086591382096584]],"biases":[-0.4769318278027407,-0.3597046042635649,1.0884161637324181]},{"inputNeurons":3,"outputNeurons":1,"weights":[[-0.4772033684726201],[-0.30214780479637804],[-0.8234755611672403]],"biases":[0.9186937474819938]}],"scores":{"1":2320,"2":2320,"3":2320,"4":2320,"5":2520,"6":2310,"7":2320,"8":2320,"9":2320,"10":2320,"11":2520,"12":2520,"13":3720,"14":2320,"15":2320,"16":2320,"17":2320,"18":2320,"19":2320,"20":2320,"21":2690,"22":2720,"23":2320,"24":2500,"25":2320}},{"layers":[{"inputNeurons":0,"outputNeurons":10,"weights":[],"biases":[-0.13476171164348108,0.1732250376481319,0.2074966221686152,0.2853675671650966,0.7211427593569839,0.36920778072788174,0.4695368956826178,-1.6238494263927508,0.9556271978819092,0.2660509022895042]},{"inputNeurons":10,"outputNeurons":3,"weights":[[-0.4275294412485074,0.245626042261937,-0.4289133746047906],[-0.1027480080679597,-0.18316189073312777,-0.2344810278646185],[0.06991339009607814,-0.09355318894113868,-0.5031131968646739],[0.9427349441619398,1.226758959712266,-0.6930309670205319],[0.10865032648763576,-0.07041549763081739,0.026475137939409366],[1.135765451406164,-0.1183884943103145,-0.3768283006807655],[0.4764271449108383,0.1027165641820324,0.3534539056327599],[-0.38084660907898094,0.9372414472129145,0.29841458524808206],[-0.5453311454550881,-0.16677174602586778,0.4085923680656675],[-0.10977799077335537,0.45675687478929045,1.7534806589319802]],"biases":[0.5884505265576389,0.15011852746662338,1.6710789565284747]},{"inputNeurons":3,"outputNeurons":1,"weights":[[0.3138223328674452],[-0.07546629770508473],[-0.795926601402605]],"biases":[0.4219257206790813]}],"scores":{"1":2320,"2":2520,"3":2520,"4":2320,"5":2320,"6":2320,"7":2520,"8":2320,"9":3400,"10":2320,"11":2520,"12":2450,"13":2520,"14":2320,"15":2320,"16":2320,"17":2520,"18":2520,"19":2320,"20":2320,"21":2320,"22":2320,"23":2520,"24":2320,"25":2320}},{"layers":[{"inputNeurons":0,"outputNeurons":10,"weights":[],"biases":[-0.34090120102579635,0.4281598585298162,0.422857155202387,0.08867578467055828,0.7262162037801209,0.274512903456616,0.14381049922511718,-1.2477389194305413,1.034170554940588,0.3972349445117397]},{"inputNeurons":10,"outputNeurons":3,"weights":[[-0.2445064008105048,-0.19665679207771675,-0.5144951624961903],[0.4252871143811041,-0.11109363596715344,-0.4829298458094662],[0.4200030714233012,0.025769330061317236,-0.6196808616244092],[0.6780183594466185,1.039324626853244,-0.8216250939670439],[-0.2288291602056484,-0.09516242177744322,-0.08645635638980656],[1.014174146367475,0.02774668191714111,-0.9068970014053404],[0.3301074170671188,0.4967997969150119,0.40689223768573857],[-0.4017791501434368,0.8594447755415011,0.3760862553173711],[-0.3068000755392793,-0.1175058423176231,0.3389498005036262],[-0.2192431042148586,0.49367668300381523,1.7935966683850029]],"biases":[0.44321949517820686,0.21800172344830715,1.6109041166417561]},{"inputNeurons":3,"outputNeurons":1,"weights":[[0.5412790339058415],[-0.4308054435960815],[-0.5603724171472955]],"biases":[0.5132248936606767]}],"scores":{"1":2320,"2":2920,"3":2320,"4":2520,"5":2320,"6":2320,"7":2520,"8":3920,"9":2320,"10":2320,"11":2520,"12":2320,"13":2320,"14":2920,"15":2320,"16":2320,"17":2320,"18":1300,"19":2320,"20":2320,"21":2320,"22":2620,"23":2320,"24":2320,"25":2320}},{"layers":[{"inputNeurons":0,"outputNeurons":10,"weights":[],"biases":[0.31959638746166685,1.1165951146775945,-0.44596414785772087,-0.2075269885473226,0.06410403367733203,0.22806184174912214,0.20688000473319293,0.3150399872887434,-0.19123651732302563,-0.23561624694369088]},{"inputNeurons":10,"outputNeurons":3,"weights":[[-0.8986562585304638,0.11395459083850029,-1.508291931459331],[-0.36909874402950743,-0.8784570657653178,-0.7590247075389416],[0.15264452007340512,-0.602666207830388,0.4723889692682645],[0.29331314360053445,1.2866319499979246,-1.2539574222631096],[-0.30474267322619364,-0.7343346075891766,0.3491558508278671],[1.1718438478354078,-0.31474064763382287,-1.0246527776466372],[0.5003314785260973,1.026120370182383,0.03418205990607964],[-0.22670628282736377,0.6459071295599246,0.7200748859244988],[0.2920506581497172,-0.36943634176537327,0.5474836483258315],[0.3255734087515309,-0.27191953987153883,1.1697508531620786]],"biases":[-0.5184711808089101,-0.30329766932803914,1.4352591042049636]},{"inputNeurons":3,"outputNeurons":1,"weights":[[-0.2896128131265114],[-0.30241798008183646],[-0.6506611444680707]],"biases":[0.03280465171391639]}],"scores":{"1":2320,"2":3920,"3":2320,"4":2850,"5":2320,"6":2700,"7":2520,"8":2320,"9":2320,"10":2320,"11":2320,"12":2320,"13":2320,"14":2320,"15":2320,"16":2500,"17":2320,"18":2320,"19":2320,"20":2500,"21":2320,"22":1300,"23":2320,"24":2720,"25":2320}},{"layers":[{"inputNeurons":0,"outputNeurons":10,"weights":[],"biases":[0.06612937016338127,0.2604855099231419,-0.04278503441603934,-0.13380316954657195,0.40047693487388814,0.3280110579853195,-0.30470912000659967,-0.45457720246107913,0.8334448496832667,0.1276785717697588]},{"inputNeurons":10,"outputNeurons":3,"weights":[[-0.24138557986418824,0.3300876802490465,-0.7453498801057583],[-0.12934782602059613,-0.45813070985115867,0.40619976861109075],[-0.0983228488559368,-0.08687106217876099,-0.4331229992212735],[0.14073516548852263,1.2643247400170703,-0.8426015655529903],[0.25059368609543653,-0.0641284483849324,0.12032984696228148],[1.0367293660082941,-0.7700663859621478,-1.132746657740521],[0.19064077220276354,0.5930635537960094,0.06633373108844356],[-0.26320344282437447,1.1137811780021818,-0.592974014453573],[0.06478630862310342,-0.028281992128399963,0.7380460071387087],[0.08232170189831217,0.08157687969953897,1.829833922959215]],"biases":[0.1307614244981235,-0.38377994544829197,0.8550122704147549]},{"inputNeurons":3,"outputNeurons":1,"weights":[[-0.9056260317792271],[-0.3766297418057933],[-0.9226795333682845]],"biases":[0.5231445319770395]}],"scores":{"1":2320,"2":2320,"3":2920,"4":2320,"5":2500,"6":2320,"7":2320,"8":2520,"9":2920,"10":2320,"11":2320,"12":2320,"13":2480,"14":2200,"15":3050,"16":2210,"17":2320,"18":2320,"19":2320,"20":2320,"21":2520,"22":2320,"23":2320,"24":2320,"25":2320}},{"layers":[{"inputNeurons":0,"outputNeurons":10,"weights":[],"biases":[0.1881873637371658,1.148217271241044,-9.606626744617097E-4,0.569290504982557,-0.04446956703895454,0.29054288277546236,-0.21331982915218703,-0.8003469870334801,-0.36453087133981527,-0.010786163496706948]},{"inputNeurons":10,"outputNeurons":3,"weights":[[-0.17733114449726656,-0.4880735653396194,-0.9011016979485965],[-0.14660447308610225,-1.064956379951751,-0.45886473306784403],[0.2254044899585732,0.02658227853004219,0.3833012925279732],[-0.08989259266634797,1.1398212692754583,-0.7433178705747545],[-0.710196630104803,-0.46730199871406924,0.11760432212584676],[0.7401617292366411,-0.425971832491821,-0.7940460684192757],[0.639879893412239,1.09724478627385,0.3312980899347173],[0.10036613579615289,0.548292296007946,0.8069413737960222],[0.2987840945301179,0.09091353640789245,0.29202826983566327],[0.5764862992916527,-0.26793753696083805,1.368551249596839]],"biases":[-0.5434668232957985,0.03889408943780692,0.9358833208484609]},{"inputNeurons":3,"outputNeurons":1,"weights":[[0.10860365238166843],[-0.10948507033806693],[-0.10183160659745472]],"biases":[0.23539020547032774]}],"scores":{"1":2320,"2":2320,"3":2520,"4":2320,"5":2320,"6":2520,"7":2520,"8":2320,"9":2320,"10":2320,"11":2410,"12":2320,"13":3020,"14":2320,"15":2320,"16":2320,"17":2320,"18":2320,"19":2320,"20":2320,"21":2370,"22":3050,"23":2320,"24":2320,"25":2520}},{"layers":[{"inputNeurons":0,"outputNeurons":10,"weights":[],"biases":[0.45848320211418037,0.5600454980678111,-0.3699724000285083,0.11975828805023844,-0.24515868960069476,0.5455153005384058,0.06580582342407362,0.10202521180822416,0.15147462211964174,0.32343091077241304]},{"inputNeurons":10,"outputNeurons":3,"weights":[[-0.8006747147661333,-0.26679025253475874,-1.2585455507907533],[0.04055777722942655,-1.0694996549110019,-0.6673464380323499],[-0.3414619870859142,-0.3702044651312681,0.6210302563104909],[0.2773466506144208,1.3411547714606258,-1.0218603259956471],[-0.009207733092563314,-0.5255862768174575,0.5551191654151189],[1.084193579413815,0.01701647620962718,-1.0868861653439774],[0.3363906247018492,1.5403569277694524,0.39119697986405727],[-0.34324872681735774,0.31665829347739816,0.48457810328748774],[-0.30565812990786223,0.2613729249586122,0.28201969664830606],[0.39312245597314266,0.37744275473483446,1.5214033499940305]],"biases":[0.0036202859454334546,-0.348661117042939,1.7567090455089933]},{"inputNeurons":3,"outputNeurons":1,"weights":[[-0.29183513943471123],[-0.49942164101135855],[-0.14240228516422415]],"biases":[-0.13129299440352415]}],"scores":{"1":2320,"2":2320,"3":2320,"4":3120,"5":2320,"6":2320,"7":2320,"8":2320,"9":2720,"10":2320,"11":2520,"12":2320,"13":2320,"14":2320,"15":2520,"16":2320,"17":2720,"18":2320,"19":2490,"20":2320,"21":2320,"22":2320,"23":2320,"24":2520,"25":2320}},{"layers":[{"inputNeurons":0,"outputNeurons":10,"weights":[],"biases":[0.19605342643622578,-0.15184047109559243,0.06011007758528818,0.1650975297681791,0.10646609712556483,0.27963633545377375,0.027985421152457626,-0.6827273024803592,0.5307906195749987,0.25861425806916993]},{"inputNeurons":10,"outputNeurons":3,"weights":[[-0.03591357310874854,-0.3734092976291318,-0.4102446277245867],[0.15599619925039632,-0.5499793020313457,0.33545697232680555],[-0.10938965779941458,0.011315933700898326,-0.6345327945768373],[-0.4681849700435735,1.532787592375133,-0.5786633062913433],[0.08668196425951033,-0.12009903991880443,-0.0673254582607424],[1.318836887045114,-0.5852816221664439,-0.9835169424780108],[0.1161283296629352,0.9381597806440285,-0.04079889620269681],[-0.2902493113841336,0.7923011260191303,0.10747038961817804],[-0.2759174229258111,-0.2561528632500059,0.5924424716227779],[0.3542422317262663,-0.03418541570989736,1.5858688440530857]],"biases":[-0.25566172682030636,0.03552355449520733,0.8256559514786249]},{"inputNeurons":3,"outputNeurons":1,"weights":[[-0.9226080567047266],[-0.5629691523801478],[-0.841801030399641]],"biases":[0.6006117122683096]}],"scores":{"1":2320,"2":2320,"3":2320,"4":2320,"5":2320,"6":2320,"7":2320,"8":2600,"9":2320,"10":3110,"11":2600,"12":2320,"13":2320,"14":2320,"15":2320,"16":2320,"17":2320,"18":2320,"19":2200,"20":2440,"21":2720,"22":2320,"23":2520,"24":2520,"25":2320}},{"layers":[{"inputNeurons":0,"outputNeurons":10,"weights":[],"biases":[0.16299414823106176,0.3017289354619483,0.318407917438861,0.01582626225700571,0.7629156987827395,0.5709592680626504,0.1261277812135329,-1.2120877409688973,0.8191797263321976,0.24029923594593372]},{"inputNeurons":10,"outputNeurons":3,"weights":[[-0.18189570247478165,-0.06498620156402066,-0.24722270280682984],[0.3918279020889335,-0.2675944738377751,-0.12817250397447288],[0.0634562246277035,-0.2121253154157454,-0.7238107373761122],[0.5854319858474644,1.1867111297706838,-0.5638356128690806],[-0.17133862481981413,-0.2641222025285109,-0.051678297717004884],[1.0635988935704594,-0.03959646442807585,-0.6363510768110062],[0.5362905694993806,0.242171074745546,0.4201917068580981],[-0.4433282190161879,0.8024661735661808,0.21816044374970106],[-0.5929320209773634,-0.06317168174260217,0.31402603387911493],[0.3517185887480768,0.4756390988426884,1.6513108220635522]],"biases":[0.3414104566722478,0.05917227830064124,1.5169288706676975]},{"inputNeurons":3,"outputNeurons":1,"weights":[[0.09216393489522504],[-0.4478701204981397],[-0.5387667681378318]],"biases":[0.6941268008645436]}],"scores":{"1":3700,"2":2320,"3":2320,"4":2320,"5":2320,"6":2320,"7":2320,"8":2320,"9":2320,"10":2320,"11":2320,"12":2190,"13":2520,"14":2320,"15":2520,"16":2190,"17":2520,"18":2320,"19":2320,"20":2320,"21":2520,"22":2320,"23":2320,"24":2520,"25":2320}},{"layers":[{"inputNeurons":0,"outputNeurons":10,"weights":[],"biases":[0.3383923860582754,0.1345735332940436,0.4859958808904691,-0.2185717633722271,0.4674260990142496,0.6419152324248564,0.03264787937810998,-0.9821963691580005,0.7783051728098047,-0.01572506925487177]},{"inputNeurons":10,"outputNeurons":3,"weights":[[-0.22280698622909306,0.03317285432191196,-0.28887163576994124],[0.6069489811515915,-0.34258317508948255,-0.2926424074156577],[0.01710887689602958,-0.04518472169316526,-0.49967905759128745],[0.27623813140873665,1.3642760022383145,-0.7909826616423056],[-0.3504194579369808,-0.3119426048508075,-0.10063227262431754],[1.0441373266411904,-0.45200966945448967,-0.6612284895474329],[0.40527294418200477,0.4217814558316123,0.3006233911053829],[-0.343094004977456,0.8960972325652988,0.4406590394954582],[-0.48707784608255483,0.1543784497197782,0.1795716439596622],[0.7388924645933771,0.5191299959926153,1.8099660222472564]],"biases":[0.053231950842331566,0.2983558613352162,1.506975627468237]},{"inputNeurons":3,"outputNeurons":1,"weights":[[-0.1238430924205744],[-0.5304186940583364],[-0.7707602391065775]],"biases":[0.9698945668400618]}],"scores":{"1":2320,"2":2320,"3":2320,"4":2320,"5":2520,"6":2320,"7":2320,"8":2520,"9":2320,"10":2520,"11":2320,"12":2320,"13":2320,"14":2320,"15":2320,"16":2340,"17":2320,"18":2320,"19":2920,"20":2320,"21":2320,"22":2320,"23":2520,"24":3010,"25":2320}},{"layers":[{"inputNeurons":0,"outputNeurons":10,"weights":[],"biases":[0.37262961431452435,0.9041812929450254,-0.3159272980212463,0.4128902400418413,0.1700784495519842,0.22064325272989432,0.25436319516355965,-0.5307512820516396,-0.1388773377575489,0.021875204668182244]},{"inputNeurons":10,"outputNeurons":3,"weights":[[0.052206754362176144,-0.5783516949367455,-0.4647880541966449],[0.30017917193127064,-1.0181125453658204,-0.8109672881808417],[-0.2427457416278065,0.0961546842052894,0.35602915468133856],[0.2995342031764603,0.9898882188284692,-1.1352104675162629],[-0.8940482299404288,-0.3221834446432009,0.20403488690185026],[0.8025287429872212,-0.15712924040642876,-0.6553921092936192],[0.8193357278589477,1.54417222153199,0.44567207644690404],[0.14835757439591993,0.658022327184288,0.9440589568410837],[-0.18919631286903327,-0.014291990042919304,0.2250497176062459],[0.44934302409978166,-0.24429006981055362,1.6541063620765264]],"biases":[-0.48661440310050924,-0.06645259914141283,1.031236644544599]},{"inputNeurons":3,"outputNeurons":1,"weights":[[-0.023372217616613553],[-0.6372704100911464],[-0.3266851857882582]],"biases":[0.31683650691506193]}],"scores":{"1":2320,"2":2590,"3":2320,"4":2320,"5":2320,"6":2320,"7":2320,"8":2320,"9":2520,"10":2320,"11":2320,"12":2320,"13":2520,"14":2320,"15":2920,"16":2320,"17":2320,"18":2520,"19":2320,"20":2520,"21":2320,"22":2720,"23":2320,"24":2320,"25":2320}},{"layers":[{"inputNeurons":0,"outputNeurons":10,"weights":[],"biases":[0.3730125452670553,1.4139221450093677,-0.09462224756391768,0.34564423255632787,0.1397728318968641,0.3617674367125199,0.04309502017973847,-0.5548600931584696,-0.4118608194793413,0.10321752422194129]},{"inputNeurons":10,"outputNeurons":3,"weights":[[0.11451824707111691,-0.4580123066720127,-1.1136448580899432],[0.34844881555520213,-0.6306383176110546,-0.35344385491239677],[0.37274412252598765,-0.17861118121680436,0.202585891199998],[0.09732608684004013,0.9872214570931771,-1.250291918417397],[-0.602118304408026,-0.48817941529026443,0.4432177401758932],[0.5188833233227441,-0.4021177037329444,-0.7414000703433111],[0.6503526780559767,1.5433968044263944,0.3085578951218649],[-0.09274556415527174,0.25981176725203164,0.5817712516725941],[-0.15174687418149613,-0.22174594716899987,0.16055466048228112],[0.7488064795372616,-0.08678823880769398,1.6641215225441086]],"biases":[-0.5005640157345423,0.19866261815760194,0.7103309469365316]},{"inputNeurons":3,"outputNeurons":1,"weights":[[-0.06730179541351713],[-0.14707500762294617],[-0.3521376786304341]],"biases":[0.44841324588596587]}],"scores":{"1":2320,"2":2920,"3":2320,"4":3650,"5":2320,"6":2320,"7":2320,"8":2570,"9":2520,"10":2200,"11":2690,"12":2920,"13":2320,"14":2520,"15":2320,"16":2320,"17":2720,"18":2520,"19":2320,"20":2320,"21":1300,"22":2320,"23":1310,"24":2320,"25":2320}},{"layers":[{"inputNeurons":0,"outputNeurons":10,"weights":[],"biases":[0.1241498175999605,0.1355072469309707,0.613898732804252,-0.24383059546983002,1.067017980687468,0.42756316749581025,0.050310012473149424,-1.2271998638800028,0.7158759286834679,0.09502775405853817]},{"inputNeurons":10,"outputNeurons":3,"weights":[[-0.0834075832034758,0.07864105171557267,-0.2730177927312728],[0.6205423357965726,-0.2036857503333252,-0.30476315074995386],[0.10447826199298688,-0.4654657658276701,-0.3801341880630989],[0.6348087292090886,0.8620288364306334,-0.7095210488789181],[-0.6280506833530314,0.09147285880331396,0.13464602399256526],[1.277491351038466,-0.11535251884170955,-0.5525249174703961],[0.5333735632946371,0.22093408424070796,0.18437258056771094],[-0.29968936110052596,0.7686410317840369,0.17441755859503782],[-0.5192551918349597,0.1300138670008248,0.09261909714339861],[0.6184482473060158,0.7189791793437225,1.6638155342017267]],"biases":[0.1212706656857401,0.2498368191907418,1.6450901153513224]},{"inputNeurons":3,"outputNeurons":1,"weights":[[-0.08079791284816051],[-0.8347898212411697],[-0.5317921300918753]],"biases":[0.6890280281581584]}],"scores":{"1":2320,"2":2320,"3":2320,"4":3450,"5":2560,"6":2320,"7":2320,"8":2320,"9":2520,"10":2320,"11":2320,"12":2500,"13":2320,"14":2340,"15":2320,"16":2520,"17":2320,"18":2320,"19":2320,"20":2320,"21":2320,"22":2320,"23":2320,"24":2320,"25":2320}},{"layers":[{"inputNeurons":0,"outputNeurons":10,"weights":[],"biases":[0.3064322205883335,0.26999781373786835,-0.11977346519423429,-0.028960563571485687,0.2723566711926215,0.4943495601723939,0.1183956716131534,-0.9452228787688313,0.7450481093890909,0.11845259205325476]},{"inputNeurons":10,"outputNeurons":3,"weights":[[-0.1938789866644835,-0.004754946216702249,-0.5203975747403451],[-0.0373995169080944,-0.34178044406655483,0.0065813098359980005],[-0.2274233685065074,-0.09162608316732478,-0.3209408247721435],[0.10149243886763157,0.9242661740479869,-0.6404041470472357],[0.16578515443726258,-0.2896932263141523,0.23169387935713737],[1.018065510190529,-0.4274223098096882,-0.6698663679422159],[0.21960502433851795,0.496190660857593,0.36278875216240913],[-0.5412104622965371,0.6504619521578812,0.11282697126467636],[-0.5409793679707318,-0.041535835755425354,0.39509175748127295],[0.11160698812236663,0.29081346917116957,1.4994668910758642]],"biases":[0.06588484756958707,-0.04867390269925581,0.9356029373082895]},{"inputNeurons":3,"outputNeurons":1,"weights":[[-0.21517497003771166],[-0.481340412306457],[-0.7430151037759635]],"biases":[0.6227255776821786]}],"scores":{"1":2520,"2":2340,"3":2220,"4":2320,"5":2320,"6":2200,"7":2320,"8":2320,"9":2200,"10":2520,"11":2520,"12":2320,"13":2620,"14":3400,"15":2320,"16":3120,"17":2520,"18":2190,"19":2320,"20":2520,"21":2400,"22":2320,"23":1300,"24":2320,"25":2360}},{"layers":[{"inputNeurons":0,"outputNeurons":10,"weights":[],"biases":[0.4760426646293393,0.5420368223971681,-0.17381276174944624,0.45741540540770903,0.19428728291532954,0.5116030605486265,0.13143225192045166,-0.23521829646499884,-0.4252731089660805,-0.5252279425907447]},{"inputNeurons":10,"outputNeurons":3,"weights":[[-0.4765988202471971,-0.2074039906370424,-1.1658583051535343],[0.034610321118588805,-0.8532152219083396,-0.5268697570385268],[0.4684050528881253,-0.4122077705421456,0.774576043740091],[0.4623514036772045,1.0456215082773246,-1.33295730882477],[0.5819905960017866,-1.2510553371604587,0.9932695149667292],[1.2042495891788296,-0.3383190645382016,-1.351226823446946],[0.515704936568342,1.114498426976248,0.5530891134029872],[-0.2556701792197251,0.26027510675927323,0.10715032409754466],[-0.02283167078282656,0.1373580688694876,-0.03539007474557804],[0.32066527734673567,0.37430902354188467,1.1997751251636677]],"biases":[-0.5431950833604197,-0.19358638287978544,1.2589884653225032]},{"inputNeurons":3,"outputNeurons":1,"weights":[[0.021755612991672835],[-0.8598697991732208],[-0.2382576675515557]],"biases":[0.12628228162191638]}],"scores":{"1":3820,"2":1300,"3":2210,"4":1340,"5":2520,"6":2320,"7":2320,"8":1300,"9":2320,"10":2320,"11":5300,"12":2320,"13":3250,"14":2520,"15":2320,"16":2320,"17":1300,"18":2320,"19":2320,"20":2320,"21":2320,"22":2520,"23":2220,"24":2320,"25":2320}},{"layers":[{"inputNeurons":0,"outputNeurons":10,"weights":[],"biases":[0.3218154094185206,0.8877146554733581,-0.4950071866162997,-0.30555463190646687,-0.03255886773787249,0.11542555339149271,0.11815859853459518,0.3246692151110675,-0.054127489252925876,-0.14111185500810486]},{"inputNeurons":10,"outputNeurons":3,"weights":[[-0.8183000887235727,-0.2814386179483743,-1.3041356146851597],[0.16577129110905336,-1.1972953670655289,-0.5072682588862107],[-0.21480520974167128,0.046475579602479,0.35165900810315964],[0.6371223038023457,0.8193313018113753,-1.2513562439011903],[-0.07435620348325486,-0.6604274567426927,0.3330076483973158],[1.4264804228423926,-0.3240504078040092,-0.7426493457705703],[0.19179792126919085,0.8003893348087968,0.6724763215948718],[-0.2851208559229385,0.4669256168701751,0.25209423660688535],[0.25236775752580864,0.3591545631982457,0.2827505411546746],[0.12271881150550928,0.21998839377031845,1.2127472187327049]],"biases":[-0.35545319032630546,-0.7386810804985138,0.8039095573598517]},{"inputNeurons":3,"outputNeurons":1,"weights":[[-0.43102377629495037],[-0.289257955010699],[-0.22650491376883228]],"biases":[0.37469054351294573]}],"scores":{"1":3050,"2":2320,"3":2520,"4":2320,"5":2320,"6":2600,"7":2320,"8":2210,"9":2320,"10":1300,"11":2320,"12":2320,"13":2520,"14":2320,"15":2320,"16":2320,"17":2320,"18":2200,"19":2320,"20":2320,"21":2320,"22":3920,"23":2320,"24":2320,"25":2320}},{"layers":[{"inputNeurons":0,"outputNeurons":10,"weights":[],"biases":[0.49816623599340626,0.15737438132243928,-0.10745830715431687,0.13011806344646903,0.9790655974364098,0.6078708665384018,0.29838578177512803,-1.3388492418468327,0.8537379294402494,0.41667788798175565]},{"inputNeurons":10,"outputNeurons":3,"weights":[[-0.15952659299914063,0.20335012622310553,-0.5539308896751698],[0.12328468144793164,0.057977412954521634,0.2992613355028028],[-6.186200626192573E-4,-0.4067125067003098,-0.6882868481712567],[0.8392328843005111,1.1273238100464846,-0.6119599583797164],[-0.18442327405361178,-0.3346892610431005,0.2599845092881342],[1.0762584295120408,0.3485215185002847,-0.8488886519412517],[0.7731352587302841,0.54940059907048,0.24316450000951217],[-0.5583661070703436,0.6914588713901532,0.45543882103291994],[-0.6929773629337361,-0.17029986235794603,0.5739300669537618],[0.41920551225884006,0.06446673381875934,1.7018287978925448]],"biases":[0.3466943033182061,-0.14126627406134457,1.3869681784074381]},{"inputNeurons":3,"outputNeurons":1,"weights":[[-0.07903819719424457],[-0.18756284070750956],[-0.477463214131131]],"biases":[0.600942212149923]}],"scores":{"1":2320,"2":2320,"3":3050,"4":2320,"5":2320,"6":2320,"7":2320,"8":2320,"9":2320,"10":2320,"11":2320,"12":2210,"13":1300,"14":2320,"15":2300,"16":2320,"17":2320,"18":2320,"19":2720,"20":2720,"21":2520,"22":2520,"23":2920,"24":2690,"25":2320}},{"layers":[{"inputNeurons":0,"outputNeurons":10,"weights":[],"biases":[0.12914684397105264,0.12409604099673277,0.3454269646001991,0.24291977898847558,0.8795982115963952,0.8321750836835836,-0.19828463313363187,-1.3379483405495816,0.7284304692856449,0.2701213216761073]},{"inputNeurons":10,"outputNeurons":3,"weights":[[-0.2009277076442021,-0.11699270824692881,-0.3291305123109506],[0.657669893960382,-0.19766427055263452,0.02948968658921411],[0.06592354744802786,-0.06039451480118396,-0.6470911889490387],[0.7907683831897862,1.1562621761743481,-0.7120827625615596],[-0.0900183969747854,-0.27711014115459154,0.03957451726661505],[1.278470941989114,-0.15898632914668714,-0.7126228603880588],[0.6561715409635579,0.6305439602259129,0.8604757324823671],[-0.1628787931628089,0.7104432418701573,0.41343802705737676],[-0.45805152035748053,0.4635874810559734,0.41365332675415273],[0.22816052425914463,0.081423235337168,1.877864850008892]],"biases":[0.32062724659600295,0.07510099364124662,1.5327748418152163]},{"inputNeurons":3,"outputNeurons":1,"weights":[[-0.062327638050849565],[-0.058290260615585954],[-0.7647723622270995]],"biases":[0.3788061249692434]}],"scores":{"1":2320,"2":2320,"3":2320,"4":2520,"5":2320,"6":2320,"7":1310,"8":2320,"9":3120,"10":2320,"11":2520,"12":2320,"13":2320,"14":2320,"15":2320,"16":2320,"17":2320,"18":2440,"19":3400,"20":2320,"21":2560,"22":2320,"23":2320,"24":2410,"25":2320}},{"layers":[{"inputNeurons":0,"outputNeurons":10,"weights":[],"biases":[0.5723639470423659,0.6530380343875337,-0.12952079723242416,0.0013540725176877516,0.11911797696853024,0.8709076743128409,0.26627174380988006,0.007812491524716247,0.27239333144950384,-0.31458786778723247]},{"inputNeurons":10,"outputNeurons":3,"weights":[[0.07684262756730972,-0.3150876379746579,-0.6987524765827251],[-0.04960480249980159,-0.7964316215493641,-0.6901290661854717],[0.9012994253809876,0.21324580066915444,0.8818252321047988],[0.5060660081984584,1.180930181573543,-0.7479971808733579],[-0.4148652507836691,-0.06918919621583847,0.1990494324373584],[0.15212068708054796,-0.4971283812670455,-0.5323676055252138],[0.031228422939559495,0.7531939397081997,0.023348474354084936],[-0.053435771950493025,1.204670464883203,0.1614792461068441],[0.2485214303923164,-5.76192198320627E-4,0.19283144249730416],[0.6017845412459792,-0.45973664096681305,1.3677861737321844]],"biases":[0.40190164290515906,0.05980410768998113,1.2131919446673858]},{"inputNeurons":3,"outputNeurons":1,"weights":[[-0.2905627828853617],[-0.9319829191503703],[-0.6095790995106907]],"biases":[0.7297778808819695]}],"scores":{"1":2320,"2":2520,"3":1300,"4":2320,"5":2320,"6":2320,"7":2320,"8":2700,"9":2320,"10":2320,"11":2520,"12":2320,"13":2320,"14":2500,"15":2320,"16":2520,"17":2320,"18":2320,"19":2320,"20":2320,"21":2320,"22":2320,"23":2320,"24":2920,"25":3250}},{"layers":[{"inputNeurons":0,"outputNeurons":10,"weights":[],"biases":[0.1375330715061702,0.16036247795255232,0.5870287135277826,0.1673195780384519,0.7664375833593041,0.4898379849462904,0.17517661491040018,-1.3608835591337394,0.9070027179996996,0.13003589110622787]},{"inputNeurons":10,"outputNeurons":3,"weights":[[-0.04670921928532465,-0.00782924168869447,-0.3894906195044687],[0.33249304884416025,0.08801974585277716,0.18126561474773728],[0.17311000938608184,-0.38654410382703297,-0.9705701151294532],[0.5932589328038606,0.937442749064112,-0.463796484356222],[-0.2716692480608416,-0.3885359025674619,0.05472387651036749],[1.123174205306914,0.003832310737326032,-0.5631283968787484],[0.4332254279554168,0.02415902154628427,0.03912011983940661],[-0.2465774012294083,0.40561735470283156,0.22240395986466685],[-0.5840906757602692,0.18149103185061793,0.10162098730688432],[0.1602787613179364,0.5458659480074246,1.9657164015980222]],"biases":[0.42064708584303767,0.07432630448492104,1.141807656717848]},{"inputNeurons":3,"outputNeurons":1,"weights":[[0.3726192267239601],[-0.5093116623548355],[-0.544866433287428]],"biases":[0.5740290793022771]}],"scores":{"1":2320,"2":2720,"3":2320,"4":2520,"5":2520,"6":1300,"7":2470,"8":2320,"9":2320,"10":2320,"11":2520,"12":3860,"13":2320,"14":2520,"15":2320,"16":2320,"17":2520,"18":2520,"19":2320,"20":2320,"21":1300,"22":2320,"23":2500,"24":2320,"25":2470}},{"layers":[{"inputNeurons":0,"outputNeurons":10,"weights":[],"biases":[0.33178362383711835,1.0679587187357795,-0.22184079608187746,0.020051572399705953,0.27333554019924866,0.24322989416605106,-0.17169584398803256,-0.0668252413234873,-0.349301948385503,-0.12566578441465304]},{"inputNeurons":10,"outputNeurons":3,"weights":[[-0.19179882782121746,-0.04002073648108112,-1.1664728230120467],[-0.1787687238671378,-0.850748173750161,-0.5125195422424091],[0.23636939618001032,-0.044235918134140295,0.5966537935032651],[0.9355344070246416,0.8135299651858993,-1.1495791624544494],[-0.24770312130482883,-0.7316115538663676,0.47408617250929286],[0.4873332424722887,-0.3528135985301383,-0.9167632619881201],[0.49807348646267363,1.2623249465515403,0.9163924519858578],[-0.22922646660043242,0.31813370860754425,0.3685479527632513],[-0.25743613173367585,0.013334853833866872,0.26350085415821056],[0.5811028840164781,-0.30070065248885447,1.2150154250467562]],"biases":[-0.25956490706969515,-0.29278069437539256,0.851036895158929]},{"inputNeurons":3,"outputNeurons":1,"weights":[[-0.16233399694045322],[-0.6268157389103585],[-0.3639770962222198]],"biases":[0.4245865417586622]}],"scores":{"1":2320,"2":2320,"3":2320,"4":2320,"5":2470,"6":4230,"7":2520,"8":2320,"9":2320,"10":2520,"11":2320,"12":2210,"13":2320,"14":1300,"15":2320,"16":2320,"17":2320,"18":2320,"19":2320,"20":2200,"21":2320,"22":3010,"23":2320,"24":1940,"25":2320}},{"layers":[{"inputNeurons":0,"outputNeurons":10,"weights":[],"biases":[0.12859277969825197,0.3863623205982298,0.2103006283031171,0.10502161111842453,0.709978964327641,0.46368177541990213,0.07280326176653279,-0.9755030843915011,0.9113102178717148,0.2168011789209542]},{"inputNeurons":10,"outputNeurons":3,"weights":[[-0.2656882682769439,-0.16704503123081826,-0.1391678627045372],[0.30829529981856113,-0.24329860575615775,-0.030864684381066987],[0.082535722812803,-0.622356508285882,-0.44920359416576155],[0.3537332515326276,1.3822473589152624,-0.6073033792847753],[-0.21924407316303532,-0.32264815076746967,-0.4332339472681314],[0.9579928320276178,0.10530300716746122,-0.3487750419207735],[0.7180904715480583,0.44638513061462065,0.6961392857381634],[-0.298495362008835,1.0618391108643315,0.6412181138275745],[-0.8499444910560676,-0.1636337813314609,0.4886534099659715],[0.0985454654449629,0.3830505218737802,1.369663040317998]],"biases":[-0.12077975561502996,0.163607000028214,1.5318476430795263]},{"inputNeurons":3,"outputNeurons":1,"weights":[[0.18604314625073995],[-0.5285961790463125],[-0.5441902606952083]],"biases":[0.49672286993331977]}],"scores":{"1":2320,"2":1330,"3":2800,"4":2320,"5":2320,"6":2520,"7":2320,"8":2320,"9":3120,"10":2320,"11":2320,"12":2320,"13":2320,"14":2320,"15":2210,"16":2500,"17":2320,"18":2320,"19":2320,"20":2320,"21":2920,"22":1310,"23":2710,"24":2920,"25":2700}},{"layers":[{"inputNeurons":0,"outputNeurons":10,"weights":[],"biases":[0.08080318403202244,-0.007608152550446806,0.06969449683570438,0.09798856059316721,0.26182162445946705,0.13408270361083666,0.09560455371947313,-0.7402640696087888,0.8688053222152843,0.44324736134582443]},{"inputNeurons":10,"outputNeurons":3,"weights":[[-0.34201416622853836,0.11107676064281344,-0.30167596435150457],[-0.2659529377223048,-0.21583017067864346,0.28328672760635054],[-0.34465334047033314,-0.006586093389115977,-0.3744855256190917],[-0.38087686436269796,1.045475100998243,-0.8099628166784683],[0.28102123093953973,-0.4427410061185561,-0.048005364766472935],[1.0986851653677236,-0.7195864643391306,-0.9134536713751527],[0.21009914164594662,0.9248892255440714,-0.03712087129621242],[0.06378200553114083,0.5784426011728245,0.029612134333218826],[0.0250288056033737,-0.2852611875525096,0.21994691212048478],[0.35904657922283134,-0.04252972788573717,1.7046883779940902]],"biases":[-0.10856632573497521,0.1766204488649801,1.0552419308105596]},{"inputNeurons":3,"outputNeurons":1,"weights":[[-0.5349972218570133],[-0.24607818031188378],[-1.1573996595421296]],"biases":[0.7031261579548701]}],"scores":{"1":2320,"2":2320,"3":2520,"4":2190,"5":2320,"6":2530,"7":1300,"8":2320,"9":2320,"10":2320,"11":2320,"12":2320,"13":4320,"14":2320,"15":2320,"16":2210,"17":2320,"18":2320,"19":2320,"20":2320,"21":2320,"22":2320,"23":2500,"24":2320,"25":2320}},{"layers":[{"inputNeurons":0,"outputNeurons":10,"weights":[],"biases":[0.3744625492384005,1.2729696117920062,-0.1382140222747308,0.2425828104375799,0.1552893718387226,0.2925074661815968,0.043748443680076354,-0.2895750497211933,-0.06432008196748512,-0.16890734991799677]},{"inputNeurons":10,"outputNeurons":3,"weights":[[-0.9662531977769659,-0.08344650211130933,-1.2970465926630614],[-0.17777127978874396,-0.9903676739739302,-0.39457576826040797],[0.7516164985542064,-0.3109032479541879,0.4738323820202798],[0.10295003477996831,0.6157182100598375,-1.1963441700358044],[0.11802945182366346,-0.8619623939456627,0.4933528036952306],[1.212299810482354,0.029966855264241296,-1.039555497229027],[0.4132941075623441,1.1082325362352847,0.11663786157751604],[-0.3649862251040381,0.5502734851022597,0.3662194422434816],[-0.07507427479547213,-0.013561437765987977,0.5177860907959684],[0.42583308156994154,-0.061775053412243486,0.9100523060238372]],"biases":[-0.49612415614877436,-0.3084816280270642,1.431185129595852]},{"inputNeurons":3,"outputNeurons":1,"weights":[[-0.32790907355228294],[-0.5981072152760465],[-0.4017785397299351]],"biases":[0.061821808836754436]}],"scores":{"1":2320,"2":2320,"3":2320,"4":1300,"5":2920,"6":2600,"7":2320,"8":2320,"9":2320,"10":2320,"11":2320,"12":2320,"13":2520,"14":2310,"15":2720,"16":2320,"17":1940,"18":2320,"19":2320,"20":2320,"21":2320,"22":3120,"23":2320,"24":2600,"25":2320}},{"layers":[{"inputNeurons":0,"outputNeurons":10,"weights":[],"biases":[0.358639567139824,0.6283814254740342,-0.08548466634149013,0.0827594078956706,0.18210965369341373,-0.1598808011322974,-0.2658207315064288,0.1284495451938661,-0.10705916203700347,-0.0714645234547136]},{"inputNeurons":10,"outputNeurons":3,"weights":[[-0.3773531942555277,-0.589736770889747,-1.0132386359501042],[0.18274898347574348,-0.7142258137421831,-0.9446630640899172],[0.28960981064801117,-0.5399770919812807,0.5453152756102085],[0.48671500185722155,1.0924164656219535,-1.089509258438055],[-0.4801091049416772,-0.8810562630920292,0.27890936357408364],[0.49452547173239814,-0.1700212537295714,-1.0197996069950666],[0.14871474669120394,1.1656385660388222,0.7150176632366577],[0.12028850879612349,0.5604279271090302,0.24987592677521275],[-0.477533168211685,-0.18935464900749743,0.6996599006663364],[0.6136237348288021,-0.3893997328636838,0.9351421754851716]],"biases":[-0.11421455770297023,-0.10184027521088862,0.9385227692985948]},{"inputNeurons":3,"outputNeurons":1,"weights":[[-0.18983987323198973],[-0.37755936099526477],[-0.4425258016125029]],"biases":[0.2933864568682645]}],"scores":{"1":2320,"2":2320,"3":2320,"4":2320,"5":2320,"6":2720,"7":2320,"8":2210,"9":2520,"10":2320,"11":2320,"12":2320,"13":2320,"14":2320,"15":2320,"16":2320,"17":2320,"18":2520,"19":2720,"20":2320,"21":2320,"22":2320,"23":2320,"24":2320,"25":2320}},{"layers":[{"inputNeurons":0,"outputNeurons":10,"weights":[],"biases":[0.5089718821545733,1.1157932889209052,-0.31089892489375476,-0.13001582549532037,-0.09757550063380392,0.18812092918661483,-0.06939954927031194,-0.16360547719453938,-0.24744010709656022,-0.17900223470008159]},{"inputNeurons":10,"outputNeurons":3,"weights":[[-0.5634545307290988,-0.4157150419052042,-1.2557916035600218],[-0.053963011273982155,-1.2491083144729456,-0.30623648930221636],[0.29677099442791743,-0.5697531380568681,0.5047915090736905],[0.3844406713602091,0.9713260217533792,-1.2079915723976935],[0.1428661318501589,-0.8930083569010209,0.46574752956383086],[0.9537833670060994,-0.23525514600419067,-1.2397996724701774],[0.26140016010557987,1.3531671028356866,0.4634697363753284],[-0.6123291556348365,0.45661158403295826,0.4220420329661422],[-0.016914208905739053,0.00276284739745513,0.5503088202898206],[0.5684287682624313,0.18294704083909663,1.1748020420899974]],"biases":[-0.13897285767025336,-0.6596565086951613,1.1995060834824276]},{"inputNeurons":3,"outputNeurons":1,"weights":[[-0.5488126770370859],[-0.3776833357749455],[-0.2068596999266974]],"biases":[0.16001142372086596]}],"scores":{"1":2320,"2":2320,"3":2320,"4":2370,"5":2670,"6":2320,"7":2320,"8":2320,"9":2320,"10":2320,"11":2320,"12":2520,"13":2320,"14":2520,"15":2320,"16":2320,"17":2520,"18":2320,"19":2320,"20":2190,"21":2320,"22":2320,"23":2520,"24":2320,"25":2320}},{"layers":[{"inputNeurons":0,"outputNeurons":10,"weights":[],"biases":[0.6458574563497965,0.3461701126604281,0.2853273173904029,-0.022882623996994755,0.4691066576186428,-0.008483009413735865,-0.255016752333377,-0.5535489440732105,0.4914792263317916,0.6468030893509231]},{"inputNeurons":10,"outputNeurons":3,"weights":[[-0.5192538061991111,0.4343459399627138,-0.565128668783289],[-0.2367129020753039,-0.6762288640770368,0.3777237513357802],[-0.6816621074705114,-0.09377551738017077,-0.5931943883796789],[-0.29843678271502994,1.0313350587526906,-0.35172344866977295],[0.4682995144367831,-0.30274467383960446,0.46588378159588306],[0.8717633460561872,-0.7383564919822758,-1.1259735528454269],[0.2640214841050346,0.9255921598018214,-0.1299293412507368],[0.012655636123545339,0.576834855935482,-0.24603056040892535],[-0.013819093393556747,-0.02824004364331234,0.43812483746079156],[0.702476978348695,0.24934130027769164,1.3241197672165874]],"biases":[-0.4621477056850082,-0.4152592369728052,0.7139133712970677]},{"inputNeurons":3,"outputNeurons":1,"weights":[[-0.6557216642579069],[-0.11365412147972292],[-0.7074511786361046]],"biases":[0.3622164162380707]}],"scores":{"1":2320,"2":2320,"3":2320,"4":2320,"5":2520,"6":2320,"7":2320,"8":2320,"9":2320,"10":2320,"11":2320,"12":2520,"13":2320,"14":2320,"15":2320,"16":2320,"17":2320,"18":2520,"19":2520,"20":2320,"21":2190,"22":2320,"23":2320,"24":2320,"25":2620}},{"layers":[{"inputNeurons":0,"outputNeurons":10,"weights":[],"biases":[0.34391898891531364,0.8360370233036105,0.21917440758131285,0.28652118830249396,0.37107246072124955,0.4993624940488503,0.21631225242296517,-1.3264571976040247,0.9757416937853163,0.12374361442616119]},{"inputNeurons":10,"outputNeurons":3,"weights":[[-0.2343305472068172,0.16030056908235604,-0.3932407984130686],[0.5901763268939928,-0.38028276059042926,-0.29077127474445885],[0.20666951446927076,-0.18339502507514402,-0.3994395513743907],[0.9958313974236093,1.2064829501580232,-0.5591572807775091],[-0.5179382462398592,0.21737349754857055,0.05120372190810085],[1.1751633153690995,-0.04833107027556117,-0.6805131903994063],[0.3206531400903754,0.6708712971428192,0.2790448481663679],[-0.17544180239669138,1.0024863552384387,-0.2922302007505551],[-0.5761167845607054,-0.0016158758630950565,0.19789375281054655],[0.46455792098196647,0.706075814120418,1.7567523129925982]],"biases":[0.30958592435371574,0.1656556429180201,1.314851368781312]},{"inputNeurons":3,"outputNeurons":1,"weights":[[-0.03433154693381468],[-0.466403931660729],[-0.4671715915603424]],"biases":[0.8919199318136583]}],"scores":{"1":2720,"2":3110,"3":2320,"4":2320,"5":2320,"6":2520,"7":2320,"8":2320,"9":2520,"10":2320,"11":2320,"12":2520,"13":2320,"14":2320,"15":2520,"16":2320,"17":2320,"18":2320,"19":2320,"20":1300,"21":2320,"22":2320,"23":2320,"24":2320,"25":2320}},{"layers":[{"inputNeurons":0,"outputNeurons":10,"weights":[],"biases":[0.6204809542861172,0.8432077241906689,-0.5506344967334553,0.3897370256193166,-0.11364846105304001,0.4937684433054863,-0.6199870630150828,-0.005580160347859915,-0.2586089698235243,0.17724477961340282]},{"inputNeurons":10,"outputNeurons":3,"weights":[[-0.6766493010755259,-0.2269197632692531,-1.7089298945730294],[0.022207662384857774,-1.3193638795857487,-0.4584601254188981],[0.09861880823648961,-0.5637197605031077,0.37583181516180436],[0.6092267398481689,1.0696818088810003,-1.3264633765696687],[0.20369479782802097,-0.9189786543358296,0.5563596112107709],[1.0810097354004462,-0.306852587803692,-0.8941554406634029],[0.6597618660488621,0.893125347167754,0.2528180890629333],[-0.6004803108492287,0.22567232450369146,0.39339288905951264],[0.16279321658297644,0.015247702390703641,0.37967619670371516],[0.507490057707608,0.0244254729710948,1.301304351290211]],"biases":[-0.5450661888477697,-0.07973813705898852,1.4647452319386614]},{"inputNeurons":3,"outputNeurons":1,"weights":[[-0.1323505905998833],[-0.4967614936023082],[-0.7283673720532079]],"biases":[0.10075266938378954]}],"scores":{"1":2970,"2":2320,"3":1300,"4":2520,"5":2320,"6":2320,"7":2320,"8":2920,"9":2320,"10":2500,"11":2320,"12":2320,"13":2320,"14":2320,"15":2320,"16":2340,"17":2320,"18":2320,"19":2320,"20":2320,"21":2720,"22":2220,"23":2320,"24":2320,"25":2320}},{"layers":[{"inputNeurons":0,"outputNeurons":10,"weights":[],"biases":[-0.10811902939102383,0.4624297803895717,0.36685561227822716,-0.1829043083553178,0.9954686860601706,0.5649342760133411,0.27405809165742867,-1.2289164361708709,0.9283850735632295,-0.014850258582379705]},{"inputNeurons":10,"outputNeurons":3,"weights":[[-0.4939013822619159,0.23003772895179844,-0.36364507297594495],[0.3639604766742107,-0.3851727682801836,-0.032363981237400835],[0.13137530454369944,-0.14579820586180064,-0.6173201357898859],[0.53862008395532,1.3712976840340718,-0.4095792623268676],[0.24060414519762793,-0.28681064172661996,-0.1693975869684594],[1.153296621300635,0.12438473050778082,-0.7398135233978467],[1.06479574085037,0.22137365549643848,0.17367156602188608],[-0.7039369096136989,0.7896678369757931,0.15099363628663798],[-0.7522058235065541,0.1394000218291936,0.3224386948437763],[0.22921851779583163,0.4397294569257007,1.8220830536977706]],"biases":[0.5538916591737271,0.10077748327086639,1.2921885697842188]},{"inputNeurons":3,"outputNeurons":1,"weights":[[0.0979038951885075],[-0.4206747321015033],[-0.5581294020743112]],"biases":[0.7729752402177013]}],"scores":{"1":2320,"2":2320,"3":2210,"4":2520,"5":2320,"6":2290,"7":2320,"8":2330,"9":3520,"10":2520,"11":1300,"12":2320,"13":2520,"14":2320,"15":2920,"16":2320,"17":2300,"18":2320,"19":2320,"20":2320,"21":2320,"22":2520,"23":2320,"24":1310,"25":2320}},{"layers":[{"inputNeurons":0,"outputNeurons":10,"weights":[],"biases":[0.2240511738276472,0.24493671019812543,0.17244749617003194,0.20538565006241666,0.18842468902584253,0.3087414055078623,-0.08522595496478419,-0.7210597288904471,0.6325494724397319,0.3438640048635288]},{"inputNeurons":10,"outputNeurons":3,"weights":[[-0.2842664246281975,0.07405890413612785,-0.7052539289403289],[-0.25042923398096056,-0.4997349908245312,0.2962709000247047],[-0.1318538430038239,0.09351289037209128,-0.4857561118107955],[-0.15214465300148974,1.0562098432904359,-0.7212469520175145],[0.03827532004260492,-0.2224359740638033,0.09910815143351673],[1.0882491923563609,-0.6498099402299718,-0.8752541655758747],[0.10290693470941377,0.6923571741875093,0.015274322933241269],[-0.2047409259774412,0.8571622322751559,-0.21259584331354944],[-0.21146470696477732,-0.1568206105904671,0.46655298416953883],[0.42713525032135097,0.16814268053907172,1.5144914790481423]],"biases":[-0.23881408613982796,-0.09359039386480913,0.910619209892978]},{"inputNeurons":3,"outputNeurons":1,"weights":[[-0.6885536293886687],[-0.4844606686200021],[-0.7385307326979225]],"biases":[0.716795813458886]}],"scores":{"1":2320,"2":2320,"3":2770,"4":2320,"5":2320,"6":2320,"7":1300,"8":2350,"9":2590,"10":2320,"11":2320,"12":2320,"13":2320,"14":2320,"15":2320,"16":2500,"17":2320,"18":2320,"19":2520,"20":2320,"21":2320,"22":2320,"23":2320,"24":2520,"25":2320}},{"layers":[{"inputNeurons":0,"outputNeurons":10,"weights":[],"biases":[-0.19900229158586688,0.3711015410740211,0.38562128250019867,-0.01940205432231272,0.6159227889044637,0.26451753965989344,0.06329372657888256,-1.408889872506432,0.7006221819046586,0.32787405669708314]},{"inputNeurons":10,"outputNeurons":3,"weights":[[-0.1435894178403249,-0.31625989686690725,-0.5184585012203714],[0.6108962812839062,-0.5368367438156677,0.10531786358239048],[-0.5754179429785686,-0.4605711618310414,-0.584345136952028],[0.9776579794018823,1.3816671811506385,-0.8174758418677819],[-0.0550521874836124,-0.02556390838725381,-0.17452674406903845],[1.0218559128319848,-0.26424800721356834,-0.4692638901389237],[0.1463508428844592,0.38753875392503045,0.7462513912148181],[-0.4567061662367004,0.9318549576865975,0.005267078450550439],[-0.26916556464921126,0.24837097405849456,0.5058364255013521],[0.48979330710206215,0.5355881632087913,2.066439261095428]],"biases":[0.06899818581254691,0.20158194241911492,1.630492706999142]},{"inputNeurons":3,"outputNeurons":1,"weights":[[-0.06920418648088045],[-0.4827196073513858],[-0.7808194535441866]],"biases":[0.6151389721858058]}],"scores":{"1":2320,"2":1370,"3":2320,"4":2320,"5":2320,"6":2500,"7":2320,"8":2320,"9":2410,"10":2320,"11":2320,"12":2320,"13":2200,"14":2320,"15":2520,"16":2320,"17":2320,"18":2320,"19":2320,"20":2480,"21":2320,"22":2950,"23":2320,"24":2320,"25":2320}},{"layers":[{"inputNeurons":0,"outputNeurons":10,"weights":[],"biases":[0.3555505904879497,0.39887653776972465,-0.10733142945737581,0.37400938040434684,0.12289624385870204,0.30655513023036934,-0.42645452587666577,-0.8190831014614557,0.3805430553429024,0.26016428153929255]},{"inputNeurons":10,"outputNeurons":3,"weights":[[-0.3662215834300415,-0.0045513109942539876,-0.5952453318984872],[0.026428760560831044,-0.8973056467497966,0.4094139305420263],[-0.08463964634003204,-0.16090213770909012,-0.539557780939049],[-0.09010277388865924,1.0791144295136694,-0.7660778406542379],[0.2001869018789708,-0.30775527264825897,0.12417176291198087],[0.7959094856390021,-0.6954754339225659,-0.4134201803475283],[0.3340250636484833,0.4405770007729026,0.004399104507023809],[-0.19769275836030922,0.6914196337248177,-0.3581316828666244],[-0.04431684708205011,-0.34298078905267837,0.4868652837817303],[0.3497047765456846,0.24405517053602127,1.6507393114998405]],"biases":[-0.1932045051376694,-0.214854499283049,0.8182375194455908]},{"inputNeurons":3,"outputNeurons":1,"weights":[[-1.251161552158644],[-0.4670252794383817],[-0.6051352184862678]],"biases":[0.6390644151851501]}],"scores":{"1":2320,"2":2320,"3":2520,"4":3120,"5":2320,"6":2320,"7":2320,"8":2320,"9":2320,"10":1300,"11":2320,"12":2320,"13":2520,"14":2320,"15":1300,"16":2320,"17":2320,"18":2320,"19":2520,"20":1300,"21":3720,"22":2320,"23":2640,"24":2320,"25":2320}},{"layers":[{"inputNeurons":0,"outputNeurons":10,"weights":[],"biases":[0.4879372277606987,0.20509658065811404,-0.1595577036223454,-0.08779515216276876,0.34616514423782707,0.5898517847886137,-0.23490731130734627,-1.3928466522022962,0.8144592804950052,0.1134962521890499]},{"inputNeurons":10,"outputNeurons":3,"weights":[[-0.25299347185926446,-0.0702065763840035,-0.08659289288347671],[-0.31956804441771747,-0.3244036187008307,-0.31484266202084665],[-0.5686310650240559,-0.2288838779600479,0.12811544153333548],[0.34963857283598776,0.9067072253564691,-0.637635716875718],[0.17143872305381816,-0.6303832216029363,0.24781732833232084],[0.9980861234178401,-0.7683896147543895,-0.7357669647898776],[0.05649409832133123,0.7568087900299791,0.447584389789104],[-0.5583516360181591,0.647844114268449,-0.07908371131319786],[-0.7537829305487014,-0.3110082237170445,0.5820449904922751],[0.05753272750399645,0.45999190908713483,1.4571696879069211]],"biases":[0.14778445253044858,0.1643168270508511,0.9665362564513383]},{"inputNeurons":3,"outputNeurons":1,"weights":[[-0.11478219312983352],[-0.18346424668314743],[-0.8057649561366987]],"biases":[0.4174687932369746]}],"scores":{"1":2320,"2":2320,"3":2520,"4":2520,"5":2320,"6":2320,"7":1300,"8":2320,"9":2320,"10":2320,"11":2720,"12":2320,"13":2320,"14":2520,"15":2210,"16":2320,"17":2320,"18":2430,"19":2320,"20":2320,"21":2970,"22":1300,"23":2140,"24":2320,"25":2320}},{"layers":[{"inputNeurons":0,"outputNeurons":10,"weights":[],"biases":[0.43541302272524574,0.8747221284072061,0.11621324978393677,0.10016727522975949,-0.17747806967986385,0.38100066556747814,-0.0933157921337677,0.012775332033734474,-0.0914804342161252,-0.32996858550902397]},{"inputNeurons":10,"outputNeurons":3,"weights":[[-0.6853252384979424,-0.4231747232281723,-1.1288992885792501],[-0.19614617873903128,-0.7474817460273541,-0.43613706970631866],[0.02849468062289326,-0.44789633854994587,0.3381290740697498],[0.19877210604282694,1.16554350843984,-1.0407708702728877],[-0.004774830792306978,-1.0078243818372687,0.34742140426531376],[1.0218931598510412,-0.04253564501031882,-1.1844326483623833],[0.3042440383006907,0.9220103179539542,0.0210972210323771],[-0.11984703955771775,0.23389706412586353,0.3043632142974698],[0.23039915554952092,0.09110134980467774,0.5342685969731357],[0.39708874368458813,0.26794560536832,1.2801315515147804]],"biases":[-0.7453073455778323,-0.4622415155346413,1.3184336010214006]},{"inputNeurons":3,"outputNeurons":1,"weights":[[0.057283792651341814],[-0.41551833641539904],[-0.4413649870942768]],"biases":[0.2178935291212979]}],"scores":{"1":2320,"2":2780,"3":2320,"4":1300,"5":2520,"6":2320,"7":2880,"8":2320,"9":2320,"10":2320,"11":2220,"12":2320,"13":2320,"14":1300,"15":2320,"16":2320,"17":2320,"18":2320,"19":2320,"20":2320,"21":2320,"22":2320,"23":2320,"24":2520,"25":2320}},{"layers":[{"inputNeurons":0,"outputNeurons":10,"weights":[],"biases":[0.6108209661196532,1.2135654174987631,-0.5034814979307957,0.20344952830617113,0.22620510411999306,0.017672143699919457,0.2924910836782375,-0.09851814486175708,0.04434582212326618,0.07009661380415694]},{"inputNeurons":10,"outputNeurons":3,"weights":[[-0.45679795576504584,-0.2998904403798104,-1.2744990437505264],[-0.20536287256672092,-0.8525140333617305,-0.5387481241685996],[0.34190483428281326,-0.31619192758933856,0.3788460654520852],[0.8238604462630901,1.0301713926472302,-0.9023877708846277],[-0.04334032167091245,-0.6659113933386677,0.8303055553220756],[1.149378153789287,-0.06234329956704051,-1.038473365261567],[0.16495221087075268,1.274991943019647,0.04152811059733125],[-0.28725739572568443,0.6435209051339612,0.8122405790497891],[-0.315508321381059,-0.008092806276016308,0.6673692660820211],[0.41273903104591303,0.49057602604954853,1.6712225762823445]],"biases":[-0.2691505808608696,-0.1307340079704965,1.5064801049628733]},{"inputNeurons":3,"outputNeurons":1,"weights":[[-0.05012169784113954],[-0.5220099587731206],[-0.4384534913156058]],"biases":[0.06822092636985616]}],"scores":{"1":2320,"2":2320,"3":2320,"4":2320,"5":2320,"6":2410,"7":2320,"8":2320,"9":2320,"10":2320,"11":2700,"12":2320,"13":2320,"14":2320,"15":1300,"16":2220,"17":2320,"18":2600,"19":2520,"20":2320,"21":2320,"22":2320,"23":2320,"24":2520,"25":1300}},{"layers":[{"inputNeurons":0,"outputNeurons":10,"weights":[],"biases":[0.6719184014953976,0.7364972499756199,-0.22715709253624836,0.3454856434015874,0.18428465091778481,0.24892522118619265,0.1258406376980135,-0.09020637182009805,-0.6055915189475765,0.1650619780914775]},{"inputNeurons":10,"outputNeurons":3,"weights":[[-0.03686730766805735,-0.2266746787745338,-1.0185368434316042],[0.09893444059409334,-0.9498826087179709,-0.379698235267208],[-0.14285924039782366,-0.23532827001385948,0.6501379237744647],[0.5944094218876128,1.4338390326194266,-1.105450679739365],[-0.7429722879837275,-0.5061489924808064,0.047132753885283374],[1.0939778297049152,-0.31486915383619746,-0.9015410690023646],[0.7864948535639038,1.3755911404635945,0.5926892075678721],[-0.5591758966584297,0.49552266275736645,0.5399155475681944],[-0.13170028238292292,-0.18718851190566516,0.22694985785754493],[0.5832662834504967,0.019290092513233256,1.7965516993811073]],"biases":[-0.22159209991740142,0.2084419969980048,0.906207441015938]},{"inputNeurons":3,"outputNeurons":1,"weights":[[-0.049509995750953106],[-0.6970636941804065],[-0.23820709699432627]],"biases":[0.193775257252485]}],"scores":{"1":1690,"2":2020,"3":1620,"4":1680,"5":1470,"6":1840,"7":1030,"8":1630,"9":1840,"10":3430,"11":1290,"12":1700,"13":1790,"14":1840,"15":1640,"16":980,"17":1840,"18":1460,"19":1720,"20":1340,"21":1760,"22":1860,"23":1660,"24":1610,"25":1330}},{"layers":[{"inputNeurons":0,"outputNeurons":10,"weights":[],"biases":[0.7429350876375921,0.9935103192760171,-0.2844881737602265,0.22785932891835023,0.36450214196089625,0.03980422099050562,-0.010268516297640015,-0.17070403826208005,-0.10412128126626519,0.2694065418887409]},{"inputNeurons":10,"outputNeurons":3,"weights":[[-0.849686776700105,-0.21790644219713218,-1.575278802244507],[0.1141696068693907,-0.9426293921845785,-0.4969849649446527],[0.20226125087082344,-0.3503096065457964,0.48525589938239805],[0.24787955134921508,0.7752856995667061,-1.2574110111760843],[-0.19893972973083374,-0.7031388249666523,0.5199361389654091],[1.0947859368050759,-0.05747312845126189,-1.4198040655896491],[0.2272141780560249,0.972588491600736,0.004130742041911828],[-0.37935197175732416,0.661762571024586,0.652857176742753],[-0.19657584810369452,-0.3152885017483747,0.5813012414375699],[0.339651987980565,0.2606801386134703,1.4539318661425018]],"biases":[-0.7315545743048864,-0.5480330284542987,1.2835791398798486]},{"inputNeurons":3,"outputNeurons":1,"weights":[[-0.6936414836252052],[-0.4337467996002864],[-0.3957733230285376]],"biases":[0.0798917090736746]}],"scores":{"1":1480,"2":1680,"3":1700,"4":1840,"5":1680,"6":1680,"7":1030,"8":1660,"9":1700,"10":1680,"11":1830,"12":1650,"13":1660,"14":1660,"15":1840,"16":1560,"17":1400,"18":1610,"19":1560,"20":1760,"21":1400,"22":2660,"23":1680,"24":1840,"25":1520}},{"layers":[{"inputNeurons":0,"outputNeurons":10,"weights":[],"biases":[0.48632345998100385,0.7388312115790979,-0.2397293121997446,-0.06062299668536697,0.17357731383229225,0.35199686395224616,-0.19278302065452607,-0.09770876282837604,0.08782028535047826,-0.23593596398071126]},{"inputNeurons":10,"outputNeurons":3,"weights":[[-1.045548042575152,-0.030496966042925178,-1.5146601314437844],[0.04690114424584865,-1.1523560735614697,-0.6702123697527518],[0.03703689541870536,-0.308530237059262,0.38654059008125385],[0.5567128237398956,1.0804178957330055,-1.1025922840063382],[0.22788026417074417,-0.7527635383205222,0.44378878355455786],[1.3186859396744712,0.3235471370042959,-1.184818099738303],[0.35511680827304354,1.13891916661276,0.622115414533243],[-0.4496145502285215,0.26687782363840395,0.17467955674530056],[-0.15178556588487307,-0.1453629719758504,0.31606955977280937],[0.3685557494997831,0.04106275952789215,1.3210114601642746]],"biases":[-0.36320897817867204,-0.353284105189048,1.2751097954945558]},{"inputNeurons":3,"outputNeurons":1,"weights":[[-0.31882932073168624],[-0.6699369730227709],[-0.4205220859717304]],"biases":[-0.04431775312567371]}],"scores":{"1":1680,"2":1390,"3":1400,"4":2650,"5":1700,"6":1670,"7":1590,"8":1670,"9":1460,"10":1680,"11":1670,"12":1030,"13":1670,"14":1870,"15":1490,"16":2030,"17":1470,"18":1460,"19":1840,"20":1630,"21":1840,"22":1550,"23":1700,"24":1840,"25":1430}},{"layers":[{"inputNeurons":0,"outputNeurons":10,"weights":[],"biases":[0.06763119320975872,0.13611085575519055,0.5392605814510416,-0.11606758336243633,0.5601400224488426,0.7293914368592265,0.13531731258241977,-1.2384993600882428,0.9750956629543726,0.44806846792408916]},{"inputNeurons":10,"outputNeurons":3,"weights":[[-0.21285908069066128,-0.35335202834037616,-0.391708860238161],[0.1862769798012851,-0.14628747895997685,-0.33904765798932557],[-0.28839552831716886,0.01667612677905686,-0.885049932165358],[0.3759550027075533,0.6711545057567132,-0.6498501664694982],[0.015522765516659126,-0.08033217881587934,0.04103833393342432],[1.1419855369245655,0.15326153909057683,-0.47747677909261377],[0.056585344712397956,0.27675602323154797,0.8433485403963368],[-0.1362406772507408,0.5835573264013063,0.18317933072210046],[-0.6063731842405021,-0.2963547203612149,0.46373130829592385],[0.24050175610575286,0.7629104250872878,1.3980388085102329]],"biases":[0.15547553465509012,0.1435028848035947,1.5982285600228185]},{"inputNeurons":3,"outputNeurons":1,"weights":[[-0.059586373146410604],[-0.44507604747102075],[-0.5352981164040047]],"biases":[0.7688922442975806]}],"scores":{"1":1450,"2":1640,"3":1500,"4":1760,"5":1840,"6":1570,"7":1200,"8":1680,"9":1660,"10":1470,"11":1760,"12":1490,"13":1580,"14":1680,"15":1310,"16":1670,"17":1620,"18":1690,"19":1610,"20":1680,"21":1640,"22":1950,"23":1660,"24":1360,"25":2880}},{"layers":[{"inputNeurons":0,"outputNeurons":10,"weights":[],"biases":[0.2749927312123042,0.45697901150120296,-0.06051557414390757,0.11569651873768366,0.05187177386921704,