{"networks":[{"layers":[{"inputNeurons":0,"outputNeurons":10,"weights":[],"biases":[0.20683329503428544,0.44823408973782286,0.19717280396056666,0.6290686998261199,0.5806454763726351,1.2146318027907386,-0.5687897064786352,-1.4121809134151415,1.6805697394443315,1.2201489734862723]},{"inputNeurons":10,"outputNeurons":3,"weights":[[0.4066793049883204,-0.750780676080103,-1.2772599409021934],[-0.6762235654223097,-0.6259639785134005,-1.011230915353253],[0.19186957248174297,-0.8784998642467416,-1.752409569149993],[-0.6530198870215349,-0.10478567559539656,-0.6536057871781218],[-1.3344947251829213,-0.020396526641980495,-0.6292624555339194],[1.6263143409391994,-0.23614812332899515,-1.6898952903361892],[0.5932079077222808,0.10427990365781473,-0.5240518494064486],[-0.38488283354307723,0.463872805710231,1.3424661629379295],[0.6501803143641778,-1.3934866871023008,0.540635441245264],[-0.30937126915641366,-2.3089899181985354,1.2946441629605154]],"biases":[1.119171829529061,-1.0290894661097816,0.3579472099045486]},{"inputNeurons":3,"outputNeurons":1,"weights":[[0.30777274731406623],[1.1530190429545455],[-0.997471807179391]],"biases":[0.8583100635331625]}],"scores":{"1":2780,"2":4980,"3":2310,"4":2100,"5":2010,"6":3400,"7":5000,"8":3580,"9":1320,"10":3400,"11":4940,"12":4980,"13":2600,"14":3180,"15":1960,"16":1290,"17":2380,"18":4980,"19":4980,"20":5000,"21":4980,"22":4980,"23":1270,"24":2340,"25":2540}},{"layers":[{"inputNeurons":0,"outputNeurons":10,"weights":[],"biases":[0.46769225232358924,0.6362268919116565,-0.1457273751580429,0.3267860723177051,0.3529964314514771,0.9725473361694287,-0.36107019875215435,-1.704868647537998,1.8546774341451657,1.5347782931413778]},{"inputNeurons":10,"outputNeurons":3,"weights":[[0.2445913512367714,0.0474317885578919,-1.5450752579020979],[-0.49362344764557287,-0.4994819246504373,-0.4241416828204056],[0.639740386885278,-1.2404993025841395,-2.187141070662406],[-0.31813649697765484,-0.6510263129537062,-0.309363609146615],[-2.06016003312063,-0.012323330448376121,0.5546968263017753],[1.2921361468763328,-0.37586207737457933,-1.771553074702698],[-0.048880044366392206,-0.28601069870736917,-1.0271786411874821],[-0.44447977726119536,0.8770200801392047,2.015264517141685],[0.38030159829785504,-1.6199095481095709,0.4620335046142282],[-0.36348051596574477,-2.3161917311683204,0.7692283013401706]],"biases":[0.9972419291761745,-0.8843077454687036,0.21298034199869004]},{"inputNeurons":3,"outputNeurons":1,"weights":[[0.3268417788858915],[1.0242967801583287],[-0.8279290383939177]],"biases":[0.3449777908357854]}],"scores":{"1":4980,"2":3380,"3":5000,"4":2740,"5":2340,"6":3400,"7":2310,"8":2340,"9":5000,"10":2400,"11":2110,"12":2400,"13":2530,"14":4980,"15":4980,"16":1520,"17":1320,"18":4980,"19":1320,"20":3940,"21":5000,"22":1330,"23":2090,"24":1300,"25":5000}},{"layers":[{"inputNeurons":0,"outputNeurons":10,"weights":[],"biases":[0.8236442041438743,-0.21440573054711,0.24339668832297826,0.48861901154976783,0.8370205134741007,0.6357928886020902,-0.9180510195653449,-1.2112850111635198,1.6871735718298837,1.127779623375436]},{"inputNeurons":10,"outputNeurons":3,"weights":[[0.6120934002356213,-0.48108618828386196,-1.156913937854299],[-0.8847886813649342,-0.8525167605737534,-0.5952150248571717],[1.051063919661047,-0.8812066680875127,-1.3732152329821792],[-1.112854137434237,-0.08838440833739158,-0.6673997703541259],[-1.6059706009875128,-0.07827403717279396,-0.2437128872600831],[1.5861310359622383,-1.1269779321458224,-2.0512052050527734],[0.31866063469541417,0.5986142067831387,-0.6211854952840402],[-0.5947010116530029,1.0214906743341858,1.1106550162842224],[0.39551194854462884,-0.5820304900421234,0.3372695724867534],[-1.1538587358675145,-1.3236654266768437,1.1050886381823393]],"biases":[1.5119218281445828,-1.0734206407004698,0.19593731238539538]},{"inputNeurons":3,"outputNeurons":1,"weights":[[0.35990246629333766],[1.0394448464226307],[-1.4072439695810965]],"biases":[1.345860902833341]}],"scores":{"1":2600,"2":4980,"3":3400,"4":3400,"5":5000,"6":5000,"7":3600,"8":3580,"9":2340,"10":2380,"11":2020,"12":1280,"13":1320,"14":3600,"15":2800,"16":2400,"17":2310,"18":2600,"19":4980,"20":2140,"21":2180,"22":2520,"23":1300,"24":4980,"25":1940}},{"layers":[{"inputNeurons":0,"outputNeurons":10,"weights":[],"biases":[0.8259539497152183,-0.1983073192786547,0.24134426621116906,0.6449841369637153,1.0212255905696184,0.6892398441221985,-0.7380824094025243,-1.1441177876994166,1.670055553635706,1.2232247005040808]},{"inputNeurons":10,"outputNeurons":3,"weights":[[0.5230645387429602,-0.6250645377236849,-1.4935793384591567],[-0.7668714703909862,-1.0292583334567433,-0.6291905239977429],[1.3284641422379173,-1.1675038525677572,-1.5024639622230442],[-1.431923712520277,-0.09411077592451156,-0.6092715187734558],[-1.659883780551147,0.11137882474946631,-0.09614422386475399],[1.9049945476307415,-1.001246622695687,-2.00875656335979],[0.6535647841718188,0.9818024025461929,-0.44891494909692553],[-0.3693257535251452,1.2712428442947519,1.0276241516412006],[0.22808957806123273,-0.6254858885624661,0.2893980428262336],[-1.2545516116523387,-1.3493463047116299,1.1633160874729669]],"biases":[1.559662594726923,-1.452089100333732,0.40770478804508237]},{"inputNeurons":3,"outputNeurons":1,"weights":[[0.5146124523487126],[0.9615577714440033],[-1.1241795870281823]],"biases":[1.4232579356352126]}],"scores":{"1":3620,"2":1400,"3":1350,"4":1260,"5":5000,"6":1360,"7":5000,"8":5000,"9":3410,"10":2820,"11":2290,"12":1260,"13":2290,"14":2020,"15":5000,"16":2420,"17":4990,"18":2820,"19":1370,"20":3100,"21":2240,"22":3050,"23":2620,"24":3420,"25":5000}},{"layers":[{"inputNeurons":0,"outputNeurons":10,"weights":[],"biases":[0.6486520987249469,-0.4805410566734768,0.4801208954447057,0.6068954527032212,0.9642021491773038,0.34357804969445543,-0.7034388440161574,-1.07669842183806,1.9400781437441765,0.5702231200993212]},{"inputNeurons":10,"outputNeurons":3,"weights":[[0.5762425615753873,-0.019594657081099254,-1.4314346416203465],[-1.1764851551199547,-0.7427671448023178,-0.7946271576093193],[0.8666643230790894,-0.9640460352543373,-1.4688812695811797],[-1.3179411209540506,0.03545018214784448,-1.017983990600902],[-1.8234196075487028,-0.2137451153990724,-0.10086889664251061],[1.605560033180476,-1.1812415292072342,-1.9664852908544632],[0.27777668558183016,0.46724364414954705,-0.9046474045179643],[-0.8542447762426866,0.8887813553948892,1.1058258799459109],[0.17912607284155202,-0.6448908895593246,0.2566963339649499],[-1.155365034797514,-1.3018719841470574,0.7753409060920069]],"biases":[1.5220668818873528,-1.160523718122505,0.18363681228690698]},{"inputNeurons":3,"outputNeurons":1,"weights":[[0.49078393574751833],[1.2373158759368899],[-1.5237046795682145]],"biases":[1.7082018136295787]}],"scores":{"1":1910,"2":2160,"3":2200,"4":4980,"5":3400,"6":3600,"7":2340,"8":4980,"9":2800,"10":1320,"11":2800,"12":1290,"13":2800,"14":2340,"15":5000,"16":3600,"17":1320,"18":2540,"19":1320,"20":4980,"21":1280,"22":2340,"23":4980,"24":2600,"25":5000}},{"layers":[{"inputNeurons":0,"outputNeurons":10,"weights":[],"biases":[0.4197468285345318,0.822512064625921,0.013686186207823766,0.5977266196034189,0.11210627352896202,0.893121948753894,-0.4345172725715849,-1.7629147826124387,2.2636699177407156,1.398378805860098]},{"inputNeurons":10,"outputNeurons":3,"weights":[[0.20996829818789417,-0.09496217102001242,-1.371429929404773],[-0.47986862189817053,-0.40899143318600173,-0.5161127360940164],[0.46051176853144654,-1.1226428686523438,-1.9340190483700774],[-0.5786892625888127,-0.36106199940618955,-0.31722102525744483],[-1.928620356560895,-0.03583305571781542,0.3738489643594258],[1.312341911011812,-0.4220681340534055,-1.3369020471709767],[0.27133461681410526,-0.17931050107711727,-0.9744271864078099],[-0.540363840707781,0.8710070341105676,1.9153176016010607],[0.5213194573386312,-1.4250878705849999,0.3762881589040297],[-0.320655378466677,-2.1636830556332467,0.7393832503597928]],"biases":[1.0232231271596246,-0.907010630618408,0.09700177748462357]},{"inputNeurons":3,"outputNeurons":1,"weights":[[0.24661195695340318],[0.9701586649085292],[-0.8948795455345653]],"biases":[0.41577787082952616]}],"scores":{"1":1320,"2":2110,"3":1300,"4":2580,"5":2360,"6":2780,"7":3400,"8":2340,"9":1320,"10":3200,"11":2800,"12":2200,"13":2020,"14":3400,"15":4980,"16":3600,"17":2320,"18":1290,"19":4980,"20":2800,"21":2340,"22":4980,"23":5000,"24":4980,"25":2540}},{"layers":[{"inputNeurons":0,"outputNeurons":10,"weights":[],"biases":[0.48862678215031974,-0.012624753271886235,-0.1097575869843881,0.7178667688615253,0.9301726638761824,0.647647797634322,-0.8360090386803098,-1.0813104009327832,1.861578897185952,1.0454299673034664]},{"inputNeurons":10,"outputNeurons":3,"weights":[[0.13455351224087386,-0.08486426236420166,-1.0302873848638323],[-0.6241928525333589,-0.9250809971563059,-0.698409507987708],[0.6348098966430509,-0.3280058847539314,-1.110580217421837],[-0.6606889619131725,0.44475201757204424,-0.9521444619582704],[-1.5147943891401259,-0.07239798243163914,-0.5805381622338018],[1.8051545354716216,-1.138682287218615,-2.0491521019075893],[0.28734548534728754,0.20876317514021728,-0.3592936345831257],[-0.2645514151535023,0.9762377532983602,1.3283731748114385],[0.3801026915987131,-0.79227781169973,0.24832551666120345],[-0.723021861616705,-2.313779277986056,0.9132936090223286]],"biases":[1.2050706021226572,-0.504635081426245,0.13768999985889682]},{"inputNeurons":3,"outputNeurons":1,"weights":[[0.3904870789812848],[1.022281251215127],[-1.4634477569913198]],"biases":[1.4052697431976364]}],"scores":{"1":2000,"2":4980,"3":5000,"4":4980,"5":1280,"6":2600,"7":3600,"8":2400,"9":3580,"10":1280,"11":3400,"12":2000,"13":5000,"14":4980,"15":1960,"16":2600,"17":2320,"18":1290,"19":2000,"20":1260,"21":2600,"22":4940,"23":1320,"24":2720,"25":2000}},{"layers":[{"inputNeurons":0,"outputNeurons":10,"weights":[],"biases":[0.5891243304500118,-0.006766886048753112,0.07039678027314628,0.9157135164378083,1.0172759090797934,0.6870458553050982,-0.9031893772905258,-1.2374802762972041,1.81893892345622,1.3039114593761902]},{"inputNeurons":10,"outputNeurons":3,"weights":[[0.4006253905968773,-0.6810719626219766,-1.1614700474130382],[-1.0437236992327241,-1.1129666993520912,-0.6570680725602343],[1.239383415801803,-0.8350266003809161,-1.839066508161933],[-1.0988472738851507,0.1621574674413347,-0.5469071146835889],[-1.5695319440731859,-0.02337320347917162,-0.1275853176279912],[1.5258807077826406,-0.9773683137083782,-2.1290142848805256],[0.051235754022288305,0.47777267792895806,-0.5922542065318345],[-0.6167498742902929,1.3124887536551213,1.3630706836190245],[0.4010663241983552,-0.44771455436270235,0.7235913075765925],[-1.048086813686022,-1.419895119980169,0.8788766577882032]],"biases":[1.6239406182964704,-0.8223523355082607,0.3062740127268521]},{"inputNeurons":3,"outputNeurons":1,"weights":[[0.6317840060625821],[1.337044147772988],[-1.0702035365965326]],"biases":[1.2214943754840752]}],"scores":{"1":3600,"2":2200,"3":3380,"4":1310,"5":2200,"6":2580,"7":3380,"8":2600,"9":5000,"10":2540,"11":1910,"12":5000,"13":1290,"14":1300,"15":5000,"16":3400,"17":2800,"18":1270,"19":2800,"20":2580,"21":2800,"22":5000,"23":3400,"24":1320,"25":2400}},{"layers":[{"inputNeurons":0,"outputNeurons":10,"weights":[],"biases":[0.2011031630196947,0.952930474794212,-0.12210323888169795,0.848984208067151,0.1146983193432852,0.6518786220517339,-0.208228572248588,-2.0053870710465036,2.6605983852137354,1.4970193173316582]},{"inputNeurons":10,"outputNeurons":3,"weights":[[0.018894417206519132,-0.083061370642599,-1.725523557696377],[-0.46774148075483346,-0.22507346108523027,-0.5816074334538146],[0.37366063458826215,-0.904808938106665,-1.4946617004564349],[-0.5441890006830192,-0.33634283266942444,-0.37505182302267126],[-1.8649052757327955,0.2791825674154958,0.48726676355777254],[1.046946965649805,-0.8897799122601227,-1.626293509129108],[0.2992958503225682,-0.30963124357729244,-0.9387029588427811],[-0.894677261284579,1.0116940125836988,1.887371271247721],[0.5761909415898263,-1.2596349383703171,0.34990354324824846],[-0.10114118825888552,-2.1792957379328843,0.9175350599929435]],"biases":[0.772863903965491,-0.8775325497118348,0.17725098092912694]},{"inputNeurons":3,"outputNeurons":1,"weights":[[0.2271205719355202],[0.9623761966542703],[-1.0428036242261778]],"biases":[0.3311274731608816]}],"scores":{"1":5000,"2":2480,"3":2560,"4":2130,"5":2580,"6":1300,"7":4980,"8":4980,"9":2030,"10":1320,"11":2110,"12":2400,"13":2110,"14":4980,"15":3200,"16":3380,"17":4980,"18":2110,"19":1300,"20":1290,"21":2380,"22":3380,"23":2150,"24":1330,"25":3400}},{"layers":[{"inputNeurons":0,"outputNeurons":10,"weights":[],"biases":[0.5612965189355457,0.6667403207034178,0.0204867819427334,0.8120655695395937,0.48524776843583517,0.9818130733166918,-0.3563694217116685,-1.575510293987683,1.7934729569796075,1.1913944046177039]},{"inputNeurons":10,"outputNeurons":3,"weights":[[0.2803369241315048,-0.36040729233601976,-1.3544660851113124],[-0.5004381087814022,-0.5566199669811356,-0.8236946558840255],[0.39155327129835443,-1.1900415338384691,-1.7085307946046284],[-0.63963111945561,-0.21197821101375092,-0.4285823085048876],[-1.702836825054681,0.04207339138960961,-0.17550269823390502],[1.2405374595685277,-0.2246505381518622,-1.453042423082566],[0.2959934187974537,0.1076892071622641,-0.721037736402088],[-0.46093582281987633,0.6170277303534643,1.6188061686128108],[0.5242717817027229,-1.1029961145501663,0.3353234807358725],[-0.5495492561833967,-2.1256702616105385,0.8825098945846597]],"biases":[0.8638571325423217,-0.755620189977789,0.35573842954339807]},{"inputNeurons":3,"outputNeurons":1,"weights":[[0.26867084240708283],[1.3203887745010807],[-1.2345912568933677]],"biases":[0.5976930787347909]}],"scores":{"1":4980,"2":4980,"3":1320,"4":1270,"5":2160,"6":1270,"7":2600,"8":2560,"9":5000,"10":2800,"11":2340,"12":4980,"13":4980,"14":2600,"15":1270,"16":2780,"17":2180,"18":3400,"19":1960,"20":2800,"21":2340,"22":1260,"23":1280,"24":3380,"25":2200}},{"layers":[{"inputNeurons":0,"outputNeurons":10,"weights":[],"biases":[0.51513447919397,-0.09363158990302797,-0.2462731959749317,0.743396080949126,0.8174519848960742,1.0955586937129351,-1.1229260983844962,-1.1581899789544299,2.0534899159162916,1.097091980907474]},{"inputNeurons":10,"outputNeurons":3,"weights":[[0.5094383348056664,0.10706499738100547,-0.8115779444896082],[-0.38735552290688846,-1.5521899226827907,-0.6543688871855898],[0.4786552291442979,-0.22611150585989503,-1.00275712130904],[-0.6846593443444215,0.3613018731470121,-1.150815213692613],[-1.7726071731876392,-0.1782769539935367,-0.5162989363496215],[1.8380112670170714,-1.1452906222161956,-1.9526804107738305],[0.4166865039466533,0.14473934061486307,-0.7604667317858059],[-0.5614623246899854,1.1900520732712692,1.0293348272270464],[0.3372689373283976,-0.5473405738908257,0.2698586246280009],[-0.6925309918537819,-2.5436814473318297,0.8738907075992163]],"biases":[1.0388250754526847,-0.2814715440268724,0.19856251871709213]},{"inputNeurons":3,"outputNeurons":1,"weights":[[0.42485721633230517],[1.0091023742767566],[-1.937418604673975]],"biases":[1.6455637409626438]}],"scores":{"1":1270,"2":5000,"3":2490,"4":2580,"5":3400,"6":5000,"7":2800,"8":2040,"9":2110,"10":2510,"11":2510,"12":2540,"13":4980,"14":1310,"15":1400,"16":4980,"17":1290,"18":2200,"19":3380,"20":2540,"21":1320,"22":1320,"23":1300,"24":1710,"25":4980}},{"layers":[{"inputNeurons":0,"outputNeurons":10,"weights":[],"biases":[0.5290694184710151,-0.10462453024524418,0.272880202394362,0.664129244055659,1.112592776616754,1.0439358222403146,-0.4254774458168599,-1.0739812984318804,1.7420783001440863,1.5182900576299458]},{"inputNeurons":10,"outputNeurons":3,"weights":[[0.4671283361844117,-0.9761522483184942,-1.666000135402944],[-0.6141255959615329,-1.0210567895371443,-0.5004574759697459],[1.3935810338056287,-1.2647922464876242,-1.521430992943717],[-1.2304678216421943,-0.15851225847823874,-0.5113250596960087],[-1.59813436398605,0.045851262892292924,-0.36057311602112885],[1.8625476377761425,-1.006547471743586,-2.0738709571201897],[0.6571861241700904,0.7636692224980548,-0.16162214034236655],[-0.4024085273058418,1.2630366968228197,1.1553687567530027],[0.10338195530550512,-0.41027717584557755,0.4537116171746549],[-1.4569905018210008,-1.6626902551649432,1.0213741788694923]],"biases":[1.9330528224547958,-1.330661997517879,0.5510412465420751]},{"inputNeurons":3,"outputNeurons":1,"weights":[[0.5246730829329456],[1.1974027421440854],[-1.3464138926797187]],"biases":[1.39279745695042]}],"scores":{"1":2520,"2":2320,"3":2320,"4":2720,"5":2720,"6":3050,"7":2320,"8":2320,"9":2320,"10":2360,"11":3720,"12":2320,"13":2320,"14":2320,"15":2320,"16":2520,"17":2320,"18":2520,"19":2520,"20":2320,"21":2320,"22":2920,"23":2700,"24":2320,"25":5420}},{"layers":[{"inputNeurons":0,"outputNeurons":10,"weights":[],"biases":[0.1675831744536864,1.2238263485501577,-0.16420593009389503,0.46593965564865164,0.04077378287018002,0.9094008371147402,-0.5160416277461681,-2.0906880278570235,3.139734310024752,1.6539283824503355]},{"inputNeurons":10,"outputNeurons":3,"weights":[[-0.021831957709405374,-0.014240852626121028,-1.57248911115474],[-0.6217428986199417,-0.01760424343239425,-0.5305212207838809],[0.3449121781211283,-0.8823450756315557,-1.3220462421502237],[-0.7356236892756802,-0.18465493975113867,-0.0463844889768294],[-1.5640458831076443,0.41339384294001924,0.6236936313999932],[1.0154356401776812,-0.7022921963849567,-1.7146661391976528],[0.6716509077398229,-0.40600391946457726,-0.8631207794000488],[-0.9250675398324821,1.0390098319895216,1.6418737965309858],[0.21169901460033258,-0.9064987101138897,0.1599273008228405],[0.37253829647689757,-2.106333032018939,0.810790330952237]],"biases":[0.7344568697921255,-0.8256294366498333,0.06636561124016861]},{"inputNeurons":3,"outputNeurons":1,"weights":[[0.3615629734774437],[1.070698092657405],[-0.8891578758897571]],"biases":[0.3653970439164283]}],"scores":{"1":2500,"2":2320,"3":2600,"4":2520,"5":2320,"6":2320,"7":2320,"8":2320,"9":2320,"10":5420,"11":2520,"12":2320,"13":2320,"14":2190,"15":2320,"16":2320,"17":4240,"18":2720,"19":2320,"20":2200,"21":2520,"22":2320,"23":2320,"24":2320,"25":2520}},{"layers":[{"inputNeurons":0,"outputNeurons":10,"weights":[],"biases":[0.9149933092985965,-0.6392073376055651,0.459138792790863,0.647265057608271,0.9085267606792536,0.6549859921223227,-0.5757662579239918,-0.9851176157881562,1.7978140577825055,0.6771439240277044]},{"inputNeurons":10,"outputNeurons":3,"weights":[[0.5623729142564665,-0.5254656135023537,-1.2535753000913221],[-1.151471504108294,-0.849406861804803,-0.8168107751838091],[0.6122691061380783,-0.900939588401881,-1.7021538489638606],[-1.1224597739625513,0.026819935477917157,-0.9394086178723876],[-1.8298579501531906,-0.5589313329964148,0.07789493255881089],[1.6993850092299019,-1.0214041839189354,-2.4502540480601662],[-0.13865102758871756,0.4532914450163115,-1.1314764300180857],[-0.9599734865298427,0.8756160688636451,0.8148852334290355],[0.1406513594491276,-0.6276883243771567,0.37768058226293033],[-0.820117251697622,-1.416847162660257,0.7914315337443613]],"biases":[1.4274033285794763,-0.8472886269942368,0.3814124247002551]},{"inputNeurons":3,"outputNeurons":1,"weights":[[0.38625350961952126],[1.3098873750430142],[-1.985453893085933]],"biases":[1.5088141285499121]}],"scores":{"1":2320,"2":2500,"3":2320,"4":2320,"5":2520,"6":2320,"7":2320,"8":2320,"9":2320,"10":2320,"11":2700,"12":5210,"13":2320,"14":2500,"15":2920,"16":2320,"17":2320,"18":2320,"19":2320,"20":2520,"21":3720,"22":2320,"23":2320,"24":2320,"25":2520}},{"layers":[{"inputNeurons":0,"outputNeurons":10,"weights":[],"biases":[-0.21047711309527736,1.0722262953126624,-0.1807357775127871,0.7502564526934585,0.10752596901985337,0.8773388200150533,0.27961100387255566,-1.9947204603042648,2.625276538531158,1.810812927106394]},{"inputNeurons":10,"outputNeurons":3,"weights":[[0.2973137886234919,-0.3214302494181984,-1.3470653302718456],[-0.3964419087192631,-0.14176257834216321,-0.5946765680105855],[0.8288990409844103,-0.9782494786140729,-1.5441200434792919],[-0.3970023572384417,-0.27360859321608216,-0.2340193484602248],[-1.4883149597199024,0.5559913359181878,0.4149350791062072],[0.865920715067801,-1.2508979881648836,-1.7084121407348558],[0.19629494331375225,-0.12947022969645147,-1.0582405195013411],[-0.9873340743267661,1.2838970770656317,1.3840000140492008],[0.8252244407269297,-1.2310165599543483,0.22347521149480004],[-0.3716690855726758,-1.9580555432629712,1.0273016195259534]],"biases":[1.0478073309352416,-0.8489910288592255,0.2688698317959379]},{"inputNeurons":3,"outputNeurons":1,"weights":[[-0.026852296206401727],[0.8335806829481422],[-1.4348905317360612]],"biases":[0.010443581294071802]}],"scores":{"1":2320,"2":2420,"3":2520,"4":2320,"5":2220,"6":2320,"7":2190,"8":2520,"9":2320,"10":2520,"11":2320,"12":2320,"13":2610,"14":2320,"15":2320,"16":5810,"17":2520,"18":2500,"19":2320,"20":2320,"21":2920,"22":2210,"23":3120,"24":2500,"25":2320}},{"layers":[{"inputNeurons":0,"outputNeurons":10,"weights":[],"biases":[0.18720910660788448,0.9631925348262314,-0.018175860310054234,0.8918695306632113,0.2037925940897845,0.5073562796231881,-0.440123421073344,-1.9175151265812445,2.7321071017942207,1.5203186211216917]},{"inputNeurons":10,"outputNeurons":3,"weights":[[-0.02965010327583579,-0.2784097920559635,-1.6701601680402067],[-0.34163052540631367,-0.06973634526482114,-0.7156961572710319],[0.3191202568583476,-0.7560287451969034,-1.519133709337812],[-0.4891578231653007,-0.7872193000987855,-0.03794719592359286],[-2.018692119582062,0.3007023383803533,0.32687420465498496],[1.0137830521480777,-0.8208808934022347,-1.6057626406394212],[0.17872011318657627,0.23071169595660757,-1.2409533233514312],[-0.6498775255547362,0.7227431749727741,1.8142672504468758],[0.704916163843673,-1.406926778776438,0.32219727471544524],[-0.18306398663065448,-2.12124520330621,0.778174940933868]],"biases":[1.004213814715156,-0.9492246383522117,0.19125908107216083]},{"inputNeurons":3,"outputNeurons":1,"weights":[[-0.1797438093444224],[1.0032984557557627],[-0.8752353435716792]],"biases":[0.5169720115619596]}],"scores":{"1":2320,"2":2320,"3":2320,"4":2390,"5":2320,"6":2320,"7":2320,"8":2520,"9":3400,"10":5520,"11":2320,"12":2320,"13":2320,"14":2320,"15":2320,"16":2320,"17":2520,"18":2320,"19":2850,"20":2520,"21":2520,"22":2520,"23":2320,"24":2320,"25":2320}},{"layers":[{"inputNeurons":0,"outputNeurons":10,"weights":[],"biases":[0.7435908620635538,-0.2878920945742337,0.14196959081117447,0.6504904520738957,0.9119232566456005,0.47749716741929704,-1.042083345960009,-1.0940181992476716,1.8504873193914135,1.2242557564463739]},{"inputNeurons":10,"outputNeurons":3,"weights":[[0.6531223883410863,-0.4671571271417141,-1.3331844421129486],[-0.9067037378456699,-0.897182719637685,-0.38404243750222633],[1.1865574593256423,-0.8627245215805115,-1.2048658800187124],[-1.2501934525141216,0.02072358403024953,-0.9292180922297899],[-1.9513332175245186,-0.08129040886879316,-0.01611634734252146],[1.6973472983049847,-1.1982617250053835,-2.339221883822723],[0.4369527258243169,1.0074102557453688,-0.23693409478861635],[0.11185737718081384,1.2028304050551257,1.2872114571487705],[0.05534917685653484,-0.6203138543921373,0.2907110188130136],[-1.5911935166627305,-1.3121362143233073,1.2349256759433878]],"biases":[1.4187310077549746,-1.3122553748131294,0.26476707852299985]},{"inputNeurons":3,"outputNeurons":1,"weights":[[0.5728934519793047],[1.1721368839443416],[-1.3817894756779994]],"biases":[1.0905800238024217]}],"scores":{"1":2320,"2":2320,"3":2320,"4":2320,"5":6650,"6":2320,"7":1300,"8":3120,"9":2600,"10":2520,"11":2520,"12":2320,"13":2320,"14":2320,"15":2320,"16":2520,"17":2320,"18":2320,"19":2320,"20":2520,"21":2320,"22":2320,"23":2700,"24":2520,"25":2420}},{"layers":[{"inputNeurons":0,"outputNeurons":10,"weights":[],"biases":[0.013814591163237633,0.6669170843605281,-0.3107504532859198,0.9804139332269959,0.3558092835666544,0.8058068629582607,-0.11324003165196414,-2.3929709704975024,2.439050243823911,1.4271139077335526]},{"inputNeurons":10,"outputNeurons":3,"weights":[[0.16323317225182246,-0.2631339562575975,-1.5012382804857223],[-0.14328439144748117,-0.4329513821134341,-0.5065940816548314],[0.19535214141307,-1.1368494432504734,-1.5595937983429955],[-0.9410658767530864,-0.43319128584690686,-0.3992466163660712],[-2.3652695020922367,0.4552854487235084,0.7036553064973139],[0.9905658293951859,-0.6958101140604518,-1.5048462866615695],[0.15298240589873066,-0.41327459031737146,-0.9749873312374966],[-1.0830077199707568,0.7214090987481285,2.1295044172669706],[0.6521057793534495,-1.3236258558553464,0.20568160291397802],[-0.17330263177383454,-2.042934721698706,0.8428983411579996]],"biases":[0.8856877936589403,-1.298518448272385,0.07048330674810394]},{"inputNeurons":3,"outputNeurons":1,"weights":[[0.1571041004467521],[1.3671866198281943],[-1.245411127568192]],"biases":[0.06880338612679637]}],"scores":{"1":2220,"2":2340,"3":2340,"4":2340,"5":2540,"6":2340,"7":2340,"8":1290,"9":2340,"10":1290,"11":2470,"12":2340,"13":1320,"14":4980,"15":2340,"16":2340,"17":2340,"18":2340,"19":2350,"20":2340,"21":5000,"22":2360,"23":2340,"24":2340,"25":4980}},{"layers":[{"inputNeurons":0,"outputNeurons":10,"weights":[],"biases":[0.19824587000629024,0.9630774549049589,-0.3961878730550785,0.7824628282449935,0.08602954569460157,0.31663488483972224,0.01750227661758988,-2.0418592546182794,3.198569778928179,1.3107838031347998]},{"inputNeurons":10,"outputNeurons":3,"weights":[[0.2612698866158443,-0.28217401648815854,-1.7816333516512082],[-0.49506111424993043,-0.326414135407198,-0.7329268894493146],[0.2613792114721868,-1.2096401905637766,-1.2667550572451098],[-0.4705144230243199,-0.23103865706583782,-0.5840204784179475],[-1.7083879426325124,0.29955607116423844,0.25617797853936],[1.0615598462661253,-0.645427448818372,-1.6674878799460466],[0.4183581010402986,0.23293688334033813,-0.4773868622258854],[-1.2736291378269993,0.9875329202611478,1.7451688775720633],[0.1969354542167318,-1.345997968791298,0.08726126876767681],[-0.022741096453238394,-2.1737680330261426,0.551683318227326]],"biases":[0.9672721551303767,-0.7028804212632432,0.32213190726810503]},{"inputNeurons":3,"outputNeurons":1,"weights":[[0.19393772155587213],[0.9857283570312165],[-1.0102826409621095]],"biases":[0.2611257835341257]}],"scores":{"1":2320,"2":2320,"3":2320,"4":3120,"5":2320,"6":2320,"7":2320,"8":2520,"9":3820,"10":2320,"11":2320,"12":2320,"13":5090,"14":2520,"15":2320,"16":2320,"17":2320,"18":2320,"19":2320,"20":2320,"21":2190,"22":2320,"23":2320,"24":2520,"25":2320}},{"layers":[{"inputNeurons":0,"outputNeurons":10,"weights":[],"biases":[0.7166729266585044,-0.3321433761593572,0.46735582508527385,0.23347304712782307,0.7816779204267139,-0.044581996899672016,-0.7015589053547742,-1.0131737398157608,1.7850892514644048,0.6001988549919673]},{"inputNeurons":10,"outputNeurons":3,"weights":[[0.6048886642726454,-0.16978765818531494,-1.2097816112770572],[-0.9912471935916269,-0.6281367058420357,-0.7954238509478427],[0.5967168711699791,-0.8871063519173799,-1.5402586239822658],[-1.233481504730349,0.07654469863685481,-1.0210019170808782],[-1.9981431028882048,0.03447396714678533,0.1311218338202734],[1.652953946385276,-1.5830060526752883,-1.9825244087604743],[0.19432715183775656,0.29596766908978556,-0.872182291499302],[-0.9965424270359262,1.1799604307998857,1.3894986376724352],[-0.08849884917919887,-0.488733152890928,0.12815682073444937],[-1.256730288267864,-1.3444630868970804,0.6656219495669083]],"biases":[1.1414498042609658,-1.1869093632790924,-0.05165977458632198]},{"inputNeurons":3,"outputNeurons":1,"weights":[[0.7215656552884515],[0.8747274771383399],[-1.7338560359077841]],"biases":[1.790589316030219]}],"scores":{"1":3650,"2":2320,"3":2320,"4":2320,"5":2920,"6":2320,"7":2320,"8":2210,"9":2320,"10":2520,"11":2320,"12":2320,"13":2320,"14":2320,"15":2320,"16":2320,"17":2320,"18":2320,"19":3650,"20":2720,"21":2320,"22":2320,"23":2900,"24":2320,"25":3390}},{"layers":[{"inputNeurons":0,"outputNeurons":10,"weights":[],"biases":[0.3535936042980641,1.036853427241134,0.2727042185198484,0.2688377505783665,0.06081867089180054,0.6660655384400752,-0.40532974785782017,-1.8877702906390774,2.6819148965956296,1.3746124740429606]},{"inputNeurons":10,"outputNeurons":3,"weights":[[0.7673699277998398,-0.24777380318541214,-1.5533186962856715],[-0.5863767066497619,-0.5652550127797402,-0.23121224301286464],[0.5513675343667883,-0.8237365113476276,-1.7962880811826816],[-0.43564683558359873,-0.42779504449687433,-0.4178924050917816],[-2.3601241713058982,0.4843157944165957,0.7219755854206183],[1.277731277009132,-0.7217925143029216,-1.2417065355815724],[0.44892993790363517,-0.2281860694292029,-0.9600614246931585],[-0.63965158116928,1.0291974306915979,1.9505980138349936],[0.5067570418767976,-1.3519412035177072,0.6107602574003429],[-0.22900536881831784,-2.5571263627734613,0.4766762775041194]],"biases":[1.167099029250317,-0.5495377224014989,0.043230249351667735]},{"inputNeurons":3,"outputNeurons":1,"weights":[[0.393262305371761],[0.9347730800116953],[-0.9367283153752893]],"biases":[0.6255523038325783]}],"scores":{"1":2320,"2":1940,"3":2320,"4":2520,"5":2520,"6":2320,"7":2320,"8":2320,"9":2320,"10":2320,"11":2500,"12":2520,"13":2320,"14":2320,"15":2320,"16":2320,"17":2320,"18":3390,"19":3720,"20":2320,"21":2320,"22":2320,"23":4360,"24":2520,"25":2600}},{"layers":[{"inputNeurons":0,"outputNeurons":10,"weights":[],"biases":[0.17380459853339134,0.5935483698856547,-0.1623342710931357,0.6978542234831555,0.02802462910736038,0.8451210666422966,-0.4576330135621156,-2.093509287971264,2.475621699752651,1.542985869530337]},{"inputNeurons":10,"outputNeurons":3,"weights":[[-0.03862779288367412,-0.04280082615911791,-1.618130541423346],[-0.7506611321511195,-0.23841661302315914,-0.4133766092985356],[0.35817917265042937,-1.2502761058304297,-1.9217228198063134],[-0.5363557487287524,-0.05233834938407883,-0.28079168674323635],[-2.269088151650805,0.34590565882882746,0.5697810313781202],[1.467406758799664,-0.8055899482896989,-1.6658983435212475],[0.45500167540924263,0.03270162933863202,-0.9078721869167674],[-1.3304691409793867,1.0948696265796876,2.0200484732472477],[0.5359665151731932,-1.1831336252146663,0.5213423936437477],[0.18124113570541073,-2.3838315111826898,0.7574742725146777]],"biases":[0.8790319709192989,-0.5936659008126541,-0.20705033768991216]},{"inputNeurons":3,"outputNeurons":1,"weights":[[0.2410700620947841],[0.9866572689553362],[-0.876069436708016]],"biases":[0.6388847164121884]}],"scores":{"1":2320,"2":3020,"3":2320,"4":2320,"5":2320,"6":2920,"7":3450,"8":2320,"9":2320,"10":2320,"11":2320,"12":2520,"13":2340,"14":2320,"15":2320,"16":2320,"17":2720,"18":2320,"19":2320,"20":2520,"21":2320,"22":2320,"23":4240,"24":1300,"25":2520}},{"layers":[{"inputNeurons":0,"outputNeurons":10,"weights":[],"biases":[-0.38930990002156185,0.6448273511256678,-0.3144856335598762,0.3163096653852015,0.04729088317476057,0.5596358091707745,-0.2633932787440172,-1.8028720552983954,2.4006596506701645,0.9548426028201674]},{"inputNeurons":10,"outputNeurons":3,"weights":[[0.23091694173314378,0.30734211474132034,-1.2712707522609015],[-0.6763116591347531,-0.45588227653140123,-0.26495942342040313],[0.4225803357965863,-1.2278694030926258,-1.9815864422705556],[-0.6891069467180573,-0.41082894966497785,-0.38760629634853344],[-1.516187948139319,0.23641292922325602,0.25212990492891235],[1.1323485486054972,-0.6457271978501107,-1.322980919077405],[0.4136214997106892,-0.18004884607676128,-0.7988039098306122],[-0.6548177058334282,0.776562599778911,2.012715287577629],[0.5766275164866612,-1.2517390829438666,0.1656993172831905],[-0.2709130697677843,-2.1807482560363227,1.4060594344242787]],"biases":[1.0515647190791153,-0.8684888296791771,0.49946597598735143]},{"inputNeurons":3,"outputNeurons":1,"weights":[[0.1473260623810343],[0.928736443397863],[-0.7632631635176302]],"biases":[0.6109620538514622]}],"scores":{"1":2520,"2":2320,"3":2320,"4":2320,"5":2320,"6":2320,"7":2720,"8":2720,"9":2320,"10":3050,"11":2720,"12":2320,"13":2320,"14":2320,"15":2700,"16":2520,"17":2320,"18":2320,"19":2220,"20":2320,"21":3520,"22":2520,"23":2320,"24":2320,"25":2320}},{"layers":[{"inputNeurons":0,"outputNeurons":10,"weights":[],"biases":[0.5183509921966509,0.9282771663416415,-0.05533856072123356,0.6950082324406333,0.10604965919944308,1.1261497482068747,-0.5284624666268594,-1.3405916169449599,2.10999285915486,1.0109481531613362]},{"inputNeurons":10,"outputNeurons":3,"weights":[[0.056064364024896673,0.03712001818787117,-1.5906037184732316],[-0.244298463817042,-0.5298222623644386,-0.46705308128420764],[0.5541968382650737,-1.0576644465071134,-1.5152738134327137],[-0.30003646375369997,-0.35402147584345234,-0.3673108990606337],[-1.5691068772786485,-0.06467098221778694,0.4088554685296958],[1.4439790234387926,-0.39828021693594823,-0.9849596285386706],[0.20309423724062786,-0.17363943971317536,-1.22797803593431],[-0.4025245359534022,0.9269646557725795,2.245478407378153],[0.4746300957603297,-1.5326192595368777,0.3787254705468797],[-0.3753868364715436,-2.211403109322088,0.6409957739211515]],"biases":[0.8663250641636804,-1.2100741009955143,0.2843985393346642]},{"inputNeurons":3,"outputNeurons":1,"weights":[[0.05985436915153483],[0.9207157198168832],[-0.711529995621141]],"biases":[0.3006599450753591]}],"scores":{"1":2920,"2":2320,"3":2520,"4":2320,"5":2320,"6":3920,"7":1310,"8":2320,"9":3120,"10":2920,"11":2520,"12":2320,"13":2320,"14":2320,"15":2920,"16":2430,"17":2320,"18":2320,"19":2320,"20":2400,"21":2320,"22":2320,"23":2320,"24":2520,"25":2320}},{"layers":[{"inputNeurons":0,"outputNeurons":10,"weights":[],"biases":[0.38786090484549407,1.167409331925657,0.08332128640737219,0.6067386848759206,0.11227480756561743,1.0433917624136826,-0.46463360837390755,-1.3492136709703497,2.1921565511809007,1.6949443437121794]},{"inputNeurons":10,"outputNeurons":3,"weights":[[0.3020328015830288,-0.04619522105513722,-1.3832911009898707],[-0.7953310333008166,0.09007121041625499,-0.5187316359477302],[0.26439358767385207,-0.9396736161265393,-1.5005014184622474],[-0.2691291647320379,-0.42696788496451726,-0.08199112099280845],[-1.728276814448882,-0.04342999705205849,0.5736631420242605],[1.4736733303856215,-0.18347373564797242,-1.54960601782177],[0.18748540935856306,-0.45519466776619644,-0.8315906140000123],[-0.6307333119965846,0.8810015552034537,2.281292328359496],[0.5404209386119511,-1.418146242963528,-0.03806345115388887],[-0.3481056917325987,-2.241633983712961,1.0938595911886602]],"biases":[0.9874152336103653,-0.9115898504907425,-0.013519319202593846]},{"inputNeurons":3,"outputNeurons":1,"weights":[[-0.29056764762328635],[1.0861308610585527],[-0.8950730194937662]],"biases":[0.32693507674524425]}],"scores":{"1":2320,"2":2320,"3":2320,"4":2520,"5":2320,"6":2520,"7":2320,"8":2320,"9":2520,"10":2520,"11":2520,"12":2320,"13":2320,"14":2320,"15":2320,"16":2320,"17":2320,"18":2320,"19":2320,"20":2320,"21":2320,"22":3120,"23":3400,"24":3120,"25":2320}},{"layers":[{"inputNeurons":0,"outputNeurons":10,"weights":[],"biases":[0.2265616237686118,1.249302184094573,0.2587305970080285,0.7271065267338372,0.20477045311314257,0.8875607009206111,-0.597566496833779,-1.3841859642056618,2.3174519249141645,1.4368556432305732]},{"inputNeurons":10,"outputNeurons":3,"weights":[[-0.02188897806619844,0.18197205235242941,-1.2890674845568757],[-0.32735140863656154,-0.2991341737758078,-0.29902757177220046],[0.540626803290628,-0.8958130342401983,-2.058839600689555],[-0.8049194049874829,-0.257398174256496,-0.37420258248492233],[-2.1364883379544586,-0.17945511626302438,0.4190155182712086],[1.0112209006177157,-0.461699925420058,-1.3994403806941875],[-0.0123914430355615,-0.4489458667375361,-0.6201016848809802],[-0.37006379609684975,0.4772695769406516,1.4821108976847386],[0.5178557117513504,-1.6114920615512736,0.3031332557421821],[-0.40269513841508275,-2.456881590913513,0.726201316068635]],"biases":[1.0506344745151512,-1.0457705799197337,-0.13541891102741363]},{"inputNeurons":3,"outputNeurons":1,"weights":[[0.03958953250648187],[1.3316242672026488],[-0.7043953464442114]],"biases":[0.5679055227173124]}],"scores":{"1":2320,"2":3050,"3":2320,"4":2320,"5":2320,"6":2320,"7":2520,"8":2520,"9":2320,"10":2320,"11":2320,"12":2320,"13":2600,"14":2320,"15":2320,"16":3120,"17":2320,"18":2710,"19":2320,"20":2520,"21":2720,"22":2320,"23":2320,"24":2320,"25":2600}},{"layers":[{"inputNeurons":0,"outputNeurons":10,"weights":[],"biases":[0.3751000902821576,1.0675531543109589,-0.16388058103540662,0.7750845975981623,0.04430032105066643,0.8234477256742357,-0.12822661175312422,-2.13864912203833,2.518032191689776,1.4389714196448269]},{"inputNeurons":10,"outputNeurons":3,"weights":[[-0.19319212481816073,0.06239787242116154,-1.8813857085360612],[0.10902451675738278,-0.3261447300829609,-0.7075358168341543],[0.262531076703454,-1.2307518214843394,-1.2601836147451],[-0.31553581135524256,-0.2388848652861701,-0.46116071772457484],[-1.9339129765268739,0.479869915996298,0.23145810346434126],[1.2676642086905543,-0.7471426349549236,-1.483317499348957],[0.5513403616963426,-0.5521494234813412,-0.8767948123389301],[-1.1153246197380517,1.0124962927668297,2.0393409884002454],[0.4916596103777958,-1.1109983243106223,0.6592760026712439],[0.09614827943613677,-2.3533184534255622,1.180227271498167]],"biases":[1.0800127891771254,-0.7674490695976467,0.26660403376114955]},{"inputNeurons":3,"outputNeurons":1,"weights":[[0.41620763146913026],[0.5061262245946947],[-1.326277282584777]],"biases":[0.371716957619084]}],"scores":{"1":2520,"2":2320,"3":2520,"4":2320,"5":3650,"6":2700,"7":2320,"8":2320,"9":2210,"10":2320,"11":2320,"12":2320,"13":2320,"14":2520,"15":2220,"16":2320,"17":2320,"18":2320,"19":3720,"20":2320,"21":2320,"22":2320,"23":2240,"24":2320,"25":2320}},{"layers":[{"inputNeurons":0,"outputNeurons":10,"weights":[],"biases":[1.0517983102597506,-0.016652021470819428,0.4585786648071214,0.861718849253329,1.1193632706666439,0.6692836971155001,-1.0359130976997326,-1.0906722323272848,1.2615517023246436,1.0556914114848532]},{"inputNeurons":10,"outputNeurons":3,"weights":[[0.28912008389445054,-0.4754913429008174,-1.0939910792454168],[-0.6232132787586526,-1.0094197539032217,-0.8335625961753078],[1.3981411073838368,-1.2603298446455338,-1.4368052910852187],[-1.4052967939974428,-0.11692724305462056,-0.660100513032316],[-1.704113079289483,0.14355325425619228,-0.17034362324190688],[1.8700549287901327,-1.1479919400708312,-2.0418571383557707],[0.9209480784829837,0.6475466838632893,-0.45959104405886825],[-0.026542567887891277,1.4734320599041457,0.9068687351874691],[0.16408496444508905,-0.7554750058007176,0.41823442897757024],[-1.234139675109711,-1.0582835985438046,1.3593774838131607]],"biases":[1.6279867284018739,-1.3434784782930589,0.531885433152788]},{"inputNeurons":3,"outputNeurons":1,"weights":[[0.5783263202040407],[0.9705895680535368],[-1.4409760847492827]],"biases":[1.388107686193038]}],"scores":{"1":2320,"2":2320,"3":2290,"4":2320,"5":2320,"6":2520,"7":2520,"8":2650,"9":2320,"10":2320,"11":3650,"12":2220,"13":2320,"14":2320,"15":2320,"16":2320,"17":2320,"18":2320,"19":3720,"20":2320,"21":2320,"22":2320,"23":2320,"24":2320,"25":2320}},{"layers":[{"inputNeurons":0,"outputNeurons":10,"weights":[],"biases":[0.7216854806967593,-0.10596011296090126,0.2355331079578662,0.7196540082579194,1.126752186080192,0.6670359805293032,-0.30618739361847125,-1.1030444907874706,1.4662879994929017,1.5531734696338444]},{"inputNeurons":10,"outputNeurons":3,"weights":[[0.6439943962994659,-0.504529300187381,-1.5468975415019717],[-0.7202922731152567,-0.9572741672255215,-0.5346220262792148],[1.5347096275170047,-1.137521146022687,-1.7174110668637386],[-1.5128056759007302,0.10880459445216414,-0.8800009185341866],[-1.3172197176474398,0.19269354849656783,0.08390839246211299],[2.0209849403535634,-0.987668145758975,-2.1572301953055706],[1.095227871754468,1.130335045578939,-0.438705941322684],[-0.5132095207465004,1.2620086788380263,0.9491498935167905],[0.1876345417089184,-0.6393081017511344,0.664474723581419],[-1.3420578155597367,-1.3975841334985988,1.4081767558187268]],"biases":[1.5225389478241664,-1.3387232737245691,0.9735446854449327]},{"inputNeurons":3,"outputNeurons":1,"weights":[[0.40766584975148884],[1.0186732130909837],[-1.055754598681131]],"biases":[1.2960627785804804]}],"scores":{"1":2520,"2":2320,"3":2320,"4":2320,"5":2320,"6":2320,"7":2210,"8":3700,"9":2320,"10":2320,"11":2320,"12":2320,"13":2300,"14":2320,"15":2520,"16":2800,"17":2320,"18":2320,"19":2690,"20":2320,"21":2320,"22":2320,"23":3120,"24":2320,"25":2320}},{"layers":[{"inputNeurons":0,"outputNeurons":10,"weights":[],"biases":[1.1426941083562885,-0.2115679793530172,0.2972188566602858,0.6235914355719666,1.1756322626590638,0.6898353528230067,-1.1145927715001847,-0.9396168248235001,1.5818112694183497,1.1969841008635747]},{"inputNeurons":10,"outputNeurons":3,"weights":[[0.5671935952675495,-0.45241789186012005,-1.3306535847663903],[-0.8662361015764035,-0.9965978721716354,-0.48965028423665635],[1.6312454306676187,-1.1240815968773088,-1.6428946431800981],[-1.4098513834759154,-0.3421127928292721,-0.7263855688818524],[-1.2470960444824852,0.21285553662750956,-0.5279813900089529],[1.7340360409472089,-0.9480364056521549,-1.8246013517627788],[0.6749990728250036,1.0102445434978238,-0.46971664352333675],[-0.16769811326931913,1.3480245240179738,0.8562188573068543],[-0.06771091403350751,-0.44752250537291094,0.25938881533380437],[-1.400933346986189,-1.0843134387520426,1.2179025746781897]],"biases":[1.7465616844632816,-1.4145281451110934,0.340756272300311]},{"inputNeurons":3,"outputNeurons":1,"weights":[[0.5210486083704667],[0.9233001117119031],[-1.0962990061461202]],"biases":[1.7078127183172174]}],"scores":{"1":2320,"2":2320,"3":2320,"4":2320,"5":2320,"6":2320,"7":2320,"8":2320,"9":2320,"10":3510,"11":2320,"12":2320,"13":2490,"14":2520,"15":3050,"16":2320,"17":2320,"18":2320,"19":2320,"20":2320,"21":2520,"22":2320,"23":2320,"24":2320,"25":3080}},{"layers":[{"inputNeurons":0,"outputNeurons":10,"weights":[],"biases":[0.8706878616553605,0.7417835524892173,-0.06331338088351694,0.6650245503407123,-0.05744859768256172,0.6861747799091843,-0.4282860270110106,-1.3984772478733682,2.02268825930929,1.3987305436157793]},{"inputNeurons":10,"outputNeurons":3,"weights":[[0.4066827216816836,-0.09345113839956122,-1.3836777544997003],[-0.47949928922896967,-0.6443189752667308,-0.3824275082450578],[0.34248483281387754,-0.8974662284140221,-1.9953804699550954],[-0.748457165744095,-0.46707049563650643,0.03361486898482918],[-1.933720613574305,0.0019212341541561748,0.6322919679585742],[1.4110134322566514,-0.5224493901836995,-1.4219090018134761],[0.24167725441377508,-0.25861449797994945,-0.7379954498167832],[-0.735558722206657,1.014996578495167,1.9816724468413207],[0.38426442352068657,-1.8222700080658831,0.14595675144353187],[-0.31783384084859,-2.299367653509037,0.5819383928683011]],"biases":[0.8082666956685267,-0.953984762335361,-0.22806564196677792]},{"inputNeurons":3,"outputNeurons":1,"weights":[[-0.002165935330041363],[0.7674906604544927],[-1.0375920932687717]],"biases":[0.5414897335490358]}],"scores":{"1":2320,"2":2320,"3":2320,"4":2340,"5":2320,"6":2320,"7":2520,"8":2320,"9":3450,"10":2320,"11":2320,"12":1300,"13":2320,"14":2520,"15":2320,"16":3120,"17":2320,"18":2320,"19":2320,"20":2520,"21":3720,"22":2540,"23":2320,"24":2320,"25":2320}},{"layers":[{"inputNeurons":0,"outputNeurons":10,"weights":[],"biases":[0.13958208848829423,0.7349572063557639,0.008523801425190006,0.7222705289300269,-0.4052358458716748,0.6375061673395975,-0.3117150272745548,-2.289789791655644,2.5155433623738315,1.227816249565525]},{"inputNeurons":10,"outputNeurons":3,"weights":[[-0.2278252232831061,-0.3596181682189477,-1.5832830643957312],[-0.38246078808391365,-0.09872162292747533,-0.8292221636107685],[0.4384195608237463,-1.1410293752707679,-1.2956292846399489],[-0.39983524313649266,-0.3169161554724939,-0.31589240266906093],[-2.184290711091491,0.405700595619858,0.4469477480749434],[0.8384387793110768,-1.2621182298416287,-1.5022215113971185],[0.18902539948278746,-0.39323396044444503,-1.0056475724019844],[-0.9840706202268685,0.826933714203765,1.7999460740709528],[0.5055096430543481,-1.4596123563945722,0.5639982110005936],[0.09019124154280755,-2.2259864234215345,1.0171275316149]],"biases":[0.9349674782933692,-1.2791408330285299,0.1059532936396391]},{"inputNeurons":3,"outputNeurons":1,"weights":[[-0.040209396746024806],[0.836193519828473],[-1.0443203283037723]],"biases":[0.41329972857331815]}],"scores":{"1":2320,"2":2210,"3":3420,"4":2320,"5":2210,"6":2320,"7":2320,"8":2210,"9":2320,"10":2320,"11":2320,"12":2620,"13":2720,"14":2320,"15":2320,"16":2320,"17":2320,"18":2320,"19":2220,"20":2500,"21":3920,"22":2320,"23":2320,"24":2320,"25":2320}},{"layers":[{"inputNeurons":0,"outputNeurons":10,"weights":[],"biases":[0.17250806002585267,1.1999242962439325,-0.18608461582704783,0.805584995976781,0.6453048677610822,0.4036905580802975,-0.20107638481990195,-2.1429322770989696,2.7582004028678924,1.5438856793364035]},{"inputNeurons":10,"outputNeurons":3,"weights":[[0.011859497669234768,0.10726264590223988,-1.788104333109865],[-0.33072732183007647,-0.20150789566613206,-0.2242514463373042],[0.27532799341377906,-0.9778252403043843,-1.5185102341494185],[-0.7513463783698091,-0.14470574708667377,-0.39290144377296304],[-1.951515719807062,0.1870478350797309,0.4272256628530031],[1.1984656031093215,-0.7786339783339933,-1.6450240572214674],[0.3747038925666923,-0.24067582765555431,-1.1668034979589499],[-1.2016159894312302,1.0591712540229612,1.9358193101770609],[0.628034834575289,-1.277660167404484,0.7066092024480002],[-0.049813694481133874,-1.9200493860109504,0.8557670830640024]],"biases":[0.5343598724635719,-0.8946201532482815,0.2500188690481456]},{"inputNeurons":3,"outputNeurons":1,"weights":[[0.3775412938831831],[1.401720782508021],[-1.127611575312024]],"biases":[0.6219498830682255]}],"scores":{"1":2520,"2":2320,"3":2700,"4":2320,"5":2520,"6":2320,"7":2520,"8":2210,"9":2520,"10":2320,"11":2520,"12":2320,"13":2220,"14":2320,"15":2320,"16":2720,"17":2210,"18":2520,"19":3720,"20":2320,"21":2320,"22":2320,"23":2370,"24":2320,"25":2320}},{"layers":[{"inputNeurons":0,"outputNeurons":10,"weights":[],"biases":[0.6919641447407929,0.7652751267813089,0.11280711600890238,0.705005733591373,-0.12294907796610938,0.6681043952682152,-0.5118479284591396,-1.4760158047779777,2.0960322858159093,1.900536120316775]},{"inputNeurons":10,"outputNeurons":3,"weights":[[0.3447702213783846,-0.042253945968166305,-1.3250361730935318],[-0.7090624711972244,0.20175209656248383,-0.5447633719811059],[0.5963656078802639,-0.8249275403626741,-1.8247397587949448],[-0.6730628170537762,-0.4635403216329248,-0.4904495570137537],[-2.0541777759713424,0.13985377267266702,0.35277294295138484],[1.375412818992741,-0.4028792013496512,-1.4827856135201454],[-0.004756529215172278,-0.11603229773604053,-1.1530018214239637],[-0.24511473988734073,0.7829121108918216,2.2278429060567637],[0.242921965383412,-1.4252831127376406,0.5454016324305937],[-0.24416631377306502,-1.9954680108142588,0.8110036370581645]],"biases":[1.075870595617916,-0.6969777420672968,0.19596344604475455]},{"inputNeurons":3,"outputNeurons":1,"weights":[[0.15905008392816894],[1.1587298379544655],[-0.6380114330254001]],"biases":[0.5459331486927871]}],"scores":{"1":2320,"2":3860,"3":2920,"4":2320,"5":2320,"6":2320,"7":2320,"8":2320,"9":2320,"10":2210,"11":2870,"12":2350,"13":2320,"14":2520,"15":2320,"16":3050,"17":3120,"18":2320,"19":1300,"20":2320,"21":2320,"22":2520,"23":2320,"24":1300,"25":2920}},{"layers":[{"inputNeurons":0,"outputNeurons":10,"weights":[],"biases":[0.4836360498029033,0.5726154690488702,0.09819483804580702,0.994013482537481,0.05511201013643088,0.46261292760252604,-0.6171400598398997,-1.985023579376054,2.901267426346375,1.6193508972503727]},{"inputNeurons":10,"outputNeurons":3,"weights":[[0.4702135747549233,-0.30373198642460764,-1.6544257045049595],[-0.7651025720466158,-0.09994627177678095,-0.7531725834150853],[0.46688400146064574,-0.6625224782230374,-1.7979521117488462],[-0.7563548562046443,-0.2934731326125182,-0.3156430101716498],[-1.8861609807619086,0.7896524134929417,0.14059106790185888],[0.9114442225036539,-1.0859574054831784,-1.5838760928053324],[0.5001251569348114,-0.42289447573963257,-1.0598034763532163],[-0.9091610645842514,1.002538882232482,1.809879990698758],[0.976289366882036,-1.2436927118989103,0.580414652729166],[0.0598094611323875,-2.084796147095167,1.03850332511963]],"biases":[0.858372229610317,-0.8340906326840014,0.24454630676790512]},{"inputNeurons":3,"outputNeurons":1,"weights":[[-0.08373175249022119],[0.6068830196181443],[-0.9658237084368251]],"biases":[0.4605829117282486]}],"scores":{"1":2320,"2":2320,"3":2520,"4":2520,"5":2320,"6":2320,"7":2320,"8":2320,"9":2320,"10":2320,"11":2320,"12":2320,"13":2320,"14":2720,"15":1300,"16":2320,"17":2320,"18":2500,"19":2320,"20":3510,"21":2320,"22":2520,"23":2500,"24":2320,"25":3820}},{"layers":[{"inputNeurons":0,"outputNeurons":10,"weights":[],"biases":[0.8170078480376546,0.016891677855836396,0.27480336797204274,0.679338998521226,0.8407539517336269,0.5346480172867873,-0.8820545683586185,-1.1628047999452455,1.5262753986887132,1.285346849431229]},{"inputNeurons":10,"outputNeurons":3,"weights":[[0.4670577223089094,-0.4991856618191002,-1.6873891770005978],[-0.806508941973983,-0.498906844482489,-0.9517745234285078],[1.1442810947507485,-1.2607491785810458,-1.5658169607338661],[-1.2926014228024707,-0.1329603455703905,-0.6055090292984067],[-1.639810775757121,0.4518064833535578,-0.39831281457212997],[1.6440703966824008,-0.6583632173045088,-1.851488219227568],[0.830381212360507,1.2217295979815117,-0.2526083654438982],[-0.323923806009396,1.0591336959434043,1.4438654482193154],[0.2464693894312578,-0.5588004360532487,0.4215565427715666],[-1.3494680011004814,-0.843906408372782,1.183857440459817]],"biases":[1.670222844917499,-1.2545002055544194,0.5797212138952248]},{"inputNeurons":3,"outputNeurons":1,"weights":[[0.16180989898378118],[1.0786317166148922],[-0.7946520868582725]],"biases":[1.5522195796008298]}],"scores":{"1":2320,"2":2320,"3":2320,"4":2320,"5":2320,"6":2520,"7":2320,"8":2320,"9":2320,"10":2320,"11":2200,"12":2520,"13":2520,"14":3960,"15":2520,"16":2320,"17":2210,"18":2520,"19":2320,"20":2320,"21":2320,"22":2320,"23":2520,"24":2520,"25":2320}},{"layers":[{"inputNeurons":0,"outputNeurons":10,"weights":[],"biases":[0.8372016850852345,0.11308100460483966,-0.19811343712039814,0.7492515991738937,0.9233268261216661,0.7060305186463024,-0.4051299680877568,-1.214573317364658,1.498216149180441,1.1117857297892921]},{"inputNeurons":10,"outputNeurons":3,"weights":[[0.2442525670894931,-0.31870045741830816,-1.778913430244075],[-1.0154425431220284,-1.0500884196917282,-0.5636194170105142],[1.3982875118613,-1.0337987494297627,-1.4027290329618158],[-1.3520249151273354,0.14026485260685717,-0.5272254086860879],[-1.6939197592964892,-0.04635626594995906,-0.20713776654875313],[1.892277316425504,-1.1106060878687027,-1.9153258278650982],[0.932827442771386,1.0647645546873987,-0.6241428238810615],[-0.6371262973886282,1.3366228350682157,1.0026984907803254],[-0.0029082272086616012,-0.6929170650370391,0.3190660139594125],[-1.2214657694906188,-1.469270369259644,0.8076674204381713]],"biases":[1.7409677085529178,-1.4614402595455573,0.2535412894394683]},{"inputNeurons":3,"outputNeurons":1,"weights":[[0.6740747368668641],[0.41773412994363734],[-0.8459540683790244]],"biases":[1.7070758569007256]}],"scores":{"1":2320,"2":2320,"3":2590,"4":2520,"5":2320,"6":2320,"7":2700,"8":2320,"9":2320,"10":2320,"11":2320,"12":2520,"13":2320,"14":2320,"15":2320,"16":2320,"17":2720,"18":2520,"19":2220,"20":2520,"21":2470,"22":2500,"23":2500,"24":2610,"25":2520}},{"layers":[{"inputNeurons":0,"outputNeurons":10,"weights":[],"biases":[0.8940311356845103,-0.5627112468618503,0.31458407505163166,0.3214459459361616,0.8184755281099757,0.29383173343983837,-0.7282194098202672,-0.5494539270303801,2.0420797441592553,0.6461640226314389]},{"inputNeurons":10,"outputNeurons":3,"weights":[[0.49554129570813965,-0.0013948543634156908,-1.2366705728001568],[-1.4580996019745445,-0.923887717974794,-0.7463477712388263],[0.7159357367790776,-0.7625525815399797,-1.5195172728800141],[-0.9278645212568943,0.033284513619636726,-1.2884691631428307],[-1.7528809177664288,-0.3690326897282349,-0.09126107740062514],[1.541174948479282,-1.0741266060121615,-2.2092928306504493],[0.3566104926600407,0.44554864718292125,-0.7180973767734542],[-0.8180682472335095,1.2698748461810472,1.0459304795793054],[0.5454510675241032,-0.8140173841141068,0.22623083596189125],[-1.4191077281178366,-1.423148732845234,0.8162372693906587]],"biases":[1.6240041097164442,-1.133299765563603,0.09823587510522291]},{"inputNeurons":3,"outputNeurons":1,"weights":[[0.0188751514860796],[1.3414150817792334],[-1.5139191897190307]],"biases":[1.8414906691325923]}],"scores":{"1":2250,"2":2320,"3":2320,"4":2320,"5":2920,"6":2320,"7":2520,"8":2320,"9":2520,"10":2520,"11":2320,"12":2320,"13":2890,"14":1300,"15":2320,"16":2320,"17":2520,"18":2320,"19":2320,"20":2190,"21":2320,"22":2320,"23":2320,"24":2520,"25":3850}},{"layers":[{"inputNeurons":0,"outputNeurons":10,"weights":[],"biases":[0.7304084809732629,-0.8316945236901117,0.2733482046624057,0.4788022028955229,1.009934161252646,0.8649761676764258,-0.7056393701606556,-1.0002193309377487,2.0828346614653466,0.21188388394752777]},{"inputNeurons":10,"outputNeurons":3,"weights":[[0.5339075579914351,0.07171246842931517,-1.2325879567524591],[-1.1092152837064972,-0.37840333614266153,-0.7524268168321683],[0.8356568031410158,-1.1054692857216049,-1.3796546486710022],[-1.1790169208615728,0.26823611507384465,-0.47383313378672187],[-2.243170885219709,0.10370591136361954,-0.7474701186472503],[1.4195732331691202,-1.092986044073787,-2.0754702500840283],[0.27094758138281494,0.7114401809418549,-0.6988119238221723],[-1.2275780351478294,0.9238173670994234,1.0336744819235895],[0.21978375712797846,-0.7699596385290635,0.16725620663930546],[-1.4420532098442385,-1.180740239410294,0.9665914079786795]],"biases":[1.270478650758815,-1.4405577911159753,0.01674155350235368]},{"inputNeurons":3,"outputNeurons":1,"weights":[[0.3779674307143232],[1.6046206811282786],[-1.6984737614670466]],"biases":[1.2646663563349414]}],"scores":{"1":2320,"2":1300,"3":2320,"4":2520,"5":2340,"6":2870,"7":2570,"8":2320,"9":2320,"10":2320,"11":2320,"12":2320,"13":2320,"14":2320,"15":2320,"16":2320,"17":2320,"18":2320,"19":2520,"20":2720,"21":2720,"22":2320,"23":2320,"24":2320,"25":3720}},{"layers":[{"inputNeurons":0,"outputNeurons":10,"weights":[],"biases":[0.6610632957198,-0.06633151475174284,0.07117545471671835,0.852167706521357,1.0156342755862184,0.6190879841709331,-0.828719451089194,-1.1607718572853505,1.714614088108463,1.281287135653869]},{"inputNeurons":10,"outputNeurons":3,"weights":[[0.41078810479090194,-0.3502982822939875,-0.8856764536612658],[-0.656100202802901,-0.8209305341903823,-0.21523937322398873],[1.3755524507167205,-1.1919053806240658,-1.6874497588286868],[-1.2367639178564236,0.12991659074583017,-0.9367679729242998],[-1.588344190302487,0.3588547402180095,-0.5321613680367915],[1.9218070043876598,-0.8077996879303523,-2.2994019122431],[0.35282001728620394,1.1531752257217824,-0.5924922306917989],[-0.7771657971526142,1.2340448198194365,0.9386856983080429],[0.03156416593740194,-0.8102621315998089,0.38964681352934655],[-1.071732225520813,-1.481478424416368,1.383404342711701]],"biases":[1.7509473498528898,-1.349231554009634,0.515647384056339]},{"inputNeurons":3,"outputNeurons":1,"weights":[[0.2916003741945338],[1.1358309218216083],[-1.287423387273789]],"biases":[1.2261708262830617]}],"scores":{"1":2320,"2":2500,"3":2320,"4":2320,"5":1300,"6":2320,"7":2520,"8":2320,"9":2320,"10":2320,"11":2720,"12":2320,"13":2320,"14":2320,"15":4050,"16":2520,"17":2520,"18":2320,"19":2520,"20":2320,"21":2320,"22":2320,"23":2600,"24":2320,"25":2320}},{"layers":[{"inputNeurons":0,"outputNeurons":10,"weights":[],"biases":[0.545140062292462,0.8472078440369419,-0.08368086219924653,0.7876814817235165,0.20929306629274125,0.8602217620562874,-0.676663512755012,-1.9240262673616182,2.285623445445513,1.331346066974876]},{"inputNeurons":10,"outputNeurons":3,"weights":[[0.12651428309955082,-0.016657007218402797,-1.3433178234896446],[-0.3677749357727014,-0.6341133374507564,-0.5511975299480297],[0.22700658547219354,-1.098091795921791,-1.5464969316235155],[-0.49743401272098825,-0.3241866745423024,-0.39196632206409143],[-2.2587831274910615,-0.27934741016238096,0.4085956750859539],[1.531929754253201,-0.5460173150070196,-1.0068389899364096],[0.15172545940799467,-0.022721865974598743,-0.7016977107298623],[-0.20399768556449838,0.9923288882850885,2.082056046469971],[0.42733942350467136,-1.8341510073916831,0.5289762818867847],[-0.8020127839152759,-2.111167074878231,0.5800829924849278]],"biases":[0.8212957672610589,-0.8313972886614271,0.23821660639785713]},{"inputNeurons":3,"outputNeurons":1,"weights":[[0.2750710910631142],[0.5506670575239379],[-1.2688057671591637]],"biases":[-0.06689653172751986]}],"scores":{"1":2700,"2":2520,"3":2320,"4":2320,"5":2720,"6":2320,"7":2210,"8":2320,"9":2520,"10":2320,"11":3060,"12":2320,"13":2320,"14":2320,"15":2320,"16":2320,"17":2320,"18":2630,"19":2320,"20":2320,"21":2320,"22":2320,"23":2320,"24":2320,"25":2520}},{"layers":[{"inputNeurons":0,"outputNeurons":10,"weights":[],"biases":[0.048655941981691125,0.9882481271417626,-0.17312277507605472,0.24431493832521622,-0.17855381010581364,0.5434345882145742,-0.4688187874126627,-1.9644873850424516,2.6173225399318563,1.6935003191411742]},{"inputNeurons":10,"outputNeurons":3,"weights":[[0.06936716393020864,0.0535060431909237,-1.5894224630129306],[-0.4813459726050896,-0.5216078797066459,-0.6463729145998223],[0.4356969418951959,-0.6510259380020165,-1.380462769205002],[-0.6878478813985438,-0.42166912643663373,-0.6182172351635682],[-1.9943111290034603,0.6220038974595314,0.3457265890807419],[0.9158483258698196,-0.6452046334367414,-1.8178595064258511],[0.4391824708134439,-0.0966064803407102,-1.0392127230210895],[-0.8080296671541857,1.0598869130293926,2.0916102986979004],[0.7697307121161303,-1.333474229109965,0.5920102611616067],[-0.026330205100498827,-1.9222722189031691,0.9811574062806208]],"biases":[0.6765383055365791,-0.9200358503930033,0.5310631417131091]},{"inputNeurons":3,"outputNeurons":1,"weights":[[0.1967474727211908],[1.2068988353512755],[-1.0270550285812736]],"biases":[0.513422867320023]}],"scores":{"1":2320,"2":2520,"3":2320,"4":2520,"5":2320,"6":3020,"7":2320,"8":2320,"9":2320,"10":2520,"11":2320,"12":2320,"13":2600,"14":2520,"15":2320,"16":2320,"17":2520,"18":2320,"19":2320,"20":2320,"21":2520,"22":2320,"23":2320,"24":2320,"25":2320}},{"layers":[{"inputNeurons":0,"outputNeurons":10,"weights":[],"biases":[0.5635023841411533,-0.12260711023457764,0.29447504899245863,0.5647642539066576,0.7990060418302386,0.5589654043502386,-0.8439849319527237,-1.1437134516915386,1.8231673909399966,1.3188182546393348]},{"inputNeurons":10,"outputNeurons":3,"weights":[[0.7826557518704617,-0.6558282373865365,-1.4162085226801173],[-0.7752074370567473,-0.9616743751633917,-0.4590377047277203],[1.1135158509220788,-1.503348556168676,-1.5710047019385731],[-1.4325402076927007,-0.3184741595944137,-0.39477836633237684],[-2.099263553601624,0.054944097987472115,-0.24416522932768037],[2.038273817678721,-0.8206932874464398,-1.7627437462571083],[0.7101354357351637,1.1046947339442221,-0.5794853707170398],[-0.5966047595017874,1.6681455810366668,0.912616845466601],[-0.22578217936319608,-0.7194958286000848,0.3439688315172835],[-0.8668830281856151,-1.1679030600236153,1.059037746369044]],"biases":[1.2518134855492618,-1.3248879624552863,0.18537224921566103]},{"inputNeurons":3,"outputNeurons":1,"weights":[[0.6627529099463755],[1.040927130771325],[-1.1763198467336404]],"biases":[1.7009424516462774]}],"scores":{"1":2290,"2":2210,"3":2520,"4":2320,"5":2520,"6":2520,"7":2520,"8":2320,"9":2520,"10":2320,"11":2320,"12":2320,"13":2520,"14":2470,"15":2520,"16":2200,"17":2320,"18":2320,"19":2320,"20":2320,"21":2520,"22":2220,"23":2320,"24":2920,"25":2320}},{"layers":[{"inputNeurons":0,"outputNeurons":10,"weights":[],"biases":[0.80219165622049,-0.41081371071159306,0.775413838320946,0.4636747760085096,1.082043297573422,0.38391058397226413,-0.8192999179582391,-0.6123297948158113,2.0013414657548667,0.45251298227742204]},{"inputNeurons":10,"outputNeurons":3,"weights":[[0.8679058627241243,0.08118952579682942,-1.5858800979828254],[-1.0641150993592476,-0.7629399153938645,-0.7691231664912642],[0.5311136515024912,-0.7456847053230943,-1.5074755700867],[-1.7083408854004842,0.6202613207453329,-0.6967451967629931],[-1.6638476159907154,0.09294260933911211,-0.2682298936681195],[1.6534825418073102,-1.3348653612520875,-1.9688136299573502],[0.3203718235232945,0.4631370769353211,-0.9461295059241946],[-0.5732303080582941,0.8737661583179892,1.5622486865495013],[0.3365596828695869,-0.41993706643208095,0.7229174956687316],[-1.0020854824538612,-1.6013546897122608,0.7525741183156863]],"biases":[1.554255586268851,-0.8642019104695303,0.27896357935877836]},{"inputNeurons":3,"outputNeurons":1,"weights":[[0.3700141803210333],[1.4713377379479058],[-1.224386708113339]],"biases":[1.89510237774081]}],"scores":{"1":2320,"2":1300,"3":3830,"4":2320,"5":2500,"6":2320,"7":2220,"8":2200,"9":1310,"10":2320,"11":2520,"12":2600,"13":2220,"14":2720,"15":2320,"16":2520,"17":2320,"18":2320,"19":2210,"20":2320,"21":2320,"22":2320,"23":3920,"24":2320,"25":2320}},{"layers":[{"inputNeurons":0,"outputNeurons":10,"weights":[],"biases":[0.28927124776329577,0.7387019047208683,-0.26566331840571566,0.8666955443732175,-0.1261910714947726,0.25752505916989765,-0.23301750570906787,-1.8745212432133433,2.726385688360444,1.441875149015511]},{"inputNeurons":10,"outputNeurons":3,"weights":[[0.3011678665185418,0.11025734543344332,-1.9815423710102489],[-0.46298711317588015,-0.3512228290744752,-0.6522864695057394],[0.6525747905098948,-0.7201186973370496,-1.5563773399879042],[-0.42142870708806407,-0.5436527829661778,-0.5007389494917389],[-1.9639652759513704,0.45790311742567985,0.5441854260469955],[0.9892936985225264,-0.6082677013191216,-1.7268762678448795],[0.24970307806661224,-0.354468210295908,-0.8970830036871823],[-0.835813506349644,1.0832911711296132,1.6585692344668583],[0.7709766847885465,-1.1574016094138337,0.17126572670261594],[0.031286560716624334,-2.223719686983005,0.7808344447065098]],"biases":[1.1681120667740361,-0.5943163079203186,0.32618483695568107]},{"inputNeurons":3,"outputNeurons":1,"weights":[[0.045041190961931266],[1.0505408643552385],[-0.884173330726086]],"biases":[0.4985899433953985]}],"scores":{"1":2320,"2":2720,"3":2320,"4":2320,"5":2520,"6":2920,"7":1300,"8":2560,"9":2320,"10":2320,"11":2210,"12":2320,"13":2320,"14":2200,"15":2200,"16":2320,"17":2200,"18":3020,"19":2600,"20":2220,"21":2320,"22":2320,"23":2920,"24":2520,"25":2520}},{"layers":[{"inputNeurons":0,"outputNeurons":10,"weights":[],"biases":[0.5978714771872206,-0.15374008641185022,0.3503506639312688,0.5096754703476449,0.8668774818107748,0.525828058459644,-0.8803827723153691,-1.0948383776744426,1.9397076933666024,0.4478383954472379]},{"inputNeurons":10,"outputNeurons":3,"weights":[[0.7041214698400923,-0.021754893805860976,-1.4419843376675237],[-1.4096321905039595,-0.7959341814502183,-0.6076721567207957],[0.9814833883169196,-0.5611450785674116,-1.1903704738993584],[-1.14958182743815,0.22365067592842167,-0.48386195803223364],[-1.8121907051609536,-0.2893229180478263,-0.08066028810585436],[1.6578191425878928,-1.2331998166333282,-1.5850957452301435],[0.16810834883775477,0.24392169143775927,-0.9297918355073463],[-0.8419021665027708,1.1637756133187769,1.2388307985940405],[0.43104781824995403,-1.0545489022782921,0.42497865277516655],[-1.0510267757802074,-1.1674304386362317,0.531332173854187]],"biases":[1.7532108498109316,-1.3126917362668602,0.2525427780737505]},{"inputNeurons":3,"outputNeurons":1,"weights":[[0.19880382024673843],[1.4446185746739175],[-1.3166037410970475]],"biases":[1.5810055855296903]}],"scores":{"1":2320,"2":2500,"3":2320,"4":3720,"5":2320,"6":2320,"7":2320,"8":2320,"9":2320,"10":1300,"11":2520,"12":2320,"13":2320,"14":2190,"15":2320,"16":2920,"17":2320,"18":2320,"19":2910,"20":2320,"21":2320,"22":2320,"23":2320,"24":2320,"25":2320}},{"layers":[{"inputNeurons":0,"outputNeurons":10,"weights":[],"biases":[0.35742556843182743,-0.18393535667420163,0.2984733155902767,0.22527967845775498,1.082821330302389,0.27251642908576235,-0.5217155598888372,-1.0493300160977515,1.9627455363210482,0.6653375734362279]},{"inputNeurons":10,"outputNeurons":3,"weights":[[0.6790793048203405,-0.05248869948041398,-1.2368914790606331],[-1.0933693898927423,-0.5660059356665339,-0.6492552759721405],[0.8349297009824452,-1.2089502678693906,-1.7925728440258208],[-0.966319710117012,-0.1056802195105776,-1.1178066024243813],[-1.6379664173237303,-0.3082745172500082,0.04858739791228012],[1.564319960869149,-0.8567801573359499,-1.7323868909270068],[0.34434295398668324,0.23418823345831796,-0.8525043697982952],[-0.5671530114292982,0.9667800123054948,1.0189723911649966],[0.12248262762403864,-0.5227805881546252,-0.017789271888572322],[-1.2473381758388702,-0.9998978077966405,0.7336438692142178]],"biases":[1.5852430013684975,-1.368582386939245,0.6819821354351905]},{"inputNeurons":3,"outputNeurons":1,"weights":[[0.26152645006930475],[1.0979382688290875],[-1.756423546226516]],"biases":[1.5583996156148316]}],"scores":{"1":2320,"2":2220,"3":2520,"4":2320,"5":2320,"6":3120,"7":2320,"8":2320,"9":2320,"10":2320,"11":2320,"12":2320,"13":2320,"14":2320,"15":2320,"16":2320,"17":2320,"18":2320,"19":2520,"20":2520,"21":2320,"22":2320,"23":2720,"24":2320,"25":2320}},{"layers":[{"inputNeurons":0,"outputNeurons":10,"weights":[],"biases":[0.6361118624736215,-0.5017409529340913,0.10249511353902163,0.6072514864708718,0.46266230117044427,0.4278280958186869,-0.513867016703297,-1.0052005537612976,1.760805829222467,0.675771997374043]},{"inputNeurons":10,"outputNeurons":3,"weights":[[0.4968291263322957,-0.08119165238430716,-1.7673574086184891],[-1.5488064384288875,-0.5014363363614422,-1.0852880204438105],[1.0278521059497492,-1.1920374820338049,-1.464348828603559],[-1.1410063393452612,0.042494397602866406,-1.2704073954379165],[-1.8209397979476494,-0.015077077045668352,-0.4288870916855614],[1.5445095260890072,-1.2890117397466836,-2.3683114776357814],[-0.0027203898813100147,0.23715402223575094,-1.392792421297647],[-0.7687897664166392,0.9278319742076689,1.1018460282395761],[-0.14465056497587242,-0.32333078982772867,0.21150655891451833],[-1.0866343758791128,-1.5498689106197865,0.7709914391760228]],"biases":[1.6532325699064307,-1.361015536941013,0.24664514082286226]},{"inputNeurons":3,"outputNeurons":1,"weights":[[0.27897907726230353],[0.9052744240526271],[-1.5269920501125585]],"biases":[1.5074354007414126]}],"scores":{"1":2210,"2":2320,"3":2320,"4":2320,"5":2360,"6":2520,"7":2320,"8":2920,"9":2320,"10":2320,"11":2320,"12":2210,"13":2320,"14":2520,"15":2320,"16":2320,"17":2320,"18":2320,"19":2320,"20":2600,"21":2590,"22":2320,"23":2320,"24":2320,"25":2600}},{"layers":[{"inputNeurons":0,"outputNeurons":10,"weights":[],"biases":[0.6812971151013927,1.0458317151924408,0.11923685635510449,0.7623188933719792,0.40062662961046835,0.7697542889784396,-0.8609215455804612,-1.5092875031300654,2.6138202819805376,1.4862896979966442]},{"inputNeurons":10,"outputNeurons":3,"weights":[[0.11971028732573494,-0.23983914747536997,-1.315970479231344],[-0.4356303612968252,-0.48053677822157403,-0.7042373758877731],[0.5714792467023949,-0.6726765257991544,-1.9096435293957874],[-0.6232601242855759,-0.1338822705371992,-0.5889246243455052],[-1.5803214729880901,-0.202436525157717,0.3134215784387577],[1.302069653317474,-0.20740048174520742,-1.2181924782711726],[0.21285817999232565,-0.32559501255924017,-1.097320946010611],[-0.4736648995416336,0.9241487821745885,1.6549400266624135],[0.3284952353160172,-1.3006037980173037,0.4977101762408293],[-0.2983157765289895,-2.0692607506677776,0.755469569378047]],"biases":[0.9691075795277555,-0.9273493178372613,0.20436763540609584]},{"inputNeurons":3,"outputNeurons":1,"weights":[[0.007763121580082161],[1.06486721164889],[-1.190476799563541]],"biases":[0.556134365270432]}],"scores":{"1":1370,"2":2320,"3":2320,"4":2320,"5":1300,"6":2200,"7":2320,"8":2520,"9":3120,"10":2320,"11":2200,"12":2320,"13":2320,"14":2320,"15":5520,"16":2320,"17":2850,"18":2320,"19":1940,"20":2320,"21":2600,"22":2520,"23":2320,"24":2320,"25":1300}},{"layers":[{"inputNeurons":0,"outputNeurons":10,"weights":[],"biases":[0.5030440754285661,-0.3920605564681324,0.2623047956751038,0.6495226667029437,0.8184953674910808,0.05808992818479769,-0.7289620890461338,-1.1272998768388716,1.8345606474649652,0.7811104684390191]},{"inputNeurons":10,"outputNeurons":3,"weights":[[0.31189105817810014,0.05631479750488705,-1.682768503485122],[-1.555481791494525,-0.5550085742551373,-0.6411734889569515],[1.0168403721096788,-1.1912808521865794,-1.3118034572789585],[-1.1335435484665273,0.27142984512385426,-1.1757249693187393],[-1.968028729414125,-0.07062403973226966,0.01250129313840588],[1.528814994307399,-1.1005038097593849,-2.366860116228593],[0.15282097977111697,0.5712191495877552,-1.0949693651880101],[-0.8832857430708446,0.6794148130294659,1.1032471936916874],[0.11187156955629764,-0.6477820837436924,0.0036095250842756443],[-1.1770932909560905,-1.3794317818526236,0.798442098545022]],"biases":[1.6728062924373968,-1.0897079603250321,0.15669517588828163]},{"inputNeurons":3,"outputNeurons":1,"weights":[[0.5549419980188472],[1.1714075869314324],[-1.626123915030857]],"biases":[2.080133810806957]}],"scores":{"1":2320,"2":2320,"3":2320,"4":2590,"5":2720,"6":2320,"7":2320,"8":2320,"9":2320,"10":2320,"11":2320,"12":2320,"13":2320,"14":2720,"15":2320,"16":2320,"17":2210,"18":2320,"19":2320,"20":2520,"21":2320,"22":2520,"23":2320,"24":2520,"25":2320}},{"layers":[{"inputNeurons":0,"outputNeurons":10,"weights":[],"biases":[0.44487342736984453,1.1766242952953743,-0.0914176884698159,0.347291375982752,0.17259772830969028,1.1894912368611583,-0.35907978963939774,-2.0275477286279044,1.9575060348735591,1.2530204617165097]},{"inputNeurons":10,"outputNeurons":3,"weights":[[0.5710378270061789,0.08521300836074414,-0.9667734494685214],[-0.5388539901905123,-0.311113735934004,-0.49202208339128506],[0.22520356322303037,-1.060026717756422,-1.8710324199654225],[-0.9459131664176029,-0.34037949946570134,-0.3920035262648901],[-2.070969949865045,-0.31833708390936,0.400758860975732],[1.015175131140179,-0.5483092763051296,-1.2420840896163314],[0.43789720710154073,-0.5032332774948749,-0.812945634364229],[-0.43987571998195446,0.8624916075850048,1.9622296745609247],[0.15946740733981762,-1.726220854139279,0.891212818373267],[-0.45812718440877,-2.2637544684984956,0.884057370173095]],"biases":[1.0082668379712192,-1.1702980821920845,0.1566704517619053]},{"inputNeurons":3,"outputNeurons":1,"weights":[[0.5572970496493354],[0.7589109534403549],[-0.8156722545217118]],"biases":[0.26280327497583733]}],"scores":{"1":2520,"2":2720,"3":2320,"4":2320,"5":2320,"6":2320,"7":2320,"8":2320,"9":2320,"10":2320,"11":2320,"12":2320,"13":2320,"14":2320,"15":2320,"16":2320,"17":3830,"18":2520,"19":2520,"20":1300,"21":2320,"22":2320,"23":2320,"24":2320,"25":2320}},{"layers":[{"inputNeurons":0,"outputNeurons":10,"weights":[],"biases":[0.6324148828203056,-0.6508264798717172,0.6776477029967608,0.6540269146008499,1.18713039463389,0.5650726372616861,-0.8094593216360438,-0.9312589777327411,2.0118773897511066,0.8916712641250616]},{"inputNeurons":10,"outputNeurons":3,"weights":[[0.46703324417840764,0.08706135033175234,-1.5324328302404577],[-1.1321594721902517,-0.934158126029526,-0.6453604356680183],[0.9774516044063122,-1.1575155819748606,-1.4770159648913845],[-1.5157192720495352,0.07193926819355395,-1.1036458407416432],[-1.6683547013461282,-0.38180297321815937,-0.43250679087615007],[1.4457214237008542,-1.2784031707300987,-1.7417006341556316],[0.21819993661525952,0.5437095442227063,-0.7772150553434354],[-0.9481546203386751,0.7901360700150797,0.8165173692534669],[0.028712980022856188,-0.8335935750235991,0.016109323993723224],[-1.217812978827013,-1.3661984979491937,0.8865519498577983]],"biases":[1.3847487522734139,-1.1550955123644782,-0.05942555686135506]},{"inputNeurons":3,"outputNeurons":1,"weights":[[0.5959446562608579],[1.371187157080558],[-1.5739894723122625]],"biases":[1.9002954041007742]}],"scores":{"1":2520,"2":2320,"3":2320,"4":2320,"5":2520,"6":2320,"7":2520,"8":2320,"9":2320,"10":2320,"11":3920,"12":2320,"13":2520,"14":2320,"15":2320,"16":2320,"17":1300,"18":2320,"19":2320,"20":2360,"21":2320,"22":2320,"23":2320,"24":2320,"25":2320}},{"layers":[{"inputNeurons":0,"outputNeurons":10,"weights":[],"biases":[0.36940994437407515,0.663005627973877,0.15570293382139339,0.29745283024600633,-0.039823125512925855,0.9847968797213642,-0.34451452016132994,-1.9132281943428775,2.0057220328250986,1.5573510887383692]},{"inputNeurons":10,"outputNeurons":3,"weights":[[0.08348296877284825,-0.2643280711165071,-1.5161522434826382],[-0.655425688749474,0.03349121166349356,-0.4712688418457234],[0.43372722286185983,-1.3545636630448585,-1.7400699883651423],[-0.4395646399760659,-0.1976622752242824,-0.11729987379256523],[-2.1646236727867736,0.2040545922651069,0.3328168770081579],[1.3403657660150747,-0.31899450281695185,-1.4331994755668915],[0.21821069714543975,-0.032001377318275986,-0.9258916052696498],[-0.5089430881631359,0.7369456384169515,1.673523157381642],[0.7754289492765846,-1.6312854598293072,0.5201420348714509],[-0.1437053341373055,-2.398817860442288,1.1983522477094355]],"biases":[0.9045146807581215,-1.0880533776885186,-0.13205847238643326]},{"inputNeurons":3,"outputNeurons":1,"weights":[[0.1847750328880952],[1.052890484040473],[-1.0079177987540935]],"biases":[0.635078598403732]}],"scores":{"1":2370,"2":2520,"3":2320,"4":2320,"5":2320,"6":2320,"7":2320,"8":2320,"9":2320,"10":2320,"11":2320,"12":2520,"13":2320,"14":2320,"15":2320,"16":2320,"17":2320,"18":2320,"19":2320,"20":2520,"21":2320,"22":2320,"23":2320,"24":2320,"25":2920}},{"layers":[{"inputNeurons":0,"outputNeurons":10,"weights":[],"biases":[0.8610958758609843,-0.27924417780011773,0.3301706361312706,0.6883416289495922,0.9409597092035515,0.7097014725701746,-0.9174420086510515,-1.0458500259110082,1.6801731679596075,1.0442627972664984]},{"inputNeurons":10,"outputNeurons":3,"weights":[[0.4036297515938718,-0.811979495785486,-1.4396784449516455],[-0.544571289959348,-0.852577976285003,-0.8983697473227454],[1.1153038129065957,-1.136670508892218,-1.6936049207765909],[-1.329949503175724,0.08169671535154036,-0.2474818142841923],[-1.6260667316381192,0.2267688106519966,0.09699272633268638],[1.7100017340022446,-0.7351585341462442,-2.0861169945608773],[0.5437849707660029,1.0754114793386242,-0.4961215099417191],[-0.05623278487411071,1.344284497483914,1.0506751363152056],[0.4169230566596799,-0.4403898260633563,0.22624546202560208],[-1.0041847997469735,-1.347731538168845,1.0993424627340327]],"biases":[1.5682328834857038,-1.7743033661462853,0.9205867316234411]},{"inputNeurons":3,"outputNeurons":1,"weights":[[0.38335555912751546],[1.060961075073998],[-1.2374812756320828]],"biases":[1.4994545157868377]}],"scores":{"1":2340,"2":2320,"3":2240,"4":2320,"5":2520,"6":1300,"7":2320,"8":2320,"9":2320,"10":2520,"11":2320,"12":2320,"13":2520,"14":2340,"15":3510,"16":2210,"17":2320,"18":2320,"19":2700,"20":2320,"21":2320,"22":2520,"23":2320,"24":2320,"25":2320}},{"layers":[{"inputNeurons":0,"outputNeurons":10,"weights":[],"biases":[0.5391033517491535,0.8328694079347698,-0.4823064449342856,0.8322255314012763,0.15494846580753818,0.9707121101703862,-0.21157244087836347,-1.8898673952209732,2.8827431431756714,1.658591087016914]},{"inputNeurons":10,"outputNeurons":3,"weights":[[-0.11730142542116229,-0.39990395033099274,-1.6875016756688084],[-0.7570354798511081,-0.24982444375301036,-0.8844636246460384],[0.4655222666169033,-1.0831590942216094,-1.4623880963270677],[-0.666667075470563,-0.002274791415631805,-0.4703964009597139],[-2.0047835521161685,0.22345418437789383,0.6160643883017956],[1.0851986921849335,-1.054277609825937,-1.630912936874263],[0.1790599714071732,-0.005921716540469246,-0.9891067175756025],[-1.2121782939825816,1.0162742437729957,1.991977811355079],[0.17812107425652757,-1.0985725055835598,0.17135729181695553],[0.25203030147568073,-2.4699902522258372,0.6002825294878786]],"biases":[0.5524504631723175,-0.9182812681695961,0.01235992797953911]},{"inputNeurons":3,"outputNeurons":1,"weights":[[0.20150356481022486],[0.7278966250974708],[-1.0583227057136932]],"biases":[0.471239294515554]}],"scores":{"1":1940,"2":2320,"3":2520,"4":1300,"5":2320,"6":2320,"7":2500,"8":2320,"9":2320,"10":2520,"11":2320,"12":3520,"13":2320,"14":2320,"15":2520,"16":2320,"17":2320,"18":2520,"19":2320,"20":2320,"21":2320,"22":2320,"23":2520,"24":2240,"25":2320}},{"layers":[{"inputNeurons":0,"outputNeurons":10,"weights":[],"biases":[0.21540381950722687,0.9029096288877462,0.02660273177492198,0.6058758432173363,-0.1289992455468759,1.0570563242921593,-0.5865481283807286,-1.8313498801832797,2.243039722088175,1.2371661053082772]},{"inputNeurons":10,"outputNeurons":3,"weights":[[-0.012074817939674631,-0.07675157427281105,-1.6600908299549604],[-0.621288092537652,-0.12110170652920832,-0.5610850190150517],[0.8134405580001685,-1.0150759022775928,-2.0031589846759936],[-0.5733041355396722,-0.4334068203529047,-0.23663604219804513],[-1.8498687758294425,0.25195775359398564,0.3379187781185765],[1.55953248893186,-0.5583402431955751,-1.0629714046142558],[0.4857714603392747,-0.020139582711518667,-1.079975108759636],[-0.5679146211465232,1.0046547833255215,1.9496737345404833],[0.5324385820905866,-0.9177776827674222,0.5324756635948847],[-0.33613960594199316,-2.3854380551227012,0.6261085146742749]],"biases":[1.5003952282725947,-0.8495277639198892,0.26319392450029755]},{"inputNeurons":3,"outputNeurons":1,"weights":[[0.13188585766544875],[0.9016133934471361],[-1.1132595531404637]],"biases":[0.45482675185313814]}],"scores":{"1":3820,"2":2320,"3":2320,"4":2650,"5":2320,"6":2320,"7":2320,"8":2340,"9":2320,"10":2320,"11":2490,"12":1300,"13":2210,"14":2400,"15":2920,"16":2320,"17":2720,"18":2320,"19":1310,"20":2320,"21":2210,"22":2320,"23":2320,"24":2320,"25":2320}},{"layers":[{"inputNeurons":0,"outputNeurons":10,"weights":[],"biases":[1.0281569859325344,-0.42925141848575,-0.0825843444908918,0.44714486223627725,1.1095119487033165,0.6190987634653595,-0.8846269354605547,-1.1323914956389944,1.7450232586207537,0.9026794401639799]},{"inputNeurons":10,"outputNeurons":3,"weights":[[0.32478148060929357,-0.5999355478719587,-1.637072592930709],[-0.8783836325151955,-0.9160089974790869,-0.5168157350216016],[1.2799149234686973,-1.217499088523291,-1.7754127321565278],[-1.7168746828912504,-0.19000555908584427,-0.7656421690150799],[-1.2867182253598028,0.14991015692494505,0.1255772776486499],[1.943912091512164,-1.0354600434006482,-1.8612154661351936],[0.7853098499852282,0.7676698234419874,-0.6678743730749952],[-0.4268530134807178,1.1809400694956642,1.1684768871553295],[0.4735267868839384,-0.6701787533612271,0.5290692631987209],[-1.213213292786652,-1.266415204529557,1.3948702212023703]],"biases":[1.3822758471329202,-1.5145744272157586,0.614757139677061]},{"inputNeurons":3,"outputNeurons":1,"weights":[[0.2649297515157728],[1.0406729455428732],[-0.8393233741381775]],"biases":[1.0222685325456968]}],"scores":{"1":2320,"2":2320,"3":2320,"4":2320,"5":3120,"6":2520,"7":2320,"8":2320,"9":2320,"10":2320,"11":2320,"12":2320,"13":2320,"14":2320,"15":2320,"16":2320,"17":2320,"18":2320,"19":2320,"20":2520,"21":2320,"22":2320,"23":2720,"24":1300,"25":2320}},{"layers":[{"inputNeurons":0,"outputNeurons":10,"weights":[],"biases":[0.41790456847964597,1.1975444068005334,0.20447542530837232,0.8633621227514272,0.08878911783642002,0.7497607675920204,-0.2675243159247529,-2.1206887326067085,2.906332770019268,1.3499568356144687]},{"inputNeurons":10,"outputNeurons":3,"weights":[[0.21365600704934967,0.13046280219082862,-1.44294973658686],[-0.483999032681752,-0.27222240749649296,-0.628309538681707],[0.7031291879271113,-0.8925109855629964,-1.7419662017120257],[-0.30222807060895107,-0.7150809083798141,-0.2188487935112416],[-1.913927536254727,0.6580854617250143,0.5646968157977367],[1.4029378456238952,-0.5585202402542753,-1.75189254935943],[0.34121039803703995,-0.3852727723273592,-1.213370168740223],[-0.8253435280033811,0.6342092500217693,1.9299209367746666],[0.5559707697268909,-1.2003498199720635,0.21828715246204666],[0.3704646467517392,-1.9551497526641302,1.0986533937070702]],"biases":[1.0771049417346774,-0.619673921714073,0.3798388782620139]},{"inputNeurons":3,"outputNeurons":1,"weights":[[-0.09410684938392039],[0.629368250391878],[-1.150690268378024]],"biases":[0.27689966521204146]}],"scores":{"1":2320,"2":2210,"3":2520,"4":1300,"5":2320,"6":2320,"7":2320,"8":2320,"9":2590,"10":2320,"11":2320,"12":2320,"13":3120,"14":2320,"15":2320,"16":2320,"17":2520,"18":2720,"19":1300,"20":2320,"21":2320,"22":2320,"23":2320,"24":2320,"25":3160}},{"layers":[{"inputNeurons":0,"outputNeurons":10,"weights":[],"biases":[1.1073648837691161,-0.2512794987654551,0.4456951741917925,0.4151688407024736,0.9473075238452716,0.7078542346384435,-0.4338720530371094,-1.5043230916293977,1.2595017913748094,1.2372371906107418]},{"inputNeurons":10,"outputNeurons":3,"weights":[[0.4514293312696609,-0.7083915249704534,-1.4871615945637178],[-0.6601836664067217,-0.7137972872322169,-0.8957244643495041],[0.9568787973462509,-1.2878245628039184,-1.1910162355830358],[-1.3702494441148387,-0.008156294950645085,-1.0116661963569913],[-1.5111685440949545,0.16104418759261788,-0.500951826887506],[1.6318182960511318,-0.7541107413028014,-2.316887377846711],[0.7685843490635801,1.1353178928147556,-0.1778554049185086],[-0.31274091796166803,1.1268085780745085,1.2131287719899757],[0.06695862633123287,-0.6670883314831302,0.3888721893017548],[-1.2828810436609666,-1.437120696292193,1.2118485899020581]],"biases":[1.4741415181057396,-1.220977067509175,0.30551176429558213]},{"inputNeurons":3,"outputNeurons":1,"weights":[[0.4244610532984314],[0.7618744013525227],[-1.3706803975491444]],"biases":[1.604194038008322]}],"scores":{"1":1300,"2":2320,"3":2320,"4":2520,"5":2290,"6":2590,"7":2320,"8":2320,"9":3050,"10":2520,"11":2320,"12":2320,"13":2520,"14":1940,"15":1300,"16":2890,"17":2320,"18":2320,"19":2320,"20":2320,"21":2720,"22":2320,"23":2320,"24":2320,"25":2520}},{"layers":[{"inputNeurons":0,"outputNeurons":10,"weights":[],"biases":[0.24604042143637223,0.5397931370351495,0.0041284094196134755,0.6867179154852622,-0.36024669191629505,0.805822037380555,-0.5281908165141991,-1.763138611289141,2.157924386113368,1.2390157352530364]},{"inputNeurons":10,"outputNeurons":3,"weights":[[-0.06784678744287284,-0.2599257328335586,-1.1899098563524821],[-0.353241960275931,-0.4838653699958886,-0.6258030967698781],[0.6267412188906604,-1.359477652891914,-1.6789941763586447],[-0.5971931128114856,-0.15801002469091907,-0.4587305043396047],[-1.5857747070833097,-0.33880423902191115,0.3619941873817369],[1.143011022736067,-0.7569832600204456,-1.7305216547844615],[0.20542309713742435,-0.3170836392175053,-0.5357734557231011],[-0.27846050138748085,1.0338734833456869,1.83303299205108],[0.4254806827405874,-1.4399097184717289,0.34196554781077876],[-0.5712477230154369,-2.0478832659803343,0.5718586916367671]],"biases":[1.2640732747402617,-0.8096784553598532,0.06949493031741462]},{"inputNeurons":3,"outputNeurons":1,"weights":[[0.2324222900789828],[0.913762775632017],[-0.8603600941038881]],"biases":[0.2358081163767806]}],"scores":{"1":2110,"2":2320,"3":2340,"4":2430,"5":2340,"6":2340,"7":2340,"8":2520,"9":2740,"10":2340,"11":2940,"12":2020,"13":2320,"14":2340,"15":2340,"16":2540,"17":2340,"18":2340,"19":2340,"20":2340,"21":2340,"22":1320,"23":2540,"24":1290,"25":2540}},{"layers":[{"inputNeurons":0,"outputNeurons":10,"weights":[],"biases":[0.6359718843314174,-0.3049414917650288,0.6928831217123848,0.8860996551428962,0.8789230939370956,0.12067511446256973,-0.8639461582784645,-0.939819691553214,2.065490119676157,0.7733061139607749]},{"inputNeurons":10,"outputNeurons":3,"weights":[[0.10655003942582597,-0.107250516540224,-1.2012630838537814],[-1.3272446581593216,-0.6071328593683317,-0.7638523925195706],[0.6602718922184416,-0.8013141372906067,-1.3897970331339682],[-1.4900771835137938,0.32589772404829753,-1.02881383041996],[-1.9607605961487484,-0.17164263806565366,-0.4213351002269927],[1.7552648167627893,-1.1590457170285637,-1.9065090595238443],[0.4775085934071459,0.3380394749130571,-0.6818078192982133],[-0.5543051232954657,1.0170836225831015,1.199968063994016],[0.13540159575908484,-0.6246256428577996,0.3054453332173341],[-1.1579121167230768,-1.5213175969952775,0.9036742101823609]],"biases":[1.878693830824571,-1.3798170329005073,0.1171077441542802]},{"inputNeurons":3,"outputNeurons":1,"weights":[[0.29526078100126674],[1.3302113552438257],[-1.6334000657047028]],"biases":[1.6891336722259989]}],"scores":{"1":2320,"2":2320,"3":2520,"4":2320,"5":2200,"6":2840,"7":2320,"8":2320,"9":2320,"10":2320,"11":2320,"12":2320,"13":2320,"14":2290,"15":2320,"16":2320,"17":2320,"18":1300,"19":2320,"20":2320,"21":2320,"22":2320,"23":2320,"24":2320,"25":2320}},{"layers":[{"inputNeurons":0,"outputNeurons":10,"weights":[],"biases":[0.3663284600339319,0.9612276199922785,0.11847114279794481,0.9978506592960298,-0.2764825849665749,0.9444359799955662,-0.8174186697563939,-1.8665372005985519,2.388495143374622,0.8467667263440681]},{"inputNeurons":10,"outputNeurons":3,"weights":[[0.2908114323653038,-0.2617689164343133,-1.7230824784856191],[-0.37760735343481466,-0.2568044447454242,-0.430477704814501],[0.2305500103974215,-1.1568386175378262,-1.9699291188424164],[-0.5785425490008442,-0.09917855752335614,-0.37184183168036433],[-2.0621493778209405,0.1811185802668209,0.6581489684734223],[1.243871035092817,-0.6763379559718441,-1.389990212497037],[0.006758151349710972,-0.5203933543525385,-0.9414905202086781],[-0.41333422741128056,1.1756868768173814,1.9781448239350543],[0.2861579040260325,-1.3482968732829208,0.886401077263415],[-0.1633887653657079,-2.062360054569313,0.24290389542738366]],"biases":[1.273107609294727,-0.8393698334167218,0.14697160652681582]},{"inputNeurons":3,"outputNeurons":1,"weights":[[0.8083127464407973],[0.8832226112743797],[-0.7824101362561311]],"biases":[0.48983859557531734]}],"scores":{"1":2340,"2":2340,"3":2710,"4":2320,"5":2340,"6":2340,"7":2020,"8":2340,"9":2310,"10":2340,"11":2320,"12":1960,"13":2340,"14":1300,"15":2540,"16":2340,"17":2340,"18":2110,"19":2320,"20":2340,"21":2300,"22":2320,"23":2320,"24":2340,"25":2340}},{"layers":[{"inputNeurons":0,"outputNeurons":10,"weights":[],"biases":[0.4803861469451399,0.050196613714272476,0.1455028913540925,0.4028267574293819,0.9332281326711016,0.4424108251630975,-0.8430978907663617,-1.248113730808162,1.4647746366974062,1.1811951031662455]},{"inputNeurons":10,"outputNeurons":3,"weights":[[0.47411927081918337,-0.5310562302536236,-1.624696685311801],[-0.5852115637247652,-1.371623241896931,-0.5549678020760331],[1.5548265506811563,-1.0650899212033114,-1.500203547621687],[-1.314021034248341,-0.056332796251138344,-0.4811944106318722],[-1.557082606663863,0.4536991239890283,-0.015488338283116604],[1.983756754928915,-0.9426028892308014,-2.1795244834413783],[0.44933866163426917,1.1028155529528292,-0.6708149279187259],[-0.35596573315580293,1.3039995191198557,0.9673062864429024],[0.3835806438837588,-0.6251932778472431,0.3446953958321863],[-1.1866221179767251,-1.1898356390366123,1.3037782603433437]],"biases":[1.8326252285790579,-1.2073462753866522,0.5844704908631561]},{"inputNeurons":3,"outputNeurons":1,"weights":[[0.6845312343784045],[0.9553481755159701],[-0.8533734615976022]],"biases":[1.1639925997086558]}],"scores":{"1":1900,"2":2860,"3":1690,"4":1840,"5":1940,"6":2460,"7":2560,"8":2060,"9":2380,"10":2060,"11":3420,"12":2290,"13":1500,"14":2380,"15":1990,"16":2530,"17":2430,"18":1170,"19":2660,"20":1090,"21":2580,"22":2500,"23":1430,"24":1620,"25":2220}},{"layers":[{"inputNeurons":0,"outputNeurons":10,"weights":[],"biases":[0.7235843796489247,0.8331122593238974,0.0203912843152231,0.5512299808215236,0.32682888955270745,0.7628510710441515,-0.11348383588521166,-1.6538231187295354,2.1484668707438126,1.6778991242458523]},{"inputNeurons":10,"outputNeurons":3,"weights":[[0.0314785597976619,-0.07796983076080938,-1.2523928811555438],[-0.4494347636489346,-0.6639348074222844,-0.24111253087004186],[0.3950689349356318,-1.2940610347724664,-1.882483556049645],[-0.4833769464655937,-0.25315695163192664,0.005321522384426902],[-1.8617803889599593,0.38662406762266316,0.5137598292372015],[1.7673780350001804,-0.13485294799176034,-1.2632800515520577],[0.7279630648377535,-0.2589632458573233,-0.9562916899523471],[-0.3397551838765259,0.6747052389110778,1.9662117616728316],[0.8532711234475785,-1.5049673957786356,0.542855625946504],[-0.6514831115627477,-1.8032549561511455,0.7250145473150009]],"biases":[0.6268549238586056,-0.8981409786225203,0.1847841065508303]},{"inputNeurons":3,"outputNeurons":1,"weights":[[0.45134039812046983],[1.2369494354886763],[-0.8457023581331569]],"biases":[0.4794774835124812]}],"scores":{"1":1900,"2":2310,"3":2510,"4":1380,"5":2580,"6":1540,"7":2220,"8":1480,"9":2660,"10":1320,"11":2660,"12":1340,"13":1660,"14":1450,"15":2580,"16":3120,"17":1620,"18":1840,"19":1970,"20":1760,"21":1320,"22":1770,"23":1840,"24":2350,"25":2020}},{"layers":[{"inputNeurons":0,"outputNeurons":10,"weights":[],"biases":[-0.27659477723824777,1.3310528419923155,0.2338286807963848,1.2628742597006684,-0.11634101828853083,0.5849055743312725,-0.15364419620113395,-2.2105868229250087,2.679994534256064,1.5745045558665163]},{"inputNeurons":10,"outputNeurons":3,"weights":[[0.25161253511027915,-0.35838935951736683,-1.7715121193377528],[-0.43362730827269635,-0.31838946518008115,-0.43578119464991694],[0.829177103811404,-1.0993700940099678,-1.1355640863631418],[-0.4892671469826361,-0.6439722547980135,-0.4770415733948205],[-1.879805864906708,0.5690840469676902,0.3140814321531217],[1.2465675412403445,-0.9313092111794014,-1.7113317894227242],[0.26909184992380153,-0.4130086477751949,-0.8107335837166164],[-0.9673169833144808,0.9569819777165606,1.7938171316339961],[0.4525192679479594,-1.0277801102439867,0.46619971320507],[-0.08178280562050756,-2.5174167588967444,0.8266702601207218]],"biases":[0.8604484095278481,-1.1058378115479466,0.1969079966071028]},{"inputNeurons":3,"outputNeurons":1,"weights":[[0.5146011827690935],[1.007926285659625],[-1.1975137130879805]],"biases":[0.12007868486833914]}],"scores":{"1":1710,"2":1710,"3":1980,"4":1710,"5":1710,"6":2040,"7":1710,"8":1300,"9":1710,"10":1710,"11":1300,"12":1710,"13":1710,"14":1710,"15":1710,"16":2540,"17":1710,"18":1710,"19":1710,"20":2530,"21":1280,"22":1710,"23":1710,"24":1710,"25":1320}},{"layers":[{"inputNeurons":0,"outputNeurons":10,"weights":[],"biases":[0.7792708216823935,0.40992928793859734,0.23640005084552554,0.6647878218489399,1.244036891677875,0.8477728689056485,-1.094959228177292,-1.0362479234636077,1.4114678374790892,1.5330845145673477]},{"inputNeurons":10,"outputNeurons":3,"weights":[[0.8379379007325369,-0.40206272769358453,-1.2984723056429557],[-0.41350043140117115,-1.1755572664328475,-0.5372958022191637],[1.7210357061181674,-1.2230630933256865,-1.8733329592117913],[-1.3874707724624302,-0.4005870834104811,-0.7463945317424128],[-1.8094950962823677,0.04535178213729095,-0.045283260687631235],[1.8405292132430133,-0.993155157497517,-2.316959851388001],[0.5535833616160563,0.8041632669420057,-0.8061358611235159],[-0.058146988558399726,0.9848367763862623,0.7549136800705896],[0.22386066665936044,-0.17063995258499715,0.06174647680696155],[-1.3441827944957907,-1.5267550664199805,0.9692964830750833]],"biases":[1.8663940168720423,-1.3617340848287152,0.4994852450021454]},{"inputNeurons":3,"outputNeurons":1,"weights":[[0.6373387586427623],[0.956860179604784],[-1.0384871797410962]],"biases":[1.269242812752146]}],"scores":{"1":1440,"2":1680,"3":1490,"4":1210,"5":1440,"6":4790,"7":1200,"8":1540,"9":1680,"10":1700,"11":1600,"12":2040,"13":1700,"14":1670,"15":1960,"16":1840,"17":1600,"18":1560,"19":1750,"20":1220,"21":1430,"22":1760,"23":1650,"24":1480,"25":1660}},{"layers":[{"inputNeurons":0,"outputNeurons":10,"weights":[],"biases":[0.16559104476386127,1.1892659874243416,-0.34022416376535314,0.8082624809847377,0.035169776824384186,0.6532817691428909,-0.23985286118171628,-1.859391261613561,2.611733241869502,0.7376578538208749]},{"inputNeurons":10,"outputNeurons":3,"weights":[[0.019338087897878033,-0.13717309764650068,-2.0217743501334815],[-0.7123187715548976,-0.3746173034028383,-0.5200423543589408],[0.20861090139607844,-1.1246841257796303,-1.862402833130492],[-0.5702307272398531,-0.2710579178842397,-0.5889778293191176],[-2.49291783098469,-0.3274296062582726,0.6622788126441131],[1.2184579387718282,-1.2549786376018037,-1.8671403462006264],[0.2175180355168237,-0.3066072174299275,-1.0856834281598204],[-0.9039874320408848,1.1202331760912023,1.918936296677135],[0.4767286594176483,-1.294274822820438,0.05084182140023491],[-0.296744894862102,-2.2001867222398905,0.835184763675695]],"biases":[0.8336080520334015,-0.985079521326037,0.0998068172103352]},{"inputNeurons":3,"outputNeurons":1,"weights":[[0.044624480463171634],[0.8069594492496867],[-0.9251414597465849]],"biases":[0.29869053853613803]}],"scores":{"1":1740,"2":1820,"3":1130,"4":1820,"5":1840,"6":1560,"7":1840,"8":1670,"9":1760,"10":1660,"11":1270,"12":1670,"13":1760,"14":1480,"15":1820,"16":1940,"17":1440,"18":1820,"19":1820,"20":1480,"21":1820,"22":1720,"23":1710,"24":1410,"25":2030}},{"layers":[{"inputNeurons":0,"outputNeurons":10,"weights":[],"biases":[0.37233390122570503,-0.8449072919551855,0.2628155785785926,0.6032341755626323,0.9077685483847228,0.2493450791410417,-0.5360519595194867,-0.9875753796129008,2.173103909530697,0.44707094475245324]},{"inputNeurons":10,"outputNeurons":3,"weights":[[0.8042291746567973,-0.02228148594681603,-1.3214965746883798],[-1.621834252586027,-0.8776978212378264,-0.7211862879964304],[0.9794836110509754,-0.9547482274591773,-1.425941043222235],[-1.4709836786727848,0.30588058755236514,-0.955541120413922],[-1.9401693629368788,-0.453285339031974,-0.652055608673739],[1.5266783082541573,-1.306899977110431,-1.619031818900001],[0.4556840237460311,0.3234224171903535,-1.0543008571993664],[-0.6213569274470417,0.6534969108701542,1.6088373570102361],[0.39369877074374815,-0.5812176619438714,0.0660049293616681],[-1.2533405308261876,-1.075606906032286,0.8294620268946169]],"biases":[1.6915483611987852,-1.0776046871331044,0.07405046327066926]},{"inputNeurons":3,"outputNeurons":1,"weights":[[0.4033062996098598],[0.9799309961339333],[-1.3033356391518547]],"biases":[1.37847600838739]}],"scores":{"1":1160,"2":1120,"3":1840,"4":1700,"5":900,"6":1880,"7":1760,"8":1480,"9":1590,"10":1680,"11":1510,"12":1660,"13":1460,"14":1700,"15":1430,"16":1260,"17":1630,"18":1520,"19":1430,"20":1180,"21":1760,"22":1840,"23":1880,"24":1760,"25":4660}},{"layers":[{"inputNeurons":0,"outputNeurons":10,"weights":[],"biases":[0.7280898280493966,-0.6646187315725575,0.3533172954113828,0.6924166043909358,0.8989957389053059,0.02448326335236678,-0.9313666963797645,-1.2568981446024692,1.6027872095093643,0.6895649011367634]},{"inputNeurons":10,"outputNeurons":3,"weights":[[0.7821249106699888,-0.1325286839533983,-1.3029341584722534],[-1.3294270056400443,-0.9085841879271677,-0.9566676765926997],[0.9078713232688366,-0.7417008171151385,-1.4030761891607642],[-1.0829468789237129,0.008499081018539599,-1.364328295495348],[-1.6661941866169812,-0.052659225167114576,0.09836049855957413],[1.8593535381797683,-1.4859876482001206,-1.7223714717274496],[0.7929762376460208,0.7385853078609911,-1.00762658972942],[-1.0459868096947083,0.548829427222134,1.0494988842895556],[0.34503776223013016,-0.8616357464259752,0.23777231913132624],[-1.2380813520847824,-1.1215136305482507,0.42279101830528765]],"biases":[1.62002257298354,-1.6625498788961894,0.4660674918384679]},{"inputNeurons":3,"outputNeurons":1,"weights":[[0.5865776835643828],[0.7533260736362746],[-1.6946821697880172]],"biases":[1.4110911511871396]}],"scores":{"1":1660,"2":1690,"3":1020,"4":2940,"5":1850,"6":1450,"7":1820,"8":1680,"9":1700,"10":1480,"11":1370,"12":1780,"13":1620,"14":1920,"15":2230,"16":1660,"17":1760,"18":1400,"19":1680,"20":1840,"21":970,"22":1490,"23":1770,"24":1160,"25":1660}},{"layers":[{"inputNeurons":0,"outputNeurons":10,"weights":[],"biases":[0.7242761043165609,-0.3696581552436583,0.32545067431083374,0.8043679181718607,0.8105212099823612,0.7477136361312688,-0.6618188390458284,-0.9694764960666895,1.5480281859507123,1.3193230886381073]},{"inputNeurons":10,"outputNeurons":3,"weights":[[0.38306741184399684,-0.7633839910588056,-1.5009397007525818],[-0.48308629740426495,-1.1569520050205555,-0.7182684116427337],[1.4348326909577653,-1.0053962029590353,-1.1672806909213238],[-1.2093831408901643,-0.20748861292588372,-0.2656988574890703],[-1.986221365089449,0.3144748948499309,-0.027804342852729202],[1.794380917208932,-1.2104766682940309,-2.1616706722157595],[0.4221679749361341,0.7687737951892851,-0.7801274127779123],[-0.5033691145385845,1.3722721315551165,1.1500470048163094],[0.5005043488898009,-0.7873131100114182,0.05751734549946358],[-1.2366211885659923,-1.6708010096704693,1.1160428914709393]],"biases":[1.6649131602134974,-1.4458821203436378,0.36933565397457735]},{"inputNeurons":3,"outputNeurons":1,"weights":[[0.32298081847765053],[0.9305491169619011],[-0.7494129220114367]],"biases":[1.069342728798548]}],"scores":{"1":1840,"2":1340,"3":1660,"4":1880,"5":1680,"6":1630,"7":1840,"8":1780,"9":1520,"10":1840,"11":2020,"12":1710,"13":1500,"14":1430,"15":1680,"16":1830,"17":1610,"18":1470,"19":1650,"20":1680,"21":1410,"22":1340,"23":1600,"24":1600,"25":1890}},{"layers":[{"inputNeurons":0,"outputNeurons":10,"weights":[],"biases":[0.10608345621626468,1.1133691948611126,-0.11272885693999417,0.7584317495178906,0.03275341573514323,0.7072739249459845,0.0021059439248079515,-2.071983560919555,2.4821738946564627,1.817874796912265]},{"inputNeurons":10,"outputNeurons":3,"weights":[[0.23998315145233218,-0.2658946996098057,-1.536377955046843],[-0.14440629176765157,-0.13542230771693303,-0.3949494408200447],[0.30050828807028607,-0.7790906170893284,-1.473392748755657],[-0.8106978923661343,-0.4810647924434639,-0.3073149795214275],[-1.8530228885334652,0.4931515411608014,0.31778433187537564],[1.083335784589026,-0.8588927940831862,-1.5427116497295925],[0.22748113763522845,-0.5190970993823953,-0.6368279295558994],[-0.8757372754647906,1.1383139763566257,1.7801616902434676],[0.6814956276206435,-1.260327436427412,0.47020326282159775],[0.1743481619964169,-1.697139480399389,0.9632830556646137]],"biases":[0.5232286770694959,-1.03926709394449,0.03887227671775387]},{"inputNeurons":3,"outputNeurons":1,"weights":[[0.5345767998642414],[1.0190666721810566],[-0.8953681624534471]],"biases":[0.21076289493412997]}],"scores":{"1":1480,"2":1320,"3":1500,"4":1600,"5":1510,"6":1450,"7":1700,"8":1400,"9":1460,"10":1760,"11":1760,"12":2230,"13":1840,"14":1520,"15":2040,"16":1680,"17":1540,"18":1630,"19":1660,"20":1010,"21":1840,"22":1610,"23":1490,"24":1840,"25":1840}},{"layers":[{"inputNeurons":0,"outputNeurons":10,"weights":[],"biases":[0.8778044526567443,0.015837283400516183,0.041553576514163304,0.4292649735453905,0.9300688757418835,0.4505534937650463,-0.4025835639154932,-1.029189565001274,1.7397159181650765,0.9805965131490395]},{"inputNeurons":10,"outputNeurons":3,"weights":[[0.2764215806179845,-0.5632281977453611,-1.4270493649081128],[-0.6673742045144375,-0.5807033560451604,-0.58266040613601],[1.063487321115945,-1.5565205910615487,-1.6489703828314848],[-1.4303674216959015,-0.1688795766051443,-0.8233196963858858],[-1.8924147939006393,0.09161891581662386,-0.1547068134525079],[1.8049764076961827,-0.8559337144249479,-1.966328209228625],[0.5590169894564494,0.5923814274492456,-0.22422184514654653],[-0.38697368530567294,1.0734873732962584,1.109454856252732],[0.36904018131346505,-0.20559066665554598,0.40993362672293204],[-1.0735274674743667,-1.04958063735874,0.9593146063420865]],"biases":[1.9531559584458364,-1.7728096021035087,