{"networks":[{"layers":[{"inputNeurons":0,"outputNeurons":10,"weights":[],"biases":[-0.020793461338891067,-0.09339598288233696,-0.4482071855992321,0.3207771579359405,0.7409552410658791,0.12382176121254893,-1.018498784503348,-1.302047332969831,1.3656566437508793,1.2509708872921819]},{"inputNeurons":10,"outputNeurons":3,"weights":[[0.28358940374455466,0.15250875961078508,-1.039048991822527],[-0.5458164147265172,-0.9795653221552233,-0.5696580000777588],[0.1046164509490757,-0.5893674633686619,-1.3131605043780645],[-0.3635389615259764,1.173610010059564,-1.304562874984008],[-0.9383825762427329,0.287698210904033,-0.6032201920634086],[1.6130417200369882,-0.4884045996657659,-1.275699969380735],[0.3623908597431966,-0.03437112108196849,-0.03720750263247913],[-0.5082151537956836,0.9507426649182088,0.22035101072229918],[-0.12512393848577397,-0.9166024700664313,1.307378096163675],[-1.0630431427459455,-2.7538781616143435,0.9296562590981365]],"biases":[1.1826009391945735,-1.1870845262866332,0.8167584353551063]},{"inputNeurons":3,"outputNeurons":1,"weights":[[0.7265857475637605],[0.6874236234425715],[-1.4290721290435298]],"biases":[1.6931990895186937]}],"scores":{"1":2320,"2":2320,"3":2520,"4":2520,"5":3420,"6":2500,"7":3120,"8":2520,"9":2320,"10":2320,"11":2320,"12":2320,"13":2320,"14":2320,"15":2640,"16":2800,"17":2320,"18":2320,"19":2320,"20":2320,"21":2260,"22":5920,"23":2320,"24":2520,"25":2500}},{"layers":[{"inputNeurons":0,"outputNeurons":10,"weights":[],"biases":[1.2611568587595512,-0.3901014902352443,-0.398374606857271,0.3687616622755652,0.5647491976134673,0.2769181785829125,-1.272412795397008,-1.2183789751156389,0.7451958641311841,1.0973106227715377]},{"inputNeurons":10,"outputNeurons":3,"weights":[[0.20981414294970485,0.5579534793135892,-1.0527133974134597],[-0.02977910131379996,-0.009955242793336018,0.151669418787017],[-0.5253449220309309,-0.32531073572870417,-0.9556439076987467],[-0.6900308398122617,1.1433706960914436,-1.4217531597067876],[-1.3679054193828937,0.3359716515549794,-0.3911778235606263],[1.5915696548868994,0.9056573375625019,-1.2963258046264559],[-0.22424827013308643,0.09347629528417326,-0.01632511678438073],[-0.4464355006338555,0.8677084029924482,-1.115245478144835],[-0.572825080581567,-0.07092196427311503,1.2757370323003334],[-0.4921760587941291,-2.241671182026357,0.9091376694957123]],"biases":[0.529194314943874,-0.45502409235794905,1.4952347177564913]},{"inputNeurons":3,"outputNeurons":1,"weights":[[0.5707310521433441],[0.5799722370556889],[-0.8546778693191273]],"biases":[0.7734441488741248]}],"scores":{"1":2520,"2":2320,"3":2320,"4":2320,"5":2320,"6":2520,"7":1300,"8":3920,"9":2320,"10":4920,"11":2320,"12":3920,"13":2320,"14":2620,"15":2320,"16":3250,"17":2520,"18":2320,"19":2190,"20":2320,"21":2320,"22":2320,"23":2320,"24":2920,"25":2320}},{"layers":[{"inputNeurons":0,"outputNeurons":10,"weights":[],"biases":[0.33519248831123194,-0.31560915338093887,-0.4982817080513118,0.5604340772034345,0.22211254295748717,0.1459809416725562,-0.9833146266900683,-1.340804122144124,1.5361393507533063,1.363642483579071]},{"inputNeurons":10,"outputNeurons":3,"weights":[[0.26803625703925404,-0.004864056654050319,-0.8952627869502062],[-0.29666514885167355,-0.72878133233842,-0.21225493442422452],[0.28403992912532805,-0.43649903525230405,-1.0212531285462856],[-0.6680315477767071,0.587808289507066,-0.7642614956069509],[-0.8924554315371255,-0.1339431256100499,-0.08734183741825688],[1.6581851789819697,-0.18035796147566968,-1.759964101118027],[0.5850162744443036,-0.15194410516575524,-0.15278588547925767],[-0.8564736952409471,0.4665665092492034,0.13633618830568867],[0.21779805823920234,-0.9027781510779841,0.773628784444671],[-0.9605640681555262,-2.1555567660476465,1.282699201093543]],"biases":[0.9465118146027952,-0.7512077926686315,0.31302151753861823]},{"inputNeurons":3,"outputNeurons":1,"weights":[[0.9256313423495488],[0.43536538367795646],[-1.1698078471953268]],"biases":[1.4394211201191256]}],"scores":{"1":2520,"2":2320,"3":2320,"4":2520,"5":2900,"6":2320,"7":3010,"8":2320,"9":2560,"10":2320,"11":2320,"12":2720,"13":2320,"14":2690,"15":2320,"16":2320,"17":2320,"18":5810,"19":2320,"20":2210,"21":2320,"22":2320,"23":2520,"24":2320,"25":2320}},{"layers":[{"inputNeurons":0,"outputNeurons":10,"weights":[],"biases":[0.9218875511029786,0.16096553854132475,0.17168425070608712,0.8018333959405852,0.3775031216904606,0.26667841965883043,-1.025444305615543,-1.046493152403932,1.0818965277712014,0.6022711810174355]},{"inputNeurons":10,"outputNeurons":3,"weights":[[0.41195952079983744,0.027660699914354797,-1.2559772519216694],[-0.6358953871103838,-0.12441069065818403,-0.030187975953631402],[-0.36369486938523066,-1.0596280539055953,-1.4918494917611183],[-0.554052684895648,1.2679816497604168,-0.950072336686963],[-0.35182891919984255,-0.47076063128178214,-0.3781332643707438],[1.7425836798875476,-0.11711221637704439,-1.221941190351143],[0.8286154606166742,-0.4676302161753922,-0.3103601129473713],[-0.6513487209343224,1.2709399381332054,-0.3015775529335439],[-0.25094357002582557,0.08136702977478372,1.1708035091996527],[-0.7338455958867579,-2.375507657393202,1.5375965388247859]],"biases":[0.8462329793379403,-1.2108674583989183,0.9372070298801444]},{"inputNeurons":3,"outputNeurons":1,"weights":[[0.7414283723876665],[0.11184926194223951],[-1.1775394160277541]],"biases":[1.1040945614695654]}],"scores":{"1":2520,"2":3040,"3":2320,"4":2320,"5":2320,"6":2200,"7":2320,"8":2320,"9":3450,"10":2320,"11":2320,"12":2220,"13":2320,"14":3120,"15":2320,"16":2520,"17":2320,"18":3450,"19":2320,"20":2200,"21":2720,"22":4220,"23":2320,"24":2320,"25":2320}},{"layers":[{"inputNeurons":0,"outputNeurons":10,"weights":[],"biases":[1.1193205275372622,0.18730764159431457,-0.6483626530360024,0.4046311374235391,1.027197100559536,0.5873446073103715,-0.9711150447145983,-0.9415165822601078,0.9655523405787902,1.0015507533818853]},{"inputNeurons":10,"outputNeurons":3,"weights":[[0.47222718414954334,0.5470093891096339,-1.1065281866234171],[0.5105072536974635,0.3395270375343943,-0.7850425298750308],[-0.5788060356431678,-0.7632811327152069,-0.7466002155693742],[-0.4201040403555878,1.175567565581179,-1.1689966727865326],[-1.3098640584438226,0.48902226679553257,-0.37114352723125604],[1.9758046327702323,0.8215655587560768,-1.6584406324121073],[0.2213887956992683,0.39137764644573314,-0.17151736120363498],[-0.6577303326130433,0.6807057360867321,-1.0853867269247361],[-0.5793198278251672,0.30600085496472934,0.8786075838811224],[-0.6425499973935034,-2.085412560104834,0.9121316810582604]],"biases":[0.1383020944743729,-0.8462683201397532,1.2463222496779196]},{"inputNeurons":3,"outputNeurons":1,"weights":[[0.3874349998936755],[0.6776844807722087],[-1.3028604470814789]],"biases":[0.3688068184186764]}],"scores":{"1":2320,"2":2720,"3":2320,"4":2320,"5":2320,"6":2320,"7":2520,"8":2320,"9":2320,"10":2320,"11":2320,"12":2320,"13":2320,"14":3120,"15":2320,"16":2320,"17":2320,"18":2320,"19":2320,"20":2320,"21":2320,"22":2320,"23":2200,"24":5450,"25":3960}},{"layers":[{"inputNeurons":0,"outputNeurons":10,"weights":[],"biases":[0.39864785518580265,0.33645391522387946,0.45917013641949633,-0.4880534076130276,1.263479239229057,1.069139325318727,-0.20514900445979423,-2.4610762106773225,0.5876035903990531,0.935197073432602]},{"inputNeurons":10,"outputNeurons":3,"weights":[[0.5210461892923105,-0.1258940014667785,0.9369261986542167],[0.4423241859747182,0.12806895653369527,-0.38699999632615784],[-0.7245038637662732,-2.1453651664868483,-0.10208445768184662],[-0.8757227156306419,0.7085419516527228,-0.10996738764027231],[-1.1431120668532047,-0.48443024900877213,-0.452414255562209],[1.7994521305445315,0.9586913911973886,-1.7926544610978024],[-1.0099171156594264,-0.2406047966667812,-0.17041733565391534],[0.09789246533217283,0.20294543979093532,-0.9142809087462963],[-0.4868573036476121,1.3474413109423646,0.9426340081438808],[0.8659693639363014,-1.4039484813772078,2.144775689087489]],"biases":[1.3569407868545305,0.2827407024155587,1.8810519645562336]},{"inputNeurons":3,"outputNeurons":1,"weights":[[-0.512576431015775],[-0.18906502890035065],[-1.670528511058735]],"biases":[0.7344543329406902]}],"scores":{"1":2520,"2":2320,"3":2320,"4":2320,"5":2320,"6":2320,"7":2320,"8":2920,"9":5520,"10":2320,"11":2320,"12":2520,"13":2320,"14":2320,"15":2320,"16":2320,"17":2320,"18":2320,"19":2720,"20":2320,"21":2520,"22":2920,"23":2600,"24":2320,"25":2560}},{"layers":[{"inputNeurons":0,"outputNeurons":10,"weights":[],"biases":[1.1478953757276562,0.08566590003592851,-0.4951944193840157,0.22799625865311585,1.332072220504284,0.4249400785766254,-0.7356018633907134,-1.033949154991713,0.6026382482848424,1.0403422609739414]},{"inputNeurons":10,"outputNeurons":3,"weights":[[0.4587232443220203,0.26222379272897245,-1.4160421621371913],[0.27532229640517875,0.28594622355428756,-0.4629290573807726],[-0.37996053213382736,-0.6349063124533411,-0.6124964543293036],[-0.43050595816430476,1.1710287409411748,-1.1478612521466607],[-1.2681096299973533,0.6420052257809294,-0.8004950535633527],[2.1332335743653883,0.8616655768345057,-1.5104188544960548],[0.198103100300211,0.10836942498121613,-0.21497132234091215],[-0.5547256656661611,0.212129871593372,-0.9751804708999572],[-0.7526903891508865,0.27697420454342986,0.9488825228475232],[-0.46731000179180254,-1.6536004115228924,0.9011815718719974]],"biases":[0.28713746171098264,-0.6896707738300609,0.741787772440951]},{"inputNeurons":3,"outputNeurons":1,"weights":[[0.3043487397384188],[0.4429778913678152],[-1.0518602964558457]],"biases":[0.5395089347575047]}],"scores":{"1":2320,"2":2320,"3":2320,"4":2320,"5":2320,"6":2320,"7":2320,"8":2320,"9":2320,"10":2210,"11":2520,"12":2690,"13":2700,"14":2320,"15":2320,"16":5520,"17":2320,"18":2320,"19":2920,"20":2320,"21":2320,"22":2520,"23":2320,"24":2520,"25":2690}},{"layers":[{"inputNeurons":0,"outputNeurons":10,"weights":[],"biases":[1.2696381654938151,0.2427718175922642,-0.35833792893809446,0.7390641409818444,1.0969098937177184,0.6133968429931538,-0.9987111297599789,-0.7393468315651138,0.666265772365801,0.5120576028439636]},{"inputNeurons":10,"outputNeurons":3,"weights":[[0.11782841293682228,0.3994194707962746,-1.6120139165026506],[0.1519075382437724,0.07700979143931522,-0.23113808520539492],[-0.5643436170332675,-0.6895433626374335,-0.5302545218551874],[-0.5049386700596259,1.7380379818404423,-0.97267238009058],[-1.4150455772466672,0.42004864321645435,-0.4469791456298493],[1.7120143529823364,1.0801178684334283,-1.3770741701099936],[0.22907616541651063,0.12769949488258914,0.14865713470672387],[-0.34328267509056076,0.6653905317291863,-0.728137393298071],[-0.39169539720514285,0.28743076896577335,1.0042542913609362],[-0.5855377999084643,-1.9665335607770744,0.7553429768788832]],"biases":[0.4281806398438519,-0.9350934358297665,0.9309709140228923]},{"inputNeurons":3,"outputNeurons":1,"weights":[[0.521439286532662],[0.5834202521470493],[-1.2444657039528955]],"biases":[0.9367419052581833]}],"scores":{"1":2720,"2":2210,"3":2520,"4":2320,"5":2520,"6":2320,"7":2320,"8":2320,"9":2320,"10":2320,"11":2320,"12":2320,"13":2320,"14":2340,"15":5520,"16":2320,"17":2610,"18":2320,"19":2320,"20":3120,"21":2320,"22":2700,"23":2320,"24":2210,"25":2320}},{"layers":[{"inputNeurons":0,"outputNeurons":10,"weights":[],"biases":[0.08959899027797946,0.06845358157573829,-0.6279238312814519,0.20728343661195564,0.3857860710177758,-0.09245912209875556,-0.9832669037458768,-1.3192068679500366,1.4587170350353325,1.1728933984691257]},{"inputNeurons":10,"outputNeurons":3,"weights":[[0.36568910504995045,-0.16643599342054302,-1.1615362798899018],[-0.2764307293496319,-0.9833479115903585,-0.16342817674530719],[0.32292745680114127,-0.990558080044972,-1.693860685728668],[-0.11975909020076181,0.9146557021962443,-0.897376942735925],[-0.5521764285258521,-0.14183969368898805,-0.2618722724041483],[1.2425440763461313,0.16317189316112105,-1.628577637050398],[0.544787216819128,-0.44887841282519886,-0.41463057127672975],[-0.5274180160233037,1.0132857579578285,-0.4734523382058749],[0.06879739848294605,-0.6121121786219232,1.0407383854018484],[-1.074597161354738,-2.332312050131468,0.9597344435009711]],"biases":[0.9797249094172706,-0.726245915303794,0.7822458134397915]},{"inputNeurons":3,"outputNeurons":1,"weights":[[0.4186371029743372],[0.45550682314855284],[-1.4628503304643692]],"biases":[1.3346293305885681]}],"scores":{"1":2320,"2":2520,"3":2320,"4":2320,"5":2520,"6":3320,"7":2320,"8":2800,"9":2520,"10":2320,"11":2320,"12":2920,"13":2320,"14":2320,"15":2520,"16":3120,"17":2320,"18":2960,"19":2320,"20":2320,"21":2690,"22":2520,"23":2320,"24":2320,"25":2320}},{"layers":[{"inputNeurons":0,"outputNeurons":10,"weights":[],"biases":[0.987090706888398,0.17073562884614038,-0.5591124203592441,0.5758778529544414,0.831555739116429,0.7584521658294683,-0.6580845844371168,-0.9827861317540586,0.9789002213516413,0.938516465703803]},{"inputNeurons":10,"outputNeurons":3,"weights":[[0.5996940713284352,0.4963027730993086,-1.494735845133705],[0.36695120664089687,-0.09247949935679778,-0.351818286810899],[-0.35727657796667234,-0.6268788596090549,-0.8941840227379556],[-0.8914731126021116,1.1693023860496305,-0.9904995511824387],[-1.627233785986935,0.5618775776338747,-0.5823434916450558],[1.890194252421159,0.7207937386597272,-1.5443191545591957],[0.37576777399087724,0.44104804106295853,0.0067222210436569604],[-0.4323123002587233,0.8467677518387626,-0.9005781805966978],[-0.6983128891537281,0.09868346580612025,1.166870986141313],[-0.419153918679501,-1.7876581177948885,0.9200285669800253]],"biases":[0.284945450406991,-0.802109346638163,1.033482596982814]},{"inputNeurons":3,"outputNeurons":1,"weights":[[0.46708200406188305],[0.47041648495590377],[-1.1203769408818611]],"biases":[0.6319310614199803]}],"scores":{"1":2320,"2":2720,"3":2320,"4":2920,"5":2920,"6":2320,"7":2520,"8":2520,"9":2320,"10":2320,"11":2320,"12":3010,"13":2320,"14":2320,"15":2320,"16":2320,"17":2600,"18":2520,"19":3250,"20":2320,"21":2320,"22":2820,"23":2320,"24":2520,"25":2320}},{"layers":[{"inputNeurons":0,"outputNeurons":10,"weights":[],"biases":[0.22286591324362798,0.2948712336975496,0.42335279718080326,-0.6074999292790375,1.125386463133982,1.3391354725209874,0.31883963799780835,-2.269006413356787,0.824497481593943,0.7262849130208401]},{"inputNeurons":10,"outputNeurons":3,"weights":[[0.7269107195655655,0.0017204957897467565,0.7712155677864667],[0.3496603282474512,0.28661445666401525,-0.12644898964302537],[-0.5850230959263746,-1.9495360309209662,-0.10086460932970401],[-0.8302772011007036,0.35134513249173127,-0.25787513809866214],[-1.4144584409157648,-0.6771884822890551,-0.5894678028201397],[1.9767727692483823,1.063117472588462,-1.7217800647657555],[-0.727727688393041,0.14988775372922575,-0.15849009468957964],[-0.22236814789541218,0.5903012872532624,-0.36330618606054804],[0.09081181848008373,1.313351426875241,1.1895618679659477],[0.8807694027663605,-1.4137645360710485,2.120789981563151]],"biases":[1.7338578396522941,0.18806598509303807,2.1577211364219044]},{"inputNeurons":3,"outputNeurons":1,"weights":[[-0.1713536398729256],[-0.12253260445582317],[-1.3685640665487797]],"biases":[0.5450859671851901]}],"scores":{"1":1300,"2":2320,"3":2320,"4":2520,"5":3510,"6":5520,"7":2190,"8":2320,"9":2320,"10":2320,"11":2320,"12":2320,"13":2520,"14":2320,"15":2320,"16":2320,"17":2320,"18":3120,"19":2320,"20":2320,"21":2320,"22":2320,"23":2320,"24":2320,"25":2520}},{"layers":[{"inputNeurons":0,"outputNeurons":10,"weights":[],"biases":[0.8176744379574569,-0.18638698900891196,0.14278347850332482,0.3475914869140944,0.2764402523462888,-0.06706777322928203,-1.1310104055432606,-1.0835831629772084,1.4626554068039246,0.6231703841871478]},{"inputNeurons":10,"outputNeurons":3,"weights":[[0.6137603819297817,0.09336345265629625,-1.064148789145577],[-0.5284404375733616,-0.1817427128211106,-0.19563693765389562],[-0.2736505993016184,-0.9063895478449029,-1.0117861040321103],[-0.6612123971933426,1.0258023555279443,-0.8800849804754168],[-0.7169671385186179,-0.12394635414348294,-0.424124251246145],[1.6034757235913875,0.1777990546310944,-1.3803549514007831],[0.4686122352669942,-0.5655895245801327,-0.21775130723691924],[-0.6728209214889018,1.3329586734114605,-0.5451013828941397],[-0.15915048672338575,-0.1745112548112887,0.9413096090447175],[-0.7860071520022532,-2.387095869761253,1.4496792671778]],"biases":[0.9224546196524874,-0.9778636859188637,0.9699249535762493]},{"inputNeurons":3,"outputNeurons":1,"weights":[[0.5265829107732869],[0.15718223092073902],[-1.1466609574516826]],"biases":[1.1007989964756693]}],"scores":{"1":2320,"2":2320,"3":2320,"4":2500,"5":2320,"6":2320,"7":2320,"8":4240,"9":2320,"10":2320,"11":2500,"12":2290,"13":1300,"14":3490,"15":2320,"16":2320,"17":2520,"18":2320,"19":2520,"20":2520,"21":2320,"22":2320,"23":2920,"24":3120,"25":2520}},{"layers":[{"inputNeurons":0,"outputNeurons":10,"weights":[],"biases":[0.32704429941399793,0.37875070136218747,0.35426701422738566,-0.6036679194010012,1.5728730387397059,1.0037807677850206,-0.02201555865064099,-2.1542150783153327,0.5349442756265571,0.9509113751747661]},{"inputNeurons":10,"outputNeurons":3,"weights":[[0.8029535498663722,-0.3790397693695624,0.6119296175291732],[0.48860242895876727,0.19738450124920986,-0.310829326373664],[-0.18334723293813227,-2.0573058041750305,-0.286696251832832],[-0.9249395905316706,0.704293807169298,-0.2696678984603005],[-1.3369346765362846,-0.5296447305223366,-0.4600436185953728],[1.4994399755231647,1.7068854840792087,-1.3521678583813102],[-0.6479704809084214,-0.3193708821649147,-0.3811907781852654],[-0.376537374170156,0.3918189034981854,-0.39250166442197015],[-0.026596390502237825,0.8389477734618116,0.9082236206805737],[0.5972529072003395,-1.3021325981639478,2.3172847646186945]],"biases":[1.424673011480195,-0.020786657389892244,2.0649941007331694]},{"inputNeurons":3,"outputNeurons":1,"weights":[[-0.4234750112935822],[0.04327322924708471],[-1.3808147692075128]],"biases":[0.7333998635865635]}],"scores":{"1":3640,"2":3390,"3":2290,"4":2320,"5":2320,"6":2320,"7":2320,"8":2520,"9":2320,"10":2320,"11":2320,"12":2220,"13":3250,"14":2320,"15":2340,"16":2320,"17":2210,"18":2320,"19":2320,"20":2320,"21":2520,"22":2320,"23":2320,"24":2520,"25":3020}},{"layers":[{"inputNeurons":0,"outputNeurons":10,"weights":[],"biases":[0.36989871265329155,0.1473970812461293,-0.2164886476295533,0.3938505197300863,0.5666083551290263,-0.11322677661812086,-1.4036227943718234,-1.4808180255035235,1.6077438034498954,1.0692222703221497]},{"inputNeurons":10,"outputNeurons":3,"weights":[[0.0306869589610457,-0.14341029703749408,-1.2347859148598364],[0.03246231277076822,-0.46461309220006497,-0.10977757283084724],[0.30560865098132517,-0.31421673441189985,-1.3379348077389468],[-0.7316761165959264,0.2925149514224863,-0.7246121851727937],[-1.26816920827488,-0.3384539062663206,0.06472391987803089],[1.305397989062951,0.10923596633206276,-1.5097825884891134],[0.5466374408711487,-0.9045523963569594,-0.5176618754284361],[-0.6764909465017285,0.8474610817383643,-0.31679060587131824],[0.36584877921348774,-0.8629115821408292,1.0974904959721545],[-1.2141403850893497,-2.563713779749663,1.1472289983568458]],"biases":[0.7556592925310168,-0.8511847457754003,0.9242399900410873]},{"inputNeurons":3,"outputNeurons":1,"weights":[[0.5546623798787997],[0.09870534857661634],[-0.9639024435057079]],"biases":[1.204278644950952]}],"scores":{"1":2970,"2":2320,"3":2320,"4":2520,"5":2320,"6":2320,"7":2720,"8":2720,"9":2320,"10":2320,"11":2320,"12":2320,"13":2320,"14":2320,"15":2320,"16":2320,"17":2320,"18":2320,"19":2920,"20":2320,"21":2520,"22":4220,"23":2290,"24":2320,"25":2320}},{"layers":[{"inputNeurons":0,"outputNeurons":10,"weights":[],"biases":[0.061573576075212244,0.42163811352565783,0.17515460817263093,-0.4033856211038428,0.9574215317845121,0.9937276851271363,0.1326339564450816,-2.28413847632425,0.8324824892100315,1.023157348750728]},{"inputNeurons":10,"outputNeurons":3,"weights":[[0.9142568459417629,0.08102878942772015,0.7955576376461803],[0.3735440171744922,0.1995421736429564,-0.3302482367821601],[-0.8033791256165016,-2.0226898251533885,-0.4158461581385365],[-0.5322762679727298,0.31050259295147653,0.2427600757560686],[-1.353850692669152,-0.49353478479826934,-0.6631315295492015],[1.6526522822481007,1.1491203672889838,-1.4188836217239649],[-0.7943529044864454,-0.17689370962596718,-0.010252748727360095],[-0.17951404464187123,0.010775982864241918,-0.27547054923229936],[0.06438932809172135,1.271114274082281,1.0800324762180504],[0.7574703857068915,-1.2577616017986557,2.1590720029815236]],"biases":[1.28219649366706,-0.010834349782195996,2.3110208706783224]},{"inputNeurons":3,"outputNeurons":1,"weights":[[-0.6306121519215291],[0.16225529591927484],[-1.2906456423240766]],"biases":[0.9049291380356642]}],"scores":{"1":2320,"2":3120,"3":2320,"4":2320,"5":2320,"6":2320,"7":2320,"8":1290,"9":2320,"10":2320,"11":2720,"12":2320,"13":2320,"14":2520,"15":2590,"16":2920,"17":2320,"18":2320,"19":2320,"20":2320,"21":4450,"22":2320,"23":3370,"24":2190,"25":2320}},{"layers":[{"inputNeurons":0,"outputNeurons":10,"weights":[],"biases":[0.7434937888259789,-0.32937500699370037,-0.052399875337136304,0.7014048342217161,0.36777787878783785,-0.13946046860907588,-1.0378682859591524,-1.0796124048139042,1.44794090905764,0.7742367653107038]},{"inputNeurons":10,"outputNeurons":3,"weights":[[0.7309234205062503,0.43124589751004566,-0.7997588071608961],[-0.5749899090626635,-0.19900082681287912,-0.09544322706970171],[-0.13450986837150444,-1.184521190182637,-1.2452811221543367],[-0.23583413318347995,0.8866628757931772,-1.0687349460839728],[-0.7547056978931393,-0.1985986975445878,-0.43382535837145747],[1.8359344470894754,0.43828837332347276,-0.9964491965423881],[0.24957717920703373,-0.5846315903677377,-0.41614956704871653],[-0.6318236889977787,1.3095086053681926,-0.267219400963461],[-0.16392793283383292,-0.22284441376839942,0.7169816809992761],[-1.1689093689170602,-2.16916713092732,1.6570783002576717]],"biases":[0.6113715018867933,-0.9339151361499504,0.8697627651739369]},{"inputNeurons":3,"outputNeurons":1,"weights":[[0.6552797148152477],[0.1245294074135156],[-0.9999321536149666]],"biases":[1.3061019283177155]}],"scores":{"1":2410,"2":2320,"3":2320,"4":2920,"5":2910,"6":2900,"7":2520,"8":2320,"9":2320,"10":2320,"11":2320,"12":2900,"13":2320,"14":2320,"15":2320,"16":2480,"17":2520,"18":2320,"19":2190,"20":2520,"21":2710,"22":2520,"23":2660,"24":2320,"25":2320}},{"layers":[{"inputNeurons":0,"outputNeurons":10,"weights":[],"biases":[0.6261525750942489,0.6831018727320506,0.4280976314001864,-0.4338249929548761,1.0720785212337787,1.1902066257195856,-0.43878724872321784,-2.348316274185504,0.793224109070146,0.7226913821877143]},{"inputNeurons":10,"outputNeurons":3,"weights":[[0.9594489996881443,-0.28218953145240944,0.6041353694751477],[0.5671615302501773,0.310452678559765,-0.5578952763676515],[-0.1033072370232424,-1.7889326400860321,0.044995978943996984],[-0.6846520722343326,0.6071569091361632,-0.19455476366097052],[-1.3691475074208788,-0.5952395271146108,-0.8628237226352552],[2.025524284437972,0.76181632105324,-1.7190271503797085],[-0.9447059318001181,-0.16612432849184228,-0.3411186315227069],[-0.2930116792035256,0.4029394405911141,-0.13259034415985219],[-0.0018855297563149763,1.1081120812722451,1.0144758613237743],[0.9089239400886456,-1.3978141702121454,1.770753979702188]],"biases":[1.2724618398567977,0.21229209142228486,2.068472374962064]},{"inputNeurons":3,"outputNeurons":1,"weights":[[-0.5607284151202245],[0.10301105661069399],[-1.4068829169882278]],"biases":[0.6961888385348203]}],"scores":{"1":2320,"2":2320,"3":2320,"4":3450,"5":2320,"6":2320,"7":2600,"8":2520,"9":2320,"10":2840,"11":2320,"12":2320,"13":2520,"14":2520,"15":3020,"16":2320,"17":2320,"18":2320,"19":3850,"20":1300,"21":2320,"22":2210,"23":2320,"24":2320,"25":2320}},{"layers":[{"inputNeurons":0,"outputNeurons":10,"weights":[],"biases":[0.11118820508240002,-0.05913478407977297,-0.5445704421090087,0.2876656276465464,0.2896398798291386,0.5259524697590672,-1.5161297205982214,-1.1149740529872592,1.4662407988589812,1.2003778891190247]},{"inputNeurons":10,"outputNeurons":3,"weights":[[0.22343626532190622,0.3615195208795641,-1.067341333400119],[-0.4635326720154816,-0.49765832949438815,-0.01703660180440192],[0.3647430446413286,-0.47028973259234685,-1.4673979551814214],[-0.5941827389469476,0.8347396692090844,-0.7863364572975305],[-0.9638094153675467,0.20196163346558785,-0.1481759065610315],[1.4156797979022584,-0.15683313015218928,-1.5570418745750885],[0.47770785900084206,-0.44522063044696386,-0.4480239627722275],[-0.7961704225884616,0.8741722027912966,-0.07054201633059833],[0.007024407433528168,-0.8972968452306087,1.0807959389676023],[-0.9847705926382306,-2.6864563634283556,1.1937486080168322]],"biases":[0.6612910505453751,-0.9057638083799957,0.6207317571262154]},{"inputNeurons":3,"outputNeurons":1,"weights":[[0.710253037010575],[0.009744819886169265],[-1.033147154004878]],"biases":[1.362072263239664]}],"scores":{"1":3120,"2":2840,"3":2320,"4":3020,"5":2320,"6":2320,"7":2500,"8":2320,"9":2320,"10":2320,"11":3520,"12":2200,"13":2320,"14":2320,"15":2320,"16":2320,"17":2320,"18":2320,"19":2320,"20":2320,"21":2320,"22":2320,"23":2320,"24":2720,"25":2220}},{"layers":[{"inputNeurons":0,"outputNeurons":10,"weights":[],"biases":[0.8146158338134579,0.21415191771666361,-0.13780263887919172,0.4204217964178589,0.32967424902639064,0.0260474674963099,-1.0018537590341856,-0.8769264208776185,1.5808752988517878,0.26831655125646575]},{"inputNeurons":10,"outputNeurons":3,"weights":[[0.4392789015587673,0.45414481782216093,-0.6328321355019184],[-0.5337221031286663,-0.2450067637078796,-0.11338040217641775],[-0.6041833562517516,-0.8454393995549109,-0.9727258513189043],[-0.39974563898111604,0.983936548719461,-0.8786576323402872],[-0.9752628364821809,0.20815295635953984,-0.15080801907013985],[1.6121035913353423,0.24209615384088418,-1.316669855076428],[0.5420805035683955,-0.18331180489743276,-0.06866803307372515],[-0.4160121362087551,1.2520870175524446,-0.6501233022622378],[0.1817016702432839,-0.38531204532514257,1.0719618746772466],[-0.5221044079191781,-2.1408452721447633,1.4351500241340545]],"biases":[0.6110747249112578,-0.8311805573666377,0.78667646498404]},{"inputNeurons":3,"outputNeurons":1,"weights":[[0.566657239032877],[-0.1659386435574443],[-1.2444702736137105]],"biases":[1.086650219394984]}],"scores":{"1":2320,"2":2470,"3":2320,"4":2320,"5":2520,"6":2320,"7":2220,"8":2320,"9":2320,"10":3520,"11":2320,"12":2920,"13":2320,"14":2390,"15":2320,"16":2320,"17":2320,"18":2420,"19":2320,"20":2320,"21":2320,"22":2320,"23":3640,"24":2320,"25":2320}},{"layers":[{"inputNeurons":0,"outputNeurons":10,"weights":[],"biases":[0.1279642590788584,0.04794087635786061,-0.506088888876019,0.04198318563370185,0.4014712666192185,0.75219319577904,-0.8598773543428244,-1.3083499484412038,1.530916754015688,1.3974982136721477]},{"inputNeurons":10,"outputNeurons":3,"weights":[[0.2503348906730711,0.009931467384146443,-0.9376870048766806],[-0.3450394368327561,-0.7468253713235449,-0.7654148279555177],[-0.02932743147492478,-0.5301626760480376,-1.164873605568821],[-0.4278934974241174,0.8463976292931366,-1.140516642540504],[-0.7670007311918063,0.3779212808222376,0.026738435906139446],[1.6570577460120424,-0.1841429966747514,-1.2653601869558626],[0.3712359101807253,-0.4066273525289997,-0.6481536514366903],[-0.6253460360376004,0.9422726887126742,-0.01055363269422016],[0.014660046752204586,-0.6627320368195877,1.2515986206846488],[-1.1849125373594434,-2.498440167464757,0.7970900268421426]],"biases":[1.0784925857123238,-1.124038026052577,0.7346625023582715]},{"inputNeurons":3,"outputNeurons":1,"weights":[[0.5832283808619034],[0.060181895355245624],[-1.2901292517277425]],"biases":[1.194056281120905]}],"scores":{"1":2500,"2":2520,"3":1940,"4":2320,"5":2320,"6":2320,"7":2520,"8":2320,"9":2520,"10":2500,"11":4220,"12":2320,"13":2320,"14":2320,"15":2320,"16":2320,"17":2320,"18":2320,"19":2320,"20":2520,"21":3020,"22":2520,"23":2210,"24":2320,"25":2320}},{"layers":[{"inputNeurons":0,"outputNeurons":10,"weights":[],"biases":[0.17943922077157792,-0.18328596910093806,0.11896076863177354,0.45645228909191,0.12386351772555185,-0.44155820995725237,-1.0145342805093915,-1.1438834400552675,1.689748357015778,0.743462740339198]},{"inputNeurons":10,"outputNeurons":3,"weights":[[0.532172851104477,0.4087934518323832,-1.233614161378157],[-0.22741341970688383,-0.15847850943979913,-0.23790636197205456],[-0.26836989561523134,-1.1329597724096319,-1.1632408797585672],[-0.5371218910530221,0.9424472299260555,-1.2244825606725485],[-0.7702895518442723,-0.1879663620892763,-0.3382749344627217],[1.6721972193824695,-0.020293555536478297,-1.3642032961232087],[0.5905615444048369,-0.5380790096366257,-0.34280186884056607],[-0.22408106360873603,1.4073521951047308,-0.24692745020040757],[-0.31100486525196136,-0.0172810326058509,0.7675216401217521],[-0.6032600175824289,-2.435824877749454,1.587546389625969]],"biases":[1.0664764306435253,-0.8902289484979964,1.0142137845714907]},{"inputNeurons":3,"outputNeurons":1,"weights":[[0.7501830414298171],[0.6171008591075452],[-1.2355817462256558]],"biases":[1.1578700128412722]}],"scores":{"1":2320,"2":2320,"3":2320,"4":3100,"5":2320,"6":2520,"7":2320,"8":2320,"9":2320,"10":2320,"11":3810,"12":2320,"13":2520,"14":2320,"15":2320,"16":2520,"17":2320,"18":2490,"19":2320,"20":2320,"21":2520,"22":2320,"23":2520,"24":2320,"25":2320}},{"layers":[{"inputNeurons":0,"outputNeurons":10,"weights":[],"biases":[-0.2583843711967744,-0.1267283340443058,-0.29347596845218366,0.22807669935736113,0.3543710633108475,0.12716063569522124,-0.8332230595934997,-1.1801249425092204,1.7777290425317422,1.396628178040451]},{"inputNeurons":10,"outputNeurons":3,"weights":[[0.4220589151908518,0.06097906141506469,-1.0512470503506786],[0.11009339154353248,-0.5702026761864633,-0.12256351384431674],[-0.02176080190291936,-0.38586283044767267,-1.406986251159028],[-0.7428679465731733,0.7497865158794541,-1.1476749665346397],[-0.5930371427922705,-0.19457910862645947,-0.40551700520049716],[2.0055540670319707,0.1559080761710424,-1.4278073156697766],[0.884892031495,-0.3512204672103629,-0.46590582622985904],[-0.19495711442035035,0.9048775811319744,-0.37262757268989144],[-0.0702928002590769,-0.8657295821372226,1.1708110787421053],[-1.433620846120057,-2.5763025462508757,0.9856185635567033]],"biases":[0.9929529641547965,-0.640259379616523,0.9711180342671955]},{"inputNeurons":3,"outputNeurons":1,"weights":[[0.8978453852070492],[-0.1031908232225725],[-1.1089617554315783]],"biases":[1.1714028470741973]}],"scores":{"1":2320,"2":2760,"3":2320,"4":2520,"5":2320,"6":2320,"7":2500,"8":2320,"9":2320,"10":2320,"11":2720,"12":1940,"13":2700,"14":2320,"15":1300,"16":3720,"17":2320,"18":2320,"19":2320,"20":2520,"21":2320,"22":2320,"23":2320,"24":3600,"25":2680}},{"layers":[{"inputNeurons":0,"outputNeurons":10,"weights":[],"biases":[0.30569158939055224,-0.12909441680127204,0.011682038514337023,0.40742562053593906,0.2631467334671486,0.05794534062689009,-1.2136792105777547,-1.114735223287739,1.1182345289356788,0.9093573642285397]},{"inputNeurons":10,"outputNeurons":3,"weights":[[0.3059022468161856,0.21997876205760852,-1.204280446445067],[-0.043695683383204786,-0.5087129602317584,0.11008609229371868],[0.20129572885521732,-0.7476350383683352,-1.300371773029743],[-0.5523393702309782,0.8854665967984809,-0.9640889009561936],[-0.8477331787792276,-0.10946134212658912,-0.3207982303151279],[1.5599322059937821,-0.1914214433747041,-1.7006325567644058],[0.5204453987610536,-0.3983460162915815,-0.2730579603611055],[-0.6053262383496213,1.2598375047198513,-0.12863505183164176],[-0.21115878194010268,-1.1352536372150899,1.0255365448454543],[-1.0768360379733128,-2.399706717126574,0.9473237869701879]],"biases":[1.1640011804707888,-0.7941132552686527,0.8116466915799949]},{"inputNeurons":3,"outputNeurons":1,"weights":[[0.8656897426536596],[0.28126156106329536],[-1.1943310602222237]],"biases":[1.268041113102265]}],"scores":{"1":2520,"2":2320,"3":2320,"4":2320,"5":2320,"6":1310,"7":2800,"8":2320,"9":2520,"10":3430,"11":2500,"12":2720,"13":3050,"14":2210,"15":2320,"16":2320,"17":2320,"18":2920,"19":2320,"20":2520,"21":2320,"22":2320,"23":2320,"24":2220,"25":2720}},{"layers":[{"inputNeurons":0,"outputNeurons":10,"weights":[],"biases":[0.14097357702729785,0.08304261828330774,-0.0941772585479338,0.09639536442388563,0.5992963598494354,0.24617020348215424,-1.2887127901095101,-1.0778130926550773,1.3400123391436378,1.1680800448406379]},{"inputNeurons":10,"outputNeurons":3,"weights":[[0.24246653336701063,0.16274364379612552,-0.8584594355103972],[-0.30152129489167995,-0.7966795091715579,-0.3874774715116112],[0.34537036982008923,-0.6166844332640697,-1.4208872464950606],[-0.6061142089737371,0.9434211662894563,-1.056068731012826],[-1.029368015507753,-0.04110854335330576,-0.25211700087890393],[1.3516201978543176,0.23867195971957178,-1.4380173994068097],[0.5300335237365209,-0.39360781443309706,-0.4960656479497273],[-0.3333663925073479,1.0109048384543309,0.12804023105757623],[0.09861555539195518,-1.0187117284020375,1.1425888845694865],[-0.9626950533273613,-2.861929354088674,0.7338437321209847]],"biases":[0.9899231148584539,-0.5116853393913378,0.8764736620700345]},{"inputNeurons":3,"outputNeurons":1,"weights":[[0.7608400076472368],[0.3242304963611568],[-1.175967802794006]],"biases":[1.050267764611341]}],"scores":{"1":2320,"2":2520,"3":2320,"4":2920,"5":2320,"6":2320,"7":2320,"8":2510,"9":2320,"10":2320,"11":2320,"12":1300,"13":2320,"14":2920,"15":2320,"16":2320,"17":3020,"18":2520,"19":2920,"20":2320,"21":2320,"22":2320,"23":3250,"24":2520,"25":2320}},{"layers":[{"inputNeurons":0,"outputNeurons":10,"weights":[],"biases":[0.7634609901594445,0.21255459270866545,-0.04253866367462225,-0.5983971072524692,1.5694137006030604,1.829916099105565,-0.08448495720163318,-2.2376366311502003,0.5300410747386315,0.7907892075030594]},{"inputNeurons":10,"outputNeurons":3,"weights":[[0.28035013151266686,-0.3428582019360423,1.0295380064471344],[0.3282508512087458,0.29879509752303807,-0.24866842248692636],[-0.4227352327212636,-1.9156279923059136,-0.08126862262142667],[-0.7799547232705153,0.589452991057945,0.5054328154511913],[-1.1266801041219092,-0.5855245451090382,-0.5575764524264094],[1.6239026098429776,1.0955664304055348,-1.5173295732396455],[-1.0301739331617004,-0.09479366156071509,-0.3445782500272441],[-0.2880923598704252,0.3773694989763736,-0.4579218154739202],[0.07648840186740535,0.9925705674143452,1.3000864826995249],[0.8595428836258399,-1.3574573703614494,1.8556306484245813]],"biases":[1.2704075549214897,0.2525865549938251,1.9161667658261632]},{"inputNeurons":3,"outputNeurons":1,"weights":[[0.0013587481081056008],[-0.03416597991376988],[-1.9915459102019324]],"biases":[0.7174099245255519]}],"scores":{"1":2320,"2":2520,"3":2770,"4":2320,"5":2320,"6":1280,"7":2320,"8":3520,"9":2320,"10":2320,"11":2320,"12":2320,"13":2320,"14":2320,"15":2220,"16":4320,"17":2320,"18":2520,"19":2320,"20":2320,"21":2320,"22":2320,"23":2320,"24":2320,"25":2500}},{"layers":[{"inputNeurons":0,"outputNeurons":10,"weights":[],"biases":[1.0377618696246207,0.13335646663747486,-0.232545533018922,0.4169145243030911,1.168437395048694,0.53037614768812,-0.7817742556047572,-1.1516249327019934,0.5336015943576868,1.1623622869849388]},{"inputNeurons":10,"outputNeurons":3,"weights":[[0.3606129057028861,0.6970697854818089,-1.7546883079700835],[0.32121672535473017,0.1294531449036045,-0.1125069076436323],[-0.4673604420021536,-0.7424125278725761,-0.5830648870107468],[-0.7030603667517701,1.225766824846175,-1.197418897072528],[-1.4597396801117484,0.609685587637935,-0.6338206596804111],[1.6564374489139122,1.0744639184857643,-1.3791001836502241],[0.11825693045517832,0.25199651816310253,0.07925592661521576],[-0.21185208519027848,0.48035126217016155,-1.28269381445063],[-0.838893998206284,0.26919966097389614,0.716743811231293],[-0.5394405436781888,-2.076592353721115,1.3012385887066793]],"biases":[0.5928742661475552,-0.5695687420981218,0.9411498579791017]},{"inputNeurons":3,"outputNeurons":1,"weights":[[0.6918592773318237],[0.7118563482333313],[-1.3435273388541618]],"biases":[0.8547640232733649]}],"scores":{"1":2320,"2":2320,"3":2320,"4":2320,"5":2320,"6":2700,"7":2320,"8":2320,"9":2320,"10":2320,"11":2320,"12":2320,"13":2320,"14":2320,"15":2320,"16":3090,"17":2320,"18":2320,"19":2320,"20":2440,"21":2520,"22":2320,"23":2320,"24":2320,"25":3920}},{"layers":[{"inputNeurons":0,"outputNeurons":10,"weights":[],"biases":[0.7657269541821433,-0.560318730272741,-0.07418304208000509,0.2703715261806117,0.08038405926931538,-0.37715829240746745,-0.9057822404928136,-0.9680190311373077,1.4584720372531197,0.9299258877776874]},{"inputNeurons":10,"outputNeurons":3,"weights":[[0.48518456643929186,-0.18018303144243825,-0.9114556825185633],[-0.7045050987645797,-0.18204977401359956,-0.42585954374950136],[-0.3001583476366197,-1.1421207032203875,-1.0846883121844362],[-0.8743111128351394,0.8571283122641506,-1.078428164154789],[-0.5959539525258714,-0.1981927276820967,-0.21082037032279874],[1.5037021533720765,0.12376153731583937,-1.088956580046557],[0.49953418297519897,-0.5280080228643921,0.0015504544638807738],[-0.5168359594629703,1.208337157161317,-0.5539418723329061],[-0.15258735737737655,-0.4096758162893728,0.5087042098364443],[-0.7705432070632532,-2.761575858662978,1.6299942329532395]],"biases":[1.1061676356788255,-1.0324111448896514,0.9553207018107114]},{"inputNeurons":3,"outputNeurons":1,"weights":[[0.6598670862319148],[0.27023439661396415],[-1.2385545106412184]],"biases":[1.3933443777946308]}],"scores":{"1":2340,"2":2320,"3":4320,"4":2320,"5":2520,"6":2520,"7":1940,"8":2720,"9":2520,"10":2690,"11":2520,"12":2520,"13":2320,"14":2320,"15":2320,"16":2320,"17":2220,"18":2320,"19":1300,"20":2720,"21":2320,"22":2320,"23":2320,"24":2240,"25":2720}},{"layers":[{"inputNeurons":0,"outputNeurons":10,"weights":[],"biases":[-0.06836783338778873,-0.6566991780839733,-0.18493232918349597,0.3986242878656063,0.15216701639401933,0.10854019961025185,-1.3164784285984081,-1.022026215129111,1.0787147606575191,1.5342096092021784]},{"inputNeurons":10,"outputNeurons":3,"weights":[[0.2368546249219965,0.13265666259974723,-1.1232348195609236],[-0.6623559381249278,-0.4804679486195589,-0.21259417006039646],[0.009837381924486195,-1.0170218249834262,-1.2032670555690788],[-0.7886192150059086,0.761504358332215,-1.1460496688508524],[-1.1710904267875972,0.03957739072804478,-0.12570140804063318],[1.5739284180144835,-0.14147209596349017,-1.0872146989602154],[0.6747055489473363,-0.18074327617649383,-0.2859900063982357],[-0.520564899465458,0.9723987280786293,-0.03773588987700274],[0.0031434312308338958,-1.211276628394315,1.2174877989098103],[-1.644370422041534,-2.784341857019442,1.0830538839716728]],"biases":[0.8444470167041522,-0.7046966602511484,0.7180523813669004]},{"inputNeurons":3,"outputNeurons":1,"weights":[[0.8815580102236902],[0.48413603294431296],[-1.0213759866943128]],"biases":[1.3256349341935085]}],"scores":{"1":2320,"2":2320,"3":2520,"4":2320,"5":2520,"6":2320,"7":2320,"8":2320,"9":2320,"10":2320,"11":2320,"12":2320,"13":2320,"14":2320,"15":2920,"16":2320,"17":2320,"18":2320,"19":2320,"20":2920,"21":2520,"22":2720,"23":2320,"24":3120,"25":2320}},{"layers":[{"inputNeurons":0,"outputNeurons":10,"weights":[],"biases":[1.1424239955218185,0.4660165489438537,-0.6782204520335026,0.5470879790172056,0.735117771923137,0.4824485275092877,-1.0861696255799884,-0.8903812224517571,0.7976125166818013,1.0164893290102022]},{"inputNeurons":10,"outputNeurons":3,"weights":[[0.5570205188881541,0.4108843699168353,-1.4906078196944699],[0.13097525560982867,-0.19334286573624204,-0.15306388300946921],[-0.783542689618852,-0.5415026173374711,-0.7347100648265368],[-0.23492443753802605,1.2690975138846288,-1.0979706488814895],[-1.4521570135520476,0.6082915866351415,-0.5907267275575416],[2.0056566200300874,0.7061585684266178,-1.660286116498965],[0.4529570156159002,0.4390946779099968,0.4343650404484557],[-0.49488120132935387,0.6778515205485547,-0.9484199491547664],[-1.0207254311342213,0.04797071785361373,1.2248632248198212],[-0.5441191407316835,-2.038191152274249,0.624820072686954]],"biases":[0.37800179918424553,-0.6070666483092917,0.8487942398329689]},{"inputNeurons":3,"outputNeurons":1,"weights":[[0.44323738151781866],[0.42278953482751497],[-1.4072480210033245]],"biases":[0.7840858434350844]}],"scores":{"1":2320,"2":2520,"3":2320,"4":2320,"5":2320,"6":2320,"7":2320,"8":2320,"9":3500,"10":2520,"11":2320,"12":2320,"13":2320,"14":1280,"15":2720,"16":2520,"17":2320,"18":2320,"19":2320,"20":2500,"21":3160,"22":2520,"23":2920,"24":2320,"25":2320}},{"layers":[{"inputNeurons":0,"outputNeurons":10,"weights":[],"biases":[-0.2228396948727285,-0.0893073506507736,-0.007430145698724022,0.18008992896174555,0.19573774768758104,0.4515261791714102,-1.0444404616862213,-1.5257008838515655,1.2397183628688453,1.0366398782609132]},{"inputNeurons":10,"outputNeurons":3,"weights":[[0.39977683574053224,0.04456082815217205,-0.9464908108948205],[-0.24597189907141362,-0.6747108651912282,-0.24046670820857113],[0.01223574299738904,-0.7962122282987787,-1.3206445758746634],[-0.7144278450029058,0.9002678382283525,-1.199111962921843],[-1.0228893059651258,-0.1634118884467621,-0.3236438688784799],[1.8017292937754437,0.0738497163101603,-1.4488317602018266],[0.9138190093194255,-0.16122696087733318,-0.2911360985182597],[-0.5212116380791556,1.1639879562730575,-0.2432933921206924],[-0.04422003740805731,-0.8738903685247278,0.8417453450046811],[-1.3037392727600858,-2.4908214053951396,1.2689468171321994]],"biases":[0.9744790792463822,-0.7029541214720172,0.5048546483388889]},{"inputNeurons":3,"outputNeurons":1,"weights":[[0.629497130334731],[0.08099483543992562],[-1.3048271327073895]],"biases":[1.0348265579254023]}],"scores":{"1":2320,"2":2520,"3":2320,"4":2320,"5":2320,"6":2320,"7":2320,"8":2320,"9":2320,"10":2320,"11":2320,"12":2320,"13":2520,"14":2520,"15":2320,"16":2320,"17":2300,"18":2320,"19":2320,"20":2320,"21":2920,"22":2320,"23":2920,"24":3490,"25":2320}},{"layers":[{"inputNeurons":0,"outputNeurons":10,"weights":[],"biases":[0.9938228396253597,-0.07797283387309735,0.12669731216916622,0.3312831440865166,0.36126262070218457,-0.2760434835036579,-1.2841839495964276,-0.9691357240120303,1.4470642171829449,0.6376351330200257]},{"inputNeurons":10,"outputNeurons":3,"weights":[[0.4724254014065067,0.007685558685849997,-1.1393104193310035],[-0.5528800191322808,0.13557949022090537,-0.3338494503016677],[-0.36055133976149756,-1.2520578589114004,-1.151264549430762],[-0.7100943206581704,0.998998460339913,-0.680889401642578],[-0.8742679736838737,-0.26129109992328514,-0.8070111065622309],[1.652543303828158,0.45938954468672527,-1.1244872242057362],[0.7681837251343298,-0.6079996803449588,-0.127707066291666],[-0.8548422555328022,1.404645033185184,-0.44855034738683064],[-0.5283220496859057,0.17327719621200388,0.7509613832486135],[-1.145760981321492,-2.4226754219234055,1.2447711090242288]],"biases":[0.8976034964811622,-0.9518268096807838,1.0401267470453934]},{"inputNeurons":3,"outputNeurons":1,"weights":[[0.6777570757981464],[-0.11466452785232167],[-1.4862494616974993]],"biases":[0.8889280747478265]}],"scores":{"1":2220,"2":2320,"3":2320,"4":2320,"5":2520,"6":2320,"7":2720,"8":2320,"9":2520,"10":2320,"11":2320,"12":2320,"13":2320,"14":2320,"15":2960,"16":2920,"17":2320,"18":2320,"19":2500,"20":2320,"21":2520,"22":2320,"23":2320,"24":2620,"25":2600}},{"layers":[{"inputNeurons":0,"outputNeurons":10,"weights":[],"biases":[0.6597375939910481,0.045879013257343865,-0.41028374578537663,0.6966858863676935,0.713805327407333,0.49042042717071804,-0.6896021000493147,-0.869248859973007,1.0594259235953964,0.8419058099203309]},{"inputNeurons":10,"outputNeurons":3,"weights":[[0.18128059803318863,0.5414790652762899,-1.7530379960121347],[0.10077047956570549,0.11299729521531027,-0.31627887719976616],[-0.1899973908464998,-0.5796737930222261,-0.686572570368648],[-0.3771643147333715,1.260490651572621,-1.3357976254541726],[-2.022740464538999,0.31781076436196615,-0.5979468103043606],[1.6660829652517801,0.8041736734041793,-1.646329798546747],[0.2606486509883517,0.03462210710940722,0.29089408579454057],[-0.32375439370273773,0.19495122675574694,-1.2212459506731776],[-0.9497543071431499,0.3124372873813624,0.8244563800638492],[-0.4296888649915583,-1.6002356996211793,0.9894514908252725]],"biases":[0.33078152795620264,-0.8676233836493036,1.1347052523573815]},{"inputNeurons":3,"outputNeurons":1,"weights":[[0.4080550356595174],[0.613553719529421],[-1.1859943854042194]],"biases":[0.8071584636733626]}],"scores":{"1":3400,"2":2320,"3":2210,"4":2320,"5":2320,"6":2320,"7":2220,"8":2320,"9":2320,"10":2320,"11":2320,"12":2320,"13":2320,"14":2320,"15":2320,"16":2320,"17":2320,"18":2320,"19":2320,"20":2520,"21":3720,"22":2320,"23":2320,"24":2720,"25":2320}},{"layers":[{"inputNeurons":0,"outputNeurons":10,"weights":[],"biases":[0.9524142408004955,-0.22077666975093774,0.03620061054250717,0.4735173713564431,0.21565834487148383,-0.00947003959093462,-1.2611439475338293,-1.0615967759052978,1.2641020482483767,0.5679559111153323]},{"inputNeurons":10,"outputNeurons":3,"weights":[[0.5556811767671052,0.04314770003879678,-0.9656521868529616],[-0.38870645708186113,0.13499980465915368,0.08389232208909303],[-0.31214830844317687,-1.0032432567544523,-0.9327762481761213],[-0.5333393018622397,0.8448997396798783,-0.5862161993571474],[-0.8789015605256162,0.03438177779186706,-0.4472116358703589],[1.84963818139896,0.11939038517462089,-1.3338752373201603],[0.09784945920401861,-0.026291669104074766,-0.12287861260420715],[-0.7379779688542502,1.415986388276939,-0.6473507327786356],[-0.1830410557887388,-0.11073946240004774,0.8226510845392454],[-0.8777420679927223,-2.305536993006799,1.4883449079097357]],"biases":[1.1182511976337504,-0.7705864650996025,1.0448063295049261]},{"inputNeurons":3,"outputNeurons":1,"weights":[[0.43685762255854366],[0.2725560687067282],[-1.190586368757503]],"biases":[1.074849766539432]}],"scores":{"1":2320,"2":2320,"3":2320,"4":2720,"5":3520,"6":2320,"7":2320,"8":2320,"9":2520,"10":2320,"11":2210,"12":2320,"13":2750,"14":2320,"15":2210,"16":2320,"17":2320,"18":2750,"19":2320,"20":2320,"21":2320,"22":2720,"23":2320,"24":2320,"25":2320}},{"layers":[{"inputNeurons":0,"outputNeurons":10,"weights":[],"biases":[0.33418415428424497,0.012653668943301645,-0.17968469677100396,0.10008224613931793,-0.20926063095352176,0.36015305242327467,-1.1369228926285866,-1.5120650816353536,1.5758395816510347,1.2678132604290788]},{"inputNeurons":10,"outputNeurons":3,"weights":[[0.4962598731062669,0.16184497872654657,-1.1049725673381687],[-0.16684983549411583,-0.5924708984155652,0.05690465609022738],[0.006366708447299384,-0.2608611080343694,-0.9831920572287534],[-0.5612473522421189,1.4507832118805077,-0.9452478680166919],[-0.8778098240196508,-0.13275070393031033,-0.1334639652109814],[1.081575258585706,0.23963251647028985,-1.5516594915553148],[0.7118397495315627,-0.5163949079752574,-0.5963958539761102],[-0.6952953904554242,0.7968228100773085,0.03899475082519854],[-0.5051182969837449,-0.7091207274196932,0.8804331041424028],[-0.804276937263462,-2.4889580236731828,1.1287526734454563]],"biases":[1.0708208727930455,-0.8528394851149157,0.5950701380843255]},{"inputNeurons":3,"outputNeurons":1,"weights":[[0.6586145437236954],[0.12978889107204178],[-0.9905579490779611]],"biases":[1.0167886506084933]}],"scores":{"1":2320,"2":2320,"3":2320,"4":2590,"5":2320,"6":2320,"7":3250,"8":2320,"9":2320,"10":2520,"11":2320,"12":2320,"13":2320,"14":2320,"15":2320,"16":2320,"17":2320,"18":2320,"19":2320,"20":2320,"21":2320,"22":2320,"23":2320,"24":2320,"25":3760}},{"layers":[{"inputNeurons":0,"outputNeurons":10,"weights":[],"biases":[0.136534684667025,-0.05441845571362311,-0.20221320538849172,0.48565592394957563,0.19812326668345026,0.23281854909322702,-1.4931995513183272,-1.378362885390742,1.3785362328809154,0.9286809771429535]},{"inputNeurons":10,"outputNeurons":3,"weights":[[0.0639355703804787,-0.1560530432940295,-0.7942571884786367],[-0.13635663502469852,-0.807692975477775,-0.3653910909276615],[0.24300929411874678,-0.6666662855618559,-1.3151193839427073],[-0.6461046640722876,0.9300692649461016,-0.7174940125626812],[-1.0677902838635853,0.03503356255169515,-0.26646570735193537],[1.3984611410626813,0.0031924568015055978,-1.2847130439322232],[0.7580118627437973,-0.576756848306913,-0.43444413937909704],[-0.48864304368933414,0.7477186166728822,-0.10479787454525902],[0.12558058864323332,-1.0116333540324958,0.9936133618179774],[-1.3071430625329286,-2.3173774363667756,0.8133173008104242]],"biases":[0.9603677328363791,-1.0802974679596424,0.8275153119012423]},{"inputNeurons":3,"outputNeurons":1,"weights":[[0.9391900341789237],[-0.09164474711029297],[-1.4845025660959918]],"biases":[0.9304710973971523]}],"scores":{"1":3650,"2":2320,"3":2320,"4":2520,"5":2320,"6":2520,"7":2690,"8":2520,"9":2320,"10":2800,"11":2320,"12":2320,"13":2320,"14":2320,"15":2320,"16":2320,"17":2320,"18":2320,"19":2320,"20":2320,"21":2320,"22":2250,"23":2320,"24":2320,"25":2320}},{"layers":[{"inputNeurons":0,"outputNeurons":10,"weights":[],"biases":[0.7168641308023819,0.00915025211226314,0.6780361356062853,0.4381272773528457,0.3281481621279201,-0.21543475117225372,-1.1816738840608372,-1.0144214742191846,1.3387490107866462,0.8746049960451912]},{"inputNeurons":10,"outputNeurons":3,"weights":[[0.8241493602417801,0.4310590124533445,-0.8696548611919531],[-0.4806743066990082,-0.209253471583641,0.21431553958953747],[-0.24482437439541016,-0.8343063165031088,-0.9065141255750147],[-0.43771896577056735,0.7484504212721896,-0.8576498897354697],[-0.9131963566119252,-0.38529085807751917,-0.49357098847591924],[1.591879470804836,0.2589703420976156,-1.2719342741003488],[0.4042739007867496,-0.49205227888089226,0.028176018764689587],[-0.4619099216637469,1.258727425767931,-0.7381148465919112],[-0.22479378643485065,0.2113427580933393,0.9377784055618031],[-1.2612047392415193,-2.1046341073543795,1.2862919144398164]],"biases":[0.4518207624808863,-1.2049376689920102,0.7271831555365165]},{"inputNeurons":3,"outputNeurons":1,"weights":[[0.4475377655103397],[0.2401248258229663],[-1.1677454125157303]],"biases":[1.1867714690244473]}],"scores":{"1":2320,"2":2320,"3":2920,"4":2320,"5":2320,"6":2520,"7":2320,"8":3520,"9":2320,"10":2320,"11":2600,"12":2320,"13":3250,"14":2320,"15":2320,"16":2320,"17":2320,"18":2320,"19":2320,"20":2320,"21":2320,"22":2320,"23":2320,"24":1310,"25":2800}},{"layers":[{"inputNeurons":0,"outputNeurons":10,"weights":[],"biases":[0.8161389446876623,-0.03502106270067498,0.13473944456462206,0.2055884918727649,0.35866251200136245,-0.13381429135104683,-0.6894628102889458,-0.8966888151771627,1.307218585550052,0.524442042400514]},{"inputNeurons":10,"outputNeurons":3,"weights":[[0.6007577686317415,-0.5439529148169866,-1.2552336099769357],[-0.5436459898658481,-0.04180455574243677,-0.4910627430307213],[-0.20316089189426653,-0.9734516392589283,-0.8270853542010694],[-0.5654542371272809,1.0321155929127832,-1.008775929564252],[-1.0946782387084344,0.24973308969295727,-0.6585402864418735],[1.4414215146612395,0.0075405485210465195,-1.5885744373798363],[0.4404275107662266,-0.672921967718412,-0.18365103138378835],[-0.9258612432907798,1.2444499178206334,-0.5615206202050276],[-0.16452010252066065,-0.10175873484741346,0.5964961792966411],[-0.6093497625486435,-2.390783836075909,1.2084649957898663]],"biases":[0.9573924802071435,-0.826741723425418,1.0441371591244144]},{"inputNeurons":3,"outputNeurons":1,"weights":[[0.34363971202506605],[-0.14240964046287535],[-1.1021427098569774]],"biases":[1.2072932182316103]}],"scores":{"1":2320,"2":2720,"3":2320,"4":2520,"5":2320,"6":2320,"7":2520,"8":2320,"9":2320,"10":1310,"11":2320,"12":2320,"13":2320,"14":3450,"15":2600,"16":2320,"17":2320,"18":2610,"19":2200,"20":3050,"21":2320,"22":2840,"23":2320,"24":2320,"25":2360}},{"layers":[{"inputNeurons":0,"outputNeurons":10,"weights":[],"biases":[0.729363852855117,-0.4193068908599596,0.04675071480520544,0.5920843851260125,0.3122905161952156,-0.13226575320895262,-1.0766935717965538,-0.95247156303583,1.397452342879051,0.8320144517444384]},{"inputNeurons":10,"outputNeurons":3,"weights":[[0.5686656213250001,0.23448820486459046,-1.0848800506037142],[-0.35840988384913963,-0.05311513378589633,-0.20869040647554218],[-0.013955262850265993,-0.7727134792704348,-0.7486549671376457],[-0.7264799897411984,0.7652107311886543,-0.5951596388048623],[-0.6311720740205815,-0.22992999532841973,-0.30730850929387316],[1.5341208196341587,0.3034585125679936,-1.542447994271058],[0.8806100129202608,-0.7072209505894294,-0.12200596163941756],[-0.7383328161439504,1.1193652132062886,-0.5332182977768801],[-0.26518716080502946,-0.17448181957944334,1.3869740265885664],[-0.6540595701733731,-2.4257482953973803,1.335269974042815]],"biases":[0.4846487824892348,-0.95346821147182,1.127562933873152]},{"inputNeurons":3,"outputNeurons":1,"weights":[[0.7206176783881997],[0.1376487439849165],[-1.2624087829684552]],"biases":[1.1494299111085873]}],"scores":{"1":2320,"2":2320,"3":2520,"4":2320,"5":2320,"6":2320,"7":2320,"8":2320,"9":2320,"10":2520,"11":2320,"12":2520,"13":2720,"14":2320,"15":2320,"16":2320,"17":2720,"18":2210,"19":2320,"20":2320,"21":2520,"22":2920,"23":2600,"24":2320,"25":2500}},{"layers":[{"inputNeurons":0,"outputNeurons":10,"weights":[],"biases":[0.6153822077623543,0.7191560427323594,0.031056913549295656,-0.8490960455011304,1.3199763220535243,1.0785746315562497,-0.18897144194270799,-2.4992135630796595,0.6507972977509578,1.0543154208759271]},{"inputNeurons":10,"outputNeurons":3,"weights":[[0.8549629772418919,-0.29053116564628395,0.6236520030910279],[0.73614875367676,0.6077117263017826,-0.37955447486782234],[-0.6518583319933776,-2.1449531476615973,-0.08847045158551398],[-0.48805367668074146,0.41934910361571587,-0.15394503590525352],[-1.4517183331805712,-0.28874930046306413,-0.5110230562428312],[2.1540035312073327,1.5942892559767312,-1.601411244574854],[-1.0420014580330446,-0.08761188993390256,-0.540532463740428],[-0.10798696369010188,0.4620305770473657,-0.035377803501749294],[-0.27863366518804367,0.965662290438621,1.1403698679964],[0.9816983620158787,-1.5448365783954001,2.346991291650212]],"biases":[1.41567513300812,0.6463412813656565,2.159353236274207]},{"inputNeurons":3,"outputNeurons":1,"weights":[[-0.1939994370809588],[-0.030075898305437623],[-1.3998785995463499]],"biases":[0.9441812321331144]}],"scores":{"1":2320,"2":2200,"3":2320,"4":2320,"5":3050,"6":2500,"7":2320,"8":2320,"9":2320,"10":3040,"11":2320,"12":2320,"13":2520,"14":2320,"15":2520,"16":2320,"17":2320,"18":2520,"19":2520,"20":2320,"21":2520,"22":2320,"23":2320,"24":2320,"25":2320}},{"layers":[{"inputNeurons":0,"outputNeurons":10,"weights":[],"biases":[1.1661058398052864,0.2533355709616727,-0.40666637539731076,0.5531352332299727,1.0205909644366813,0.4041767141511021,-0.5355651516228801,-1.108550579573309,0.6686384655942024,0.9512810231656643]},{"inputNeurons":10,"outputNeurons":3,"weights":[[0.423601865633668,0.5586498290493881,-1.4309928376183056],[0.12700339939606764,-0.1499252279217554,-0.6706368134406261],[-0.5721791872327251,-0.7148673636687447,-0.6745090978909317],[-0.4272476612561357,1.454784596987093,-0.9693125417053091],[-1.5091505477691913,0.7224117740566017,-0.5660953717289705],[1.8935236783646732,0.5795718504064682,-1.3809659534396528],[0.1259329334626691,0.4005644898844358,-0.022557571359481082],[-0.7497596866775668,0.4959129055633522,-1.3689010827595491],[-0.505154443363981,0.8843439037336109,0.8516394822373777],[-0.4336443231156523,-1.915086955070232,1.0050236135205646]],"biases":[0.3080755108304584,-0.9253511423871431,0.8906526931108227]},{"inputNeurons":3,"outputNeurons":1,"weights":[[0.29470915589751734],[0.2916622040327264],[-1.306762723715024]],"biases":[1.0130993539453574]}],"scores":{"1":2320,"2":2520,"3":2620,"4":2640,"5":2520,"6":2520,"7":2320,"8":2320,"9":2520,"10":2920,"11":2520,"12":2320,"13":2520,"14":2320,"15":2520,"16":2320,"17":2600,"18":2320,"19":2320,"20":2320,"21":2320,"22":2320,"23":2920,"24":2320,"25":1300}},{"layers":[{"inputNeurons":0,"outputNeurons":10,"weights":[],"biases":[0.8211366307509796,-0.5650772791697681,0.05581324567536419,0.4220926418040314,0.2610905715234147,-0.03790595801895452,-0.9249426937304064,-1.2894692305716424,1.522910239693999,0.4575114193566047]},{"inputNeurons":10,"outputNeurons":3,"weights":[[0.6019134103045978,0.06794603041679528,-1.1472932857435734],[-0.7609924114857263,-0.4169957995026341,-0.35870156969603256],[-0.3826386195031817,-0.918607364229089,-1.2226196682092436],[-0.35643677117084377,1.009608177923918,-1.1347337999779268],[-0.6175766453791345,-0.34991669407397546,-0.19588485606875622],[1.6474369583690158,0.49301754062520897,-1.558676852186672],[0.7968673897448746,-0.6352242180165242,-0.38188325393118766],[-0.9942813542003652,1.3551827684957205,-0.2162967977382168],[-0.3659207247484909,-0.4278003251063051,1.3977381477828865],[-0.7128538768334644,-2.257683809299425,1.6691154451289103]],"biases":[0.863695319214786,-1.1610773399620469,0.954684655269662]},{"inputNeurons":3,"outputNeurons":1,"weights":[[0.13755527432729836],[-0.22008571462196314],[-1.265592070378777]],"biases":[0.8545237832119177]}],"scores":{"1":2520,"2":2320,"3":2320,"4":3120,"5":2320,"6":2320,"7":2520,"8":2610,"9":2320,"10":2320,"11":2320,"12":2720,"13":2320,"14":2320,"15":2520,"16":2320,"17":2320,"18":2320,"19":2500,"20":2320,"21":2320,"22":2320,"23":2320,"24":2520,"25":2320}},{"layers":[{"inputNeurons":0,"outputNeurons":10,"weights":[],"biases":[1.3654209824576264,-0.11992494209368965,-0.7307356187881684,0.5983203467606898,0.9783272558310617,0.23076162974017744,-0.6577345342081433,-0.977819991977506,0.7257681762763656,0.8456744103923804]},{"inputNeurons":10,"outputNeurons":3,"weights":[[0.8066178571061009,0.4654802764246253,-1.560548177311607],[0.17855552787539744,0.0767950466639721,-0.41459809492485694],[-0.5075469186550501,-0.7980090608825432,-0.5307810576668206],[-0.5072950110192288,1.0808410356957465,-0.7727038402231622],[-1.4085136045036555,0.7933959573804928,-0.8476915304905464],[2.052318526539757,1.1983609268432074,-2.0362772536783025],[-0.003766901334129047,0.55871519849278,-0.16710229488123168],[-0.8429986740954505,0.41094845250279133,-0.9902295197732427],[-0.5625614914550935,0.34930512140212233,0.8862485288672638],[-0.6529015137702254,-1.753399796186127,1.7114695760144691]],"biases":[0.5043155716332373,-0.9003813958671333,0.9942079674032313]},{"inputNeurons":3,"outputNeurons":1,"weights":[[0.12717664001181478],[0.21737734511785411],[-1.1194358285948063]],"biases":[0.8194439983398796]}],"scores":{"1":2200,"2":2500,"3":2640,"4":2320,"5":2320,"6":2320,"7":2520,"8":2210,"9":2320,"10":2320,"11":2320,"12":2520,"13":2720,"14":2320,"15":2320,"16":2720,"17":2320,"18":2530,"19":2320,"20":2190,"21":2320,"22":2320,"23":2920,"24":2520,"25":2320}},{"layers":[{"inputNeurons":0,"outputNeurons":10,"weights":[],"biases":[0.20276885587713028,-0.03042043971367297,-0.3814949759882019,0.2972043988558166,0.6984805251249256,0.15323519639623379,-1.3584776348974956,-1.0444880029307677,1.3645040449702681,1.329160638242986]},{"inputNeurons":10,"outputNeurons":3,"weights":[[0.2868216969477508,-0.12281663020025115,-1.1502839539024043],[0.03799548243491019,-0.9564136950639374,-0.047919818515941265],[-0.05708592093520207,-0.330794093913504,-1.0830628316140398],[-0.418091903337933,0.9083581196090946,-1.0655654023341161],[-0.9628700002890864,-0.05862405321842201,-0.12414198248455448],[1.5720624955178402,-0.07265260756017203,-1.2639996220882255],[0.75172085755575,-0.4887649194303185,-0.19216748242662515],[-0.9904775208915397,1.016167242344774,-0.06711083763538495],[-0.21131272861479536,-1.0586372450856754,1.0225073127067248],[-1.0422848945780812,-2.4252455268910578,0.8558807054521338]],"biases":[0.9335035681851532,-1.0196354342285554,0.789006381656194]},{"inputNeurons":3,"outputNeurons":1,"weights":[[0.7791090730375537],[0.04679260596883145],[-1.1801458319048632]],"biases":[1.2629741625467528]}],"scores":{"1":2320,"2":2320,"3":3670,"4":2320,"5":2320,"6":2520,"7":2220,"8":2320,"9":1300,"10":3820,"11":2320,"12":2320,"13":2320,"14":2320,"15":2320,"16":2500,"17":2320,"18":2320,"19":2320,"20":2520,"21":2320,"22":2320,"23":2320,"24":2320,"25":2320}},{"layers":[{"inputNeurons":0,"outputNeurons":10,"weights":[],"biases":[0.5240575616439191,-0.21715295498012638,0.268158282130502,0.3708564027261023,0.11518782489403362,-0.3558368445435701,-0.96435555545267,-1.164394666522197,1.182337808750504,0.7174361838054704]},{"inputNeurons":10,"outputNeurons":3,"weights":[[0.8187574995600515,0.1581956398013571,-0.7804958509835067],[-0.7208185492204122,-0.3237962814001327,-0.13825352107536917],[-0.206591007931629,-0.885433018232305,-0.7423826449706181],[-0.775409642821422,1.1570230640000192,-0.947847225966121],[-0.9760881438240336,0.10358755155300846,-0.7033941009784697],[1.447040273499392,-0.04879892744768238,-0.6133601926659664],[0.41080009755030894,-0.48611384389087875,-0.10032350568809158],[-0.6841965437537834,1.244755298947929,-0.5700360520035664],[-0.5662656385353942,-0.2281276832246651,0.7642865851339787],[-0.6194454610143094,-2.338727389984749,1.1435329046491347]],"biases":[1.1879764986916217,-1.09047271998864,0.9913383861327292]},{"inputNeurons":3,"outputNeurons":1,"weights":[[0.5591763333748574],[0.29392721097965524],[-1.3104172159850525]],"biases":[1.3649363495139304]}],"scores":{"1":2320,"2":2320,"3":2320,"4":2320,"5":2320,"6":2320,"7":2520,"8":2190,"9":2320,"10":2320,"11":2320,"12":2520,"13":2920,"14":2320,"15":2320,"16":2190,"17":2320,"18":2320,"19":3250,"20":2520,"21":2320,"22":2320,"23":2520,"24":2520,"25":2320}},{"layers":[{"inputNeurons":0,"outputNeurons":10,"weights":[],"biases":[1.3834812042243283,0.12415479739979055,-0.4631366459776388,0.363337618322083,1.12160510713481,0.569464057004523,-0.6362431849808252,-0.7676860355860033,0.6947788646633132,0.47677834782180467]},{"inputNeurons":10,"outputNeurons":3,"weights":[[0.46350721157582186,0.444315245441253,-1.4849478189948413],[-0.010542414175119252,0.09282446006975734,-0.49767876663341765],[0.024431468776016818,-0.789137817730379,-0.5018182702515734],[-0.8258831693668557,1.4673323088797394,-1.2179663667491045],[-1.8586145796035474,0.5334017414010781,-0.777011822251947],[1.885042145809201,1.0322080890718783,-1.1872125486518452],[-0.11727897946169757,0.46568069842177556,0.2749522179732411],[-0.7952875006853237,0.6859070802226163,-0.8575538967834684],[-0.4141687238608376,0.4271563192473853,0.8132289958613621],[-0.12700840135386154,-1.8442803979697762,1.1832256558396823]],"biases":[0.41317196204571843,-0.7422721310407165,1.1102698403031561]},{"inputNeurons":3,"outputNeurons":1,"weights":[[0.59096916181868],[0.5171680733229579],[-1.3836626116168966]],"biases":[1.1378870874967977]}],"scores":{"1":2520,"2":2320,"3":2320,"4":3120,"5":2320,"6":3720,"7":2320,"8":2320,"9":2720,"10":3050,"11":2320,"12":2520,"13":2320,"14":2520,"15":2320,"16":2320,"17":2320,"18":2320,"19":2320,"20":2320,"21":1300,"22":1280,"23":2420,"24":2210,"25":2720}},{"layers":[{"inputNeurons":0,"outputNeurons":10,"weights":[],"biases":[0.11635521302091514,-0.021092582012980005,-0.2682505908026754,0.32418390330742425,0.3382036307501559,0.14382523849688184,-1.1990345127792956,-1.2568399076121022,1.466037354994071,1.227664157816314]},{"inputNeurons":10,"outputNeurons":3,"weights":[[0.22881175518798358,-0.021590027648481336,-1.0867095585143212],[-0.19811580104292265,-0.6525006037028195,-0.2602785440362331],[0.0680962147604866,-0.5423217347003458,-1.3434837471069154],[-0.596061178743886,0.8928081856393822,-0.9982048003520168],[-0.8420698323195253,0.036980103817949084,-0.18306071570239885],[1.487181555630039,0.02862030416440034,-1.4926772232220822],[0.5898646459794826,-0.4493126272958251,-0.38744457102284574],[-0.5241641914901016,1.0490828322786425,-0.183729508177081],[-0.0763769953851664,-0.8702959195855868,1.0304225762954153],[-1.0753196724509557,-2.537689622132809,1.0498782651867795]],"biases":[0.9157770882713251,-0.9579570468491119,0.8082378152193535]},{"inputNeurons":3,"outputNeurons":1,"weights":[[0.7277264081427355],[0.19597686302679918],[-1.2010962389790196]],"biases":[1.323275053924351]}],"scores":{"1":1310,"2":2320,"3":2520,"4":2600,"5":2320,"6":2300,"7":3480,"8":2320,"9":2210,"10":2320,"11":2320,"12":2220,"13":2320,"14":2320,"15":2320,"16":2320,"17":2320,"18":2320,"19":2310,"20":2920,"21":2320,"22":2320,"23":2520,"24":2320,"25":3330}},{"layers":[{"inputNeurons":0,"outputNeurons":10,"weights":[],"biases":[1.1906915084848495,0.5501812076131689,-0.023548603951664138,0.8551580797174664,1.1261137233411598,0.2840731418082259,-0.6846031573669139,-1.1753141379432224,0.6893237282224073,0.8294942172470999]},{"inputNeurons":10,"outputNeurons":3,"weights":[[0.22357720924781585,0.6103385539071479,-1.2589504996432812],[0.21894178086267366,0.23628699125091215,-0.7508137211994073],[-8.220820734904932E-4,-1.0402540526614137,-0.6856027659734164],[-0.7706199606146833,1.7179527620180552,-0.8461998806357597],[-1.0992800904478686,0.09428682522713533,-0.7324587121003393],[2.191079017839126,0.9670345747021916,-1.6237691686511457],[0.025509158845250846,0.5600628465926869,0.02907618176147824],[-0.5844829309173022,0.5174934439866646,-0.799419344577941],[-0.7985611425124136,0.5749170537220045,0.6892567753934074],[-0.4493390339880873,-2.007149082336575,1.095986848432868]],"biases":[0.6541798633458423,-0.7957567331627893,0.8080496657923988]},{"inputNeurons":3,"outputNeurons":1,"weights":[[0.3599433549784863],[0.6875994253669606],[-1.454058261969553]],"biases":[0.5697412806736407]}],"scores":{"1":2320,"2":2320,"3":2320,"4":2320,"5":2320,"6":2520,"7":2520,"8":2320,"9":2320,"10":2720,"11":2370,"12":2320,"13":2320,"14":2320,"15":2320,"16":3020,"17":2920,"18":2320,"19":2320,"20":2320,"21":2320,"22":2320,"23":2320,"24":2320,"25":2320}},{"layers":[{"inputNeurons":0,"outputNeurons":10,"weights":[],"biases":[0.604733311805483,0.0975063437767619,0.1599674587320492,-0.006976682402307366,0.2284688083455039,-0.49067444681863115,-1.0243478567785078,-0.8449545772572407,1.4869448479469267,0.45294762477703004]},{"inputNeurons":10,"outputNeurons":3,"weights":[[0.7374119703593267,0.09327505158771174,-1.2365372690299345],[-0.24108564798029863,-0.4193973437088197,-0.5976012180332491],[-0.25974431133900183,-0.918896996072501,-0.9788316252330316],[-0.7523369246635422,1.2130265286208735,-1.1768603003168945],[-0.7218448935252931,-0.15551647544076166,-0.4410755510655425],[1.5603031677362478,0.5765222894934496,-1.5945073097590339],[0.5370419775988777,-0.6296911623998331,-0.28736913117229623],[-0.4600495876616666,1.629387355371815,-0.6831698895646381],[-0.3190734447081759,-0.11531776786449494,0.8479817964437453],[-0.8581934950933384,-2.1238051711691597,1.1885627578470888]],"biases":[1.0117005763131703,-0.4527039733318191,1.1148929943642667]},{"inputNeurons":3,"outputNeurons":1,"weights":[[0.7009781535384728],[0.5310813317725653],[-0.9154972382725416]],"biases":[0.9400097438370412]}],"scores":{"1":2320,"2":2320,"3":2520,"4":3050,"5":2520,"6":2320,"7":2520,"8":2920,"9":2320,"10":2320,"11":2320,"12":2520,"13":2320,"14":2320,"15":2320,"16":2320,"17":2320,"18":2320,"19":2320,"20":2320,"21":2320,"22":2320,"23":2320,"24":2320,"25":2320}},{"layers":[{"inputNeurons":0,"outputNeurons":10,"weights":[],"biases":[0.08195192529529599,0.039575447074060875,-0.4167040061831063,0.35248970221037057,0.6753817260670074,0.239221569810963,-1.2131516220455665,-1.4121447956441453,1.1326917533423313,1.4107120315043882]},{"inputNeurons":10,"outputNeurons":3,"weights":[[0.20966203189519636,0.15543475948207558,-0.8812763177014871],[-0.29332062735812386,-0.6085414557707394,-0.48274843260032785],[0.25811273842926996,-0.4377883045154439,-1.1110406074933028],[-0.2900718212211438,0.9852036022221607,-1.1258553206771849],[-1.0862521861078527,0.24204025401615592,-0.06918665819925617],[1.6308712061334298,0.12851105914752,-1.7597591043086558],[0.21823333595264777,-0.3697047622660271,-0.6042785725235281],[-0.647163745071135,1.261145377565187,-0.17411802289856734],[0.19783642467257562,-0.7605385016161664,1.0387232363376282],[-0.9942795209853796,-2.6636634113154827,1.0160760754718179]],"biases":[0.9988646725475728,-1.2150186375957803,0.9550882737472697]},{"inputNeurons":3,"outputNeurons":1,"weights":[[0.9523041843852519],[0.33817021276395853],[-1.4183120285335382]],"biases":[1.3527448516949176]}],"scores":{"1":2320,"2":2320,"3":2320,"4":2370,"5":2320,"6":2500,"7":2320,"8":2320,"9":2700,"10":2320,"11":2320,"12":2590,"13":2520,"14":2290,"15":2320,"16":2960,"17":2320,"18":2520,"19":2320,"20":2320,"21":2520,"22":2320,"23":2320,"24":2250,"25":2320}},{"layers":[{"inputNeurons":0,"outputNeurons":10,"weights":[],"biases":[0.5718192073873163,-0.0997783345124984,0.22574440417482322,0.47153978942210156,0.33525259545696406,-0.05429528370403685,-0.9712869365018204,-1.0422344275394804,1.5147314679481454,0.5303389333395871]},{"inputNeurons":10,"outputNeurons":3,"weights":[[0.5565156213056051,-0.1457565209779155,-1.0684250952527017],[-0.8151866461132233,-0.08208516055675648,-0.4291741421111996],[-0.18465335199401317,-0.8313351987050261,-1.2142099381961804],[-0.9857834757607637,1.166669412112261,-0.854827362045016],[-0.6449952568879591,-0.6498821134085813,-0.5788990006249353],[1.7603439931372213,0.25479685695021065,-1.109101792880799],[0.7737632140355986,-0.47166720901266185,-0.15807468904677716],[-0.9432613454703118,1.1554604329573364,-0.5835302402580921],[-0.09876453398690017,-0.22148657559528923,0.6576762862497592],[-0.712168968295774,-2.2761282296785548,1.3164841750783836]],"biases":[0.9161511107058239,-0.8247338475899809,0.8505553864355189]},{"inputNeurons":3,"outputNeurons":1,"weights":[[0.6033701551967555],[0.5827113862598626],[-1.2875701861310145]],"biases":[0.8711942381237412]}],"scores":{"1":2320,"2":2320,"3":2520,"4":2320,"5":2320,"6":2320,"7":2320,"8":2320,"9":2320,"10":2320,"11":2410,"12":2520,"13":2320,"14":2320,"15":2320,"16":2320,"17":2320,"18":3720,"19":2320,"20":2320,"21":2320,"22":2520,"23":2320,"24":2320,"25":2200}},{"layers":[{"inputNeurons":0,"outputNeurons":10,"weights":[],"biases":[0.4518508399295374,0.2938835172687485,0.31602341797960876,-0.6184223745251033,1.2454419479450314,1.3609035862561862,0.01028966254919604,-2.417552092405471,0.29800371646111357,1.1953440834813829]},{"inputNeurons":10,"outputNeurons":3,"weights":[[0.7819525347628481,-0.3321698330055519,0.9642736484112393],[0.7147167735396129,0.40928924493852537,-0.6786798480500259],[-0.7647933790015117,-1.6460239495971734,-0.08845019808113169],[-0.5610356827799508,0.5665921357620586,0.07623567625864416],[-1.399537706944009,-0.45482015017608735,-0.4595334697861293],[1.3475948327972196,0.8998641704808195,-1.9206840007559478],[-1.076435940522299,-0.27310303348194614,-0.3155727800135181],[-0.06572575190124305,0.15544832307356515,-0.11085089189928465],[-0.033905638662326515,1.0274005205139236,0.6536095528632792],[0.21783163595505872,-1.2962201693213735,1.8599309203804255]],"biases":[1.1326039267062329,0.2597904299555929,1.8635149612120527]},{"inputNeurons":3,"outputNeurons":1,"weights":[[-0.40822336223295896],[-0.21989453295402134],[-1.3574962638725887]],"biases":[0.5809102371644497]}],"scores":{"1":2320,"2":2320,"3":2500,"4":2520,"5":2320,"6":2320,"7":2320,"8":2320,"9":2320,"10":2210,"11":2520,"12":2760,"13":2320,"14":2320,"15":2320,"16":2520,"17":2770,"18":2320,"19":2320,"20":2320,"21":2320,"22":2520,"23":2520,"24":2320,"25":2320}},{"layers":[{"inputNeurons":0,"outputNeurons":10,"weights":[],"biases":[1.0239759858188535,0.07557653680368981,-0.534763663127621,0.5034737348252138,0.9432466595391138,0.5513387738434921,-0.7547331401681632,-0.9370917343184612,0.6845929134475961,0.9322984593676336]},{"inputNeurons":10,"outputNeurons":3,"weights":[[0.3500242282371222,0.4909432655652218,-1.52294951315829],[0.18618315702294586,0.24484682318758683,-0.391245283590796],[-0.46225845010156313,-0.7013792068916719,-0.6141492648611593],[-0.5923197559715302,1.287492829380224,-1.08186674503174],[-1.436834373806773,0.3856722624011951,-0.6734136857192254],[1.812465542327619,0.9081534473889369,-1.4506554187575162],[0.2155727309935705,0.2877587556489932,0.06096767619232053],[-0.5254179657732597,0.5136413365196668,-0.9320663134959115],[-0.7583651585900792,0.25251482018275695,1.010314543263411],[-0.4613708007782224,-1.9411064231449902,1.140228307771483]],"biases":[0.3642131570231994,-0.7503979890941519,0.9995314587147606]},{"inputNeurons":3,"outputNeurons":1,"weights":[[0.4226046127403068],[0.5208808240191541],[-1.1822269866414956]],"biases":[0.7447490461653367]}],"scores":{"1":2320,"2":2320,"3":2210,"4":2320,"5":2320,"6":2320,"7":2400,"8":2320,"9":2320,"10":2320,"11":2320,"12":2320,"13":3120,"14":2320,"15":2320,"16":2500,"17":2320,"18":2690,"19":2320,"20":2320,"21":2920,"22":2320,"23":2320,"24":2320,"25":2320}},{"layers":[{"inputNeurons":0,"outputNeurons":10,"weights":[],"biases":[0.8273069537060007,0.1575513620341,0.11682810087626727,0.26164157419120987,0.23573904021649716,-0.25425740028644894,-1.015847992382611,-1.4820757517492116,1.728721566037012,0.38046111635327806]},{"inputNeurons":10,"outputNeurons":3,"weights":[[0.713304655756966,0.29162443222672174,-0.9138007146530671],[-0.6802942364985345,0.10980261040755701,-0.6303164671214294],[-0.18127598443284162,-1.213659150603997,-1.09593303075449],[-0.7038103953188635,1.0345832505459533,-1.0061329973168862],[-0.9023663818424945,-0.07565023290438853,-0.161740199743932],[1.5755174149283222,0.19932077407635196,-1.7275155992499793],[0.8012060343102689,-0.6646943154162254,0.0943974215196827],[-0.5729080451714103,1.5594755860874017,-0.7408573635282938],[0.27515274593321337,-0.2595640079950792,0.6599262396936689],[-0.7709166143379629,-2.640128773999861,1.25991680469187]],"biases":[0.9827301939185895,-1.4105375430254807,1.2151271547089932]},{"inputNeurons":3,"outputNeurons":1,"weights":[[0.31243215598192875],[-0.032806544798437975],[-1.169839191016448]],"biases":[1.4999165829488088]}],"scores":{"1":2320,"2":2320,"3":2320,"4":3250,"5":2320,"6":2320,"7":2320,"8":2320,"9":2350,"10":2320,"11":2320,"12":2320,"13":2320,"14":2320,"15":2320,"16":2320,"17":2320,"18":2520,"19":2320,"20":2320,"21":2320,"22":2920,"23":2320,"24":2320,"25":2320}},{"layers":[{"inputNeurons":0,"outputNeurons":10,"weights":[],"biases":[1.584103485434002E-4,0.1874205753787729,-0.3973671532630857,0.5436704951615084,0.22261049624079995,0.03511344478245951,-1.1234803999876788,-1.1732522130672096,1.3963591879687536,1.3778579258543067]},{"inputNeurons":10,"outputNeurons":3,"weights":[[0.2217094060582762,-0.39435389243855373,-0.9819208465193482],[-0.14978320138619458,-0.7453462118399389,0.10696540819738642],[0.19661188561112986,-0.7766018482411978,-1.2802085068327016],[-0.9186645370154986,0.699741913466285,-0.7363748910417156],[-0.8145585920268426,-0.042609654684817005,0.004316117704417699],[1.3104774527132959,0.02719725290569452,-1.5515478627465993],[0.39738436551393663,-0.6318473073376999,-0.46621940878483115],[-0.16018095716400027,0.9741925822024257,0.16952055884449707],[0.09761773315685246,-0.8802436909232515,1.0875369031903657],[-0.7564432011314337,-2.612943181758469,0.8348497512115824]],"biases":[0.6240686545997796,-0.7015215320978831,1.0717960042786425]},{"inputNeurons":3,"outputNeurons":1,"weights":[[0.7372390789200347],[0.03871648860679955],[-0.9565701456558163]],"biases":[1.3157002736143386]}],"scores":{"1":2320,"2":2320,"3":2320,"4":2320,"5":2320,"6":2900,"7":2200,"8":2320,"9":2520,"10":2340,"11":2520,"12":2720,"13":2220,"14":2320,"15":2320,"16":2920,"17":2520,"18":2320,"19":2320,"20":2210,"21":2190,"22":2320,"23":2320,"24":2320,"25":2320}},{"layers":[{"inputNeurons":0,"outputNeurons":10,"weights":[],"biases":[1.0866370784944959,-0.11161575775635046,-0.44638236227807404,0.9032339249247425,0.9683049729520345,0.5210882067190149,-1.0436412534503505,-1.2424382622694425,1.10639161887278,1.1062750957449217]},{"inputNeurons":10,"outputNeurons":3,"weights":[[-0.002861070865825377,0.3994698047635348,-1.4004004115082167],[0.18505729798644988,0.36601141196819775,-0.4938369342425141],[-0.47474355521709916,-0.5887258243606963,-0.6016730285840078],[-0.5509101735144804,1.46666057514817,-1.0897838451921245],[-1.5378746810700246,0.4497210004373733,-0.8954144908639808],[1.8134810111363,1.0115014556907145,-1.7107555434016777],[0.27286241162540226,0.48979320073419197,-0.06429200066396067],[-0.29354142888231227,0.42956265300701774,-0.8367464235463664],[-1.0044328873516835,0.40708616246433954,0.7286229954560322],[-0.445024018900223,-2.0529976767104374,1.3688191008998523]],"biases":[0.1876442490344276,-0.673362899396478,0.7517653376043308]},{"inputNeurons":3,"outputNeurons":1,"weights":[[0.10832783080826114],[0.717779286827273],[-1.08047019171959]],"biases":[0.4617294071178064]}],"scores":{"1":2320,"2":2320,"3":2500,"4":2600,"5":2320,"6":2320,"7":2320,"8":2320,"9":1320,"10":3100,"11":2320,"12":2520,"13":2500,"14":2320,"15":2320,"16":2320,"17":2320,"18":3050,"19":2500,"20":2320,"21":2320,"22":2320,"23":2520,"24":2320,"25":2320}},{"layers":[{"inputNeurons":0,"outputNeurons":10,"weights":[],"biases":[1.084018839240688,0.1865985400182369,-0.8090374600715594,0.2976236408100521,0.917364388165768,0.2231208091419305,-0.5267678529345461,-1.1593862419057914,0.566951367369906,1.0736141828600352]},{"inputNeurons":10,"outputNeurons":3,"weights":[[-0.1115375520898525,0.8210565102963518,-1.4110372484314293],[0.4437604214571533,0.08773958600227211,-0.34156030797093917],[-0.3738708292711306,-0.8034892482278879,-0.9158044478198533],[-0.7820144615383509,1.6597794042721314,-1.6329076034728134],[-1.59679110271209,0.38722120291367135,-0.8968560160155497],[1.3724354965778964,0.9172400650964537,-1.0672553818774584],[0.17988444132556586,0.40086648421480703,0.41348112019308786],[-0.6259884024553174,0.31055987056734846,-0.9547762228600641],[-0.7521766493102067,0.32218725857295594,0.8177756540994022],[-0.14880695335824712,-2.2528625393162005,0.9364339299775483]],"biases":[0.4198296911220697,-0.9129782785134961,0.6730367363441688]},{"inputNeurons":3,"outputNeurons":1,"weights":[[0.6705380972529499],[0.4652389004953144],[-0.7948633457937582]],"biases":[0.8107734166244914]}],"scores":{"1":2320,"2":2320,"3":2320,"4":2320,"5":2320,"6":4250,"7":2320,"8":2370,"9":2830,"10":2320,"11":2320,"12":2320,"13":2320,"14":2320,"15":2320,"16":2320,"17":2320,"18":2320,"19":2320,"20":2320,"21":2320,"22":2320,"23":2520,"24":1300,"25":2320}},{"layers":[{"inputNeurons":0,"outputNeurons":10,"weights":[],"biases":[1.5108495901543921,-0.02630928010838339,-0.7096255598396786,0.3764160741172061,0.6880161007080621,0.3968204216839545,-1.146017723123328,-0.7925321433934251,0.5911119769132291,1.050312879871388]},{"inputNeurons":10,"outputNeurons":3,"weights":[[0.27267984742623286,0.5917524501515758,-1.6582697525142645],[0.07191295050161033,0.06039393850363681,-0.426610663341228],[-0.24947707638391792,-0.7264948487856665,-0.667735779737018],[-0.8742458275532499,1.2794278806529122,-1.2235645474457937],[-1.197774946173262,0.2879196009730394,-0.28201093186263376],[1.8084733577798913,1.0528385333931494,-1.8929480474576272],[0.017615803744492037,0.2892648202190044,0.4771935428322674],[-0.43236505706499156,0.5739051904593592,-0.7943179731434659],[-0.5323849844867381,0.3727279132306611,0.7020007470339621],[-0.7688757934365796,-1.9394888457734327,1.0607951457203646]],"biases":[0.13734529479610583,-0.26048234526923664,0.7830169952759563]},{"inputNeurons":3,"outputNeurons":1,"weights":[[0.3949462462213349],[0.22568233697023188],[-1.2835455094457755]],"biases":[0.41027681021374474]}],"scores":{"1":2320,"2":2500,"3":2840,"4":2320,"5":2320,"6":2320,"7":2700,"8":2320,"9":2320,"10":2320,"11":2320,"12":2320,"13":2320,"14":2520,"15":2320,"16":2220,"17":2320,"18":2320,"19":2210,"20":2320,"21":2320,"22":2520,"23":2720,"24":2320,"25":2320}},{"layers":[{"inputNeurons":0,"outputNeurons":10,"weights":[],"biases":[0.29941744661526026,0.6303565839174836,0.0035647814482194784,-0.6049949239620164,1.2814316385813094,1.3544214334807325,-0.09944922514550861,-2.3047872585155127,0.9908250993612733,0.824690852429908]},{"inputNeurons":10,"outputNeurons":3,"weights":[[0.898690661462654,-0.36416893073508866,0.6169421335196851],[0.10038850912561204,0.35640030734935524,-0.5021734658961435],[-0.6023032957775237,-1.907802195369412,-0.4031245185273663],[-0.654275998326238,0.8439912934222573,0.2982267574681592],[-1.3026709975992954,-0.4768313318729373,-0.4434625561335822],[1.6319614496237131,1.4260951937719566,-1.4857277722787092],[-0.8704073790305612,-0.23083892730491262,-0.8002520465637046],[-0.10210245943515642,0.22927761742105096,0.05205898979329193],[-0.14747027659705983,0.9072490038194476,1.1782119729924747],[0.7524352064546239,-1.065084976106414,1.8412179485834308]],"biases":[1.2319769131267826,0.10309207509034028,2.0860508164346916]},{"inputNeurons":3,"outputNeurons":1,"weights":[[-0.2405104426388971],[-0.3186248027481252],[-1.876162549431992]],"biases":[0.7161775404257329]}],"scores":{"1":2320,"2":2320,"3":2320,"4":2320,"5":2570,"6":2320,"7":2320,"8":2320,"9":2320,"10":2320,"11":2320,"12":2320,"13":1300,"14":2320,"15":2320,"16":2320,"17":2320,"18":5120,"19":3020,"20":2200,"21":2320,"22":1300,"23":2320,"24":2320,"25":2320}},{"layers":[{"inputNeurons":0,"outputNeurons":10,"weights":[],"biases":[0.4819476115990937,0.3344608390736042,0.3004577965217476,-0.4911633441798011,1.2695608613289864,1.29194807086236,0.2328772586763363,-2.2440862283579968,0.65748152435993,0.6187918895856217]},{"inputNeurons":10,"outputNeurons":3,"weights":[[0.6810583226156479,-0.357866131734738,0.7281515111185352],[0.16806540534238917,-0.3012514891181642,-0.14233347653025563],[-0.8020737122689161,-1.3522946009669137,-0.37946290460807436],[-0.31383440135338236,0.5542571348232558,0.19383793637027932],[-1.1044619835950384,-0.24777200271045582,-1.0993715124364425],[1.8452032151985391,1.1768016278187383,-1.7291895306481366],[-0.7453856304085197,-0.484370628612541,-0.4341790355130002],[-0.6006377415084039,0.15131582025526902,-0.7112275234635225],[0.026350804249616024,1.1931022706173493,1.0858333048381077],[0.791960292124471,-1.274711938980508,2.0315173054830034]],"biases":[1.4060097083613332,0.17006960943575652,2.007461164113133]},{"inputNeurons":3,"outputNeurons":1,"weights":[[-0.3284881419650026],[-0.09502261468663069],[-1.37380006137407]],"biases":[0.8710683500857832]}],"scores":{"1":2320,"2":2320,"3":2320,"4":2320,"5":2320,"6":2320,"7":2320,"8":2360,"9":2320,"10":2320,"11":2320,"12":2320,"13":3120,"14":2320,"15":2320,"16":2320,"17":2320,"18":2520,"19":1310,"20":2320,"21":2320,"22":3650,"23":2320,"24":2520,"25":2320}},{"layers":[{"inputNeurons":0,"outputNeurons":10,"weights":[],"biases":[0.9370533674969532,0.009577862102780416,0.30491154183788416,0.18372892575695282,0.2810968244719621,-0.30333002913874396,-0.7805326908731524,-1.1304293862729358,1.3256945432135203,0.516792106915436]},{"inputNeurons":10,"outputNeurons":3,"weights":[[0.44159046283800807,0.08885164341449195,-0.9268331275471636],[-0.3619416147542821,-0.13616751586419099,-0.45845336883971194],[-0.5342251091432113,-1.2109268028979219,-1.0258632359847395],[-0.5526479088973296,0.8223803731590065,-0.9986648032655916],[-0.7026927919546427,0.006577701793142557,-0.21498460122695012],[1.4903531834539534,0.33704743323260056,-1.5633104815151562],[0.07718726045088659,-0.4866692830632299,-0.06671605016878265],[-0.5531528188750163,1.2291521551685791,-0.6439298557551849],[-0.3011130187885688,-0.4125090825547657,1.0552687913304346],[-0.7624884427893548,-2.241077896163401,1.5198344542234055]],"biases":[0.701236571033568,-0.727950763601569,0.8870690566800135]},{"inputNeurons":3,"outputNeurons":1,"weights":[[0.6157307542609842],[0.1520130287376066],[-1.1184313830437875]],"biases":[0.9886229395078392]}],"scores":{"1":2320,"2":2320,"3":2210,"4":2320,"5":2500,"6":2320,"7":2710,"8":2320,"9":2320,"10":2520,"11":2320,"12":2520,"13":2520,"14":2320,"15":2210,"16":2320,"17":2320,"18":2320,"19":2320,"20":2720,"21":2320,"22":2320,"23":2320,"24":2320,"25":2520}},{"layers":[{"inputNeurons":0,"outputNeurons":10,"weights":[],"biases":[1.0568627342359014,0.36735775930349795,-0.3801955536036329,0.4203987940033733,1.052877945791147,0.7865596799412886,-0.6857701523277029,-0.43084820072631336,0.6935154423185979,1.0797724251674157]},{"inputNeurons":10,"outputNeurons":3,"weights":[[3.409388638370148E-5,0.5487241459085377,-1.9687622116133079],[-0.07084491870932746,-0.0598629262444062,-0.3169972903279482],[-0.532134540608913,-0.6817621319841958,-0.7024134859032113],[-0.3964887287895723,1.6259541630045007,-1.2843627480987896],[-1.1998839381000952,0.12145487163937085,-0.9320126536867055],[2.1975328486134464,0.6686324968075612,-1.5852161556407134],[0.06647852421864736,0.24672448531001992,0.022924211201673858],[-0.697122009243627,0.14433367534300784,-0.4857328336836626],[-0.8418019615385777,0.2868618142321079,0.7103336274242364],[-0.6419799223745545,-2.070659810197563,0.7858088608198552]],"biases":[0.623288056109078,-1.0532682506333964,1.0774122591275404]},{"inputNeurons":3,"outputNeurons":1,"weights":[[0.28918652815407053],[0.26716665371046916],[-1.2585546230283493]],"biases":[0.8749674421196632]}],"scores":{"1":2320,"2":3720,"3":1300,"4":2320,"5":2520,"6":2320,"7":2320,"8":2320,"9":2320,"10":2320,"11":2320,"12":2320,"13":2320,"14":2200,"15":2520,"16":2720,"17":2320,"18":2320,"19":2320,"20":2210,"21":2320,"22":2320,"23":2320,"24":2520,"25":2620}},{"layers":[{"inputNeurons":0,"outputNeurons":10,"weights":[],"biases":[0.7197311096989816,0.11120978735315487,0.5063452462453424,0.5140488986006511,0.14049786366519748,-0.26680156570829194,-1.2468236137592297,-1.0696714725405505,1.3479619612096552,0.6884921231255288]},{"inputNeurons":10,"outputNeurons":3,"weights":[[0.6340534127399208,-0.4090468300794668,-1.2344415412557912],[-0.316388652455034,-0.25718503135573334,-0.32598091171585286],[0.04414474448648181,-1.1454574779626596,-0.7723445580967648],[-0.874960911996933,1.1564378912585194,-0.7803462246389916],[-0.4581420107909317,-0.2672417956043622,-0.35672248240059984],[1.6231541195322363,0.060186947530771806,-1.3361597448229594],[0.43804412903184764,-0.8158701343878147,-0.23687197182666797],[-0.7713348302599341,1.1897231183062182,-0.4342330401170114],[-0.13352426563311987,-0.37373989031595745,0.8790590398969442],[-0.7213806451294064,-2.4192968337678855,1.7262810814799627]],"biases":[1.1674958834078928,-0.9359355063300282,0.953555674808179]},{"inputNeurons":3,"outputNeurons":1,"weights":[[0.3965706144131538],[0.15720249119032279],[-1.1685506554643117]],"biases":[1.0517080363944737]}],"scores":{"1":2320,"2":2320,"3":2320,"4":2320,"5":2320,"6":2320,"7":2320,"8":2520,"9":2520,"10":2320,"11":2320,"12":2500,"13":2320,"14":2920,"15":2320,"16":2320,"17":2320,"18":2320,"19":3400,"20":1300,"21":2320,"22":2320,"23":2320,"24":2440,"25":2290}},{"layers":[{"inputNeurons":0,"outputNeurons":10,"weights":[],"biases":[0.8041742061040628,-0.06170471690000165,0.5051055412565821,0.28968640876678287,0.38078284525686257,-0.17679898602059463,-1.1194793891746149,-1.4068807166713568,1.21725226687524,0.483629658849585]},{"inputNeurons":10,"outputNeurons":3,"weights":[[0.39787799976341276,0.2241402900920085,-1.2487927282151239],[-0.16136181936108707,-0.286694248782536,-0.15958828205192604],[-0.3998178316203903,-0.8146141550834377,-0.9279456177387251],[-0.9286129797359393,0.7818745894392409,-0.7075920819048073],[-0.828822497318203,-0.13999499166873508,-0.42532429700034846],[1.6428290020039589,-0.011637148612981568,-1.30270904828304],[0.3709976371057137,-0.522111444069179,-0.43096342761237305],[-0.5570427189736314,1.4025434394419383,-0.37120061670139515],[-0.34862061048993864,-0.21025512789123246,0.66243960215624],[-0.6443262300736545,-2.0117269462624283,1.2878431933409729]],"biases":[0.5483901407437657,-0.7172103997561496,1.271051744632529]},{"inputNeurons":3,"outputNeurons":1,"weights":[[0.08165301294637856],[0.4986810006337603],[-1.499587652045796]],"biases":[0.8018542477489368]}],"scores":{"1":2320,"2":2520,"3":2320,"4":2320,"5":2320,"6":2320,"7":2320,"8":2520,"9":1300,"10":2320,"11":2770,"12":2320,"13":2320,"14":2320,"15":2320,"16":2520,"17":2520,"18":1300,"19":2200,"20":2600,"21":3620,"22":2320,"23":2820,"24":2320,"25":2320}},{"layers":[{"inputNeurons":0,"outputNeurons":10,"weights":[],"biases":[1.0561268881751757,0.013418644939152548,-0.37090917353344155,0.21311715707980977,0.9546536996444149,0.23205294882796712,-1.2494217832857846,-0.7517770165700114,1.3141140292929079,0.952984535267229]},{"inputNeurons":10,"outputNeurons":3,"weights":[[-0.0037410347821796863,0.4335106776613071,-1.562284444222062],[0.4369487361644676,0.11165357775598257,-0.6427244021506201],[-0.31704540344651544,-0.3828148538467797,-0.712271026080826],[-0.4619824785795265,1.020186066459032,-1.5113382428954345],[-1.2284197441166167,0.4479255070497387,-0.680971893911115],[1.6081473736901282,0.676255132536216,-1.629491522782039],[-0.30173172801656944,-0.1784180257331662,-0.14141647237233743],[-0.525900814677349,0.48696306990803756,-0.7667045501747292],[-0.6880584059576023,0.074704210992113,0.9782896568242164],[-0.13052284635926997,-2.141905318814207,0.9426043252775609]],"biases":[0.037807227705754176,-0.6427414512617754,1.6640834197339085]},{"inputNeurons":3,"outputNeurons":1,"weights":[[0.6354561532867031],[0.7332483129055754],[-0.741133786254556]],"biases":[0.6927830454371732]}],"scores":{"1":2320,"2":2520,"3":2500,"4":2320,"5":2320,"6":2320,"7":2320,"8":2320,"9":2320,"10":2720,"11":2500,"12":1310,"13":2520,"14":2320,"15":2320,"16":2920,"17":2320,"18":2320,"19":2320,"20":2320,"21":2320,"22":2320,"23":2320,"24":2720,"25":2320}},{"layers":[{"inputNeurons":0,"outputNeurons":10,"weights":[],"biases":[0.13678352325925375,-0.4173346421341553,-0.2125404971932857,0.29359860971297913,0.6059949589375971,0.31150634998475835,-0.7313892940116216,-1.1997110582743762,1.7109539715492739,1.6462737400787895]},{"inputNeurons":10,"outputNeurons":3,"weights":[[0.1836712645725272,-0.22873917961274437,-1.35078957913185],[0.35152040149020397,-0.4409915988736549,-0.41766640295335744],[-0.24034944289276866,-0.5927441842481658,-1.7686739103820532],[-0.3777171735792758,0.6955273105499679,-0.46990997121857625],[-0.7666127098697343,0.19900449291016342,-0.2723362215272823],[1.4319429783973439,-0.06920276705096283,-1.3678042646275317],[0.6565595340456124,-0.4595719697710221,-0.28520597673208786],[-0.7078587060488845,1.4239520295659593,-0.06494416614835982],[0.15012010537004622,-0.7468837344228012,1.0080349124544419],[-1.0084638757843185,-2.753535112606545,1.1328847091939411]],"biases":[0.9837302629480642,-1.17504894190161,0.7098817371038535]},{"inputNeurons":3,"outputNeurons":1,"weights":[[0.3780254354449666],[0.05621775826689285],[-0.9368595380273077]],"biases":[1.721420060229665]}],"scores":{"1":2520,"2":2320,"3":2500,"4":2320,"5":2320,"6":2320,"7":2380,"8":2320,"9":2520,"10":2520,"11":2320,"12":2320,"13":2520,"14":2420,"15":2520,"16":2320,"17":2320,"18":2320,"19":2320,"20":2320,"21":2320,"22":2320,"23":2320,"24":2210,"25":2210}},{"layers":[{"inputNeurons":0,"outputNeurons":10,"weights":[],"biases":[1.239899323312501,-0.09564137015943319,-0.5703779621585406,0.6943026423646397,1.231755616296593,0.881041238247386,-1.1510065084379812,-1.0370443588827238,0.44702317162702776,0.6425223801111365]},{"inputNeurons":10,"outputNeurons":3,"weights":[[0.21869752850674154,0.42013875600616857,-1.5284201267645012],[0.3021096237942361,0.25480541152839187,-0.4413250344616016],[-0.28379380090755313,-0.8629542204456568,-0.8674232741169854],[-0.8729783857532434,1.2927611934155945,-1.0292681444370184],[-1.6364993386696671,0.3095336855291649,-0.9030189143818962],[1.674617869971688,0.7060530881619586,-1.2165236881339703],[0.3970620521265459,0.08025515498097302,-0.031715241949291234],[-0.4175686303712769,0.28070985723310615,-0.8421784465803587],[-0.71581918490768,0.3411924823181296,0.8627954170689551],[-0.6058314082378472,-1.8724087213981404,0.9984567266641884]],"biases":[0.4442055341406168,-0.8074265584023442,1.204411885147403]},{"inputNeurons":3,"outputNeurons":1,"weights":[[0.7983824793294367],[0.47646117783111613],[-1.3051682436549459]],"biases":[0.6784913584844302]}],"scores":{"1":2720,"2":2320,"3":2320,"4":2320,"5":2520,"6":2320,"7":2320,"8":3020,"9":1300,"10":2320,"11":2320,"12":2320,"13":2520,"14":2320,"15":2320,"16":2320,"17":2320,"18":2320,"19":2920,"20":2320,"21":2320,"22":2320,"23":2320,"24":2320,"25":2320}},{"layers":[{"inputNeurons":0,"outputNeurons":10,"weights":[],"biases":[-0.08715421675585963,-0.031166963207418425,-0.23196123545830588,0.5426640143432022,0.36124250545193504,-0.02077729799656977,-1.042424848243567,-1.2119537150912347,1.3889152348951537,1.3025458887589436]},{"inputNeurons":10,"outputNeurons":3,"weights":[[0.360628391760974,-0.17426115556349075,-0.976244120750607],[-0.27073508752611264,-0.7644787852765869,-0.41833429796864596],[0.2776503337180224,-0.3495927556003123,-1.4939816401024248],[-0.6680254767642977,1.1118509068552045,-0.8014197037545614],[-0.7929754661880377,0.16318190338434374,-0.1783105942718752],[1.6758261354637005,0.08517859637399103,-1.3788498570665175],[0.4824631443973477,-0.4279281088562802,-0.21552146388432497],[-0.6146714934864025,1.0920066459065787,-0.45685938189586867],[-0.10899378486882091,-0.653323947596024,1.0197299989578983],[-1.125297021714813,-2.4612660707966354,0.9399841790841293]],"biases":[1.1146160998471304,-0.972516222111776,0.5134122953611464]},{"inputNeurons":3,"outputNeurons":1,"weights":[[0.5357473685440518],[0.2859877577069808],[-1.1204246849542274]],"biases":[1.0880449475149532]}],"scores":{"1":2320,"2":2320,"3":2320,"4":2520,"5":2320,"6":2320,"7":1280,"8":2320,"9":3640,"10":2320,"11":2810,"12":1300,"13":2210,"14":2520,"15":2320,"16":2210,"17":2520,"18":2520,"19":2920,"20":2320,"21":2320,"22":2560,"23":2320,"24":2210,"25":2320}},{"layers":[{"inputNeurons":0,"outputNeurons":10,"weights":[],"biases":[0.3905385952568619,-0.34833935714206377,-0.3835258874441618,-0.07985557017027739,0.5303999016757804,-0.17113146458752018,-1.4178923063817783,-1.162523889266489,1.845074598128866,0.562183540383398]},{"inputNeurons":10,"outputNeurons":3,"weights":[[-0.003003393009227029,-0.13425514887729273,-0.9793331049451082],[-0.6026580208027649,-0.09835963586509744,-0.1405000230375498],[0.21826178916128008,-0.7058218962417617,-1.274806887009883],[-0.1587957968520578,0.9292713825243875,-1.012353148630008],[-0.4795281289374462,0.3068664447054073,-0.0726840139584436],[1.9052965295469846,-0.06118297543855622,-1.3623431475268746],[0.3580832155593055,-0.6710715328405361,-0.6612786648423679],[-0.32414844989331093,1.3799522399502016,-0.6563758849567161],[-0.28821106204876634,-0.4718480719381941,1.2243289831484538],[-0.6983360231756518,-2.410977248002349,1.172539020528963]],"biases":[1.1531143991267943,-0.42646565421676486,1.0208813734101962]},{"inputNeurons":3,"outputNeurons":1,"weights":[[0.6074719845029458],[0.3223868486144289],[-1.0332300500637324]],"biases":[1.6838614656239832]}],"scores":{"1":2210,"2":2210,"3":2920,"4":2520,"5":2320,"6":3400,"7":2320,"8":2520,"9":3120,"10":1310,"11":2320,"12":2200,"13":2320,"14":2320,"15":2320,"16":2320,"17":2520,"18":2520,"19":2320,"20":2320,"21":2320,"22":2350,"23":1280,"24":2320,"25":2320}},{"layers":[{"inputNeurons":0,"outputNeurons":10,"weights":[],"biases":[0.8422310727743932,-0.42958966855623704,0.16812391023387982,0.6090497663767094,0.22391915541260446,-0.11123734091009146,-0.8352049397191549,-1.132062624596114,1.5630045451265817,0.4492677940352713]},{"inputNeurons":10,"outputNeurons":3,"weights":[[0.4577176877512469,-0.04976459961343632,-1.117169483923671],[-0.6563066559217514,-0.1330732420042756,-0.09985445719231659],[-0.6694044222225773,-1.2256571065174868,-1.1009941274328248],[-0.8116017478615838,1.1322287274365588,-0.871043338490885],[-0.3647863946493069,-0.21464908383926296,-0.05008350011643675],[1.2740770934269847,-0.07080792270143052,-1.6690099792781237],[0.13218072245720652,-0.8651763524186193,0.15173817380908514],[-0.8798946495921758,0.8953705164861312,-0.921989888136999],[-0.1237340482020754,0.11377779881833,0.8383851878572078],[-1.1391074119407874,-2.589115809283993,1.5258592679201664]],"biases":[0.8625810999290496,-0.7703540572098769,1.082871889762414]},{"inputNeurons":3,"outputNeurons":1,"weights":[[0.32721942637672585],[0.24892423980747674],[-1.065173979193837]],"biases":[1.0155418581624531]}],"scores":{"1":2320,"2":2320,"3":3120,"4":2700,"5":2520,"6":2320,"7":2320,"8":2320,"9":2320,"10":2900,"11":2320,"12":2320,"13":2320,"14":3250,"15":2320,"16":2320,"17":2320,"18":2320,"19":2210,"20":2320,"21":2320,"22":2520,"23":2210,"24":1300,"25":1310}},{"layers":[{"inputNeurons":0,"outputNeurons":10,"weights":[],"biases":[1.2512936220330766,0.06248834292845803,-0.3947638699947642,0.8127339498111859,1.0572806231885299,0.6001341718130421,-0.7130414652222267,-1.0500104055690445,0.6364670376877769,0.9886304759069049]},{"inputNeurons":10,"outputNeurons":3,"weights":[[0.3626609580975318,0.41039049912600695,-1.7001383669018313],[0.398591244849534,0.18413139364985398,-0.14222526293570364],[-0.6254157757994567,-0.7195074072751295,-0.6404713244727185],[-0.5579712870515029,1.241717371872592,-0.7835447640981767],[-1.4543428043181912,0.6696778788738844,-0.7444823408390066],[1.6351960605632971,0.765694361429412,-1.7285026278746567],[0.07201049494749592,0.24219431293820276,0.32585285830878086],[-0.5484025051243596,0.5700252324875905,-0.9064534481819536],[-0.673515426892612,0.3002025486286146,0.9714795709384315],[-0.6400577997324556,-1.9106038445406803,1.5738268432105924]],"biases":[0.5201832492201227,-0.5376089729948093,1.242945580220637]},{"inputNeurons":3,"outputNeurons":1,"weights":[[0.46213645656167646],[0.5584527754503261],[-1.1897943467897487]],"biases":[0.5551904074030988]}],"scores":{"1":2320,"2":2320,"3":3120,"4":2320,"5":2520,"6":2320,"7":2320,"8":2190,"9":2320,"10":2500,"11":2320,"12":2520,"13":2520,"14":2320,"15":2320,"16":2520,"17":2320,"18":2340,"19":2320,"20":2320,"21":1300,"22":2320,"23":2220,"24":2320,"25":2590}},{"layers":[{"inputNeurons":0,"outputNeurons":10,"weights":[],"biases":[1.0669476529518367,-0.17953030405343523,-0.4896955462798769,0.49020202645965544,0.9718553797404889,0.2330884808895059,-0.6219536840663576,-0.5500699531934441,0.6844972786015812,0.7134700358607193]},{"inputNeurons":10,"outputNeurons":3,"weights":[[0.20291136079302888,0.519206946651859,-1.8638042959947203],[0.07005784198126547,0.1431256766433894,-0.8436954500831169],[-0.485868507568735,-0.6143336309483274,-0.4209967004205579],[-0.7800373077749629,1.3814762200090664,-1.179435319774363],[-1.4911697376328414,0.28000473283163096,-1.0220012940148633],[2.142579451916167,1.1427907343878378,-1.6448352406183295],[0.26485630885140643,0.23668785702437875,0.34851347806803046],[-0.5758490890457084,0.9670112376574521,-0.8356247530424146],[-0.7427108078146606,0.5937743477667801,1.1682245648447436],[-0.39961188281534493,-1.7297266995825604,1.2819622649549738]],"biases":[0.03263248575219302,-0.8886915476666206,0.9691173036837188]},{"inputNeurons":3,"outputNeurons":1,"weights":[[0.6960347420725418],[0.602242343591365],[-1.112560863605031]],"biases":[0.7365896364775485]}],"scores":{"1":2320,"2":2320,"3":2320,"4":2320,"5":2320,"6":2320,"7":2520,"8":2320,"9":2320,"10":2320,"11":2320,"12":2320,"13":2720,"14":2650,"15":2320,"16":2320,"17":2320,"18":2320,"19":2320,"20":2320,"21":2500,"22":2320,"23":2320,"24":1300,"25":2970}},{"layers":[{"inputNeurons":0,"outputNeurons":10,"weights":[],"biases":[1.3739838461555223,-0.008713926630055345,-0.337317339474013,0.45886108111450485,0.8128220894840508,-0.17508313134036269,-1.198109273413788,-0.851285705512263,0.9850511978418139,1.1838352695060743]},{"inputNeurons":10,"outputNeurons":3,"weights":[[0.37761093830765247,0.3180655055608056,-1.3765147670929907],[0.5429971940113503,-0.008366108723438126,-0.7958877226021315],[-0.45949754142032495,-0.35161695779361457,-1.063780102013678],[-0.6722341554167705,0.524696823072194,-1.0526946662375196],[-1.630244068121289,0.32072945980125256,-0.48462172204682263],[1.565452816811564,0.8633879684731177,-1.0735907108981473],[0.12647953580864696,-0.23584234732779114,-0.1326011737966043],