{"networks":[{"layers":[{"inputNeurons":0,"outputNeurons":10,"weights":[],"biases":[1.0000576151819411,-0.8059651232233767,0.34356143797981537,0.5249534953904845,0.6518864896542756,0.5356378862379203,-1.0600637099314045,-1.681268719483699,2.331299451571275,1.6430138305648798]},{"inputNeurons":10,"outputNeurons":3,"weights":[[0.0027911764355187385,-0.23426152921092525,-1.1201718788929478],[-1.1281125463108235,-0.5278494567715705,-0.5865963196895272],[1.1781670795369905,-0.9821814658519463,-1.8738722686868203],[-0.8742445339024963,0.424301872621544,-0.908205417078195],[-1.496066005817282,0.6804040027600458,-0.21066119230320937],[1.5174919196876515,-1.2910029691486515,-2.445121294058355],[0.6531930675335877,-0.0031291160288678954,-0.4346774858027004],[-0.5320335340001808,1.0931894250603633,0.9259819968072709],[0.1635933368151439,-0.899807641547401,0.5460807619543955],[-0.9359469599261672,-1.5779610354250657,0.866653219264294]],"biases":[1.480562226092126,-1.1212383021907688,-0.07982303215197273]},{"inputNeurons":3,"outputNeurons":1,"weights":[[0.5996582502628934],[0.6525151185468799],[-1.1552742223407426]],"biases":[1.6000903181026427]}],"scores":{"1":1270,"2":4940,"3":3250,"4":2000,"5":2800,"6":1290,"7":5000,"8":4940,"9":4980,"10":4980,"11":2310,"12":5000,"13":1260,"14":3380,"15":2340,"16":4980,"17":4980,"18":5000,"19":2340,"20":1270,"21":3580,"22":4980,"23":5000,"24":5000,"25":2780}},{"layers":[{"inputNeurons":0,"outputNeurons":10,"weights":[],"biases":[0.1704603329058748,0.07863727174599719,0.39620903565138943,0.4293597946020148,1.428479316083728,0.7748725562085661,-0.9934151889941742,-1.4307303274005008,1.7365555137767636,0.9748245873075219]},{"inputNeurons":10,"outputNeurons":3,"weights":[[0.888575534457687,-0.4617889905064916,-1.4526732070048256],[-0.39434743359697394,-1.3357846400684643,-0.7454939972583059],[1.354063757358271,-0.8550998100511693,-1.3902223678722077],[-1.2284742828185986,-0.5122240156235722,-0.4652538474410868],[-1.041259608761362,-0.1800144402693751,-0.16122153535033895],[1.6973900515840064,-0.727512889703102,-1.9664918296981702],[0.35191488805929727,0.5920317612259414,-0.47138876356074355],[-0.638845763617997,1.6225704825293898,1.092951959062729],[0.3539521116410508,0.037408376652712516,0.42923017905430566],[-1.317259145221258,-0.9806594443981047,0.6816586029331154]],"biases":[1.426799712536141,-0.8237882097790457,0.3714332332389464]},{"inputNeurons":3,"outputNeurons":1,"weights":[[0.5223630813476191],[0.9123898595383879],[-1.3058585884059017]],"biases":[1.426096614133229]}],"scores":{"1":2200,"2":4980,"3":3380,"4":2200,"5":5000,"6":2190,"7":2760,"8":2380,"9":1270,"10":4980,"11":4980,"12":3700,"13":1710,"14":5000,"15":3740,"16":2110,"17":1300,"18":3600,"19":5000,"20":4980,"21":5000,"22":1260,"23":4980,"24":4980,"25":2200}},{"layers":[{"inputNeurons":0,"outputNeurons":10,"weights":[],"biases":[0.6412188826460891,-0.3299323880556979,0.19000521074217327,0.500591871867139,0.7381695326419286,0.8328790023574979,-1.1371057985753188,-0.8514789421231741,2.093905100865042,1.186599888862436]},{"inputNeurons":10,"outputNeurons":3,"weights":[[0.7837248747966692,-0.3621973598280283,-1.497335995730706],[-0.8772955474638633,-0.3517409291331973,-0.9351475114264113],[0.9624959737898844,-1.1529398312661492,-1.870130755505692],[-0.5389398238609698,0.059672119283472644,-1.102984265775685],[-0.9614488056372326,0.703647553795954,0.0242033665029132],[1.3371882013205088,-1.185254882947841,-2.3586811723852352],[0.511943763361971,0.2099234039804356,-1.0020705115918662],[-0.7357715567038413,1.3867041180643622,0.7778422379837188],[0.7215027680465267,-0.24553245544285973,1.0246128167177004],[-1.0998479022876053,-1.8178835962893563,0.9952372230884529]],"biases":[1.8145566171941474,-1.0475709160189215,-0.5041046920376447]},{"inputNeurons":3,"outputNeurons":1,"weights":[[0.3277744789268251],[0.5255725349908345],[-1.2601620276531302]],"biases":[1.960478856244675]}],"scores":{"1":1280,"2":1310,"3":2490,"4":1280,"5":1320,"6":4980,"7":5000,"8":3600,"9":4980,"10":4980,"11":2540,"12":2340,"13":4980,"14":1910,"15":2800,"16":1280,"17":2380,"18":3380,"19":2480,"20":4980,"21":5000,"22":4980,"23":5000,"24":3380,"25":1320}},{"layers":[{"inputNeurons":0,"outputNeurons":10,"weights":[],"biases":[0.1345234440260197,-0.38249514032942356,0.3875141343198641,-0.012556341442564095,0.7978878476120246,0.6976826322265418,-1.01568114502445,-1.1830155033566823,1.2675733913320133,1.4072687743620125]},{"inputNeurons":10,"outputNeurons":3,"weights":[[0.34456799813845407,-0.5925065543318303,-0.73542220011596],[-1.039656580518865,-1.1568266895053423,-0.7687644305121528],[1.7576605601211308,-0.4174408826433253,-1.2427706420130316],[-1.1460318999114927,-0.4680155317805069,-0.35349893678710004],[-1.6643449458239605,-0.20669640180595314,-0.47819163638861417],[1.1266126370019214,-0.59917653113579,-1.6927401169353042],[0.17101817748262577,0.25484362650177605,-0.5511002499112834],[-0.7560415879443043,0.5803905853013472,1.5533403473877871],[0.2945046144536455,-0.39293142584446217,0.35994966201712436],[-1.1803641166553325,-1.4233848765976689,1.0934259541604268]],"biases":[0.9567198370793719,-0.6712678252138045,-0.49633515361893243]},{"inputNeurons":3,"outputNeurons":1,"weights":[[0.6564252025617199],[0.8607318737614508],[-1.6766578538999535]],"biases":[2.2847924102698878]}],"scores":{"1":5000,"2":2400,"3":2350,"4":4980,"5":3400,"6":3600,"7":2000,"8":4980,"9":3580,"10":3180,"11":3400,"12":1290,"13":1290,"14":1260,"15":2200,"16":2780,"17":4980,"18":4980,"19":4980,"20":4980,"21":1280,"22":2000,"23":2200,"24":2340,"25":2110}},{"layers":[{"inputNeurons":0,"outputNeurons":10,"weights":[],"biases":[0.8893223400280287,-0.9528614861124972,0.48892439181300634,0.054419310048518243,0.8837580943711504,0.37604298161356753,-1.4187627891698587,-1.2917948086665618,1.9317306332316744,1.6180490777598533]},{"inputNeurons":10,"outputNeurons":3,"weights":[[0.225299236859908,-0.6557372129292696,-1.4031644493810904],[-0.7778492057747503,-0.3881587839005946,-0.8761629194530139],[0.4395763669227132,-0.8527105743243505,-1.6734415235836344],[-0.5809768579814425,0.345298283060776,-0.7085380273957569],[-1.2497802726820737,0.4612663069912585,0.05396546196198443],[1.6860272874958073,-1.1689437134501013,-2.0355750130303654],[0.07071862922367445,-0.13692811059543414,-1.103166295230579],[0.0908427101122341,1.1959404863692806,0.7950373550004213],[0.9523332843909211,-0.4281946834626246,0.5304770302090805],[-0.87109724339064,-1.1876415135178553,1.2156804229177383]],"biases":[2.313470957415005,-0.9715986938021002,-0.7757631755305567]},{"inputNeurons":3,"outputNeurons":1,"weights":[[0.4097012952723704],[0.6478136050071956],[-1.4496693114679053]],"biases":[1.99633732969161]}],"scores":{"1":1910,"2":5000,"3":1270,"4":1280,"5":1910,"6":1910,"7":5000,"8":3600,"9":1290,"10":3380,"11":3380,"12":3580,"13":5000,"14":2050,"15":2400,"16":5000,"17":4980,"18":2340,"19":2400,"20":4980,"21":3600,"22":1350,"23":4980,"24":2600,"25":1910}},{"layers":[{"inputNeurons":0,"outputNeurons":10,"weights":[],"biases":[0.9354510795084361,-0.37826859673221036,0.4000035894117884,0.37830354705476044,0.987184267028194,0.572593281060081,-1.1096466145554928,-1.2301933495011899,1.9299938100709801,1.4052348796364975]},{"inputNeurons":10,"outputNeurons":3,"weights":[[0.5898430894570956,-0.42009896264230284,-1.2947535311137313],[-0.8266949165183917,-0.3949813963492168,-0.7380917092184017],[0.8214396346316524,-1.0173697437168012,-1.2946421886250037],[-0.977553510611936,0.033196125469613924,-0.8256012650137531],[-1.3975414324080988,0.6833647096238311,-0.06960806448316059],[1.3869015555074233,-1.055991105577974,-2.4361974065951912],[0.11262854375828912,0.2989663910177268,-1.0386909378049891],[-0.5455438347775027,0.9669929035050171,0.7477150984804593],[0.7977004629084967,-0.5109347709686521,0.5081362525030069],[-1.0453446371858528,-1.4613302232278467,1.2746667137947056]],"biases":[2.0992725038564757,-1.2168221433544641,-0.3741607636752834]},{"inputNeurons":3,"outputNeurons":1,"weights":[[0.1853167551640228],[0.41485388498017256],[-1.4818681433462475]],"biases":[1.7370238260305562]}],"scores":{"1":1390,"2":4980,"3":2340,"4":2200,"5":4980,"6":2150,"7":4980,"8":1360,"9":1960,"10":2940,"11":2340,"12":1370,"13":3580,"14":1910,"15":4980,"16":2340,"17":4980,"18":1290,"19":1910,"20":4980,"21":2310,"22":2220,"23":4980,"24":4980,"25":3580}},{"layers":[{"inputNeurons":0,"outputNeurons":10,"weights":[],"biases":[0.06404376292456251,-0.1922822700326911,0.1127060873877116,0.37473280940234593,0.5597435496274912,0.51170462163691,-0.14788015399019966,-1.1221694487712641,1.6693829600910541,1.5353854592540854]},{"inputNeurons":10,"outputNeurons":3,"weights":[[-0.012944963754770611,-0.09405443465876988,-0.6261794722781492],[-0.9800911844902287,-0.5993997719126096,-0.87169063086375],[1.374648991584557,-0.9990049227036196,-1.6964173683595067],[-0.9881424709815692,-0.03896739210433899,-0.8748145060705288],[-1.6963451133204792,-0.10948141513724978,-0.16520426974736144],[1.5932544657123753,-1.4876796199162734,-1.6589007138491405],[0.030276396432131536,-0.294196370112889,-0.34389422394721714],[-0.5603826888653505,0.6440991449687566,0.995161188159029],[0.5624627911000183,0.004962819814224223,0.7948489163062028],[-2.0037909878745475,-1.101024512481359,0.9213591069620186]],"biases":[1.7693817160806034,-0.34389765648459586,-0.22905381947421005]},{"inputNeurons":3,"outputNeurons":1,"weights":[[0.6802200200293849],[1.40184175831868],[-1.6409469242782058]],"biases":[2.0095808592281856]}],"scores":{"1":2340,"2":5000,"3":2350,"4":4980,"5":4980,"6":3400,"7":2270,"8":2340,"9":1970,"10":2340,"11":2400,"12":5000,"13":2230,"14":5000,"15":1290,"16":1910,"17":2200,"18":3400,"19":2610,"20":2800,"21":4980,"22":1310,"23":1280,"24":5000,"25":1960}},{"layers":[{"inputNeurons":0,"outputNeurons":10,"weights":[],"biases":[0.6985413587498743,-0.28252667895066846,0.3877768232789181,0.48464261697432975,0.9063240010981486,0.7485961968469048,-0.9957344251605271,-1.234546388558154,2.077992181230367,1.6055244524012295]},{"inputNeurons":10,"outputNeurons":3,"weights":[[0.7876545859056455,-0.36915885563683976,-1.455891314309892],[-0.7505477598361234,-0.4241407611144832,-0.9549085598587707],[1.1435383118832692,-1.239137161747803,-1.5267004772899688],[-0.5609865453017835,0.14383205299941718,-1.307688925667724],[-1.188533070175687,0.7796654660817098,-0.06474568804325351],[1.2901254582417727,-1.1669919192338436,-2.325674830717976],[0.6277451749802658,0.15892840055199178,-0.798316812823271],[-0.5816944901305761,1.2405867852984929,0.7557005187366471],[0.8394337824751339,-0.4995369931264168,0.5869026120938937],[-1.1666132248122696,-1.507770570886368,1.1723789652380008]],"biases":[1.8912977469040795,-1.1666782483309048,-0.41580472010476105]},{"inputNeurons":3,"outputNeurons":1,"weights":[[0.21361573963079739],[0.3700622146592069],[-1.4679469891022414]],"biases":[2.0211669772247007]}],"scores":{"1":5000,"2":1310,"3":2180,"4":2400,"5":3600,"6":4980,"7":4980,"8":2800,"9":2580,"10":3380,"11":3040,"12":1260,"13":1960,"14":3390,"15":2850,"16":3180,"17":2380,"18":3380,"19":3580,"20":1370,"21":1270,"22":2320,"23":5000,"24":2800,"25":2580}},{"layers":[{"inputNeurons":0,"outputNeurons":10,"weights":[],"biases":[0.46621893298060996,-0.32082153492167775,0.39623293020872025,0.030228678694975225,1.0335337995273741,0.6843229543654776,-1.3907671586563977,-1.5558489341197193,1.7466965543115303,0.9677475927477428]},{"inputNeurons":10,"outputNeurons":3,"weights":[[0.6788989647568877,-0.6549800160842201,-0.9540354352249305],[-0.9218929690946738,-1.2153850860628235,-0.5595188833238347],[1.285018768557473,-0.5529331354817462,-1.562455547518321],[-1.0378704626016961,-0.2661321472210657,-0.37447071580332575],[-1.4587538033243956,-0.06715608602751907,-0.029078996079589525],[1.2485000774229746,-0.7418909168470081,-2.248098533323227],[0.1604418919936234,0.7065157426364728,-0.801905102778697],[-0.8208384774517101,1.3171654184448538,1.4741702885999501],[0.7878016925991613,-0.220292277121109,0.6414344373662999],[-1.5020180185774503,-1.4828445103266092,0.8464945434083266]],"biases":[1.6017883099929942,-1.3541014755023784,0.367293246501205]},{"inputNeurons":3,"outputNeurons":1,"weights":[[0.5750984213753747],[1.1097208547847974],[-1.6183342693150131]],"biases":[1.6185019780126706]}],"scores":{"1":5000,"2":1310,"3":3380,"4":2200,"5":2350,"6":2310,"7":3200,"8":1960,"9":3400,"10":2150,"11":1370,"12":2380,"13":2540,"14":3380,"15":4980,"16":3380,"17":5000,"18":2780,"19":1290,"20":2580,"21":5000,"22":3380,"23":1290,"24":1310,"25":1990}},{"layers":[{"inputNeurons":0,"outputNeurons":10,"weights":[],"biases":[0.2855206262144986,0.015131857909011254,0.08972332516349317,0.24747982876644165,1.09011677609734,0.4748629921167616,-1.3242927983220318,-1.3203234217859001,1.6399926985234474,1.3177495712120155]},{"inputNeurons":10,"outputNeurons":3,"weights":[[0.8604835502345789,-0.9899876906826233,-1.3696020675178193],[-0.9418645103770737,-1.3053732461480207,-0.7695495953134265],[1.2703078300233,-0.9557372424981471,-1.5117616305879384],[-1.1005298256957636,0.017994200045046288,-0.38426890173765127],[-1.515005290227795,-0.029524745478468707,-0.014888426002747049],[1.50046721409667,-1.2834596552978845,-1.6071551030444204],[0.5372249517986453,0.8018964362329172,-0.9316538090731172],[-0.7719721036234769,1.0045057604051106,1.2344887427745164],[-0.055485778441413475,-0.12449897087716062,0.3145777724468661],[-1.5481063528904297,-1.411444228294664,0.9139550244674162]],"biases":[1.4589373350690718,-1.1046378155253542,0.23625087925548954]},{"inputNeurons":3,"outputNeurons":1,"weights":[[0.582525858207432],[1.5687179803855067],[-1.3868268307691087]],"biases":[1.8343216466106171]}],"scores":{"1":2320,"2":2320,"3":3120,"4":2320,"5":2320,"6":5850,"7":2320,"8":2320,"9":2800,"10":3120,"11":2320,"12":2320,"13":2520,"14":2720,"15":2210,"16":5520,"17":2320,"18":2320,"19":2320,"20":2320,"21":2320,"22":2320,"23":2320,"24":3290,"25":2320}},{"layers":[{"inputNeurons":0,"outputNeurons":10,"weights":[],"biases":[1.0786722661192918,-1.1934668085776825,0.47824217570562455,0.22768194234803715,1.032226202470256,-0.0056407622286840375,-1.528430951555551,-1.3182759152369534,2.2799315391143518,1.5670445772475314]},{"inputNeurons":10,"outputNeurons":3,"weights":[[0.10180047488079978,-0.672721618081868,-1.6615108157218672],[-0.5901898108319914,-0.24579790406095883,-0.8050663637066626],[0.48212133474678587,-0.7412479172676785,-1.8563127521694993],[-0.7972936501073201,0.44956134492621624,-0.8117078474809767],[-0.7856099967459266,0.3952467067162643,-0.345052202240412],[1.7278393985097207,-1.1934326845214867,-2.1141259411401174],[-0.17463420731492607,-0.01632921797027327,-0.8928627889461261],[0.042958037550638054,0.9323072578340845,0.5407268601091241],[0.956505087403775,-0.3357306635199742,0.4514239545661724],[-1.0569271506579314,-1.131123504872928,1.215411392287478]],"biases":[2.4192925464416266,-0.7252505329290743,-0.7424068752586513]},{"inputNeurons":3,"outputNeurons":1,"weights":[[0.24056076513957306],[0.4891487370255918],[-1.2533183343063476]],"biases":[2.0465575828220888]}],"scores":{"1":1300,"2":1950,"3":2110,"4":1340,"5":1300,"6":1310,"7":4980,"8":2340,"9":2400,"10":3540,"11":2340,"12":4980,"13":3980,"14":2200,"15":4980,"16":2380,"17":1270,"18":2340,"19":3380,"20":1320,"21":3560,"22":3400,"23":2400,"24":1260,"25":5000}},{"layers":[{"inputNeurons":0,"outputNeurons":10,"weights":[],"biases":[0.6733215015473938,-0.33171224394642074,0.217592619248128,0.20717258153764215,1.1833281012833843,0.5629593172854506,-0.9739715512070778,-1.7113398494037673,1.6389845622929122,1.2348405372115818]},{"inputNeurons":10,"outputNeurons":3,"weights":[[0.6836364770571753,-0.8877684954014111,-1.4280489235968759],[-1.0280539699151978,-1.394695856771913,-0.6746508939694699],[0.8546123617065173,-1.1849682422394774,-1.3489729963702473],[-0.944171153795763,-0.45110325818802577,-0.758629573941713],[-1.6095217606659162,-0.2618537881965689,-0.02344990920473279],[1.4301145202635965,-0.7946477713938865,-2.4502176982096247],[0.260964270796373,0.5234082566830413,-0.6541648839548138],[-0.7011085280239192,0.8955075312471708,1.5005974637497574],[0.021760250755392674,-0.06825466671256918,0.22083427109040554],[-1.3979241653272587,-1.3031343385356946,0.5608184956042225]],"biases":[1.6060033618933764,-1.3562627966976109,0.17045177255997448]},{"inputNeurons":3,"outputNeurons":1,"weights":[[1.156379406795348],[1.3357543417910018],[-1.5585961569660471]],"biases":[1.6951442794989464]}],"scores":{"1":2920,"2":2520,"3":2520,"4":2520,"5":4300,"6":2360,"7":4320,"8":3920,"9":2320,"10":3120,"11":2320,"12":2320,"13":2520,"14":2320,"15":2320,"16":2320,"17":2720,"18":2520,"19":2320,"20":2200,"21":2320,"22":2520,"23":2220,"24":3070,"25":2320}},{"layers":[{"inputNeurons":0,"outputNeurons":10,"weights":[],"biases":[0.5024957046050788,-0.14902116091051393,0.17981147009060122,0.2509687774796233,0.9064420243770266,0.5233615950645781,-1.0758309612914567,-1.2945218019405997,1.6764843754308552,1.2514444826603235]},{"inputNeurons":10,"outputNeurons":3,"weights":[[0.801536047125611,-0.6749378767486004,-1.2954017187327618],[-0.658960854560667,-1.2106870869153807,-0.6812953436129876],[1.228713052696186,-1.0250009523831989,-1.3542855425412315],[-0.9429689546966159,-0.16851839230750462,-0.5518823766367085],[-1.4925158843369377,-0.08905203799380593,-0.09186982818715],[1.6145274207974103,-0.9351885769581098,-2.0188346807189426],[0.3769246608333134,0.5792979954436025,-0.5712204621956041],[-0.6821276465055012,1.1848551824838571,1.318600265288627],[0.16185058905206992,-0.17339958233700398,0.30602721456231197],[-1.231088906723377,-1.4653984194118548,0.5976875408282426]],"biases":[1.4535849320993424,-1.1915933456279135,0.14962767099182325]},{"inputNeurons":3,"outputNeurons":1,"weights":[[0.7376417466777472],[1.1724980592831133],[-1.5836484654347287]],"biases":[1.5382955547327601]}],"scores":{"1":3380,"2":4980,"3":1410,"4":3380,"5":1960,"6":2790,"7":1320,"8":1310,"9":4980,"10":1340,"11":4980,"12":1270,"13":2580,"14":4980,"15":1910,"16":2340,"17":2130,"18":2340,"19":2340,"20":1350,"21":1280,"22":2710,"23":2340,"24":2000,"25":4980}},{"layers":[{"inputNeurons":0,"outputNeurons":10,"weights":[],"biases":[0.29383838688221375,-0.3141793005884695,0.5445872918890388,-0.21112781267113445,1.0297678366649996,0.4326464107883373,-1.2646141166169924,-1.0788782419852248,1.7118993784701424,1.3599170101752622]},{"inputNeurons":10,"outputNeurons":3,"weights":[[0.6332428732906231,-0.5104369414024392,-1.2142049145193732],[-0.8481404249708437,0.12720716315278158,-0.8831626281192164],[1.0535741271032446,-0.9995658377858624,-1.4288566661933086],[-0.9052120453186453,0.11144781228332658,-0.7302041171279812],[-1.2350927756958474,0.6811695164001242,-0.41469704714955224],[1.2005808221131544,-0.8630992188180863,-2.483070155742506],[-0.15978659696921782,0.31232862272931433,-0.9122461721306379],[-0.6514244583754597,0.895806344121421,0.852719740389147],[0.8110514450053874,-0.04931692624986178,0.6672810456979922],[-1.287577241695192,-1.7817392434518182,1.3915044578675262]],"biases":[1.9164125886179493,-1.1212820325770438,-0.3567386148588464]},{"inputNeurons":3,"outputNeurons":1,"weights":[[-0.027831790309396393],[0.42467018373071025],[-1.7724822712307795]],"biases":[1.516668549355411]}],"scores":{"1":3450,"2":2320,"3":2320,"4":2660,"5":4450,"6":2200,"7":3120,"8":2320,"9":2320,"10":2320,"11":2520,"12":2920,"13":2700,"14":2320,"15":2320,"16":2520,"17":2320,"18":2320,"19":2720,"20":2320,"21":2720,"22":3450,"23":2320,"24":2320,"25":2320}},{"layers":[{"inputNeurons":0,"outputNeurons":10,"weights":[],"biases":[0.33126516273747214,-0.18635025072838302,0.17590811336745502,0.47114852936321017,1.177971335996197,0.5631386786213591,-0.9906550111474735,-1.0263430373330324,2.416915012382639,1.7262676935111836]},{"inputNeurons":10,"outputNeurons":3,"weights":[[0.7173913197352552,-0.3701534020488277,-1.4451160488369432],[-1.2286757984562553,-0.4670598739322659,-1.0008029150717526],[1.1253796808364738,-1.351795535101801,-1.5599282705589075],[-0.5271164027987998,0.11512744650431436,-1.3990886084272443],[-1.138984436983123,0.7042294953275398,0.07264970405650795],[0.8989372478807361,-0.8775237918780938,-2.1573771058898457],[0.5163969301554374,-0.13877357902481294,-0.4584154201640649],[-0.742275904779395,1.4068470886681115,0.5042005436692302],[1.2547858358394253,-0.5202591049925894,0.764787763701753],[-1.4408074274758271,-1.238156428629716,1.0742194209991687]],"biases":[1.9824136206247085,-1.0034805426726994,-0.11423397670672641]},{"inputNeurons":3,"outputNeurons":1,"weights":[[-0.03366908979411429],[0.6101924955075221],[-1.7703346783941791]],"biases":[1.5860512582407926]}],"scores":{"1":3120,"2":2520,"3":2320,"4":2320,"5":2520,"6":2500,"7":2320,"8":2320,"9":2320,"10":3250,"11":2320,"12":2320,"13":2320,"14":5920,"15":2320,"16":2320,"17":2210,"18":2320,"19":2320,"20":2320,"21":2320,"22":2320,"23":2320,"24":2320,"25":2320}},{"layers":[{"inputNeurons":0,"outputNeurons":10,"weights":[],"biases":[0.7332459966097048,-0.5913020604724649,0.38048838836659027,0.648726969147467,1.0718048775295952,0.6611272177828366,-1.1222585873270527,-1.0259917068722482,2.1337200320883483,1.5510380341342296]},{"inputNeurons":10,"outputNeurons":3,"weights":[[0.4407919336787154,-0.6384501115292416,-1.073449581066114],[-0.984200789982338,-0.4057521157934144,-0.517233821341988],[0.9158419974383034,-0.7718710535956776,-1.2786990217066694],[-0.8288113179340302,-0.10040828085074957,-0.8346693706565089],[-1.2236910459808485,0.973376710527541,-0.1645690935398938],[1.2789678603627923,-1.0942289351311814,-2.1525546518022876],[0.2754694205849096,0.4002823449492889,-0.8991210329580455],[-0.5944564106303488,1.210880668524972,0.8200489733345715],[0.9316535694794591,-0.5466776425329366,0.8398740228197356],[-0.9383198867435094,-1.2224530494659134,1.362507471364762]],"biases":[1.9369719542056463,-1.0745975840970907,-0.2815238852757909]},{"inputNeurons":3,"outputNeurons":1,"weights":[[0.17706393750441574],[0.6202095937384754],[-1.6587980893301661]],"biases":[1.7364523518762567]}],"scores":{"1":2320,"2":2320,"3":2240,"4":2290,"5":2790,"6":2320,"7":2320,"8":2520,"9":2700,"10":2320,"11":2320,"12":2320,"13":1300,"14":5420,"15":2320,"16":2320,"17":2500,"18":2320,"19":2320,"20":2320,"21":2320,"22":4220,"23":2320,"24":2320,"25":2320}},{"layers":[{"inputNeurons":0,"outputNeurons":10,"weights":[],"biases":[0.7485797411724988,-0.5291255406450779,0.2375456802272815,0.4163318558805522,1.0152488606132284,0.5982779706707391,-1.1117126157293742,-1.2249576110411369,1.9171289254905923,1.8312746144242287]},{"inputNeurons":10,"outputNeurons":3,"weights":[[0.8699769944223967,-0.5110144918929841,-1.4935960083245956],[-0.7541372457206891,-0.29021444827408777,-0.6455922672003029],[1.0847176936027314,-1.382103421545461,-1.3186677155915496],[-0.4900307643190008,-0.025872933611899684,-1.2930594317366526],[-1.1387442244348869,0.5430819620187766,0.090751401558017],[1.349775262939348,-1.1676210694613933,-2.3140536398516054],[0.8574049641121662,0.2882354884044518,-0.8259212202488464],[-0.8394698138215269,1.311288405118735,0.7174012660411025],[0.7305336996986853,-0.9881560176854851,0.4620614553009859],[-1.3197117537260687,-1.5418631052283112,1.3018222817692089]],"biases":[1.6970363150899992,-1.126962356032389,-0.31165589170080954]},{"inputNeurons":3,"outputNeurons":1,"weights":[[0.1868431119297795],[0.557403487839396],[-1.354614667832274]],"biases":[2.5080576907724206]}],"scores":{"1":2520,"2":2320,"3":2320,"4":2320,"5":2320,"6":2320,"7":2320,"8":2320,"9":2320,"10":2320,"11":2320,"12":2650,"13":2520,"14":3120,"15":2320,"16":2720,"17":2320,"18":3920,"19":2320,"20":2320,"21":2320,"22":2320,"23":2320,"24":3650,"25":2210}},{"layers":[{"inputNeurons":0,"outputNeurons":10,"weights":[],"biases":[0.6719680054155046,-0.15017612508128814,0.4635111568065007,0.3001148218921479,0.9688000352399385,0.37137229230276786,-0.8619883342101462,-1.7270378133547017,1.8359273239477776,1.3330345018437657]},{"inputNeurons":10,"outputNeurons":3,"weights":[[0.8900242392214783,-0.6226019897584222,-1.1410007958022135],[-0.25584297901365277,-1.3591474955088463,-0.7373235784099683],[1.5639955647640167,-0.9197599718437408,-1.6168163898210595],[-1.0042004590116755,0.04766941737762384,-0.2834663185930526],[-1.6573022633800973,-0.16559936617829946,0.009588738430204177],[1.2578517042719617,-0.8706165070648663,-2.122015613473857],[0.3389190503109136,0.8905658532140937,-0.6049837019011498],[-1.0123084926774812,0.7320304462102976,1.6381563052773185],[0.04928639752707778,0.2675814804904967,0.33786224314073954],[-0.9736122566821408,-1.144913820518419,0.7628049919757277]],"biases":[1.3272979124313862,-1.2832449757247217,-0.1891151943809011]},{"inputNeurons":3,"outputNeurons":1,"weights":[[0.7224070389591013],[0.8770188556993326],[-1.667438951368817]],"biases":[1.5340360893813876]}],"scores":{"1":2320,"2":2520,"3":2320,"4":3520,"5":2320,"6":2320,"7":2320,"8":2520,"9":2320,"10":2520,"11":3850,"12":2320,"13":2320,"14":2320,"15":2330,"16":2360,"17":2580,"18":2320,"19":2690,"20":2320,"21":2320,"22":2320,"23":2320,"24":3020,"25":2320}},{"layers":[{"inputNeurons":0,"outputNeurons":10,"weights":[],"biases":[1.1937472990080755,-0.3501723947663349,0.19578204755021889,0.2192628787172333,0.829508081988251,-0.04784901938453989,-1.1609772318915519,-1.4660794738344942,1.8185258601050667,1.3608657274209999]},{"inputNeurons":10,"outputNeurons":3,"weights":[[0.9119540454479504,-0.22019776708528233,-1.4238685061482308],[-0.9918391895744516,-0.0967241940823052,-0.6393118457643044],[0.8700758917377046,-0.9322745096508277,-1.483930397439921],[-0.8575296122273539,-0.13024205524651802,-0.7986770700110942],[-1.763194416020203,0.8945392016199548,0.06058441876976409],[1.4019426385536002,-0.8910196411494203,-2.3499426867093143],[0.04509672471219886,0.7207095622188898,-0.7400723206513204],[-0.5721830317292823,1.1627136150459711,0.6532309456197366],[1.0462481920983562,-0.4068833265260471,0.9217336096725226],[-0.8516269840246511,-1.338493808579649,1.390407602062673]],"biases":[2.3359143570558007,-1.1256382980485171,-0.05539104434106035]},{"inputNeurons":3,"outputNeurons":1,"weights":[[-0.07405772279180817],[0.44114759205911935],[-1.605366576867364]],"biases":[1.7695997189439872]}],"scores":{"1":2320,"2":2320,"3":2320,"4":2320,"5":2320,"6":2320,"7":2320,"8":2320,"9":2320,"10":2320,"11":2320,"12":2320,"13":5560,"14":2320,"15":2320,"16":2720,"17":2210,"18":2200,"19":2320,"20":2520,"21":2500,"22":3010,"23":2320,"24":2320,"25":2220}},{"layers":[{"inputNeurons":0,"outputNeurons":10,"weights":[],"biases":[0.8358846692602874,-0.2912634867853488,0.5083012559736004,0.3906737490494205,1.315038923039737,0.6912270625298375,-0.8932584700317344,-1.4263503535786073,2.1466012271487314,1.4041225421088304]},{"inputNeurons":10,"outputNeurons":3,"weights":[[0.998304464467884,-0.3908778931914683,-1.395759050403746],[-0.7278923548212043,-0.49841045802189643,-0.9659524603420294],[1.1394022199054012,-1.1285062774085446,-1.2775462629759242],[-0.7826400779860605,0.3507818190773432,-0.9330649629619979],[-1.4018657853164298,1.008374928906985,-0.31945056352871815],[1.3506567977785209,-1.2433483325638393,-2.042207800175505],[0.6126523552524462,0.3731483297661623,-0.9682478993213284],[-0.6829118516347996,1.2511035907711774,1.0041918625188266],[0.7691617897736016,-0.7581390168084885,0.6616737434600207],[-0.9467896905100377,-1.4504933106769233,0.9113339654000221]],"biases":[1.6234744639052934,-0.9195460035478648,-0.5017307488938618]},{"inputNeurons":3,"outputNeurons":1,"weights":[[0.12022340548290833],[0.48951479914958773],[-1.3594656233933853]],"biases":[2.0175760688291353]}],"scores":{"1":2320,"2":2240,"3":3400,"4":2320,"5":2320,"6":2520,"7":2840,"8":2320,"9":3120,"10":3050,"11":2320,"12":2800,"13":2320,"14":2320,"15":2500,"16":2520,"17":2320,"18":2520,"19":2320,"20":2320,"21":2320,"22":2320,"23":2320,"24":2320,"25":2320}},{"layers":[{"inputNeurons":0,"outputNeurons":10,"weights":[],"biases":[0.6443194729052129,-1.0974558837287622,0.32340546340526366,0.21542218596721446,1.0628468382876284,-0.17922943743812078,-1.4779707773294424,-1.385322306839394,2.463167713401724,1.5529902197761716]},{"inputNeurons":10,"outputNeurons":3,"weights":[[0.21995383511414487,-0.6082998560818214,-1.543617528366747],[-0.5674479635860834,-0.5110882722313845,-0.6860283899383068],[0.6192042017414605,-0.9461359844834676,-1.9989791497054068],[-0.8049804759499746,0.6440832550373551,-0.8134962606751253],[-0.6236439795487225,0.4284047335932611,-0.03695544609168899],[1.7028688428564274,-1.555812523859849,-1.9401898802766973],[-0.041539494548616135,-0.19145677449219367,-0.8222983056416103],[-0.014197084655886427,1.34981266105777,0.5854194452560605],[0.7191270790108375,-0.34405726920426744,0.7714890202911207],[-1.3485975822248757,-1.1953001071692086,0.8600416042451093]],"biases":[2.235435667139939,-0.9035298825370356,-0.8228841993295124]},{"inputNeurons":3,"outputNeurons":1,"weights":[[0.1982534754333302],[0.654787292197842],[-1.2752793673569578]],"biases":[1.982441524064112]}],"scores":{"1":2520,"2":2520,"3":2320,"4":2900,"5":2320,"6":2320,"7":2320,"8":2320,"9":2320,"10":2320,"11":2920,"12":2320,"13":2320,"14":2700,"15":2320,"16":2520,"17":3920,"18":2520,"19":2500,"20":2320,"21":2320,"22":2450,"23":2320,"24":2320,"25":2320}},{"layers":[{"inputNeurons":0,"outputNeurons":10,"weights":[],"biases":[0.816214599154475,-0.25201954201254184,0.4357307600078387,0.314445379490211,1.0051461358139078,0.6954600308128015,-0.8034572166942944,-0.9426775437255934,1.5282600770918555,1.3103531904424865]},{"inputNeurons":10,"outputNeurons":3,"weights":[[1.090117312183929,-0.7407948267754099,-1.6826986438238143],[-0.7499461045696814,-1.0919318345141096,-0.698028468063899],[1.306197955342955,-1.3739914552618444,-1.2011192726856708],[-1.0852357282614968,0.13597497784431276,-0.6639931295373175],[-1.8683598771769598,-0.052527221154060756,-0.00741155343050702],[1.9117093903170357,-1.0526542496874822,-2.2997044409918725],[0.5428504919084935,0.45714471568304993,-0.39102992102435064],[-0.7886592593911887,1.269156827295519,1.522667021396305],[0.08043588237093995,-0.05941639706009452,0.27225489008935044],[-1.4750401516591383,-1.4351155445640231,0.6083285743869928]],"biases":[1.7159951705207686,-1.2382867243522393,0.031148449976656875]},{"inputNeurons":3,"outputNeurons":1,"weights":[[0.5917447354515856],[0.8009608347044902],[-1.9639529833122609]],"biases":[1.5606041099156351]}],"scores":{"1":2320,"2":2320,"3":2320,"4":2500,"5":2320,"6":2320,"7":2320,"8":2720,"9":2320,"10":2320,"11":2240,"12":2320,"13":3920,"14":2320,"15":2320,"16":2620,"17":2320,"18":2320,"19":2320,"20":2410,"21":3590,"22":2320,"23":2320,"24":2320,"25":2520}},{"layers":[{"inputNeurons":0,"outputNeurons":10,"weights":[],"biases":[0.4117877130416385,-0.34569642888348573,0.03470792645623841,0.45955913429192913,0.9105955494994356,0.6392392281789376,-1.001235665099383,-1.3053979653956123,1.9106372861852996,1.1470992865805725]},{"inputNeurons":10,"outputNeurons":3,"weights":[[0.9406137204331866,-0.7924656154649417,-1.100332125833732],[-0.6649492360940942,-1.4635473316369505,-1.1208736536078845],[1.386389508282629,-0.8348522515343414,-1.586859971864631],[-0.7070560208112681,-0.5842586908910978,-0.48564449065793786],[-1.123750704146375,-0.05351683957287729,0.12792561103852074],[1.2147662858311228,-0.7253665703092183,-2.072082295054563],[0.4721489120213074,0.7750821746951293,-0.802953980014046],[-0.9975586998953759,1.1736727592033591,1.2366888822702389],[0.24799514865650374,-0.3084698828261846,0.4336612451651932],[-1.365889509872941,-1.5657850934451654,0.24154701455187128]],"biases":[1.299856636911045,-1.190820948731416,0.1623668776129754]},{"inputNeurons":3,"outputNeurons":1,"weights":[[0.47903208476102016],[1.3329119933735318],[-1.727578163146564]],"biases":[1.709630841756121]}],"scores":{"1":2690,"2":2320,"3":2320,"4":2320,"5":2800,"6":2320,"7":2320,"8":2520,"9":2220,"10":3720,"11":2320,"12":2320,"13":2720,"14":2320,"15":2370,"16":2320,"17":2320,"18":2840,"19":2320,"20":2320,"21":2320,"22":2520,"23":2320,"24":2320,"25":2520}},{"layers":[{"inputNeurons":0,"outputNeurons":10,"weights":[],"biases":[0.6521790795694395,-0.127449197893358,-0.10958234016006552,0.27580848703508926,1.011495297551518,0.47946060826803705,-0.904474076611998,-0.7397040240955879,1.4653447344740282,1.090571145863238]},{"inputNeurons":10,"outputNeurons":3,"weights":[[0.8441956204248354,-0.9077117912806318,-0.9194252775659479],[-0.028196820851024706,-1.1168398164245525,-0.9131273490606446],[1.2242375178455265,-1.201489232321148,-1.8553722917056192],[-1.0369514218739144,-0.3105506951508159,-0.9863830657949884],[-1.1604168935043861,-0.14151740483451883,-0.3489496712566619],[1.904635855967522,-1.0437095137963641,-1.705472975272265],[0.16102724017703565,0.2928904173423617,-0.16316108800229334],[-0.4632907854508359,0.9579541508273796,1.3721401119860788],[0.09343769129797945,0.1925687042713019,0.2582965771510463],[-0.9450957640717175,-1.349242774376204,0.32832521368396994]],"biases":[1.356084637137388,-1.1080594957826944,0.24466906368766084]},{"inputNeurons":3,"outputNeurons":1,"weights":[[0.3574916538236518],[0.9704562328760487],[-1.7764916724768267]],"biases":[2.003375698711203]}],"scores":{"1":2220,"2":2490,"3":2320,"4":2320,"5":2320,"6":2320,"7":2320,"8":2520,"9":2320,"10":2220,"11":2520,"12":2500,"13":2320,"14":2540,"15":3470,"16":2320,"17":2320,"18":2520,"19":2520,"20":2320,"21":2520,"22":2320,"23":2680,"24":2320,"25":3050}},{"layers":[{"inputNeurons":0,"outputNeurons":10,"weights":[],"biases":[0.5050172528166686,-0.42488825515362105,0.23471971439575895,0.5585778699539895,1.2147430543388535,0.7516963382594476,-1.0633568208380353,-1.0996725748511682,2.011996731043719,1.2419866241828441]},{"inputNeurons":10,"outputNeurons":3,"weights":[[0.8800750054312244,-0.4426389900030007,-1.5261162602434892],[-0.6387579597433541,-0.20689596570368063,-0.9379264815062406],[1.337194421911329,-1.0785631271941507,-1.657474661455759],[-0.4588834574416095,0.11983734415214205,-1.5386025993770256],[-1.1893391953062853,0.4828503995430014,0.15101625206302],[1.7016617201022144,-1.4945072617453077,-2.3586505169460747],[0.7927140958854096,0.504700269242758,-0.8815228199366281],[-0.6891516177371286,1.4228247708489277,0.7212908890195532],[0.7447988004889752,-0.5455478472993944,0.5594090436721183],[-1.1342735934707544,-1.5157232771022604,1.0444975866428252]],"biases":[2.040948121904018,-1.381707919453249,-0.3395312822164958]},{"inputNeurons":3,"outputNeurons":1,"weights":[[0.007032477480743843],[0.04671941298883753],[-1.3645752699262788]],"biases":[1.6037581515166082]}],"scores":{"1":2320,"2":2720,"3":2320,"4":2520,"5":2520,"6":2210,"7":2800,"8":2320,"9":2320,"10":2520,"11":2520,"12":2520,"13":2520,"14":2320,"15":2320,"16":3470,"17":2320,"18":2320,"19":1300,"20":2320,"21":2320,"22":3120,"23":2320,"24":2520,"25":2320}},{"layers":[{"inputNeurons":0,"outputNeurons":10,"weights":[],"biases":[0.9031743818948571,-0.19286142156253536,0.40001131227528797,0.39197457327946617,1.077457261329028,0.3748520037275356,-1.10221268376266,-1.0870799800931021,2.0407065621019886,1.3162243124965007]},{"inputNeurons":10,"outputNeurons":3,"weights":[[0.8672746641626599,-0.6325646891687886,-1.4069263412063873],[-0.9995076760871985,-0.5942784341560992,-0.6394671162279477],[0.7325280443712395,-1.0647330157344124,-1.4036238264795444],[-0.7572583510011068,0.4211186706008095,-0.8023545906215082],[-1.3994846880403164,0.6387889873867251,-0.18988628438954208],[1.5521051637141088,-1.3261781984296799,-2.4130221055078334],[-0.14908938544175487,0.3052555446227852,-0.8032709323466709],[-0.47239781275411175,0.667171496344843,0.4661647190733034],[0.8726000993910749,-0.2868392086920559,0.5261313317660505],[-1.1565376368492373,-1.3040503475956993,1.4958157531180318]],"biases":[2.3391196733316546,-1.0678936600034326,-0.6931229574416694]},{"inputNeurons":3,"outputNeurons":1,"weights":[[0.042563303831057386],[0.0018174060755245525],[-1.4976679312979835]],"biases":[1.7728461014848498]}],"scores":{"1":2320,"2":2320,"3":3120,"4":2320,"5":2320,"6":2320,"7":2520,"8":2320,"9":2320,"10":2320,"11":2320,"12":2600,"13":2520,"14":2210,"15":2720,"16":2320,"17":2520,"18":2520,"19":2320,"20":2320,"21":3040,"22":2320,"23":2320,"24":2320,"25":2210}},{"layers":[{"inputNeurons":0,"outputNeurons":10,"weights":[],"biases":[0.38423073446943035,-0.1970212438507919,0.5494060860468626,0.5453122303158131,0.8934887704276678,1.1060293626508306,-1.0338512589731836,-1.2742130645270906,2.0270632982342693,1.844941698184834]},{"inputNeurons":10,"outputNeurons":3,"weights":[[0.836326219101667,-0.39087191104114344,-1.2487009345813274],[-0.4994664828247269,-0.6762299451909709,-1.2954901891650654],[1.066182340199542,-0.9383313950316718,-1.2918738480623226],[-0.8204885352890685,0.45605284346067176,-1.5498741284693334],[-1.0116541359485054,0.6574410450619522,-0.09784294701785423],[1.260296369301295,-1.2079024991290395,-2.3704571494339595],[0.39341469648794547,0.4325091453206802,-0.6673250768064592],[-0.3595974995114777,1.04400565132535,0.9938396583085636],[0.7393282009431728,-0.2847613243278663,0.6223619290839042],[-1.0831748634236935,-1.6564480911363761,1.2909377646193743]],"biases":[2.355225627635124,-1.192533842838786,-0.21690302487685129]},{"inputNeurons":3,"outputNeurons":1,"weights":[[0.28343169365598136],[0.42470496984844075],[-1.6002021683317262]],"biases":[1.9464493391741966]}],"scores":{"1":2720,"2":2320,"3":2520,"4":2320,"5":2500,"6":2500,"7":2320,"8":2320,"9":2200,"10":2520,"11":2320,"12":2320,"13":2500,"14":2320,"15":2320,"16":2560,"17":2320,"18":2520,"19":2520,"20":2320,"21":2320,"22":2320,"23":2640,"24":2320,"25":2320}},{"layers":[{"inputNeurons":0,"outputNeurons":10,"weights":[],"biases":[0.9256491974537495,-0.38293489765653876,0.09952124451409039,0.19629122962490697,1.077625703929464,0.8983351027538556,-1.232181344772863,-1.2785909329370388,2.144053635695324,1.7430955864179833]},{"inputNeurons":10,"outputNeurons":3,"weights":[[0.5730068303895574,-0.42049156445565583,-1.3341354288950913],[-0.5595041292074985,-0.703547371458643,-0.6419763154846113],[0.8555257923006441,-1.4474727792055186,-1.1586801695415119],[-0.9794458577506259,-0.011493243230296948,-1.1833946372965582],[-1.202271888991366,0.5192194800337999,0.2252845860212544],[1.378549611211302,-0.9911730280413514,-2.576217101382769],[0.11163607240690235,0.6006838917418031,-1.3976224343885892],[-0.8345797114110984,0.8770013253951316,0.8832951159655846],[0.8565915383552823,-0.4753235778342993,0.44403361816198406],[-0.9184445348948354,-1.4040592624431605,1.2464707398772894]],"biases":[2.105031389639075,-1.2524832884616277,-0.4151320978568312]},{"inputNeurons":3,"outputNeurons":1,"weights":[[0.16549260853357003],[0.49265428257319943],[-1.6708465011479376]],"biases":[1.729253635215524]}],"scores":{"1":2320,"2":2320,"3":2320,"4":2320,"5":2320,"6":2210,"7":2320,"8":2320,"9":2320,"10":2320,"11":2320,"12":2340,"13":2320,"14":2320,"15":2320,"16":2320,"17":2500,"18":2320,"19":2320,"20":2720,"21":2320,"22":2320,"23":2320,"24":2320,"25":3860}},{"layers":[{"inputNeurons":0,"outputNeurons":10,"weights":[],"biases":[0.5400240292679918,-0.18694235834154138,0.3934168198721603,0.16611926483007777,0.8811671698999218,0.7349862306752811,-1.1652024241648553,-1.278425839398814,1.7846278537312397,1.5476300524644744]},{"inputNeurons":10,"outputNeurons":3,"weights":[[0.6188623059855278,-0.9907803104803712,-1.146852326372759],[-0.5897150829542748,-1.0032076132303003,-0.9100239733503875],[1.251493996843616,-0.6418044380647361,-1.2494156453456506],[-0.8360713912277692,-0.26146100434520003,-0.7181235696183299],[-1.8653261469954752,0.16183199969007053,-0.017564624273528603],[1.625491673320135,-1.0265763123451446,-2.0457607693062037],[0.22827893383263262,0.4104515046797559,-0.7582502538005779],[-0.758099175129701,0.9239027174577135,0.8915147960912395],[0.0357607479815617,-0.2968121567670001,0.5004854860783537],[-0.894625276405508,-1.8014479587930972,0.6134115187237548]],"biases":[1.4911323197948998,-1.1136201477556096,0.022474258651877188]},{"inputNeurons":3,"outputNeurons":1,"weights":[[0.7149060920752647],[1.3015333184219566],[-1.6736687400861563]],"biases":[1.6076218304846646]}],"scores":{"1":2320,"2":2320,"3":2320,"4":2320,"5":2320,"6":2210,"7":2320,"8":2320,"9":2520,"10":2320,"11":2200,"12":2320,"13":2520,"14":2720,"15":2320,"16":2800,"17":2320,"18":2410,"19":2520,"20":2320,"21":2320,"22":2320,"23":2320,"24":2520,"25":2760}},{"layers":[{"inputNeurons":0,"outputNeurons":10,"weights":[],"biases":[1.3586883948899202,-0.7226428126881246,0.49559830785110126,0.12685505904445415,0.9700317127311292,0.003428235078112237,-1.3338876884569943,-1.4393565811794613,2.3880882912372687,1.416245170547384]},{"inputNeurons":10,"outputNeurons":3,"weights":[[-0.10002547940749267,-0.3793548629397446,-1.552490932251468],[-0.08090642057061903,-0.21214073470344474,-0.5787970518634453],[1.074533225153219,-0.764506931670334,-2.2344048945875308],[-0.7069363368428074,0.4735764277092391,-0.8970997373623559],[-0.8034906637022995,0.6096474731632793,-0.5243160264980737],[1.9481056311014218,-1.3632726566877031,-2.067301084454239],[-0.30679265037843656,0.091469887273536,-0.8128661295627851],[0.023343431058144883,0.9886438347565917,0.4454399585177984],[1.0194380721739593,-0.2177685893588543,0.16073782979402323],[-1.1797150815339201,-0.6456481915108528,1.029835278656504]],"biases":[2.6908203995581195,-0.7191815390301525,-0.8659515721315293]},{"inputNeurons":3,"outputNeurons":1,"weights":[[0.05647975550772613],[0.5291393639861606],[-1.1136692073850707]],"biases":[2.360944172328339]}],"scores":{"1":2320,"2":2320,"3":2320,"4":2320,"5":2830,"6":2320,"7":2520,"8":2320,"9":2320,"10":2320,"11":2320,"12":2320,"13":2320,"14":2320,"15":2400,"16":2320,"17":2320,"18":2320,"19":2190,"20":2420,"21":3020,"22":2320,"23":2320,"24":2520,"25":2500}},{"layers":[{"inputNeurons":0,"outputNeurons":10,"weights":[],"biases":[0.7986341643128958,-1.3780148786420006,0.9208982043764983,0.09321506705382168,0.8784208339216734,0.09129966425964138,-1.5693888983396136,-1.0921692183725,2.147770497815929,1.447756380705562]},{"inputNeurons":10,"outputNeurons":3,"weights":[[0.19611725870315316,-0.6762483493452675,-1.8676391704011914],[-0.6068923918851361,-0.34221822168325366,-0.9058798782286662],[0.5542127049715924,-0.7873473892619702,-1.750498396739516],[-0.8816984433559798,0.8382090601432374,-0.8170329013121042],[-0.7687657233812835,0.7438258438055599,-0.3827034780732616],[1.7123453639655515,-1.3869836583027777,-2.1613385010368606],[0.3942465819329024,-0.20960021908672416,-0.9001062800909385],[-0.016917993061998815,0.8867417397831373,0.5284796359949635],[0.8636374645959841,-0.3665511311135037,0.34417365888741663],[-1.016871608169973,-1.1133898292486863,1.007527593874705]],"biases":[2.9619642449478762,-0.6364951884074818,-0.9965568218740279]},{"inputNeurons":3,"outputNeurons":1,"weights":[[0.2645076274267649],[0.5710968037208564],[-1.317612803600703]],"biases":[1.966393576887841]}],"scores":{"1":2260,"2":2320,"3":2790,"4":2900,"5":2320,"6":1300,"7":2320,"8":2500,"9":2320,"10":2320,"11":2320,"12":3060,"13":2320,"14":2220,"15":2520,"16":2290,"17":2320,"18":2320,"19":2890,"20":2320,"21":2320,"22":2320,"23":2320,"24":2500,"25":2320}},{"layers":[{"inputNeurons":0,"outputNeurons":10,"weights":[],"biases":[0.8026078497085807,0.008609220680655921,-0.19064619177810577,0.419821467175542,1.020146087386826,0.34487071625857374,-0.8532767005959526,-1.308990235203337,1.6611766078711656,1.0901050584543073]},{"inputNeurons":10,"outputNeurons":3,"weights":[[1.007238246730462,-0.7339965677989826,-0.9311649416502344],[-0.9056262882341736,-1.212049702928116,-0.6869729458176674],[1.0296621079547514,-1.2919137160194551,-1.0644482707881324],[-1.1420575483335522,-0.033255074701894705,-0.4603401122979119],[-1.183959513119685,0.21520690829782,-0.13860067775208443],[1.2864415878333462,-1.0035893262707647,-2.019455689615775],[0.43504443765526385,0.7168726861271227,-0.5095122738818172],[-0.6977853043824267,1.2378512114458982,1.258304693521547],[-0.026834687321180578,-0.3063740951749957,0.2674801254931401],[-1.111818337566235,-1.5903631955759387,0.6444660994750436]],"biases":[1.581317182190891,-0.9200827724770134,0.4093618419969127]},{"inputNeurons":3,"outputNeurons":1,"weights":[[0.5867098998518442],[1.3226112690448617],[-1.7607655359648775]],"biases":[1.7435094304385532]}],"scores":{"1":2320,"2":2320,"3":2320,"4":2320,"5":2320,"6":2920,"7":2320,"8":2520,"9":2320,"10":2320,"11":2320,"12":2320,"13":2320,"14":2520,"15":2320,"16":2320,"17":2320,"18":2520,"19":2320,"20":2320,"21":2920,"22":2320,"23":2320,"24":2210,"25":2320}},{"layers":[{"inputNeurons":0,"outputNeurons":10,"weights":[],"biases":[0.42055521321651096,-0.31048724985739673,0.30885967081578924,0.12196574325165926,0.48511522980139143,0.42135745537630587,-1.000348356830221,-1.1949024102566304,1.7994714059461958,1.4045621688457897]},{"inputNeurons":10,"outputNeurons":3,"weights":[[0.594382441133418,-0.39082945672037117,-1.7857090222723964],[-0.7300474485028644,-0.32548532144550396,-0.9407368618151364],[1.3603205853970617,-1.1774165103898437,-1.6513514414333814],[-0.47094057779276954,0.22634076516833146,-1.546994814585694],[-1.055104055667956,1.102046802627656,-0.08021166049262131],[1.2329057211098653,-1.4364041422739238,-2.118850474675045],[0.8747725813241053,0.2139537232635993,-0.7899104177801456],[-0.7679427447793823,1.2711496596311678,0.9239005253451509],[0.780096847358435,-0.20655607833072387,0.6137908538006395],[-1.2501665336978456,-1.3648823639523495,1.2492376600935566]],"biases":[1.6663902230097798,-0.9548345287086055,-0.5415054588300591]},{"inputNeurons":3,"outputNeurons":1,"weights":[[0.10445141567852873],[0.20378359473378002],[-1.5104054987009239]],"biases":[1.9325128222368755]}],"scores":{"1":2320,"2":2320,"3":2320,"4":2320,"5":2320,"6":2320,"7":2520,"8":2320,"9":2320,"10":2320,"11":2320,"12":2630,"13":2320,"14":2330,"15":2320,"16":2850,"17":2320,"18":2320,"19":2320,"20":2320,"21":2320,"22":2520,"23":2320,"24":2320,"25":2720}},{"layers":[{"inputNeurons":0,"outputNeurons":10,"weights":[],"biases":[0.8846765514900707,-1.2410766962351125,0.5034221288854914,0.13614732275112482,0.7874606752825839,0.06254455502713928,-1.5693536838115525,-1.3140533070585863,2.3107624572692425,1.5287579770527449]},{"inputNeurons":10,"outputNeurons":3,"weights":[[-0.08572959207340879,-0.7633695173120073,-1.4670826898444944],[-0.6657330827432247,-0.21266052554496595,-0.7393602842583389],[0.6077010427038995,-0.7072113646827288,-1.984166643361624],[-1.1851044115581626,0.5456846620281095,-0.9625910391226707],[-0.5519023408686908,0.12723186398738834,-0.2822614262217951],[1.7010291175906607,-0.6710874435438525,-2.4694324234783087],[-0.3717781299021202,-0.4133916522161813,-0.9201658294952021],[0.17856953669376685,1.2017310884075751,0.8626164077109548],[1.0092901998615131,-0.3059302642983719,0.36549547581173186],[-1.0100047858626786,-1.1836763608928793,1.0940811740672254]],"biases":[2.5879691767906827,-1.163909265833111,-0.7264046569905426]},{"inputNeurons":3,"outputNeurons":1,"weights":[[-0.1907897722752462],[0.6101803173139388],[-1.1335823217220928]],"biases":[2.1576554610681207]}],"scores":{"1":2320,"2":2320,"3":2320,"4":2320,"5":2320,"6":2320,"7":2610,"8":2320,"9":2320,"10":2320,"11":2320,"12":2190,"13":2320,"14":2320,"15":2320,"16":2320,"17":2320,"18":2320,"19":2320,"20":2520,"21":2200,"22":3720,"23":2320,"24":2200,"25":2320}},{"layers":[{"inputNeurons":0,"outputNeurons":10,"weights":[],"biases":[1.1064220854347204,-1.0863858386488663,0.3935857168789319,-0.22608488214384906,1.2434330418894777,-0.05321318180071232,-1.299076524674952,-1.5512899717387318,2.62781774641883,1.5251174538117975]},{"inputNeurons":10,"outputNeurons":3,"weights":[[0.08431535073038385,-0.43759947286857726,-1.5103770685136255],[-0.6896828762273218,-0.21093953226776108,-0.8012587182298968],[0.5156721095668195,-0.48990409137721375,-2.041187405255495],[-0.7699152639503329,0.15516903600529014,-0.8787789274848662],[-0.4969282048747653,0.614715392978055,-0.0777327013386131],[1.8631579374294547,-1.0230244485405597,-2.075202833587071],[-0.30398453969067823,-0.29969278630396234,-1.0012414059114803],[0.1083746769258283,0.8332084189004433,0.5873748883471327],[1.1487213441884887,-0.032936994009335196,0.6063967586308511],[-0.951638478994334,-1.296648497617818,1.328032419045689]],"biases":[2.5588018499798917,-0.5422980419307097,-0.4091641971625296]},{"inputNeurons":3,"outputNeurons":1,"weights":[[0.17762468397135772],[0.46489340195268847],[-1.2143300757266438]],"biases":[1.840472464040407]}],"scores":{"1":2320,"2":2320,"3":3390,"4":2320,"5":2320,"6":2320,"7":1300,"8":2520,"9":2320,"10":2320,"11":2320,"12":2320,"13":3120,"14":2320,"15":2320,"16":2520,"17":2520,"18":2320,"19":2320,"20":2320,"21":2320,"22":2320,"23":2320,"24":2320,"25":2320}},{"layers":[{"inputNeurons":0,"outputNeurons":10,"weights":[],"biases":[0.44790999256918135,-0.10493660881554058,-0.2671490092337278,0.37846682959455635,0.9348459062860349,0.7130105060189803,-1.0608718561385029,-1.2879348328163502,1.79177263321677,1.5360223329231932]},{"inputNeurons":10,"outputNeurons":3,"weights":[[0.7728256639273808,-0.5506205336780354,-1.0603610834764552],[-0.6702231517878106,-1.3303985625029386,-0.9254612353023568],[1.4706229602810836,-0.9165237660711385,-1.2672997340741177],[-1.0415522957076226,-0.11125385487184114,-1.0418758545055193],[-1.5226966606605097,-0.4225742111754365,-0.3392860057527651],[1.9033366655690411,-0.7307388458327292,-1.8448856687180548],[0.498109097820982,0.3424123492284765,-0.5821207906124619],[-0.6227515544507441,1.0916611744653408,1.30868250414951],[0.19694801022855168,-0.3865784938305451,0.49267532551944015],[-1.212422722281221,-1.8687383982526857,0.6447905625743723]],"biases":[1.7393995392346868,-1.0573314543557497,0.15081616192585315]},{"inputNeurons":3,"outputNeurons":1,"weights":[[0.9463351882395317],[1.4401899860533605],[-1.5369262435349893]],"biases":[1.5732351186627216]}],"scores":{"1":2320,"2":2210,"3":1300,"4":3390,"5":2320,"6":2800,"7":2320,"8":2320,"9":2320,"10":2320,"11":2320,"12":2320,"13":2320,"14":2320,"15":2320,"16":2320,"17":2520,"18":2320,"19":2320,"20":2320,"21":2320,"22":2920,"23":2520,"24":2320,"25":2320}},{"layers":[{"inputNeurons":0,"outputNeurons":10,"weights":[],"biases":[1.2672424451316098,-0.5561152520130407,0.47447377039557986,0.486417798155108,0.8843559921120255,0.2880409992689487,-1.4499780595319203,-0.9329695095888917,1.8150204479546832,1.6596486455836827]},{"inputNeurons":10,"outputNeurons":3,"weights":[[0.4699324396333495,-0.20515554072693354,-1.1777219741701814],[-0.8269144352739044,-0.2042404542688666,-0.768076829514902],[0.9626183091543945,-1.1577551851545838,-1.5349870847102662],[-1.0818505375125682,0.23773193022238082,-0.7406747025467921],[-1.3311674344800317,0.7983690351209636,-0.2108277213288654],[1.3801735722605524,-1.1557920914513402,-2.268930119591551],[-0.1221163960582412,0.18033894624458413,-0.7732308556629388],[-0.20206150946241064,1.207692575372782,0.7349869377911542],[0.9155877183025811,-0.7759223162418565,0.7869756316539303],[-0.8743268118702353,-1.2813861750877453,1.2551901078512233]],"biases":[2.3748887752343117,-1.0286744732862079,-0.3423539955260028]},{"inputNeurons":3,"outputNeurons":1,"weights":[[0.021528709778226185],[0.5123140703190424],[-1.3967806239410876]],"biases":[1.8878360783005024]}],"scores":{"1":2320,"2":3120,"3":2320,"4":2520,"5":2320,"6":2210,"7":2320,"8":2320,"9":3720,"10":2320,"11":2320,"12":1370,"13":2320,"14":2700,"15":2320,"16":2320,"17":1300,"18":2320,"19":2190,"20":2320,"21":2720,"22":2320,"23":2320,"24":2550,"25":2520}},{"layers":[{"inputNeurons":0,"outputNeurons":10,"weights":[],"biases":[0.9516473085060619,-0.5031004973025546,0.23904236317080346,0.5033543771365174,1.2224502198015563,0.45094566519882184,-0.8000754796273031,-1.591625878159254,2.422111349690689,1.6523594855623174]},{"inputNeurons":10,"outputNeurons":3,"weights":[[-0.14339925711184948,-0.11226206767604131,-1.2132023977906352],[-1.5643649510611843,-0.6459326333602582,-0.750241795753058],[1.1191812822896987,-1.0058107867748505,-2.0197443800603514],[-0.8071480495235568,0.5655490357123878,-1.021691709295017],[-1.162330875378196,0.5209142069601046,-0.08699048079518797],[1.3547603694325727,-1.4180038112263331,-2.5209592908907754],[1.0629132491199211,0.3234028330323696,-0.2777597236484449],[-0.7194787238816114,1.2652616469983018,1.215724627337281],[0.2602869059980131,-0.8835833520143747,0.7700459096902079],[-0.8301471901465812,-1.554665653879572,1.0740044956376287]],"biases":[1.428738246263486,-1.1068303438212654,0.12435163594192766]},{"inputNeurons":3,"outputNeurons":1,"weights":[[0.8060300295845086],[0.9710767043343496],[-1.1590452790730315]],"biases":[1.4855182629000245]}],"scores":{"1":5000,"2":2800,"3":1320,"4":4980,"5":1390,"6":1270,"7":1260,"8":1320,"9":4980,"10":3400,"11":1300,"12":1280,"13":1310,"14":2230,"15":1280,"16":2340,"17":4980,"18":2400,"19":1270,"20":3200,"21":3180,"22":1280,"23":2600,"24":1300,"25":1710}},{"layers":[{"inputNeurons":0,"outputNeurons":10,"weights":[],"biases":[0.6859375776925156,-0.45067308652069094,0.39100749353605624,0.129749025989127,0.7357785097914253,0.6251904021587332,-1.0010523431734666,-0.7965277135962113,2.1904421535279077,1.1731221873708544]},{"inputNeurons":10,"outputNeurons":3,"weights":[[0.354085913011446,-0.36207241192788836,-1.4397162181477732],[-0.6941358165713492,-0.4403384090339739,-0.9488289397124215],[0.9948909110853061,-1.0478206717970173,-1.3537482904347415],[-0.9574959348807225,0.40994463156183003,-0.8982097298655853],[-1.5173066684214491,0.4424040050263409,0.34489769332071873],[1.35542625783267,-1.0422029692183619,-2.499804564683904],[0.48463709126684423,0.27727096245730787,-1.4703240511814657],[-0.8498355339249795,0.903107361900913,0.8692756706333928],[0.6196065943813893,-0.14731013831539702,0.319339297617231],[-1.1686771154486308,-1.369034369123375,1.1659033841453394]],"biases":[1.9880479224682888,-1.3017817895440051,-0.101820275944707]},{"inputNeurons":3,"outputNeurons":1,"weights":[[-0.028463496824047696],[0.39191462605229244],[-1.6589184750592587]],"biases":[1.5065004785349885]}],"scores":{"1":2320,"2":2320,"3":2520,"4":2520,"5":2320,"6":2320,"7":2320,"8":2320,"9":2320,"10":2320,"11":2520,"12":2520,"13":2320,"14":2320,"15":2320,"16":2320,"17":2320,"18":2320,"19":2320,"20":2490,"21":2320,"22":2320,"23":2520,"24":2320,"25":2520}},{"layers":[{"inputNeurons":0,"outputNeurons":10,"weights":[],"biases":[1.0591150167562131,-0.4176985941785112,0.2636083548440258,0.5134430936508325,0.7586555388719045,0.7770657797512622,-0.7270198747035534,-1.2518338248183953,2.238588608647028,1.6273128752225734]},{"inputNeurons":10,"outputNeurons":3,"weights":[[0.7569068190539587,-0.14933885335531497,-1.451337650621883],[-0.6407357720836147,-0.7394587358159256,-0.9433877393532883],[0.9989832354914654,-0.960947643159487,-1.703141158822196],[-0.48815001895395266,0.11885632282752624,-0.9554833608225766],[-1.1175376131611603,0.6306588591445379,-0.10790022952615827],[1.491527134021062,-1.0271681560957466,-2.6870980781494787],[0.426205637213481,0.46891352434743605,-0.7338938155628729],[-0.3909684063746638,1.353264706992908,0.887997562140322],[0.7420674414681274,-0.6490129020349016,0.2432026966020523],[-0.9348312260388014,-1.1253459292670294,1.1274105833672416]],"biases":[1.6789750916415356,-1.1795316010499133,-0.4566873590774044]},{"inputNeurons":3,"outputNeurons":1,"weights":[[0.2784367388245747],[0.6527797302434677],[-1.7844578572565606]],"biases":[1.9022653028577818]}],"scores":{"1":2320,"2":2320,"3":2320,"4":2320,"5":2700,"6":2920,"7":2520,"8":2320,"9":2670,"10":2320,"11":2320,"12":2320,"13":2320,"14":2920,"15":2320,"16":2130,"17":2520,"18":2320,"19":1310,"20":2520,"21":2320,"22":2320,"23":2320,"24":2320,"25":2320}},{"layers":[{"inputNeurons":0,"outputNeurons":10,"weights":[],"biases":[0.6037469545206341,-0.05573649969892708,0.030721592975021583,-0.001139912462574666,0.8536686052802616,0.47769788201600194,-1.1616725069886962,-1.2079572137555108,1.764510352501732,1.202703892891097]},{"inputNeurons":10,"outputNeurons":3,"weights":[[0.8540973642581592,-0.7821315069227864,-1.3882900049013178],[-0.7484386533385611,-0.9691419937387599,-0.3756219133906041],[1.1797769186180331,-1.3880327517627271,-1.5755451938767984],[-0.9729303960607816,-0.16764590139974725,-0.553166069047458],[-1.2995210694494737,-0.3114575297194121,-0.17967889663963998],[1.9731286034965496,-1.104415909236438,-1.9152869994108932],[0.16442735573867717,0.2083738147014934,-0.8441021392508764],[-0.8595862736944249,1.2159096228841277,1.1571976746125028],[0.04253138620398253,-0.06680437064087821,0.1713900467588246],[-1.4865311643225196,-1.4420373810654654,0.6048775181621515]],"biases":[1.4009515786978053,-1.1747930287305748,0.21942086597986932]},{"inputNeurons":3,"outputNeurons":1,"weights":[[0.8069670874622996],[1.267412079474874],[-1.7221576240684535]],"biases":[1.3418422601714894]}],"scores":{"1":2320,"2":2320,"3":1300,"4":2320,"5":2320,"6":2520,"7":2500,"8":2720,"9":2520,"10":2520,"11":2320,"12":2720,"13":2590,"14":2320,"15":2320,"16":2320,"17":2320,"18":2320,"19":2320,"20":2320,"21":2520,"22":2520,"23":2210,"24":2610,"25":2210}},{"layers":[{"inputNeurons":0,"outputNeurons":10,"weights":[],"biases":[0.5225435995939354,0.01572844974187254,0.151224821122754,0.3628433561266463,0.8254919063591929,0.3836791997967486,-1.0597237706899483,-0.9566647640700601,1.4983575837628385,1.5181178453965778]},{"inputNeurons":10,"outputNeurons":3,"weights":[[0.4380876303052599,-0.7136336560058497,-1.3312732493368424],[-0.7525895345372533,-1.3074558133158796,-0.7818959150640654],[1.2495395461100918,-1.3884038381326014,-1.3890094505892214],[-1.269782155758421,0.19153801418997854,-0.4818970439658693],[-1.4969505352239298,0.06529296970731988,-0.24072074736531227],[1.8678268501277568,-0.9789783016821613,-2.243963110257101],[0.2746564936021229,0.4924091974068438,-0.5724810781902293],[-0.8190647628485804,1.6762402440483681,2.0528654052449764],[-0.08368518575532621,-0.31684875956328884,0.3261779061423581],[-1.353094152222876,-1.6421106556136968,0.4967368541493913]],"biases":[1.4906135479160803,-1.0965006161910384,0.15536974756111438]},{"inputNeurons":3,"outputNeurons":1,"weights":[[0.5079808172048969],[1.5017440422300052],[-1.6038604119847708]],"biases":[1.3191511243048575]}],"scores":{"1":2820,"2":2210,"3":1300,"4":2320,"5":2320,"6":3460,"7":2320,"8":2670,"9":2320,"10":2320,"11":2320,"12":2320,"13":2360,"14":2500,"15":2220,"16":2320,"17":2500,"18":2320,"19":2320,"20":2320,"21":2320,"22":2320,"23":2320,"24":2320,"25":2320}},{"layers":[{"inputNeurons":0,"outputNeurons":10,"weights":[],"biases":[0.9891878106735883,-0.8949829554040976,0.28468722648759304,0.11423755056434262,0.8999371435129391,0.027883270608608547,-1.5300952268676347,-1.6062505396182782,2.177765082615898,1.3316557147683594]},{"inputNeurons":10,"outputNeurons":3,"weights":[[0.07540643335572346,-0.8980139418802797,-1.5528085581472864],[-0.93712974928049,-0.20693556719001047,-0.6636683569452461],[0.6775300546502536,-0.6665336499571024,-1.6674349739558367],[-0.8251089230377412,0.6733316346749397,-0.8944768439218616],[-0.8490096242847746,0.11172066484975213,-0.3122287914375813],[1.6777060224301554,-1.3026017036380453,-1.920902050525526],[-0.3347496718975812,0.38499881039019024,-1.1446506512679004],[0.2723235071353548,0.9400954177695011,0.5756485409796298],[0.9664071768051739,-0.12097650204006771,0.4396564846372531],[-0.6232403181751347,-1.1261054004823587,1.267377414347596]],"biases":[2.572702740122999,-0.4277318395552769,-0.5866001463759765]},{"inputNeurons":3,"outputNeurons":1,"weights":[[0.14618254468261993],[0.6033509051735014],[-1.3409489197798126]],"biases":[1.8977520219890451]}],"scores":{"1":2320,"2":2210,"3":2520,"4":2520,"5":2320,"6":2320,"7":2520,"8":2320,"9":2320,"10":2320,"11":2320,"12":2320,"13":2320,"14":2320,"15":2320,"16":2320,"17":2520,"18":2320,"19":2650,"20":2520,"21":2320,"22":2320,"23":2320,"24":2220,"25":2320}},{"layers":[{"inputNeurons":0,"outputNeurons":10,"weights":[],"biases":[0.7950298414678472,-0.541660264378867,0.502555877378491,0.14731402301839544,0.7121692774577177,0.3384371913395794,-1.1054506957341466,-1.1164916087727108,1.552884735250542,1.5619665967501362]},{"inputNeurons":10,"outputNeurons":3,"weights":[[0.6254313945987848,-0.0791263748082317,-1.4420536177852925],[-0.7562221207819924,-0.3224757734211445,-0.9642759677650138],[0.6961687400093056,-1.154566213405121,-1.5259615427459283],[-0.8378075034957602,-0.05173819316155248,-1.0405354670739182],[-1.4326597668902366,0.9460524798103269,-0.012312627499881476],[1.0838052823516686,-1.0608424118278643,-2.5820738414447777],[0.20482180484242613,0.10534573390516605,-0.911777456676886],[-0.6256746624874424,1.4434147683421696,0.77494703643801],[0.7087459765253761,-0.4755263262615681,0.33794876852505157],[-0.9791093490217323,-1.2810493807190957,1.015644598540948]],"biases":[2.149060134967788,-1.414832283958066,-0.30604640491730106]},{"inputNeurons":3,"outputNeurons":1,"weights":[[0.1016548510775297],[0.5859057549157898],[-1.7000838729725176]],"biases":[1.9291061039722923]}],"scores":{"1":2320,"2":2320,"3":2320,"4":1300,"5":2320,"6":3010,"7":2320,"8":2320,"9":2320,"10":2520,"11":2520,"12":2320,"13":2320,"14":2320,"15":2320,"16":2320,"17":2720,"18":2320,"19":1300,"20":3720,"21":2520,"22":2320,"23":2320,"24":2320,"25":2320}},{"layers":[{"inputNeurons":0,"outputNeurons":10,"weights":[],"biases":[0.7531212555104032,-0.32443742910489565,0.3478509213308746,0.16293019586418905,1.1976282443416337,0.4956801000692761,-1.1758908627465268,-1.5911170932549747,2.3028231748072785,1.5807797554348642]},{"inputNeurons":10,"outputNeurons":3,"weights":[[0.4234229033029542,-0.03221755624966427,-1.149190812788294],[-0.5135395805936755,-0.3422677073803694,-0.8068540747227069],[0.5680635875146798,-0.7577952100358544,-1.1073357858095856],[-1.02912124315251,0.4124575962407541,-0.9810648375699791],[-1.03700410360371,0.8614906557466953,-0.4346537952096058],[1.1292643725615603,-0.8777326910650571,-2.419029774237765],[-0.2597167365549615,0.15660576668739526,-1.1884652847772026],[-0.5547645997710077,0.9894321904191049,0.7551303821937825],[1.1200204390980155,-0.39104988341690783,0.9331825102525376],[-0.8344359471282158,-1.3306796913288208,1.148296260336098]],"biases":[1.9057622230133284,-0.7773159641312648,-0.1408561274071265]},{"inputNeurons":3,"outputNeurons":1,"weights":[[0.24708918079095266],[0.4251804409581307],[-1.4218655836182845]],"biases":[1.5792656074348397]}],"scores":{"1":2320,"2":2320,"3":2320,"4":2320,"5":2320,"6":2320,"7":2320,"8":2320,"9":2520,"10":1310,"11":2320,"12":2320,"13":3120,"14":2320,"15":2320,"16":2320,"17":2320,"18":2900,"19":2320,"20":2320,"21":2320,"22":2520,"23":2320,"24":2320,"25":2320}},{"layers":[{"inputNeurons":0,"outputNeurons":10,"weights":[],"biases":[0.27072435406234274,-0.6822821588577196,0.25380163650830434,0.6917737928102368,0.6926688933729279,0.6553594923279347,-1.1651447922243494,-0.8472975076316832,2.016493292268356,1.4785993802289634]},{"inputNeurons":10,"outputNeurons":3,"weights":[[0.8546940112414287,-0.03725226495296302,-1.332736934214252],[-1.0053708202078877,-0.6785528713727165,-0.8244184944557041],[0.8690131392142062,-1.3403127298764461,-1.6145486761258265],[-0.484576494120159,0.08258647316573237,-0.8429471001275022],[-1.1455915417580407,0.7331676981410302,0.2525133205112],[1.2900635157288958,-1.2281168091926247,-2.43116030549352],[0.5727492970490284,0.2165076145752883,-0.8652627158385396],[-0.8426264120105669,1.3718759349639988,0.4643757118839738],[0.5626401021904799,-0.2610498454496516,0.388264822304706],[-1.2605678736314248,-1.3789371905478756,0.9468424490862946]],"biases":[1.6767159803454093,-1.1358547404301045,-0.30438038572881904]},{"inputNeurons":3,"outputNeurons":1,"weights":[[-0.14291410791281106],[0.573905138043254],[-1.7402513773395782]],"biases":[2.032158780922]}],"scores":{"1":2350,"2":2500,"3":2320,"4":2320,"5":2190,"6":2320,"7":2320,"8":2320,"9":2320,"10":2520,"11":2320,"12":2320,"13":2320,"14":2320,"15":2320,"16":2320,"17":2320,"18":2210,"19":2320,"20":2500,"21":2320,"22":2320,"23":2520,"24":2520,"25":2320}},{"layers":[{"inputNeurons":0,"outputNeurons":10,"weights":[],"biases":[1.2197929081480368,0.16959854231791405,0.6764629987913663,0.222942892955998,0.6349557086388158,0.9065669786310976,-0.7627540445659087,-1.356615920015798,2.3602818066275106,1.5765577169141998]},{"inputNeurons":10,"outputNeurons":3,"weights":[[0.8737076334516992,-0.4420880560693741,-1.3259651154615504],[-0.5281131308276124,-0.4057283992142971,-0.863244855776683],[1.1036649802758118,-1.3151599675005525,-1.9597909774140292],[-0.6002289486339855,-0.13671927638508816,-1.1841949784866266],[-1.0780548641451682,1.1256720360599324,0.03585981891195576],[1.7515429035145116,-1.5441285449441107,-2.211362568869889],[0.40362885190068426,0.1692313021800711,-0.31172419384501204],[-0.5642865453120061,1.2303793773095613,1.080544737766814],[0.7440402293690016,-0.6089717646271076,0.3626578146740007],[-0.9409326751869401,-1.2978608498476376,1.4389311656300456]],"biases":[2.008741976356283,-1.082191911228497,-0.7061536942344484]},{"inputNeurons":3,"outputNeurons":1,"weights":[[-0.06398887311071144],[0.3477035929230379],[-1.2756853691323695]],"biases":[2.0291710697765692]}],"scores":{"1":2320,"2":2320,"3":2320,"4":2320,"5":2320,"6":2320,"7":2320,"8":2320,"9":2200,"10":2320,"11":2320,"12":2320,"13":2320,"14":2320,"15":2320,"16":2320,"17":2320,"18":2320,"19":2320,"20":3050,"21":2320,"22":2320,"23":2320,"24":2450,"25":2320}},{"layers":[{"inputNeurons":0,"outputNeurons":10,"weights":[],"biases":[0.7164192047276167,-0.8950656796727179,0.18841733253390214,0.31306528905228664,0.6931560568256017,0.8451140839029329,-1.0089091996991015,-1.2214923204111503,1.7291830057630468,1.208042238859622]},{"inputNeurons":10,"outputNeurons":3,"weights":[[0.7442315196304983,-0.9832137785465149,-1.747128801899294],[-0.4950097889219609,-1.3447703783875602,-1.1521932048757193],[1.0566234535633148,-0.825176854784491,-1.5707704467920631],[-1.1982060426427081,-0.6178904975964276,-0.6933236519892512],[-1.452637032799634,-0.17404954789286126,-0.06793043594051228],[1.5570933151170765,-1.101894389540387,-2.0339179347189877],[0.3732041577148964,0.45320189011005574,-0.6265698793543593],[-0.8729436935124933,1.1235713317566765,1.3458945718654491],[0.09284854294014915,-0.1796734362006388,0.697788045112931],[-1.5284738517492504,-1.1242507234128385,0.45207293448397323]],"biases":[1.8661225918998912,-1.151331865378513,0.2683970114143356]},{"inputNeurons":3,"outputNeurons":1,"weights":[[0.4685113887597268],[0.9455422651897659],[-1.6409548513342613]],"biases":[1.259365228990995]}],"scores":{"1":2320,"2":2320,"3":2320,"4":2320,"5":2320,"6":2320,"7":2190,"8":2320,"9":2320,"10":2320,"11":2320,"12":2320,"13":2520,"14":2320,"15":2320,"16":2520,"17":2320,"18":3650,"19":2320,"20":2320,"21":2320,"22":2320,"23":1300,"24":2320,"25":2320}},{"layers":[{"inputNeurons":0,"outputNeurons":10,"weights":[],"biases":[1.102813113023476,-0.9447234611049327,0.5413829461038088,0.1674354760548967,0.7555660039433161,-0.010177240644199958,-1.660353446896854,-1.2937268399875814,2.349624865462614,1.307726793213226]},{"inputNeurons":10,"outputNeurons":3,"weights":[[0.436675840521,-0.5430752247261852,-1.6360994827720332],[-0.6452503902243312,-0.30721882609458395,-0.8523359827481809],[0.32135211004429376,-0.8752047269323515,-2.200763217001888],[-0.8599621651178786,0.7111478899269539,-0.5565914342821268],[-0.42440405248252305,0.27912247472643137,-0.5218856283694641],[1.5612748132530594,-1.0811553569281545,-2.006404829060942],[0.29824526593281636,-0.26246322415182755,-0.8607940671824477],[0.21264824779059915,0.6167545062350076,0.5578562907318646],[1.0487088077315123,-0.19481020377321154,0.6041424548142815],[-1.002491307443073,-1.2832225268510025,1.4820541651548877]],"biases":[2.4224343952791854,-0.9226704855142702,-0.6554509235328755]},{"inputNeurons":3,"outputNeurons":1,"weights":[[0.2602701037309181],[0.19643983049068808],[-1.284420329722722]],"biases":[2.182960527453879]}],"scores":{"1":2320,"2":2520,"3":2320,"4":2520,"5":2320,"6":2320,"7":2320,"8":2320,"9":2320,"10":2520,"11":2500,"12":2320,"13":2320,"14":2210,"15":2520,"16":2320,"17":1300,"18":2520,"19":2690,"20":2320,"21":2500,"22":2210,"23":2320,"24":2320,"25":2320}},{"layers":[{"inputNeurons":0,"outputNeurons":10,"weights":[],"biases":[1.0385585836800437,-1.1196642921108906,0.49931357915022767,0.21912655373408732,0.6168525050996873,-0.22904030736638853,-1.4799081674358336,-1.5991076037705887,2.0235504725937026,1.7086263938252257]},{"inputNeurons":10,"outputNeurons":3,"weights":[[0.10166451395033944,-0.8564220200314896,-1.7330153073921521],[-0.35771493994418535,-0.3772839717907053,-0.673282403153412],[0.47138970059133894,-0.5487511906745248,-1.9211794233708246],[-0.9498643619050153,0.41848031037015404,-0.6967941902580004],[-0.840746807264445,0.36739565542318653,-0.3875607054070203],[1.43973540352913,-0.9667681352107688,-2.1831862931856554],[-0.0924030529352942,-0.28554327381778954,-0.9922126327662072],[-0.08848751655609648,1.408696315745511,0.5261230581661347],[0.7882476677263381,-0.363635717699902,0.23767077109027882],[-1.160871805007364,-1.1469991279352854,1.2408945706075891]],"biases":[2.2126998104890765,-0.600212756263878,-0.8404538655823841]},{"inputNeurons":3,"outputNeurons":1,"weights":[[0.10744880793421635],[0.5345354069767616],[-1.3435178754288095]],"biases":[1.9414991989892283]}],"scores":{"1":2360,"2":2320,"3":2440,"4":2320,"5":2320,"6":2320,"7":2320,"8":2320,"9":2320,"10":2320,"11":2320,"12":2320,"13":2320,"14":2320,"15":2320,"16":2320,"17":2320,"18":2320,"19":2320,"20":2320,"21":2320,"22":2320,"23":2320,"24":2520,"25":2320}},{"layers":[{"inputNeurons":0,"outputNeurons":10,"weights":[],"biases":[0.8290097036193549,-0.36842018053054576,0.9427813396535786,0.07361983799198007,1.0917648461053842,0.7537860492793748,-1.0292761470822644,-1.76438632334226,1.882960963857079,1.4712499508641708]},{"inputNeurons":10,"outputNeurons":3,"weights":[[0.13462108748398033,-0.005459044706234595,-0.7668480088734936],[-0.9618207019875131,-0.8832425465127944,-0.8025599788673269],[0.8646271450418815,-0.9300927086499362,-1.236169279386419],[-1.1840492763408916,-0.005016392185193626,-0.736109209852038],[-1.5895225191484406,0.6262477749657127,0.017242460217489958],[1.3173259056845192,-1.2594370249500604,-2.4371220793740793],[0.2624284879200951,0.07738622746926757,-1.2232146042408694],[-0.6909266651504258,0.7821972873637186,0.8320998841775251],[0.7028052410518667,-0.5834806708860059,0.6323843508396526],[-0.8050102719889171,-1.5963633123634542,1.6566333773840012]],"biases":[2.016529884538571,-1.104523164150999,-0.4814450328233692]},{"inputNeurons":3,"outputNeurons":1,"weights":[[0.013211572114774028],[0.4455476216732043],[-1.3215011387763724]],"biases":[1.942875914963793]}],"scores":{"1":2320,"2":2320,"3":2320,"4":2320,"5":2590,"6":2320,"7":2720,"8":2210,"9":2520,"10":3010,"11":2410,"12":2320,"13":2320,"14":2320,"15":1300,"16":2260,"17":1300,"18":2320,"19":2320,"20":2700,"21":2320,"22":2320,"23":2560,"24":2520,"25":2320}},{"layers":[{"inputNeurons":0,"outputNeurons":10,"weights":[],"biases":[1.1570369513676992,-0.2952641808006793,0.1505482010271549,0.05417578887644392,1.0944134460941302,0.7393630182256913,-1.000170652777467,-0.9519337496488314,1.9965943151221743,1.7195553773064287]},{"inputNeurons":10,"outputNeurons":3,"weights":[[0.6968523232077058,-0.35891869200866494,-0.9779217897632637],[-0.6364502063679105,-0.5194619370747334,-0.5332709649041477],[1.0648222869159323,-0.944139709657385,-1.1096282118263223],[-0.8854543373926475,0.39486404255370755,-0.6534716870784186],[-1.5821843245437206,0.7856309861283001,-0.5357875680488783],[1.3966076576802078,-0.8396326518860381,-2.344012407145957],[0.20896239697895552,0.2814171789610944,-1.3196168772533292],[-0.1595276535457384,0.9388151447755634,0.7081483478721525],[0.8487591496133019,-0.6112356268763897,0.18799370779609126],[-1.1324984653158585,-1.5178007728043894,1.3418105306129757]],"biases":[2.326743829510234,-1.303095194166274,0.008600512360791401]},{"inputNeurons":3,"outputNeurons":1,"weights":[[0.05172263797837057],[0.12704218774343934],[-1.1153856638952349]],"biases":[1.9698939351582767]}],"scores":{"1":2320,"2":2340,"3":2320,"4":2520,"5":2320,"6":1300,"7":2320,"8":2320,"9":2520,"10":2320,"11":2320,"12":2320,"13":2520,"14":2320,"15":2520,"16":2520,"17":2320,"18":2320,"19":2320,"20":2320,"21":2320,"22":2320,"23":2320,"24":2520,"25":2320}},{"layers":[{"inputNeurons":0,"outputNeurons":10,"weights":[],"biases":[0.10947515231102567,-0.3554790812358389,0.22399435104132048,0.31319585755959284,1.3023904111894364,0.5183411174323068,-1.051631141450621,-0.9940005211920122,2.101159582389844,1.23897283505821]},{"inputNeurons":10,"outputNeurons":3,"weights":[[0.5745360425585395,-0.4584159210621255,-1.493555246365526],[-0.5508848001851103,-0.5968053984251264,-0.6383184955729455],[1.1279195860026436,-1.2956297169704762,-1.3176917260656131],[-0.8153872689459184,-0.19634189063644303,-0.5406596190081991],[-1.3879441487131758,-0.22917002026783287,-0.1719459061890794],[1.2826191584612556,-0.6812544653745953,-2.1789878637755247],[0.5512918437986086,0.7203818159178732,-0.44093588571025755],[-0.4549301974837115,1.5199443332135267,1.3259842246230793],[-0.26923720703197895,-0.3550150621082643,0.29076974673945766],[-0.9930346827247881,-1.505989629845045,0.6574036861920333]],"biases":[1.5884037335774934,-0.8247736255509632,0.1349424177493024]},{"inputNeurons":3,"outputNeurons":1,"weights":[[0.5671511842735105],[1.0692091575651548],[-1.3133912650739588]],"biases":[1.2406957756504966]}],"scores":{"1":2320,"2":2320,"3":2320,"4":2320,"5":2320,"6":2320,"7":2320,"8":2200,"9":2900,"10":2210,"11":2320,"12":2520,"13":2320,"14":2320,"15":2320,"16":2320,"17":2320,"18":2320,"19":2220,"20":2220,"21":1330,"22":2320,"23":2520,"24":2320,"25":2520}},{"layers":[{"inputNeurons":0,"outputNeurons":10,"weights":[],"biases":[0.5235447582251894,0.039048448191705776,0.2711325649911728,0.5548048934502002,1.1254883275457337,0.40753545685360987,-1.2456257444268766,-0.8565031865436448,2.040870090631854,1.4620362137938014]},{"inputNeurons":10,"outputNeurons":3,"weights":[[1.0225932936634503,-0.43141787337152065,-1.473823063628604],[-1.110514031576167,-0.5360452934530037,-0.848935328232367],[0.9365980893725913,-1.3267691406797957,-1.520574655672505],[-0.40146767023013563,0.27632587670515285,-0.952103445609533],[-1.0443385618158176,0.4341995188941723,0.5687971095079274],[1.4942357447948575,-1.2029870292636877,-2.5139042042978996],[0.5471658856870131,0.033178727639397804,-1.1533572189402932],[-0.48755566370159564,1.0808630484833905,0.8506466657586238],[0.7733586693623113,-0.7110390300770957,0.9086591207950894],[-0.9606620330991515,-1.4789384846357372,1.2189576917541118]],"biases":[1.8923595293349926,-1.2963179971418823,-0.4717803557702238]},{"inputNeurons":3,"outputNeurons":1,"weights":[[0.10233453148034334],[0.23032414129210688],[-1.3282386912075812]],"biases":[2.206305686062174]}],"scores":{"1":2320,"2":2320,"3":2320,"4":2520,"5":2320,"6":2320,"7":1300,"8":2520,"9":2320,"10":2520,"11":2320,"12":2520,"13":2320,"14":2320,"15":2320,"16":2320,"17":2320,"18":2320,"19":2390,"20":2590,"21":2320,"22":2320,"23":2320,"24":1300,"25":2320}},{"layers":[{"inputNeurons":0,"outputNeurons":10,"weights":[],"biases":[0.6962222579344071,-0.7834651885215558,0.7284378847588593,0.3352686640688923,1.025410131995772,-0.011478682034453874,-1.6581247833725796,-1.3552822679391627,2.0909377393008493,1.70165683367373]},{"inputNeurons":10,"outputNeurons":3,"weights":[[0.05734183492864435,-0.8780434300893032,-1.7761544803945302],[-0.36256932288620675,-0.2861592217616828,-1.0933798536511028],[0.4667644458217931,-0.9437707506178167,-1.68459587330438],[-0.6371961874564431,0.015896422685995948,-0.6934801971750393],[-0.33924479936477525,0.4697579893460009,-0.30333199534098276],[1.6734651157415374,-1.1899402329853335,-2.088072728638373],[-0.11101578209528877,0.12591476163496795,-0.6214379599431544],[0.10640497476821392,0.7122442424644571,0.7951622888183509],[0.6919099989043149,-0.19471988680697874,0.18703535755367023],[-1.3167998383626676,-1.0191449308996041,1.2096330219731237]],"biases":[2.378522613654543,-0.6131598988762257,-1.0684366513198522]},{"inputNeurons":3,"outputNeurons":1,"weights":[[0.13197437717886867],[0.5385498894476671],[-1.4220541397225157]],"biases":[1.7601618181372598]}],"scores":{"1":1360,"2":1730,"3":2020,"4":2500,"5":2550,"6":2080,"7":2240,"8":2360,"9":3400,"10":1780,"11":1460,"12":3920,"13":1760,"14":2400,"15":2890,"16":1480,"17":1880,"18":1390,"19":2200,"20":2110,"21":2990,"22":2240,"23":2240,"24":3830,"25":2280}},{"layers":[{"inputNeurons":0,"outputNeurons":10,"weights":[],"biases":[0.9862932916714928,-0.3187589712322211,0.2024648625561281,0.3536035798504049,1.3130883762479337,0.5830358757937283,-1.2688434109851876,-1.2998104652961775,2.0609064858436974,1.2389300744816507]},{"inputNeurons":10,"outputNeurons":3,"weights":[[0.33615733848988516,-0.4585830881944539,-0.9964796170041655],[-0.7553017072961845,-0.39864978811840635,-0.8524156511666614],[0.6114358385586618,-1.2571349413307127,-1.1932278085764434],[-1.3737040563311864,0.05505809875728565,-0.3313853000924712],[-1.399972404101244,0.4296717575969069,-0.22046042285993542],[1.372863597883521,-0.8171925230264218,-2.7484655379727068],[0.48235931899140777,0.06545625390318399,-0.9648041363853513],[-0.08419796745203556,1.0875039246474718,0.5075801010701536],[1.1103652781001934,-0.6178845314611349,0.6249854269915939],[-0.9225362921424877,-1.7698905085769758,1.541763468299736]],"biases":[2.147619353425457,-1.2928226897786617,-0.1773638463210654]},{"inputNeurons":3,"outputNeurons":1,"weights":[[0.29655264889916805],[0.3694027022515211],[-1.6009152364349994]],"biases":[1.902363751699364]}],"scores":{"1":2320,"2":2340,"3":2340,"4":2330,"5":2940,"6":2380,"7":2400,"8":1270,"9":2540,"10":2340,"11":2540,"12":2340,"13":2340,"14":2340,"15":1280,"16":2340,"17":2200,"18":2340,"19":2150,"20":2060,"21":2340,"22":2340,"23":2340,"24":2340,"25":2340}},{"layers":[{"inputNeurons":0,"outputNeurons":10,"weights":[],"biases":[0.6071547763182941,-0.4233996296760742,0.2683238184913048,0.3665053045033045,0.9774806496748305,0.26244129174214376,-1.2028328189705628,-1.142522151795736,1.8470202638576088,1.1178493512352201]},{"inputNeurons":10,"outputNeurons":3,"weights":[[0.37588235814795046,-0.7531397737222769,-1.2797305642366394],[-1.0829247196599927,-0.26092087666606745,-0.5199171009584977],[0.8447436758286269,-1.2058427442425248,-1.467174872574156],[-1.1968617625723503,-0.2055674040502891,-1.0036638072166888],[-1.5561442602633302,0.649286087107736,0.19384684233139038],[1.319090030182765,-0.6747253395746883,-2.2901541996213286],[0.2794214819642259,0.3808995165992103,-1.2390553723352833],[-0.453458943718765,0.9263058714885692,0.38413304200533605],[1.275011100327733,-0.1342088302444414,0.8209431073961905],[-1.0660399295925496,-1.6663535450147127,1.1096017934085678]],"biases":[2.310658470660967,-1.2014548270316396,-0.4239636108589539]},{"inputNeurons":3,"outputNeurons":1,"weights":[[0.3678778136217204],[0.25770657722073076],[-1.6184821161140053]],"biases":[2.074925622102867]}],"scores":{"1":2850,"2":1770,"3":1770,"4":1770,"5":1770,"6":2850,"7":2070,"8":1350,"9":1770,"10":1770,"11":1970,"12":1350,"13":1350,"14":1350,"15":1770,"16":1770,"17":1840,"18":2850,"19":1770,"20":1770,"21":1350,"22":2850,"23":1330,"24":1770,"25":1370}},{"layers":[{"inputNeurons":0,"outputNeurons":10,"weights":[],"biases":[1.0366005631381419,-0.24807288491351445,0.20582310346455068,0.4223002599089342,0.9435225418325244,0.44634750957063785,-0.5431229258176933,-1.1273794063478684,1.6912573319745272,1.3029239388335299]},{"inputNeurons":10,"outputNeurons":3,"weights":[[0.7715482600763683,-0.7524455123742467,-1.0968716848223092],[-0.8805227925529784,-0.788849407341192,-0.9747054650630138],[0.7458072929749913,-1.0352712236842758,-0.9531708337214183],[-1.2683471316599846,0.13309823540427904,-0.7424806401833727],[-1.3818085019361244,0.8991298868811521,-0.3435961171887578],[1.258170114062811,-1.1506987861680098,-2.482223019883229],[-0.3318376482329871,0.22042082745104835,-1.1718662510001856],[-0.703197417748096,1.0429904633684135,0.627393845648611],[0.8594973231097349,-0.41819800540168606,0.6423527654448422],[-1.1803595324659464,-1.5123656734695308,1.1433955264119042]],"biases":[1.959170505247359,-1.4469827689151424,-0.25812893701100154]},{"inputNeurons":3,"outputNeurons":1,"weights":[[0.2908553697868583],[0.38475015139892266],[-1.404688282882777]],"biases":[2.026700995721979]}],"scores":{"1":1400,"2":1420,"3":1710,"4":1700,"5":1510,"6":1620,"7":2860,"8":1660,"9":1670,"10":1460,"11":1650,"12":1650,"13":1680,"14":1390,"15":1460,"16":1660,"17":1860,"18":1120,"19":1670,"20":1760,"21":1680,"22":1680,"23":1570,"24":2650,"25":4260}},{"layers":[{"inputNeurons":0,"outputNeurons":10,"weights":[],"biases":[0.6766164044148998,-0.2677788033071565,0.46487528148189433,0.7018277600875956,0.8893546911510168,0.7600678621718296,-1.047296083576542,-1.4964572265243365,2.2191879624917616,1.6300711078278156]},{"inputNeurons":10,"outputNeurons":3,"weights":[[0.8032429825685274,-0.5632940735521661,-1.5207237721808913],[-0.3373939213923622,-0.12296030009494974,-1.0664004620777698],[1.4060319612203263,-1.2564345950688203,-1.4620159645740323],[-0.6194316313392301,0.1214410635077505,-1.014552462359802],[-0.9039992722256732,0.2098840415050499,-0.09591751070626665],[1.202448051042577,-0.8532335758622079,-2.4997657934187987],[0.8709601392441892,0.04067899728616457,-0.8219764082691622],[-0.6068207428886969,1.3714448900277234,0.9751915579491859],[0.955956598501034,-0.0036538419818430423,0.4278326493150422],[-0.951841800373415,-1.6364656348201367,1.0508745218342213]],"biases":[1.9615643779802192,-0.7065343981985166,-0.31199542706471706]},{"inputNeurons":3,"outputNeurons":1,"weights":[[0.25976543416775477],[0.4122111757123466],[-1.271389561946666]],"biases":[2.346195074089268]}],"scores":{"1":1930,"2":1680,"3":1410,"4":1860,"5":1750,"6":3840,"7":1770,"8":1640,"9":1540,"10":1820,"11":1620,"12":1410,"13":1840,"14":980,"15":1610,"16":1760,"17":1700,"18":2290,"19":1820,"20":1820,"21":1820,"22":1610,"23":1470,"24":1510,"25":2230}},{"layers":[{"inputNeurons":0,"outputNeurons":10,"weights":[],"biases":[1.0740902656446987,-1.0416353015807656,0.28671631857657326,0.47216273868596526,1.3537958095808011,0.21483182901029202,-1.5500081583888727,-1.210420959043453,2.3091293330520704,1.5702147324095]},{"inputNeurons":10,"outputNeurons":3,"weights":[[0.03130138091004171,-0.9300728274207879,-1.6619152758413573],[-0.7577261785282529,-0.4402941606681219,-0.7442801510686493],[0.4546440686093536,-0.7397739946761609,-1.6202473856425117],[-1.0446087348643602,0.60069968401343,-0.7625560924538772],[-0.7771324783334689,0.7733055203398048,-0.1652424513574081],[1.669805988183867,-0.872105756012769,-2.1493730082086078],[-0.11920631544467367,-0.257619194761243,-0.8727335361948337],[0.3514965748475015,1.1814275649486465,0.6663175986441284],[0.9506277009008368,-0.5499901806954506,-0.2632234218138026],[-1.3106374008687691,-1.014157168506439,1.4383336674213099]],"biases":[2.5949518545289596,-0.7821477100968399,-0.44907446202005985]},{"inputNeurons":3,"outputNeurons":1,"weights":[[0.10531212846976135],[0.4921797561834066],[-1.461190428108472]],"biases":[2.1764111344286463]}],"scores":{"1":1670,"2":1650,"3":1840,"4":1160,"5":1160,"6":1160,"7":2820,"8":1680,"9":1680,"10":1940,"11":660,"12":1690,"13":2780,"14":1620,"15":2040,"16":1010,"17":1700,"18":3400,"19":1650,"20":1440,"21":1620,"22":1680,"23":1790,"24":1160,"25":2820}},{"layers":[{"inputNeurons":0,"outputNeurons":10,"weights":[],"biases":[1.21962527179336,-0.9646128144301527,0.46348274725912897,0.11942407565024268,1.130172770507966,0.06378102733958706,-1.6861886675377578,-1.2216667599741036,2.5512220666615106,1.354539462235172]},{"inputNeurons":10,"outputNeurons":3,"weights":[[0.09528928300984078,-0.5569599963026164,-1.6696343470557988],[-0.5519876452352468,-0.1656367621563653,-0.6614040411935601],[0.5030469705803703,-0.7488765678753457,-1.962232177269565],[-0.6377098656977316,0.575644176327793,-0.6674785863999242],[-0.8426058713963144,0.33966470132825277,-0.4887860628012834],[1.7782111177974362,-0.786616388762791,-1.930747146581545],[-0.3200589529522143,-0.3144629558194212,-0.9890172710820945],[-0.03229195966138075,0.7505643925891304,0.39707298990236295],[1.1120276951911625,0.07430325575047098,0.6429848645817369],[-1.079786809871926,-1.137020851868705,1.1062983652446374]],"biases":[2.538560660663715,-0.5173098957896174,-0.9635047120230847]},{"inputNeurons":3,"outputNeurons":1,"weights":[[0.14934652175016794],[0.3665462847494977],[-1.3604763018368031]],"biases":[1.7088355272181286]}],"scores":{"1":1710,"2":1300,"3":1710,"4":1270,"5":1710,"6":1710,"7":1310,"8":1780,"9":2850,"10":1710,"11":1710,"12":1710,"13":1320,"14":1710,"15":1710,"16":1710,"17":2540,"18":1710,"19":1710,"20":1710,"21":1710,"22":2320,"23":1280,"24":1710,"25":1290}},{"layers":[{"inputNeurons":0,"outputNeurons":10,"weights":[],"biases":[0.4688868575692637,-0.1829539336826174,0.1459326055112859,0.18442832379099694,1.0272062267232764,0.614219232928811,-1.0297131178588947,-1.6318571112983227,1.588395806862542,1.1141406214085356]},{"inputNeurons":10,"outputNeurons":3,"weights":[[0.7462014676230129,-0.6443497279985229,-1.3802032377540634],[-0.5982538550405124,-0.9658255108609896,-0.48701735473587365],[1.2843544798573596,-0.7406400574121623,-1.6949653635536603],[-0.8526422159601219,-0.2379151907612771,-0.3740011715185732],[-1.308505787596608,-0.13610023098977228,-0.20285068395593242],[1.9107060741192816,-0.8853522470770072,-2.2724632678997576],[0.24294420591115393,0.29676030599190817,-0.765251660456297],[-0.6106393070172893,1.2672926691685305,1.5591413126359992],[0.41085268269151753,-0.08974625830504684,-0.018108341388167803],[-1.0913861834538816,-1.4811192779308253,0.6688405459995129]],"biases":[1.4763882619934414,-1.7355462518096778,0.33450407799973075]},{"inputNeurons":3,"outputNeurons":1,"weights":[[0.43966513290603587],[1.4819943551575543],[-1.6549898119639634]],"biases":[1.5366814116371124]}],"scores":{"1":1680,"2":1540,"3":1710,"4":1840,"5":1440,"6":1470,"7":1600,"8":1680,"9":1670,"10":1680,"11":1680,"12":1030,"13":1630,"14":1610,"15":1520,"16":1440,"17":3450,"18":1660,"19":1600,"20":1430,"21":1650,"22":1610,"23":1670,"24":1680,"25":1890}},{"layers":[{"inputNeurons":0,"outputNeurons":10,"weights":[],"biases":[1.4286783925142585,-1.2507655034517182,0.46056703014076783,0.37184771691204477,0.6765464690990415,-0.12427133417033205,-1.3046782197755706,-1.410747386385074,2.298954243712672,1.4993443681310308]},{"inputNeurons":10,"outputNeurons":3,"weights":[[0.22895791560530016,-0.40076697729944627,-1.7539916665794244],[-0.6341606213133344,-0.05478860721721193,-0.8208622626405719],[0.30420729827452336,-0.9258925398990143,-1.9839022202685703],[-0.7736782029291901,0.6149735211738192,-0.8876041109618785],[-0.46529243587862623,0.6783223749956573,-0.391783402187608],[1.6920880217477365,-1.2660089616300505,-2.193836067035358],[-0.5069722624697,0.006939107951899441,-0.7512856713893824],[0.0778178186589279,0.6377784872791561,0.8075231639460201],[0.9009213661051135,-0.25890878859232075,0.4791672688743647],[-1.2557629103290824,-0.8105238612065567,1.115877904664255]],"biases":[1.9828218342417674,-1.0174633946888991,-0.7575439630440665]},{"inputNeurons":3,"outputNeurons":1,"weights":[[0.5212436934578083],[0.5427977070008015],[-0.8583582263347449]],"biases":[2.3278097456028233]}],"scores":{"1":1640,"2":1570,"3":1460,"4":1680,"5":1750,"6":1760,"7":1650,"8":1680,"9":1410,"10":1440,"11":1680,"12":1480,"13":1650,"14":1460,"15":1760,"16":3430,"17":1680,"18":1680,"19":1760,"20":1400,"21":1650,"22":1550,"23":1760,"24":1680,"25":1120}},{"layers":[{"inputNeurons":0,"outputNeurons":10,"weights":[],"biases":[0.7197717548922968,-0.019321437875406078,0.31855550697614843,-0.09481181133000904,0.8629245201352308,0.3616363988089768,-1.2919970689447795,-1.5315995872529027,1.7475872857922483,1.4521567515890526]},{"inputNeurons":10,"outputNeurons":3,"weights":[[0.39545880069950534,-0.5792644549256147,-0.9290436748525588],[-0.3651476042597343,-0.38659159377868957,-0.7705631860581056],[0.9501512565747854,-0.8891722889153982,-1.1051717026307115],[-1.0730042886720352,-0.27307162156643716,-1.2675452143728676],[-1.534636737471653,0.9949552072871907,-0.07502485558606167],[1.603821681876014,-0.9551757045773652,-2.3888927663641777],[0.18691324328302228,0.0808759527142493,-0.6441007161808778],[-0.37929205786406095,1.1996468075430817,0.8313044627775417],[0.570009792696589,-0.44754196187295936,0.20674477823207765],[-1.0696976949274737,-1.4665943139523099,1.5950437067596424]],"biases":[2.3209786801635226,-1.1453958819701229,-0.9047258678048749]},{"inputNeurons":3,"outputNeurons":1,"weights":[[0.3462287175841182],[0.10556355127164901],[-1.6422633161161886]],"biases":[1.749205238709524]}],"scores":{"1":1460,"2":1400,"3":1840,"4":1620,"5":1660,"6":1640,"7":1680,"8":1660,"9":1400,"10":1660,"11":1580,"12":1670,"13":1880,"14":1680,"15":1700,"16":1610,"17":1610,"18":1450,"19":1760,"20":1700,"21":1420,"22":1840,"23":1840,"24":1700,"25":1760}},{"layers":[{"inputNeurons":0,"outputNeurons":10,"weights":[],"biases":[1.2238134699525216,-1.1511900552798755,0.40806995170053817,-0.40156254540691605,1.1569361387923354,0.1806649233746168,-1.387641690888258,-1.4954684635859257,2.351746471968604,1.6540224347682488]},{"inputNeurons":10,"outputNeurons":3,"weights":[[0.3108593713111102,-0.9286921637358565,-1.4571479962577916],[-0.7844192556732029,-0.06522346042125465,-0.9877867504584943],[0.47563939656384246,-0.7920014551674375,-2.0116798081351277],[-0.6529059537051292,0.3139778702764433,-0.9996778206043782],[-0.7973747374001495,0.5175186367423867,-0.5470737826375978],[1.954402695857623,-1.4159611381443942,-2.620551110804448],[0.016669159117540744,-0.018877346057915773,-0.8481986270947418],[0.14020796968325538,0.8320570812244268,0.5969345200435545],[0.8376881459893601,-0.6313022331207604,0.4198799497446998],[-1.248058686899057,-1.0722693916919497,1.0620742293399126]],"biases":[2.364471220393753,-0.5187719861225051,-0.8718722211026406]},{"inputNeurons":3,"outputNeurons":1,"weights":[[0.5728982927935596],[0.8935139412772914],[-1.1150516518012321]],"biases":[2.090039852188472]}],"scores":{"1":1610,"2":1280,"3":1690,"4":1840,"5":1760,"6":1760,"7":1680,"8":1340,"9":1690,"10":1460,"11":1770,"12":1280,"13":1180,"14":1690,"15":1670,"16":1660,"17":1770,"18":1680,"19":1690,"20":1680,"21":1850,"22":1840,"23":1760,"24":1750,"25":1680}},{"layers":[{"inputNeurons":0,"outputNeurons":10,"weights":[],"biases":[0.7263611655295708,0.049408182973971204,0.5409340586825717,0.2513285658522,0.9814412787732076,1.0608076038254077,-1.2378527610072962,-1.560470902911691,2.2735770705969798,1.5165743656464206]},{"inputNeurons":10,"outputNeurons":3,"weights":[[0.551812819604433,-0.37532905342760103,-1.4895799488769448],[-0.669846864950139,-0.5625781650873036,-1.0134537828751427],[1.2928293592395248,-1.1849932164617691,-1.5689123477797908],[-0.26838994327992133,0.6854364929650152,-1.081693022924894],[-0.8224568484112876,0.6298142487366407,0.07557674613044596],[1.2343490095999619,-1.2821633627514168,-2.598545313242773],[0.5379899617210547,-0.035641058807244635,-0.635261702073246],[-0.5748789328166102,1.3070971257495547,0.5426613523964315],[0.8123020267154818,-0.5179964880141725,0.5942039230853725],[-1.1549562334615215,-1.8028032648756263,1.4666897841698334]],"biases":[2.05964293450139,-0.8079485983178305,-0.9994643515049868]},{"inputNeurons":3,"outputNeurons":1,"weights":[[0.515050056616288],[0.26375416213715885],[-1.4206716877688774]],"biases":[1.8148374890760177]}],"scores":{"1":1460,"2":1630,"3":1660,"4":1670,"5":1660,"6":1500,"7":1490,"8":1710,"9":1530,"10":1600,"11":1680,"12":1500,"13":1680,"14":790,"15":1530,"16":4660,"17":1550,"18":1770,"19":1470,"20":1030,"21":1680,"22":1650,"23":1210,"24":1350,"25":1500}},{"layers":[{"inputNeurons":0,"outputNeurons":10,"weights":[],"biases":[1.098981517142593,-0.25918758835151035,0.38978874469334573,0.08318461336175137,0.9690400670069453,0.4957550250761285,-1.0748461266270122,-1.1658804819089645,1.8748853183199585,1.0290233186537707]},{"inputNeurons":10,"outputNeurons":3,"weights":[[0.6722104773468031,-0.37296900534471017,-1.5221050845855888],[-0.9508677644407985,-0.4591559585845215,-0.6886462991724551],[1.045113701077744,-1.1170126925396267,-1.602220541140168],[-1.0574157630167287,-0.11322031216065528,-0.9390611064046006],[-1.7656085450043242,0.5616733395189533,-0.3653206257908193],[1.3310163669516164,-1.1997453660885669,-2.583321841927309],[-0.00439252739872216,0.125911308452029,-1.0592331792940972],[-0.42303042233383076,0.9168678591424033,0.642134489521138],[0.8816106489860294,-0.2355668420121408,0.22306892300854997],[-1.3902060997654142,-1.5794197998063033,1.4694618201501302]],"biases":[1.7959349141750185,-0.6909557104192062,-0.3279376896546928]},{"inputNeurons":3,"outputNeurons":1,"weights":[[0.14279915038790855],[0.5017525825484896],[-1.1924192710742094]],"biases":[1.830718987197946]}],"scores":{"1":1760,"2":1520,"3":1540,"4":1760,"5":1850,"6":1760,"7":1260,"8":1450,"9":1180,"10":1520,"11":1660,"12":1230,"13":1840,"14":1760,"15":1490,"16":1840,"17":1630,"18":1680,"19":1840,"20":1510,"21":1030,"22":1700,"23":1680,"24":1870,"25":1700}},{"layers":[{"inputNeurons":0,"outputNeurons":10,"weights":[],"biases":[0.6476932752763589,-0.16514090970833964,0.6089094092168335,0.7270407723705593,0.6320470175891177,0.7356844333972477,-0.7585198354926755,-1.131653608536918,2.327212657859026,1.906968765134109]},{"inputNeurons":10,"outputNeurons":3,"weights":[[1.0436167029709438,-0.32226827624032806,-1.2396324194470616],[-1.0989324088377157,-0.6226770125249366,-0.8410897512161148],[1.3674290406682856,-1.444905498024005,-1.3472064535387058],[-0.7432616067061201,-0.09694957223306228,-1.3637750701226072],[-1.2102778566848431,0.9264516998571201,0.1025907663396646],[1.3098224237259601,-1.3848091203600468,-2.1778545894840464],[0.8004845965967995,-0.22692851544996293,-0.7645364097564772],[-0.5283259474496165,0.9630783499730278,0.6707743448741272],[1.1547699206726825,-0.6284169332440505,0.6189477611566181],[-1.3862475432102546,-1.0996900003793442,1.1782098900604037]],"biases":[1.6601460617247328,-1.6075452813084605,-0.4854148159125685]},{"inputNeurons":3,"outputNeurons":1,"weights":[[0.2837464971078896],[0.6876446378241963],[-1.2978573063916183]],"biases":[1.764374309654409]}],"scores":{"1":1760,"2":1680,"3":1820,"4":2070,"5":1030,"6":1820,"7":1330,"8":1060,"9":1250,"10":1490,"11":1590,"12":1500,"13":1670,"14":1640,"15":1860,"16":1140,"17":1670,"18":2150,"19":1670,"20":1610,"21":1660,"22":1700,"23":1460,"24":1820,"25":1600}},{"layers":[{"inputNeurons":0,"outputNeurons":10,"weights":[],"biases":[0.9210188661641141,-0.4137027323251692,0.4999935117047231,0.6991047199268419,1.1635103538224139,0.46097673868657685,-1.3203916227847823,-0.9496132950243343,2.0913372028859243,1.494302971955775]},{"inputNeurons":10,"outputNeurons":3,"weights":[[0.24030896452669853,-0.14899158917744948,-1.1991620181180247],[-1.2132718717059507,-0.415617449010369,-0.7699448266051961],[0.4946296711352953,-0.9896002498041356,-1.6211218703600605],[-0.9001400616744131,0.22245264782387766,-0.8227776715315559],[-1.0395915069177666,0.9948637934575701,-0.14405351077987472],[1.5287515304458583,-0.9974795652892942,-2.0702508968933566],[0.041994518522793,0.40289780444787954,-0.9102701150548165],[-0.8098200442788056,0.8423698810792696,0.49718242677622543],[1.0968313383209447,-0.5945307447705787,0.47429633682926686],[-1.091486315004782,-1.5972763571805664,1.594600018051635]],"biases":[1.5758450021013908,-1.0581132202421657,-0.45339702979140883]},{"inputNeurons":3,"outputNeurons":1,"weights":[[0.37367499377854085],[0.41267706595834147],[-1.7996564366902634]],"biases":[1.8495784450997477]}],"scores":{"1":1690,"2":1520,"3":1310,"4":2040,"5":1690,"6":1680,"7":1020,"8":1500,"9":1830,"10":1620,"11":1680,"12":1450,"13":1670,"14":1410,"15":1050,"16":1510,"17":1910,"18":1910,"19":1810,"20":1500,"21":1840,"22":1470,"23":1840,"24":1960,"25":1130}},{"layers":[{"inputNeurons":0,"outputNeurons":10,"weights":[],"biases":[0.7427092086285365,-0.30575308904701093,0.5782604722924156,0.398235603546625,0.8920217556184612,0.4047411087794839,-1.0619432379854294,-1.0232811263526915,2.060592255782301,1.3978253084443966]},{"inputNeurons":10,"outputNeurons":3,"weights":[[0.3467564314071471,-0.6011534417688335,-1.244838909508592],[-0.8865140123606481,-0.07620172713670292,-0.7879429685796582],[0.7815307245262386,-0.8311446734066327,-1.2756469923127496],[-1.0197125164107677,0.02180402061652735,-0.7532608912362724],[-1.2268472148104403,0.9272011345390865,-0.2087979842703114],[1.418313604647505,-0.8747137806561307,-2.5593121057766584],[0.25378382795822096,0.28061849934338623,-0.8278197771794356],[-0.24190085636052683,0.9787786908118584,0.49096052544239815],[0.7417614269048967,-0.5336071885005025,0.4156272863034525],[-0.7493260553561032,-1.6945079097327913,1.46220477908531]],"biases":[1.7105593724374564,-1.2879472005395192,-0.4060898343091803]},{"inputNeurons":3,"outputNeurons":1,"weights":[[0.19386135206060012],[0.32728179597627843],[-1.5977607690474709]],"biases":[2.1960735616441633]}],"scores":{"1":1780,"2":1710,"3":2240,"4":1710,"5":1710,"6":1310,"7":1710,"8":1710,"9":2340,"10":1330,"11":1320,"12":1710,"13":1710,"14":1710,"15":1710,"16":1710,"17":1270,"18":1340,"19":1280,"20":1290,"21":1710,"22":1260,"23":1710,"24":1320,"25":1320}},{"layers":[{"inputNeurons":0,"outputNeurons":10,"weights":[],"biases":[0.9182539197614054,0.11258171575505221,0.3829825147427748,0.2452022179993194,0.9148195721113974,0.43000994386378955,-0.9724542196207138,-0.9086737598521173,2.0969008063650474,1.8381994502340346]},{"inputNeurons":10,"outputNeurons":3,"weights":[[0.6325643884726105,-0.10784214609666964,-1.5006620237850399],[-0.5496832400380938,-0.7528200069293078,-1.148265362024755],[1.3069950275133786,-1.3103846567999773,-1.5063567864304481],[-0.5754215060832518,0.04475093631662952,-1.3120483264276817],[-1.1148274637602404,0.756342995189467,-0.20286056372925138],[1.3607780304609918,-0.7900472847936112,-2.3228699701514937],[0.6515498143894849,0.14353557934605257,-0.9120061454352673],[-0.41715845975072696,1.308182341853965,0.7216798449054531],[1.0531565821809359,-0.8126722123974668,0.49480940638120974],[-1.6367381188367063,-1.7023321046493471,1.1274694355554018]],"biases":[1.9470101884310034,-1.2666999503412475,-0.6769442281045039]},{"inputNeurons":3,"outputNeurons":1,"weights":[[0.37446982960767483],[0.09735158342655764],[-1.7696473962452868]],"biases":[2.003163260871558]}],"scores":{"1":1430,"2":1460,"3":1710,"4":1680,"5":1840,"6":1840,"7":1500,"8":1700,"9":1680,"10":1630,"11":1400,"12":1620,"13":1290,"14":1640,"15":1460,"16":1490,"17":1470,"18":1910,"19":1610,"20":1670,"21":1680,"22":1650,"23":1080,"24":1840,"25":1450}},{"layers":[{"inputNeurons":0,"outputNeurons":10,"weights":[],"biases":[1.087025445760217,-1.0895010452060965,0.5300202913134977,0.2761326568873867,0.6795517578731236,0.048862940335417264,-1.7704398270829593,-1.4926133443951584,2.7553236957707825,1.3264260440495457]},{"inputNeurons":10,"outputNeurons":3,"weights":[[-0.1422727204523977,-0.5654542666244613,-1.7712843838901913],[-0.6267884059129789,-0.5103915596169207,-0.5409393246100151],[0.3432201007380311,-0.8628329122745503,-2.0936306784416194],[-0.6110270955834645,0.019737444137249316,-0.4225215914961069],[-0.9111112955250855,0.203442135578215,-0.48199694287214984],[1.4320674230020178,-0.9850332482969222,-2.1549730258667137],[-0.6893821086231277,-0.04206699074691858,-0.6890650884389437],[0.25434272244958817,0.9539427692499216,0.40289689569067566],[1.0807801087883977,-0.25925447012105124,0.32333571592444776],[-0.9991162154061645,-1.5457442259910348,1.2604534943701102]],"biases":[2.6540327880173993,-0.4909521048965432,-0.5011057518668907]},{"inputNeurons":3,"outputNeurons":1,